tree
version=v4
num_class=1
num_tree_per_iteration=1
label_index=0
max_feature_idx=8
objective=binary sigmoid:1
feature_names=Column_0 Column_1 Column_2 Column_3 Column_4 Column_5 Column_6 Column_7 Column_8
feature_infos=[0:11] [0:69] [0:12] [124587:201897] [0:3] [0:23] [0:15] [51873:241116] [-1:100]
tree_sizes=1677 1669 1659 1672 1669 1681 1672 1684 1689 1672 1679 1674 1679 1682 1680 1686 1682 1676 1680 1687 1668 1689 1687 1670 1665 1681 1666 1672 1688 1695 1679 1668 1677 1688 1676 1681 1684 1681 1669 1675 1673 1689 1672 1689 1673 1683 1681 1691 1677 1667 1690 1683

Tree=0
num_leaves=15
num_cat=0
split_feature=7 7 8 5 6 5 4 8 5 0 1 1 5 5
split_gain=859.555 1685.16 15.1106 12.7421 9.2223 9.84499 6.83932 6.06736 7.73495 5.78552 5.31026 5.27504 10.1545 6.20865
threshold=94406.000000000015 94402.000000000015 50.108224868774421 20.500000000000004 4.5000000000000009 22.500000000000004 2.5000000000000004 55.662393569946296 12.500000000000002 9.5000000000000018 35.500000000000007 26.500000000000004 19.500000000000004 20.500000000000004
decision_type=2 2 2 2 2 2 2 2 2 2 2 2 2 2
left_child=1 -1 9 6 10 -6 -4 8 -8 -3 -5 13 -13 -11
right_child=-2 2 3 4 5 -7 7 -9 -10 11 -12 12 -14 -15
leaf_value=-0.85407165664696783 -0.85407165664696783 -0.56375615478620533 -0.70349134605539421 -0.55721333005215112 -0.61820692235751173 -0.50271759859996257 -0.71658528610683536 -0.55618761743506573 -0.4926789112271911 -0.52839796164658759 -0.40233072487224686 -0.53861011211154808 -0.47319204750357557 -0.60089816741058577
leaf_weight=290.6533077955246 290.6533077955246 79.913057208061218 3.320487141609191 7.747803330421446 100.05734586715698 7.9691691398620597 5.0914136171340934 233.98366057872772 2.2136580944061279 28.55618941783905 3.0991213321685791 79.24895977973938 33.868968844413757 20.144288659095764
leaf_count=1313 1313 361 15 35 452 36 23 1057 10 129 14 358 153 91
internal_value=-0.704643 -0.656163 -0.561117 -0.574003 -0.600861 -0.609687 -0.560951 -0.55899 -0.648735 -0.541742 -0.512961 -0.53087 -0.519023 -0.558387
internal_weight=0 895.867 605.214 363.483 118.873 108.027 244.609 241.289 7.30507 241.731 10.8469 161.818 113.118 48.7005
internal_count=5360 4047 2734 1642 537 488 1105 1090 33 1092 49 731 511 220
is_linear=0
shrinkage=1


Tree=1
num_leaves=15
num_cat=0
split_feature=2 0 4 6 1 6 1 0 3 3 0 2 2 1
split_gain=958.751 300.28 180.95 41.9163 28.8257 29.5471 22.4243 22.4048 12.949 12.5751 12.4211 11.5623 11.4696 10.2369
threshold=4.5000000000000009 7.5000000000000009 2.5000000000000004 5.5000000000000009 20.500000000000004 3.5000000000000004 1.0000000180025095e-35 6.5000000000000009 134119.50000000003 145121.50000000003 9.5000000000000018 3.5000000000000004 3.5000000000000004 1.0000000180025095e-35
decision_type=2 2 2 2 2 2 2 2 2 2 2 2 2 2
left_child=1 7 -3 4 6 11 -4 9 -5 -1 -7 -6 -10 -14
right_child=-2 2 3 8 5 10 -8 -9 12 -11 -12 -13 13 -15
leaf_value=-0.092812507235228284 -0.14256781395234996 -0.12880654349243401 0.098423228359079393 0.1523582917366742 -0.14256781395234996 0.075099968206153223 0.27715824086292085 -0.13551302481736516 -0.14256781395234996 0.28054808030072131 0.027494640721482284 0.12365225985647646 0.017083362085843237 0.10900665407897825
leaf_weight=1.602570861577987 338.43848538398743 40.701694741845131 22.7781802713871 66.201773017644882 1.6754380464553822 76.451986536383629 10.14602008461952 79.039703339338303 1.8848678022623051 2.0638705939054489 193.60243694484234 62.08448038995266 12.677837759256361 272.81268525123596
leaf_count=7 1616 193 99 286 8 338 44 376 9 9 867 270 55 1183
internal_value=0 0.0566606 0.0763275 0.0879187 0.0642325 0.0554278 0.153503 -0.124303 0.112486 0.117355 0.0409716 0.116657 0.103301 0.104925
internal_weight=0 843.724 761.017 720.316 366.739 333.814 32.9242 82.7061 353.577 3.66644 270.054 63.7599 287.375 285.491
internal_count=5360 3744 3352 3159 1626 1483 143 392 1533 16 1205 278 1247 1238
is_linear=0
shrinkage=0.1


Tree=2
num_leaves=15
num_cat=0
split_feature=2 7 7 4 6 3 6 5 3 5 3 3 0 5
split_gain=811.906 842.741 153 6.14396 6.15731 5.02601 7.38115 5.83705 5.78904 4.53643 5.40681 4.99051 4.28721 5.31921
threshold=4.5000000000000009 94402.000000000015 94406.000000000015 2.5000000000000004 9.5000000000000018 129101.50000000001 5.5000000000000009 22.500000000000004 200859.50000000003 20.500000000000004 134507.00000000003 133687.00000000003 10.500000000000002 21.500000000000004
decision_type=2 2 2 2 2 2 2 2 2 2 2 2 2 2
left_child=1 -1 3 4 -3 -5 8 9 -7 -8 11 -11 -12 -14
right_child=-2 2 -4 5 -6 6 7 -9 -10 10 12 -13 13 -15
leaf_value=-0.14085859552061522 -0.13691178429164699 -0.040167799520549233 -0.13991794976076691 0.1472430492307035 0.2245962303907712 0.12361028283317849 0.10461357388513731 0.17754708953100826 0.011426570358003683 0.092737663713540711 0.057312183701424983 -0.03688592216420522 0.12572734634984964 0.040849687338772964
leaf_weight=181.6535105407238 318.21796417236328 4.7330201566219321 25.18232236802578 38.58061084151268 1.0785139650106428 278.63544575870037 225.72286368906498 9.32140204310417 4.6770996600389472 5.0239041745662671 27.955717816948891 7.2655413299798965 34.299715057015419 9.4088529795408231
leaf_count=886 1616 22 124 161 5 1183 948 39 20 21 119 31 145 40
internal_value=0 0.0502416 0.101908 0.111325 0.00896754 0.112253 0.110012 0.0995791 0.121758 0.0972322 0.0773864 0.016104 0.0878954 0.107456
internal_weight=0 853.539 671.885 646.703 5.81153 640.891 602.311 318.998 283.313 309.677 83.9537 12.2894 71.6643 43.7086
internal_count=5360 3744 2858 2734 27 2707 2546 1343 1203 1304 356 52 304 185
is_linear=0
shrinkage=0.1


Tree=3
num_leaves=15
num_cat=0
split_feature=2 7 7 8 1 1 5 6 5 1 5 8 1 6
split_gain=692.639 693.288 123.36 10.4495 8.60662 23.8293 7.35622 5.84856 8.09472 5.3476 5.29582 6.99686 5.0082 5.08032
threshold=4.5000000000000009 94402.000000000015 94406.000000000015 50.108224868774421 1.0000000180025095e-35 20.500000000000004 20.500000000000004 4.5000000000000009 22.500000000000004 22.500000000000004 8.5000000000000018 20.02506256103516 26.500000000000004 5.5000000000000009
decision_type=2 2 2 2 2 2 2 2 2 2 2 2 2 2
left_child=1 -1 3 10 -5 -6 9 -8 -9 -7 11 -3 -12 -14
right_child=-2 2 -4 4 5 6 7 8 -10 -11 12 -13 13 -15
leaf_value=-0.13550786631900558 -0.13218880860197033 0.079777761737997485 -0.13472168093167133 0.030148248322225721 0.22984318800183734 0.051924414264096302 0.13680886640801951 0.050459172108696153 0.15447090977591266 0.10139283288841357 0.097699307209197325 0.17881935045966596 0.15397391985076822 0.11468986334923036
leaf_weight=170.51665304601192 297.68497729301453 65.905819565057755 23.618693143129349 24.48171392083168 12.023915037512777 24.251110479235649 10.52811463177204 95.729712307453156 8.1167498081922513 220.94663110375404 58.688342168927193 7.9986150115728369 61.047055825591087 71.449189022183418
leaf_count=886 1616 271 124 103 49 100 43 402 33 912 243 33 252 293
internal_value=0 0.0449148 0.0898413 0.0978633 0.0875785 0.0913621 0.0867314 0.0657889 0.0585888 0.0965002 0.11323 0.0904969 0.122018 0.13279
internal_weight=0 855.302 684.786 661.167 396.078 371.596 359.572 114.375 103.846 245.198 265.089 73.9044 191.185 132.496
internal_count=5360 3744 2858 2734 1642 1539 1490 478 435 1012 1092 304 788 545
is_linear=0
shrinkage=0.1


Tree=4
num_leaves=15
num_cat=0
split_feature=2 7 7 8 5 6 8 8 8 5 6 5 8 8
split_gain=594.858 575.949 100.646 8.18514 7.15989 10.7029 6.66151 5.9126 12.4753 4.87857 5.32023 4.60207 8.40531 4.44485
threshold=4.5000000000000009 94402.000000000015 94406.000000000015 47.633054733276374 8.5000000000000018 14.500000000000002 91.042778015136733 62.533422470092781 67.556819915771499 8.5000000000000018 14.500000000000002 4.5000000000000009 74.933155059814467 60.952981948852546
decision_type=2 2 2 2 2 2 2 2 2 2 2 2 2 2
left_child=1 -1 3 9 5 11 -7 13 -9 10 -3 12 -5 -6
right_child=-2 2 -4 4 7 6 -8 8 -10 -11 -12 -13 -14 -15
leaf_value=-0.13102189859834071 -0.1282030438179948 0.082344767686807818 -0.13035786742148678 -0.013992441636711248 0.035970386560240673 0.075172316557125363 -0.17764627830263685 0.19804789118587859 0.069622238813942458 0.10883422607780574 -0.10950088397545524 0.12502987374682367 0.099332647848639127 -0.10153933620036174
leaf_weight=159.2964621335268 277.29416036605835 71.636230379343033 22.049130648374557 7.5063229203224173 18.497782155871395 1.9707616120576847 2.2119857966899872 7.7918927669525138 258.55704917013645 191.69807574152946 1.4752980619668949 55.329122871160507 51.098117515444756 2.6928648799657813
leaf_count=886 1616 291 124 31 76 8 9 32 1060 777 6 225 208 11
internal_value=0 0.0404258 0.0798632 0.0867766 0.0778495 0.098578 -0.0585272 0.0693346 0.0733793 0.100452 0.0784736 0.104346 0.0848175 0.0184959
internal_weight=0 851.811 692.515 670.466 405.656 118.116 4.18275 287.54 266.349 264.81 73.1115 113.934 58.6044 21.1906
internal_count=5360 3744 2858 2734 1660 481 17 1179 1092 1074 297 464 239 87
is_linear=0
shrinkage=0.1


Tree=5
num_leaves=15
num_cat=0
split_feature=7 7 1 1 3 1 6 5 3 3 6 4 3 3
split_gain=422.539 655.935 5.71811 27.1541 5.89272 5.70309 5.1433 4.81393 5.25045 4.80117 4.38278 4.35604 4.19217 3.97922
threshold=94402.000000000015 94406.000000000015 1.0000000180025095e-35 20.500000000000004 134119.50000000003 22.500000000000004 5.5000000000000009 18.500000000000004 182894.00000000003 143619.50000000003 4.5000000000000009 2.5000000000000004 129101.50000000001 129847.00000000001
decision_type=2 2 2 2 2 2 2 2 2 2 2 2 2 2
left_child=-1 2 4 -4 -2 7 -6 8 10 -9 -5 -7 -13 -14
right_child=1 -3 3 5 6 11 -8 9 -10 -11 -12 12 13 -15
leaf_value=-0.12646414620328414 0.18535467807810718 -0.12499004605856492 0.19768640426484949 0.12013745890995287 0.060275989005080736 -0.026730526036862948 -0.013289237589229418 0.1298250560566506 0.13587312227689777 0.020164510052136292 -0.0085046775769507549 0.11336682685352067 0.025660180602364802 0.078916140828586459
leaf_weight=216.22342969477177 2.6959139704704276 209.87059472501278 18.948477998375893 2.9659768342971864 25.329308524727821 3.8740289956331244 15.211140632629393 10.068547457456591 3.4629397988319388 6.6159576773643485 24.734201788902283 34.651060059666634 14.424357935786245 513.32175573706627
leaf_count=1313 11 1313 76 12 103 17 63 41 14 27 100 139 58 2073
internal_value=0 0.0294521 0.0773786 0.0797816 0.0421938 0.0761437 0.0326737 0.0429916 0.0197826 0.086341 0.00526959 0.0789449 0.0796728 0.0774605
internal_weight=0 886.174 676.304 633.067 43.2364 614.119 40.5404 47.8476 31.1631 16.6845 27.7002 566.271 562.397 527.746
internal_count=5360 4047 2734 2557 177 2481 166 194 126 68 112 2287 2270 2131
is_linear=0
shrinkage=0.1


Tree=6
num_leaves=15
num_cat=0
split_feature=2 7 7 3 5 5 5 6 3 3 3 3 5 3
split_gain=445.245 406.367 68.8346 3.88918 4.43113 3.29734 4.47447 3.05989 5.17523 4.93725 3.07541 4.40613 3.87318 4.30485
threshold=4.5000000000000009 94402.000000000015 94406.000000000015 200859.50000000003 4.5000000000000009 12.500000000000002 20.500000000000004 5.5000000000000009 134119.50000000003 181454.50000000003 140009.00000000003 139543.50000000003 21.500000000000004 198363.50000000003
decision_type=2 2 2 2 2 2 2 2 2 2 2 2 2 2
left_child=1 -1 3 7 -5 -6 -7 10 -9 -10 11 -3 -12 -14
right_child=-2 2 -4 4 5 6 -8 8 9 -11 12 -13 13 -15
leaf_value=-0.12399805894959477 -0.12188601718835759 0.062489411522064914 -0.12353329808843275 -0.18023886950796097 0.15616622486805704 -0.17604278081731811 0.068455986295875876 0.088063863916099661 0.053220108423735125 0.090160180290438222 0.085775473512993777 -0.062559650871489361 0.014375869092527031 0.13469151669445398
leaf_weight=137.50259436666965 238.06756013631821 46.775719910860062 19.022467195987701 1.2317216545343388 1.4827399104833601 1.2070866376161578 1.9701540172100065 72.491810381412506 261.73292794823647 41.985880509018898 228.56183136999607 2.9983246326446524 14.917974188923838 3.7142263054847708
leaf_count=886 1616 188 124 5 6 5 8 291 1054 169 921 12 60 15
internal_value=0 0.0331332 0.0640831 0.0693387 -0.0115553 0.033031 -0.0244332 0.0700467 0.0640567 0.0583267 0.0776351 0.0549566 0.0822016 0.0383601
internal_weight=0 835.595 698.093 679.07 5.8917 4.65998 3.17724 673.179 376.211 303.719 296.968 49.774 247.194 18.6322
internal_count=5360 3744 2858 2734 24 19 13 2710 1514 1223 1196 200 996 75
is_linear=0
shrinkage=0.1


Tree=7
num_leaves=15
num_cat=0
split_feature=2 7 7 8 1 1 4 0 3 8 3 3 1 1
split_gain=387.684 344.109 57.4492 6.59239 5.67675 16.2714 5.68804 4.09143 3.88174 3.48514 3.4799 6.15676 5.25155 6.48239
threshold=4.5000000000000009 94402.000000000015 94406.000000000015 50.108224868774421 1.0000000180025095e-35 20.500000000000004 2.5000000000000004 9.5000000000000018 184240.50000000003 51.952596664428718 138470.50000000003 134121.50000000003 26.500000000000004 20.500000000000004
decision_type=2 2 2 2 2 2 2 2 2 2 2 2 2 2
left_child=1 -1 3 7 -5 -6 -7 8 -3 -8 11 -9 13 -12
right_child=-2 2 -4 4 5 6 9 10 -10 -11 12 -13 -14 -15
leaf_value=-0.12120642996999159 -0.11937458680455965 0.049255511302042462 -0.12080493346849824 0.0083044746276593508 0.17239683141653528 -0.085121393956484326 -0.053160562665490123 0.090952595394673347 0.11335079784843678 0.055562403201927194 0.12306405951592003 0.015472055542181458 0.10343718770447058 0.035461927812737402
leaf_weight=127.13468655943871 219.71000729501247 79.301579028367996 17.580852299928665 25.236819714307785 11.895060017704962 2.9333481639623633 2.9723514318466178 25.123775348067284 10.726858675479887 364.94715186953545 11.882752120494841 18.962920442223549 97.085177645087242 29.215191647410393
leaf_count=886 1616 318 124 103 49 13 12 101 43 1465 48 76 389 117
internal_value=0 0.0301061 0.0576717 0.0622842 0.054242 0.0572709 0.0535782 0.0743339 0.0568924 0.0546841 0.0829487 0.0584863 0.0907534 0.0607906
internal_weight=0 824.999 697.864 680.283 407.985 382.748 370.853 272.298 90.0284 367.92 182.27 44.0867 138.183 41.0979
internal_count=5360 3744 2858 2734 1642 1539 1490 1092 361 1477 731 177 554 165
is_linear=0
shrinkage=0.1


Tree=8
num_leaves=15
num_cat=0
split_feature=2 0 4 0 6 1 1 8 1 8 1 5 8 5
split_gain=338.798 86.8583 49.3125 9.68811 6.04389 8.31047 17.5725 6.02287 9.98703 6.51862 8.1199 6.27335 5.39154 6.74981
threshold=4.5000000000000009 7.5000000000000009 2.5000000000000004 6.5000000000000009 11.500000000000002 20.500000000000004 1.0000000180025095e-35 93.40579986572267 22.500000000000004 47.633054733276374 35.500000000000007 20.500000000000004 78.528137207031264 14.500000000000002
decision_type=2 2 2 2 2 2 2 2 2 2 2 2 2 2
left_child=1 3 -3 -1 5 6 -4 8 -7 -10 11 -11 -6 -14
right_child=-2 2 4 -5 12 7 -8 -9 9 10 -12 -13 13 -15
leaf_value=0.054460063351765044 -0.11719446625340431 -0.099658649230328467 0.034947697340339458 -0.10895560811977155 0.076683139594782443 -0.031864389735422181 0.16408150270260036 0.049155523404023585 0.041667707519215218 0.01574624346519032 0.045622007054260921 -0.03877277964448754 0.065478335310791919 0.0061325153451447728
leaf_weight=3.9196982830762854 202.30921396613121 25.872107341885567 33.535272508859634 48.727745935320854 78.752808697521687 27.969625636935234 15.3665434718132 153.0852424800396 205.02754334360361 58.017252989113331 51.373425155878067 33.174177139997482 43.919320046901703 34.003022015094757
leaf_count=16 1616 193 136 376 319 129 65 645 910 257 230 153 178 137
internal_value=0 0.0274261 0.0360298 -0.096789 0.0408111 0.0360856 0.0755257 0.0324372 0.0256225 0.0302483 0.0138257 -0.00408702 0.0582307 0.0395816
internal_weight=0 812.744 760.096 52.6474 734.224 577.549 48.9018 528.647 375.562 347.592 142.565 91.1914 156.675 77.9223
internal_count=5360 3744 3352 392 3159 2525 201 2324 1679 1550 640 410 634 315
is_linear=0
shrinkage=0.1


Tree=9
num_leaves=15
num_cat=0
split_feature=7 7 8 5 3 1 1 1 8 3 3 1 1 8
split_gain=262.979 350.504 4.92585 5.46037 8.5095 4.89218 5.90319 4.59368 5.3508 4.66698 4.43234 4.18721 4.12487 3.93005
threshold=94402.000000000015 94406.000000000015 50.108224868774421 20.500000000000004 185344.00000000003 18.500000000000004 22.500000000000004 40.500000000000007 92.64068984985353 126875.50000000001 198316.00000000003 37.500000000000007 32.500000000000007 91.042778015136733
decision_type=2 2 2 2 2 2 2 2 2 2 2 2 2 2
left_child=-1 2 -2 10 5 -5 -7 8 11 -10 -4 12 -8 -9
right_child=1 -3 3 4 -6 6 7 13 9 -11 -12 -13 -14 -15
leaf_value=-0.1174497094043303 0.062708322801052735 -0.1155589313947205 0.057211004913802023 -0.056700037920104543 0.090291324271038392 0.093521973412666617 -0.011207344563960322 0.11497295086909652 0.1897964740532857 0.023010238352709364 0.011342919278626552 0.14115432877274375 -0.095618917540575096 0.0089122601476984004
leaf_weight=163.19899037480354 270.48340328037739 152.49203808605671 251.04652613401413 8.086254730820654 19.168497130274773 10.948719426989554 26.241361320018768 7.9609298408031446 1.7449422031640995 43.538693144917488 22.997341305017471 1.4958766400814045 7.427626132965087 6.2261296808719635
leaf_count=1313 1092 1313 1012 33 78 45 106 32 7 175 93 6 30 25
internal_value=0 0.0214134 0.0522492 0.0452964 0.0286575 0.0182641 0.0240053 0.0159626 0.00671052 0.0294371 0.0533618 -0.0225557 -0.0298292 0.0684272
internal_weight=0 829.858 677.366 406.883 132.839 113.671 105.584 94.6356 80.4485 45.2836 274.044 35.1649 33.669 14.1871
internal_count=5360 4047 2734 1642 537 459 426 381 324 182 1105 142 136 57
is_linear=0
shrinkage=0.1


Tree=10
num_leaves=15
num_cat=0
split_feature=2 7 7 1 1 5 3 3 1 5 3 3 5 5
split_gain=260.483 233.798 37.5613 3.48803 18.6037 5.45581 4.62525 4.2713 4.07838 3.22691 4.32228 4.27865 3.61219 3.18055
threshold=4.5000000000000009 94402.000000000015 94406.000000000015 1.0000000180025095e-35 20.500000000000004 22.500000000000004 134119.50000000003 160892.50000000003 22.500000000000004 18.500000000000004 145121.50000000003 182894.00000000003 8.5000000000000018 21.500000000000004
decision_type=2 2 2 2 2 2 2 2 2 2 2 2 2 2
left_child=1 -1 3 6 -5 8 -3 -8 9 11 -11 12 -6 -10
right_child=-2 2 -4 4 5 -7 7 -9 13 10 -12 -13 -14 -15
leaf_value=-0.11635961378193878 -0.11361723717983366 0.14756934891233553 -0.11589624989680919 0.15234118114072667 0.022900527293224344 0.10586018915050399 -0.010265134853411014 0.05943998889843545 0.04890443329274665 0.087652645602068022 -0.02236032827153818 0.1024687930115542 -0.049117171961730495 0.013670481413235298
leaf_weight=105.04060815274715 170.46737071126699 2.6618532538413993 14.420900881290434 16.983329206705093 13.213229775428777 14.975771263241766 28.115151166915894 12.789891004562376 524.52618880569935 11.218181401491167 5.2391741573810569 3.4838347136974326 14.726912125945089 26.935713067650795
leaf_count=886 1616 11 124 76 53 61 114 52 2119 45 21 14 59 109
internal_value=0 0.0226171 0.0437957 0.0472081 0.0490967 0.0462424 0.0198415 0.0115298 0.0447528 0.0167578 0.0526302 -0.00202934 -0.0150591 0.0471835
internal_weight=0 794.331 689.29 674.869 631.302 614.319 43.5669 40.905 599.343 47.8813 16.4574 31.424 27.9401 551.462
internal_count=5360 3744 2858 2734 2557 2481 177 166 2420 192 66 126 112 2228
is_linear=0
shrinkage=0.1


Tree=11
num_leaves=15
num_cat=0
split_feature=2 7 7 8 5 6 3 8 3 3 8 8 3 5
split_gain=229.496 201.173 31.9476 4.0255 4.71405 8.46059 5.66669 5.22381 4.21003 5.19053 3.97937 9.97143 4.01417 3.97482
threshold=4.5000000000000009 94402.000000000015 94406.000000000015 47.633054733276374 8.5000000000000018 14.500000000000002 198316.00000000003 91.042778015136733 174496.50000000003 173978.00000000003 62.533422470092781 66.079193115234389 129101.50000000001 8.5000000000000018
decision_type=2 2 2 2 2 2 2 2 2 2 2 2 2 2
left_child=1 -1 3 13 5 6 8 -7 9 -5 -6 -12 -13 -3
right_child=-2 2 -4 4 10 7 -8 -9 -10 -11 11 12 -14 -15
leaf_value=-0.11457257053316515 -0.11215474685634413 0.032570188785196068 -0.114165901806277 0.061668058905175238 -0.011774745224763865 0.032452536553435878 -0.015961954830647405 -0.19052331106831347 0.12103098392164335 -0.094662661173363388 0.15393133677813564 0.086445868160850495 0.027204489289192543 0.060007414949301355
leaf_weight=96.450825981795788 156.15327535569668 73.16360804438591 13.236164413392542 90.224078223109245 21.460544437170029 1.982740283012389 9.371384531259535 2.2350918799638748 11.964480087161062 2.1750461459159842 6.6467058956623069 11.984841197729109 250.62527050077915 189.70732712745667
leaf_count=886 1616 297 124 368 87 8 38 9 49 9 27 49 1016 777
internal_value=0 0.0206402 0.0396849 0.0427174 0.0365078 0.0533692 0.0585267 -0.0857057 0.0652155 0.0579881 0.0296667 0.0329697 0.0299081 0.0523709
internal_weight=0 781.228 684.777 671.541 408.67 117.953 113.735 4.21783 104.364 92.3991 290.717 269.257 262.61 262.871
internal_count=5360 3744 2858 2734 1660 481 464 17 426 377 1179 1092 1065 1074
is_linear=0
shrinkage=0.1


Tree=12
num_leaves=15
num_cat=0
split_feature=2 7 7 8 5 3 3 8 5 8 8 3 3 3
split_gain=202.616 173.643 27.2745 3.37727 4.36778 7.06234 3.43077 3.25996 5.30316 3.48845 4.66346 4.46796 3.38098 4.08045
threshold=4.5000000000000009 94402.000000000015 94406.000000000015 50.108224868774421 20.500000000000004 185344.00000000003 200081.50000000003 58.387445449829109 4.5000000000000009 66.452991485595717 68.947822570800795 139541.50000000003 143234.50000000003 142832.50000000003
decision_type=2 2 2 2 2 2 2 2 2 2 2 2 2 2
left_child=1 -1 3 -3 6 -6 7 8 -5 11 -11 -9 13 -12
right_child=-2 2 -4 4 5 -7 -8 9 -10 10 12 -13 -14 -15
leaf_value=-0.11300308805060787 -0.11086519456296887 0.047421731159981328 -0.11264499059664906 -0.14879297879001926 0.0085172716667228261 0.074534868626324691 -0.056175742641010218 -0.052153541712637967 0.022650776411162827 -0.066568885366958139 0.051700492754363975 0.12513333784246444 0.03142724177271787 0.15517614333497681
leaf_weight=88.422123447060585 142.85246717184782 265.29054997861385 12.129972808063028 2.2344799786806098 113.09315696358681 18.914340957999229 3.6468106508254996 1.6724300682544697 9.3701296150684339 3.9406631737947455 114.41657386720181 9.4755719602107984 122.06943954527378 3.9422456473112097
leaf_count=886 1616 1092 124 9 459 78 15 7 38 16 468 39 497 16
internal_value=0 0.0188256 0.0359627 0.0386609 0.0328906 0.0179764 0.0401617 0.0414769 -0.0103609 0.0438312 0.0413355 0.0985367 0.0431041 0.055147
internal_weight=0 768.618 680.196 668.066 402.776 132.007 270.768 267.122 11.6046 255.517 244.369 11.148 240.428 118.359
internal_count=5360 3744 2858 2734 1642 537 1105 1090 47 1043 997 46 981 484
is_linear=0
shrinkage=0.1


Tree=13
num_leaves=15
num_cat=0
split_feature=7 7 5 6 3 1 1 5 6 0 8 6 1 1
split_gain=159.122 193.818 2.92089 3.21181 4.04521 4.42566 9.79272 4.2812 4.00264 5.6993 7.47447 5.93236 4.79469 4.37334
threshold=94402.000000000015 94406.000000000015 22.500000000000004 5.5000000000000009 129101.50000000001 1.0000000180025095e-35 20.500000000000004 3.5000000000000004 11.500000000000002 10.500000000000002 94.868419647216811 8.5000000000000018 44.500000000000007 46.500000000000007
decision_type=2 2 2 2 2 2 2 2 2 2 2 2 2 2
left_child=-1 2 3 -2 -5 7 -7 -6 9 11 -11 -8 -12 -10
right_child=1 -3 -4 4 5 6 8 -9 13 10 12 -13 -14 -15
leaf_value=-0.11104754884104809 0.041769459054502418 -0.10989621136922532 0.075943213322285263 0.058736665534106149 0.13272487542137323 0.14639932343368287 -0.0064919889609670227 -0.047684749083384659 0.041626301701960355 0.0066992950861262295 0.046422367697518861 -0.15270090257651753 0.14461915561672578 -0.019527267703715233
leaf_weight=115.36876483261585 289.03284583985806 107.21293041110039 16.978919267654419 37.376781478524208 1.4609829783439625 6.6685994118452063 46.45160374045372 13.196857661008833 128.88059671223164 71.101513206958771 31.553645119071007 2.9514312148094168 5.9025635719299308 12.861149832606314
leaf_count=1313 1190 1313 71 157 6 31 189 54 528 291 128 12 24 53
internal_value=0 0.0148677 0.035 0.0339263 0.0276013 0.0239763 0.0265445 -0.0297029 0.0238776 0.0129304 0.0257444 -0.0152268 0.0618968 0.0360774
internal_weight=0 771.63 664.417 647.439 358.406 321.029 306.371 14.6578 299.703 157.961 108.558 49.403 37.4562 141.742
internal_count=5360 4047 2734 2663 1473 1316 1256 60 1225 644 443 201 152 581
is_linear=0
shrinkage=0.1


Tree=14
num_leaves=15
num_cat=0
split_feature=2 7 7 8 5 6 5 1 1 1 8 8 6 8
split_gain=158.77 130.616 20.1252 3.00407 3.76675 5.00049 4.27495 3.36143 3.08237 4.56495 5.84948 3.38284 3.35859 2.92979
threshold=4.5000000000000009 94402.000000000015 94406.000000000015 50.108224868774421 20.500000000000004 4.5000000000000009 22.500000000000004 35.500000000000007 27.500000000000004 40.500000000000007 81.405803680419936 91.042778015136733 12.500000000000002 88.819442749023452
decision_type=2 2 2 2 2 2 2 2 2 2 2 2 2 2
left_child=1 -1 3 -3 -5 7 8 -6 -7 10 -10 -11 13 -12
right_child=-2 2 -4 4 5 6 -8 -9 9 11 12 -13 -14 -15
leaf_value=-0.11040406269127019 -0.10871026403129871 0.040025721822207948 -0.11013232846402837 0.033039982359650957 0.041342447014487187 0.018276247315206738 0.074290620370117966 0.1604635308095409 -0.094983271855229229 0.079804089615302318 0.10255082458980652 -0.026083191743575158 -0.059675446768274382 -0.0031184363392401755
leaf_weight=74.04839999973774 119.10498364269733 261.50417505204678 10.158986531198023 267.82526594400406 8.5162630528211576 53.445783972740173 8.5692308545112592 3.2817653417587271 10.589785382151602 7.648720368742941 2.9865686297416714 4.9825590699911118 9.7371302992105466 21.604551166296005
leaf_count=886 1616 1092 124 1105 35 220 36 14 43 31 12 20 39 87
internal_value=0 0.0156347 0.0295468 0.0316946 0.0262369 0.0123666 0.00623783 0.0744774 0.000983909 -0.0150754 -0.0300106 0.0380356 -0.00996744 0.009715
internal_weight=0 744.899 670.851 660.692 399.188 131.362 119.564 11.798 110.995 57.5493 44.918 12.6313 34.3283 24.5911
internal_count=5360 3744 2858 2734 1642 537 488 49 452 232 181 51 138 99
is_linear=0
shrinkage=0.1


Tree=15
num_leaves=15
num_cat=0
split_feature=2 7 7 1 1 5 1 5 5 6 0 1 6 6
split_gain=140.948 113.737 17.365 2.63803 17.0355 3.96182 3.6808 4.98628 8.29159 4.61095 3.82329 4.19038 3.67127 3.46125
threshold=4.5000000000000009 94402.000000000015 94406.000000000015 1.0000000180025095e-35 20.500000000000004 22.500000000000004 26.500000000000004 10.500000000000002 14.500000000000002 14.500000000000002 10.500000000000002 27.500000000000004 13.500000000000002 4.5000000000000009
decision_type=2 2 2 2 2 2 2 2 2 2 2 2 2 2
left_child=1 -1 3 -3 -5 6 7 9 12 13 11 -8 -9 -6
right_child=-2 2 -4 4 5 -7 10 8 -10 -11 -12 -13 -14 -15
leaf_value=-0.10932080119169181 -0.10781302141149017 0.0047850538026233515 -0.10907966512739414 0.13643651645504667 0.1003187958017225 0.080173890046529736 0.083062536014900962 -0.069934109330820976 0.014926097596876409 -0.098026091542373378 0.038408871120981548 0.013292003108167499 0.055724705222384631 0.032121441834775707
leaf_weight=67.631665751338005 108.62163063883781 43.091106981039047 9.2763957008719427 14.781116262078283 8.6665416061878187 14.084564536809919 9.2286653667688352 18.858445793390278 86.621815204620361 2.4542686343193045 275.74835403263569 128.02533477544785 2.6520027667284003 52.676989153027534
leaf_count=886 1616 177 124 76 36 61 38 77 353 10 1148 530 11 217
internal_value=0 0.0142395 0.0267838 0.0287024 0.0303815 0.0277645 0.0265026 0.0142078 0.00112695 0.0363789 0.0316208 0.0179832 -0.0544418 0.0417563
internal_weight=0 733.797 666.166 656.889 613.798 599.017 584.932 171.93 108.132 63.7978 413.002 137.254 21.5104 61.3435
internal_count=5360 3744 2858 2734 2557 2481 2420 704 441 263 1716 568 88 253
is_linear=0
shrinkage=0.1


Tree=16
num_leaves=15
num_cat=0
split_feature=2 7 7 3 8 8 8 8 0 3 3 3 3 8
split_gain=125.346 99.3279 15.0363 2.8846 2.52245 7.62133 6.69987 4.23042 3.42819 3.40212 3.22061 5.03085 3.4036 3.17039
threshold=4.5000000000000009 94402.000000000015 94406.000000000015 200859.50000000003 67.396617889404311 62.533422470092781 68.947822570800795 50.108224868774421 9.5000000000000018 184240.50000000003 138470.50000000003 134121.50000000003 141718.50000000003 20.02506256103516
decision_type=2 2 2 2 2 2 2 2 2 2 2 2 2 2
left_child=1 -1 3 4 5 7 -6 8 9 -3 11 13 -12 -10
right_child=-2 2 -4 -5 6 -7 -8 -9 10 -11 12 -13 -14 -15
leaf_value=-0.10835900900887219 -0.10701449622553211 0.010920725601124011 -0.10814459160778436 -0.044261039003275549 -0.10123324251450734 0.11732798659690123 0.022546528477082873 -0.0090419757261872707 0.036317235425527165 0.074905136611532058 0.074318614797863489 -0.020929296557906645 0.039258978201345468 0.15531880882226079
leaf_weight=61.711025148630142 98.980796091258526 76.036442413926125 8.4624904245138151 5.7891631871461859 4.4278339743614188 10.470381677150725 352.31171581149101 24.75093375146389 20.649111881852154 9.3296339064836484 40.441312164068222 18.303195998072624 87.820386216044426 2.5110021680593482
leaf_count=886 1616 318 124 24 18 45 1463 102 90 40 172 76 375 11
internal_value=0 0.0129746 0.0242971 0.0260139 0.0266426 0.0335639 0.0210102 0.0304298 0.0342597 0.0179136 0.0424813 0.0182535 0.0503134 0.0492193
internal_weight=0 723.015 661.304 652.841 647.052 290.312 356.74 279.842 255.091 85.3661 169.725 41.4633 128.262 23.1601
internal_count=5360 3744 2858 2734 2710 1229 1481 1184 1082 358 724 177 547 101
is_linear=0
shrinkage=0.1


Tree=17
num_leaves=15
num_cat=0
split_feature=7 7 3 5 5 5 6 5 1 3 6 1 5 8
split_gain=99.2606 112.349 2.34608 2.99038 2.82555 3.13317 2.22336 3.85205 3.58149 3.40263 3.43918 3.83803 5.11875 4.65738
threshold=94402.000000000015 94406.000000000015 200859.50000000003 4.5000000000000009 12.500000000000002 20.500000000000004 5.5000000000000009 22.500000000000004 57.500000000000007 129101.50000000001 11.500000000000002 46.500000000000007 20.500000000000004 82.018520355224624
decision_type=2 2 2 2 2 2 2 2 2 2 2 2 2 2
left_child=-1 2 6 -4 -5 -6 8 9 -2 -8 -11 13 -13 -12
right_child=1 -3 3 4 5 -7 7 -9 -10 10 11 12 -14 -15
leaf_value=-0.1071407754713867 0.029739160307099496 -0.10641443624742251 -0.17834305739149711 0.1116136842112516 -0.18511451417264413 0.021992292382213421 0.046285310661115214 0.081414724290179832 0.15556091769341476 0.0040398614179487924 0.047366480556870066 -0.060223775600590196 0.096268231096625134 0.010074049335028139
leaf_weight=80.005897637456656 281.20867654681206 74.098402123898268 1.2275429815053929 1.4704853892326353 1.1780408471822741 1.9225771129131315 36.077556744217873 9.5971626043319684 2.2806607633829108 167.0619959384203 71.740945398807526 10.030019760131834 2.6403925269842139 62.807521656155586
leaf_count=1313 1186 1313 5 6 5 8 157 43 10 696 305 42 11 260
internal_value=0 0.0102428 0.023557 -0.0397658 -0.00255174 -0.0566953 0.0241276 0.0189109 0.0307514 0.0171988 0.0138599 0.0250035 -0.0276123 0.0299583
internal_weight=0 723.342 649.244 5.79865 4.5711 3.10062 643.445 359.956 283.489 350.358 314.281 147.219 12.6704 134.548
internal_count=5360 4047 2734 24 19 13 2710 1514 1196 1471 1314 618 53 565
is_linear=0
shrinkage=0.1


Tree=18
num_leaves=15
num_cat=0
split_feature=2 7 7 1 1 1 8 5 8 6 6 6 5 5
split_gain=99.4887 76.2953 11.378 2.26519 15.852 3.07985 4.50368 3.08114 3.27643 2.98486 2.57298 2.47659 2.95954 2.31058
threshold=4.5000000000000009 94402.000000000015 94406.000000000015 1.0000000180025095e-35 20.500000000000004 22.500000000000004 87.96551895141603 18.500000000000004 92.880565643310561 13.500000000000002 5.5000000000000009 1.5000000000000002 20.500000000000004 22.500000000000004
decision_type=2 2 2 2 2 2 2 2 2 2 2 2 2 2
left_child=1 -1 3 11 -5 6 -6 8 -8 10 -9 -3 -13 -7
right_child=-2 2 -4 4 5 13 7 9 -10 -11 -12 12 -14 -15
leaf_value=-0.10674329244221406 -0.10566530085116838 0.16015130155086835 -0.10657633049918468 0.13026135474664269 -0.03392084636463083 0.021569862166287097 -0.098462269207654218 0.050804748438083906 0.022979842735562594 -0.065645496589594093 0.17515725021858244 0.016972825621473408 -0.037422764005022174 0.064367037023207521
leaf_weight=51.267581712454557 81.996878534555435 0.93391996622085471 7.0311240777373305 13.446533426642416 24.396378055214882 529.29377190768719 2.7152343094348916 3.9213099777698499 12.219295307993889 1.2307680845260618 2.8903308659791946 25.33891262114048 16.525420382618904 12.923093333840368
leaf_count=886 1616 4 124 76 100 2228 11 16 50 5 12 105 68 59
internal_value=0 0.0107226 0.0199469 0.0213243 0.022902 0.0204535 -0.00399818 0.027773 0.000900554 0.0776744 0.10357 -0.000906239 -0.00449915 0.0225899
internal_weight=0 704.134 652.866 645.835 603.037 589.59 47.3733 22.9769 14.9345 8.04241 6.81164 42.7983 41.8643 542.217
internal_count=5360 3744 2858 2734 2557 2481 194 94 61 33 28 177 173 2287
is_linear=0
shrinkage=0.1


Tree=19
num_leaves=15
num_cat=0
split_feature=2 7 7 3 1 1 1 3 3 3 5 3 1 3
split_gain=88.832 67.1005 9.93759 1.97468 2.76426 2.38585 14.4302 2.92779 2.97223 2.78258 2.7008 2.61835 2.40057 3.99941
threshold=4.5000000000000009 94402.000000000015 94406.000000000015 129101.50000000001 39.500000000000007 1.0000000180025095e-35 20.500000000000004 129847.00000000001 133687.00000000003 160892.50000000003 8.5000000000000018 178871.50000000003 26.500000000000004 134507.00000000003
decision_type=2 2 2 2 2 2 2 2 2 2 2 2 2 2
left_child=1 -1 3 4 -3 9 -7 -8 10 -5 -9 -11 -10 -14
right_child=-2 2 -4 5 -6 6 7 8 12 11 -12 -13 13 -15
leaf_value=-0.10606242027519014 -0.10509721511184474 0.025418138785029479 -0.10591324728188518 -0.022581050092167092 0.087610628580412034 0.12659301544784851 -0.026348971127573576 0.16008923771300054 0.0070304873484390469 0.11771179710995816 0.042626767739503371 0.0089459635397299425 -0.012914085120363326 0.024916799130127495
leaf_weight=46.671404428780079 74.574406493455172 27.140256628394127 6.3998195230960837 28.50910772383213 9.7012225538492185 12.339302048087118 14.984216481447218 2.5545826852321616 156.86331467330456 2.8780861645936957 8.3743600696325284 9.5824374705553037 30.45684178173542 338.83020521700382
leaf_count=886 1616 120 124 117 44 75 63 11 651 12 36 40 127 1438
internal_value=0 0.00974833 0.0180816 0.0193172 0.0417949 0.0179493 0.0196407 0.0172502 0.0184665 -0.00535169 0.070083 0.0340683 0.0173944 0.0217967
internal_weight=0 695.285 648.614 642.214 36.8415 605.372 564.403 552.064 537.079 40.9696 10.9289 12.4605 526.15 369.287
internal_count=5360 3744 2858 2734 164 2570 2401 2326 2263 169 47 52 2216 1565
is_linear=0
shrinkage=0.1


Tree=20
num_leaves=15
num_cat=0
split_feature=2 7 7 3 5 5 5 6 1 5 3 1 1 5
split_gain=79.4097 59.1399 8.70231 1.94147 2.4778 2.33381 2.6091 1.93482 3.15648 3.13153 2.74733 2.7156 3.0308 3.48282
threshold=4.5000000000000009 94402.000000000015 94406.000000000015 200859.50000000003 4.5000000000000009 12.500000000000002 20.500000000000004 5.5000000000000009 57.500000000000007 22.500000000000004 124649.50000000001 55.500000000000007 50.500000000000007 21.500000000000004
decision_type=2 2 2 2 2 2 2 2 2 2 2 2 2 2
left_child=1 -1 3 7 -5 -6 -7 8 11 10 -9 12 13 -3
right_child=-2 2 -4 4 5 6 -8 9 -10 -11 -12 -13 -14 -15
leaf_value=-0.1054538523767532 -0.10458869710900238 0.025479101047914978 -0.1053204013794016 -0.16824912109167051 0.098652052950266397 -0.17457219932290524 0.016088646113202116 0.10116115742585684 0.14546087601664148 0.071049599054669205 0.010705896727192556 -0.079798373952983725 0.084561810060384726 -0.020653179626236483
leaf_weight=42.461294960230589 67.789050251245499 248.30708773434162 5.8217280432581893 1.2008129954338063 1.4351454228162763 1.1537609845399859 1.8992358446121214 3.3910046964883795 2.1321982890367499 9.0919437408447248 341.98468771576881 2.5303987711668006 8.0923343151807767 17.519896879792213
leaf_count=886 1616 1065 124 5 6 5 8 15 10 43 1456 11 35 75
internal_value=0 0.0088577 0.0163881 0.0174974 -0.0406602 -0.0065235 -0.0559642 0.0180201 0.0242562 0.013119 0.011594 0.0233213 0.0242739 0.0224387
internal_weight=0 687.022 644.56 638.739 5.68896 4.48814 3.053 633.05 278.582 354.468 345.376 276.45 273.919 265.827
internal_count=5360 3744 2858 2734 24 19 13 2710 1196 1514 1471 1186 1175 1140
is_linear=0
shrinkage=0.1


Tree=21
num_leaves=15
num_cat=0
split_feature=2 7 7 8 8 8 3 3 8 0 3 8 3 3
split_gain=71.0483 52.2115 7.63653 1.92511 2.94676 5.05745 2.70732 4.47868 3.76952 2.98127 2.89169 2.65549 2.60299 2.60161
threshold=4.5000000000000009 94402.000000000015 94406.000000000015 47.633054733276374 87.550323486328139 87.071151733398452 139541.50000000003 134121.50000000003 25.19841289520264 9.5000000000000018 140448.00000000003 27.837044715881351 143788.00000000003 133687.00000000003
decision_type=2 2 2 2 2 2 2 2 2 2 2 2 2 2
left_child=1 -1 3 6 5 13 7 -3 9 -8 -11 -9 -10 -5
right_child=-2 2 -4 4 -6 -7 8 11 12 10 -12 -13 -14 -15
leaf_value=-0.10490923036037002 -0.10413302228662956 0.029464080696888901 -0.10478970966840627 0.045398153129265283 0.018296077894174572 -0.10257060360502433 0.0063340336910169799 -0.017429509760614633 0.1360795385692378 0.060066638578517018 0.024467017072120349 -0.16976225292484984 0.042776508511487503 -0.00059027884974651086
leaf_weight=38.609842129051685 61.592788059264421 34.643428057432175 5.2930332347750655 13.573014676570891 241.74528867006302 4.6193726211786261 56.149616107344627 28.184240981936458 5.2241990417242032 31.835306078195572 80.546970352530479 1.1927781999111164 6.9918691664934158 131.27320516109467
leaf_count=886 1616 156 124 59 1027 19 242 119 23 142 356 5 31 555
internal_value=0 0.00802836 0.0148281 0.0158237 0.0114718 0.000434148 0.0227793 0.00510791 0.0290384 0.0251504 0.0345516 -0.0236146 0.0826775 0.00371913
internal_weight=0 679.882 641.272 635.979 391.211 149.466 244.768 64.0204 180.748 168.532 112.382 29.377 12.2161 144.846
internal_count=5360 3744 2858 2734 1660 633 1074 280 794 740 498 124 54 614
is_linear=0
shrinkage=0.1


Tree=22
num_leaves=15
num_cat=0
split_feature=2 0 4 3 0 3 6 6 3 5 3 3 5 5
split_gain=63.6352 11.8718 6.11463 4.60069 5.94439 4.08232 2.96592 2.1515 4.51818 7.09148 9.23499 5.63676 4.25612 3.9743
threshold=4.5000000000000009 7.5000000000000009 2.5000000000000004 166936.00000000003 6.5000000000000009 126875.50000000001 12.500000000000002 3.5000000000000004 143234.50000000003 4.5000000000000009 149721.50000000003 160937.00000000003 5.5000000000000009 5.5000000000000009
decision_type=2 2 2 2 2 2 2 2 2 2 2 2 2 2
left_child=1 3 6 5 -5 -1 -3 -4 13 10 -10 -12 -11 -9
right_child=-2 2 7 4 -6 -7 -8 8 9 12 11 -13 -14 -15
leaf_value=0.18418485119734396 -0.10372429218180984 -0.082047756656877718 0.028049496700229423 0.1568368396916433 -0.061411123877588063 -0.10898274909495272 0.14262456132685536 0.042597747480735838 -0.11422480396884636 0.08120729648454289 0.077670448890364785 -0.032676034594124936 0.0038898950610391191 0.012197881980169462
leaf_weight=0.4919032901525523 55.939872164279222 9.3777860365807975 65.087776981294155 1.8126221895217884 4.0062542259693146 13.80608022585511 0.62684691324830133 52.69459380581975 11.679380055516956 7.3315910622477523 6.0159220062196281 20.083913166075945 246.30123949795961 233.86883573979139
leaf_count=2 1616 187 312 8 75 307 6 275 55 38 33 100 1195 1151
internal_value=0 0.00727535 0.00960607 -0.0683887 0.0065747 -0.0988967 -0.0679708 0.010813 0.00887194 0.000104273 -0.0403152 -0.00724155 0.00612486 0.0177879
internal_weight=0 673.185 653.068 20.1169 5.81888 14.298 10.0046 643.063 577.975 291.412 37.7792 26.0998 253.633 286.563
internal_count=5360 3744 3352 392 83 309 193 3159 2847 1421 188 133 1233 1426
is_linear=0
shrinkage=0.1


Tree=23
num_leaves=15
num_cat=0
split_feature=2 4 6 3 8 8 1 5 6 3 3 3 1 5
split_gain=57.0515 9.17564 4.21686 2.31496 2.77906 2.36335 2.24803 2.18764 2.15954 2.86846 4.77172 3.5494 3.0636 2.97755
threshold=4.5000000000000009 2.5000000000000004 9.5000000000000018 129101.50000000001 7.582566738128663 35.75188064575196 52.500000000000007 6.5000000000000009 3.5000000000000004 143606.50000000003 139543.50000000003 198316.00000000003 55.500000000000007 14.500000000000002
decision_type=2 2 2 2 2 2 2 2 2 2 2 2 2 2
left_child=1 2 -1 4 6 -6 7 -3 9 10 13 12 -11 -5
right_child=-2 3 -4 8 5 -7 -8 -9 -10 11 -12 -13 -14 -15
leaf_value=-0.087722515651468908 -0.10335734737440745 0.065278818038731271 0.089582645167269437 -0.015007077639403588 0.14203303562545663 0.04212301689698026 0.13804903053973833 -0.042744458481987692 0.0049163646379498001 0.050137796276687824 -0.10147253218065944 -0.092967073340755865 -0.10710946406111593 0.06829944569502483
leaf_weight=13.675296461209653 50.787028156220913 2.4057707041501972 1.4872415773570526 11.113568209111696 2.6816241741180447 20.219203501939774 0.99600477516651231 8.4932376444339734 554.33226069249213 40.13457421399653 4.1724919974803916 1.9442237503826607 1.2784512676298607 6.9882807880640021
leaf_count=296 1616 11 12 57 13 92 5 40 2945 198 18 9 8 40
internal_value=0 0.0065749 -0.0703313 0.00835585 0.0334545 0.0538222 -0.00575834 -0.0189002 0.00694717 0.0240996 -0.00506771 0.039084 0.0452835 0.0171537
internal_weight=0 669.922 15.1625 654.76 34.7958 22.9008 11.895 10.899 619.964 65.6316 22.2743 43.3572 41.413 18.1018
internal_count=5360 3744 308 3436 161 105 56 51 3275 330 115 215 206 97
is_linear=0
shrinkage=0.1


Tree=24
num_leaves=15
num_cat=0
split_feature=7 7 1 4 5 1 5 1 8 8 8 5 5 8
split_gain=51.7614 48.6386 1.73142 4.11446 3.23434 4.27444 3.8382 2.71267 2.92445 3.8904 8.22819 2.19921 2.012 4.58325
threshold=94402.000000000015 94406.000000000015 39.500000000000007 2.5000000000000004 10.500000000000002 42.500000000000007 1.5000000000000002 41.500000000000007 98.913043975830092 79.86456680297853 49.505928039550788 4.5000000000000009 17.500000000000004 7.0197043418884286
decision_type=2 2 2 2 2 2 2 2 2 2 2 2 2 2
left_child=-1 2 12 -4 5 7 -7 8 9 10 11 -5 -2 -14
right_child=1 -3 3 4 -6 6 -8 -9 -10 -11 -12 -13 13 -15
leaf_value=-0.10399359767031147 0.015492844802401932 -0.10316531551868087 -0.15545331126967196 0.0096087179475765859 0.036578992073812926 0.085068534274082563 -0.02184548330202192 0.127442498264114 -0.10677107013257761 0.15917403377972547 -0.16422608449696022 0.15302726236959749 0.026047162529581849 -0.0064619515769283892
leaf_weight=45.754875887185335 277.01749655604362 38.498137818649411 1.2861768901348103 2.0487001240253413 82.877777919173241 3.7073116302490225 35.619802370667458 3.620850831270217 1.4153749197721488 2.3124610930681229 1.929646700620651 2.2362774908542633 60.153723642230034 155.40675936639309
leaf_count=1313 1207 1313 6 9 364 16 154 16 6 10 8 10 268 660
internal_value=0 0.00594947 0.0126212 0.0225626 0.024249 0.00492821 -0.0117668 0.0533359 0.0263477 0.0484435 0.00724074 0.0844571 0.00985507 0.00260995
internal_weight=0 668.13 629.632 137.054 135.768 52.8904 39.3271 13.5633 9.94246 8.52709 6.21462 4.28498 492.578 215.56
internal_count=5360 4047 2734 599 593 229 170 59 43 37 27 19 2135 928
is_linear=0
shrinkage=0.1


Tree=25
num_leaves=15
num_cat=0
split_feature=2 4 6 6 3 3 8 1 8 1 1 1 1 6
split_gain=45.9531 6.64364 3.65497 1.86135 3.56161 1.88554 2.45711 2.23705 2.54354 2.81917 1.93923 1.85088 14.7675 2.30924
threshold=4.5000000000000009 2.5000000000000004 9.5000000000000018 1.5000000000000002 198316.00000000003 129101.50000000001 7.582566738128663 39.500000000000007 56.538461685180671 36.500000000000007 52.500000000000007 1.0000000180025095e-35 20.500000000000004 11.500000000000002
decision_type=2 2 2 2 2 2 2 2 2 2 2 2 2 2
left_child=1 2 -1 4 -3 6 10 8 -8 -10 -5 -7 -13 -14
right_child=-2 3 -4 5 -6 11 7 -9 9 -11 -12 12 13 -15
leaf_value=-0.082152183020069242 -0.10273030281686067 0.096828728174275597 0.084179566007692899 -0.01958888505325098 -0.068222393939054313 -0.016513244357289746 0.14141878000065478 0.10331613417333695 0.031339325589972489 -0.11197537765934262 0.13196128472619248 0.1220461083475225 0.00047258635503372106 0.01540780667246576
leaf_weight=12.06360801681876 41.80729453265667 5.4743277225643387 1.483556892722844 10.871657222509381 1.7176115997135637 37.629578657448292 1.8345474302768767 5.6011522114276877 13.378182917833326 1.5295102298259724 0.91543249785900194 10.829308189451693 421.21463531255722 137.26109492219985
leaf_count=296 1616 32 12 51 8 158 9 28 61 7 5 74 2399 604
internal_value=0 0.00537157 -0.0639371 0.00681997 0.0574105 0.00625241 0.0291224 0.0486105 0.0303087 0.0166354 -0.00781889 0.00496634 0.00638608 0.00414334
internal_weight=0 661.804 13.5472 648.257 7.19194 641.065 34.1305 22.3434 16.7422 14.9077 11.7871 606.935 569.305 558.476
internal_count=5360 3744 308 3436 40 3396 161 105 77 68 56 3235 3077 3003
is_linear=0
shrinkage=0.1


Tree=26
num_leaves=15
num_cat=0
split_feature=7 7 3 3 3 5 5 5 1 1 3 6 1 6
split_gain=44.7965 39.1547 1.39429 1.91548 7.25746 3.13614 2.49167 3.75894 3.57177 2.9026 2.86846 3.46109 2.82644 2.18587
threshold=94402.000000000015 94406.000000000015 200859.50000000003 182701.50000000003 181860.00000000003 17.500000000000004 4.5000000000000009 10.500000000000002 29.500000000000004 49.500000000000007 198318.50000000003 13.500000000000002 32.500000000000007 5.5000000000000009
decision_type=2 2 2 2 2 2 2 2 2 2 2 2 2 2
left_child=-1 2 3 4 13 -6 10 8 -8 -9 12 -12 -5 -2
right_child=1 -3 -4 6 5 -7 7 9 -10 -11 11 -13 -14 -15
leaf_value=-0.10354206353348219 0.017621573051906651 -0.10262697875511528 -0.03949862621299835 0.11210844334910919 -0.27854475457009742 -0.063934836887404409 0.13803454057875977 0.017193219381838491 0.034284904004367608 0.14357216783760482 -0.083802905412622544 0.089686124334664469 -0.048141579153308849 0.0046275758889284509
leaf_weight=40.130728270858526 219.01736826449633 31.98381182923913 5.4603217542171469 2.716789133846758 1.14302510023117 1.6842685043811796 5.9792189598083478 53.452107816934586 7.4561903327703476 1.8813105225563038 6.3956496864557266 1.402001768350601 1.8501976728439329 316.60761231184006
leaf_count=1313 960 1313 24 13 5 7 27 236 33 9 27 6 8 1379
internal_value=0 0.00529013 0.0108123 0.0112557 0.00909735 -0.150698 0.0255796 0.0330105 0.0804571 0.02149 -0.015749 -0.0526099 0.0471873 0.00994083
internal_weight=0 657.03 625.046 619.586 538.452 2.82729 81.1335 68.7688 13.4354 55.3334 12.3646 7.79765 4.56699 535.625
internal_count=5360 4047 2734 2710 2351 12 359 305 60 245 54 33 21 2339
is_linear=0
shrinkage=0.1


Tree=27
num_leaves=15
num_cat=0
split_feature=7 7 1 1 0 8 8 1 1 3 3 5 3 3
split_gain=40.2247 34.8584 1.42908 2.86677 3.94067 3.27073 5.23496 3.97344 3.51926 3.20203 2.94215 2.92849 3.61274 2.94339
threshold=94402.000000000015 94406.000000000015 39.500000000000007 48.500000000000007 10.500000000000002 94.59064102172853 85.634922027587905 43.500000000000007 44.500000000000007 198363.50000000003 140009.00000000003 8.5000000000000018 136640.00000000003 133251.50000000003
decision_type=2 2 2 2 2 2 2 2 2 2 2 2 2 2
left_child=-1 2 -2 4 5 6 7 -4 -9 -6 -7 12 13 -5
right_child=1 -3 3 11 9 10 -8 8 -10 -11 -12 -13 -14 -15
leaf_value=-0.10319539535838905 0.0072531972372010716 -0.10237121966833201 0.036057352902049485 -0.038756713850380757 0.051462215304114323 -0.17873788322314887 0.12661651512396074 -0.14595303148481517 -0.01107628515376044 -0.033502847744006532 -0.023943202148466819 0.014761436056360547 -0.069580098985332711 0.16089979634885804
leaf_weight=36.427551520988345 488.13908436149359 29.00876908749342 12.0989924222231 1.5585088729858392 53.839763432741165 1.6173782348632801 3.7326017916202536 2.7441071867942792 6.5572862774133682 4.8337396532297126 5.0986020714044571 31.234024956822395 10.232114359736441 1.403167128562927
leaf_count=1313 2135 1313 53 7 240 7 17 12 29 21 22 141 44 6
internal_value=0 0.00478258 0.00977127 0.0188796 0.0290904 0.0007712 0.0173368 -0.0017235 -0.0508678 0.0444625 -0.0612217 -0.00192505 -0.0414274 0.0558355
internal_weight=0 652.098 623.089 134.95 90.5225 31.849 25.133 21.4004 9.30139 58.6735 6.71598 44.4278 13.1938 2.96168
internal_count=5360 4047 2734 599 401 140 111 94 41 261 29 198 57 13
is_linear=0
shrinkage=0.1


Tree=28
num_leaves=15
num_cat=0
split_feature=7 7 8 8 8 5 1 8 1 8 6 6 5 8
split_gain=36.1456 31.0762 1.32355 6.32816 5.25163 3.77609 3.43337 4.34559 6.88498 3.14601 3.04622 2.9417 2.90063 5.79079
threshold=94402.000000000015 94406.000000000015 67.396617889404311 62.533422470092781 68.947822570800795 20.500000000000004 27.500000000000004 81.405803680419936 39.500000000000007 50.108224868774421 13.500000000000002 4.5000000000000009 8.5000000000000018 20.02506256103516
decision_type=2 2 2 2 2 2 2 2 2 2 2 2 2 2
left_child=-1 2 3 9 -4 -6 10 8 -8 12 -7 -9 13 -2
right_child=1 -3 4 -5 5 6 7 11 -10 -11 -12 -13 -14 -15
leaf_value=-0.102883505750567 -0.012706840184609087 -0.10214087797329477 -0.10413389894322989 0.093163243992278419 0.013512234204436103 0.02117162942148787 -0.13157387881392099 0.055968847296275527 0.091553914900350641 -0.023174393559382639 -0.039940198742747665 -0.022199013941882763 0.02145898327045119 0.082457155136004115
leaf_weight=33.05584135837853 61.595142766833305 26.304399440065026 4.3769972473382941 9.7403521314263326 228.08654647320509 43.216340340673923 7.298235669732092 5.3840689510107032 1.7062201052904127 24.333873502910137 10.054254934191702 45.501048400998116 172.84943027794361 7.1349826008081427
leaf_count=1313 271 1313 18 46 994 188 30 25 8 103 41 189 788 33
internal_value=0 0.00432125 0.00882877 0.0139971 0.00470677 0.00610282 -0.00883167 -0.0252596 -0.0892942 0.0110972 0.00963743 -0.0139282 0.0145493 -0.00282772
internal_weight=0 647.582 621.277 275.654 345.624 341.247 113.16 59.8896 9.00446 265.913 53.2706 50.8851 241.58 68.7301
internal_count=5360 4047 2734 1241 1493 1475 481 252 38 1195 229 214 1092 304
is_linear=0
shrinkage=0.1


Tree=29
num_leaves=15
num_cat=0
split_feature=7 7 3 3 3 3 6 0 8 3 8 3 0 8
split_gain=32.5026 27.7429 1.24565 5.32091 4.16394 3.36363 3.29566 4.31811 3.28689 3.77516 3.00388 3.00234 3.44116 3.32068
threshold=94402.000000000015 94406.000000000015 143234.50000000003 140009.00000000003 143237.50000000003 139543.50000000003 4.5000000000000009 6.5000000000000009 90.041816711425795 134121.50000000003 89.913791656494155 139743.50000000003 10.500000000000002 95.199695587158217
decision_type=2 2 2 2 2 2 2 2 2 2 2 2 2 2
left_child=-1 2 3 5 -4 8 -6 -8 9 10 -2 13 -13 -7
right_child=1 -3 4 -5 6 11 7 -9 -10 -11 -12 12 -14 -15
leaf_value=-0.10260274485227638 0.022273154648657371 -0.10193332041923248 -0.10224162589670981 0.031594076489189438 0.030552323858365673 -0.13896132401619291 0.14979840355950888 -0.00012637076861624866 0.02603991070636676 -0.018374155911681758 -0.10725683714562889 -0.072549047735725028 0.049646186436260335 0.0055069901777392511
leaf_weight=29.987838106229901 49.972860306501389 23.847200622782111 3.6671502888202658 98.912338875234127 43.393637709319592 4.6387989968061474 1.9345648437738407 275.71628795564175 60.626514621078968 66.452015563845634 1.856893703341483 4.0552974641323072 5.3383806198835373 2.4216307997703552
leaf_count=1313 233 1313 16 439 201 20 9 1201 269 286 8 17 24 11
internal_value=0 0.00390639 0.00798399 0.0126963 0.00371343 0.00312825 0.00492371 0.000918248 0.00710754 -0.00259644 0.0176325 -0.0401392 -0.0031061 -0.0894107
internal_weight=0 642.834 618.986 294.275 324.712 195.362 321.044 277.651 178.908 118.282 51.8298 16.4541 9.39368 7.06043
internal_count=5360 4047 2734 1307 1427 868 1411 1210 796 527 241 72 41 31
is_linear=0
shrinkage=0.1


Tree=30
num_leaves=15
num_cat=0
split_feature=7 7 1 5 5 6 6 5 1 1 6 0 8 8
split_gain=29.2443 24.7947 1.34738 4.35812 5.26256 3.51183 3.43035 6.40539 3.26005 3.05931 3.02148 2.97335 4.87048 2.85421
threshold=94402.000000000015 94406.000000000015 26.500000000000004 10.500000000000002 14.500000000000002 14.500000000000002 14.500000000000002 9.5000000000000018 20.500000000000004 1.0000000180025095e-35 13.500000000000002 10.500000000000002 51.952596664428718 76.677558898925795
decision_type=2 2 2 2 2 2 2 2 2 2 2 2 2 2
left_child=-1 2 3 6 8 -6 -2 -8 9 11 -10 -5 -13 -12
right_child=1 -3 -4 4 5 -7 7 -9 10 -11 13 12 -14 -15
leaf_value=-0.10234988388179796 0.024275424565311413 -0.10174622341165802 0.010700519071034982 -0.11391692602923287 -0.002784324640090759 0.10280298305979114 -0.21128753484287063 0.089679204822373765 -0.082041358628964056 0.11930146182085827 -0.061966035565915061 0.1715764387627832 -0.071578925489074671 0.15285681461009981
leaf_weight=27.197740750387311 74.336993113160133 21.615499576553702 396.53862687945366 2.3625349700450924 111.70697091519833 3.2414006590843192 1.703549087047576 1.2090054005384445 18.479068428277973 1.8728564754128454 1.3679270148277276 1.4396351277828219 1.9256092905998228 1.1288732439279554
leaf_count=1313 334 1313 1758 10 490 14 7 5 77 14 6 6 8 5
internal_value=0 0.00352831 0.00721454 0.000953292 -0.00935436 0.000193106 0.0201043 -0.0863558 -0.0477588 0.00835144 -0.0680905 -0.0279268 0.0324418 0.0351614
internal_weight=0 638.929 617.313 220.774 143.525 114.948 77.2495 2.91255 28.5765 7.60064 20.9759 5.72778 3.36524 2.4968
internal_count=5360 4047 2734 976 630 504 346 12 126 38 88 24 14 11
is_linear=0
shrinkage=0.1


Tree=31
num_leaves=15
num_cat=0
split_feature=7 7 5 1 6 3 1 8 5 1 1 0 3 8
split_gain=26.3265 22.1836 1.20787 2.98058 3.41606 5.23169 3.06906 2.79238 2.44416 5.47139 5.38395 4.48862 4.28097 5.8363
threshold=94402.000000000015 94406.000000000015 22.500000000000004 44.500000000000007 6.5000000000000009 138395.50000000003 33.500000000000007 98.913043975830092 21.500000000000004 36.500000000000007 33.500000000000007 9.5000000000000018 160107.50000000003 85.634922027587905
decision_type=2 2 2 2 2 2 2 2 2 2 2 2 2 2
left_child=-1 2 8 4 5 -4 7 -7 -2 10 11 -10 13 -11
right_child=1 -3 3 -5 -6 6 -8 -9 9 12 -12 -13 -14 -15
leaf_value=-0.10212204334315092 0.0072946467965603994 -0.10157750552350571 0.14199700460868922 0.1386949562600612 0.091421930296617604 -0.071992832288895289 -0.18636398070630567 0.089624799174014405 0.032348725632883636 0.072143561898785444 -0.22740610349339843 -0.068753587612032499 0.15694894024220352 -0.12902917052473659
leaf_weight=24.661643179133534 571.08700770139694 19.589344762265682 1.5764513164758662 2.3288087844848624 3.9617062509059897 3.583391398191452 1.5025990158319471 1.5235819965600965 6.5830290913581928 4.0836978554725629 1.5714295506477345 13.189426228404045 2.4452460408210754 2.2294045090675354
leaf_count=1313 2534 1313 8 12 20 17 7 7 28 19 7 55 11 9
internal_value=0 0.00318475 0.00651809 0.0350618 0.0151946 -0.0216963 -0.0607389 -0.0237769 0.00583076 -0.0219415 -0.0492516 -0.0350926 0.0446126 0.00110157
internal_weight=0 635.255 615.666 14.4765 12.1477 8.18602 6.60957 5.10697 601.189 30.1022 21.3439 19.7725 8.75835 6.3131
internal_count=5360 4047 2734 71 59 39 31 24 2663 129 90 83 39 28
is_linear=0
shrinkage=0.1


Tree=32
num_leaves=15
num_cat=0
split_feature=7 7 8 5 6 8 8 1 6 1 1 5 5 6
split_gain=23.7135 19.8686 1.08987 3.18391 4.23227 3.64036 5.31026 3.39511 3.31614 3.09351 2.97208 3.47274 4.78726 6.43662
threshold=94402.000000000015 94406.000000000015 47.633054733276374 8.5000000000000018 14.500000000000002 20.02506256103516 15.362761974334719 26.500000000000004 5.5000000000000009 33.500000000000007 50.500000000000007 15.500000000000002 19.500000000000004 4.5000000000000009
decision_type=2 2 2 2 2 2 2 2 2 2 2 2 2 2
left_child=-1 2 3 4 5 6 -2 -5 9 -9 11 -11 13 -13
right_child=1 -3 -4 7 -6 -7 -8 8 -10 10 -12 12 -14 -15
leaf_value=-0.10191666617081428 -0.0053986436245919691 -0.10142531206555377 0.0025817768614593201 -0.0023700507571992129 -0.17690572213869132 0.074358825114234792 -0.17995764658259536 0.078670403598175759 0.012618670318585753 0.066383236802968273 0.091620145221972274 -0.304329229425574 0.024976026688925484 -0.035058899126922692
leaf_weight=22.357456063851714 58.014868013560772 17.75041623134166 379.8515996336937 52.849304459989071 1.4381881356239308 5.5019051283597937 1.7967063486576069 19.236702963709831 62.177879005670547 8.7174524962902087 6.0728353857994071 1.0817370265722299 12.605203762650488 4.94977867603302
leaf_count=1313 257 1313 1660 239 6 26 8 90 289 41 30 5 60 23
internal_value=0 0.002877 0.00589088 0.0112524 -0.00721841 -0.00348194 -0.0106423 0.018605 0.0282575 0.0467217 0.0283357 0.014286 -0.0100828 -0.0833518
internal_weight=0 632.045 614.294 234.443 66.7517 65.3135 59.8116 167.691 114.842 52.6637 33.427 27.3542 18.6367 6.03152
internal_count=5360 4047 2734 1074 297 291 265 777 538 249 159 129 88 28
is_linear=0
shrinkage=0.1


Tree=33
num_leaves=15
num_cat=0
split_feature=2 0 3 3 0 6 6 3 6 5 3 3 5 5
split_gain=19.8033 3.55975 4.16575 3.63016 3.12287 1.35003 3.08024 1.27996 3.40104 4.33262 7.88174 6.07899 3.90698 3.46716
threshold=4.5000000000000009 7.5000000000000009 166936.00000000003 134119.50000000003 6.5000000000000009 5.5000000000000009 13.500000000000002 143234.50000000003 3.5000000000000004 4.5000000000000009 149721.50000000003 160937.00000000003 5.5000000000000009 1.5000000000000002
decision_type=2 2 2 2 2 2 2 2 2 2 2 2 2 2
left_child=1 2 3 -1 -4 -6 -7 -3 -9 10 -10 -12 -11 -13
right_child=-2 7 4 -5 5 6 -8 8 9 12 11 13 -14 -15
leaf_value=0.092344352493891751 -0.10120516911979226 0.0082139308789485523 0.14063695700439938 -0.11623860860116864 -0.11291980557691005 0.15097734474747695 -0.1624410931011242 0.025970329571944614 -0.10493168320634721 0.074670634688708687 0.081963999939629287 0.045548582638299875 -0.0021221506493255197 -0.055434914035474105
leaf_weight=0.94304129481315424 19.014002815820277 294.19368360564113 1.5936499089002598 7.2419584281742573 1.2345600174739959 0.82760064303874947 0.50485684722661972 41.12220467440784 11.614341240376232 6.8144700787961474 6.0528358351439264 4.3853269275277862 238.55275638122112 15.131308784708381
leaf_count=4 1616 1624 8 305 62 9 4 214 55 38 37 22 1277 85
internal_value=0 0.0023775 -0.0507912 -0.0922066 0.0306824 -0.0375793 0.0322258 0.00343987 -0.00089937 -0.00480996 -0.0366196 -0.00559037 1.05797e-05 -0.0327442
internal_weight=0 630.213 12.3457 8.185 4.16067 2.56702 1.33246 617.867 323.673 282.551 37.1838 25.5695 245.367 19.5166
internal_count=5360 3744 392 309 83 75 13 3352 1728 1514 199 144 1315 107
is_linear=0
shrinkage=0.1


Tree=34
num_leaves=15
num_cat=0
split_feature=7 7 3 3 5 5 5 0 3 5 6 0 3 6
split_gain=20.4216 16.2235 1.10558 5.63775 2.58767 4.04094 3.07619 4.86357 2.98907 2.30731 2.11173 2.10624 1.96661 3.79014
threshold=94402.000000000015 94406.000000000015 182701.50000000003 181860.00000000003 4.5000000000000009 11.500000000000002 13.500000000000002 10.500000000000002 198318.50000000003 17.500000000000004 13.500000000000002 9.5000000000000018 194091.00000000003 8.5000000000000018
decision_type=2 2 2 2 2 2 2 2 2 2 2 2 2 2
left_child=-1 2 3 -2 8 -6 7 -7 -4 -5 -10 12 -8 -14
right_child=1 -3 4 9 5 6 11 -9 10 -11 -12 -13 13 -15
leaf_value=-0.10170349622850459 0.0040852666361991278 -0.10119208058099166 0.042641410338537009 -0.24194213008948673 0.064765105874710779 -0.20671033808679318 0.10864808173773638 -0.0093763844026018821 -0.080637587691532231 -0.060576050136002861 0.046548797834082847 0.0012380614116123557 0.047060959840343322 -0.10722899065791847
leaf_weight=19.381570562720299 524.5881836861372 14.728230582550166 4.4054692611098281 1.2012692540884011 17.622929826378822 1.5505415946245182 3.8601486086845425 6.4215997010469437 7.3408262431621534 1.6858498007059095 1.5878008008003233 26.262610703706741 13.393993929028509 1.8069246858358372
leaf_count=1313 2339 1313 21 5 82 7 18 28 31 7 7 118 63 8
internal_value=0 0.00252034 0.00501736 0.0033183 0.0156545 0.0232536 0.00952734 -0.0477569 -0.0247621 -0.136039 -0.0580197 0.0196033 0.0449071 0.0287206
internal_weight=0 626.456 611.728 527.475 84.2528 70.9187 53.2958 7.97214 13.3341 2.88712 8.92863 45.3237 19.0611 15.2009
internal_count=5360 4047 2734 2351 383 324 242 35 59 12 38 207 89 71
is_linear=0
shrinkage=0.1


Tree=35
num_leaves=15
num_cat=0
split_feature=7 7 3 3 3 3 0 3 8 3 3 6 8 3
split_gain=18.4104 14.5613 1.08826 1.53022 4.49156 1.58628 5.25094 5.66609 4.11006 4.2164 3.95217 5.64435 4.57495 5.57335
threshold=94402.000000000015 94406.000000000015 200859.50000000003 182701.50000000003 181860.00000000003 145532.00000000003 9.5000000000000018 175161.50000000003 87.456295013427749 181453.50000000003 159771.50000000003 3.5000000000000004 91.042778015136733 153778.50000000003
decision_type=2 2 2 2 2 2 2 2 2 2 2 2 2 2
left_child=-1 2 3 4 5 -2 7 10 -9 -10 12 -12 13 -7
right_child=1 -3 -4 -5 -6 6 -8 8 9 -11 11 -13 -14 -15
leaf_value=-0.10153930018054191 0.0068492600627750796 -0.10107751399661669 -0.040423190133724168 0.017979844809953623 -0.12047149052935138 -0.030078939258412887 0.0086164938958588743 0.097857649531180688 0.02021036050439072 -0.19176646668764946 -0.30315899858646533 -0.070056429827297984 -0.091262625508503448 0.12431259232479458
leaf_weight=17.564085542224348 393.52529061585665 13.340990516357122 5.3379584103822699 78.215207703411579 2.9302762895822516 6.8176926225423795 85.75681022554636 4.9072493165731412 3.9911668598651886 1.2267724275588987 1.1030180305242563 17.834164619445801 5.3091436624526969 3.55853271484375
leaf_count=1313 1760 1313 24 359 12 30 383 22 17 5 5 78 23 16
internal_value=0 0.00227284 0.00453126 0.00492778 0.0029905 0.00368088 -0.00587312 -0.0336417 0.0321595 -0.0296268 -0.052885 -0.0836338 -0.0157615 0.0228697
internal_weight=0 623.854 610.513 605.175 526.96 524.03 130.505 44.7477 10.1252 5.21794 34.6226 18.9372 15.6854 10.3762
internal_count=5360 4047 2734 2710 2351 2339 579 196 44 22 152 83 69 46
is_linear=0
shrinkage=0.1


Tree=36
num_leaves=15
num_cat=0
split_feature=7 7 1 1 1 1 5 8 6 8 6 5 1 1
split_gain=16.6041 13.0797 0.995823 2.10304 1.64078 2.98447 2.77466 3.77989 2.8114 3.10961 2.17723 2.67058 2.80397 2.10087
threshold=94402.000000000015 94406.000000000015 57.500000000000007 61.500000000000007 48.500000000000007 40.500000000000007 18.500000000000004 21.24060153961182 13.500000000000002 49.209234237670906 2.5000000000000004 21.500000000000004 28.500000000000004 31.500000000000004
decision_type=2 2 2 2 2 2 2 2 2 2 2 2 2 2
left_child=-1 2 4 -4 5 10 8 -8 -6 -10 11 13 -13 -2
right_child=1 -3 3 -5 6 -7 7 -9 9 -11 -12 12 -14 -15
leaf_value=-0.10139111599671745 0.013192890299960715 -0.10097406057818831 0.083882025742584077 -0.02850290230992893 -0.019527695845293343 0.023898442860397343 0.076965642857964769 -0.037270449115243028 -0.15799195982154063 0.019793314741286837 -3.8544552059918817e-06 -0.17363975460418862 0.044876742840253503 0.059147501083529841
leaf_weight=15.914687358774243 31.610940933227539 12.08316644374281 4.4026230573654166 2.6778074949979782 19.876503944396976 72.654889643192291 6.1629420369863492 5.4649432897567749 3.3239304721355429 1.3974291980266569 444.90292949229479 1.3779060840606683 1.0233474671840666 14.516576915979384
leaf_count=1313 147 1313 21 12 90 333 31 24 14 6 1977 6 5 68
internal_value=0 0.00205133 0.00409414 0.0413782 0.00365585 0.00497618 -0.0169764 0.0232763 -0.0360046 -0.105371 0.00218999 0.0223027 -0.0805141 0.0276551
internal_weight=0 621.476 609.393 7.08043 602.312 566.087 36.2257 11.6279 24.5979 4.72136 493.432 48.5288 2.40125 46.1275
internal_count=5360 4047 2734 33 2701 2536 165 55 110 20 2203 226 11 215
is_linear=0
shrinkage=0.1


Tree=37
num_leaves=15
num_cat=0
split_feature=7 7 1 1 3 3 1 8 3 0 0 6 3 0
split_gain=14.9794 11.7564 0.919117 12.3812 3.82602 2.95271 1.99018 3.93569 2.78137 3.86202 1.92014 5.29266 1.84498 2.23801
threshold=94402.000000000015 94406.000000000015 1.0000000180025095e-35 20.500000000000004 134119.50000000003 160892.50000000003 22.500000000000004 87.96551895141603 133254.00000000003 10.500000000000002 10.500000000000002 12.500000000000002 178871.50000000003 10.500000000000002
decision_type=2 2 2 2 2 2 2 2 2 2 2 2 2 2
left_child=-1 2 4 -4 -2 -6 7 -5 9 -9 -10 -12 13 -7
right_child=1 -3 3 6 5 12 -8 8 10 -11 11 -13 -14 -15
leaf_value=-0.10125734397616436 0.11427852416441692 -0.10088060805270281 0.11775168399899574 -0.045359514901284835 -0.036198658846734844 0.18323040200005017 0.0046082677206302795 0.056681226285793085 -0.003112036428678697 -0.19755045312316852 0.099241695340692937 -0.087287850527088429 0.0020937972106068944 0.0015205073314812946
leaf_weight=14.418260834179817 2.3138007223606101 10.942913955077527 9.5328100845217687 23.795775562524796 27.258208990097046 1.4107350111007682 511.33020161092281 1.0525141507387188 10.674258664250374 1.3822282552719116 7.134187251329422 1.9334234446287153 9.17982070147991 1.3046298176050186
leaf_count=1313 11 1313 76 100 114 6 2287 5 45 6 30 8 40 6
internal_value=0 0.00184997 0.00369801 0.00474937 -0.0106735 -0.0180576 0.00281643 -0.0171133 0.0131952 -0.0876487 0.0256321 0.0594693 0.0235132 0.0959257
internal_weight=0 619.246 608.303 566.835 41.4672 39.1534 557.303 45.9724 22.1766 2.43474 19.7419 9.06761 11.8952 2.71536
internal_count=5360 4047 2734 2557 177 166 2481 194 94 11 83 38 52 12
is_linear=0
shrinkage=0.1


Tree=38
num_leaves=15
num_cat=0
split_feature=7 7 5 1 6 5 1 1 1 8 1 8 1 1
split_gain=13.5195 10.5752 0.99035 2.54031 3.00517 2.01933 4.06359 4.0941 3.80784 2.94219 3.61846 3.00614 2.53782 5.55772
threshold=94402.000000000015 94406.000000000015 22.500000000000004 44.500000000000007 6.5000000000000009 21.500000000000004 36.500000000000007 33.500000000000007 48.500000000000007 10.01253128051758 21.500000000000004 62.899168014526374 25.500000000000004 24.500000000000004
decision_type=2 2 2 2 2 2 2 2 2 2 2 2 2 2
left_child=-1 2 5 4 -4 -2 7 9 -8 10 -7 -11 13 -13
right_child=1 -3 3 -5 -6 6 8 -9 -10 11 -12 12 -14 -15
leaf_value=-0.1011365574656322 0.0040709196604206471 -0.10079619711979824 -0.022568968419851523 0.13138714884091604 0.085681650503461299 -0.12249134166098359 0.081649245789626637 -0.19704297798714859 -0.063322653621010389 -0.21192733734707239 0.061335376300174271 -0.057245264267257179 -0.084019448752055859 0.17483294288551687
leaf_weight=13.060970093123613 563.20421972125769 9.9094284037128073 8.0846209675073606 2.0885575860738745 3.7559659034013739 1.358262181282053 5.7780976891517621 1.6523727774620045 2.6394322961568832 1.1864951699972142 5.0594651848077774 3.6251204758882505 7.0294628292322159 1.4424699842929838
leaf_count=1313 2534 1313 39 12 20 6 27 7 12 5 22 15 29 6
internal_value=0 0.00167522 0.00334836 0.029705 0.0117693 0.00272923 -0.0226525 -0.0458484 0.0361913 -0.0331676 0.0224299 -0.0600285 -0.0451301 0.0088149
internal_weight=0 616.814 606.905 13.9291 11.8406 592.975 29.7712 21.3536 8.41753 19.7013 6.41773 13.2835 12.0971 5.06759
internal_count=5360 4047 2734 71 59 2663 129 90 39 83 28 55 50 21
is_linear=0
shrinkage=0.1


Tree=39
num_leaves=15
num_cat=0
split_feature=2 0 3 3 0 5 5 1 3 3 1 1 3 5
split_gain=10.7067 1.9613 3.87444 3.7889 3.42756 1.25836 1.4811 1.18192 1.01169 3.86066 8.14671 4.40599 4.6364 4.141
threshold=4.5000000000000009 7.5000000000000009 145121.50000000003 134119.50000000003 6.5000000000000009 5.5000000000000009 6.5000000000000009 31.500000000000004 143234.50000000003 140009.00000000003 25.500000000000004 20.500000000000004 143232.50000000003 5.5000000000000009
decision_type=2 2 2 2 2 2 2 2 2 2 2 2 2 2
left_child=1 2 3 -1 -4 -6 -7 -8 9 -3 11 -11 13 -13
right_child=-2 8 4 -5 5 6 7 -9 -10 10 -12 12 -14 -15
leaf_value=0.076862427114529508 -0.10065701501514102 -0.0020015655503190055 0.13672475777740589 -0.146248897275288 -0.15027475662892975 0.1447634998670316 -0.11769975857973261 0.044014880686317148 -0.001894791712462417 0.04925685336937758 0.043160753841189337 0.038566500722080732 0.15930112212474964 -0.066336936257174725
leaf_weight=0.93594215810298731 10.478861717507241 190.76438544690609 1.6716565191745756 4.0756099256686866 0.78405630448833141 0.52107587875798378 1.0236055864952502 0.80926346499472845 317.80502024292946 7.590015633031725 64.551997279748321 4.6359832915477517 1.1446697115898121 19.98147659143433
leaf_count=4 1616 965 9 219 21 8 83 48 1728 40 457 31 5 126
internal_value=0 0.0012799 -0.0430504 -0.104581 0.0210633 -0.0405512 -0.00400423 -0.0462982 0.00199778 0.00628325 0.0224261 -0.0177053 -0.0374336 -0.0465814
internal_weight=0 616.295 9.82121 5.01155 4.80966 3.138 2.35394 1.83287 606.474 288.669 97.9041 33.3521 25.7621 24.6175
internal_count=5360 3744 392 223 169 160 139 131 3352 1624 659 202 162 157
is_linear=0
shrinkage=0.1


Tree=40
num_leaves=15
num_cat=0
split_feature=7 7 3 3 3 5 3 3 3 5 5 3 5 8
split_gain=11.7264 8.70576 0.869802 1.28553 3.56398 1.87976 1.40855 2.40225 2.33076 1.4505 3.35361 1.2446 1.21453 1.54071
threshold=94402.000000000015 94406.000000000015 200859.50000000003 182701.50000000003 181860.00000000003 17.500000000000004 198316.00000000003 198323.00000000003 185310.00000000003 10.500000000000002 12.500000000000002 193849.50000000003 21.500000000000004 89.913791656494155
decision_type=2 2 2 2 2 2 2 2 2 2 2 2 2 2
left_child=-1 2 3 4 -2 -6 8 9 -5 -8 -11 -10 -9 -14
right_child=1 -3 -4 6 5 -7 7 12 11 10 -12 -13 13 -15
leaf_value=-0.10102319471870543 0.0020662810270695802 -0.10067121000411589 -0.037373397477664487 0.01223231493516487 -0.20207542010637211 -0.040310184666685261 -0.11943711375508025 0.0083301086209279455 0.10775501062333026 0.15307995290121967 -0.066179108980625651 0.036829152285716031 0.14280348161143852 0.0085316315626003964
leaf_weight=11.368414025753735 519.70279785990715 8.231645231600849 5.3246534913778296 18.991147086024288 1.2373300641775125 1.7126306295394895 2.1573596596717826 38.579909212887287 4.9195096939802152 0.89400424063205708 3.1750581786036491 4.9773029983043671 1.5835359245538703 1.8564059436321259
leaf_count=1313 2339 1313 24 90 5 7 9 175 24 4 14 27 8 8
internal_value=0 0.00147588 0.00286544 0.00322266 0.00144414 -0.108161 0.0152737 0.00481716 0.0327374 -0.0531505 -0.0180062 0.072085 0.0134067 0.0703421
internal_weight=0 613.343 605.112 599.787 522.653 2.94996 77.1342 48.2463 28.888 6.22642 4.06906 9.89681 42.0199 3.43994
internal_count=5360 4047 2734 2710 2351 12 359 218 141 27 18 51 191 16
is_linear=0
shrinkage=0.1


Tree=41
num_leaves=15
num_cat=0
split_feature=7 0 3 3 0 6 3 3 3 5 6 6 3 5
split_gain=10.5873 1.79517 3.56185 3.03691 2.77884 1.66059 1.1551 0.936452 4.19126 3.39289 3.20511 3.09031 3.01712 2.8985
threshold=94402.000000000015 7.5000000000000009 145121.50000000003 124648.50000000001 6.5000000000000009 13.500000000000002 198318.50000000003 143234.50000000003 140009.00000000003 5.5000000000000009 4.5000000000000009 13.500000000000002 143237.50000000003 22.500000000000004
decision_type=2 2 2 2 2 2 2 2 2 2 2 2 2 2
left_child=-1 2 3 -2 -4 6 -6 8 9 10 -3 -12 -9 -11
right_child=1 7 4 -5 5 -7 -8 12 -10 13 11 -13 -14 -15
leaf_value=-0.10092512251066739 0.13572433585297858 -0.11849875908764036 0.13184450737700298 -0.12662338498109424 0.064865435716385492 -0.14054552383242658 -0.11923339627622592 -0.091240369100887314 0.023369761156182393 -0.010383649135754134 0.050008357450946353 -0.034386579408538544 -0.00068104130023445716 0.075112510267525245
leaf_weight=10.296053738798944 0.48993841465562393 1.4266055095940853 1.5346043482422826 4.4393607657402754 1.4092833483591678 0.97959146555513132 0.44952423777431239 3.7227818416431537 94.592647502198815 156.34753709379584 24.330433856695894 5.2804552679881445 312.62445287080482 4.0685192653909317
leaf_count=1313 9 8 9 293 94 58 21 21 469 921 199 38 1852 55
internal_value=0 0.00132926 -0.0422651 -0.100548 0.0234318 -0.0351824 0.0203439 0.00200245 0.00614881 -0.00235965 0.0279049 0.0349584 -0.00174675 -0.00821527
internal_weight=0 611.696 9.3023 4.9293 4.373 2.8384 1.85881 602.393 286.046 191.454 31.0375 29.6109 316.347 160.416
internal_count=5360 4047 484 302 182 173 115 3563 1690 1221 245 237 1873 976
is_linear=0
shrinkage=0.1


Tree=42
num_leaves=15
num_cat=0
split_feature=7 4 1 5 3 4 1 1 8 6 3 1 8 6
split_gain=9.56179 1.21551 1.31729 1.48527 3.2335 1.36262 1.35203 1.79452 2.31113 1.14175 2.6108 1.48833 1.83164 1.05213
threshold=94402.000000000015 2.5000000000000004 38.500000000000007 14.500000000000002 140210.50000000003 1.5000000000000002 25.500000000000004 26.500000000000004 17.445652008056644 1.5000000000000002 198316.00000000003 31.500000000000004 92.206478118896499 9.5000000000000018
decision_type=2 2 2 2 2 2 2 2 2 2 2 2 2 2
left_child=-1 2 3 4 -2 -6 -5 -8 -9 10 11 -3 -13 -7
right_child=1 9 -4 6 5 13 7 8 -10 -11 -12 12 -14 -15
leaf_value=-0.10083650842302672 -0.13144200020558486 0.13240018337337692 -0.12172530470965198 -0.13360221721108215 0.20885928230050516 -0.11357282000060501 0.23244894546454301 0.11149072494252972 -0.12652238293331752 0.001272179208108435 -0.061291837454147659 -0.080920193114266376 0.12518931921501711 0.095328683707529366
leaf_weight=9.3240251601673645 0.81585035892203395 2.6581225246191016 1.5116783101111648 1.486784120090306 0.77220920659601744 0.32933784602209881 0.26870300807058844 0.62236003531143058 1.1842723549343643 596.62868318939582 1.6772305965423582 0.94241724349558331 0.79478961229324341 0.89978876523673534
leaf_count=1313 72 15 93 81 9 30 10 28 75 3573 7 6 5 43
internal_value=0 0.00120076 -0.0377924 -0.0179031 0.0363547 0.104757 -0.0608142 -0.00866841 -0.0445301 0.00171128 0.0448532 0.0853575 0.013377 0.0393547
internal_weight=0 610.592 7.89098 6.37931 2.81719 2.00134 3.56212 2.07534 1.80663 602.701 6.07256 4.39533 1.73721 1.22913
internal_count=5360 4047 441 348 154 82 194 113 103 3606 33 26 11 73
is_linear=0
shrinkage=0.1


Tree=43
num_leaves=15
num_cat=0
split_feature=2 0 3 3 0 6 3 1 1 3 3 3 3 3
split_gain=8.03512 1.16868 2.98457 3.19218 2.33805 1.19891 1.12402 0.858707 10.8633 4.54607 2.31589 2.12322 4.09911 3.64927
threshold=4.5000000000000009 7.5000000000000009 145121.50000000003 134119.50000000003 6.5000000000000009 13.500000000000002 192855.50000000003 20.500000000000004 1.0000000180025095e-35 134119.50000000003 160892.50000000003 142832.50000000003 143240.50000000003 145532.00000000003
decision_type=2 2 2 2 2 2 2 2 2 2 2 2 2 2
left_child=1 2 3 -1 -4 6 -6 8 9 -3 11 -11 -13 -14
right_child=-2 7 4 -5 5 -7 -8 -9 -10 10 -12 12 13 -15
leaf_value=0.073027464042177415 -0.10050016968597758 0.13973256283921645 0.12803438924919561 -0.14007352979546212 0.056092687748989595 -0.14776978282026387 -0.11057729742182487 0.00038750840749121173 0.11567860456230268 -0.004992797332653464 0.02245625620377565 -0.15672122794769652 0.043501128222230422 -0.083792258648743248
leaf_weight=0.89071738719939997 7.9024791284464291 1.9785747230052937 1.4263422116637228 3.3343202746473253 1.4038233309984209 0.65867202356457699 0.56848854944109906 554.07021517958492 8.6670423895120603 13.810891610570254 11.115404378622769 3.3391390889883033 4.0535590052604658 5.067749097943306
leaf_count=4 1616 10 9 219 101 5 54 3104 76 60 50 14 17 21
internal_value=0 0.000986222 -0.036322 -0.0951478 0.0249355 -0.0309578 0.00805263 0.00149942 0.0143258 -0.00798904 -0.0158067 -0.0319958 -0.0619254 -0.0272224
internal_weight=0 610.385 8.28236 4.22504 4.05733 2.63098 1.97231 602.103 48.0324 39.3653 37.3867 26.2713 12.4604 9.12131
internal_count=5360 3744 392 223 169 160 155 3352 248 172 162 112 52 38
is_linear=0
shrinkage=0.1


Tree=44
num_leaves=15
num_cat=0
split_feature=2 3 1 4 6 6 1 3 3 1 6 8 3 1
split_gain=7.26243 0.756482 2.73876 0.839186 2.38226 1.46703 2.09474 1.5607 1.12404 1.35257 0.91649 2.16547 0.922632 1.19744
threshold=4.5000000000000009 124649.50000000001 33.500000000000007 2.5000000000000004 9.5000000000000018 5.5000000000000009 27.500000000000004 166536.50000000003 140210.50000000003 26.500000000000004 1.5000000000000002 18.350168228149418 198311.50000000003 41.500000000000007
decision_type=2 2 2 2 2 2 2 2 2 2 2 2 2 2
left_child=1 2 -1 4 5 6 7 8 9 -3 11 -5 -13 -14
right_child=-2 3 -4 10 -6 -7 -8 -9 -10 -11 -12 12 13 -15
leaf_value=-0.050901887574079457 -0.10045235194787186 -0.12306404791528075 0.13321950283846781 -0.07652531968358578 0.094497520137411917 -0.13628294449373832 -0.11394372551611456 -0.11787561904664359 0.15950866161213029 0.16783656126676016 0.0006364387904708496 0.12489861643246324 -0.0098438385995626744 0.13230943084441457
leaf_weight=1.4893171489238732 7.1536894605960688 0.41333997389301635 1.7656592726707456 1.2538654766976822 1.171822414267808 1.808190405834466 1.5500291967764495 0.48220915067940939 0.91754617542028427 0.26060811709612608 593.17747613927349 1.9108133302070198 1.8993028490804138 0.86128530837595452
leaf_count=7 1616 44 10 8 12 25 150 32 40 4 3380 15 11 6
internal_value=0 0.000894931 0.0489746 0.000636558 -0.0348165 -0.0627132 -0.026003 0.03973 0.0874831 -0.0105761 0.00102735 0.0401611 0.0714813 0.034507
internal_weight=0 608.961 3.25498 605.706 6.60375 5.43192 3.62373 2.0737 1.59149 0.673948 599.103 5.92527 4.6714 2.76059
internal_count=5360 3744 17 3727 307 295 270 120 88 48 3420 40 32 17
is_linear=0
shrinkage=0.1


Tree=45
num_leaves=15
num_cat=0
split_feature=7 2 1 1 1 1 3 0 1 3 1 3 3 5
split_gain=8.11663 5.1583 0.791219 1.73723 1.30714 2.23448 3.98754 2.80676 2.70907 4.2623 3.28572 3.0646 3.02299 2.13279
threshold=94402.000000000015 4.5000000000000009 57.500000000000007 61.500000000000007 48.500000000000007 40.500000000000007 198363.50000000003 10.500000000000002 42.500000000000007 143618.00000000003 44.500000000000007 140210.50000000003 140214.50000000003 18.500000000000004
decision_type=2 2 2 2 2 2 2 2 2 2 2 2 2 2
left_child=-1 2 4 -4 5 -2 7 8 -7 10 12 -12 -10 -6
right_child=1 -3 3 -5 13 6 -8 -9 9 -11 11 -13 -14 -15
leaf_value=-0.10075321469819498 0.00027161170922907678 -0.10042537600556226 0.075744612863868105 -0.027285169917894987 -0.033593647101381525 0.046018143142432993 -0.056660789426785943 0.042065582558400795 -0.24720006676756295 0.040839265244059814 0.027869012401574318 -0.14757105597301895 -0.068858922123227209 0.018869539149986181
leaf_weight=7.9334484073333433 487.8736800129991 4.9680288843810549 4.2006594804115585 2.6811162233352661 24.514907661359757 7.9423744231462505 6.3113932851701966 41.813211345113814 1.5192285031080226 5.8622031449340275 3.9750255402177572 1.3284154534339903 2.5387527793645859 11.330226304009555
leaf_count=1313 2305 1189 22 12 114 40 31 202 7 30 19 6 11 59
internal_value=0 0.00105368 0.00189129 0.0356046 0.00150137 0.00268808 0.019225 0.0265958 -0.00132623 -0.0260264 -0.0678983 -0.0160755 -0.135626 -0.0170106
internal_weight=0 606.859 601.891 6.88178 595.009 559.164 71.2906 64.9792 23.166 15.2236 9.36142 5.30344 4.05798 35.8451
internal_count=5360 4047 2858 34 2824 2651 346 315 113 73 43 25 18 173
is_linear=0
shrinkage=0.1


Tree=46
num_leaves=15
num_cat=0
split_feature=2 0 3 3 0 6 3 3 3 3 6 0 5 1
split_gain=5.93333 0.883382 2.54021 2.84382 2.03055 1.1067 0.897664 0.782849 3.31807 6.8821 2.71364 3.12289 3.69822 2.85983
threshold=4.5000000000000009 7.5000000000000009 145121.50000000003 134119.50000000003 6.5000000000000009 13.500000000000002 192855.50000000003 145532.00000000003 149721.50000000003 149669.50000000003 4.5000000000000009 10.500000000000002 4.5000000000000009 21.500000000000004
decision_type=2 2 2 2 2 2 2 2 2 2 2 2 2 2
left_child=1 2 3 -1 -4 6 -6 -3 9 10 11 12 -9 -13
right_child=-2 7 4 -5 5 -7 -8 8 -10 -11 -12 13 -14 -15
leaf_value=0.069324747031331221 -0.10037001485048468 0.003838743230888707 0.12484582668799163 -0.13683773864354407 0.052040542318730003 -0.14308166037686273 -0.10844096840060967 0.066579967794889783 0.0008419101442257923 -0.1773689642721602 -0.040394115674299784 -0.060235325408636131 -0.18006849771920103 0.14346922142914426
leaf_weight=0.86342012882232611 5.8609653552994123 386.88924776623026 1.3248719871044161 2.9727306237909943 1.3527888597454878 0.62975867884233583 0.46952245081774879 1.2800842672586488 187.67927543632686 3.1013276726007453 15.649985399097204 0.90665263682603869 1.1576825678348539 2.8733742982149124
leaf_count=4 1616 2118 9 219 101 5 54 6 1095 13 96 5 5 14
internal_value=0 0.000729937 -0.0331197 -0.0904358 0.025095 -0.0288012 0.0106921 0.00115977 -0.00371432 -0.037961 -0.0181899 0.0376973 -0.0505521 0.09461
internal_weight=0 607.151 7.61309 3.83615 3.77694 2.45207 1.82231 599.538 212.648 24.9691 21.8678 6.21779 2.43777 3.78003
internal_count=5360 3744 392 223 169 160 155 3352 1234 139 126 30 11 19
is_linear=0
shrinkage=0.1


Tree=47
num_leaves=15
num_cat=0
split_feature=7 2 8 5 5 6 8 8 5 6 6 6 8 8
split_gain=7.11504 4.20451 0.762285 2.99905 2.50147 3.08999 2.81765 4.13157 2.62965 2.46768 2.43002 2.41731 2.39776 8.36109
threshold=94402.000000000015 4.5000000000000009 47.633054733276374 20.500000000000004 8.5000000000000018 14.500000000000002 20.02506256103516 15.362761974334719 6.5000000000000009 1.0000000180025095e-35 14.500000000000002 4.5000000000000009 92.206478118896499 70.064933776855483
decision_type=2 2 2 2 2 2 2 2 2 2 2 2 2 2
left_child=-1 2 4 -4 5 6 7 8 -2 -6 11 12 13 -5
right_child=1 -3 3 10 9 -7 -8 -9 -10 -11 -12 -13 -14 -15
leaf_value=-0.1006835946123619 0.00042886937087907974 -0.10034799416330553 0.0051803471554244225 0.12547351981076468 -0.15410554821222236 -0.15387928600112996 0.063679687229079796 -0.16049722751914919 -0.060241877855389717 0.013721202580006706 0.10630082256791401 -0.019646742742579194 0.074643859432521553 -0.15758855316126438
leaf_weight=6.9686362026259294 48.513096111360937 4.0705147443804881 248.39129431592301 1.9601476490497569 0.8808910995721807 1.4661755710840214 5.1760455872863522 1.8464891265612084 8.3776459619402868 161.95287858089432 1.660431995987891 112.51724184351042 5.6387457028031349 2.2314827339723706
leaf_count=1313 226 1189 1153 10 4 6 27 9 38 814 8 522 29 12
internal_value=0 0.000941946 0.00162842 -0.00116045 0.0061793 -0.0103433 -0.0070506 -0.0132835 -0.00850541 0.0128133 -0.0138612 -0.015492 0.0320627 -0.0252192
internal_weight=0 604.683 600.613 372.399 228.213 65.3795 63.9133 58.7372 56.8907 162.834 124.008 122.348 9.83038 4.19163
internal_count=5360 4047 2858 1734 1124 306 300 273 264 818 581 573 51 22
is_linear=0
shrinkage=0.1


Tree=48
num_leaves=15
num_cat=0
split_feature=7 2 1 6 1 8 1 1 0 1 1 8 8 1
split_gain=6.42927 3.7941 0.661605 2.00326 1.71352 2.08514 1.05499 1.79938 2.34138 2.4684 2.61751 3.408 1.94869 3.36354
threshold=94402.000000000015 4.5000000000000009 57.500000000000007 5.5000000000000009 62.500000000000007 87.456295013427749 48.500000000000007 40.500000000000007 10.500000000000002 42.500000000000007 44.500000000000007 16.878787994384769 80.45932769775392 43.500000000000007
decision_type=2 2 2 2 2 2 2 2 2 2 2 2 2 2
left_child=-1 2 6 -4 5 -5 7 -2 9 -9 12 -12 13 -11
right_child=1 -3 3 4 -6 -7 -8 8 -10 10 11 -13 -14 -15
leaf_value=-0.10061826179136563 2.6897296359979062e-05 -0.10031477234578874 0.1288767973624467 0.10280703390750134 -0.082919055698231117 -0.055317677598686422 -0.015515512967345184 0.037412218682996427 0.030871942590754584 0.041420559628914028 -0.061148091980289136 0.059501144317292434 -0.14340198326508624 -0.12086432982814997
leaf_weight=6.3093687840737394 486.58201312110759 3.6843118094839147 1.6371816331520666 2.14077040553093 1.6285520046949384 1.3661095052957533 35.816844854038209 8.393294110894205 44.921679509803653 2.6585899866186109 4.1855308860540372 5.3134604841470718 2.5603309869766235 2.4578666929155588
leaf_count=1313 2305 1189 11 10 7 6 173 43 220 14 19 27 11 12
internal_value=0 0.000853903 0.00147548 0.0325536 0.00184566 0.0412094 0.00112047 0.00219008 0.0171221 -0.00703479 -0.0287547 0.00633959 -0.0721792 -0.0365386
internal_weight=0 603.347 599.662 6.77261 5.13543 3.50688 592.89 557.073 70.4908 25.5691 17.1758 9.49899 7.67679 5.11646
internal_count=5360 4047 2858 34 23 16 2824 2651 346 126 83 46 37 26
is_linear=0
shrinkage=0.1


Tree=49
num_leaves=15
num_cat=0
split_feature=7 2 5 3 1 3 1 1 5 1 3 1 3 3
split_gain=5.81024 3.42452 0.7095 2.32963 2.55279 2.66634 2.44207 2.70817 1.79889 2.85011 3.45901 3.25131 3.07381 2.8495
threshold=94402.000000000015 4.5000000000000009 22.500000000000004 138395.50000000003 44.500000000000007 185344.00000000003 33.500000000000007 19.500000000000004 21.500000000000004 36.500000000000007 160107.50000000003 33.500000000000007 198323.00000000003 145532.00000000003
decision_type=2 2 2 2 2 2 2 2 2 2 2 2 2 2
left_child=-1 2 8 -4 5 6 7 -5 -2 11 -11 12 13 -10
right_child=1 -3 3 4 -6 -7 -8 -9 9 10 -12 -13 -14 -15
leaf_value=-0.10055919714085089 0.0020844032403221709 -0.10028472899571071 0.13084649968150316 -0.11516288362373249 0.12866934032561264 0.124883468890475 -0.13632619551068859 0.030346796322890879 -0.012905809329703874 -0.011439922665203408 0.13815673909467724 -0.17449399854641839 0.072987412881505578 -0.096725343839762085
leaf_weight=5.7121357088908544 556.4657236225903 3.3346511148847631 1.7734079286456097 1.6727640479803065 1.5192837566137303 1.2742459238506842 1.73187680542469 5.4345582667738199 10.198632019571972 5.9893518928438407 2.0832505179569125 1.7192018325440575 2.4789414885453871 6.733692228794097
leaf_count=1313 2638 1189 11 7 9 10 8 29 45 30 12 11 19 29
internal_value=0 0.000772938 0.00133546 0.0240817 0.00780543 -0.0103513 -0.0298465 -0.00390005 0.00081479 -0.0233777 0.0271656 -0.0426871 -0.0310134 -0.0462394
internal_weight=0 602.41 599.075 13.4061 11.6327 10.1134 8.8392 7.10732 585.669 29.2031 8.0726 21.1305 19.4113 16.9323
internal_count=5360 4047 2858 74 63 54 44 36 2784 146 42 104 93 74
is_linear=0
shrinkage=0.1


Tree=50
num_leaves=15
num_cat=0
split_feature=2 3 1 1 5 3 3 5 0 3 3 5 3 1
split_gain=3.96478 0.744071 1.2421 1.69957 1.18421 0.776825 2.80973 1.52657 1.32958 1.5216 2.06807 1.23576 4.03493 1.87486
threshold=4.5000000000000009 200862.50000000003 35.500000000000007 27.500000000000004 12.500000000000002 182701.50000000003 181860.00000000003 17.500000000000004 7.5000000000000009 126875.50000000001 145121.50000000003 21.500000000000004 134897.50000000003 43.500000000000007
decision_type=2 2 2 2 2 2 2 2 2 2 2 2 2 2
left_child=1 5 3 -3 -4 6 8 -8 9 -1 -11 -10 -13 -14
right_child=-2 2 4 -5 -6 -7 7 -9 11 10 -12 12 13 -15
leaf_value=0.13697669042946709 -0.10024767363008696 -0.047913550201549998 -0.0013747867718913922 0.14551276245439193 -0.15008114887130786 0.010159270598434361 -0.18360497423643821 -0.037214703850785784 0.0017438618582728991 -0.11526633039367838 0.027675741353485817 0.056249663708915078 -0.044557521243498432 0.03434051899316725
leaf_weight=0.39400649070739646 3.9322977620176962 1.3943364038132124 0.87655009725131128 0.67377357138320793 1.3763951268047092 77.093283261172473 1.2215759158134454 1.7088384032249448 480.1378550697118 3.050866219215095 1.5146472933702169 5.9675554947461924 23.749762468039993 3.4493061974644652
leaf_count=2 1616 12 9 5 7 541 5 7 2660 221 103 32 120 20
internal_value=0 0.000491535 -0.040856 0.0151032 -0.0922242 0.000790162 -0.000595684 -0.0982391 -4.358e-05 -0.0515722 -0.0678441 0.000454287 -0.0182143 -0.0345519
internal_weight=0 602.609 4.32106 2.06811 2.25295 598.288 521.194 2.93041 518.264 4.95952 4.56551 513.304 33.1666 27.1991
internal_count=5360 3744 33 17 16 3711 3170 12 3158 326 324 2832 172 140
is_linear=0
shrinkage=0.1


Tree=51
num_leaves=15
num_cat=0
split_feature=7 2 8 3 8 1 3 3 3 1 8 1 1 3
split_gain=5.12809 2.7952 0.634324 2.4458 2.79179 2.76413 2.73367 4.54063 2.6018 3.25907 4.04994 4.84828 2.59819 2.55766
threshold=94402.000000000015 4.5000000000000009 47.633054733276374 139541.50000000003 25.19841289520264 22.500000000000004 139542.50000000003 139743.50000000003 134121.50000000003 43.500000000000007 25.19841289520264 36.500000000000007 26.500000000000004 129847.00000000001
decision_type=2 2 2 2 2 2 2 2 2 2 2 2 2 2
left_child=-1 2 3 8 6 -6 12 -8 13 10 11 -10 -5 -2
right_child=1 -3 -4 4 5 -7 7 -9 9 -11 -12 -13 -14 -15
leaf_value=-0.10050954568318922 -0.014123041904970194 -0.10023299348577737 -0.0013900011933670837 0.16007826013243706 -0.043506475284569503 0.085749100012714533 -0.090453363135548248 0.0087966606032877787 -0.030997431826157995 -0.10869376629940533 -0.16023519494440222 0.084921573575867382 0.01862646979027982 0.045070210167030646
leaf_weight=5.0488331511151037 19.708834759891037 2.7315459024393922 371.00926291220821 2.2551325112581244 2.0465241372585288 8.6364520308561605 4.7594571635127059 146.31381132220849 17.019850075244914 4.8461949033662668 1.8592233806848515 4.5787686556577674 3.0612467527389526 11.593505077064036
leaf_count=1313 100 1189 1734 10 10 48 22 739 74 22 8 21 14 56
internal_value=0 0.000695167 0.00115643 0.00532421 0.0115286 0.0609878 0.00815004 0.00566986 -0.0120663 -0.0340375 -0.0186142 -0.00642335 0.0786283 0.00780047
internal_weight=0 600.42 597.688 226.679 167.073 10.683 156.39 151.073 59.6064 28.304 23.4578 21.5986 5.31638 31.3023
internal_count=5360 4047 2858 1124 843 58 785 761 281 125 103 95 24 156
is_linear=0
shrinkage=0.1


end of trees

feature_importances:
Column_3=163
Column_1=135
Column_5=105
Column_8=92
Column_7=75
Column_6=73
Column_0=39
Column_2=33
Column_4=13

parameters:
[boosting: gbdt]
[objective: binary]
[metric: auc]
[tree_learner: serial]
[device_type: cpu]
[data_sample_strategy: bagging]
[data: ]
[valid: ]
[num_iterations: 10000]
[learning_rate: 0.1]
[num_leaves: 15]
[num_threads: 0]
[seed: 44]
[deterministic: 0]
[force_col_wise: 0]
[force_row_wise: 0]
[histogram_pool_size: -1]
[max_depth: -1]
[min_data_in_leaf: 5]
[min_sum_hessian_in_leaf: 0.001]
[bagging_fraction: 0.5]
[pos_bagging_fraction: 1]
[neg_bagging_fraction: 1]
[bagging_freq: 0]
[bagging_seed: 21897]
[feature_fraction: 0.8]
[feature_fraction_bynode: 1]
[feature_fraction_seed: 12646]
[extra_trees: 0]
[extra_seed: 20733]
[early_stopping_round: 0]
[early_stopping_min_delta: 0]
[first_metric_only: 0]
[max_delta_step: 0]
[lambda_l1: 0]
[lambda_l2: 0]
[linear_lambda: 0]
[min_gain_to_split: 0]
[drop_rate: 0.1]
[max_drop: 50]
[skip_drop: 0.5]
[xgboost_dart_mode: 0]
[uniform_drop: 0]
[drop_seed: 20829]
[top_rate: 0.2]
[other_rate: 0.1]
[min_data_per_group: 100]
[max_cat_threshold: 32]
[cat_l2: 10]
[cat_smooth: 10]
[max_cat_to_onehot: 4]
[top_k: 20]
[monotone_constraints: ]
[monotone_constraints_method: basic]
[monotone_penalty: 0]
[feature_contri: ]
[forcedsplits_filename: ]
[refit_decay_rate: 0.9]
[cegb_tradeoff: 1]
[cegb_penalty_split: 0]
[cegb_penalty_feature_lazy: ]
[cegb_penalty_feature_coupled: ]
[path_smooth: 0]
[interaction_constraints: ]
[verbosity: -1]
[saved_feature_importance_type: 0]
[use_quantized_grad: 0]
[num_grad_quant_bins: 4]
[quant_train_renew_leaf: 0]
[stochastic_rounding: 1]
[linear_tree: 0]
[max_bin: 255]
[max_bin_by_feature: ]
[min_data_in_bin: 3]
[bin_construct_sample_cnt: 200000]
[data_random_seed: 182]
[is_enable_sparse: 1]
[enable_bundle: 1]
[use_missing: 1]
[zero_as_missing: 0]
[feature_pre_filter: 1]
[pre_partition: 0]
[two_round: 0]
[header: 0]
[label_column: ]
[weight_column: ]
[group_column: ]
[ignore_column: ]
[categorical_feature: ]
[forcedbins_filename: ]
[precise_float_parser: 0]
[parser_config_file: ]
[objective_seed: 3944]
[num_class: 1]
[is_unbalance: 0]
[scale_pos_weight: 1]
[sigmoid: 1]
[boost_from_average: 1]
[reg_sqrt: 0]
[alpha: 0.9]
[fair_c: 1]
[poisson_max_delta_step: 0.7]
[tweedie_variance_power: 1.5]
[lambdarank_truncation_level: 30]
[lambdarank_norm: 1]
[label_gain: ]
[lambdarank_position_bias_regularization: 0]
[eval_at: ]
[multi_error_top_k: 1]
[auc_mu_weights: ]
[num_machines: 1]
[local_listen_port: 12400]
[time_out: 120]
[machine_list_filename: ]
[machines: ]
[gpu_platform_id: -1]
[gpu_device_id: -1]
[gpu_use_dp: 0]
[num_gpu: 1]

end of parameters

pandas_categorical:null
