{"learner":{"attributes":{"best_iteration":"33","best_score":"0.8830903614003035"},"feature_names":[],"feature_types":[],"gradient_booster":{"model":{"gbtree_model_param":{"num_parallel_tree":"1","num_trees":"84"},"iteration_indptr":[0,1,2,3,4,5,6,7,8,9,10,11,12,13,14,15,16,17,18,19,20,21,22,23,24,25,26,27,28,29,30,31,32,33,34,35,36,37,38,39,40,41,42,43,44,45,46,47,48,49,50,51,52,53,54,55,56,57,58,59,60,61,62,63,64,65,66,67,68,69,70,71,72,73,74,75,76,77,78,79,80,81,82,83,84],"tree_info":[0,0,0,0,0,0,0,0,0,0,0,0,0,0,0,0,0,0,0,0,0,0,0,0,0,0,0,0,0,0,0,0,0,0,0,0,0,0,0,0,0,0,0,0,0,0,0,0,0,0,0,0,0,0,0,0,0,0,0,0,0,0,0,0,0,0,0,0,0,0,0,0,0,0,0,0,0,0,0,0,0,0,0,0],"trees":[{"base_weights":[7.2585484E-3,6.488046E-1,-7.499748E-2,-7.465098E-2,1.2898723E0,1.4548304E0,9.7859174E-1,7.709488E-2,5.7321846E-2,6.357016E-2,3.7059117E-2],"categories":[],"categories_nodes":[],"categories_segments":[],"categories_sizes":[],"default_left":[0,0,0,0,0,0,0,0,0,0,0],"id":0,"left_children":[1,3,-1,-1,5,7,9,-1,-1,-1,-1],"loss_changes":[5.914939E2,5.910616E2,0E0,0E0,1.5560547E1,3.9822083E0,7.234459E0,0E0,0E0,0E0,0E0],"parents":[2147483647,0,0,1,1,4,4,5,5,6,6],"right_children":[2,4,-1,-1,6,8,10,-1,-1,-1,-1],"split_conditions":[5E0,9.4404E4,-7.499748E-2,-7.465098E-2,2.1E1,1.66537E5,5.5555557E1,7.709488E-2,5.7321846E-2,6.357016E-2,3.7059117E-2],"split_indices":[2,7,0,0,5,3,8,0,0,0,0],"split_type":[0,0,0,0,0,0,0,0,0,0,0],"sum_hessian":[6.097087E2,4.2806958E2,1.8163913E2,9.830408E1,3.297655E2,2.1314111E2,1.1662438E2,1.630954E2,5.004571E1,5.026913E1,6.6355255E1],"tree_param":{"num_deleted":"0","num_feature":"9","num_nodes":"11","size_leaf_vector":"1"}},{"base_weights":[9.229996E-3,-7.3063806E-2,4.8159778E-1,1.3061993E0,-7.334638E-2,7.6458305E-2,1.1510121E0,7.271569E-2,1.0006468E0,5.6057747E-2,4.2012103E-2],"categories":[],"categories_nodes":[],"categories_segments":[],"categories_sizes":[],"default_left":[0,0,0,0,0,0,0,0,0,0,0],"id":1,"left_children":[1,-1,3,5,-1,-1,7,-1,9,-1,-1],"loss_changes":[4.0725967E2,0E0,7.149044E2,9.046753E0,0E0,0E0,7.1275787E0,0E0,1.5520325E0,0E0,0E0],"parents":[2147483647,0,0,2,2,3,3,6,6,8,8],"right_children":[2,-1,4,6,-1,-1,8,-1,10,-1,-1],"split_conditions":[9.4404E4,-7.3063806E-2,9.4537E4,4.8E1,-7.334638E-2,7.6458305E-2,9E0,7.271569E-2,2.1E1,5.6057747E-2,4.2012103E-2],"split_indices":[7,0,7,8,0,0,5,0,5,0,0],"split_type":[0,0,0,0,0,0,0,0,0,0,0],"sum_hessian":[5.8429285E2,1.4154918E2,4.4274365E2,3.113235E2,1.3142015E2,1.2412787E2,1.8719563E2,5.9170654E1,1.2802498E2,6.968381E1,5.8341175E1],"tree_param":{"num_deleted":"0","num_feature":"9","num_nodes":"11","size_leaf_vector":"1"}},{"base_weights":[-1.1043629E-1,-6.8444125E-2,1.7027566E-1,-7.020684E-2,3.6564162E-1,-8.739977E-3,4.519441E-1,7.585655E-1,3.3155033E-1,4.797366E-2,2.7591815E-2,2.3264702E-1,3.1370502E-2,2.3761705E-2,-3.547024E-3],"categories":[],"categories_nodes":[],"categories_segments":[],"categories_sizes":[],"default_left":[0,0,0,0,0,0,0,0,0,0,0,0,0,0,0],"id":2,"left_children":[1,-1,3,-1,5,-1,7,9,11,-1,-1,13,-1,-1,-1],"loss_changes":[2.142909E2,0E0,1.5317624E2,0E0,2.0709835E1,0E0,1.3839043E1,3.9079971E0,7.9260616E0,0E0,0E0,1.5376799E1,0E0,0E0,0E0],"parents":[2147483647,0,0,2,2,4,4,6,6,7,7,8,8,11,11],"right_children":[2,-1,4,-1,6,-1,8,10,12,-1,-1,14,-1,-1,-1],"split_conditions":[8E0,-6.8444125E-2,3E0,-7.020684E-2,3E0,-8.739977E-3,1E1,1.8E1,9.310345E1,4.797366E-2,2.7591815E-2,4.9373432E1,3.1370502E-2,2.3761705E-2,-3.547024E-3],"split_indices":[0,0,4,0,5,0,0,5,8,0,0,8,0,0,0],"split_type":[0,0,0,0,0,0,0,0,0,0,0,0,0,0,0],"sum_hessian":[6.0494824E2,1.096236E2,4.9532468E2,5.399591E1,4.4132877E2,6.0629696E1,3.8069907E2,1.0584081E2,2.7485825E2,5.182955E1,5.401126E1,2.0733449E2,6.752376E1,1.1493123E2,9.240326E1],"tree_param":{"num_deleted":"0","num_feature":"9","num_nodes":"15","size_leaf_vector":"1"}},{"base_weights":[2.5122312E-3,5.484243E-1,-7.082202E-2,-7.057208E-2,1.1310178E0,1.2591896E0,9.0024465E-1,5.4962974E-2,1.3938178E0,3.790837E-2,5.0684024E-2,7.732974E-2,6.0269583E-2],"categories":[],"categories_nodes":[],"categories_segments":[],"categories_sizes":[],"default_left":[0,0,0,0,0,0,0,0,0,0,0,0,0],"id":3,"left_children":[1,3,-1,-1,5,7,9,-1,11,-1,-1,-1,-1],"loss_changes":[4.5816888E2,4.8930328E2,0E0,0E0,8.621887E0,2.9794006E0,1.1860504E0,0E0,1.3033752E0,0E0,0E0,0E0,0E0],"parents":[2147483647,0,0,1,1,4,4,5,5,6,6,8,8],"right_children":[2,4,-1,-1,6,8,10,-1,12,-1,-1,-1,-1],"split_conditions":[5E0,9.4404E4,-7.082202E-2,-7.057208E-2,1.45123E5,1.3981E5,1.75871E5,5.4962974E-2,1.43236E5,3.790837E-2,5.0684024E-2,7.732974E-2,6.0269583E-2],"split_indices":[2,7,0,0,3,3,3,0,3,0,0,0,0],"split_type":[0,0,0,0,0,0,0,0,0,0,0,0,0],"sum_hessian":[5.894703E2,4.261367E2,1.6333359E2,9.7321365E1,3.288153E2,2.0853702E2,1.20278305E2,9.950098E1,1.0903605E2,5.6809093E1,6.346921E1,5.623359E1,5.2802456E1],"tree_param":{"num_deleted":"0","num_feature":"9","num_nodes":"13","size_leaf_vector":"1"}},{"base_weights":[2.9691901E-2,-6.934205E-2,4.455345E-1,1.1570846E0,-6.981116E-2,1.3404835E0,9.9070525E-1,5.0256636E-2,7.514151E-2,2.8989552E-2,5.7926107E-2],"categories":[],"categories_nodes":[],"categories_segments":[],"categories_sizes":[],"default_left":[0,0,0,0,0,0,0,0,0,0,0],"id":4,"left_children":[1,-1,3,5,-1,7,9,-1,-1,-1,-1],"loss_changes":[3.4767273E2,0E0,5.994952E2,8.730194E0,0E0,6.871643E0,1.1510956E1,0E0,0E0,0E0,0E0],"parents":[2147483647,0,0,2,2,3,3,5,5,6,6],"right_children":[2,-1,4,6,-1,8,10,-1,-1,-1,-1],"split_conditions":[9.4404E4,-6.934205E-2,9.4537E4,6.840426E1,-6.981116E-2,1E1,8.784314E1,5.0256636E-2,7.514151E-2,2.8989552E-2,5.7926107E-2],"split_indices":[7,0,7,8,0,0,8,0,0,0,0],"split_type":[0,0,0,0,0,0,0,0,0,0,0],"sum_hessian":[5.8817255E2,1.3295103E2,4.5522153E2,3.2862955E2,1.26591965E2,1.529628E2,1.7566676E2,5.224154E1,1.0072127E2,5.2230568E1,1.2343619E2],"tree_param":{"num_deleted":"0","num_feature":"9","num_nodes":"11","size_leaf_vector":"1"}},{"base_weights":[-1.7765345E-2,3.7125543E-1,-6.857648E-2,-6.797637E-2,1.0195711E0,1.1673894E0,9.1624403E-1,6.380712E-2,5.188269E-2,3.944121E-2,9.6786165E-1,5.3029846E-2,4.3603443E-2],"categories":[],"categories_nodes":[],"categories_segments":[],"categories_sizes":[],"default_left":[0,0,0,0,0,0,0,0,0,0,0,0,0],"id":5,"left_children":[1,3,-1,-1,5,7,9,-1,-1,-1,11,-1,-1],"loss_changes":[3.06397E2,5.0853046E2,0E0,0E0,3.9610596E0,5.362854E-1,5.421448E-1,0E0,0E0,0E0,2.9096985E-1,0E0,0E0],"parents":[2147483647,0,0,1,1,4,4,5,5,6,6,10,10],"right_children":[2,4,-1,-1,6,8,10,-1,-1,-1,12,-1,-1],"split_conditions":[9.4537E4,9.4404E4,-6.857648E-2,-6.797637E-2,4.861111E1,1.43239E5,8.461539E1,6.380712E-2,5.188269E-2,3.944121E-2,1.43236E5,5.3029846E-2,4.3603443E-2],"split_indices":[7,7,0,0,8,3,8,0,0,0,3,0,0],"split_type":[0,0,0,0,0,0,0,0,0,0,0,0,0],"sum_hessian":[5.798264E2,4.5096255E2,1.2886386E2,1.225905E2,3.2837204E2,1.3086307E2,1.9750897E2,6.63813E1,6.4481766E1,6.1637276E1,1.358717E2,6.3920044E1,7.195166E1],"tree_param":{"num_deleted":"0","num_feature":"9","num_nodes":"13","size_leaf_vector":"1"}},{"base_weights":[-5.0382413E-2,4.1302705E-1,-6.6822365E-2,-6.655275E-2,8.655709E-1,6.839864E-1,9.62437E-1,4.0786065E-2,2.7476579E-2,3.6547367E-2,1.0809417E0,6.086263E-2,4.7147915E-2],"categories":[],"categories_nodes":[],"categories_segments":[],"categories_sizes":[],"default_left":[0,0,0,0,0,0,0,0,0,0,0,0,0],"id":6,"left_children":[1,3,-1,-1,5,7,9,-1,-1,-1,11,-1,-1],"loss_changes":[3.4777576E2,3.3979233E2,0E0,0E0,5.3443604E0,1.7157364E0,5.247589E0,0E0,0E0,0E0,1.5508881E0,0E0,0E0],"parents":[2147483647,0,0,1,1,4,4,5,5,6,6,10,10],"right_children":[2,4,-1,-1,6,8,10,-1,-1,-1,12,-1,-1],"split_conditions":[5E0,9.4404E4,-6.6822365E-2,-6.655275E-2,1.1E1,2.9E1,2.7E1,4.0786065E-2,2.7476579E-2,3.6547367E-2,1.43237E5,6.086263E-2,4.7147915E-2],"split_indices":[2,7,0,0,0,1,1,0,0,0,3,0,0],"split_type":[0,0,0,0,0,0,0,0,0,0,0,0,0],"sum_hessian":[5.8161505E2,4.2805298E2,1.5356206E2,8.778657E1,3.4026642E2,1.21174515E2,2.190919E2,5.864701E1,6.2527504E1,7.6609436E1,1.4248247E2,6.77409E1,7.474158E1],"tree_param":{"num_deleted":"0","num_feature":"9","num_nodes":"13","size_leaf_vector":"1"}},{"base_weights":[-2.2843027E-2,4.3532744E-1,-6.571881E-2,-6.5424226E-2,8.598869E-1,4.765075E-2,6.458132E-1,2.4533613E-2,3.9963093E-2],"categories":[],"categories_nodes":[],"categories_segments":[],"categories_sizes":[],"default_left":[0,0,0,0,0,0,0,0,0],"id":7,"left_children":[1,3,-1,-1,5,-1,7,-1,-1],"loss_changes":[3.4421066E2,3.1903857E2,0E0,0E0,6.281204E0,0E0,2.178234E0,0E0,0E0],"parents":[2147483647,0,0,1,1,4,4,6,6],"right_children":[2,4,-1,-1,6,-1,8,-1,-1],"split_conditions":[5E0,9.4404E4,-6.571881E-2,-6.5424226E-2,1.53829E5,4.765075E-2,1.82702E5,2.4533613E-2,3.9963093E-2],"split_indices":[2,7,0,0,3,0,3,0,0],"split_type":[0,0,0,0,0,0,0,0,0],"sum_hessian":[5.797232E2,4.2840854E2,1.513147E2,8.3473236E1,3.449353E2,2.3796284E2,1.06972466E2,5.528021E1,5.1692253E1],"tree_param":{"num_deleted":"0","num_feature":"9","num_nodes":"9","size_leaf_vector":"1"}},{"base_weights":[5.6514773E-3,4.485659E-1,-6.470477E-2,-6.439558E-2,8.499221E-1,5.1760115E-2,7.1372205E-1,2.7346943E-2,3.9175835E-2],"categories":[],"categories_nodes":[],"categories_segments":[],"categories_sizes":[],"default_left":[0,0,0,0,0,0,0,0,0],"id":8,"left_children":[1,3,-1,-1,5,-1,7,-1,-1],"loss_changes":[3.2642075E2,2.9583142E2,0E0,0E0,7.944702E0,0E0,1.9175186E0,0E0,0E0],"parents":[2147483647,0,0,1,1,4,4,6,6],"right_children":[2,4,-1,-1,6,-1,8,-1,-1],"split_conditions":[5E0,9.4404E4,-6.470477E-2,-6.439558E-2,4.8E1,5.1760115E-2,8.461539E1,2.7346943E-2,3.9175835E-2],"split_indices":[2,7,0,0,8,0,8,0,0],"split_type":[0,0,0,0,0,0,0,0,0],"sum_hessian":[5.650127E2,4.218976E2,1.4311507E2,7.879223E1,3.4310538E2,1.4256546E2,2.0053993E2,6.176969E1,1.3877023E2],"tree_param":{"num_deleted":"0","num_feature":"9","num_nodes":"9","size_leaf_vector":"1"}},{"base_weights":[-1.8472172E-2,3.839502E-1,-6.3727595E-2,6.4205605E-1,2.9897583E-1,3.9472364E-2,2.340952E-2,2.129816E-3,3.9799818E-1,4.55584E-2,2.0917101E-1,1.9981991E-3,2.181636E-2],"categories":[],"categories_nodes":[],"categories_segments":[],"categories_sizes":[],"default_left":[0,0,0,0,0,0,0,0,0,0,0,0,0],"id":9,"left_children":[1,3,-1,5,7,-1,-1,-1,9,-1,11,-1,-1],"loss_changes":[2.8968576E2,9.328327E0,0E0,2.363182E0,8.321102E0,0E0,0E0,0E0,2.2755974E1,0E0,6.6861157E0,0E0,0E0],"parents":[2147483647,0,0,1,1,3,3,4,4,8,8,10,10],"right_children":[2,4,-1,6,8,-1,-1,-1,10,-1,12,-1,-1],"split_conditions":[5E0,1.39543E5,-6.3727595E-2,1.4E1,1.40214E5,3.9472364E-2,2.340952E-2,2.129816E-3,1.43624E5,4.55584E-2,1.81455E5,1.9981991E-3,2.181636E-2],"split_indices":[2,3,0,5,3,0,0,0,3,0,3,0,0],"split_type":[0,0,0,0,0,0,0,0,0,0,0,0,0],"sum_hessian":[5.7112854E2,4.3307455E2,1.3805396E2,1.0564046E2,3.274341E2,5.5256935E1,5.0383526E1,9.162844E1,2.3580566E2,6.2399387E1,1.7340628E2,1.0005325E2,7.3353035E1],"tree_param":{"num_deleted":"0","num_feature":"9","num_nodes":"13","size_leaf_vector":"1"}},{"base_weights":[-3.2148186E-2,3.5346964E-1,-6.2840514E-2,-6.358933E-2,7.253443E-1,8.261469E-1,6.3533074E-1,3.283546E-2,9.1911733E-1,5.5453074E-1,3.64016E-2,3.734159E-2,5.3735055E-2,2.4092603E-2,3.073214E-2],"categories":[],"categories_nodes":[],"categories_segments":[],"categories_sizes":[],"default_left":[0,0,0,0,0,0,0,0,0,0,0,0,0,0,0],"id":10,"left_children":[1,3,-1,-1,5,7,9,-1,11,13,-1,-1,-1,-1,-1],"loss_changes":[2.69618E2,2.63389E2,0E0,0E0,2.6875458E0,1.9748383E0,1.0296097E0,0E0,1.963295E0,1.6884613E-1,0E0,0E0,0E0,0E0,0E0],"parents":[2147483647,0,0,1,1,4,4,5,5,6,6,8,8,9,9],"right_children":[2,4,-1,-1,6,8,10,-1,12,14,-1,-1,-1,-1,-1],"split_conditions":[5E0,9.4404E4,-6.2840514E-2,-6.358933E-2,1.43233E5,2.7E1,1.69914E5,3.283546E-2,1.39541E5,3.1E1,3.64016E-2,3.734159E-2,5.3735055E-2,2.4092603E-2,3.073214E-2],"split_indices":[2,7,0,0,3,1,3,0,3,1,0,0,0,0,0],"split_type":[0,0,0,0,0,0,0,0,0,0,0,0,0,0,0],"sum_hessian":[5.689797E2,4.332657E2,1.3571399E2,8.0225395E1,3.5304028E2,1.6268164E2,1.9035864E2,6.0494564E1,1.0218707E2,1.05438545E2,8.49201E1,5.1243176E1,5.09439E1,5.181152E1,5.3627026E1],"tree_param":{"num_deleted":"0","num_feature":"9","num_nodes":"15","size_leaf_vector":"1"}},{"base_weights":[-2.8312556E-2,3.6251253E-1,-6.206217E-2,-6.262412E-2,6.926306E-1,4.487607E-2,6.546485E-1,2.109022E-2,7.0124096E-1,4.4805463E-2,5.7772577E-1,3.7963547E-2,2.325515E-2],"categories":[],"categories_nodes":[],"categories_segments":[],"categories_sizes":[],"default_left":[0,0,0,0,0,0,0,0,0,0,0,0,0],"id":11,"left_children":[1,3,-1,-1,5,-1,7,-1,9,-1,11,-1,-1],"loss_changes":[2.6778232E2,2.2867009E2,0E0,0E0,2.1783295E0,0E0,2.9971008E0,0E0,5.533478E0,0E0,2.8505516E0,0E0,0E0],"parents":[2147483647,0,0,1,1,4,4,6,6,8,8,10,10],"right_children":[2,4,-1,-1,6,-1,8,-1,10,-1,12,-1,-1],"split_conditions":[5E0,9.4404E4,-6.206217E-2,-6.262412E-2,1.34123E5,4.487607E-2,1.39744E5,2.109022E-2,4.4927536E1,4.4805463E-2,1.1E1,3.7963547E-2,2.325515E-2],"split_indices":[2,7,0,0,3,0,3,0,8,0,5,0,0],"split_type":[0,0,0,0,0,0,0,0,0,0,0,0,0],"sum_hessian":[5.6294025E2,4.2628555E2,1.3665468E2,7.1873566E1,3.54412E2,5.1886326E1,3.0252567E2,5.211851E1,2.5040717E2,9.47175E1,1.5568965E2,5.7407856E1,9.82818E1],"tree_param":{"num_deleted":"0","num_feature":"9","num_nodes":"13","size_leaf_vector":"1"}},{"base_weights":[1.2434928E-2,3.822716E-1,-6.1269194E-2,1.2642045E-1,6.6568255E-1,-9.214111E-2,3.2474262E-1,4.45572E-2,4.674039E-1,-7.0736418E-3,-1.8859241E-3,2.8380593E-2,3.921217E-4,1.6219622E-2,3.0153919E-2],"categories":[],"categories_nodes":[],"categories_segments":[],"categories_sizes":[],"default_left":[0,0,0,0,0,0,0,0,0,0,0,0,0,0,0],"id":12,"left_children":[1,3,-1,5,7,9,11,-1,13,-1,-1,-1,-1,-1,-1],"loss_changes":[2.4796042E2,3.0154102E1,0E0,9.583231E0,8.417801E0,2.782504E-1,8.905852E0,0E0,1.8853436E0,0E0,0E0,0E0,0E0,0E0,0E0],"parents":[2147483647,0,0,1,1,3,3,4,4,5,5,6,6,8,8],"right_children":[2,4,-1,6,8,10,12,-1,14,-1,-1,-1,-1,-1,-1],"split_conditions":[5E0,6E0,-6.1269194E-2,1.43607E5,1.40683E5,3E1,2E1,4.45572E-2,1.3E1,-7.0736418E-3,-1.8859241E-3,2.8380593E-2,3.921217E-4,1.6219622E-2,3.0153919E-2],"split_indices":[2,6,0,3,3,1,5,0,6,0,0,0,0,0,0],"split_type":[0,0,0,0,0,0,0,0,0,0,0,0,0,0,0],"sum_hessian":[5.396225E2,4.1601602E2,1.2360649E2,2.1939859E2,1.9661745E2,1.0462817E2,1.1477042E2,9.036714E1,1.06250305E2,5.4041965E1,5.05862E1,6.4526665E1,5.0243755E1,5.337736E1,5.287294E1],"tree_param":{"num_deleted":"0","num_feature":"9","num_nodes":"15","size_leaf_vector":"1"}},{"base_weights":[-3.141959E-2,3.2100952E-1,-6.0566157E-2,4.5794915E-2,4.9319813E-1,8.196545E-3,-6.7192777E-3,5.959939E-1,1.4646503E-2,1.8762939E-2,7.120377E-1,3.905004E-2,3.107127E-2],"categories":[],"categories_nodes":[],"categories_segments":[],"categories_sizes":[],"default_left":[0,0,0,0,0,0,0,0,0,0,0,0,0],"id":13,"left_children":[1,3,-1,5,7,-1,-1,9,-1,-1,11,-1,-1],"loss_changes":[2.2132303E2,1.9402023E1,0E0,3.403425E0,5.014126E0,0E0,0E0,3.974266E0,0E0,0E0,1.8589401E-1,0E0,0E0],"parents":[2147483647,0,0,1,1,3,3,4,4,7,7,10,10],"right_children":[2,4,-1,6,8,-1,-1,10,-1,-1,12,-1,-1],"split_conditions":[5E0,1.1E1,-6.0566157E-2,2E1,2.1E1,8.196545E-3,-6.7192777E-3,7E0,1.4646503E-2,1.8762939E-2,7.777778E1,3.905004E-2,3.107127E-2],"split_indices":[2,0,0,5,5,0,0,5,0,0,8,0,0],"split_type":[0,0,0,0,0,0,0,0,0,0,0,0,0],"sum_hessian":[5.303059E2,4.0889862E2,1.2140728E2,1.5785687E2,2.5104176E2,9.5398605E1,6.245826E1,1.6458554E2,8.6456215E1,5.817003E1,1.0641551E2,5.6099903E1,5.0315613E1],"tree_param":{"num_deleted":"0","num_feature":"9","num_nodes":"13","size_leaf_vector":"1"}},{"base_weights":[-5.382809E-2,-6.149164E-2,2.25581E-1,6.515019E-1,-6.2288195E-2,2.25678E-2,7.194506E-1,8.239013E-1,6.398398E-1,4.8988037E-2,3.3113174E-2,2.5066152E-2,4.1178312E-2],"categories":[],"categories_nodes":[],"categories_segments":[],"categories_sizes":[],"default_left":[0,0,0,0,0,0,0,0,0,0,0,0,0],"id":14,"left_children":[1,-1,3,5,-1,-1,7,9,11,-1,-1,-1,-1],"loss_changes":[1.7921767E2,0E0,2.770968E2,4.333954E0,0E0,0E0,1.5853729E0,2.0318375E0,3.3700333E0,0E0,0E0,0E0,0E0],"parents":[2147483647,0,0,2,2,3,3,6,6,7,7,8,8],"right_children":[2,-1,4,6,-1,-1,8,10,12,-1,-1,-1,-1],"split_conditions":[9.4404E4,-6.149164E-2,9.4537E4,2.5E1,-6.2288195E-2,2.25678E-2,6E0,6.607143E1,7E0,4.8988037E-2,3.3113174E-2,2.5066152E-2,4.1178312E-2],"split_indices":[7,0,7,1,0,0,6,8,6,0,0,0,0],"split_type":[0,0,0,0,0,0,0,0,0,0,0,0,0],"sum_hessian":[5.435759E2,1.0370221E2,4.398737E2,3.415577E2,9.831598E1,8.850502E1,2.530527E2,1.05407364E2,1.4764534E2,5.10861E1,5.4321262E1,8.630563E1,6.1339703E1],"tree_param":{"num_deleted":"0","num_feature":"9","num_nodes":"13","size_leaf_vector":"1"}},{"base_weights":[-2.5522616E-2,2.805444E-1,-5.922087E-2,-6.120195E-2,5.728436E-1,6.618966E-1,4.0344504E-1,2.1789184E-2,7.6355356E-1,3.416469E-2,9.114133E-3,2.6412109E-2,8.75956E-1,4.8427477E-2,3.823158E-2],"categories":[],"categories_nodes":[],"categories_segments":[],"categories_sizes":[],"default_left":[0,0,0,0,0,0,0,0,0,0,0,0,0,0,0],"id":15,"left_children":[1,3,-1,-1,5,7,9,-1,11,-1,-1,-1,13,-1,-1],"loss_changes":[1.875109E2,1.8465024E2,0E0,0E0,5.026581E0,4.918106E0,7.5173397E0,0E0,3.67025E0,0E0,0E0,0E0,3.33786E-1,0E0,0E0],"parents":[2147483647,0,0,1,1,4,4,5,5,6,6,8,8,12,12],"right_children":[2,4,-1,-1,6,8,10,-1,12,-1,-1,-1,14,-1,-1],"split_conditions":[5E0,9.4404E4,-5.922087E-2,-6.120195E-2,2E1,1.1E1,5.182186E1,2.1789184E-2,7E0,3.416469E-2,9.114133E-3,2.6412109E-2,7.625E1,4.8427477E-2,3.823158E-2],"split_indices":[2,7,0,0,5,0,8,0,5,0,0,0,8,0,0],"split_type":[0,0,0,0,0,0,0,0,0,0,0,0,0,0,0],"sum_hessian":[5.2671045E2,4.172671E2,1.0944337E2,6.7358376E1,3.499087E2,2.2743735E2,1.2247136E2,7.217879E1,1.5525856E2,5.3140392E1,6.933097E1,5.2031548E1,1.0322701E2,5.2150677E1,5.1076336E1],"tree_param":{"num_deleted":"0","num_feature":"9","num_nodes":"15","size_leaf_vector":"1"}},{"base_weights":[-5.3637596E-3,2.7874193E-1,-5.868231E-2,1.11310855E-1,3.8008055E-1,1.2061067E-3,1.2721716E-2,2.7191242E-2,3.2892707E-1,2.1682337E-1,2.305494E-2,1.662855E-2,5.9313066E-3],"categories":[],"categories_nodes":[],"categories_segments":[],"categories_sizes":[],"default_left":[0,0,0,0,0,0,0,0,0,0,0,0,0],"id":16,"left_children":[1,3,-1,5,7,-1,-1,-1,9,11,-1,-1,-1],"loss_changes":[1.7611171E2,7.199589E0,0E0,2.0197098E0,2.0447426E0,0E0,0E0,0E0,2.934698E0,1.2415781E0,0E0,0E0,0E0],"parents":[2147483647,0,0,1,1,3,3,4,4,8,8,9,9],"right_children":[2,4,-1,6,8,-1,-1,-1,10,12,-1,-1,-1],"split_conditions":[5E0,1.1E1,-5.868231E-2,3.3E1,2.5E1,1.2061067E-3,1.2721716E-2,2.7191242E-2,3.5E1,6.5E1,2.305494E-2,1.662855E-2,5.9313066E-3],"split_indices":[2,0,0,1,1,0,0,0,1,8,0,0,0],"split_type":[0,0,0,0,0,0,0,0,0,0,0,0,0],"sum_hessian":[5.286061E2,4.2581647E2,1.0278964E2,1.6134375E2,2.6447272E2,1.0099041E2,6.0353333E1,6.0661522E1,2.038112E2,1.1170617E2,9.210503E1,5.017584E1,6.153033E1],"tree_param":{"num_deleted":"0","num_feature":"9","num_nodes":"13","size_leaf_vector":"1"}},{"base_weights":[2.2279546E-2,3.0748758E-1,-5.812916E-2,1.0009165E-1,5.41936E-1,-6.5218806E-3,2.6928413E-1,2.107207E-2,6.159934E-1,2.7350584E-2,2.5380459E-3,3.82999E-2,2.1488646E-2],"categories":[],"categories_nodes":[],"categories_segments":[],"categories_sizes":[],"default_left":[0,0,0,0,0,0,0,0,0,0,0,0,0],"id":17,"left_children":[1,3,-1,5,7,-1,9,-1,11,-1,-1,-1,-1],"loss_changes":[1.7686276E2,2.0453613E1,0E0,8.81183E0,1.504982E0,0E0,7.868102E0,0E0,3.0314178E0,0E0,0E0,0E0,0E0],"parents":[2147483647,0,0,1,1,3,3,4,4,6,6,8,8],"right_children":[2,4,-1,6,8,-1,10,-1,12,-1,-1,-1,-1],"split_conditions":[5E0,6E0,-5.812916E-2,1.1E1,6.1666668E1,-6.5218806E-3,4.4927536E1,2.107207E-2,1.4E1,2.7350584E-2,2.5380459E-3,3.82999E-2,2.1488646E-2],"split_indices":[2,6,0,0,8,0,8,0,5,0,0,0,0],"split_type":[0,0,0,0,0,0,0,0,0,0,0,0,0],"sum_hessian":[5.2130945E2,4.2076718E2,1.0054228E2,2.2402171E2,1.9674547E2,9.491989E1,1.2910184E2,7.743926E1,1.193062E2,5.618784E1,7.2913994E1,6.435415E1,5.495205E1],"tree_param":{"num_deleted":"0","num_feature":"9","num_nodes":"13","size_leaf_vector":"1"}},{"base_weights":[3.1640552E-2,-5.9962984E-2,2.9908514E-1,6.745E-1,-6.0731847E-2,6.1193216E-1,4.395809E-2,2.666135E-2,6.5735507E-1,4.114682E-2,5.759799E-1,2.4412435E-2,3.2480035E-2],"categories":[],"categories_nodes":[],"categories_segments":[],"categories_sizes":[],"default_left":[0,0,0,0,0,0,0,0,0,0,0,0,0],"id":18,"left_children":[1,-1,3,5,-1,7,-1,-1,9,-1,11,-1,-1],"loss_changes":[1.6950671E2,0E0,2.4114581E2,3.809494E0,0E0,5.908127E-1,0E0,0E0,1.7176971E0,0E0,4.0875626E-1,0E0,0E0],"parents":[2147483647,0,0,2,2,3,3,5,5,8,8,10,10],"right_children":[2,-1,4,6,-1,8,-1,-1,10,-1,12,-1,-1],"split_conditions":[9.4404E4,-5.9962984E-2,9.4537E4,1.61326E5,-6.0731847E-2,1.39744E5,4.395809E-2,2.666135E-2,1.42754E5,4.114682E-2,1.43609E5,2.4412435E-2,3.2480035E-2],"split_indices":[7,0,7,3,0,3,0,0,3,0,3,0,0],"split_type":[0,0,0,0,0,0,0,0,0,0,0,0,0],"sum_hessian":[5.128192E2,9.0912926E1,4.2190628E2,3.3850806E2,8.339822E1,2.6230728E2,7.620079E1,1.0064925E2,1.6165804E2,5.0265488E1,1.1139254E2,5.430785E1,5.7084694E1],"tree_param":{"num_deleted":"0","num_feature":"9","num_nodes":"13","size_leaf_vector":"1"}},{"base_weights":[-1.0759416E-2,-5.9387308E-2,2.4518926E-1,5.9692615E-1,-5.9864677E-2,6.877995E-1,5.2066326E-1,2.6088495E-2,3.8633738E-2,3.365009E-2,4.4665077E-1,1.5047987E-2,2.7322918E-2],"categories":[],"categories_nodes":[],"categories_segments":[],"categories_sizes":[],"default_left":[0,0,0,0,0,0,0,0,0,0,0,0,0],"id":19,"left_children":[1,-1,3,5,-1,7,9,-1,-1,-1,11,-1,-1],"loss_changes":[1.5659975E2,0E0,2.1737312E2,2.0257187E0,0E0,1.764679E0,1.8544617E0,0E0,0E0,0E0,1.7493134E0,0E0,0E0],"parents":[2147483647,0,0,2,2,3,3,5,5,6,6,10,10],"right_children":[2,-1,4,6,-1,8,10,-1,-1,-1,12,-1,-1],"split_conditions":[9.4404E4,-5.9387308E-2,9.4537E4,6E0,-5.9864677E-2,1.1E1,1.6666666E1,2.6088495E-2,3.8633738E-2,3.365009E-2,8.784314E1,1.5047987E-2,2.7322918E-2],"split_indices":[7,0,7,6,0,0,8,0,0,0,8,0,0],"split_type":[0,0,0,0,0,0,0,0,0,0,0,0,0],"sum_hessian":[5.178696E2,9.185079E1,4.2601883E2,3.4297382E2,8.3045006E1,1.5283717E2,1.9013664E2,5.411905E1,9.8718124E1,5.952482E1,1.3061182E2,5.4732773E1,7.587905E1],"tree_param":{"num_deleted":"0","num_feature":"9","num_nodes":"13","size_leaf_vector":"1"}},{"base_weights":[-1.0865349E-2,-5.8792647E-2,2.3980418E-1,5.7235473E-1,-5.9747726E-2,5.1559114E-1,3.6121428E-2,5.641634E-1,1.5794436E-2,4.8350817E-1,3.2798104E-2,2.84679E-2,1.9439515E-2],"categories":[],"categories_nodes":[],"categories_segments":[],"categories_sizes":[],"default_left":[0,0,0,0,0,0,0,0,0,0,0,0,0],"id":20,"left_children":[1,-1,3,5,-1,7,-1,9,-1,11,-1,-1,-1],"loss_changes":[1.4766272E2,0E0,1.9924103E2,2.5112915E0,0E0,2.2381516E0,0E0,1.1569977E0,0E0,6.713772E-1,0E0,0E0,0E0],"parents":[2147483647,0,0,2,2,3,3,5,5,7,7,9,9],"right_children":[2,-1,4,6,-1,8,-1,10,-1,12,-1,-1,-1],"split_conditions":[9.4404E4,-5.8792647E-2,9.4537E4,3.8E1,-5.9747726E-2,3.3E1,3.6121428E-2,1.43241E5,1.5794436E-2,1.39543E5,3.2798104E-2,2.84679E-2,1.9439515E-2],"split_indices":[7,0,7,1,0,1,0,3,0,3,0,0,0],"split_type":[0,0,0,0,0,0,0,0,0,0,0,0,0],"sum_hessian":[5.0368216E2,8.853316E1,4.1514902E2,3.3751935E2,7.762968E1,2.4811021E2,8.940913E1,1.9810213E2,5.0008083E1,1.0878743E2,8.9314705E1,5.4436497E1,5.435093E1],"tree_param":{"num_deleted":"0","num_feature":"9","num_nodes":"13","size_leaf_vector":"1"}},{"base_weights":[-4.576378E-2,1.7758913E-1,-5.6227054E-2,-1.4881192E-3,2.8951976E-1,4.9320227E-3,-4.6800137E-3,1.9008401E-1,2.6720032E-2,2.8344026E-1,1.0094588E-3,5.9147757E-3,2.2604661E-2],"categories":[],"categories_nodes":[],"categories_segments":[],"categories_sizes":[],"default_left":[0,0,0,0,0,0,0,0,0,0,0,0,0],"id":21,"left_children":[1,3,-1,5,7,-1,-1,9,-1,11,-1,-1,-1],"loss_changes":[1.2034069E2,8.297819E0,0E0,1.4868996E0,6.101307E0,0E0,0E0,2.8924322E0,0E0,3.2288656E0,0E0,0E0,0E0],"parents":[2147483647,0,0,1,1,3,3,4,4,7,7,9,9],"right_children":[2,4,-1,6,8,-1,-1,10,-1,12,-1,-1,-1],"split_conditions":[5E0,1.1E1,-5.6227054E-2,1.6E1,3.7E1,4.9320227E-3,-4.6800137E-3,2.1E1,2.6720032E-2,1E1,1.0094588E-3,5.9147757E-3,2.2604661E-2],"split_indices":[2,0,0,5,1,0,0,5,0,5,0,0,0],"split_type":[0,0,0,0,0,0,0,0,0,0,0,0,0],"sum_hessian":[4.9761777E2,4.1295404E2,8.466373E1,1.5921439E2,2.5373965E2,7.6253624E1,8.296076E1,1.8172505E2,7.20146E1,1.1684892E2,6.487614E1,5.989815E1,5.695077E1],"tree_param":{"num_deleted":"0","num_feature":"9","num_nodes":"13","size_leaf_vector":"1"}},{"base_weights":[6.297816E-3,-5.819866E-2,2.2786811E-1,5.1286894E-1,-5.8565415E-2,6.385245E-1,4.105933E-1,3.926406E-2,2.6052175E-2,3.1862414E-1,2.6026705E-2,1.03350645E-2,2.212502E-2],"categories":[],"categories_nodes":[],"categories_segments":[],"categories_sizes":[],"default_left":[0,0,0,0,0,0,0,0,0,0,0,0,0],"id":22,"left_children":[1,-1,3,5,-1,7,9,-1,-1,11,-1,-1,-1],"loss_changes":[1.3136795E2,0E0,1.7045735E2,4.2945786E0,0E0,2.302826E0,1.8388977E0,0E0,0E0,1.4410906E0,0E0,0E0,0E0],"parents":[2147483647,0,0,2,2,3,3,5,5,6,6,9,9],"right_children":[2,-1,4,6,-1,8,10,-1,-1,12,-1,-1,-1],"split_conditions":[9.4404E4,-5.819866E-2,9.4537E4,6E0,-5.8565415E-2,4E1,7E0,3.926406E-2,2.6052175E-2,8.076923E1,2.6026705E-2,1.03350645E-2,2.212502E-2],"split_indices":[7,0,7,6,0,8,6,0,0,8,0,0,0],"split_type":[0,0,0,0,0,0,0,0,0,0,0,0,0],"sum_hessian":[5.046077E2,7.965252E1,4.249552E2,3.5356943E2,7.138576E1,1.5629845E2,1.9727098E2,6.696354E1,8.933491E1,1.0953741E2,8.7733574E1,5.8947052E1,5.0590355E1],"tree_param":{"num_deleted":"0","num_feature":"9","num_nodes":"13","size_leaf_vector":"1"}},{"base_weights":[3.4155488E-2,2.4885091E-1,-5.543234E-2,3.6386716E-1,1.6987999E-1,1.129534E-2,4.359119E-1,2.677748E-1,9.444152E-4,2.8134633E-2,1.527212E-2,8.101959E-3,1.7184852E-2],"categories":[],"categories_nodes":[],"categories_segments":[],"categories_sizes":[],"default_left":[0,0,0,0,0,0,0,0,0,0,0,0,0],"id":23,"left_children":[1,3,-1,5,7,-1,9,11,-1,-1,-1,-1,-1],"loss_changes":[1.1907018E2,3.6478043E0,0E0,1.545372E0,3.6019998E0,0E0,1.6075096E0,1.1321516E0,0E0,0E0,0E0,0E0,0E0],"parents":[2147483647,0,0,1,1,3,3,4,4,6,6,7,7],"right_children":[2,4,-1,6,8,-1,10,12,-1,-1,-1,-1,-1],"split_conditions":[5E0,1.2E1,-5.543234E-2,1.1E1,1.45122E5,1.129534E-2,3E1,2.9E1,9.444152E-4,2.8134633E-2,1.527212E-2,8.101959E-3,1.7184852E-2],"split_indices":[2,5,0,0,3,0,1,1,0,0,0,0,0],"split_type":[0,0,0,0,0,0,0,0,0,0,0,0,0],"sum_hessian":[4.8317426E2,4.0741623E2,7.575803E1,1.643879E2,2.4302835E2,5.7814E1,1.0657388E2,1.469685E2,9.605984E1,5.237087E1,5.420302E1,6.273407E1,8.423444E1],"tree_param":{"num_deleted":"0","num_feature":"9","num_nodes":"13","size_leaf_vector":"1"}},{"base_weights":[3.8615717E-3,-5.7653874E-2,2.2548513E-1,5.115999E-1,-5.7648E-2,6.478323E-1,4.012134E-1,2.3608398E-2,4.070186E-2,2.5669402E-1,3.004922E-2,8.113562E-3,1.7331397E-2],"categories":[],"categories_nodes":[],"categories_segments":[],"categories_sizes":[],"default_left":[0,0,0,0,0,0,0,0,0,0,0,0,0],"id":24,"left_children":[1,-1,3,5,-1,7,9,-1,-1,11,-1,-1,-1],"loss_changes":[1.2376127E2,0E0,1.6034561E2,4.794945E0,0E0,3.9608154E0,5.282316E0,0E0,0E0,8.864198E-1,0E0,0E0,0E0],"parents":[2147483647,0,0,2,2,3,3,5,5,6,6,9,9],"right_children":[2,-1,4,6,-1,8,10,-1,-1,12,-1,-1,-1],"split_conditions":[9.4404E4,-5.7653874E-2,9.4537E4,6E0,-5.7648E-2,1.6E1,1.2E1,2.3608398E-2,4.070186E-2,8.136364E1,3.004922E-2,8.113562E-3,1.7331397E-2],"split_indices":[7,0,7,6,0,5,6,0,0,8,0,0,0],"split_type":[0,0,0,0,0,0,0,0,0,0,0,0,0],"sum_hessian":[4.8066495E2,7.659806E1,4.040669E2,3.3513416E2,6.893273E1,1.4782661E2,1.8730753E2,7.373543E1,7.4091194E1,1.1000911E2,7.7298416E1,5.5033283E1,5.497583E1],"tree_param":{"num_deleted":"0","num_feature":"9","num_nodes":"13","size_leaf_vector":"1"}},{"base_weights":[-4.2177387E-2,-5.719567E-2,1.6475816E-1,4.1122833E-1,-5.7211526E-2,4.6088848E-1,9.706396E-3,3.6599013E-1,3.1900406E-2,2.2499733E-2,1.3198303E-2],"categories":[],"categories_nodes":[],"categories_segments":[],"categories_sizes":[],"default_left":[0,0,0,0,0,0,0,0,0,0,0],"id":25,"left_children":[1,-1,3,5,-1,7,-1,9,-1,-1,-1],"loss_changes":[1.11802765E2,0E0,1.3372275E2,3.6657753E0,0E0,4.518944E0,0E0,1.4791718E0,0E0,0E0,0E0],"parents":[2147483647,0,0,2,2,3,3,5,5,7,7],"right_children":[2,-1,4,6,-1,8,-1,10,-1,-1,-1],"split_conditions":[9.4404E4,-5.719567E-2,9.4537E4,1.4E1,-5.7211526E-2,3.5E1,9.706396E-3,6E0,3.1900406E-2,2.2499733E-2,1.3198303E-2],"split_indices":[7,0,7,6,0,1,0,6,0,0,0],"split_type":[0,0,0,0,0,0,0,0,0,0,0],"sum_hessian":[4.8856137E2,7.653848E1,4.120229E2,3.47313E2,6.470991E1,2.8174332E2,6.5569664E1,1.8544868E2,9.629463E1,9.983551E1,8.561318E1],"tree_param":{"num_deleted":"0","num_feature":"9","num_nodes":"11","size_leaf_vector":"1"}},{"base_weights":[5.140148E-2,-5.680768E-2,2.5895506E-1,5.086955E-1,-5.678908E-2,3.5693774E-1,5.777608E-1,2.2440813E-2,1.2391829E-2,1.7639482E-2,6.7995673E-1,2.6527649E-2,7.5524485E-1,3.0426208E-2,4.4603765E-2],"categories":[],"categories_nodes":[],"categories_segments":[],"categories_sizes":[],"default_left":[0,0,0,0,0,0,0,0,0,0,0,0,0,0,0],"id":26,"left_children":[1,-1,3,5,-1,7,9,-1,-1,-1,11,-1,13,-1,-1],"loss_changes":[1.1787417E2,0E0,1.4230269E2,3.4179611E0,0E0,9.990635E-1,5.186363E0,0E0,0E0,0E0,1.4126968E0,0E0,1.5617828E0,0E0,0E0],"parents":[2147483647,0,0,2,2,3,3,5,5,6,6,10,10,12,12],"right_children":[2,-1,4,6,-1,8,10,-1,-1,-1,12,-1,14,-1,-1],"split_conditions":[9.4404E4,-5.680768E-2,9.4537E4,2.6E1,-5.678908E-2,6E0,1.40208E5,2.2440813E-2,1.2391829E-2,1.7639482E-2,1E1,2.6527649E-2,3.5E1,3.0426208E-2,4.4603765E-2],"split_indices":[7,0,7,1,0,6,3,0,0,0,0,0,1,0,0],"split_type":[0,0,0,0,0,0,0,0,0,0,0,0,0,0,0],"sum_hessian":[4.7603403E2,7.015508E1,4.0587894E2,3.4477847E2,6.1100475E1,1.09763214E2,2.3501524E2,5.7894306E1,5.186891E1,7.4801476E1,1.6021378E2,5.637961E1,1.0383416E2,5.273484E1,5.109932E1],"tree_param":{"num_deleted":"0","num_feature":"9","num_nodes":"15","size_leaf_vector":"1"}},{"base_weights":[4.105884E-3,-5.6348603E-2,2.0748013E-1,4.3627247E-1,-5.6437016E-2,1.0319033E-2,4.8049822E-1,3.6865494E-1,5.3875613E-1,2.441763E-2,1.20227E-2,3.4502674E-2,4.6288493E-1,3.1155348E-2,1.4860607E-2],"categories":[],"categories_nodes":[],"categories_segments":[],"categories_sizes":[],"default_left":[0,0,0,0,0,0,0,0,0,0,0,0,0,0,0],"id":27,"left_children":[1,-1,3,5,-1,-1,7,9,11,-1,-1,-1,13,-1,-1],"loss_changes":[1.1014867E2,0E0,1.2456668E2,3.4312363E0,0E0,0E0,1.6939545E0,1.4577303E0,1.8480034E0,0E0,0E0,0E0,3.2334652E0,0E0,0E0],"parents":[2147483647,0,0,2,2,3,3,6,6,7,7,8,8,12,12],"right_children":[2,-1,4,6,-1,-1,8,10,12,-1,-1,-1,14,-1,-1],"split_conditions":[9.4404E4,-5.6348603E-2,9.4537E4,5E0,-5.6437016E-2,1.0319033E-2,1E1,7.9411766E1,6.8965516E0,2.441763E-2,1.20227E-2,3.4502674E-2,1.7E1,3.1155348E-2,1.4860607E-2],"split_indices":[7,0,7,5,0,0,0,8,8,0,0,0,5,0,0],"split_type":[0,0,0,0,0,0,0,0,0,0,0,0,0,0,0],"sum_hessian":[4.7682388E2,7.197717E1,4.048467E2,3.462364E2,5.8610306E1,5.677552E1,2.8946088E2,1.0164717E2,1.878137E2,5.111409E1,5.053308E1,6.002359E1,1.27790115E2,6.3560112E1,6.423E1],"tree_param":{"num_deleted":"0","num_feature":"9","num_nodes":"15","size_leaf_vector":"1"}},{"base_weights":[-6.142646E-2,-5.5869073E-2,1.2203873E-1,3.3865988E-1,-5.615458E-2,2.9712147E-1,2.4374232E-2,3.349442E-1,7.1824724E-3,1.0417908E-2,3.754587E-1,2.3808947E-2,1.51657285E-2],"categories":[],"categories_nodes":[],"categories_segments":[],"categories_sizes":[],"default_left":[0,0,0,0,0,0,0,0,0,0,0,0,0],"id":28,"left_children":[1,-1,3,5,-1,7,-1,9,-1,-1,11,-1,-1],"loss_changes":[8.6942E1,0E0,1.0358893E2,1.8748665E0,0E0,1.4494E0,0E0,9.793987E-1,0E0,0E0,9.81678E-1,0E0,0E0],"parents":[2147483647,0,0,2,2,3,3,5,5,7,7,10,10],"right_children":[2,-1,4,6,-1,8,-1,10,-1,-1,12,-1,-1],"split_conditions":[9.4404E4,-5.5869073E-2,9.4537E4,4E1,-5.615458E-2,3.4E1,2.4374232E-2,2.3E1,7.1824724E-3,1.0417908E-2,6.75E1,2.3808947E-2,1.51657285E-2],"split_indices":[7,0,7,1,0,1,0,1,0,0,8,0,0],"split_type":[0,0,0,0,0,0,0,0,0,0,0,0,0],"sum_hessian":[4.4707306E2,6.5424484E1,3.816486E2,3.257111E2,5.5937477E1,2.5698154E2,6.8729576E1,2.052226E2,5.1758934E1,5.1246788E1,1.539758E2,6.1923798E1,9.2052E1],"tree_param":{"num_deleted":"0","num_feature":"9","num_nodes":"13","size_leaf_vector":"1"}},{"base_weights":[1.7098607E-2,1.8223429E-1,-5.354734E-2,1.012887E-1,2.4240261E-2,2.3580523E-1,9.848976E-3,7.463696E-3,1.7434113E-2,-1.5660582E-1,1.0212845E-2,-1.0713187E-2,-4.8614494E-3],"categories":[],"categories_nodes":[],"categories_segments":[],"categories_sizes":[],"default_left":[0,0,0,0,0,0,0,0,0,0,0,0,0],"id":29,"left_children":[1,3,-1,5,-1,7,9,-1,-1,11,-1,-1,-1],"loss_changes":[8.2775444E1,9.745143E0,0E0,3.8938754E0,0E0,1.1995702E0,6.1680365E0,0E0,0E0,3.308301E-1,0E0,0E0,0E0],"parents":[2147483647,0,0,1,1,3,3,5,5,6,6,9,9],"right_children":[2,4,-1,6,-1,8,10,-1,-1,12,-1,-1,-1],"split_conditions":[5E0,1E1,-5.354734E-2,4E1,2.4240261E-2,1.43241E5,9.310345E1,7.463696E-3,1.7434113E-2,8.136364E1,1.0212845E-2,-1.0713187E-2,-4.8614494E-3],"split_indices":[2,6,0,8,0,3,8,0,0,8,0,0,0],"split_type":[0,0,0,0,0,0,0,0,0,0,0,0,0],"sum_hessian":[4.586089E2,3.9889935E2,5.970955E1,3.157601E2,8.313926E1,1.27142525E2,1.8861757E2,7.32849E1,5.3857628E1,1.0171887E2,8.689869E1,5.0283005E1,5.143587E1],"tree_param":{"num_deleted":"0","num_feature":"9","num_nodes":"13","size_leaf_vector":"1"}},{"base_weights":[3.505478E-3,1.6054974E-1,-5.32731E-2,-5.3287223E-2,2.8980365E-1,3.2185756E-3,-8.032426E-3,2.4914782E-1,1.9498752E-2,1.8619888E-2,1.634999E-1,1.0929058E-2,5.367826E-3],"categories":[],"categories_nodes":[],"categories_segments":[],"categories_sizes":[],"default_left":[0,0,0,0,0,0,0,0,0,0,0,0,0],"id":30,"left_children":[1,3,-1,5,7,-1,-1,9,-1,-1,11,-1,-1],"loss_changes":[7.4517555E1,1.0712061E1,0E0,1.8627433E0,8.8580894E-1,0E0,0E0,1.7806606E0,0E0,0E0,3.0034518E-1,0E0,0E0],"parents":[2147483647,0,0,1,1,3,3,4,4,7,7,10,10],"right_children":[2,4,-1,6,8,-1,-1,10,-1,-1,12,-1,-1],"split_conditions":[5E0,1.1E1,-5.32731E-2,1.6E1,1.59771E5,3.2185756E-3,-8.032426E-3,1.39544E5,1.9498752E-2,1.8619888E-2,3.1E1,1.0929058E-2,5.367826E-3],"split_indices":[2,0,0,5,3,0,0,3,0,0,1,0,0],"split_type":[0,0,0,0,0,0,0,0,0,0,0,0,0],"sum_hessian":[4.4186755E2,3.860081E2,5.585946E1,1.4564368E2,2.4036443E2,6.96804E1,7.596329E1,1.7345338E2,6.691103E1,6.9743034E1,1.0371034E2,5.0889923E1,5.2820423E1],"tree_param":{"num_deleted":"0","num_feature":"9","num_nodes":"13","size_leaf_vector":"1"}},{"base_weights":[-9.352179E-3,1.4521514E-1,-5.3129286E-2,7.489509E-2,1.931318E-2,1.3255875E-2,-1.4950392E-2,9.0505015E-3,-1.5970571E-1,-1.8207438E-2,3.0363451E-3],"categories":[],"categories_nodes":[],"categories_segments":[],"categories_sizes":[],"default_left":[0,0,0,0,0,0,0,0,0,0,0],"id":31,"left_children":[1,3,-1,5,-1,-1,7,-1,9,-1,-1],"loss_changes":[7.4632095E1,6.7483273E0,0E0,5.315195E0,0E0,0E0,6.043164E0,0E0,5.5415063E0,0E0,0E0],"parents":[2147483647,0,0,1,1,3,3,6,6,8,8],"right_children":[2,4,-1,6,-1,-1,8,-1,10,-1,-1],"split_conditions":[5E0,7E0,-5.3129286E-2,1.1E1,1.931318E-2,1.3255875E-2,4.145299E1,9.0505015E-3,9.1935486E1,-1.8207438E-2,3.0363451E-3],"split_indices":[2,6,0,5,0,0,8,0,8,0,0],"split_type":[0,0,0,0,0,0,0,0,0,0,0],"sum_hessian":[4.56493E2,3.988255E2,5.7667522E1,3.097687E2,8.905679E1,9.874765E1,2.1102104E2,8.954727E1,1.2147378E2,6.2684372E1,5.8789406E1],"tree_param":{"num_deleted":"0","num_feature":"9","num_nodes":"11","size_leaf_vector":"1"}},{"base_weights":[5.6845266E-3,-5.5548884E-2,1.9473758E-1,2.7877074E-1,1.301492E-1,2.0742023E-1,2.0767435E-2,1.793005E-1,-1.7838657E-4,8.866285E-3,1.1556094E-2,2.488279E-3,1.3726467E-2],"categories":[],"categories_nodes":[],"categories_segments":[],"categories_sizes":[],"default_left":[0,0,0,0,0,0,0,0,0,0,0,0,0],"id":32,"left_children":[1,-1,3,5,7,9,-1,11,-1,-1,-1,-1,-1],"loss_changes":[9.494818E1,0E0,2.051238E0,1.5341473E0,1.4422431E0,3.834343E-2,0E0,1.9650416E0,0E0,0E0,0E0,0E0,0E0],"parents":[2147483647,0,0,2,2,3,3,4,4,5,5,7,7],"right_children":[2,-1,4,6,8,10,-1,12,-1,-1,-1,-1,-1],"split_conditions":[9.4404E4,-5.5548884E-2,6E0,3.4E1,3.9E1,1.6E1,2.0767435E-2,2.7E1,-1.7838657E-4,8.866285E-3,1.1556094E-2,2.488279E-3,1.3726467E-2],"split_indices":[7,0,6,1,1,5,0,1,0,0,0,0,0],"split_type":[0,0,0,0,0,0,0,0,0,0,0,0,0],"sum_hessian":[4.477355E2,6.412106E1,3.8361444E2,1.6527116E2,2.1834329E2,1.1021288E2,5.505828E1,1.5940775E2,5.8935555E1,5.2294662E1,5.7918217E1,6.8183624E1,9.122411E1],"tree_param":{"num_deleted":"0","num_feature":"9","num_nodes":"13","size_leaf_vector":"1"}},{"base_weights":[4.1947752E-2,-5.506937E-2,2.14619E-1,3.321379E-1,1.443126E-1,1.0973218E-2,2.5953356E-2,3.5320753E-1,-2.3613833E-2,9.686434E-3,2.600424E-2,-1.1292893E-2,5.084072E-3],"categories":[],"categories_nodes":[],"categories_segments":[],"categories_sizes":[],"default_left":[0,0,0,0,0,0,0,0,0,0,0,0,0],"id":33,"left_children":[1,-1,3,5,7,-1,-1,9,11,-1,-1,-1,-1],"loss_changes":[8.814005E1,0E0,3.1551647E0,2.926283E0,8.579172E0,0E0,0E0,2.7986546E0,3.4789665E0,0E0,0E0,0E0,0E0],"parents":[2147483647,0,0,2,2,3,3,4,4,7,7,8,8],"right_children":[2,-1,4,6,8,-1,-1,10,12,-1,-1,-1,-1],"split_conditions":[9.4404E4,-5.506937E-2,3.823178E1,1.43623E5,1.43233E5,1.0973218E-2,2.5953356E-2,9.375E1,1.1E1,9.686434E-3,2.600424E-2,-1.1292893E-2,5.084072E-3],"split_indices":[7,0,8,3,3,0,0,8,0,0,0,0,0],"split_type":[0,0,0,0,0,0,0,0,0,0,0,0,0],"sum_hessian":[4.442598E2,5.758496E1,3.8667484E2,1.4334532E2,2.4332953E2,9.0792946E1,5.2552372E1,1.07945526E2,1.35384E2,5.6301254E1,5.164427E1,5.1482105E1,8.39019E1],"tree_param":{"num_deleted":"0","num_feature":"9","num_nodes":"13","size_leaf_vector":"1"}},{"base_weights":[-1.0904333E-2,1.2476608E-1,-5.2731227E-2,-1.6596545E-2,2.7579665E-1,-7.2326413E-3,6.2493358E-2,2.551117E-2,1.8639003E-1,8.573234E-3,-5.1168515E-3,5.539679E-3,1.3108164E-2],"categories":[],"categories_nodes":[],"categories_segments":[],"categories_sizes":[],"default_left":[0,0,0,0,0,0,0,0,0,0,0,0,0],"id":34,"left_children":[1,3,-1,5,7,-1,9,-1,11,-1,-1,-1,-1],"loss_changes":[6.3079647E1,8.42289E0,0E0,2.0813363E0,3.901576E0,0E0,2.3020642E0,0E0,7.707033E-1,0E0,0E0,0E0,0E0],"parents":[2147483647,0,0,1,1,3,3,4,4,6,6,8,8],"right_children":[2,4,-1,6,8,-1,10,-1,12,-1,-1,-1,-1],"split_conditions":[5E0,6E0,-5.2731227E-2,1.1E1,1.34898E5,-7.2326413E-3,1.4967E5,2.551117E-2,3.1E1,8.573234E-3,-5.1168515E-3,5.539679E-3,1.3108164E-2],"split_indices":[2,6,0,0,3,0,3,0,1,0,0,0,0],"split_type":[0,0,0,0,0,0,0,0,0,0,0,0,0],"sum_hessian":[4.4354236E2,3.9329892E2,5.024342E1,2.0361143E2,1.896875E2,7.74238E1,1.2618764E2,5.1071033E1,1.3861647E2,7.5941536E1,5.0246098E1,7.062171E1,6.799475E1],"tree_param":{"num_deleted":"0","num_feature":"9","num_nodes":"13","size_leaf_vector":"1"}},{"base_weights":[-4.6133704E-2,-5.4662593E-2,1.09584995E-1,2.3992103E-1,8.632832E-3,1.4372775E-2,7.6820934E-3,-1.021453E-1,8.395356E-3,-5.9366524E-3,-4.4214684E-3],"categories":[],"categories_nodes":[],"categories_segments":[],"categories_sizes":[],"default_left":[0,0,0,0,0,0,0,0,0,0,0],"id":35,"left_children":[1,-1,3,5,7,-1,-1,9,-1,-1,-1],"loss_changes":[7.110298E1,0E0,4.9962993E0,6.357069E-1,3.8125577E0,0E0,0E0,1.8506885E-2,0E0,0E0,0E0],"parents":[2147483647,0,0,2,2,3,3,4,4,7,7],"right_children":[2,-1,4,6,8,-1,-1,10,-1,-1,-1],"split_conditions":[9.4404E4,-5.4662593E-2,6E0,1.59772E5,1E1,1.4372775E-2,7.6820934E-3,1.38396E5,8.395356E-3,-5.9366524E-3,-4.4214684E-3],"split_indices":[7,0,6,3,6,0,0,3,0,0,0],"split_type":[0,0,0,0,0,0,0,0,0,0,0],"sum_hessian":[4.3433038E2,5.5448776E1,3.788816E2,1.6477255E2,2.1410904E2,1.04737175E2,6.003538E1,1.2649098E2,8.7618065E1,5.378633E1,7.270464E1],"tree_param":{"num_deleted":"0","num_feature":"9","num_nodes":"11","size_leaf_vector":"1"}},{"base_weights":[1.1270673E-2,-5.4428916E-2,1.8107918E-1,5.9984427E-2,2.5387517E-1,8.645E-3,-6.1957943E-3,2.984724E-1,5.1910207E-3,8.022647E-3,2.0648345E-2],"categories":[],"categories_nodes":[],"categories_segments":[],"categories_sizes":[],"default_left":[0,0,0,0,0,0,0,0,0,0,0],"id":36,"left_children":[1,-1,3,5,7,-1,-1,9,-1,-1,-1],"loss_changes":[8.160505E1,0E0,3.3208675E0,2.999092E0,1.5486698E0,0E0,0E0,2.8008595E0,0E0,0E0,0E0],"parents":[2147483647,0,0,2,2,3,3,4,4,7,7],"right_children":[2,-1,4,6,8,-1,-1,10,-1,-1,-1],"split_conditions":[9.4404E4,-5.4428916E-2,1.1E1,1.45942E5,1.73045E5,8.645E-3,-6.1957943E-3,3E1,5.1910207E-3,8.022647E-3,2.0648345E-2],"split_indices":[7,0,0,3,3,0,0,1,0,0,0],"split_type":[0,0,0,0,0,0,0,0,0,0,0],"sum_hessian":[4.3488727E2,5.7439728E1,3.7744754E2,1.4239694E2,2.3505058E2,8.826294E1,5.4134E1,1.8043504E2,5.4615547E1,8.290143E1,9.7533615E1],"tree_param":{"num_deleted":"0","num_feature":"9","num_nodes":"11","size_leaf_vector":"1"}},{"base_weights":[-4.88197E-4,-5.4012693E-2,1.4738043E-1,4.3783117E-2,2.0779824E-1,4.8562675E-3,-1.9484103E-3,2.9860783E-1,1.4128628E-1,1.668978E-2,1.287272E-2,1.0315112E-2,1.7864968E-3],"categories":[],"categories_nodes":[],"categories_segments":[],"categories_sizes":[],"default_left":[0,0,0,0,0,0,0,0,0,0,0,0,0],"id":37,"left_children":[1,-1,3,5,7,-1,-1,9,11,-1,-1,-1,-1],"loss_changes":[6.985069E1,0E0,2.3993797E0,6.3506305E-1,1.4241953E0,0E0,0E0,6.1398506E-2,9.674094E-1,0E0,0E0,0E0,0E0],"parents":[2147483647,0,0,2,2,3,3,4,4,7,7,8,8],"right_children":[2,-1,4,6,8,-1,-1,10,12,-1,-1,-1,-1],"split_conditions":[9.4404E4,-5.4012693E-2,1.1E1,1.45941E5,1.2E1,4.8562675E-3,-1.9484103E-3,1.43239E5,1.43612E5,1.668978E-2,1.287272E-2,1.0315112E-2,1.7864968E-3],"split_indices":[7,0,0,3,5,0,0,3,3,0,0,0,0],"split_type":[0,0,0,0,0,0,0,0,0,0,0,0,0],"sum_hessian":[4.3548993E2,5.1695293E1,3.8379465E2,1.4201273E2,2.4178192E2,8.624484E1,5.576789E1,1.0074457E2,1.4103735E2,5.0475285E1,5.0269283E1,8.6688416E1,5.4348938E1],"tree_param":{"num_deleted":"0","num_feature":"9","num_nodes":"13","size_leaf_vector":"1"}},{"base_weights":[-4.8932683E-2,-5.3777546E-2,8.935759E-2,2.0584244E-1,5.24961E-3,2.2897155E-3,1.5678708E-2,-9.883309E-2,7.5436444E-3,-1.1650956E-2,5.6261206E-3],"categories":[],"categories_nodes":[],"categories_segments":[],"categories_sizes":[],"default_left":[0,0,0,0,0,0,0,0,0,0,0],"id":38,"left_children":[1,-1,3,5,7,-1,-1,9,-1,-1,-1],"loss_changes":[6.182476E1,0E0,3.7621007E0,2.7621164E0,3.4112055E0,0E0,0E0,3.7494688E0,0E0,0E0,0E0],"parents":[2147483647,0,0,2,2,3,3,4,4,7,7],"right_children":[2,-1,4,6,8,-1,-1,10,-1,-1,-1],"split_conditions":[9.4404E4,-5.3777546E-2,6E0,1.3E1,1.2E1,2.2897155E-3,1.5678708E-2,8.784314E1,7.5436444E-3,-1.1650956E-2,5.6261206E-3],"split_indices":[7,0,6,5,6,0,0,8,0,0,0],"split_type":[0,0,0,0,0,0,0,0,0,0,0],"sum_hessian":[4.3379663E2,5.0692905E1,3.8310373E2,1.600274E2,2.2307634E2,6.4954666E1,9.507273E1,1.302808E2,9.2795525E1,7.962546E1,5.0655354E1],"tree_param":{"num_deleted":"0","num_feature":"9","num_nodes":"11","size_leaf_vector":"1"}},{"base_weights":[-1.1757581E-2,-2.2204737E-1,1.2074032E-1,-6.4916657E-3,-1.52141405E-2,6.936007E-2,1.2578678E-2,9.761858E-2,7.40718E-4,2.7695603E-3,7.663693E-3],"categories":[],"categories_nodes":[],"categories_segments":[],"categories_sizes":[],"default_left":[0,0,0,0,0,0,0,0,0,0,0],"id":39,"left_children":[1,3,5,-1,-1,7,-1,9,-1,-1,-1],"loss_changes":[1.2036458E1,1.2265711E0,1.7644083E0,0E0,0E0,2.9404545E-1,0E0,2.878759E-1,0E0,0E0,0E0],"parents":[2147483647,0,0,1,1,2,2,5,5,7,7],"right_children":[2,4,6,-1,-1,8,-1,10,-1,-1,-1],"split_conditions":[1.1E1,2.9E1,3.8E1,-6.4916657E-3,-1.52141405E-2,3E1,1.2578678E-2,2.6E1,7.40718E-4,2.7695603E-3,7.663693E-3],"split_indices":[0,1,1,0,0,1,0,1,0,0,0],"split_type":[0,0,0,0,0,0,0,0,0,0,0],"sum_hessian":[4.3002567E2,1.6595679E2,2.6406888E2,7.944762E1,8.650918E1,1.9070587E2,7.336301E1,1.2510371E2,6.5602165E1,7.226743E1,5.283627E1],"tree_param":{"num_deleted":"0","num_feature":"9","num_nodes":"11","size_leaf_vector":"1"}},{"base_weights":[-6.339377E-2,-1.1213511E-1,5.486946E-2,4.2808235E-2,-2.2940901E-1,1.1048576E-2,-3.1543176E-3,-2.5533852E-3,5.320635E-3,-1.1741122E-1,-2.288047E-2,-8.704326E-3,-3.1525993E-3],"categories":[],"categories_nodes":[],"categories_segments":[],"categories_sizes":[],"default_left":[0,0,0,0,0,0,0,0,0,0,0,0,0],"id":40,"left_children":[1,3,5,7,9,-1,-1,-1,-1,11,-1,-1,-1],"loss_changes":[2.471623E0,5.519408E0,2.4728684E0,7.9042625E-1,4.3611965E0,0E0,0E0,0E0,0E0,3.5015202E-1,0E0,0E0,0E0],"parents":[2147483647,0,0,1,1,2,2,3,3,4,4,9,9],"right_children":[2,4,6,8,10,-1,-1,-1,-1,12,-1,-1,-1],"split_conditions":[9.375E1,8.695652E0,1.2E1,1.2E1,2E1,1.1048576E-2,-3.1543176E-3,-2.5533852E-3,5.320635E-3,7.6666664E1,-2.288047E-2,-8.704326E-3,-3.1525993E-3],"split_indices":[8,8,5,5,5,0,0,0,0,8,0,0,0],"split_type":[0,0,0,0,0,0,0,0,0,0,0,0,0],"sum_hessian":[4.267131E2,3.0221088E2,1.2450223E2,1.3046901E2,1.7174187E2,5.1337234E1,7.316499E1,5.277449E1,7.769451E1,1.1621806E2,5.5523808E1,5.5818645E1,6.0399418E1],"tree_param":{"num_deleted":"0","num_feature":"9","num_nodes":"13","size_leaf_vector":"1"}},{"base_weights":[2.5543293E-2,-1.601141E-2,1.2236416E-2,8.516405E-2,-1.504944E-1,-3.907728E-4,1.5290792E-1,-1.0457275E-2,-4.427278E-3,6.022706E-3,9.157599E-3],"categories":[],"categories_nodes":[],"categories_segments":[],"categories_sizes":[],"default_left":[0,0,0,0,0,0,0,0,0,0,0],"id":41,"left_children":[1,3,-1,5,7,-1,9,-1,-1,-1,-1],"loss_changes":[4.0653014E0,5.125809E0,0E0,1.3559653E0,5.689783E-1,0E0,1.00116014E-1,0E0,0E0,0E0,0E0],"parents":[2147483647,0,0,1,1,3,3,4,4,6,6],"right_children":[2,4,-1,6,8,-1,10,-1,-1,-1,-1],"split_conditions":[1.81455E5,1.43236E5,1.2236416E-2,6E0,3.1E1,-3.907728E-4,1.3489E5,-1.0457275E-2,-4.427278E-3,6.022706E-3,9.157599E-3],"split_indices":[3,3,0,6,1,0,3,0,0,0,0],"split_type":[0,0,0,0,0,0,0,0,0,0,0],"sum_hessian":[4.4490552E2,3.747791E2,7.012641E1,2.1408412E2,1.6069498E2,9.0607956E1,1.23476166E2,8.1324E1,7.937099E1,6.1965714E1,6.1510452E1],"tree_param":{"num_deleted":"0","num_feature":"9","num_nodes":"11","size_leaf_vector":"1"}},{"base_weights":[1.2025907E-2,-9.858389E-2,8.611905E-2,2.9249454E-3,-1.1395874E-2,1.7526048E-1,-3.3165716E-2,1.6276665E-2,7.955236E-5,6.582711E-3,-8.585343E-3],"categories":[],"categories_nodes":[],"categories_segments":[],"categories_sizes":[],"default_left":[0,0,0,0,0,0,0,0,0,0,0],"id":42,"left_children":[1,3,5,-1,-1,7,9,-1,-1,-1,-1],"loss_changes":[3.5156255E0,3.5103936E0,2.7364812E0,0E0,0E0,3.839301E0,2.5497637E0,0E0,0E0,0E0,0E0],"parents":[2147483647,0,0,1,1,2,2,5,5,6,6],"right_children":[2,4,6,-1,-1,8,10,-1,-1,-1,-1],"split_conditions":[1.1E1,2.9E1,1.7E1,2.9249454E-3,-1.1395874E-2,3.2E1,5.8333332E1,1.6276665E-2,7.955236E-5,6.582711E-3,-8.585343E-3],"split_indices":[0,1,5,0,0,1,8,0,0,0,0],"split_type":[0,0,0,0,0,0,0,0,0,0,0],"sum_hessian":[4.2693808E2,1.711326E2,2.558055E2,7.75236E1,9.360899E1,1.4613191E2,1.0967357E2,7.787433E1,6.825759E1,5.0109226E1,5.9564346E1],"tree_param":{"num_deleted":"0","num_feature":"9","num_nodes":"11","size_leaf_vector":"1"}},{"base_weights":[-7.651685E-2,-1.5004528E-2,-3.3916112E-2,4.4439975E-2,-1.4545909E-1,8.816118E-3,-4.2135343E-3,-1.1899079E-2,5.7243655E-4,-7.680328E-3,4.1327137E-3],"categories":[],"categories_nodes":[],"categories_segments":[],"categories_sizes":[],"default_left":[0,0,0,0,0,0,0,0,0,0,0],"id":43,"left_children":[1,-1,3,5,7,-1,9,-1,-1,-1,-1],"loss_changes":[4.1039724E0,0E0,3.1874294E0,1.3773744E0,2.1862688E0,0E0,2.0592687E0,0E0,0E0,0E0,0E0],"parents":[2147483647,0,0,2,2,3,3,4,4,6,6],"right_children":[2,-1,4,6,8,-1,10,-1,-1,-1,-1],"split_conditions":[5E0,-1.5004528E-2,2.1E1,9E0,3.3E1,8.816118E-3,2.8E1,-1.1899079E-2,5.7243655E-4,-7.680328E-3,4.1327137E-3],"split_indices":[5,0,5,5,1,0,1,0,0,0,0],"split_type":[0,0,0,0,0,0,0,0,0,0,0],"sum_hessian":[4.3095868E2,6.800678E1,3.6295187E2,2.1354416E2,1.4940771E2,5.68419E1,1.5670227E2,9.3662094E1,5.574562E1,5.7333424E1,9.936884E1],"tree_param":{"num_deleted":"0","num_feature":"9","num_nodes":"11","size_leaf_vector":"1"}},{"base_weights":[-2.6168432E-3,-5.636101E-2,1.2487307E-1,4.3667603E-2,-1.758038E-1,1.3457611E-2,5.783513E-5,-6.0440265E-2,1.05867265E-2,-3.3332042E-3,-1.6164873E-2,-8.0998605E-3,2.2347511E-3],"categories":[],"categories_nodes":[],"categories_segments":[],"categories_sizes":[],"default_left":[0,0,0,0,0,0,0,0,0,0,0,0,0],"id":44,"left_children":[1,3,5,7,9,-1,-1,11,-1,-1,-1,-1,-1],"loss_changes":[2.9290614E0,3.6001458E0,2.262589E0,2.8900454E0,2.1876798E0,0E0,0E0,1.0997331E0,0E0,0E0,0E0,0E0,0E0],"parents":[2147483647,0,0,1,1,2,2,3,3,4,4,7,7],"right_children":[2,4,6,8,10,-1,-1,12,-1,-1,-1,-1,-1],"split_conditions":[9.230769E1,4.8E1,2.8E1,2E1,1.7E1,1.3457611E-2,5.783513E-5,1.43237E5,1.05867265E-2,-3.3332042E-3,-1.6164873E-2,-8.0998605E-3,2.2347511E-3],"split_indices":[8,8,1,5,5,0,0,3,0,0,0,0,0],"split_type":[0,0,0,0,0,0,0,0,0,0,0,0,0],"sum_hessian":[4.2545828E2,2.9968298E2,1.2577531E2,1.6344154E2,1.3624142E2,5.7519722E1,6.8255585E1,1.0131998E2,6.212157E1,7.9135864E1,5.7105564E1,5.1261936E1,5.0058044E1],"tree_param":{"num_deleted":"0","num_feature":"9","num_nodes":"13","size_leaf_vector":"1"}},{"base_weights":[-3.6062017E-2,-1.4084657E-1,4.4639353E-2,-2.572852E-1,1.7002719E-3,-4.701039E-2,1.2817733E-1,-1.9407151E-2,-6.4004287E-3,1.7080846E-3,-7.301805E-3,9.184233E-3,4.34879E-3],"categories":[],"categories_nodes":[],"categories_segments":[],"categories_sizes":[],"default_left":[0,0,0,0,0,0,0,0,0,0,0,0,0],"id":45,"left_children":[1,3,5,7,-1,9,11,-1,-1,-1,-1,-1,-1],"loss_changes":[3.5788927E0,3.7560003E0,1.8391334E0,1.8212876E0,0E0,9.285848E-1,2.7109742E-1,0E0,0E0,0E0,0E0,0E0,0E0],"parents":[2147483647,0,0,1,1,2,2,3,3,5,5,6,6],"right_children":[2,4,6,8,-1,10,12,-1,-1,-1,-1,-1,-1],"split_conditions":[1.40213E5,8.529412E1,1.5E1,6E0,1.7002719E-3,8.039216E1,5.050505E1,-1.9407151E-2,-6.4004287E-3,1.7080846E-3,-7.301805E-3,9.184233E-3,4.34879E-3],"split_indices":[3,8,5,6,0,8,8,0,0,0,0,0,0],"split_type":[0,0,0,0,0,0,0,0,0,0,0,0,0],"sum_hessian":[4.214807E2,1.8305392E2,2.3842679E2,1.0959814E2,7.345578E1,1.1390193E2,1.2452486E2,5.347086E1,5.6127277E1,6.2953514E1,5.0948418E1,5.157887E1,7.294599E1],"tree_param":{"num_deleted":"0","num_feature":"9","num_nodes":"13","size_leaf_vector":"1"}},{"base_weights":[3.1632803E-2,-5.906498E-2,9.113111E-2,5.267033E-3,-1.3003616E-1,1.7861122E-1,-7.435714E-3,8.460513E-4,-1.242794E-2,1.35128265E-2,5.030114E-3,-1.1726881E-2,7.563542E-3],"categories":[],"categories_nodes":[],"categories_segments":[],"categories_sizes":[],"default_left":[0,0,0,0,0,0,0,0,0,0,0,0,0],"id":46,"left_children":[1,3,5,-1,7,9,11,-1,-1,-1,-1,-1,-1],"loss_changes":[2.3451812E0,2.0248892E0,2.262363E0,0E0,2.109008E0,9.662814E-1,4.5140343E0,0E0,0E0,0E0,0E0,0E0,0E0],"parents":[2147483647,0,0,1,1,2,2,4,4,5,5,6,6],"right_children":[2,4,6,-1,8,10,12,-1,-1,-1,-1,-1,-1],"split_conditions":[1.1E1,1.39544E5,7.848485E1,5.267033E-3,2.8E1,1.2E1,9.375E1,8.460513E-4,-1.242794E-2,1.35128265E-2,5.030114E-3,-1.1726881E-2,7.563542E-3],"split_indices":[0,3,8,0,1,5,8,0,0,0,0,0,0],"split_type":[0,0,0,0,0,0,0,0,0,0,0,0,0],"sum_hessian":[4.3258795E2,1.713672E2,2.6122076E2,5.1524883E1,1.1984232E2,1.3796333E2,1.2325742E2,5.388594E1,6.595638E1,6.2303932E1,7.56594E1,5.0506744E1,7.275068E1],"tree_param":{"num_deleted":"0","num_feature":"9","num_nodes":"13","size_leaf_vector":"1"}},{"base_weights":[-1.5469399E-2,-9.540484E-2,7.19884E-2,-1.32251745E-2,-2.9022502E-2,1.0249544E-2,1.0578972E-2,-6.489488E-3,2.730565E-2,8.367628E-3,-4.3973536E-3,8.068026E-3,-5.130117E-3],"categories":[],"categories_nodes":[],"categories_segments":[],"categories_sizes":[],"default_left":[0,0,0,0,0,0,0,0,0,0,0,0,0],"id":47,"left_children":[1,3,5,-1,7,9,-1,-1,11,-1,-1,-1,-1],"loss_changes":[2.9626553E0,2.47679E0,1.7427577E0,0E0,9.1205084E-1,2.1965954E0,0E0,0E0,1.8189033E0,0E0,0E0,0E0,0E0],"parents":[2147483647,0,0,1,1,2,2,4,4,5,5,8,8],"right_children":[2,4,6,-1,8,10,-1,-1,12,-1,-1,-1,-1],"split_conditions":[7.782806E1,1.39744E5,3.5E1,-1.32251745E-2,1.1E1,1.40212E5,1.0578972E-2,-6.489488E-3,1.45123E5,8.367628E-3,-4.3973536E-3,8.068026E-3,-5.130117E-3],"split_indices":[8,3,1,0,0,3,0,0,3,0,0,0,0],"split_type":[0,0,0,0,0,0,0,0,0,0,0,0,0],"sum_hessian":[4.2180026E2,2.2033014E2,2.0147012E2,6.1269955E1,1.5906018E2,1.4043253E2,6.10376E1,5.6565018E1,1.0249516E2,5.3744076E1,8.6688446E1,5.0323322E1,5.217184E1],"tree_param":{"num_deleted":"0","num_feature":"9","num_nodes":"13","size_leaf_vector":"1"}},{"base_weights":[-1.5154621E-2,-8.093946E-2,1.1068637E-1,1.7898575E-3,-1.216949E-1,1.33551285E-2,-6.6554605E-4,-1.1983934E-2,-4.789349E-2,-8.810456E-3,4.9384446E-3],"categories":[],"categories_nodes":[],"categories_segments":[],"categories_sizes":[],"default_left":[0,0,0,0,0,0,0,0,0,0,0],"id":48,"left_children":[1,3,5,-1,7,-1,-1,-1,9,-1,-1],"loss_changes":[3.5303667E0,1.3361171E0,2.8440135E0,0E0,1.7971284E0,0E0,0E0,0E0,2.4456336E0,0E0,0E0],"parents":[2147483647,0,0,1,1,2,2,4,4,8,8],"right_children":[2,4,6,-1,8,-1,-1,-1,10,-1,-1],"split_conditions":[1.49668E5,1.34124E5,2.9E1,1.7898575E-3,1.1E1,1.33551285E-2,-6.6554605E-4,-1.1983934E-2,1.6E1,-8.810456E-3,4.9384446E-3],"split_indices":[3,3,1,0,0,0,0,0,5,0,0],"split_type":[0,0,0,0,0,0,0,0,0,0,0],"sum_hessian":[4.2437146E2,2.7891974E2,1.454517E2,7.220972E1,2.0671002E2,6.3807602E1,8.164411E1,7.867977E1,1.2803026E2,6.8178825E1,5.9851433E1],"tree_param":{"num_deleted":"0","num_feature":"9","num_nodes":"11","size_leaf_vector":"1"}},{"base_weights":[-2.334756E-2,1.12956315E-2,-6.0611382E-2,-1.19800396E-1,5.7825234E-2,1.4990537E-2,-3.0051777E-1,7.5663175E-3,-3.688775E-3,-8.92114E-3,6.2441714E-3,-9.302658E-3,-2.057649E-2],"categories":[],"categories_nodes":[],"categories_segments":[],"categories_sizes":[],"default_left":[0,0,0,0,0,0,0,0,0,0,0,0,0],"id":49,"left_children":[1,-1,3,5,7,9,11,-1,-1,-1,-1,-1,-1],"loss_changes":[3.9930468E0,0E0,2.6251645E0,6.07872E0,1.5508765E0,3.0783377E0,1.2777319E0,0E0,0E0,0E0,0E0,0E0,0E0],"parents":[2147483647,0,0,2,2,3,3,4,4,5,5,6,6],"right_children":[2,-1,4,6,8,10,12,-1,-1,-1,-1,-1,-1],"split_conditions":[1.34122E5,1.12956315E-2,8.928571E1,4.8E1,3.1E1,1.40213E5,1.43246E5,7.5663175E-3,-3.688775E-3,-8.92114E-3,6.2441714E-3,-9.302658E-3,-2.057649E-2],"split_indices":[3,0,8,8,1,3,3,0,0,0,0,0,0],"split_type":[0,0,0,0,0,0,0,0,0,0,0,0,0],"sum_hessian":[4.274224E2,5.492993E1,3.7249246E2,2.483616E2,1.2413088E2,1.4278223E2,1.0557936E2,7.2482704E1,5.164818E1,5.1506435E1,9.1275795E1,5.3298847E1,5.2280514E1],"tree_param":{"num_deleted":"0","num_feature":"9","num_nodes":"13","size_leaf_vector":"1"}},{"base_weights":[-6.825397E-4,7.752979E-2,-5.3549953E-2,1.333358E-1,-1.8331075E-4,-2.3895656E-1,6.441763E-2,7.6294206E-3,5.4919193E-3,-1.816555E-2,-5.6786276E-3,7.1398215E-3,-3.285809E-3],"categories":[],"categories_nodes":[],"categories_segments":[],"categories_sizes":[],"default_left":[0,0,0,0,0,0,0,0,0,0,0,0,0],"id":50,"left_children":[1,3,5,7,-1,9,11,-1,-1,-1,-1,-1,-1],"loss_changes":[1.8317829E0,8.1012046E-1,5.796695E0,3.1157851E-2,0E0,1.5646496E0,1.6650989E0,0E0,0E0,0E0,0E0,0E0,0E0],"parents":[2147483647,0,0,1,1,2,2,3,3,5,5,6,6],"right_children":[2,4,6,8,-1,10,12,-1,-1,-1,-1,-1,-1],"split_conditions":[5.357143E1,3.6E1,8.784314E1,1.6E1,-1.8331075E-4,3E1,3.2E1,7.6294206E-3,5.4919193E-3,-1.816555E-2,-5.6786276E-3,7.1398215E-3,-3.285809E-3],"split_indices":[8,1,8,5,0,1,1,0,0,0,0,0,0],"split_type":[0,0,0,0,0,0,0,0,0,0,0,0,0],"sum_hessian":[4.4100305E2,1.7767833E2,2.6332474E2,1.0492277E2,7.2755554E1,1.01995476E2,1.6132925E2,5.465078E1,5.0271988E1,5.025528E1,5.1740192E1,1.0062571E2,6.070355E1],"tree_param":{"num_deleted":"0","num_feature":"9","num_nodes":"13","size_leaf_vector":"1"}},{"base_weights":[4.767879E-3,-2.9289406E-2,8.739747E-2,5.434379E-2,-1.266405E-1,6.8544E-3,1.2947524E-3,6.5799407E-3,-2.0573854E-3,-1.0079007E-2,-8.383608E-5],"categories":[],"categories_nodes":[],"categories_segments":[],"categories_sizes":[],"default_left":[0,0,0,0,0,0,0,0,0,0,0],"id":51,"left_children":[1,3,5,7,9,-1,-1,-1,-1,-1,-1],"loss_changes":[1.1974422E0,2.4609873E0,3.7595046E-1,1.2066703E0,1.3068633E0,0E0,0E0,0E0,0E0,0E0,0E0],"parents":[2147483647,0,0,1,1,2,2,3,3,4,4],"right_children":[2,4,6,8,10,-1,-1,-1,-1,-1,-1],"split_conditions":[9.285714E1,4.7058823E1,3E1,3.4E1,8.375E1,6.8544E-3,1.2947524E-3,6.5799407E-3,-2.0573854E-3,-1.0079007E-2,-8.383608E-5],"split_indices":[8,8,1,1,8,0,0,0,0,0,0],"split_type":[0,0,0,0,0,0,0,0,0,0,0],"sum_hessian":[4.2359955E2,3.0042108E2,1.2317847E2,1.6183354E2,1.3858754E2,6.745201E1,5.572646E1,8.924996E1,7.258359E1,8.625069E1,5.2336853E1],"tree_param":{"num_deleted":"0","num_feature":"9","num_nodes":"11","size_leaf_vector":"1"}},{"base_weights":[-1.823538E-2,-4.6504147E-2,5.3043156E-3,4.8409212E-2,-9.889729E-2,-6.156069E-3,8.7014E-3,4.2530643E-3,-2.034576E-1,-1.7744979E-2,-5.2159997E-3],"categories":[],"categories_nodes":[],"categories_segments":[],"categories_sizes":[],"default_left":[0,0,0,0,0,0,0,0,0,0,0],"id":52,"left_children":[1,3,-1,5,7,-1,-1,-1,9,-1,-1],"loss_changes":[1.5026416E0,1.7348572E0,0E0,2.7022014E0,4.335382E0,0E0,0E0,0E0,2.1163907E0,0E0,0E0],"parents":[2147483647,0,0,1,1,3,3,4,4,8,8],"right_children":[2,4,-1,6,8,-1,-1,-1,10,-1,-1],"split_conditions":[4.1E1,4.861111E1,5.3043156E-3,1.3E1,1.1E1,-6.156069E-3,8.7014E-3,4.2530643E-3,8.823529E1,-1.7744979E-2,-5.2159997E-3],"split_indices":[1,8,0,5,5,0,0,0,8,0,0],"split_type":[0,0,0,0,0,0,0,0,0,0,0],"sum_hessian":[4.251608E2,3.4690585E2,7.825492E1,1.2341257E2,2.234933E2,5.2180603E1,7.1231964E1,8.106238E1,1.4243092E2,5.5329723E1,8.7101204E1],"tree_param":{"num_deleted":"0","num_feature":"9","num_nodes":"11","size_leaf_vector":"1"}},{"base_weights":[-1.4975741E-2,-1.0754242E-2,2.3721632E-2,9.929224E-3,-3.024574E-2,6.174046E-3,-1.0719693E-1,-1.75904E-1,2.447392E-3,-1.6307784E-2,-3.2586523E-4],"categories":[],"categories_nodes":[],"categories_segments":[],"categories_sizes":[],"default_left":[0,0,0,0,0,0,0,0,0,0,0],"id":53,"left_children":[1,-1,3,-1,5,-1,7,9,-1,-1,-1],"loss_changes":[3.2682319E0,0E0,3.346741E0,0E0,3.2235897E0,0E0,1.9546158E0,3.2092764E0,0E0,0E0,0E0],"parents":[2147483647,0,0,2,2,4,4,6,6,7,7],"right_children":[2,-1,4,-1,6,-1,8,10,-1,-1,-1],"split_conditions":[5E0,-1.0754242E-2,1.1E1,9.929224E-3,1.3333333E1,6.174046E-3,3.5E1,9.285714E1,2.447392E-3,-1.6307784E-2,-3.2586523E-4],"split_indices":[5,0,5,0,8,0,1,8,0,0,0],"split_type":[0,0,0,0,0,0,0,0,0,0,0],"sum_hessian":[4.2039178E2,6.738373E1,3.5300806E2,8.262152E1,2.7038654E2,8.999579E1,1.8039075E2,1.2518159E2,5.520916E1,6.5847305E1,5.9334282E1],"tree_param":{"num_deleted":"0","num_feature":"9","num_nodes":"11","size_leaf_vector":"1"}},{"base_weights":[-5.506443E-2,6.4715685E-4,-1.545491E-1,8.666418E-2,-1.115827E-1,-1.2671943E-2,-2.3965286E-3,1.0586242E-2,-4.9839227E-4,-1.28459735E-2,2.6036125E-5],"categories":[],"categories_nodes":[],"categories_segments":[],"categories_sizes":[],"default_left":[0,0,0,0,0,0,0,0,0,0,0],"id":54,"left_children":[1,3,5,7,9,-1,-1,-1,-1,-1,-1],"loss_changes":[2.4007854E0,2.699694E0,1.6272845E0,1.9152821E0,1.9771175E0,0E0,0E0,0E0,0E0,0E0,0E0],"parents":[2147483647,0,0,1,1,2,2,3,3,4,4],"right_children":[2,4,6,8,10,-1,-1,-1,-1,-1,-1],"split_conditions":[2E1,3.3E1,3E1,1.40212E5,4E1,-1.2671943E-2,-2.3965286E-3,1.0586242E-2,-4.9839227E-4,-1.28459735E-2,2.6036125E-5],"split_indices":[5,1,1,3,1,0,0,0,0,0,0],"split_type":[0,0,0,0,0,0,0,0,0,0,0],"sum_hessian":[4.321452E2,2.776527E2,1.5449248E2,1.5731137E2,1.2034133E2,7.9436905E1,7.505558E1,6.805016E1,8.9261215E1,5.1840622E1,6.850071E1],"tree_param":{"num_deleted":"0","num_feature":"9","num_nodes":"11","size_leaf_vector":"1"}},{"base_weights":[-2.2472706E-2,2.8019795E-2,-9.312821E-2,-5.0907478E-2,1.1297361E-1,-1.6499616E-1,1.1838799E-3,2.912292E-3,-9.493475E-3,-2.8408493E-3,1.1879913E-2,-4.2370646E-3,-1.1739062E-2],"categories":[],"categories_nodes":[],"categories_segments":[],"categories_sizes":[],"default_left":[0,0,0,0,0,0,0,0,0,0,0,0,0],"id":55,"left_children":[1,3,5,7,9,11,-1,-1,-1,-1,-1,-1,-1],"loss_changes":[1.5184675E0,1.6725013E0,1.4924546E0,1.9760695E0,2.5533128E0,5.9563017E-1,0E0,0E0,0E0,0E0,0E0,0E0,0E0],"parents":[2147483647,0,0,1,1,2,2,3,3,4,4,5,5],"right_children":[2,4,6,8,10,12,-1,-1,-1,-1,-1,-1,-1],"split_conditions":[1.43242E5,1.40208E5,1.81455E5,1.34124E5,2.9E1,6.060606E1,1.1838799E-3,2.912292E-3,-9.493475E-3,-2.8408493E-3,1.1879913E-2,-4.2370646E-3,-1.1739062E-2],"split_indices":[3,3,3,3,1,8,0,0,0,0,0,0,0],"split_type":[0,0,0,0,0,0,0,0,0,0,0,0,0],"sum_hessian":[4.23899E2,2.4757678E2,1.763222E2,1.2854831E2,1.19028465E2,1.0890369E2,6.741852E1,7.23214E1,5.6226913E1,5.0614525E1,6.841394E1,5.168209E1,5.7221592E1],"tree_param":{"num_deleted":"0","num_feature":"9","num_nodes":"13","size_leaf_vector":"1"}},{"base_weights":[-2.0982787E-2,7.8829646E-2,-9.057552E-2,-5.1797517E-3,1.5509364E-1,-1.383897E-1,2.0387426E-3,1.4505404E-2,1.0677212E-3,-1.0132879E-3,-1.25040235E-2],"categories":[],"categories_nodes":[],"categories_segments":[],"categories_sizes":[],"default_left":[0,0,0,0,0,0,0,0,0,0,0],"id":56,"left_children":[1,3,5,-1,7,9,-1,-1,-1,-1,-1],"loss_changes":[2.9536936E0,2.4479163E0,1.5782475E0,0E0,2.2267973E0,2.4198895E0,0E0,0E0,0E0,0E0,0E0],"parents":[2147483647,0,0,1,1,2,2,4,4,5,5],"right_children":[2,4,6,-1,8,10,-1,-1,-1,-1,-1],"split_conditions":[5.6E1,2.7E1,3.6E1,-5.1797517E-3,6E0,1.43233E5,2.0387426E-3,1.4505404E-2,1.0677212E-3,-1.0132879E-3,-1.25040235E-2],"split_indices":[8,1,1,0,6,3,0,0,0,0,0],"split_type":[0,0,0,0,0,0,0,0,0,0,0],"sum_hessian":[4.231952E2,1.737968E2,2.493984E2,5.1131374E1,1.2266543E2,1.8280142E2,6.6596985E1,6.045986E1,6.2205563E1,8.941633E1,9.338509E1],"tree_param":{"num_deleted":"0","num_feature":"9","num_nodes":"11","size_leaf_vector":"1"}},{"base_weights":[6.3465782E-3,-1.2085869E-1,6.204369E-2,2.5680233E-3,-1.2632668E-2,1.7025948E-2,7.94173E-3,1.059395E-1,-5.604687E-3,1.0307849E-2,-9.876926E-4],"categories":[],"categories_nodes":[],"categories_segments":[],"categories_sizes":[],"default_left":[0,0,0,0,0,0,0,0,0,0,0],"id":57,"left_children":[1,3,5,-1,-1,7,-1,9,-1,-1,-1],"loss_changes":[3.0061643E0,2.9460597E0,1.2827839E0,0E0,0E0,2.3364906E0,0E0,1.5210328E0,0E0,0E0,0E0],"parents":[2147483647,0,0,1,1,2,2,5,5,7,7],"right_children":[2,4,6,-1,-1,8,-1,10,-1,-1,-1],"split_conditions":[1.3981E5,1.34122E5,3.6E1,2.5680233E-3,-1.2632668E-2,2.8E1,7.94173E-3,1.55305E5,-5.604687E-3,1.0307849E-2,-9.876926E-4],"split_indices":[3,3,1,0,0,1,0,3,0,0,0],"split_type":[0,0,0,0,0,0,0,0,0,0,0],"sum_hessian":[4.2224347E2,1.2822456E2,2.940189E2,5.5851902E1,7.237267E1,2.01484E2,9.2534904E1,1.1942551E2,8.205849E1,6.609036E1,5.3335144E1],"tree_param":{"num_deleted":"0","num_feature":"9","num_nodes":"11","size_leaf_vector":"1"}},{"base_weights":[-3.652401E-2,4.9637724E-2,-8.630683E-2,-5.303069E-3,1.1207736E-2,6.651366E-2,-1.8389548E-1,7.661982E-3,-1.4626909E-3,-4.4811205E-3,-1.3681814E-2],"categories":[],"categories_nodes":[],"categories_segments":[],"categories_sizes":[],"default_left":[0,0,0,0,0,0,0,0,0,0,0],"id":58,"left_children":[1,3,5,-1,-1,7,9,-1,-1,-1,-1],"loss_changes":[1.8835231E0,4.400453E0,4.158832E0,0E0,0E0,9.1055155E-1,1.4132805E0,0E0,0E0,0E0,0E0],"parents":[2147483647,0,0,1,1,2,2,5,5,6,6],"right_children":[2,4,6,-1,-1,8,10,-1,-1,-1,-1],"split_conditions":[1.1E1,8E1,4.5634922E1,-5.303069E-3,1.1207736E-2,6E0,2.1E1,7.661982E-3,-1.4626909E-3,-4.4811205E-3,-1.3681814E-2],"split_indices":[5,8,8,0,0,6,5,0,0,0,0],"split_type":[0,0,0,0,0,0,0,0,0,0,0],"sum_hessian":[4.371149E2,1.6007231E2,2.770426E2,8.480445E1,7.526787E1,1.0809225E2,1.6895035E2,5.640887E1,5.1683376E1,8.336927E1,8.558108E1],"tree_param":{"num_deleted":"0","num_feature":"9","num_nodes":"11","size_leaf_vector":"1"}},{"base_weights":[-6.786839E-2,-1.5703115E-1,-1.0859813E-2,-4.8673037E-3,-1.0077432E-2,-5.617892E-3,3.9635845E-2,8.924629E-3,-2.237161E-2,-6.4404025E-3,3.965117E-3],"categories":[],"categories_nodes":[],"categories_segments":[],"categories_sizes":[],"default_left":[0,0,0,0,0,0,0,0,0,0,0],"id":59,"left_children":[1,3,5,-1,-1,-1,7,-1,9,-1,-1],"loss_changes":[2.2545726E0,4.4016743E-1,1.3976793E0,0E0,0E0,0E0,1.5733358E0,0E0,1.3833823E0,0E0,0E0],"parents":[2147483647,0,0,1,1,2,2,6,6,8,8],"right_children":[2,4,6,-1,-1,-1,8,-1,10,-1,-1],"split_conditions":[1.1E1,2.8E1,2.7E1,-4.8673037E-3,-1.0077432E-2,-5.617892E-3,3.2E1,8.924629E-3,1.4E1,-6.4404025E-3,3.965117E-3],"split_indices":[0,1,1,0,0,0,1,0,5,0,0],"split_type":[0,0,0,0,0,0,0,0,0,0,0],"sum_hessian":[4.4288342E2,1.7204558E2,2.7083786E2,7.486285E1,9.718273E1,8.9571304E1,1.8126654E2,5.5377678E1,1.2588886E2,6.1373604E1,6.451526E1],"tree_param":{"num_deleted":"0","num_feature":"9","num_nodes":"11","size_leaf_vector":"1"}},{"base_weights":[-1.912857E-2,-1.0444267E-1,3.5292733E-2,-3.8846884E-2,-1.0395621E-2,-4.08299E-3,9.1796525E-2,2.7013922E-3,-6.5253526E-3,-3.7207715E-3,1.6991414E-1,1.3499393E-2,3.9959974E-3],"categories":[],"categories_nodes":[],"categories_segments":[],"categories_sizes":[],"default_left":[0,0,0,0,0,0,0,0,0,0,0,0,0],"id":60,"left_children":[1,3,5,7,-1,-1,9,-1,-1,-1,11,-1,-1],"loss_changes":[1.9928288E0,1.1261107E0,1.7409685E0,8.88147E-1,0E0,0E0,2.3152256E0,0E0,0E0,0E0,1.0676522E0,0E0,0E0],"parents":[2147483647,0,0,1,1,2,2,3,3,6,6,10,10],"right_children":[2,4,6,8,-1,-1,10,-1,-1,-1,12,-1,-1],"split_conditions":[1.1E1,1.43948E5,1E1,3E1,-1.0395621E-2,-4.08299E-3,2.7E1,2.7013922E-3,-6.5253526E-3,-3.7207715E-3,1.43237E5,1.3499393E-2,3.9959974E-3],"split_indices":[0,3,5,1,0,0,1,0,0,0,3,0,0],"split_type":[0,0,0,0,0,0,0,0,0,0,0,0,0],"sum_hessian":[4.2742636E2,1.6610736E2,2.61319E2,1.025011E2,6.3606262E1,8.498023E1,1.7633878E2,5.111717E1,5.1383934E1,5.6394596E1,1.1994418E2,5.5844707E1,6.409947E1],"tree_param":{"num_deleted":"0","num_feature":"9","num_nodes":"13","size_leaf_vector":"1"}},{"base_weights":[-2.1266272E-2,-7.3782295E-2,7.826129E-3,-1.128982E-1,1.7960847E-3,-3.539698E-3,-1.2599535E-2,2.4633866E-3,-4.134216E-3],"categories":[],"categories_nodes":[],"categories_segments":[],"categories_sizes":[],"default_left":[0,0,0,0,0,0,0,0,0],"id":61,"left_children":[1,3,-1,5,-1,7,-1,-1,-1],"loss_changes":[3.9235294E0,1.3949339E0,0E0,3.6371658E0,0E0,5.679319E-1,0E0,0E0,0E0],"parents":[2147483647,0,0,1,1,3,3,5,5],"right_children":[2,4,-1,6,-1,8,-1,-1,-1],"split_conditions":[1.3E1,9.6296295E1,7.826129E-3,4.8E1,1.7960847E-3,6E0,-1.2599535E-2,2.4633866E-3,-4.134216E-3],"split_indices":[6,8,0,8,0,6,0,0,0],"split_type":[0,0,0,0,0,0,0,0,0],"sum_hessian":[4.1798682E2,3.231256E2,9.4861206E1,2.3817363E2,8.495197E1,1.3391292E2,1.04260704E2,8.054717E1,5.3365753E1],"tree_param":{"num_deleted":"0","num_feature":"9","num_nodes":"9","size_leaf_vector":"1"}},{"base_weights":[-6.9002504E-3,-1.0811015E-1,5.8543444E-2,-7.764981E-3,-3.1748302E-3,9.881397E-3,1.601588E-2,6.70208E-2,-2.5076799E-3,9.633149E-3,-4.2635365E-3],"categories":[],"categories_nodes":[],"categories_segments":[],"categories_sizes":[],"default_left":[0,0,0,0,0,0,0,0,0,0,0],"id":62,"left_children":[1,3,5,-1,-1,-1,7,9,-1,-1,-1],"loss_changes":[2.8441613E0,3.4508848E-1,1.5397242E0,0E0,0E0,0E0,6.8123496E-1,2.1948953E0,0E0,0E0,0E0],"parents":[2147483647,0,0,1,1,2,2,6,6,7,7],"right_children":[2,4,6,-1,-1,-1,8,10,-1,-1,-1],"split_conditions":[1.1E1,1.4E1,2.5E1,-7.764981E-3,-3.1748302E-3,9.881397E-3,1.7E1,3.7E1,-2.5076799E-3,9.633149E-3,-4.2635365E-3],"split_indices":[0,5,1,0,0,0,5,1,0,0,0],"split_type":[0,0,0,0,0,0,0,0,0,0,0],"sum_hessian":[4.274458E2,1.6759894E2,2.5984686E2,8.024243E1,8.735651E1,5.999356E1,1.9985329E2,1.1285175E2,8.700154E1,6.169095E1,5.11608E1],"tree_param":{"num_deleted":"0","num_feature":"9","num_nodes":"11","size_leaf_vector":"1"}},{"base_weights":[9.598835E-3,1.0515881E-2,-2.1951983E-2,-1.1826878E-2,1.6560994E-2,1.00376895E-2,-3.7483074E-2,-9.457483E-3,4.1883048E-3,-2.7902166E-3,3.3825596E-3],"categories":[],"categories_nodes":[],"categories_segments":[],"categories_sizes":[],"default_left":[0,0,0,0,0,0,0,0,0,0,0],"id":63,"left_children":[1,-1,3,-1,5,-1,7,-1,9,-1,-1],"loss_changes":[2.6454787E0,0E0,2.989576E0,0E0,3.0658743E0,0E0,1.5073848E0,0E0,7.1946496E-1,0E0,0E0],"parents":[2147483647,0,0,2,2,4,4,6,6,8,8],"right_children":[2,-1,4,-1,6,-1,8,-1,10,-1,-1],"split_conditions":[1.34122E5,1.0515881E-2,5E0,-1.1826878E-2,1.1E1,1.00376895E-2,1.5E1,-9.457483E-3,1.43241E5,-2.7902166E-3,3.3825596E-3],"split_indices":[3,0,5,0,5,0,5,0,3,0,0],"split_type":[0,0,0,0,0,0,0,0,0,0,0],"sum_hessian":[4.160105E2,5.573999E1,3.602705E2,5.4038498E1,3.0623203E2,6.885297E1,2.3737904E2,5.040104E1,1.8697801E2,9.6178955E1,9.079906E1],"tree_param":{"num_deleted":"0","num_feature":"9","num_nodes":"11","size_leaf_vector":"1"}},{"base_weights":[-5.218171E-2,-1.0232035E-1,1.072882E-2,-5.9304304E-2,-1.5574113E-2,-1.1389214E-2,-2.9962591E-3,-6.556271E-3,3.5206623E-2,6.6167265E-3,-1.7779537E-3],"categories":[],"categories_nodes":[],"categories_segments":[],"categories_sizes":[],"default_left":[0,0,0,0,0,0,0,0,0,0,0],"id":64,"left_children":[1,3,-1,5,-1,-1,7,-1,9,-1,-1],"loss_changes":[5.638677E0,3.1681943E0,0E0,2.797912E0,0E0,0E0,1.0918589E0,0E0,1.1861616E0,0E0,0E0],"parents":[2147483647,0,0,1,1,3,3,6,6,8,8],"right_children":[2,4,-1,6,-1,-1,8,-1,10,-1,-1],"split_conditions":[1.82701E5,1.55305E5,1.072882E-2,2.5E1,-1.5574113E-2,-1.1389214E-2,1.34123E5,-6.556271E-3,6E0,6.6167265E-3,-1.7779537E-3],"split_indices":[3,3,0,1,0,0,3,0,6,0,0],"split_type":[0,0,0,0,0,0,0,0,0,0,0],"sum_hessian":[4.1894522E2,3.5317963E2,6.57656E1,2.9399948E2,5.9180138E1,7.288227E1,2.211172E2,5.0227196E1,1.7089001E2,7.166194E1,9.9228065E1],"tree_param":{"num_deleted":"0","num_feature":"9","num_nodes":"11","size_leaf_vector":"1"}},{"base_weights":[-5.3156386E-3,-6.721829E-3,1.7349971E-2,8.467619E-3,-2.7612042E-2,-1.023846E-2,2.0898728E-2,7.5491453E-3,-3.8982954E-2,-7.1198493E-3,6.575425E-4],"categories":[],"categories_nodes":[],"categories_segments":[],"categories_sizes":[],"default_left":[0,0,0,0,0,0,0,0,0,0,0],"id":65,"left_children":[1,-1,3,-1,5,-1,7,-1,9,-1,-1],"loss_changes":[1.2773029E0,0E0,2.5434988E0,0E0,2.4754133E0,0E0,1.7713095E0,0E0,8.428741E-1,0E0,0E0],"parents":[2147483647,0,0,2,2,4,4,6,6,8,8],"right_children":[2,-1,4,-1,6,-1,8,-1,10,-1,-1],"split_conditions":[5E0,-6.721829E-3,1.1E1,8.467619E-3,1.5E1,-1.023846E-2,2.1E1,7.5491453E-3,2.6E1,-7.1198493E-3,6.575425E-4],"split_indices":[5,0,5,0,5,0,5,0,1,0,0],"split_type":[0,0,0,0,0,0,0,0,0,0,0],"sum_hessian":[4.346483E2,6.416773E1,3.7048056E2,8.393984E1,2.8654074E2,6.090388E1,2.2563684E2,7.064645E1,1.549904E2,5.136668E1,1.0362372E2],"tree_param":{"num_deleted":"0","num_feature":"9","num_nodes":"11","size_leaf_vector":"1"}},{"base_weights":[3.429537E-2,-5.1910393E-3,1.1754089E-1,5.1278463E-3,-5.8281377E-2,1.0167028E-2,-1.2188509E-4,-7.0877722E-3,1.2776727E-2,2.0690418E-3,-9.0249284E-4],"categories":[],"categories_nodes":[],"categories_segments":[],"categories_sizes":[],"default_left":[0,0,0,0,0,0,0,0,0,0,0],"id":66,"left_children":[1,3,5,-1,7,-1,-1,-1,9,-1,-1],"loss_changes":[1.4130702E0,1.6786855E0,1.4240689E0,0E0,1.1675248E0,0E0,0E0,0E0,9.516383E-2,0E0,0E0],"parents":[2147483647,0,0,1,1,2,2,4,4,8,8],"right_children":[2,4,6,-1,8,-1,-1,-1,10,-1,-1],"split_conditions":[1.53778E5,1.38395E5,1.7E1,5.1278463E-3,1.40213E5,1.0167028E-2,-1.2188509E-4,-7.0877722E-3,1.8E1,2.0690418E-3,-9.0249284E-4],"split_indices":[3,3,5,0,3,0,0,0,5,0,0],"split_type":[0,0,0,0,0,0,0,0,0,0,0],"sum_hessian":[4.2870227E2,2.9141235E2,1.3728993E2,9.588334E1,1.95529E2,7.964151E1,5.7648426E1,8.945207E1,1.06076935E2,5.4844307E1,5.1232624E1],"tree_param":{"num_deleted":"0","num_feature":"9","num_nodes":"11","size_leaf_vector":"1"}},{"base_weights":[7.070782E-2,1.0470404E-2,3.326834E-2,-4.722562E-3,1.1925945E-2,-6.900881E-2,1.0209743E-2,-1.4368895E-1,1.9668695E-3,-3.369563E-3,-1.2077829E-2],"categories":[],"categories_nodes":[],"categories_segments":[],"categories_sizes":[],"default_left":[0,0,0,0,0,0,0,0,0,0,0],"id":67,"left_children":[1,-1,3,5,-1,7,-1,9,-1,-1,-1],"loss_changes":[2.221325E0,0E0,2.6452043E0,3.870079E0,0E0,1.7881362E0,0E0,9.590986E-1,0E0,0E0,0E0],"parents":[2147483647,0,0,2,2,3,3,5,5,7,7],"right_children":[2,-1,4,6,-1,8,-1,10,-1,-1,-1],"split_conditions":[2.4E1,1.0470404E-2,4.5E1,1E1,1.1925945E-2,1.43241E5,1.0209743E-2,1.7E1,1.9668695E-3,-3.369563E-3,-1.2077829E-2],"split_indices":[1,0,1,6,0,3,0,5,0,0,0],"split_type":[0,0,0,0,0,0,0,0,0,0,0],"sum_hessian":[4.281064E2,9.002008E1,3.3808633E2,2.8610638E2,5.1979942E1,2.1929616E2,6.681022E1,1.2962378E2,8.9672386E1,7.3787544E1,5.583623E1],"tree_param":{"num_deleted":"0","num_feature":"9","num_nodes":"11","size_leaf_vector":"1"}},{"base_weights":[-8.894673E-3,-2.8113632E-2,6.200328E-3,-1.0309083E-1,2.148562E-2,6.126961E-5,-1.1126113E-2,8.5182965E-2,-4.916146E-3,1.0887951E-2,-3.0756043E-3],"categories":[],"categories_nodes":[],"categories_segments":[],"categories_sizes":[],"default_left":[0,0,0,0,0,0,0,0,0,0,0],"id":68,"left_children":[1,3,-1,5,7,-1,-1,9,-1,-1,-1],"loss_changes":[1.0925707E0,1.3905635E0,0E0,1.8542631E0,1.729424E0,0E0,0E0,2.887349E0,0E0,0E0,0E0],"parents":[2147483647,0,0,1,1,3,3,4,4,7,7],"right_children":[2,4,-1,6,8,-1,-1,10,-1,-1,-1],"split_conditions":[4.5E1,1.1E1,6.200328E-3,2.9E1,2E1,6.126961E-5,-1.1126113E-2,3E1,-4.916146E-3,1.0887951E-2,-3.0756043E-3],"split_indices":[1,0,0,1,5,0,0,1,0,0,0],"split_type":[0,0,0,0,0,0,0,0,0,0,0],"sum_hessian":[4.2538577E2,3.7233112E2,5.3054653E1,1.4781166E2,2.2451944E2,7.942682E1,6.838484E1,1.4677443E2,7.774501E1,7.6842964E1,6.993147E1],"tree_param":{"num_deleted":"0","num_feature":"9","num_nodes":"11","size_leaf_vector":"1"}},{"base_weights":[2.6017025E-2,-8.789559E-2,9.680459E-2,-7.4954014E-3,-1.1682399E-2,1.4966594E-2,2.1063853E-2,-4.129755E-3,3.0136115E-3,-5.2122314E-2,1.0793919E-2,8.1794057E-4,-8.603211E-3],"categories":[],"categories_nodes":[],"categories_segments":[],"categories_sizes":[],"default_left":[0,0,0,0,0,0,0,0,0,0,0,0,0],"id":69,"left_children":[1,3,5,7,-1,-1,9,-1,-1,11,-1,-1,-1],"loss_changes":[3.5101361E0,1.9547002E0,4.1092625E0,5.578457E-1,0E0,0E0,2.8107042E0,0E0,0E0,1.1817611E0,0E0,0E0,0E0],"parents":[2147483647,0,0,1,1,2,2,3,3,6,6,9,9],"right_children":[2,4,6,8,-1,-1,10,-1,-1,12,-1,-1,-1],"split_conditions":[1.1E1,1.45123E5,2.6E1,1.3981E5,-1.1682399E-2,1.4966594E-2,1.60001E5,-4.129755E-3,3.0136115E-3,1.43236E5,1.0793919E-2,8.1794057E-4,-8.603211E-3],"split_indices":[0,3,1,3,0,0,3,0,0,3,0,0,0],"split_type":[0,0,0,0,0,0,0,0,0,0,0,0,0],"sum_hessian":[4.3325134E2,1.6595383E2,2.6729752E2,1.07632706E2,5.8321114E1,7.195121E1,1.9534631E2,5.0950672E1,5.6682037E1,1.4253317E2,5.2813133E1,9.128015E1,5.1253025E1],"tree_param":{"num_deleted":"0","num_feature":"9","num_nodes":"13","size_leaf_vector":"1"}},{"base_weights":[-8.460967E-3,-3.534577E-2,4.078692E-3,4.139913E-3,-6.1223634E-2,-1.19723216E-1,2.3163624E-2,-9.290422E-3,-6.720944E-4,4.1908305E-3,-1.752095E-3],"categories":[],"categories_nodes":[],"categories_segments":[],"categories_sizes":[],"default_left":[0,0,0,0,0,0,0,0,0,0,0],"id":70,"left_children":[1,3,-1,-1,5,7,9,-1,-1,-1,-1],"loss_changes":[1.0274323E0,1.0037055E0,0E0,0E0,1.3283684E0,1.1124923E0,3.940081E-1,0E0,0E0,0E0,0E0],"parents":[2147483647,0,0,1,1,4,4,5,5,6,6],"right_children":[2,4,-1,-1,6,8,10,-1,-1,-1,-1],"split_conditions":[7E0,6E0,4.078692E-3,4.139913E-3,1.43241E5,8.636364E1,7.114625E1,-9.290422E-3,-6.720944E-4,4.1908305E-3,-1.752095E-3],"split_indices":[6,5,0,0,3,8,8,0,0,0,0],"split_type":[0,0,0,0,0,0,0,0,0,0,0],"sum_hessian":[4.2226807E2,3.2563837E2,9.6629684E1,5.811551E1,2.675229E2,1.577485E2,1.0977437E2,9.680644E1,6.0942062E1,5.3541504E1,5.6232864E1],"tree_param":{"num_deleted":"0","num_feature":"9","num_nodes":"11","size_leaf_vector":"1"}},{"base_weights":[4.6608005E-2,1.0252977E-1,-9.352609E-2,-1.4343008E-3,1.4625423E-1,-8.394007E-3,-1.749078E-3,1.3692023E-2,1.10453315E-1,4.8580203E-2,1.1359748E-2,7.259664E-3,-2.8800212E-3],"categories":[],"categories_nodes":[],"categories_segments":[],"categories_sizes":[],"default_left":[0,0,0,0,0,0,0,0,0,0,0,0,0],"id":71,"left_children":[1,3,5,-1,7,-1,-1,-1,9,11,-1,-1,-1],"loss_changes":[3.464518E0,1.814893E0,5.438057E-1,0E0,1.0517616E0,0E0,0E0,0E0,1.3371913E0,1.2728958E0,0E0,0E0,0E0],"parents":[2147483647,0,0,1,1,2,2,4,4,8,8,9,9],"right_children":[2,4,6,-1,8,-1,-1,-1,10,12,-1,-1,-1],"split_conditions":[1.55457E5,1.3489E5,1.81455E5,-1.4343008E-3,1.39546E5,-8.394007E-3,-1.749078E-3,1.3692023E-2,1.43241E5,7.948276E1,1.1359748E-2,7.259664E-3,-2.8800212E-3],"split_indices":[3,3,3,0,3,0,0,0,3,8,0,0,0],"split_type":[0,0,0,0,0,0,0,0,0,0,0,0,0],"sum_hessian":[4.3987393E2,3.145988E2,1.2527512E2,7.87166E1,2.358822E2,5.4363544E1,7.0911575E1,5.0228912E1,1.8565329E2,1.2226756E2,6.338572E1,6.382562E1,5.8441944E1],"tree_param":{"num_deleted":"0","num_feature":"9","num_nodes":"13","size_leaf_vector":"1"}},{"base_weights":[2.6441792E-2,-4.527696E-2,7.1448036E-2,1.4047576E-3,-5.0474E-3,2.2068077E-3,9.39983E-3,6.2296167E-3,-6.42179E-2,-1.403717E-3,-5.025694E-3],"categories":[],"categories_nodes":[],"categories_segments":[],"categories_sizes":[],"default_left":[0,0,0,0,0,0,0,0,0,0,0],"id":72,"left_children":[1,3,5,-1,-1,7,-1,-1,9,-1,-1],"loss_changes":[1.3512172E0,6.6306686E-1,2.0734253E0,0E0,0E0,1.3267612E0,0E0,0E0,1.3598698E-1,0E0,0E0],"parents":[2147483647,0,0,1,1,2,2,5,5,8,8],"right_children":[2,4,6,-1,-1,8,-1,-1,10,-1,-1],"split_conditions":[1.1E1,2.8E1,3.5E1,1.4047576E-3,-5.0474E-3,2.5E1,9.39983E-3,6.2296167E-3,2.9E1,-1.403717E-3,-5.025694E-3],"split_indices":[0,1,1,0,0,1,0,0,1,0,0],"split_type":[0,0,0,0,0,0,0,0,0,0,0],"sum_hessian":[4.166175E2,1.60635E2,2.559825E2,6.95139E1,9.1121086E1,1.6122063E2,9.476186E1,5.6410427E1,1.048102E2,5.3403973E1,5.140623E1],"tree_param":{"num_deleted":"0","num_feature":"9","num_nodes":"11","size_leaf_vector":"1"}},{"base_weights":[-3.1745277E-2,4.9860086E-3,-1.2064702E-2,-4.117318E-2,8.377894E-3,4.525333E-2,-1.4512973E-2,-1.4564369E-2,8.799895E-3,-4.4788555E-3,1.7126581E-3],"categories":[],"categories_nodes":[],"categories_segments":[],"categories_sizes":[],"default_left":[0,0,0,0,0,0,0,0,0,0,0],"id":73,"left_children":[1,3,-1,5,-1,7,-1,9,-1,-1,-1],"loss_changes":[3.2616987E0,2.7189672E0,0E0,6.0901318E0,0E0,1.6483569E0,0E0,5.351629E-1,0E0,0E0,0E0],"parents":[2147483647,0,0,1,1,3,3,5,5,7,7],"right_children":[2,4,-1,6,-1,8,-1,10,-1,-1,-1],"split_conditions":[4.3E1,3.5E1,-1.2064702E-2,3E1,8.377894E-3,9.677419E1,-1.4512973E-2,1.1E1,8.799895E-3,-4.4788555E-3,1.7126581E-3],"split_indices":[1,1,0,1,0,8,0,0,0,0,0],"split_type":[0,0,0,0,0,0,0,0,0,0,0],"sum_hessian":[4.226062E2,3.6040747E2,6.219873E1,2.8128787E2,7.9119606E1,2.0943697E2,7.18509E1,1.4430415E2,6.513281E1,5.655978E1,8.774437E1],"tree_param":{"num_deleted":"0","num_feature":"9","num_nodes":"11","size_leaf_vector":"1"}},{"base_weights":[-1.0540153E-2,-5.098711E-2,6.524557E-3,3.19995E-2,-1.2734222E-2,9.98925E-2,-4.107109E-3,8.8576524E-4,1.0621047E-2],"categories":[],"categories_nodes":[],"categories_segments":[],"categories_sizes":[],"default_left":[0,0,0,0,0,0,0,0,0],"id":74,"left_children":[1,3,-1,5,-1,7,-1,-1,-1],"loss_changes":[2.364741E0,5.4508433E0,0E0,1.7879388E0,0E0,1.3320575E0,0E0,0E0,0E0],"parents":[2147483647,0,0,1,1,3,3,5,5],"right_children":[2,4,-1,6,-1,8,-1,-1,-1],"split_conditions":[4E1,3.2E1,6.524557E-3,2E1,-1.2734222E-2,2.7E1,-4.107109E-3,8.8576524E-4,1.0621047E-2],"split_indices":[1,1,0,5,0,1,0,0,0],"split_type":[0,0,0,0,0,0,0,0,0],"sum_hessian":[4.1238873E2,3.209738E2,9.1414955E1,2.2866019E2,9.231361E1,1.4345566E2,8.520452E1,8.357788E1,5.9877777E1],"tree_param":{"num_deleted":"0","num_feature":"9","num_nodes":"9","size_leaf_vector":"1"}},{"base_weights":[-1.4056647E-2,-8.0361515E-2,1.5136588E-1,2.7483997E-3,-1.3178389E-1,1.2905148E-2,3.2112163E-3,-8.4945515E-2,-1.4329542E-2,-7.3659993E-3,-4.879795E-2,1.9856307E-3,-6.398627E-3],"categories":[],"categories_nodes":[],"categories_segments":[],"categories_sizes":[],"default_left":[0,0,0,0,0,0,0,0,0,0,0,0,0],"id":75,"left_children":[1,3,5,-1,7,-1,-1,9,-1,-1,11,-1,-1],"loss_changes":[4.72419E0,2.1459625E0,1.129991E0,0E0,1.5926266E0,0E0,0E0,3.8202536E-1,0E0,0E0,7.814348E-1,0E0,0E0],"parents":[2147483647,0,0,1,1,2,2,4,4,7,7,10,10],"right_children":[2,4,6,-1,8,-1,-1,10,-1,-1,12,-1,-1],"split_conditions":[9.3333336E1,1.39543E5,1.43236E5,2.7483997E-3,8.136364E1,1.2905148E-2,3.2112163E-3,1.1E1,-1.4329542E-2,-7.3659993E-3,1.43949E5,1.9856307E-3,-6.398627E-3],"split_indices":[8,3,3,0,8,0,0,0,0,0,3,0,0],"split_type":[0,0,0,0,0,0,0,0,0,0,0,0,0],"sum_hessian":[4.2860333E2,3.0633282E2,1.2227051E2,8.4330154E1,2.2200267E2,5.407446E1,6.819605E1,1.7162465E2,5.037802E1,6.184038E1,1.0978426E2,5.2071312E1,5.771295E1],"tree_param":{"num_deleted":"0","num_feature":"9","num_nodes":"13","size_leaf_vector":"1"}},{"base_weights":[-1.3147537E-3,2.6276344E-2,-6.5260055E-3,-2.6688416E-2,1.0895299E-1,3.8284793E-2,-7.377587E-3,7.8910235E-3,2.3595279E-3,1.4593177E-4,2.9321162E-3],"categories":[],"categories_nodes":[],"categories_segments":[],"categories_sizes":[],"default_left":[0,0,0,0,0,0,0,0,0,0,0],"id":76,"left_children":[1,3,-1,5,7,9,-1,-1,-1,-1,-1],"loss_changes":[1.5071112E0,1.5285736E0,0E0,1.6796223E0,4.037553E-1,1.0021557E-1,0E0,0E0,0E0,0E0,0E0],"parents":[2147483647,0,0,1,1,3,3,4,4,5,5],"right_children":[2,4,-1,6,8,10,-1,-1,-1,-1,-1],"split_conditions":[1.4E1,8.448276E1,-6.5260055E-3,4.8E1,6E0,1.1E1,-7.377587E-3,7.8910235E-3,2.3595279E-3,1.4593177E-4,2.9321162E-3],"split_indices":[6,8,0,8,6,0,0,0,0,0,0],"split_type":[0,0,0,0,0,0,0,0,0,0,0],"sum_hessian":[4.207998E2,3.4740912E2,7.3390686E1,2.1216684E2,1.3524226E2,1.3843224E2,7.37346E1,7.4634735E1,6.0607533E1,5.0991146E1,8.744109E1],"tree_param":{"num_deleted":"0","num_feature":"9","num_nodes":"11","size_leaf_vector":"1"}},{"base_weights":[-2.9518234E-2,-9.219004E-2,3.2817326E-2,-1.9906215E-1,1.7132528E-2,7.16587E-3,-5.242693E-2,-1.5895683E-2,-3.090551E-3,-2.6526598E-3,4.016331E-3,5.9874053E-3,-9.614336E-3],"categories":[],"categories_nodes":[],"categories_segments":[],"categories_sizes":[],"default_left":[0,0,0,0,0,0,0,0,0,0,0,0,0],"id":77,"left_children":[1,3,5,7,9,-1,11,-1,-1,-1,-1,-1,-1],"loss_changes":[1.6809776E0,2.5088162E0,2.0427775E0,1.750484E0,4.785084E-1,0E0,2.977829E0,0E0,0E0,0E0,0E0,0E0,0E0],"parents":[2147483647,0,0,1,1,2,2,3,3,4,4,6,6],"right_children":[2,4,6,8,10,-1,12,-1,-1,-1,-1,-1,-1],"split_conditions":[7.3947365E1,1.6E1,2.8E1,1.43239E5,3E1,7.16587E-3,9.285714E1,-1.5895683E-2,-3.090551E-3,-2.6526598E-3,4.016331E-3,5.9874053E-3,-9.614336E-3],"split_indices":[8,5,1,3,1,0,8,0,0,0,0,0,0],"split_type":[0,0,0,0,0,0,0,0,0,0,0,0,0],"sum_hessian":[4.2850827E2,2.13439E2,2.1506926E2,1.0751402E2,1.0592498E2,9.336334E1,1.2170592E2,5.691375E1,5.0600277E1,5.026228E1,5.56627E1,5.4615295E1,6.7090614E1],"tree_param":{"num_deleted":"0","num_feature":"9","num_nodes":"13","size_leaf_vector":"1"}},{"base_weights":[1.895401E-2,-1.1382538E-1,1.0528355E-1,-1.6729431E-1,-1.3619906E-4,2.099258E-3,1.4526823E-1,-6.461426E-3,-9.896014E-3,4.3758634E-3,1.1810021E-2],"categories":[],"categories_nodes":[],"categories_segments":[],"categories_sizes":[],"default_left":[0,0,0,0,0,0,0,0,0,0,0],"id":78,"left_children":[1,3,5,7,-1,-1,9,-1,-1,-1,-1],"loss_changes":[4.8306127E0,9.8630476E-1,6.399641E-1,1.05136395E-1,0E0,0E0,7.9873466E-1,0E0,0E0,0E0,0E0],"parents":[2147483647,0,0,1,1,2,2,3,3,6,6],"right_children":[2,4,6,8,-1,-1,10,-1,-1,-1,-1],"split_conditions":[1.1E1,9.1935486E1,2.8E1,2.9E1,-1.3619906E-4,2.099258E-3,8.275862E1,-6.461426E-3,-9.896014E-3,4.3758634E-3,1.1810021E-2],"split_indices":[0,8,1,1,0,0,8,0,0,0,0],"split_type":[0,0,0,0,0,0,0,0,0,0,0],"sum_hessian":[4.193716E2,1.6510812E2,2.542635E2,1.1112302E2,5.3985107E1,9.922841E1,1.550351E2,5.1870926E1,5.925209E1,9.601712E1,5.901797E1],"tree_param":{"num_deleted":"0","num_feature":"9","num_nodes":"11","size_leaf_vector":"1"}},{"base_weights":[-5.2076314E-2,2.932219E-3,-7.157946E-2,-1.0048202E-2,-4.5722723E-2,-1.7785104E-2,-7.0055397E-3,-5.4630837E-3,3.2850605E-2,-3.5660365E-3,5.214451E-3],"categories":[],"categories_nodes":[],"categories_segments":[],"categories_sizes":[],"default_left":[0,0,0,0,0,0,0,0,0,0,0],"id":79,"left_children":[1,-1,3,-1,5,7,-1,-1,9,-1,-1],"loss_changes":[9.29392E-1,0E0,1.2110097E0,0E0,8.025185E-1,1.0999866E0,0E0,0E0,1.1470196E0,0E0,0E0],"parents":[2147483647,0,0,2,2,4,4,5,5,8,8],"right_children":[2,-1,4,-1,6,8,-1,-1,10,-1,-1],"split_conditions":[2.3E1,2.932219E-3,2.6E1,-1.0048202E-2,4.3E1,1.1E1,-7.0055397E-3,-5.4630837E-3,1.40212E5,-3.5660365E-3,5.214451E-3],"split_indices":[1,0,1,0,1,0,0,0,3,0,0],"split_type":[0,0,0,0,0,0,0,0,0,0,0],"sum_hessian":[4.274493E2,6.3716938E1,3.6373236E2,5.945468E1,3.0427768E2,2.3570155E2,6.8576126E1,8.356976E1,1.5213179E2,6.1888203E1,9.024359E1],"tree_param":{"num_deleted":"0","num_feature":"9","num_nodes":"11","size_leaf_vector":"1"}},{"base_weights":[2.2612631E-2,5.5321515E-2,-7.6870993E-3,1.11657344E-1,-2.0135758E-2,-1.3333604E-3,1.6462196E-1,2.3541886E-3,-6.5695844E-3,1.3242863E-2,3.3372964E-3],"categories":[],"categories_nodes":[],"categories_segments":[],"categories_sizes":[],"default_left":[0,0,0,0,0,0,0,0,0,0,0],"id":80,"left_children":[1,3,-1,5,7,-1,9,-1,-1,-1,-1],"loss_changes":[2.5021296E0,1.5555215E0,0E0,1.5382042E0,1.1806029E0,0E0,1.4689188E0,0E0,0E0,0E0,0E0],"parents":[2147483647,0,0,1,1,3,3,4,4,6,6],"right_children":[2,4,-1,6,8,-1,10,-1,-1,-1,-1],"split_conditions":[4.3E1,1.8E1,-7.6870993E-3,5E0,1.45123E5,-1.3333604E-3,1.1E1,2.3541886E-3,-6.5695844E-3,1.3242863E-2,3.3372964E-3],"split_indices":[1,5,0,5,3,0,5,0,0,0,0],"split_type":[0,0,0,0,0,0,0,0,0,0,0],"sum_hessian":[4.3129333E2,3.6439456E2,6.6898766E1,2.0835704E2,1.5603752E2,5.7827896E1,1.5052914E2,9.7628395E1,5.8409134E1,7.35254E1,7.7003746E1],"tree_param":{"num_deleted":"0","num_feature":"9","num_nodes":"11","size_leaf_vector":"1"}},{"base_weights":[-2.490016E-2,3.4683254E-2,-1.4103314E-1,-7.507086E-3,9.222221E-2,-3.298537E-3,-1.1438726E-2,-1.3011264E-3,1.6196585E-1,1.5375529E-2,2.451912E-3],"categories":[],"categories_nodes":[],"categories_segments":[],"categories_sizes":[],"default_left":[0,0,0,0,0,0,0,0,0,0,0],"id":81,"left_children":[1,3,5,-1,7,-1,-1,-1,9,-1,-1],"loss_changes":[2.9524117E0,3.0163116E0,9.375036E-1,0E0,1.7848804E0,0E0,0E0,0E0,2.219448E0,0E0,0E0],"parents":[2147483647,0,0,1,1,2,2,4,4,8,8],"right_children":[2,4,6,-1,8,-1,-1,-1,10,-1,-1],"split_conditions":[2.1E1,5E0,6E0,-7.507086E-3,1.1E1,-3.298537E-3,-1.1438726E-2,-1.3011264E-3,3E1,1.5375529E-2,2.451912E-3],"split_indices":[5,5,6,0,0,0,0,0,1,0,0],"split_type":[0,0,0,0,0,0,0,0,0,0,0],"sum_hessian":[4.249668E2,2.8132895E2,1.4363783E2,6.6407455E1,2.1492151E2,7.835625E1,6.5281586E1,7.996839E1,1.3495311E2,5.8208733E1,7.674438E1],"tree_param":{"num_deleted":"0","num_feature":"9","num_nodes":"11","size_leaf_vector":"1"}},{"base_weights":[-1.52323395E-2,8.35385E-2,-8.0907024E-2,-2.8739667E-3,1.6364878E-1,-8.715296E-3,-4.025628E-2,3.4659088E-3,1.2894233E-2,4.500979E-3,-7.956408E-3],"categories":[],"categories_nodes":[],"categories_segments":[],"categories_sizes":[],"default_left":[0,0,0,0,0,0,0,0,0,0,0],"id":82,"left_children":[1,3,5,-1,7,-1,9,-1,-1,-1,-1],"loss_changes":[2.7331653E0,1.9112431E0,9.533868E-1,0E0,9.3878937E-1,0E0,2.7638338E0,0E0,0E0,0E0,0E0],"parents":[2147483647,0,0,1,1,2,2,4,4,6,6],"right_children":[2,4,6,-1,8,-1,10,-1,-1,-1,-1],"split_conditions":[2.8E1,6.1666668E1,9E0,-2.8739667E-3,2.4E1,-8.715296E-3,1.43239E5,3.4659088E-3,1.2894233E-2,4.500979E-3,-7.956408E-3],"split_indices":[1,8,5,0,1,0,3,0,0,0,0],"split_type":[0,0,0,0,0,0,0,0,0,0,0],"sum_hessian":[4.1930432E2,1.6734914E2,2.5195518E2,6.072958E1,1.0661955E2,7.5408714E1,1.7654646E2,5.4150345E1,5.2469204E1,8.4348595E1,9.219787E1],"tree_param":{"num_deleted":"0","num_feature":"9","num_nodes":"11","size_leaf_vector":"1"}},{"base_weights":[5.305056E-2,-6.955829E-4,1.3983265E-2,-1.1971474E-1,7.6284364E-2,-6.6962483E-4,-1.4708998E-2,-8.083606E-3,1.7158665E-1,1.686192E-2,8.379503E-2,-4.9858736E-3,1.3252623E-2],"categories":[],"categories_nodes":[],"categories_segments":[],"categories_sizes":[],"default_left":[0,0,0,0,0,0,0,0,0,0,0,0,0],"id":83,"left_children":[1,3,-1,5,7,-1,-1,-1,9,-1,11,-1,-1],"loss_changes":[5.291361E0,3.2354949E0,0E0,2.5687985E0,4.8909287E0,0E0,0E0,0E0,2.2056165E0,0E0,3.4102294E0,0E0,0E0],"parents":[2147483647,0,0,1,1,3,3,4,4,8,8,10,10],"right_children":[2,4,-1,6,8,-1,-1,-1,10,-1,12,-1,-1],"split_conditions":[1.75682E5,1.1E1,1.3983265E-2,1.43239E5,1.38396E5,-6.6962483E-4,-1.4708998E-2,-8.083606E-3,8E0,1.686192E-2,8.784314E1,-4.9858736E-3,1.3252623E-2],"split_indices":[3,0,0,3,3,0,0,0,8,0,8,0,0],"split_type":[0,0,0,0,0,0,0,0,0,0,0,0,0],"sum_hessian":[4.3342618E2,3.511427E2,8.228348E1,1.3769559E2,2.1344711E2,8.622518E1,5.1470413E1,6.0840496E1,1.5260661E2,5.1878006E1,1.00728615E2,5.027648E1,5.045213E1],"tree_param":{"num_deleted":"0","num_feature":"9","num_nodes":"13","size_leaf_vector":"1"}}]},"name":"gbtree"},"learner_model_param":{"base_score":"3.369612E-1","boost_from_average":"1","num_class":"0","num_feature":"9","num_target":"1"},"objective":{"name":"binary:logistic","reg_loss_param":{"scale_pos_weight":"1"}}},"version":[2,1,1]}