tree
version=v4
num_class=1
num_tree_per_iteration=1
label_index=0
max_feature_idx=8
objective=binary sigmoid:1
feature_names=Column_0 Column_1 Column_2 Column_3 Column_4 Column_5 Column_6 Column_7 Column_8
feature_infos=[0:11] [0:69] [0:12] [124587:201897] [0:3] [0:23] [0:15] [51873:241116] [-1:100]
tree_sizes=1675 1664 1654 1669 1664 1665 1677 1667 1672 1676 1669 1672 1684 1681 1667 1681 1673 1685 1682 1667 1671

Tree=0
num_leaves=15
num_cat=0
split_feature=7 7 8 5 6 5 4 8 5 0 1 1 5 5
split_gain=859.555 1685.16 15.1106 12.7421 9.2223 9.84499 6.83932 6.06736 7.73495 5.78552 5.31026 5.27504 10.1545 6.20865
threshold=94406.000000000015 94402.000000000015 50.108224868774421 20.500000000000004 4.5000000000000009 22.500000000000004 2.5000000000000004 55.662393569946296 12.500000000000002 9.5000000000000018 35.500000000000007 26.500000000000004 19.500000000000004 20.500000000000004
decision_type=2 2 2 2 2 2 2 2 2 2 2 2 2 2
left_child=1 -1 9 6 10 -6 -4 8 -8 -3 -5 13 -13 -11
right_child=-2 2 3 4 5 -7 7 -9 -10 11 -12 12 -14 -15
leaf_value=-1.0035001418358609 -1.0035001418358609 -0.42286913811433569 -0.70233952065271343 -0.40978348864622743 -0.5317706732569486 -0.30079202574185027 -0.72852740075559586 -0.40773206341205653 -0.28071465099630732 -0.35215275183510025 -0.10001827828641885 -0.37257705276502134 -0.24174092354907628 -0.49715316336309656
leaf_weight=290.6533077955246 290.6533077955246 79.913057208061218 3.320487141609191 7.747803330421446 100.05734586715698 7.9691691398620597 5.0914136171340934 233.98366057872772 2.2136580944061279 28.55618941783905 3.0991213321685791 79.24895977973938 33.868968844413757 20.144288659095764
leaf_count=1313 1313 361 15 35 452 36 23 1057 10 129 14 358 153 91
internal_value=-0.704643 -0.607683 -0.417592 -0.443363 -0.497079 -0.514731 -0.417259 -0.413336 -0.592827 -0.37884 -0.321279 -0.357097 -0.333403 -0.41213
internal_weight=0 895.867 605.214 363.483 118.873 108.027 244.609 241.289 7.30507 241.731 10.8469 161.818 113.118 48.7005
internal_count=5360 4047 2734 1642 537 488 1105 1090 33 1092 49 731 511 220
is_linear=0
shrinkage=1


Tree=1
num_leaves=15
num_cat=0
split_feature=2 0 4 6 1 6 1 0 3 3 0 2 2 1
split_gain=795.264 241.038 144.35 28.7045 23.9788 23.2112 21.5109 19.4352 12.1869 11.8911 10.4155 9.12178 9.07638 7.91194
threshold=4.5000000000000009 7.5000000000000009 2.5000000000000004 5.5000000000000009 20.500000000000004 3.5000000000000004 1.0000000180025095e-35 6.5000000000000009 145121.50000000003 129101.50000000001 9.5000000000000018 3.5000000000000004 3.5000000000000004 1.0000000180025095e-35
decision_type=2 2 2 2 2 2 2 2 2 2 2 2 2 2
left_child=1 7 -3 4 6 11 -4 8 -1 -5 -7 -6 -11 -14
right_child=-2 2 3 9 5 10 -8 -9 -10 12 -12 -13 13 -15
leaf_value=-0.20231829044398364 -0.27331881530522134 -0.24625478700753201 0.16585926905321038 0.29726989847142854 -0.27331881530522134 0.13201705046395212 0.51049921980740831 -0.25948784713507722 0.52271318002433198 -0.27331881530522134 0.045281065327291529 0.21460821583817744 0.033065095658806221 0.18780643419735565
leaf_weight=1.6466137021780007 317.21061396598816 38.456830307841301 23.474413305521011 37.795732527971268 1.5703495740890492 77.556449696421623 10.477495163679121 74.399648129940033 2.1229289025068283 1.7666432708501805 193.66168728470802 63.760062128305435 13.802803516387938 311.37522350251675
leaf_count=7 1616 193 99 158 8 338 44 376 9 9 867 270 58 1308
internal_value=0 0.0976588 0.131475 0.151232 0.112023 0.095862 0.272215 -0.23704 0.206005 0.19106 0.0700837 0.20288 0.178782 0.181238
internal_weight=0 851.867 773.698 735.241 370.5 336.549 33.9519 78.1692 3.76954 364.74 271.218 65.3304 326.945 325.178
internal_count=5360 3744 3352 3159 1626 1483 143 392 16 1533 1205 278 1375 1366
is_linear=0
shrinkage=0.2


Tree=2
num_leaves=15
num_cat=0
split_feature=2 7 7 6 5 3 3 3 3 3 5 3 5 5
split_gain=576.424 610.895 105.775 5.6818 6.17633 6.04515 5.44946 3.78896 3.3853 4.80638 3.93779 4.34541 3.70575 5.30064
threshold=4.5000000000000009 94402.000000000015 94406.000000000015 5.5000000000000009 22.500000000000004 200859.50000000003 134119.50000000003 181454.50000000003 140009.00000000003 139543.50000000003 21.500000000000004 198363.50000000003 1.5000000000000002 12.500000000000002
decision_type=2 2 2 2 2 2 2 2 2 2 2 2 2 2
left_child=1 -1 3 5 6 8 -5 -8 9 12 -10 -12 -3 -14
right_child=-2 2 -4 4 -6 -7 7 -9 10 -11 11 -13 13 -15
leaf_value=-0.2684559506304271 -0.25578461613744918 0.47977777047297993 -0.26550114828132254 0.20288582238586639 0.30555531639212807 -0.022651881165509043 0.13178483200992538 0.19858129371929023 0.21505397068877571 -0.096334248968286698 0.0699840419958037 0.31458186457414666 0.082328463676427266 0.22055452472409939
leaf_weight=165.52078491449356 275.57323932647705 1.4583120197057713 22.683016955852509 69.987640768289566 10.900321081280707 5.0490403771400443 252.99185827374458 39.236330434679985 224.03723135590553 2.9729144573211661 14.648198038339617 3.62404541671276 20.881732940673828 23.68262605369091
leaf_count=886 1616 6 124 283 44 21 1030 160 921 12 60 15 85 97
internal_value=0 0.0767092 0.159252 0.173643 0.157222 0.194317 0.152759 0.140753 0.198078 0.150131 0.207773 0.118497 0.166052 0.155785
internal_weight=0 857.674 692.153 669.47 373.116 296.354 362.216 292.228 291.305 48.9956 242.309 18.2722 46.0227 44.5644
internal_count=5360 3744 2858 2734 1517 1217 1473 1190 1196 200 996 75 188 182
is_linear=0
shrinkage=0.2


Tree=3
num_leaves=15
num_cat=0
split_feature=2 7 7 8 1 1 5 1 5 8 8 1 8 6
split_gain=427.777 425.074 71.2385 8.09439 7.37431 21.1524 6.17553 5.37085 4.88787 7.02419 4.71609 11.4207 5.71508 5.1691
threshold=4.5000000000000009 94402.000000000015 94406.000000000015 50.108224868774421 1.0000000180025095e-35 20.500000000000004 20.500000000000004 22.500000000000004 8.5000000000000018 20.02506256103516 95.199695587158217 37.500000000000007 91.042778015136733 8.5000000000000018
decision_type=2 2 2 2 2 2 2 2 2 2 2 2 2 2
left_child=1 -1 3 8 -5 -6 7 -7 9 -3 11 -8 -13 -12
right_child=-2 2 -4 4 5 6 10 -9 -10 -11 13 12 -14 -15
leaf_value=-0.25248925970649377 -0.24319452197673053 0.099002352764099022 -0.25036604662045697 0.013986726747328846 0.38577261240690236 0.046773602321151318 -0.012520004509823475 0.14457164201313247 0.18004447150493774 0.29513511321682545 0.14808052071933958 0.26485575844948006 -0.073011194192218007 0.0085928107516940293
leaf_weight=143.15705150365829 236.04373168945312 67.523177325725555 19.572421371936798 25.183280110359192 12.114702165126799 24.929058820009232 42.894952282309532 226.94468446075916 196.12157534062862 8.1898029297590238 48.373266652226448 10.600684106349943 2.4690057337284079 13.618603110313414
leaf_count=886 1616 271 124 103 49 100 174 912 788 33 196 43 10 55
internal_value=0 0.06147 0.125812 0.136657 0.118813 0.125724 0.117206 0.134892 0.163381 0.120218 0.0794403 0.0373511 0.201029 0.117437
internal_weight=0 841.692 698.535 678.963 407.128 381.945 369.83 251.874 271.835 75.713 117.957 55.9646 13.0697 61.9919
internal_count=5360 3744 2858 2734 1642 1539 1490 1012 1092 304 478 227 53 251
is_linear=0
shrinkage=0.2


Tree=4
num_leaves=15
num_cat=0
split_feature=2 7 7 8 5 6 8 8 8 5 8 8 5 6
split_gain=323.703 303.954 49.5289 5.40762 5.87016 10.3265 6.55657 5.57217 11.9258 4.92069 7.75394 4.39155 3.82866 5.06705
threshold=4.5000000000000009 94402.000000000015 94406.000000000015 47.633054733276374 8.5000000000000018 14.500000000000002 91.042778015136733 62.533422470092781 67.556819915771499 4.5000000000000009 74.933155059814467 60.952981948852546 8.5000000000000018 14.500000000000002
decision_type=2 2 2 2 2 2 2 2 2 2 2 2 2 2
left_child=1 -1 3 12 5 9 -7 11 -9 10 -5 -6 13 -3
right_child=-2 2 -4 4 7 6 -8 8 -10 -11 -12 -13 -14 -15
leaf_value=-0.2408719771742952 -0.23386964454555625 0.10051298014495745 -0.23929913840197409 -0.084860033310449945 0.016307571015652417 0.089491219560654534 -0.40872037191245103 0.32900136709946787 0.080316761296558084 0.18633975944723233 0.13139925565293639 -0.25506317445307619 0.14652079507655238 -0.27091225045530481
leaf_weight=122.25368955731392 200.14019596576691 72.407878741621971 16.686266355216503 7.6102973371744147 18.721411183476452 1.997685819864272 2.2428770214319229 7.946809470653533 262.71049486100674 55.892956539988518 51.5804463326931 2.7336502373218527 192.67726826667786 1.4995996803045262
leaf_count=886 1616 291 124 31 76 8 9 32 1060 225 208 11 777 6
internal_value=0 0.0499338 0.101109 0.109487 0.0951096 0.132487 -0.174018 0.0798412 0.0876184 0.143781 0.103594 -0.0182685 0.131676 0.0929767
internal_weight=0 816.961 694.708 678.021 411.437 119.324 4.24056 292.112 270.657 115.084 59.1907 21.4551 266.585 73.9075
internal_count=5360 3744 2858 2734 1660 481 17 1179 1092 464 239 87 1074 297
is_linear=0
shrinkage=0.2


Tree=5
num_leaves=15
num_cat=0
split_feature=7 7 1 1 3 5 1 5 3 3 6 3 5 1
split_gain=219.991 285.164 4.09582 23.1017 5.68924 5.07361 5.01665 4.33789 4.88657 4.55024 4.32032 4.24862 3.60125 6.56675
threshold=94402.000000000015 94406.000000000015 1.0000000180025095e-35 20.500000000000004 134119.50000000003 22.500000000000004 22.500000000000004 18.500000000000004 182894.00000000003 145121.50000000003 4.5000000000000009 160892.50000000003 21.500000000000004 36.500000000000007
decision_type=2 2 2 2 2 2 2 2 2 2 2 2 2 2
left_child=-1 2 4 -4 -2 6 7 8 10 -9 -5 -6 -8 -14
right_child=1 -3 3 5 11 -7 12 9 -10 -11 -12 -13 13 -15
leaf_value=-0.23056619536686954 0.3127831108623047 -0.22723427613677877 0.3190182695796217 0.17755632298901591 -0.032778832016951719 0.2018348892647279 0.092189439254217589 0.17612574273610593 0.20081901307857214 -0.050014835663120344 -0.078012401993453218 0.10621942319976155 -0.056392481424246389 0.15023509491426024
leaf_weight=147.94284691661596 2.65498924255371 138.02100804448128 17.5026745647192 2.9613930583000245 28.140542760491371 14.755420953035353 522.45183426141739 11.18514320254326 3.4738000184297553 5.2200949341058722 24.828860878944397 12.795737564563749 17.301383286714557 9.5471415519714338
leaf_count=1313 11 1313 76 12 114 61 2119 45 14 21 100 52 70 39
internal_value=0 0.0346363 0.088356 0.0924632 0.0290695 0.085981 0.0831174 0.0208807 -0.022823 0.104169 -0.0507784 0.0106688 0.0885184 0.0170828
internal_weight=0 810.84 672.819 629.228 43.5913 611.725 596.97 47.6693 31.2641 16.4052 27.7903 40.9363 549.3 26.8485
internal_count=5360 4047 2734 2557 177 2481 2420 192 126 66 112 166 2228 109
is_linear=0
shrinkage=0.2


Tree=6
num_leaves=15
num_cat=0
split_feature=2 7 7 3 5 6 3 6 0 3 3 3 5 5
split_gain=192.568 164.471 25.6208 3.08738 4.36309 3.42724 4.13517 5.70557 7.21326 4.78541 6.23699 5.30986 4.35633 3.85831
threshold=4.5000000000000009 94402.000000000015 94406.000000000015 200859.50000000003 4.5000000000000009 5.5000000000000009 129101.50000000001 11.500000000000002 10.500000000000002 138395.50000000003 134123.50000000003 139542.50000000003 4.5000000000000009 20.500000000000004
decision_type=2 2 2 2 2 2 2 2 2 2 2 2 2 2
left_child=1 -1 3 5 -5 -3 -7 8 -8 10 13 -11 -13 -10
right_child=-2 2 -4 4 -6 6 7 -9 9 11 -12 12 -14 -15
leaf_value=-0.22559551098387251 -0.22133902170817121 0.089222629848708587 -0.22472956305643024 -0.40592058376948181 0.016381050087925432 0.12224593308623995 -0.029953204262513175 0.080978191647894562 0.099956218746057549 0.20537816115217106 -0.14599488007838377 -0.063441705690900546 0.079121317588085466 -0.10039089132060003
leaf_weight=87.024261243641376 140.7762057185173 290.64702907204628 11.871522299945353 1.2392083853483189 4.6534609496593475 38.450647592544556 57.316254809498787 154.44468447566032 15.348709434270864 11.713741078972815 9.5437053889036161 9.839843884110449 66.62906476855278 5.1300740391015998
leaf_count=886 1616 1196 124 5 19 162 235 633 63 48 39 40 273 21
internal_value=0 0.0332194 0.066497 0.0716963 -0.0724276 0.0729849 0.0601748 0.0529417 0.0282719 0.0565045 -0.0124622 0.0799848 0.0607766 0.0497679
internal_weight=0 763.852 676.828 664.956 5.89267 659.064 368.417 329.966 175.521 118.205 30.0225 88.1826 76.4689 20.4788
internal_count=5360 3744 2858 2734 24 2710 1514 1352 719 484 123 361 313 84
is_linear=0
shrinkage=0.2


Tree=7
num_leaves=15
num_cat=0
split_feature=2 7 7 8 3 1 1 0 3 8 3 3 3 1
split_gain=150.822 123.495 18.8578 3.66552 4.23844 4.24407 6.11056 5.50469 6.98478 4.54339 4.20607 3.81111 3.91642 5.05037
threshold=4.5000000000000009 94402.000000000015 94406.000000000015 47.633054733276374 139743.50000000003 25.500000000000004 20.500000000000004 10.500000000000002 140681.50000000003 20.02506256103516 134121.50000000003 140009.00000000003 168625.00000000003 22.500000000000004
decision_type=2 2 2 2 2 2 2 2 2 2 2 2 2 2
left_child=1 -1 3 4 10 6 -6 9 -9 -7 -3 -8 -13 -14
right_child=-2 2 -4 -5 5 7 11 8 -10 -11 -12 12 13 -15
leaf_value=-0.22045182357324219 -0.21710206119274358 0.087461223728845947 -0.21977681948756317 0.046196825049725561 0.14376105866555483 0.032430042369617253 0.33942815808502924 0.24391612521702985 0.11011934397618239 0.24396870532427883 -0.0058223131196720656 -0.071491404430852362 -0.1260397104963368 0.19761633403295606
leaf_weight=72.736932992935181 117.27111316472292 36.342856019735336 9.9155803173780424 401.86741709709167 15.54406616091728 39.378539904952049 1.198229774832728 20.27898171544075 67.744257777929306 4.5282705426216117 41.312037408351898 20.783644959330562 2.9061621725559217 5.7324510961771011
leaf_count=886 1616 156 124 1660 67 163 5 85 285 19 172 86 12 24
internal_value=0 0.0270159 0.0539809 0.0581086 0.076826 0.0938274 0.0416342 0.112091 0.140944 0.0542468 0.0378348 -0.010209 -0.0244481 0.0887335
internal_weight=0 740.269 667.532 657.617 255.749 178.095 46.1646 131.93 88.0232 43.9068 77.6549 30.6205 29.4223 8.63861
internal_count=5360 3744 2858 2734 1074 746 194 552 370 182 328 127 122 36
is_linear=0
shrinkage=0.2


Tree=8
num_leaves=15
num_cat=0
split_feature=2 0 4 0 6 8 1 1 5 1 8 6 1 5
split_gain=119.096 25.7394 14.2884 4.47948 3.26698 2.53645 2.50789 20.3925 3.20788 3.17602 5.13792 3.13005 4.00764 2.80433
threshold=4.5000000000000009 7.5000000000000009 2.5000000000000004 6.5000000000000009 12.500000000000002 72.500000000000014 20.500000000000004 1.0000000180025095e-35 22.500000000000004 22.500000000000004 92.880565643310561 6.5000000000000009 44.500000000000007 20.500000000000004
decision_type=2 2 2 2 2 2 2 2 2 2 2 2 2 2
left_child=1 3 4 5 -3 -1 7 -4 9 10 -8 12 -10 -11
right_child=-2 2 6 -5 -6 -7 8 -9 11 13 -12 -13 -14 -15
leaf_value=0.17240616852446758 -0.21376456323210546 -0.18780749646663739 0.00017135251428490722 -0.19258306895514193 0.24997269748670281 -0.16727252362445899 -0.069857852790620276 0.27571847505726943 -0.0025119041943705124 0.042240287692456607 0.061662979720453454 0.27262919045309081 0.29540098721728308 0.01182136915437712
leaf_weight=2.297422617673877 97.355684909969568 13.85149402543902 39.464252799749374 25.327369380742311 0.71716152504086572 1.424574166536331 31.295597825199366 14.761917456984518 7.9513386413454992 377.86612165346742 19.152117729187012 4.0552999153733245 2.3371123299002647 178.49173913896084
leaf_count=10 1616 187 164 376 6 6 154 76 40 1747 84 21 11 862
internal_value=0 0.021943 0.0297077 -0.162476 -0.166257 0.042396 0.0339349 0.0751832 0.030334 0.0281242 -0.0199269 0.123817 0.0651616 0.0324812
internal_weight=0 718.994 689.944 29.0494 14.5687 3.722 675.375 54.2262 621.149 606.806 50.4477 14.3438 10.2885 556.358
internal_count=5360 3744 3352 392 193 16 3159 240 2919 2847 238 72 51 2609
is_linear=0
shrinkage=0.2


Tree=9
num_leaves=15
num_cat=0
split_feature=7 7 8 5 3 3 1 1 1 3 3 1 3 3
split_gain=94.9503 97.0696 2.64889 4.09426 8.3393 4.6055 3.85188 3.61836 5.02233 3.99481 3.57414 3.50646 3.42342 4.64711
threshold=94402.000000000015 94406.000000000015 47.633054733276374 20.500000000000004 185344.00000000003 198316.00000000003 31.500000000000004 18.500000000000004 22.500000000000004 145532.00000000003 126875.50000000001 32.500000000000007 134123.50000000003 138395.50000000003
decision_type=2 2 2 2 2 2 2 2 2 2 2 2 2 2
left_child=-1 2 -2 5 7 -4 -6 9 -9 -5 -10 -8 -12 -14
right_child=1 -3 3 4 6 -7 11 8 10 -11 12 -13 13 -15
leaf_value=-0.21468087512661815 0.057461176623059246 -0.21160168004727764 0.053476114335818385 -0.040700310468443433 0.19923963691627822 -0.040639418240972183 -0.29870777869312626 0.12564307232107652 0.15635661870534334 -0.33153386638336146 -0.12604072764932447 0.07562910614143202 0.14602486405906065 -0.030053015024060842
leaf_weight=78.262414738535881 248.30947048962116 67.044308368116617 242.17566725611687 5.1952599585056287 11.34152574837208 22.751504689455032 1.2147555649280537 10.126133427023886 4.2621426880359641 2.9686346799135208 12.990933060646055 5.6863404661417007 6.5548652410507193 70.273315876722336
leaf_count=1313 1074 1313 1023 21 49 95 5 45 18 12 53 24 27 288
internal_value=0 0.0174221 0.0412704 0.0311062 0.00212673 0.0453936 0.127552 -0.0182351 -0.00818988 -0.146456 -0.0225946 0.00973699 -0.0310862 -0.0150303
internal_weight=0 710.895 643.851 395.541 130.614 264.927 18.2426 112.371 104.207 8.16389 94.0813 6.9011 89.8191 76.8282
internal_count=5360 4047 2734 1660 542 1118 78 464 431 33 386 29 368 315
is_linear=0
shrinkage=0.2


Tree=10
num_leaves=15
num_cat=0
split_feature=7 7 3 5 5 5 6 1 5 1 1 3 1 1
split_gain=75.6271 75.1584 1.87296 2.667 3.31145 3.95227 2.20585 3.41952 3.28022 2.66835 2.85089 2.63457 2.38097 5.8896
threshold=94402.000000000015 94406.000000000015 200859.50000000003 4.5000000000000009 12.500000000000002 20.500000000000004 5.5000000000000009 57.500000000000007 22.500000000000004 55.500000000000007 50.500000000000007 124649.50000000001 50.500000000000007 51.500000000000007
decision_type=2 2 2 2 2 2 2 2 2 2 2 2 2 2
left_child=-1 2 6 -4 -5 -6 7 9 11 10 -2 -8 -13 -14
right_child=1 -3 3 4 5 -7 8 -9 -10 -11 -12 12 13 -15
leaf_value=-0.21186847591117713 0.044204502675705248 -0.20939405183000057 -0.34488029565773531 0.23522802920123298 -0.41327600864386094 0.052323417870295354 0.19710036158986932 0.29733564616165398 0.14366821615033476 -0.15871381908041698 0.16526230421137292 0.023643607101255074 -0.36563962296430796 -0.011189900813442269
leaf_weight=64.837633226066828 264.70453645288944 55.409655522555113 1.2035811394453038 1.4834745079278944 1.1932015120983126 1.87555555999279 3.3620697855949393 2.1801508069038382 8.9341425001621229 2.5267637372016898 8.0170164108276349 318.72364549338818 2.0625855177640942 20.634894385933876
leaf_count=1313 1140 1313 5 6 5 8 15 10 43 11 35 1359 9 88
internal_value=0 0.0140206 0.0334574 -0.0801143 -0.0101118 -0.128712 0.0344931 0.0478439 0.0240218 0.0458677 0.0477632 0.0209215 0.0191866 -0.0433998
internal_weight=0 692.311 636.902 5.75581 4.55223 3.06876 631.146 277.428 353.717 275.248 272.722 344.783 341.421 22.6975
internal_count=5360 4047 2734 24 19 13 2710 1196 1514 1186 1175 1471 1456 97
is_linear=0
shrinkage=0.2


Tree=11
num_leaves=15
num_cat=0
split_feature=2 7 7 8 8 8 3 3 8 0 8 8 3 8
split_gain=60.6214 51.2383 7.39362 1.78126 3.48617 5.06562 2.81608 4.5442 3.25936 2.78002 6.11682 4.31603 6.94327 5.00407
threshold=4.5000000000000009 94402.000000000015 94406.000000000015 50.108224868774421 87.550323486328139 87.071151733398452 139541.50000000003 134121.50000000003 20.02506256103516 9.5000000000000018 54.262557983398445 85.07703018188478 138390.50000000003 66.452991485595717
decision_type=2 2 2 2 2 2 2 2 2 2 2 2 2 2
left_child=1 -1 3 6 5 9 7 8 -3 10 -5 13 -13 -12
right_child=-2 2 -4 4 -6 -7 -8 -9 -10 -11 11 12 -14 -15
leaf_value=-0.21049225724699339 -0.20728550605603144 0.033127883868871714 -0.21006173417193544 -0.26797178992484333 0.033314777044946918 -0.21299320110637129 0.053055716052796589 -0.053132917359434664 0.23781238048550524 -0.019524582513835691 0.18740919225115638 -0.091960778029598594 0.33773469003053536 -0.0028302573557630346
leaf_weight=39.202712714672089 54.800872076302767 31.113246321678162 5.303836364299058 2.4493048936128607 240.74099595844746 4.5783794373273841 182.0092847943306 29.632393211126328 3.4577099084854117 92.108934864401817 6.6967373490333548 2.2019968032836905 4.7466166913509369 31.76468314230442
leaf_count=886 1616 142 124 10 1027 19 808 126 16 393 29 9 20 135
internal_value=0 0.0114278 0.0250895 0.0270645 0.0185733 -0.00597848 0.040352 0.00433851 0.0536 0.000792998 0.0398957 0.0565013 0.201565 0.0302934
internal_weight=0 676.007 636.804 631.5 385.288 144.547 246.213 64.2033 34.571 139.968 47.8593 45.41 6.94861 38.4614
internal_count=5360 3744 2858 2734 1642 615 1092 284 158 596 203 193 29 164
is_linear=0
shrinkage=0.2


Tree=12
num_leaves=15
num_cat=0
split_feature=2 7 7 3 3 3 5 5 5 3 3 6 3 3
split_gain=48.864 40.3045 5.75335 1.9973 5.05471 4.86711 4.82454 3.80074 3.70318 6.05129 4.72843 5.13117 5.71669 3.56504
threshold=4.5000000000000009 94402.000000000015 94406.000000000015 143234.50000000003 140009.00000000003 143240.50000000003 5.5000000000000009 22.500000000000004 4.5000000000000009 143242.50000000003 143243.50000000003 14.500000000000002 198318.50000000003 182701.50000000003
decision_type=2 2 2 2 2 2 2 2 2 2 2 2 2 2
left_child=1 -1 3 4 6 -5 -3 -8 10 -10 -7 12 -12 -11
right_child=-2 2 -4 5 -6 8 7 -9 9 13 11 -13 -14 -15
leaf_value=-0.20851113057582743 -0.20592157801665312 0.085918512070186137 -0.20816542179684064 -0.043349918906264329 0.07035289729414837 -0.34113890036607669 -0.0033545857998738405 0.18869552384234628 0.16309888744101389 0.0057991299713868539 0.041658626167173911 -0.33438259954006172 -0.14199422367685074 0.06000511411383426
leaf_weight=32.369683694094419 45.133468393236399 32.365373030304909 4.3778558634221545 54.664621472358704 100.21473367512226 1.9012219160795201 162.20158079266548 4.2293964922428122 13.254956319928167 145.18658342957497 28.657795295119286 1.9519251585006703 8.8806055486202222 72.901128321886063
leaf_count=886 1616 142 124 234 439 8 704 22 57 632 126 8 38 324
internal_value=0 0.0091449 0.0203142 0.021911 0.0337283 0.0111184 0.0152655 0.00152585 0.0220355 0.0318932 -0.0330604 -0.0182283 -0.00178884 0.0239188
internal_weight=0 663.157 630.788 626.41 299.011 327.399 198.796 166.431 272.734 231.343 41.3915 39.4903 37.5384 218.088
internal_count=5360 3744 2858 2734 1307 1427 868 726 1193 1013 180 172 164 956
is_linear=0
shrinkage=0.2


Tree=13
num_leaves=15
num_cat=0
split_feature=7 7 1 1 3 6 5 1 5 5 6 6 0 1
split_gain=39.3271 36.622 1.93749 15.3805 4.12607 2.86219 3.84377 2.80611 4.85401 9.5077 3.87942 3.82725 3.5807 4.93753
threshold=94402.000000000015 94406.000000000015 1.0000000180025095e-35 20.500000000000004 134119.50000000003 5.5000000000000009 3.5000000000000004 26.500000000000004 10.500000000000002 14.500000000000002 13.500000000000002 14.500000000000002 10.500000000000002 27.500000000000004
decision_type=2 2 2 2 2 2 2 2 2 2 2 2 2 2
left_child=-1 2 4 -4 -2 -6 -7 8 11 10 -10 -5 13 -9
right_child=1 -3 3 7 5 6 -8 12 9 -11 -12 -13 -14 -15
leaf_value=-0.20634670217267553 0.23355141163371834 -0.20504114637467574 0.24916814088062136 0.049780225757695813 0.0033951471060921189 0.23829319496411705 -0.13679346107190921 0.13917712334586385 -0.18527231384300322 -0.0021186074050317575 0.078966572721884537 -0.2072884153783929 0.038678952849151828 -0.011889926019960209
leaf_weight=36.435147235170007 2.3496820777654639 30.988335028290749 11.554031036794184 58.560063555836678 24.207622468471527 1.1856037080287922 13.966419711709021 9.2990592122077924 18.147696062922481 87.44956074655056 2.53261375427246 2.4120051711797705 265.45885546505451 124.81139232218266
leaf_count=1313 11 1313 76 253 103 5 58 40 77 372 11 10 1174 544
internal_value=0 0.00715777 0.0177307 0.0207237 -0.0239043 -0.0392739 -0.107444 0.0160822 -0.00551379 -0.0309586 -0.152912 0.0396108 0.0252219 -0.00141512
internal_weight=0 652.923 621.935 580.225 41.7093 39.3596 15.152 568.671 169.102 108.13 20.6803 60.9721 399.569 134.11
internal_count=5360 4047 2734 2557 177 166 63 2481 723 460 88 263 1758 584
is_linear=0
shrinkage=0.2


Tree=14
num_leaves=15
num_cat=0
split_feature=2 7 1 4 6 5 1 5 1 8 6 8 8 5
split_gain=32.0418 25.4558 1.65421 4.2368 3.45103 3.00627 4.65923 3.93108 2.72119 3.25475 5.22617 4.83057 4.8811 2.3971
threshold=4.5000000000000009 94402.000000000015 39.500000000000007 2.5000000000000004 2.5000000000000004 10.500000000000002 42.500000000000007 1.5000000000000002 41.500000000000007 98.913043975830092 5.5000000000000009 80.741760253906264 49.505928039550788 21.500000000000004
decision_type=2 2 2 2 2 2 2 2 2 2 2 2 2 2
left_child=1 -1 4 -4 13 6 8 -8 9 10 -5 12 -12 -3
right_child=-2 2 3 5 -6 -7 7 -9 -10 -11 11 -13 -14 -15
leaf_value=-0.20563127438277881 -0.20392475677245159 0.068739761652377052 -0.30453724536129356 0.2765759216025247 0.0022889590140219534 0.060718822732265171 0.16194784799049258 -0.056611855252532844 0.25081529324263163 -0.23888934788013813 0.030030898094145476 0.3154822570208547 -0.44449148824229034 -0.13063384962221183
leaf_weight=21.982399076223373 30.502464013174176 46.291038941591978 1.4713790994137514 3.5679759383201564 436.46851707622409 81.299653375521302 3.6337464414536944 34.979031041264534 3.562191128730773 1.3729097247123725 2.2123994976282124 1.1424063444137571 1.4259558469057081 2.5447881370782843
leaf_count=886 1616 210 13 16 2016 376 17 156 16 6 10 5 6 11
internal_value=0 0.00587314 0.0133725 0.0329841 0.0079304 0.0367126 -0.000894695 -0.0360438 0.101275 0.0464805 0.0934082 -0.0432935 -0.155945 0.0583506
internal_weight=0 641.954 619.972 134.668 485.304 133.196 51.8966 38.6128 13.2838 9.72165 8.34874 4.78076 3.63836 48.8358
internal_count=5360 3744 2858 621 2237 608 232 173 59 43 37 21 16 221
is_linear=0
shrinkage=0.2


Tree=15
num_leaves=15
num_cat=0
split_feature=2 7 7 6 1 1 5 5 6 1 1 5 1 5
split_gain=26.0386 20.3744 3.48352 1.49983 1.60487 12.4694 2.65323 1.98673 2.49928 2.87392 2.83324 1.65366 1.54501 2.89451
threshold=4.5000000000000009 94402.000000000015 94406.000000000015 1.5000000000000002 1.0000000180025095e-35 20.500000000000004 20.500000000000004 22.500000000000004 6.5000000000000009 44.500000000000007 33.500000000000007 17.500000000000004 22.500000000000004 18.500000000000004
decision_type=2 2 2 2 2 2 2 2 2 2 2 2 2 2
left_child=1 -1 3 -3 6 -6 11 12 9 10 -9 -5 13 -7
right_child=-2 2 -4 4 5 7 -8 8 -10 -11 -12 -13 -14 -15
leaf_value=-0.20458767276362733 -0.20320072046042972 0.10409354597782688 -0.20544670236874568 -0.0030860788368610812 0.23845951891775716 -0.063524655630546156 -0.090653968613199465 0.058610577640318608 0.25249564555794696 0.26585580931430547 -0.22824302113259978 0.17326106675149194 0.011109195619106484 0.042907807397642536
leaf_weight=18.079949112609029 25.053067492321134 6.9717507511377326 2.965061883442103 22.077522739768032 9.6915185302495939 30.082356974482536 16.108732849359512 5.0120254009962064 2.8965597599744788 1.7630494907498357 1.8991601467132566 2.3537758886814109 499.50107464194298 15.480587884783743
leaf_count=886 1616 33 124 94 75 125 68 24 18 10 9 11 2202 65
internal_value=0 0.00467915 0.0108132 0.0118579 0.0107982 0.01355 -0.0276427 0.00963414 0.0916422 0.0379289 -0.0202154 0.0139037 0.00789324 -0.0273629
internal_weight=0 634.883 616.803 613.838 606.866 566.326 40.54 556.635 11.5708 8.67424 6.91119 24.4313 545.064 45.5629
internal_count=5360 3744 2858 2734 2701 2528 173 2453 61 43 33 105 2392 190
is_linear=0
shrinkage=0.2


Tree=16
num_leaves=15
num_cat=0
split_feature=2 7 3 8 8 3 3 8 8 3 3 3 8 6
split_gain=21.2031 16.3823 1.48492 3.05243 2.71973 1.93281 4.04508 1.4798 2.62695 3.30697 1.35253 1.55685 2.10818 1.43146
threshold=4.5000000000000009 94402.000000000015 129101.50000000001 7.582566738128663 35.75188064575196 129847.00000000001 133687.00000000003 79.86456680297853 92.880565643310561 133254.00000000003 200859.50000000003 199778.00000000003 82.018520355224624 5.5000000000000009
decision_type=2 2 2 2 2 2 2 2 2 2 2 2 2 2
left_child=1 -1 3 -3 -5 -4 7 -7 9 -9 11 13 -13 -8
right_child=-2 2 5 4 -6 6 10 8 -10 -11 -12 12 -14 -15
leaf_value=-0.20374091858765875 -0.20261216222596212 -0.03600875689100335 -0.063452466414821121 0.28047931870726112 0.0661181037337574 0.19559835556288049 0.016617609485793824 -0.25941985937911133 0.2153037336769375 0.17715974026738435 -0.092835305173802618 0.31160252787094717 -0.0041335613374772354 -0.0039268215292396439
leaf_weight=14.857753496617077 20.565129212103784 11.249691434204577 15.418748557567595 2.6811580061912563 20.238775908946991 5.9840530902147275 264.40865267347544 1.6653590202331543 2.1478454172611237 1.1898548901081085 5.4911225773394099 1.5726526379585257 1.8304828852415085 278.60218256339431
leaf_count=886 1616 56 70 14 94 28 1280 7 10 5 30 7 8 1249
internal_value=0 0.00376796 0.00880177 0.0493149 0.0911939 0.00640805 0.00832167 0.128485 0.0482118 -0.0774838 0.00592951 0.00692203 0.141774 0.00607689
internal_weight=0 627.338 612.481 34.1696 22.9199 578.311 562.892 10.9871 5.00306 2.85521 551.905 546.414 3.40314 543.011
internal_count=5360 3744 2858 164 108 2694 2624 50 22 12 2574 2544 15 2529
is_linear=0
shrinkage=0.2


Tree=17
num_leaves=15
num_cat=0
split_feature=7 7 3 3 3 1 3 1 3 3 5 1 8 8
split_gain=17.1389 16.1134 1.10335 4.42623 3.75946 7.76068 4.01712 5.28308 5.49286 3.91565 4.14756 4.79261 4.7462 3.14757
threshold=94402.000000000015 94406.000000000015 143234.50000000003 143237.50000000003 140009.00000000003 25.500000000000004 139543.50000000003 27.500000000000004 139545.00000000003 143232.50000000003 5.5000000000000009 22.500000000000004 74.933155059814467 92.206478118896499
decision_type=2 2 2 2 2 2 2 2 2 2 2 2 2 2
left_child=-1 2 4 -4 6 9 13 8 -8 10 -6 -12 -13 -2
right_child=1 -3 3 -5 5 -7 7 -9 -10 -11 11 12 -14 -15
leaf_value=-0.20280368235987689 -0.0081847962163605296 -0.20252349995295887 -0.22110693588751795 0.0023791595120994597 0.092274451809427546 0.090242893153157824 -0.35486772067857109 -0.19448136810617672 0.11996773487237239 0.32838534929614127 0.010768221009942184 -0.32696714899683038 -0.074578266796909806 0.049788813425706964
leaf_weight=16.627226140350103 122.90261322259903 14.902160590514539 3.5851166099309912 315.28266577422619 7.0959285274148014 63.250186711549759 1.1777891814708699 9.1577450633048993 5.645192414522171 1.1804448068141926 11.850836388766767 4.6514203101396552 8.2957264482974988 53.884613156318665
leaf_count=1313 554 1313 16 1411 33 291 5 40 27 5 55 20 35 242
internal_value=0 0.00294275 0.00797908 -0.000133555 0.0169273 0.0491917 0.000805056 -0.0952228 0.0380012 -0.0293132 -0.0425522 -0.0811328 -0.165252 0.00948552
internal_weight=0 622.862 607.96 318.868 289.092 96.3245 192.768 15.9807 6.82298 33.0744 31.8939 24.798 12.9471 176.787
internal_count=5360 4047 2734 1427 1307 439 868 72 32 148 143 110 55 796
is_linear=0
shrinkage=0.2


Tree=18
num_leaves=15
num_cat=0
split_feature=2 7 8 8 8 5 1 8 1 6 8 6 6 8
split_gain=14.0978 10.6881 1.23338 7.59799 7.30083 3.63434 3.34585 4.53353 6.63368 3.55206 2.94519 2.92453 2.77855 2.77687
threshold=4.5000000000000009 94402.000000000015 67.396617889404311 62.533422470092781 68.947822570800795 20.500000000000004 27.500000000000004 81.405803680419936 39.500000000000007 4.5000000000000009 50.108224868774421 13.500000000000002 13.500000000000002 71.62280654907228
decision_type=2 2 2 2 2 2 2 2 2 2 2 2 2 2
left_child=1 -1 3 10 12 13 11 8 -8 -9 -3 -7 -4 -6
right_child=-2 2 4 -5 5 6 7 9 -10 -11 -12 -13 -14 -15
leaf_value=-0.20249327917895432 -0.2017418737185831 0.016171166649754279 -0.36397687850144528 0.18819452577522233 0.16235916745866061 0.031313262417891584 -0.27396405734202411 0.1156112754424737 0.1700314176840938 -0.056002610254676927 -0.057422528695381364 -0.089791996191793358 -0.0018469393247759016 0.012399015754374984
leaf_weight=10.016910172067581 13.832167412154375 234.72181375231594 3.0530010610818854 9.8642819337546808 5.0535456240177146 42.380509001202881 7.2983465846627933 5.4036515904590479 1.6504270303994415 44.997335890308022 23.973284363746643 9.8252173960208875 1.1732012331485746 218.44652112573385
leaf_count=886 1616 1144 13 52 22 205 31 26 9 201 108 41 5 1001
internal_value=0 0.00241727 0.00579409 0.0159202 -0.00222127 0.00107371 -0.0284097 -0.060895 -0.192078 -0.0376033 0.00935124 0.00852102 -0.263449 0.0157898
internal_weight=0 617.858 607.841 268.559 339.282 335.056 111.555 59.3498 8.94877 50.401 258.695 52.2057 4.2262 223.5
internal_count=5360 3744 2858 1304 1554 1536 513 267 40 227 1252 246 18 1023
is_linear=0
shrinkage=0.2


Tree=19
num_leaves=15
num_cat=0
split_feature=2 7 3 1 0 1 1 5 1 3 1 3 1 1
split_gain=11.5124 8.66364 1.01787 2.65432 1.45989 2.44571 1.89499 1.57141 1.41524 1.35013 3.48835 2.85894 2.62241 2.55069
threshold=4.5000000000000009 94402.000000000015 129101.50000000001 39.500000000000007 10.500000000000002 20.500000000000004 22.500000000000004 10.500000000000002 25.500000000000004 129847.00000000001 20.500000000000004 133687.00000000003 32.500000000000007 37.500000000000007
decision_type=2 2 2 2 2 2 2 2 2 2 2 2 2 2
left_child=1 -1 3 4 7 -6 -7 8 -3 10 -4 12 -11 -14
right_child=-2 2 9 -5 5 6 -8 -9 -10 11 -12 -13 13 -15
leaf_value=-0.20203684429677229 -0.20142365499279702 0.00041784442151828892 0.27989661869396548 0.13559929460119655 0.25576905046217929 -0.24059959282972115 -0.022846851176184572 0.00080221670798653758 0.27603274555800844 0.19976932887283091 -0.08205832175069408 0.0023823832481661301 -0.16362823431632817 0.13338988141547611
leaf_weight=8.2177622024901193 11.340861692093311 1.1324962377548247 1.1499319225549687 8.4412665292620641 1.138649202883246 1.804811656475066 13.99136735498905 4.5636391192674637 2.1792084276676178 5.6799522563815099 14.42890854179859 546.03763198386878 2.134195402264595 2.5245786011219025
leaf_count=886 1616 5 7 44 7 8 68 21 11 28 63 2574 10 12
internal_value=0 0.00193713 0.00470678 0.0387241 0.00576387 -0.0273203 -0.0477265 0.0769068 0.181781 0.00272913 -0.0553411 0.00435513 0.108545 -0.00267482
internal_weight=0 613.424 605.207 33.2514 24.8102 16.9348 15.7962 7.87534 3.3117 571.955 15.5788 556.376 10.3387 4.65877
internal_count=5360 3744 2858 164 120 83 76 37 16 2694 70 2624 50 22
is_linear=0
shrinkage=0.2


Tree=20
num_leaves=15
num_cat=0
split_feature=2 7 3 1 3 3 5 3 3 1 1 1 1 1
split_gain=9.40876 7.03689 0.893864 1.51089 0.956989 7.27193 3.13986 2.88033 3.42259 5.06907 2.31046 2.0934 3.18271 2.55832
threshold=4.5000000000000009 94402.000000000015 200862.50000000003 36.500000000000007 182701.50000000003 181860.00000000003 17.500000000000004 198316.00000000003 198323.00000000003 34.500000000000007 21.500000000000004 26.500000000000004 25.500000000000004 29.500000000000004
decision_type=2 2 2 2 2 2 2 2 2 2 2 2 2 2
left_child=1 -1 4 -4 5 -3 -7 10 9 -9 -6 12 -12 -13
right_child=-2 2 3 -5 7 6 -8 8 -10 -11 11 13 -14 -15
leaf_value=-0.20166464367935905 -0.2011639335931581 0.0031073914120887955 0.036219357477684601 -0.20086798964330474 0.21870134827727697 -0.57963413517988482 -0.14616872529145664 -0.29311722608858265 0.015377326754143834 0.076373144271861107 0.052217899732140527 0.23324447252195202 -0.28770964659291542 0.048165825040315767
leaf_weight=6.7392675252631298 9.2958601247519237 517.55498615838587 2.0696780104190102 2.2375218868255615 3.8654366359114674 1.1225738376379006 1.6523036062717436 3.6751174731180063 43.605894852429628 2.4924337565898895 3.1920221131294992 3.6219781711697605 1.6824743449687956 17.053084215149283
leaf_count=886 1616 2404 10 10 20 5 7 21 246 11 16 18 8 82
internal_value=0 0.00157285 0.00384117 -0.0869438 0.00449341 0.00137614 -0.321527 0.0249763 -0.00434656 -0.143799 0.0745938 0.0527915 -0.065111 0.080589
internal_weight=0 610.565 603.826 4.3072 599.518 520.33 2.77488 79.1884 49.7734 6.16755 29.415 25.5496 4.8745 20.6751
internal_count=5360 3744 2858 20 2838 2416 12 422 278 32 144 124 24 100
is_linear=0
shrinkage=0.2


end of trees

feature_importances:
Column_3=61
Column_1=59
Column_5=44
Column_8=40
Column_7=33
Column_6=25
Column_2=17
Column_0=11
Column_4=4

parameters:
[boosting: gbdt]
[objective: binary]
[metric: auc]
[tree_learner: serial]
[device_type: cpu]
[data_sample_strategy: bagging]
[data: ]
[valid: ]
[num_iterations: 10000]
[learning_rate: 0.2]
[num_leaves: 15]
[num_threads: 0]
[seed: 44]
[deterministic: 0]
[force_col_wise: 0]
[force_row_wise: 0]
[histogram_pool_size: -1]
[max_depth: -1]
[min_data_in_leaf: 5]
[min_sum_hessian_in_leaf: 0.001]
[bagging_fraction: 0.5]
[pos_bagging_fraction: 1]
[neg_bagging_fraction: 1]
[bagging_freq: 0]
[bagging_seed: 21897]
[feature_fraction: 0.8]
[feature_fraction_bynode: 1]
[feature_fraction_seed: 12646]
[extra_trees: 0]
[extra_seed: 20733]
[early_stopping_round: 0]
[early_stopping_min_delta: 0]
[first_metric_only: 0]
[max_delta_step: 0]
[lambda_l1: 0]
[lambda_l2: 0]
[linear_lambda: 0]
[min_gain_to_split: 0]
[drop_rate: 0.1]
[max_drop: 50]
[skip_drop: 0.5]
[xgboost_dart_mode: 0]
[uniform_drop: 0]
[drop_seed: 20829]
[top_rate: 0.2]
[other_rate: 0.1]
[min_data_per_group: 100]
[max_cat_threshold: 32]
[cat_l2: 10]
[cat_smooth: 10]
[max_cat_to_onehot: 4]
[top_k: 20]
[monotone_constraints: ]
[monotone_constraints_method: basic]
[monotone_penalty: 0]
[feature_contri: ]
[forcedsplits_filename: ]
[refit_decay_rate: 0.9]
[cegb_tradeoff: 1]
[cegb_penalty_split: 0]
[cegb_penalty_feature_lazy: ]
[cegb_penalty_feature_coupled: ]
[path_smooth: 0]
[interaction_constraints: ]
[verbosity: -1]
[saved_feature_importance_type: 0]
[use_quantized_grad: 0]
[num_grad_quant_bins: 4]
[quant_train_renew_leaf: 0]
[stochastic_rounding: 1]
[linear_tree: 0]
[max_bin: 255]
[max_bin_by_feature: ]
[min_data_in_bin: 3]
[bin_construct_sample_cnt: 200000]
[data_random_seed: 182]
[is_enable_sparse: 1]
[enable_bundle: 1]
[use_missing: 1]
[zero_as_missing: 0]
[feature_pre_filter: 1]
[pre_partition: 0]
[two_round: 0]
[header: 0]
[label_column: ]
[weight_column: ]
[group_column: ]
[ignore_column: ]
[categorical_feature: ]
[forcedbins_filename: ]
[precise_float_parser: 0]
[parser_config_file: ]
[objective_seed: 3944]
[num_class: 1]
[is_unbalance: 0]
[scale_pos_weight: 1]
[sigmoid: 1]
[boost_from_average: 1]
[reg_sqrt: 0]
[alpha: 0.9]
[fair_c: 1]
[poisson_max_delta_step: 0.7]
[tweedie_variance_power: 1.5]
[lambdarank_truncation_level: 30]
[lambdarank_norm: 1]
[label_gain: ]
[lambdarank_position_bias_regularization: 0]
[eval_at: ]
[multi_error_top_k: 1]
[auc_mu_weights: ]
[num_machines: 1]
[local_listen_port: 12400]
[time_out: 120]
[machine_list_filename: ]
[machines: ]
[gpu_platform_id: -1]
[gpu_device_id: -1]
[gpu_use_dp: 0]
[num_gpu: 1]

end of parameters

pandas_categorical:null
