tree
version=v4
num_class=1
num_tree_per_iteration=1
label_index=0
max_feature_idx=8
objective=binary sigmoid:1
feature_names=Column_0 Column_1 Column_2 Column_3 Column_4 Column_5 Column_6 Column_7 Column_8
feature_infos=[0:11] [0:69] [0:12] [124587:201897] [0:3] [0:23] [0:15] [51873:241116] [-1:100]
tree_sizes=3330 3265 3291 3289 3300 3305 3322 3310 3312 3321 3323 3336 3340 3337 3330 3324 3341

Tree=0
num_leaves=31
num_cat=0
split_feature=2 7 7 4 1 1 1 5 5 3 3 3 5 5 6 3 5 1 1 3 0 5 6 3 0 3 5 1 6 3
split_gain=1143.53 1175.82 225.355 12.2362 9.15933 41.2351 9.24293 7.20586 9.08378 5.53643 5.94672 13.2302 8.14444 6.84401 5.31373 5.25448 7.09748 7.36534 5.4752 5.1234 4.90432 7.13862 6.41349 6.39949 4.0549 4.01596 5.65348 3.73902 3.57437 4.34475
threshold=4.5000000000000009 94402.000000000015 94406.000000000015 2.5000000000000004 1.0000000180025095e-35 20.500000000000004 26.500000000000004 10.500000000000002 14.500000000000002 129101.50000000001 140009.00000000003 143232.50000000003 4.5000000000000009 5.5000000000000009 4.5000000000000009 143240.50000000003 20.500000000000004 38.500000000000007 42.500000000000007 140209.00000000003 10.500000000000002 10.500000000000002 2.5000000000000004 145532.00000000003 10.500000000000002 175682.50000000003 18.500000000000004 24.500000000000004 13.500000000000002 174173.50000000003
decision_type=2 2 2 2 2 2 2 2 2 2 2 2 2 2 2 2 2 2 2 2 2 2 2 2 2 2 2 2 2 2
left_child=1 -1 3 -3 28 -6 7 14 27 -8 13 -12 -13 -11 -7 16 18 -18 -14 -16 21 -17 -22 -23 -10 26 -25 -9 29 -5
right_child=-2 2 -4 4 5 6 9 8 24 10 11 12 15 -15 19 20 17 -19 -20 -21 22 23 -24 25 -26 -27 -28 -29 -30 -31
leaf_value=-0.85407165664696783 -0.85407165664696783 -0.70349134605539421 -0.85407165664696783 -0.61395710732526931 -0.4023307248722468 -0.47762088016803361 -0.50719915546280703 -0.69051028479749987 -0.55401016181850349 -0.51162288578548576 -0.50563582167344268 -0.6102749633082295 -0.51849267875717509 -0.58778226528502697 -0.53199710343721307 -0.63656676357025033 -0.68712392099109265 -0.53981709541237932 -0.63802164579818821 -0.59593398134712727 -0.46463981891013934 -0.46686514369720694 -0.54066873378970881 -0.53408849663987379 -0.60008855766633062 -0.53594423990420648 -0.67055190311348745 -0.5980851286412926 -0.68032514442592129 -0.52279497334550573
leaf_weight=196.13010716438293 357.72714805603027 5.9768768548965445 27.449360370635986 24.571604847908024 16.823801517486572 7.9691691398620597 24.792970657348633 12.839216947555544 30.327115893363953 13.724680185317991 57.112378835678101 27.892091989517212 15.495606660842897 84.119007587432861 23.907507419586182 11.953753709793089 10.182827234268187 5.0914136171340934 5.0914136171340934 26.342531323432922 12.83921694755554 7.7478033304214469 81.683983683586121 5.3127794265747088 51.578233599662781 15.716972470283507 7.0837059020996094 6.6409742832183829 5.7555110454559317 6.6409742832183829
leaf_count=886 1616 27 124 111 76 36 112 58 137 62 258 126 70 380 108 54 46 23 23 119 58 35 369 24 233 71 32 30 26 30
internal_value=-0.704643 -0.640146 -0.573828 -0.561117 -0.559697 -0.556527 -0.561283 -0.581523 -0.597625 -0.552911 -0.55605 -0.548225 -0.560028 -0.577099 -0.553484 -0.552163 -0.586373 -0.638022 -0.548054 -0.565515 -0.543544 -0.569642 -0.530342 -0.547334 -0.583027 -0.56951 -0.612068 -0.659002 -0.607913 -0.594561
internal_weight=0 828.794 632.663 605.214 599.237 562.269 545.445 159.605 101.386 385.841 361.048 263.204 206.092 97.8437 58.2192 178.199 35.8613 15.2742 20.587 50.25 142.338 47.815 94.5232 35.8613 81.9053 28.1135 12.3965 19.4802 36.9681 31.2126
internal_count=5360 3744 2858 2734 2707 2540 2464 721 458 1743 1631 1189 931 442 263 805 162 69 93 227 643 216 427 162 370 127 56 88 167 141
is_linear=0
shrinkage=1


Tree=1
num_leaves=31
num_cat=0
split_feature=7 7 8 5 3 1 1 5 6 3 0 1 8 3 5 8 5 8 1 1 5 3 5 6 1 1 3 3 1 3
split_gain=724.398 1354.8 13.6863 11.8765 10.2423 7.1282 8.17248 6.70991 8.69258 6.3957 5.26123 5.10357 4.67113 4.49399 4.27462 4.41862 4.33457 4.20204 4.19274 3.95615 9.8843 5.73603 5.41031 5.37696 5.8363 4.84825 4.73007 4.62174 4.68376 4.30503
threshold=94406.000000000015 94402.000000000015 50.108224868774421 20.500000000000004 185344.00000000003 18.500000000000004 22.500000000000004 22.500000000000004 4.5000000000000009 198316.00000000003 9.5000000000000018 40.500000000000007 55.662393569946296 184240.50000000003 11.500000000000002 7.0197043418884286 14.500000000000002 89.48966217041017 31.500000000000004 26.500000000000004 19.500000000000004 136640.00000000003 20.500000000000004 5.5000000000000009 50.500000000000007 20.500000000000004 140009.00000000003 150032.50000000003 23.500000000000004 160524.00000000003
decision_type=2 2 2 2 2 2 2 2 2 2 2 2 2 2 2 2 2 2 2 2 2 2 2 2 2 2 2 2 2 2
left_child=1 -1 10 9 5 -5 -7 8 -8 12 13 -10 -4 14 15 -3 -16 -13 -6 22 23 -22 25 26 -25 -12 -21 28 -27 -28
right_child=-2 2 3 4 18 6 7 -9 11 -11 19 17 -14 -15 16 -17 -18 -19 -20 20 21 -23 -24 24 -26 27 29 -29 -30 -31
leaf_value=-0.14256781395234996 -0.14256781395234996 0.062527838855266554 0.044585496738516653 -0.020016620408446949 0.19232808941161442 0.16459219405075945 0.17005330968022059 0.16941219829474763 0.042543953035414604 0.07141811495658916 0.21648795818530428 0.17221999882117819 0.13083217910941311 0.1838527559386777 0.21584998503111141 0.16386256787672959 0.1199665164801282 0.047436535674032783 0.09291075099866794 0.098055138752832394 0.12059696510347739 0.22467066425492105 0.089041075113647034 0.13577118625812223 0.03817593198325242 0.026560790274141356 0.22483846499407376 0.20722465375140509 0.14210920917931119 0.14355263391919343
leaf_weight=274.98126937448978 274.98126937448978 22.815718531608585 6.4580038785934439 7.4902584701776496 11.396494284272196 10.493498399853705 6.9898353517055503 6.4478207230567923 63.443858191370964 21.467599213123322 9.0569870620965975 6.0493446588516218 227.41407123208046 9.9601301848888379 5.344409078359603 5.3031497150659552 40.017748117446899 4.8721403628587723 6.7572042495012274 6.6823696047067633 6.4785269796848288 29.007703870534897 20.856858000159264 42.231393322348595 7.1673902720212928 5.4957114756107357 16.129875659942631 5.5103674083948126 9.699535205960272 10.930893465876578
leaf_count=1313 1313 99 28 33 49 45 30 28 276 93 39 26 984 43 23 23 173 21 29 29 28 125 91 182 31 24 69 24 42 47
internal_value=0 0.0427178 0.123339 0.111327 0.0859281 0.0740196 0.0811852 0.0712171 0.0634346 0.123656 0.141368 0.0534132 0.128451 0.120818 0.112274 0.0816393 0.131263 0.116553 0.155323 0.1515 0.161487 0.20567 0.128095 0.142629 0.121611 0.155463 0.173399 0.128769 0.100318 0.192004
internal_weight=0 906.95 631.969 379.28 123.94 105.787 98.2965 87.803 81.3552 255.34 252.689 74.3653 233.872 83.4412 73.481 28.1189 45.3622 10.9215 18.1537 169.248 118.628 35.4862 50.6195 83.1419 49.3988 29.7626 33.7431 20.7056 15.1952 27.0608
internal_count=5360 4047 2734 1642 537 459 426 381 353 1105 1092 323 1012 361 318 122 196 47 78 731 511 153 220 358 213 129 145 90 66 116
is_linear=0
shrinkage=0.1


Tree=2
num_leaves=31
num_cat=0
split_feature=2 7 7 8 4 1 1 3 6 8 0 8 3 1 6 1 3 3 3 1 3 1 3 1 6 3 3 1 1 8
split_gain=811.878 769.977 140.7 10.183 8.95466 7.51289 19.9164 5.30672 4.3882 3.98402 3.89701 3.74374 3.43262 3.18598 3.12296 2.93866 4.1687 5.86779 4.00598 3.97263 4.17718 3.70694 3.19782 3.01866 2.7318 2.61976 3.79218 2.60254 4.88457 4.14774
threshold=4.5000000000000009 94402.000000000015 94406.000000000015 50.108224868774421 2.5000000000000004 1.0000000180025095e-35 20.500000000000004 129101.50000000001 4.5000000000000009 92.206478118896499 9.5000000000000018 54.670330047607429 175161.50000000003 32.500000000000007 5.5000000000000009 26.500000000000004 139743.50000000003 140681.50000000003 134121.50000000003 20.500000000000004 140009.00000000003 1.0000000180025095e-35 134897.50000000003 23.500000000000004 2.5000000000000004 159771.50000000003 143240.50000000003 40.500000000000007 42.500000000000007 87.550323486328139
decision_type=2 2 2 2 2 2 2 2 2 2 2 2 2 2 2 2 2 2 2 2 2 2 2 2 2 2 2 2 2 2
left_child=1 -1 3 10 -5 14 -7 -8 9 -9 12 -10 25 -14 -6 19 18 -18 -17 21 -21 -12 -20 -22 -19 26 -3 29 -29 -13
right_child=-2 2 -4 4 5 6 7 8 11 -11 15 27 13 -15 -16 16 17 24 22 20 23 -23 -24 -25 -26 -27 -28 28 -30 -31
leaf_value=-0.13691178429164699 -0.13691178429164699 0.089744843530034757 -0.13691178429164699 -0.035287357435316767 0.072414110813247834 0.22891141727657693 0.14809964952490026 0.092575504608979814 0.014738320222254972 0.15677113230817835 0.12081109552794878 0.06978890196066137 0.19537135176272261 0.10277922937194844 -0.0050476452108564971 0.1468057012712421 0.19960266043260064 0.20135581897603883 0.025519555170233712 0.1422141665909491 0.02615577932923397 0.2252796367960273 0.11055742466381102 0.097986788499070762 0.1312272228269856 0.044915807665669778 0.14781544814656539 0.17482855803008793 0.097401677337813616 0.097774232529071095
leaf_weight=174.46851253509521 318.21796417236328 47.591943353414536 24.417715072631836 5.0238368213176718 13.328520923852922 12.05337619781494 20.073893919587135 18.171808063983917 6.3074007332324973 20.656930759549141 10.902064159512518 80.28593772649765 7.4412332028150541 7.423464298248291 8.5390641093254072 16.967079386115074 19.795059502124786 6.1127558797597876 6.8822732269763973 11.811400249600409 9.6200625449419039 4.9337401986122122 12.370750859379767 14.930426716804503 60.842375099658966 8.7100005000829679 14.724727287888525 10.278738781809805 39.302410677075386 155.60355600714684
leaf_count=886 1616 200 124 22 57 49 84 76 27 86 46 339 31 31 37 71 81 25 29 50 41 20 52 63 253 37 62 43 165 657
internal_value=0 0.0503569 0.0987533 0.107597 0.0973569 0.0990896 0.102521 0.0981771 0.0951458 0.126728 0.12288 0.090943 0.105432 0.149131 0.0421661 0.131435 0.139874 0.151771 0.111379 0.111555 0.0933492 0.153359 0.0801594 0.0698399 0.13763 0.0962862 0.103466 0.0926268 0.113453 0.0882493
internal_weight=0 849.571 675.103 650.685 389.625 384.602 362.734 350.681 330.607 38.8287 261.059 291.778 85.8914 14.8647 21.8676 175.168 122.97 86.7502 36.2201 52.1977 36.3619 15.8358 19.253 24.5505 66.9551 71.0267 62.3167 285.471 49.5811 235.889
internal_count=5360 3744 2858 2734 1642 1620 1526 1477 1393 162 1092 1231 361 62 94 731 511 359 152 220 154 66 81 104 278 299 262 1204 208 996
is_linear=0
shrinkage=0.1


Tree=3
num_leaves=31
num_cat=0
split_feature=2 7 7 8 5 6 5 5 8 1 1 8 0 1 1 0 8 8 1 8 8 8 8 0 1 5 1 1 5 1
split_gain=693.2 635.46 113.893 7.93505 8.81189 5.7057 7.64252 4.29479 6.46843 3.76735 4.28031 6.74611 4.45471 4.10315 3.86179 3.83407 4.10632 3.73616 3.68735 3.42193 4.38461 3.91002 3.39598 3.21046 3.04155 3.0243 4.94165 4.60784 3.2046 2.96834
threshold=4.5000000000000009 94402.000000000015 94406.000000000015 50.108224868774421 20.500000000000004 4.5000000000000009 22.500000000000004 8.5000000000000018 20.02506256103516 27.500000000000004 40.500000000000007 81.405803680419936 10.500000000000002 18.500000000000004 22.500000000000004 10.500000000000002 98.913043975830092 58.387445449829109 26.500000000000004 66.079193115234389 62.899168014526374 68.947822570800795 91.042778015136733 9.5000000000000018 33.500000000000007 5.5000000000000009 43.500000000000007 31.500000000000004 4.5000000000000009 29.500000000000004
decision_type=2 2 2 2 2 2 2 2 2 2 2 2 2 2 2 2 2 2 2 2 2 2 2 2 2 2 2 2 2 2
left_child=1 -1 3 7 17 24 9 8 25 13 11 23 -13 -7 -15 -16 -17 -5 -9 20 -19 -21 -12 -11 -6 28 27 -27 29 -3
right_child=-2 2 -4 4 5 6 -8 18 -10 10 22 12 -14 14 15 16 -18 19 -20 21 -22 -23 -24 -25 -26 26 -28 -29 -30 -31
leaf_value=-0.13218880860197033 -0.13218880860197033 0.11495455706828757 -0.13218880860197033 0.03975195798009365 0.08634416595320131 -0.0010479614472898209 0.1476476484180855 0.095283851932387101 0.17245027252138789 0.00627769902663793 0.12565489552821862 -0.014383060559241538 0.064434945062394805 0.1260614514200484 0.1105463727994761 -0.017729749945997103 0.072269868281964203 0.091497299195644755 0.12534088625541051 0.0093230640098392083 0.2212463185426545 0.098211749603686449 0.018356252034321559 -0.10652577295793407 0.1879785728538973 0.033986563066577269 -0.026601065554029326 0.13321346667441117 0.17034101481017688 0.057065859559379942
leaf_weight=163.21094670891762 297.68497729301453 16.583820790052414 22.842164099216461 11.19686385989189 6.8374794870614988 7.0986908972263327 8.7451469451189023 58.788512155413628 8.046482175588606 4.7272737175226194 7.6047778576612455 10.522990792989729 22.51021720468998 13.283182233572004 10.793835639953612 8.2721156626939774 13.094606503844261 5.3311979621648771 133.5013243407011 5.0523246079683295 5.0922520607709885 241.1363783031702 4.8187638223171234 5.4109403043985367 5.1716489344835281 11.14692004024983 6.2691453397274008 8.0665924698114377 4.8936338126659384 19.013239845633507
leaf_count=886 1616 68 124 47 28 31 36 243 33 20 31 44 94 54 45 35 55 22 545 21 21 994 20 23 21 46 26 33 20 78
internal_value=0 0.0451545 0.0873565 0.0949204 0.0859569 0.0644735 0.0577294 0.108273 0.0878042 0.0504576 0.0323122 0.0174274 0.0393268 0.0696572 0.080702 0.0619673 0.0374266 0.0962965 0.116152 0.0987637 0.154885 0.0963876 0.0840366 -0.0539275 0.130112 0.0774803 0.0504915 0.0756459 0.0944656 0.0840348
internal_weight=0 849.063 685.853 663.01 396.701 128.892 116.883 266.31 74.0198 108.137 55.595 43.1714 33.0332 52.5424 45.4437 32.1606 21.3667 267.809 192.29 256.612 10.4235 246.189 12.4235 10.1382 12.0091 65.9734 25.4827 19.2135 40.4907 35.5971
internal_count=5360 3744 2858 2734 1642 537 488 1092 304 452 232 181 138 220 189 135 90 1105 788 1058 43 1015 51 43 49 271 105 79 166 146
is_linear=0
shrinkage=0.1


Tree=4
num_leaves=31
num_cat=0
split_feature=7 7 8 5 3 3 1 1 5 8 5 6 3 3 3 1 3 3 3 3 0 6 1 1 3 1 6 5 3 1
split_gain=455.843 761.993 6.38865 6.93843 7.09316 4.73553 4.02952 4.51113 4.0014 4.17188 3.80892 4.7378 4.20713 4.57495 3.52947 3.45788 3.80016 5.87022 4.90186 3.11855 3.67449 4.56765 3.47082 8.03627 3.97615 3.61001 3.39097 7.93573 6.40903 5.76239
threshold=94406.000000000015 94402.000000000015 47.633054733276374 20.500000000000004 185344.00000000003 198316.00000000003 18.500000000000004 22.500000000000004 8.5000000000000018 20.02506256103516 22.500000000000004 4.5000000000000009 129101.50000000001 134123.50000000003 184240.50000000003 26.500000000000004 139777.00000000003 134121.50000000003 134897.50000000003 143234.50000000003 9.5000000000000018 12.500000000000002 20.500000000000004 22.500000000000004 140210.50000000003 34.500000000000007 5.5000000000000009 3.5000000000000004 180008.50000000003 41.500000000000007
decision_type=2 2 2 2 2 2 2 2 2 2 2 2 2 2 2 2 2 2 2 2 2 2 2 2 2 2 2 2 2 2
left_child=1 -1 8 5 6 14 -5 -8 9 -3 11 -9 -13 -14 19 -10 17 -17 -19 20 21 -4 -22 -24 25 -25 -21 -28 29 -29
right_child=-2 2 3 4 -6 -7 7 10 15 -11 -12 12 13 -15 -16 16 -18 18 -20 26 22 -23 23 24 -26 -27 27 28 -30 -31
leaf_value=-0.1282030438179948 -0.1282030438179948 0.06905603160969348 0.099597270721919554 -0.022670261772889652 0.11367687646262366 0.042215621388335657 0.11306642896883379 0.11620045120001501 0.083753522800792679 0.15329223067259745 0.11702605693187991 0.10638436269075968 -0.03960061948761983 0.035376611347371793 0.15328453045747534 0.1309695565645296 0.12383366954519444 -0.0049122776292094897 0.090850710231802467 0.098251257587140178 0.16334852760416643 0.16904066751497199 -0.020953644258180859 0.062134511365759128 0.14483081224616248 0.11204051004970701 -0.057724412550392651 0.040151392239979045 0.13999512370991993 0.11714609312213874
leaf_weight=225.30150529742241 225.30150529742241 66.56771619617939 30.294936791062355 7.5457527041435233 19.207768529653549 23.150699943304062 11.166055306792257 7.4661023914813986 58.624289527535439 6.4490008503198615 6.949126109480857 7.0812424421310416 9.3601752668619138 62.336807101964951 8.3804993480443937 17.112233951687813 93.944458872079849 8.8112812042236346 13.588402867317198 40.582126706838608 5.4109453260898581 13.78014726936817 7.1042736023664466 39.394205868244171 11.357421889901159 22.931922420859337 5.1319556087255469 43.373235791921616 11.294689401984213 12.527962431311606
leaf_count=1313 1313 271 123 33 78 95 45 30 239 26 28 29 39 260 34 69 378 36 55 165 22 56 29 160 46 93 21 177 46 51
internal_value=0 0.0309158 0.084349 0.0764623 0.0575354 0.0854954 0.0478991 0.0530017 0.0964226 0.076496 0.045805 0.0400663 0.0328508 0.0255882 0.0894784 0.103997 0.11289 0.0868704 0.0531808 0.0872795 0.0978221 0.121309 0.0858128 0.0806197 0.090413 0.0804966 0.0751156 0.0621346 0.0712886 0.0574066
internal_weight=0 896.227 670.925 405.828 131.113 274.715 111.905 104.36 265.097 73.0167 93.1935 86.2443 78.7782 71.697 251.564 192.081 133.456 39.5119 22.3997 243.184 130.274 44.0751 86.1988 80.7878 73.6836 62.3261 112.91 72.3278 67.1959 55.9012
internal_count=5360 4047 2734 1660 542 1118 464 431 1074 297 386 358 328 299 1023 777 538 160 91 989 529 179 350 328 299 253 460 295 274 228
is_linear=0
shrinkage=0.1


Tree=5
num_leaves=31
num_cat=0
split_feature=2 7 7 4 3 8 5 5 8 3 3 6 5 8 3 3 3 3 5 5 3 8 6 6 8 6 5 8 8 3
split_gain=514.497 443.864 76.9239 6.11543 4.71232 5.0553 5.55436 5.38051 6.44834 6.05784 4.36663 4.1081 3.41423 3.61727 3.22139 5.506 3.20918 4.0083 3.83863 4.53906 3.72036 2.9398 2.83236 2.80807 2.716 2.66135 2.62678 4.52197 10.048 2.89882
threshold=4.5000000000000009 94402.000000000015 94406.000000000015 2.5000000000000004 129101.50000000001 47.633054733276374 8.5000000000000018 4.5000000000000009 78.297103881835952 143234.50000000003 138395.50000000003 4.5000000000000009 8.5000000000000018 20.02506256103516 139540.50000000003 134121.50000000003 182701.50000000003 149668.50000000003 9.5000000000000018 17.500000000000004 163105.50000000003 95.346321105957045 13.500000000000002 4.5000000000000009 96.720428466796889 5.5000000000000009 20.500000000000004 95.199695587158217 88.819442749023452 134123.50000000003
decision_type=2 2 2 2 2 2 2 2 2 2 2 2 2 2 2 2 2 2 2 2 2 2 2 2 2 2 2 2 2 2
left_child=1 -1 3 -3 -5 12 7 8 -7 24 -9 -11 13 -6 15 -14 17 26 -19 -20 -21 -13 23 -18 -10 -17 -8 28 29 -28
right_child=-2 2 -4 4 5 6 16 10 9 11 -12 21 14 -15 -16 25 22 18 19 20 -22 -23 -24 -25 -26 -27 27 -29 -30 -31
leaf_value=-0.12480950173346102 -0.12480950173346102 -0.0221505402841797 -0.12480950173346102 0.10959059178135372 0.058712143993991911 -0.021342354451296692 0.072867500708439767 0.061868979331624101 0.067844125132861172 0.11542434538475227 0.12635659306956845 0.073102443330421304 0.11664565467096427 0.13728351635289279 0.098977014733090715 0.082638977156742441 0.13553451591535912 -0.04926998711869366 0.075493348230926918 -0.020969076848782926 0.052431933692593115 -0.0076147555320320642 0.14017637825774071 0.060965111241484383 0.14110317849785733 0.0075186912832296993 -0.02108034223832448 0.072136044801135613 -0.074339813475616648 0.064167185896591331
leaf_weight=141.10960558056831 257.37372756004333 6.3636992275714865 19.748974144458771 40.079055055975914 61.307592421770096 7.5821543484926215 96.348089501261711 14.408867374062536 7.7202211916446695 6.2185927629470852 38.706699058413506 7.1316345185041436 12.691945374011992 6.4785712957382193 146.20413929224014 7.1647801846265819 5.982831969857215 5.4150741994380942 20.288057327270508 14.808344796299936 12.93873907625675 12.28459544479847 7.3963613212108603 32.386521682143211 14.690121710300446 13.799598738551138 4.7454352527856853 38.664353415369987 8.2165973484516126 25.02236308157444
leaf_count=886 1616 27 124 161 248 31 389 58 31 25 156 29 51 26 588 29 24 22 82 61 53 50 30 131 59 56 20 159 34 104
internal_value=0 0.0368854 0.069725 0.0754162 0.0763448 0.074225 0.0669946 0.086099 0.0643631 0.0778885 0.108863 0.0446881 0.0853476 0.0662215 0.0925559 0.0646626 0.0593628 0.0544816 0.0305462 0.0395439 0.0132585 0.0220329 0.083515 0.0725925 0.115866 0.0331918 0.0618768 0.0480615 0.023556 0.0505774
internal_weight=0 835.904 694.794 675.045 668.681 628.602 380.956 108.743 55.6273 48.0452 53.1156 25.6348 247.647 67.7862 179.86 33.6563 272.213 226.447 53.4502 48.0351 27.7471 19.4162 45.7657 38.3694 22.4103 20.9644 172.997 76.6487 37.9844 29.7678
internal_count=5360 3744 2858 2734 2707 2546 1548 439 225 194 214 104 998 274 724 136 1109 924 218 196 114 79 185 155 90 85 706 317 158 124
is_linear=0
shrinkage=0.1


Tree=6
num_leaves=31
num_cat=0
split_feature=2 7 7 4 3 3 1 1 1 6 5 5 3 3 3 3 3 3 3 5 3 1 3 1 5 5 1 0 5 3
split_gain=446.408 374.607 63.9601 4.91968 4.1852 3.64308 4.97019 21.9809 4.27774 3.67262 3.09619 4.46569 6.63237 4.39346 3.68376 2.95859 2.70441 2.67897 2.55766 7.0662 6.58108 3.71454 2.37512 2.36427 2.19288 6.04287 3.94492 4.18863 4.36445 7.33208
threshold=4.5000000000000009 94402.000000000015 94406.000000000015 2.5000000000000004 200859.50000000003 129101.50000000001 1.0000000180025095e-35 20.500000000000004 22.500000000000004 5.5000000000000009 22.500000000000004 21.500000000000004 181454.50000000003 143236.50000000003 129847.00000000001 174173.50000000003 145116.50000000003 133254.00000000003 134507.00000000003 5.5000000000000009 134121.50000000003 32.500000000000007 142832.50000000003 44.500000000000007 4.5000000000000009 5.5000000000000009 25.500000000000004 9.5000000000000018 18.500000000000004 149493.00000000003
decision_type=2 2 2 2 2 2 2 2 2 2 2 2 2 2 2 2 2 2 2 2 2 2 2 2 2 2 2 2 2 2
left_child=1 -1 3 -3 5 23 9 -8 -9 15 11 14 13 -13 -10 -7 -12 -16 19 -19 21 -21 -11 -5 -20 -26 -27 28 29 -28
right_child=-2 2 -4 4 -6 6 7 8 10 22 16 12 -14 -15 17 -17 -18 18 24 20 -22 -23 -24 -25 25 26 27 -29 -30 -31
leaf_value=-0.12189847851749616 -0.12189847851749616 -0.020043659443443256 -0.12189847851749616 0.088547389175229682 -0.016856402148651448 0.03669008265728551 0.17724927203382096 0.036393844872284704 0.017833509216817173 0.046729409120333049 0.16614290959590658 0.053657533614670933 0.10170372126963292 -0.053167307662046998 0.12849119550745844 0.11779252631071749 0.075952753084409866 0.14319062100807753 0.054997172110328132 0.12949287102469473 -0.0026871612276222322 0.024907542668265361 -0.036781974998074764 0.15790082793217705 0.15530118699172318 0.049868891845311521 0.10894715629853269 0.08638704781229975 0.035231375724938556 0.0338537846748369
leaf_weight=130.57235106825829 238.154536485672 6.3311424553394309 18.274234235286713 34.410737633705139 5.692592740058898 18.160080507397655 18.398006409406662 44.420190796256065 13.398028805851935 5.3369847238063803 5.9860103428363782 6.3411234319210115 7.6776091605424872 9.8002264946699125 7.9705472439527503 5.9788372665643683 7.4781980216503143 6.4848676472902289 61.742825165390968 7.8935720771551114 23.084382206201553 5.9601288139820099 9.410747364163397 5.7345877289772025 9.2220439761877042 59.640108838677406 32.643273994326591 196.72834448516369 39.164256796240807 21.610132500529289
leaf_count=886 1616 27 124 138 23 74 75 179 54 22 24 26 31 40 32 24 30 26 249 32 94 24 39 23 37 241 131 793 159 87
internal_value=0 0.0335103 0.0627087 0.067694 0.0685226 0.0692539 0.0673768 0.0696756 0.0661865 0.0327569 0.0687178 0.0674666 0.0251916 -0.0112012 0.0695405 0.0567779 0.11605 0.0710078 0.0700207 0.0469142 0.0300119 0.0844982 -0.00656045 0.0984542 0.0724054 0.0753993 0.0732927 0.0781075 0.0606715 0.0790361
internal_weight=0 825.546 694.974 676.7 670.368 664.676 624.531 585.644 567.246 38.8866 522.826 509.361 23.819 16.1413 485.543 24.1389 13.4642 472.144 464.174 43.423 36.9381 13.8537 14.7477 40.1453 420.751 359.008 349.786 290.146 93.4177 54.2534
internal_count=5360 3744 2858 2734 2707 2684 2523 2364 2289 159 2110 2056 97 66 1959 98 54 1905 1873 176 150 56 61 161 1697 1448 1411 1170 377 218
is_linear=0
shrinkage=0.1


Tree=7
num_leaves=31
num_cat=0
split_feature=2 7 7 8 5 1 1 5 8 3 8 1 3 8 1 1 8 1 5 8 8 3 8 3 5 5 5 8 1 3
split_gain=388.875 317.906 53.5322 4.20173 4.83959 4.35968 9.94463 4.1192 6.32479 4.50585 4.44516 3.93852 3.61518 3.25459 4.15073 2.95186 4.03747 5.28331 7.11749 4.3304 3.74338 3.87192 3.70608 3.96726 3.23373 3.41182 2.78499 2.94751 2.94718 2.87951
threshold=4.5000000000000009 94402.000000000015 94406.000000000015 47.633054733276374 8.5000000000000018 1.0000000180025095e-35 20.500000000000004 4.5000000000000009 74.933155059814467 143234.50000000003 85.811687469482436 29.500000000000004 175869.00000000003 79.447261810302749 34.500000000000007 40.500000000000007 87.550323486328139 24.500000000000004 17.500000000000004 73.623321533203139 79.622509002685561 149668.50000000003 79.447261810302749 143238.50000000003 22.500000000000004 21.500000000000004 8.5000000000000018 20.02506256103516 26.500000000000004 139777.00000000003
decision_type=2 2 2 2 2 2 2 2 2 2 2 2 2 2 2 2 2 2 2 2 2 2 2 2 2 2 2 2 2 2
left_child=1 -1 3 26 7 -6 -7 8 -5 -10 -11 12 -9 -13 -15 16 17 20 19 -19 -8 -22 23 -17 25 -18 27 -3 -28 -30
right_child=-2 2 -4 4 5 6 15 11 9 10 -12 13 -14 14 -16 22 24 18 -20 -21 21 -23 -24 -25 -26 -27 28 -29 29 -31
leaf_value=-0.11938538270223142 -0.11938538270223142 0.048078711185314531 -0.11938538270223142 -0.030254717243836451 -0.0022984216508812609 0.1635011958470341 0.025910124830670095 0.10036000252047145 0.094168331064230615 0.11760077936904566 0.01639308011507206 0.13711450007267581 0.19249622957696524 -0.0088518343057066556 0.08041542433320778 0.17788812361396961 0.054733772935374916 0.01784309275602965 0.01008546141847155 0.10375037814439621 -0.1253189853474381 -0.0030842621477498531 0.052629370446580198 0.06719698315383682 0.13038072200496353 -0.0064957853372456147 0.058572260872585262 0.11909564245737683 0.062797625388473985 0.094962974240048348
leaf_weight=120.50518223643303 219.79274773597717 67.319626808166504 16.865285098552704 7.8126758337020865 16.467143788933754 7.5961095839738837 9.3934551328420657 24.074826300144199 27.806372359395027 5.4354650825262096 21.527018159627914 4.969145372509959 5.1738180220127097 8.226990148425104 14.198402285575865 5.7193239331245405 121.471939265728 8.4500490725040454 36.125262260437012 19.200479000806808 4.939998045563696 5.4507795721292496 33.49635948240757 7.4629689902067184 5.2230588495731345 9.8374890536069852 59.341328322887421 6.39988850057125 39.655955418944359 93.343081042170525
leaf_count=886 1616 271 124 32 69 32 38 97 112 22 87 20 21 33 57 23 490 34 148 77 20 22 135 30 21 40 239 26 160 378
internal_value=0 0.0305251 0.0565935 0.0609832 0.0546333 0.0476776 0.0506771 0.0716009 0.0539172 0.0659241 0.0367959 0.0911386 0.116658 0.0638919 0.0476668 0.0474645 0.0426201 0.0253072 0.0393123 0.077497 -0.0198391 -0.0611973 0.0703058 0.115222 0.0532159 0.0501466 0.0707699 0.054244 0.0771039 0.0853723
internal_weight=0 813.489 692.984 676.119 410.059 290.834 274.367 119.225 62.5815 54.7689 26.9625 56.6432 29.2486 27.3945 22.4254 266.771 220.093 83.56 63.7758 27.6505 19.7842 10.3908 46.6787 13.1823 136.532 131.309 266.06 73.7195 192.34 132.999
internal_count=5360 3744 2858 2734 1660 1179 1110 481 253 221 109 228 118 110 90 1078 890 339 259 111 80 42 188 53 551 530 1074 297 777 538
is_linear=0
shrinkage=0.1


Tree=8
num_leaves=31
num_cat=0
split_feature=2 7 7 3 8 8 8 8 5 3 0 3 1 1 1 8 3 8 8 1 3 0 8 8 1 3 8 6 5 3
split_gain=339.895 271.034 45.0509 3.96447 3.56643 9.33368 5.4464 4.70759 4.09114 4.55099 3.00721 2.96291 2.92502 2.89639 4.66928 6.0235 3.9928 2.31671 2.72399 6.08074 4.163 3.97494 4.83264 4.2154 4.15323 3.48322 2.74484 2.59459 3.08969 2.45055
threshold=4.5000000000000009 94402.000000000015 94406.000000000015 200859.50000000003 67.396617889404311 62.533422470092781 50.108224868774421 69.253246307373061 20.500000000000004 185344.00000000003 9.5000000000000018 184240.50000000003 30.500000000000004 27.500000000000004 43.500000000000007 87.840488433837905 143427.00000000003 71.62280654907228 88.118579864501967 23.500000000000004 143606.50000000003 10.500000000000002 85.337120056152358 85.07703018188478 37.500000000000007 143237.50000000003 76.62280654907228 14.500000000000002 1.5000000000000002 143234.50000000003
decision_type=2 2 2 2 2 2 2 2 2 2 2 2 2 2 2 2 2 2 2 2 2 2 2 2 2 2 2 2 2 2
left_child=1 -1 3 4 5 6 10 -6 17 13 11 -3 -11 16 15 -15 -10 -9 19 20 -19 23 24 25 26 -21 -23 28 -20 -30
right_child=-2 2 -4 -5 7 -7 -8 8 9 12 -12 -13 -14 14 -16 -17 -18 18 27 21 -22 22 -24 -25 -26 -27 -28 -29 29 -31
leaf_value=-0.11720384856321378 -0.11720384856321378 0.043081203508435299 -0.11720384856321378 -0.026432089571601338 -0.048082344432969035 0.15417520711591565 0.015745386338560631 0.12372282511141403 0.066168177671714734 0.11739878587513304 0.07207736307714166 0.1012512254111623 0.032153493521248411 -0.064018205670421643 0.080331643063864991 0.01993386519561886 0.0055221991272664753 -0.075681703570368325 0.12920300313109784 0.11695566906175291 0.030520533597019645 -0.033791535487945994 -0.034471607490455872 0.17094003464694019 0.10739858900981536 0.020662534852120912 0.049011777036080034 0.0014407955719024218 0.075615402259460562 0.05001896003027291
leaf_weight=110.96238747239113 202.38737940788269 78.850623577833176 15.529724657535551 5.9160608202219001 4.9135050326585761 11.015752434730528 24.970741480588913 5.221637785434722 30.82063801586628 10.052376911044123 178.08701045811176 9.850147530436514 6.7133995592594138 11.594848766922949 8.1311224400997144 32.507330223917961 16.759295091032982 6.613960623741149 7.4122275412082663 6.9406008720397976 8.3516236096620542 5.2203229069709804 7.7218759655952445 4.9759908914566031 9.9334154874086362 8.1886036843061429 17.172436773777008 6.4442238807678214 76.256610378623009 73.409085899591446
leaf_count=886 1616 318 124 24 20 45 102 21 127 41 724 40 27 48 33 132 69 27 30 28 34 21 31 20 40 33 69 26 308 296
internal_value=0 0.0278482 0.0511891 0.0550688 0.0557904 0.0638162 0.0604045 0.0491394 0.0504647 0.035056 0.0645845 0.0495409 0.0832646 0.0269583 0.0107001 -0.00213787 0.0448066 0.0578309 0.0563891 0.040626 -0.016415 0.0548172 0.0366035 0.0910976 0.0535815 0.0648375 0.0297082 0.0636304 0.0661818 0.0630607
internal_weight=0 800.538 689.575 674.045 668.129 302.774 291.759 365.355 360.442 116.579 266.788 88.7008 16.7658 99.8132 52.2333 44.1022 47.5799 243.863 238.641 75.1188 14.9656 60.1532 40.0481 20.1052 32.3262 15.1292 22.3928 163.522 157.078 149.666
internal_count=5360 3744 2858 2734 2710 1229 1184 1481 1461 477 1082 358 68 409 213 180 196 984 963 303 61 242 161 81 130 61 90 660 634 604
is_linear=0
shrinkage=0.1


Tree=9
num_leaves=31
num_cat=0
split_feature=2 7 7 4 3 1 1 1 8 8 8 8 8 3 3 3 1 8 0 6 8 8 1 3 1 6 8 1 6 3
split_gain=297.905 231.927 38.0793 3.70033 3.31689 3.66247 19.0212 3.18869 3.01026 2.95002 6.78359 3.44812 3.06766 2.98451 2.9655 5.25533 4.39338 3.14315 3.22125 2.57774 2.3393 2.01885 1.94869 1.77935 1.68852 3.87606 5.84811 6.25358 3.58932 3.22765
threshold=4.5000000000000009 94402.000000000015 94406.000000000015 2.5000000000000004 129101.50000000001 1.0000000180025095e-35 20.500000000000004 22.500000000000004 92.880565643310561 66.079193115234389 62.533422470092781 69.253246307373061 47.633054733276374 129847.00000000001 134121.50000000003 134897.50000000003 34.500000000000007 26.783625602722172 9.5000000000000018 5.5000000000000009 23.621724128723148 7.582566738128663 39.500000000000007 181454.50000000003 26.500000000000004 5.5000000000000009 8.3570075035095233 50.500000000000007 10.500000000000002 160937.00000000003
decision_type=2 2 2 2 2 2 2 2 2 2 2 2 2 2 2 2 2 2 2 2 2 2 2 2 2 2 2 2 2 2
left_child=1 -1 3 -3 21 19 -7 8 -8 10 12 -11 13 -9 16 -16 -15 18 23 -6 -21 -5 -23 -17 -20 29 27 28 -27 -26
right_child=-2 2 -4 4 5 6 7 9 -10 11 -12 -13 -14 14 15 17 -18 -19 24 20 -22 22 -24 -25 25 26 -28 -29 -30 -31
leaf_value=-0.11530117868388318 -0.11530117868388318 -0.025940741849902513 -0.11530117868388318 0.047653718631642375 0.03911802951631424 0.15482319263655372 0.00075333473115696042 -0.012689291920284283 0.05370309901912429 -0.03445222880198489 0.14952107867126516 0.044466064377261277 0.019449081005312899 0.16490520872612791 -0.0014903101207426319 0.030883518325582615 0.039346426274971716 0.11504472039218361 0.042857871208562187 0.031260160469257704 -0.048858392580420837 0.078695371792335489 0.1411905480312825 0.077853070231898802 0.11219167007010732 0.051945648411073624 -0.043180074635273569 -0.035422808944669565 0.11374615978123065 0.049854974652436712
leaf_weight=101.97439177334309 185.99392449855804 6.3938815146684638 14.27181103825569 13.74073004722595 24.362158760428429 17.035381853580475 26.815595969557762 5.711318463087081 17.906510561704636 5.6482093185186377 7.8269476145505896 279.66524662077427 22.121703490614891 6.4079901278018934 13.925576999783514 45.53367967903614 4.931435689330101 10.623055279254912 20.670061871409416 6.481586590409278 8.3253966867923719 18.982136100530628 6.7684829533100119 9.8016256839036924 32.286448821425438 19.631988599896431 5.3907805234193793 5.2038136571645728 18.027709364891052 11.183164954185484
leaf_count=886 1616 27 124 56 99 75 108 23 72 23 32 1132 90 26 56 184 20 44 83 26 35 77 28 40 135 80 22 21 74 46
internal_value=0 0.0254082 0.0463346 0.0497705 0.0504984 0.0487239 0.0507016 0.047586 0.0219542 0.0497712 0.0579598 0.0429038 0.0548635 0.0586061 0.0606058 0.0576751 0.110301 0.0622947 0.0589538 0.0191184 -0.0137874 0.0786058 0.0951221 0.0392033 0.0686776 0.0744962 0.0549852 0.0673311 0.0815296 0.0961547
internal_weight=0 787.649 685.674 671.403 665.009 625.517 586.348 569.313 44.7221 524.591 239.277 285.313 231.45 209.329 203.617 192.278 11.3394 178.352 167.729 39.1691 14.807 39.4913 25.7506 55.3353 112.394 91.7239 48.2543 42.8635 37.6597 43.4696
internal_count=5360 3744 2858 2734 2707 2546 2386 2311 180 2131 976 1155 944 854 831 785 46 729 685 160 61 161 105 224 461 378 197 175 154 181
is_linear=0
shrinkage=0.1


Tree=10
num_leaves=31
num_cat=0
split_feature=2 7 7 3 8 8 8 8 3 8 1 1 3 8 3 3 3 3 1 1 6 3 0 6 3 3 3 0 3 3
split_gain=261.875 199.322 32.354 3.21062 2.65471 6.84753 3.96204 3.31286 2.29334 2.24898 5.49853 6.44751 4.6853 4.28061 3.04037 5.41782 2.43493 9.84901 3.30388 4.12217 2.71722 2.19819 2.17918 8.0626 2.43247 2.31206 2.85638 2.1554 2.21114 2.0191
threshold=4.5000000000000009 94402.000000000015 94406.000000000015 200859.50000000003 67.396617889404311 62.533422470092781 50.108224868774421 69.253246307373061 129101.50000000001 87.550323486328139 37.500000000000007 42.500000000000007 140681.50000000003 86.356163024902358 160214.50000000003 145944.00000000003 160524.00000000003 149668.50000000003 1.0000000180025095e-35 20.500000000000004 4.5000000000000009 154351.50000000003 9.5000000000000018 8.5000000000000018 198345.00000000003 184240.50000000003 175161.50000000003 9.5000000000000018 184240.50000000003 139743.50000000003
decision_type=2 2 2 2 2 2 2 2 2 2 2 2 2 2 2 2 2 2 2 2 2 2 2 2 2 2 2 2 2 2
left_child=1 -1 3 4 5 6 27 -6 -9 10 13 -12 -13 14 15 29 17 18 -11 -20 -21 -19 23 -18 25 26 -24 28 -3 -10
right_child=-2 2 -4 -5 7 -7 -8 8 9 16 11 12 -14 -15 -16 -17 22 21 19 20 -22 -23 24 -25 -26 -27 -28 -29 -30 -31
leaf_value=-0.11363484112868066 -0.11363484112868066 0.035114408992449476 -0.11363484112868066 -0.028321788305973324 -0.041861239061100897 0.13111585204870554 0.01173603643513055 0.074804379986895084 -0.0035348698218246851 -0.015511418091906204 0.13851887050011072 0.094960665967260049 -0.020984942934150243 -0.056870167749180273 -0.013115908504819649 0.11391686230200203 0.080954705394135851 -0.085681968469664721 0.14369520271857114 0.088615847902762127 0.041481201770224248 -0.0052722748320936852 0.11030517558800818 -0.044131041084072099 0.033008623864913073 0.13170939720086658 0.040617769071750194 0.059851514748059831 0.085957925619245229 0.039014578622410229
leaf_weight=93.553684636950493 170.63516294956207 78.396826699376106 13.093292206525801 5.9039005041122428 4.8766028881072989 10.744930177927015 24.961514562368393 19.132184743881226 19.104034319519997 8.4436760693788511 8.5833546519279498 6.1054553389549246 8.1208904981613141 7.6261877417564383 18.389008045196533 7.3246683925390235 14.181802779436113 6.4394392669200879 4.4401612877845755 13.487886488437651 131.1945515871048 7.2022816985845566 10.571012064814569 8.0939549654722196 10.865312829613684 8.7206627577543241 13.259249091148375 174.79451403021812 9.6010336577892286 26.794165372848511
leaf_count=886 1616 318 124 24 20 45 102 79 78 35 35 25 33 31 75 30 58 26 21 55 531 29 43 33 44 36 54 724 40 110
internal_value=0 0.0232243 0.0420407 0.045095 0.0457503 0.052736 0.0498093 0.0400051 0.04112 0.0392187 0.0268077 0.0700719 0.0287749 0.0143535 0.0219384 0.03405 0.0445649 0.0382849 0.0453422 0.0487879 0.0458753 -0.0432289 0.0609318 0.0355045 0.0739779 0.0876532 0.0715308 0.0534257 0.0406617 0.0213044
internal_weight=0 774.006 680.453 667.359 661.455 298.499 287.754 362.957 358.08 338.948 102.048 22.8097 14.2263 79.2381 71.6119 53.2229 236.9 171.208 157.566 149.123 144.682 13.6417 65.692 22.2758 43.4162 32.5509 23.8303 262.792 87.9979 45.8982
internal_count=5360 3744 2858 2734 2710 1229 1184 1481 1461 1382 417 93 58 324 293 218 965 697 642 607 586 55 268 91 177 133 97 1082 358 188
is_linear=0
shrinkage=0.1


Tree=11
num_leaves=31
num_cat=0
split_feature=2 7 7 5 3 5 8 3 3 0 8 6 3 6 3 0 5 8 3 5 3 6 8 5 3 8 3 5 8 3
split_gain=230.696 171.808 27.5866 2.81076 3.22781 3.14453 3.45828 4.75358 3.12926 2.84063 2.4905 2.46873 3.66474 2.13871 2.73205 3.37383 3.33759 2.66391 2.56289 3.53954 4.36356 3.49271 2.91908 4.35161 4.00657 2.80595 2.54937 3.84771 3.31472 3.97334
threshold=4.5000000000000009 94402.000000000015 94406.000000000015 22.500000000000004 200859.50000000003 21.500000000000004 85.634922027587905 164523.00000000003 143237.50000000003 7.5000000000000009 -1.0000000180025095e-35 6.5000000000000009 145116.50000000003 3.5000000000000004 143427.00000000003 10.500000000000002 14.500000000000002 76.183471679687514 143234.50000000003 5.5000000000000009 140009.00000000003 13.500000000000002 32.504329681396491 8.5000000000000018 143623.50000000003 78.297103881835952 134121.50000000003 8.5000000000000018 88.380489349365249 138432.50000000003
decision_type=2 2 2 2 2 2 2 2 2 2 2 2 2 2 2 2 2 2 2 2 2 2 2 2 2 2 2 2 2 2
left_child=1 -1 3 4 5 9 8 -8 -7 -3 -10 12 -5 14 -11 16 -16 -17 19 21 26 -15 23 24 -20 -23 27 -21 29 -28
right_child=-2 2 -4 11 -6 6 7 -9 10 13 -12 -13 -14 18 15 17 -18 -19 22 20 -22 25 -24 -25 -26 -27 28 -29 -30 -31
leaf_value=-0.11217024016810498 -0.11217024016810498 -0.02118877707063805 -0.11217024016810498 0.10815909779083639 -0.035467157852472106 0.089075458802246363 -0.076997325244502743 0.044151828239865465 -0.044281494145273555 0.030706065196083945 0.052672390128265634 0.1379355521120697 -0.0035700962908020717 0.083559567961965051 -0.0018991152281233081 0.12608262683797139 0.093807698966652461 0.064320147111523604 -0.068819866300214569 -0.0027728674904656681 0.060428414389731261 -0.02938244809980969 0.02570030565120307 0.060461325004296275 0.031852384963447278 0.073381678987709656 -0.023589849305378583 0.059558390288139945 0.044066402071914167 0.034040418076146835
leaf_weight=85.69937489926815 156.30946934223175 7.0214665681123725 11.994043439626692 6.2311920523643511 5.6484232991933814 7.2520207315683392 8.1094963699579257 5.3923678845167151 5.3396791368722942 21.295674681663513 5.2587648928165391 5.2560640424489966 5.5508475452661514 42.320091784000397 9.0782770365476591 13.922298327088356 6.0867959409952155 14.011836811900139 4.9612409174442318 12.442407503724096 81.191595077514648 5.5859661847352964 167.30466511845589 69.615964040160179 19.457271382212639 5.0674111694097519 25.90856508910656 48.534728944301605 33.277547180652618 22.226618349552155
leaf_count=886 1616 29 124 26 23 30 33 22 22 87 22 22 23 176 37 59 25 59 20 51 338 23 683 291 79 21 105 201 136 91
internal_value=0 0.0212099 0.0381355 0.0408532 0.0397963 0.0404598 0.00957483 -0.0286128 0.0384595 0.042049 0.00382535 0.0809445 0.0555204 0.0427863 0.0600088 0.0744875 0.0365147 0.0951024 0.0407244 0.0474345 0.0419278 0.0706764 0.0336237 0.0477208 0.0113983 0.0194986 0.0313786 0.0468397 0.0197985 0.00302116
internal_weight=0 761.043 675.343 663.349 646.311 640.663 31.3523 13.5019 17.8505 609.31 10.5984 17.0381 11.782 602.289 64.3949 43.0992 15.1651 27.9341 537.894 276.555 223.581 52.9735 261.339 94.0345 24.4185 10.6534 142.39 60.9771 81.4127 48.1352
internal_count=5360 3744 2858 2734 2663 2640 129 55 74 2511 44 71 49 2482 267 180 62 118 2215 1142 922 220 1073 390 99 44 584 252 332 196
is_linear=0
shrinkage=0.1


Tree=12
num_leaves=31
num_cat=0
split_feature=2 7 7 4 5 5 1 0 1 6 1 1 1 5 5 8 6 0 8 1 1 5 6 1 6 8 1 6 1 8
split_gain=203.662 148.551 23.6094 2.57028 2.28727 2.35808 4.80188 4.20905 3.08783 2.11027 1.96678 15.3983 4.46815 2.17457 3.43237 2.80743 1.95445 1.91383 2.77737 1.43377 1.56775 2.86241 2.25392 1.71717 2.83735 2.47391 3.47277 2.18579 3.27801 4.39447
threshold=4.5000000000000009 94402.000000000015 94406.000000000015 2.5000000000000004 22.500000000000004 21.500000000000004 36.500000000000007 10.500000000000002 25.500000000000004 6.5000000000000009 20.500000000000004 1.0000000180025095e-35 22.500000000000004 18.500000000000004 10.500000000000002 92.880565643310561 5.5000000000000009 10.500000000000002 76.677558898925795 57.500000000000007 48.500000000000007 18.500000000000004 12.500000000000002 40.500000000000007 2.5000000000000004 95.199695587158217 44.500000000000007 12.500000000000002 32.500000000000007 8.3570075035095233
decision_type=2 2 2 2 2 2 2 2 2 2 2 2 2 2 2 2 2 2 2 2 2 2 2 2 2 2 2 2 2 2
left_child=1 -1 3 -3 5 10 7 -7 -9 -6 11 17 13 14 -12 -16 -15 18 -5 20 23 22 -22 24 -14 -25 -27 -26 -29 -30
right_child=-2 2 -4 4 9 6 -8 8 -10 -11 12 -13 19 16 15 -17 -18 -19 -20 -21 21 -23 -24 25 27 26 -28 28 29 -31
leaf_value=-0.11087888743693547 -0.11087888743693547 -0.026122457478137642 -0.11087888743693547 0.036612044631180528 0.050577439502051284 0.047701686708911631 0.071882703428546774 0.0025337364662817103 -0.089456997583645947 0.12759611201221813 0.020297584599967992 0.14153210068568181 0.062306607159442244 0.0086811185422413974 -0.087796778776534176 0.0043381865309494215 0.087705871494415791 0.038591444958418264 -0.055794067730889976 0.082635550428544494 0.017762862256188335 0.065976334695418637 -0.050751206263617357 0.062907372678021697 0.029425668043375788 -0.024514368008911356 0.073149173718265389 0.060160903567679128 0.074432776733516559 -0.0033891267731214949
leaf_weight=78.400775194168091 142.99735069274902 6.3837263733148566 10.972568988800047 6.5829605609178525 11.653645038604738 7.0652377754449889 8.7969362139701825 6.8780986964702606 7.7721849679946899 5.1207219511270514 17.697532832622532 15.148578464984892 40.356887668371201 7.8991145789623243 7.4331929534673673 5.9580909311771393 5.183340921998024 23.967931866645813 6.4293232560157776 7.4013042151927939 19.487046808004383 9.1438972353935224 6.3714082688093177 59.38825848698616 254.30191314220428 8.5041754692792875 6.3667118996381751 64.552228957414627 10.676399052143095 22.649769872426987
leaf_count=886 1616 27 124 27 49 29 37 28 32 22 72 74 169 32 30 24 21 98 27 31 81 38 26 249 1047 35 26 265 45 93
internal_value=0 0.0193638 0.034601 0.0370227 0.0376402 0.0366789 0.0095542 -0.015695 -0.0462687 0.074089 0.0380458 0.0566149 0.0362965 0.0057874 -0.00860586 -0.0468038 0.0399912 0.0218294 -0.00904549 0.0389431 0.0382986 0.0178865 0.000881301 0.0398292 0.0371912 0.0537739 0.0172986 0.0343132 0.0470117 0.021542
internal_weight=0 748.544 670.143 659.171 652.787 636.013 30.5125 21.7155 14.6503 16.7744 605.5 52.1288 553.371 44.1713 31.0888 13.3913 13.0825 36.9802 13.0123 509.2 501.799 35.0024 25.8585 466.796 392.537 74.2591 14.8709 352.18 97.8784 33.3262
internal_count=5360 3744 2858 2734 2707 2636 126 89 60 71 2510 226 2284 179 126 54 53 152 54 2105 2074 145 107 1929 1619 310 61 1450 403 138
is_linear=0
shrinkage=0.1


Tree=13
num_leaves=31
num_cat=0
split_feature=2 0 4 0 3 6 6 3 3 1 1 1 8 8 1 5 3 3 3 5 3 5 5 6 1 8 5 3 6 3
split_gain=180.164 41.5255 23.4906 7.74714 4.24203 2.14454 2.93595 2.57362 3.90259 2.45339 12.2125 2.52913 3.57429 7.65818 3.53021 4.4468 4.52782 3.44265 5.62074 4.02478 3.24692 2.35601 3.09346 2.4231 2.33046 3.92438 4.71488 4.3661 3.33934 4.97247
threshold=4.5000000000000009 7.5000000000000009 2.5000000000000004 6.5000000000000009 134119.50000000003 3.5000000000000004 11.500000000000002 143606.50000000003 138469.50000000003 20.500000000000004 1.0000000180025095e-35 40.500000000000007 87.840488433837905 38.401605606079109 22.500000000000004 4.5000000000000009 143238.50000000003 160524.00000000003 140009.00000000003 17.500000000000004 198363.50000000003 14.500000000000002 20.500000000000004 5.5000000000000009 46.500000000000007 81.405803680419936 14.500000000000002 164523.00000000003 14.500000000000002 160107.50000000003
decision_type=2 2 2 2 2 2 2 2 2 2 2 2 2 2 2 2 2 2 2 2 2 2 2 2 2 2 2 2 2 2
left_child=1 3 -3 -1 -4 7 9 8 -6 10 -7 12 13 14 -11 16 -16 18 19 -15 -13 23 -23 -20 25 -8 28 -28 29 -27
right_child=-2 2 4 -5 5 6 24 -9 -10 11 -12 20 -14 17 15 -17 -18 -19 21 -21 -22 22 -24 -25 -26 26 27 -29 -30 -31
leaf_value=0.0476228431002821 -0.10973712151975645 -0.088931286656655978 0.049759799979018644 -0.10136191725876863 0.035045430582124962 0.0046247971478709611 0.055243711083725194 0.054215192794288616 -0.063162057132791868 -0.042075704184229477 0.13660943145836191 0.037464914034771604 0.024033244821335148 -0.01247991202373565 0.026898241700015819 0.030843438842265078 -0.094744009170008248 -0.061061372763565949 0.012217049302856029 -0.11836465978359004 -0.025979878810182114 0.091013857654133543 0.0053571121255701782 -0.07461170134724962 -0.0077600173096231536 0.10127913288609486 -0.038024893920987839 0.049181814502054305 -0.030421264519993912 0.015266138365396123
leaf_weight=3.9023211151361457 130.66657555103302 18.216636762022972 68.369398526847363 33.053499586880207 18.360277406871322 24.197283312678337 64.712193936109543 44.921212702989578 5.1902086585760108 9.0755637586116773 9.8703386038541776 72.515001304447651 117.17587065696716 7.5532955601811391 6.1671286299824697 88.604840293526649 6.0735583305358887 19.216548062860966 9.0662770271301252 6.8412844464182854 9.0759827494621259 6.5437456741929081 11.853613108396528 4.9790697097778311 12.082995720207689 13.819222860038286 18.673804320394996 8.289670914411543 4.8857279717922202 13.085403159260748
leaf_count=16 1616 193 289 376 86 101 274 203 23 46 51 359 531 34 37 433 30 107 56 33 50 30 66 23 52 59 77 34 20 55
internal_value=0 0.0176783 0.023137 -0.08563 0.0261339 0.0234981 0.0214001 0.0401776 0.0134018 0.0171713 0.0428644 0.0148355 0.0105014 0.00149105 0.0176624 0.0230385 -0.033458 -0.0254199 -0.0107968 -0.0628036 0.0304075 0.0122782 0.0358243 -0.0185637 0.034154 0.0382559 0.0195453 -0.011214 0.0456344 0.0594456
internal_weight=0 736.372 699.416 36.9558 681.2 612.83 544.358 68.4717 23.5505 408.809 34.0676 374.742 293.151 175.975 109.921 100.846 12.2407 66.0538 46.8373 14.3946 81.591 32.4427 18.3974 14.0453 135.549 123.466 58.7538 26.9635 31.7904 26.9046
internal_count=5360 3744 3352 392 3159 2870 2558 312 109 1987 152 1835 1426 895 546 500 67 349 242 67 409 175 96 79 571 519 245 111 134 114
is_linear=0
shrinkage=0.1


Tree=14
num_leaves=31
num_cat=0
split_feature=7 7 3 3 1 1 3 3 3 3 6 3 1 1 5 5 1 0 1 1 8 0 8 3 3 5 3 8 5 5
split_gain=132.319 165.971 1.97508 1.84381 2.24191 14.2542 2.90904 2.36525 2.56308 2.15882 3.71379 3.58272 1.9513 1.82538 1.68357 1.7207 2.74635 2.7668 3.02296 2.23663 1.89811 2.17456 2.12134 2.0936 1.84334 4.72874 3.61792 2.47573 2.13355 5.24645
threshold=94402.000000000015 94406.000000000015 200859.50000000003 129101.50000000001 1.0000000180025095e-35 20.500000000000004 160892.50000000003 129847.00000000001 133687.00000000003 142832.50000000003 5.5000000000000009 139743.50000000003 44.500000000000007 32.500000000000007 22.500000000000004 21.500000000000004 36.500000000000007 9.5000000000000018 25.500000000000004 22.500000000000004 87.96551895141603 10.500000000000002 70.064933776855483 143236.50000000003 134507.00000000003 5.5000000000000009 134121.50000000003 10.01253128051758 4.5000000000000009 5.5000000000000009
decision_type=2 2 2 2 2 2 2 2 2 2 2 2 2 2 2 2 2 2 2 2 2 2 2 2 2 2 2 2 2 2
left_child=-1 2 3 12 6 -6 9 -7 13 11 -11 -5 -2 -9 15 19 17 -17 -19 20 22 -22 23 -10 25 -21 27 -27 -26 -30
right_child=1 -3 -4 4 5 7 -8 8 14 10 -12 -13 -14 -15 -16 16 -18 18 -20 24 21 -23 -24 -25 28 26 -28 -29 29 -31
leaf_value=-0.1091569586509666 0.044217305896799147 -0.10877734467048819 -0.026559987256101366 -0.024370718675344856 0.13277157426272501 -0.0091389431886415209 0.048748518404633893 0.11639225202858333 0.060172380737776747 0.0045099839619524643 -0.10488420872182412 0.073103714747365323 0.11081804166889977 0.035158831305556575 0.066764278519582443 0.038380701969078265 0.054513585747365659 0.014308965346136751 -0.085710543589709906 0.094599942259545086 0.00013691333328365695 0.069097388719981376 -0.053761685161629727 -0.023714445301854556 0.016941394529084709 0.099444291399899271 -0.025022476644692385 0.0044499507628910076 0.11443040074404516 0.035205468916376416
leaf_weight=100.60006235539913 33.019881308078766 97.34870957583189 5.8617312759160987 9.2862439006567019 13.707198798656462 15.37141667306423 12.118659183382986 5.8820662200450879 5.2168588191270846 7.6074299812316877 5.2415404468774796 6.3487644195556632 5.0752842724323264 5.2219598591327667 11.938980832695959 6.0599659234285399 7.5611675828695288 5.1808356493711472 7.2510047405958176 5.8808282911777487 10.50676617026329 8.0962760299444199 8.0933179408311826 6.9236305058002472 61.416866019368172 4.701100140810011 23.186681404709816 6.5885218679904938 8.5703393667936307 338.57114666700363
leaf_count=1313 141 1313 24 38 75 63 51 25 21 31 22 26 23 22 52 25 32 21 30 25 43 33 33 28 254 20 94 27 37 1418
internal_value=0 0.0130001 0.0312248 0.0317502 0.0304099 0.0320384 0.00771199 0.029538 0.0306454 -0.00974722 -0.0401157 0.0152098 0.0530903 0.0781901 0.0296412 0.0287786 0.00373919 -0.0170221 -0.0440285 0.0301161 0.00709327 0.0301494 -0.0141046 0.0123323 0.0321078 0.0117192 -0.00241824 0.0440064 0.0341218 0.0371614
internal_weight=0 747.835 650.486 644.625 606.53 565.927 40.6026 552.22 536.848 28.484 12.849 15.635 38.0952 11.104 525.744 513.805 26.053 18.4918 12.4318 487.752 38.8368 18.603 20.2338 12.1405 448.915 40.3571 34.4763 11.2896 408.558 347.141
internal_count=5360 4047 2734 2710 2546 2378 168 2303 2240 117 53 64 164 47 2193 2141 108 76 51 2033 158 76 82 49 1875 166 141 47 1709 1455
is_linear=0
shrinkage=0.1


Tree=15
num_leaves=31
num_cat=0
split_feature=2 7 7 5 3 3 3 5 1 0 1 0 1 1 1 5 3 3 6 5 3 3 6 6 3 0 1 1 5 3
split_gain=141.684 104.652 16.1239 1.79413 2.36044 2.5777 2.04156 1.69781 3.61705 3.16938 2.22635 1.77572 2.10355 10.5039 2.75485 2.20955 4.94305 3.12757 1.83624 1.89107 1.37293 3.01979 4.94476 1.75506 1.61536 1.24127 1.19932 1.45408 2.47395 2.16685
threshold=4.5000000000000009 94402.000000000015 94406.000000000015 22.500000000000004 143237.50000000003 175682.50000000003 200859.50000000003 21.500000000000004 36.500000000000007 9.5000000000000018 25.500000000000004 7.5000000000000009 20.500000000000004 1.0000000180025095e-35 22.500000000000004 18.500000000000004 142832.50000000003 174496.50000000003 5.5000000000000009 10.500000000000002 160892.50000000003 142832.50000000003 5.5000000000000009 5.5000000000000009 198318.50000000003 10.500000000000002 57.500000000000007 48.500000000000007 18.500000000000004 139545.00000000003
decision_type=2 2 2 2 2 2 2 2 2 2 2 2 2 2 2 2 2 2 2 2 2 2 2 2 2 2 2 2 2 2
left_child=1 -1 3 6 -5 -6 7 11 9 -9 -11 -3 13 20 15 17 -17 18 25 -20 21 23 -23 -13 -22 -14 27 -16 29 -29
right_child=-2 2 -4 4 5 -7 -8 8 -10 10 -12 12 14 -15 26 16 -18 -19 19 -21 24 22 -24 -25 -26 -27 -28 28 -30 -31
leaf_value=-0.10838720227881847 -0.10782504971854018 -0.021079561015667336 -0.1083016698587991 0.11561625449134134 -0.0071561052447877971 0.092033578582147488 -0.032554837982118667 0.038578553006813787 0.058261118137301719 -0.0013736771254283233 -0.079207758921507165 0.010237830637320465 -0.026271105763364295 0.12853256381793052 0.031029155631433797 0.11515430678022572 -0.012049737036027451 0.056430523481479117 -0.016094414817537549 -0.090196074950991245 0.089559100128505917 0.030023915230149703 -0.10763632775954601 0.077932650440094911 0.010677715097311635 0.040367587698780884 0.070607717649926696 0.031301493114041422 0.05473477058551568 -0.029444242585447578
leaf_weight=63.049673706293106 108.76498054713011 6.9351216554641715 8.7530303522944433 5.3446926176548031 6.2650885879993421 4.5031577497720718 5.611012637615203 6.9818406552076384 9.0554959177970868 6.8427722901105881 7.9383281469345093 9.2830696105957049 6.0998208820819908 12.561546862125395 452.0529807806015 5.0995418876409513 7.6190612316131592 5.6794197261333457 7.506348788738249 6.3634452968835831 5.6491944193840009 5.8989774137735349 4.6790201961994171 6.5195636898279181 4.8035759478807449 5.1595189273357391 7.2131417691707602 9.4199362993240374 8.935621574521063 15.591490015387533
leaf_count=886 1616 29 124 24 27 20 23 29 39 28 33 38 25 74 1903 21 31 23 31 26 24 24 20 27 20 21 31 40 38 65
internal_value=0 0.0146558 0.0265112 0.028339 0.0612887 0.0343239 0.0274956 0.0280357 0.00515132 -0.0169475 -0.0431752 0.0292248 0.02982 0.0495678 0.0280027 0.00388675 0.0389529 -0.0105895 -0.0257367 -0.0500922 0.0226379 0.0104851 -0.030868 0.0381661 0.0533091 0.00426564 0.030131 0.0295302 0.00956984 -0.00656586
internal_weight=0 717.415 654.366 645.613 16.1129 10.7682 629.5 623.889 30.8184 21.7629 14.7811 593.07 586.135 49.3949 536.74 43.5272 12.7186 30.8086 25.1291 13.8698 36.8334 26.3806 10.578 15.8026 10.4528 11.2593 493.213 486 33.947 25.0114
internal_count=5360 3744 2858 2734 71 47 2663 2640 129 90 61 2511 2482 227 2255 178 52 126 103 57 153 109 44 65 44 46 2077 2046 143 105
is_linear=0
shrinkage=0.1


Tree=16
num_leaves=31
num_cat=0
split_feature=2 0 4 0 3 5 8 6 8 5 1 3 5 3 1 1 1 0 1 1 1 1 1 8 1 8 5 8 3 3
split_gain=125.97 26.2766 14.8388 6.35964 2.71688 2.10515 2.0031 1.92278 3.08894 4.18793 4.0452 3.60838 3.53486 4.38236 3.13787 3.12001 3.89465 5.41499 2.67288 3.39563 3.44764 2.38632 10.2622 2.42178 2.59933 2.62062 3.88215 4.40585 4.42989 4.74465
threshold=4.5000000000000009 7.5000000000000009 2.5000000000000004 6.5000000000000009 129101.50000000001 21.500000000000004 7.582566738128663 11.500000000000002 79.447261810302749 14.500000000000002 46.500000000000007 175959.00000000003 9.5000000000000018 143234.50000000003 39.500000000000007 33.500000000000007 28.500000000000004 10.500000000000002 33.500000000000007 31.500000000000004 28.500000000000004 20.500000000000004 1.0000000180025095e-35 94.59064102172853 22.500000000000004 47.633054733276374 20.500000000000004 51.952596664428718 166536.50000000003 175682.50000000003
decision_type=2 2 2 2 2 2 2 2 2 2 2 2 2 2 2 2 2 2 2 2 2 2 2 2 2 2 2 2 2 2
left_child=1 3 -3 -1 6 -5 -4 21 10 12 14 15 13 -10 18 16 17 -11 19 20 -9 22 -6 24 -23 -26 27 -27 -29 -30
right_child=-2 2 4 5 7 -7 -8 8 9 11 -12 -13 -14 -15 -16 -17 -18 -19 -20 -21 -22 23 -24 -25 25 26 -28 28 29 -31
leaf_value=0.041319012086153829 -0.10702520962018734 -0.081275237069829503 0.013995212784139347 -0.10340494837995123 0.0093313286485127642 0.011792302637920518 0.06338343137963709 0.056836704209802968 0.053253240125056923 0.028878318652102105 -0.018928821906660065 0.04110712778538142 0.073115198462265094 -0.029723940121784337 0.099057715875135996 -0.092077102650561016 0.057032900159782213 -0.1125001337876832 -0.00048873975416451813 0.12793359932886861 -0.021656349319571853 -0.024386235899757386 0.12544406613163844 0.024276609729870204 0.018805180686459019 -0.10930036075490959 -0.026757292523464711 0.028471400768012661 -0.12122481634145624 0.0020665088126153065
leaf_weight=3.876995816826823 99.112494502216578 14.89828212559223 12.571530669927595 24.440577447414402 30.661544889211655 1.6964641511440266 23.681841924786568 30.106094688177109 12.791583441197874 5.1250011920929044 9.4316836595535261 8.6932584345340711 15.035890668630598 12.668576799333094 11.298589810729025 6.6832595467567435 5.5606637746095648 5.7471652030944824 12.014225035905836 5.2859414070844641 6.8732994720339766 22.913149707019329 10.125225394964216 130.49374760687351 164.66366554051638 2.8962341248989096 38.568071231245995 61.809562273323536 4.2400340512394932 11.830233439803122
leaf_count=16 1616 193 55 357 129 19 105 130 58 21 41 36 63 54 49 28 23 24 54 23 30 121 64 593 850 15 209 302 18 64
internal_value=0 0.0133591 0.0174202 -0.0781993 0.0196421 -0.0959279 0.0462571 0.0180996 0.0280887 0.01334 0.0423057 -0.0138146 0.0346697 0.0119651 0.0511126 -0.0344691 -0.0110398 -0.0458561 0.0411326 0.0529637 0.0422473 0.0150223 0.0381561 0.0128652 0.00801341 0.0106273 -0.000655934 0.0118067 0.0163104 -0.0304631
internal_weight=0 706.682 676.668 30.014 661.77 26.137 36.2534 625.517 147.315 72.3054 75.0098 31.8093 40.4961 25.4602 65.5782 23.1161 16.4328 10.8722 54.2796 42.2653 36.9794 478.201 40.7868 437.415 306.921 284.008 119.344 80.7761 77.8798 16.0703
internal_count=5360 3744 3352 392 3159 376 160 2999 634 307 327 132 175 112 286 96 68 45 237 183 160 2365 193 2172 1579 1458 608 399 384 82
is_linear=0
shrinkage=0.1


end of trees

feature_importances:
Column_3=130
Column_1=107
Column_8=81
Column_5=72
Column_6=40
Column_7=30
Column_0=28
Column_2=14
Column_4=8

parameters:
[boosting: gbdt]
[objective: binary]
[metric: auc]
[tree_learner: serial]
[device_type: cpu]
[data_sample_strategy: bagging]
[data: ]
[valid: ]
[num_iterations: 10000]
[learning_rate: 0.1]
[num_leaves: 31]
[num_threads: 0]
[seed: 45]
[deterministic: 0]
[force_col_wise: 0]
[force_row_wise: 0]
[histogram_pool_size: -1]
[max_depth: -1]
[min_data_in_leaf: 20]
[min_sum_hessian_in_leaf: 0.001]
[bagging_fraction: 0.9]
[pos_bagging_fraction: 1]
[neg_bagging_fraction: 1]
[bagging_freq: 0]
[bagging_seed: 32645]
[feature_fraction: 0.9]
[feature_fraction_bynode: 1]
[feature_fraction_seed: 3942]
[extra_trees: 0]
[extra_seed: 24660]
[early_stopping_round: 0]
[early_stopping_min_delta: 0]
[first_metric_only: 0]
[max_delta_step: 0]
[lambda_l1: 0]
[lambda_l2: 0]
[linear_lambda: 0]
[min_gain_to_split: 0]
[drop_rate: 0.1]
[max_drop: 50]
[skip_drop: 0.5]
[xgboost_dart_mode: 0]
[uniform_drop: 0]
[drop_seed: 5926]
[top_rate: 0.2]
[other_rate: 0.1]
[min_data_per_group: 100]
[max_cat_threshold: 32]
[cat_l2: 10]
[cat_smooth: 10]
[max_cat_to_onehot: 4]
[top_k: 20]
[monotone_constraints: ]
[monotone_constraints_method: basic]
[monotone_penalty: 0]
[feature_contri: ]
[forcedsplits_filename: ]
[refit_decay_rate: 0.9]
[cegb_tradeoff: 1]
[cegb_penalty_split: 0]
[cegb_penalty_feature_lazy: ]
[cegb_penalty_feature_coupled: ]
[path_smooth: 0]
[interaction_constraints: ]
[verbosity: -1]
[saved_feature_importance_type: 0]
[use_quantized_grad: 0]
[num_grad_quant_bins: 4]
[quant_train_renew_leaf: 0]
[stochastic_rounding: 1]
[linear_tree: 0]
[max_bin: 255]
[max_bin_by_feature: ]
[min_data_in_bin: 3]
[bin_construct_sample_cnt: 200000]
[data_random_seed: 185]
[is_enable_sparse: 1]
[enable_bundle: 1]
[use_missing: 1]
[zero_as_missing: 0]
[feature_pre_filter: 1]
[pre_partition: 0]
[two_round: 0]
[header: 0]
[label_column: ]
[weight_column: ]
[group_column: ]
[ignore_column: ]
[categorical_feature: ]
[forcedbins_filename: ]
[precise_float_parser: 0]
[parser_config_file: ]
[objective_seed: 14259]
[num_class: 1]
[is_unbalance: 0]
[scale_pos_weight: 1]
[sigmoid: 1]
[boost_from_average: 1]
[reg_sqrt: 0]
[alpha: 0.9]
[fair_c: 1]
[poisson_max_delta_step: 0.7]
[tweedie_variance_power: 1.5]
[lambdarank_truncation_level: 30]
[lambdarank_norm: 1]
[label_gain: ]
[lambdarank_position_bias_regularization: 0]
[eval_at: ]
[multi_error_top_k: 1]
[auc_mu_weights: ]
[num_machines: 1]
[local_listen_port: 12400]
[time_out: 120]
[machine_list_filename: ]
[machines: ]
[gpu_platform_id: -1]
[gpu_device_id: -1]
[gpu_use_dp: 0]
[num_gpu: 1]

end of parameters

pandas_categorical:null
