tree
version=v4
num_class=1
num_tree_per_iteration=1
label_index=0
max_feature_idx=8
objective=binary sigmoid:1
feature_names=Column_0 Column_1 Column_2 Column_3 Column_4 Column_5 Column_6 Column_7 Column_8
feature_infos=[0:11] [0:69] [0:12] [124587:201897] [0:3] [0:23] [0:15] [51873:241116] [-1:100]
tree_sizes=9832 9727 9753 9773 9796 9809 9814 9851 9835 9851 9880 9853 9863 9872 9887 9880 9866 9890 9880 9886 9922 9870 9892 9900 9923 9910 9933 9922 9927 9935 9962 9931 9966 9924 9987 9986 9957 9960 9947 9922 9952 9929 9959 10001 10017 9962 9961 9961 9994 9993 9973 9975 10016 10010 10011 9974 9996 10016 10032 10015 10013 10019 10024

Tree=0
num_leaves=95
num_cat=0
split_feature=2 7 7 8 5 3 1 1 5 6 3 8 5 3 4 0 1 5 3 5 6 1 1 1 6 3 5 3 8 3 3 3 1 8 1 1 3 3 8 3 1 8 8 1 1 1 5 3 5 8 3 6 1 1 6 3 3 1 3 3 0 1 8 1 5 1 1 8 1 5 3 1 3 3 8 3 5 3 1 1 3 1 6 8 8 1 1 1 5 6 3 5 6 1
split_gain=1143.53 1175.82 225.355 15.1106 12.7421 11.9484 8.39088 12.3048 7.83575 9.1676 7.10116 6.03251 7.73495 5.83625 5.83243 5.78552 5.27504 10.1545 6.21019 6.20865 6.04334 6.31374 5.85276 5.74746 6.02949 5.67792 5.09056 4.87263 4.58805 4.45614 4.60001 4.69069 5.37387 4.42539 4.35809 4.32569 4.11162 4.02503 3.9998 5.07763 3.95464 4.94182 3.93913 3.82428 14.753 6.76335 8.85217 5.287 5.27929 5.12286 6.3896 3.91054 3.80516 3.66552 3.62155 3.57742 3.56555 3.23117 3.16565 6.08705 3.59228 3.99991 5.76708 3.56561 3.20343 3.18535 3.13709 3.134 3.10841 4.85302 3.04109 3.01161 2.99358 3.58921 3.91719 3.24213 2.97851 4.35607 3.60863 4.88416 4.73549 2.85533 4.0173 2.80155 2.8718 2.77712 2.9257 4.33815 3.50389 2.74679 2.72964 2.71986 2.70109 3.48097
threshold=4.5000000000000009 94402.000000000015 94406.000000000015 50.108224868774421 20.500000000000004 185344.00000000003 18.500000000000004 20.500000000000004 22.500000000000004 4.5000000000000009 200859.50000000003 55.662393569946296 12.500000000000002 126875.50000000001 2.5000000000000004 9.5000000000000018 26.500000000000004 19.500000000000004 136640.00000000003 20.500000000000004 5.5000000000000009 50.500000000000007 55.500000000000007 20.500000000000004 4.5000000000000009 140009.00000000003 11.500000000000002 160524.00000000003 15.878787994384767 143240.50000000003 145532.00000000003 168625.00000000003 32.500000000000007 7.0197043418884286 31.500000000000004 34.500000000000007 145532.00000000003 134121.50000000003 10.01253128051758 198316.00000000003 40.500000000000007 62.533422470092781 91.042778015136733 1.0000000180025095e-35 20.500000000000004 24.500000000000004 8.5000000000000018 198955.50000000003 4.5000000000000009 89.147258758544936 143238.50000000003 5.5000000000000009 22.500000000000004 23.500000000000004 5.5000000000000009 143608.50000000003 134121.50000000003 29.500000000000004 143244.50000000003 145944.00000000003 10.500000000000002 36.500000000000007 93.288288116455092 34.500000000000007 6.5000000000000009 46.500000000000007 35.500000000000007 98.913043975830092 43.500000000000007 8.5000000000000018 160524.00000000003 31.500000000000004 184240.50000000003 149669.50000000003 79.447261810302749 160214.50000000003 4.5000000000000009 139545.00000000003 29.500000000000004 36.500000000000007 140448.00000000003 30.500000000000004 12.500000000000002 68.517951965332045 73.313842773437514 45.500000000000007 34.500000000000007 29.500000000000004 8.5000000000000018 4.5000000000000009 139542.50000000003 21.500000000000004 13.500000000000002 42.500000000000007
decision_type=2 2 2 2 2 2 2 2 2 2 2 2 2 2 2 2 2 2 2 2 2 2 2 2 2 2 2 2 2 2 2 2 2 2 2 2 2 2 2 2 2 2 2 2 2 2 2 2 2 2 2 2 2 2 2 2 2 2 2 2 2 2 2 2 2 2 2 2 2 2 2 2 2 2 2 2 2 2 2 2 2 2 2 2 2 2 2 2 2 2 2 2 2 2
left_child=1 -1 3 15 10 6 36 -8 9 -9 11 12 -5 -11 -13 26 19 20 -19 23 25 76 -23 -17 -25 56 33 -27 53 37 -31 57 -33 68 -7 -36 -6 -28 39 -21 41 -15 -42 51 -45 46 48 58 54 50 -48 55 -43 -26 -46 -16 -18 -32 60 66 61 64 65 -62 -47 -63 71 -49 -3 -70 -52 -60 73 -61 75 -75 77 -22 80 90 -78 82 -20 -54 -85 86 87 -76 -89 -65 -80 -83 -91 -94
right_child=-2 2 -4 4 5 34 7 8 -10 13 -12 14 -14 40 43 16 17 18 81 38 21 22 -24 24 28 27 29 -29 -30 30 31 32 -34 -35 35 -37 -38 -39 -40 -41 42 52 -44 44 45 47 49 67 -50 -51 70 -53 83 -55 -56 -57 -58 -59 59 72 63 62 -64 89 -66 -67 -68 -69 69 -71 -72 -73 -74 74 85 -77 78 -79 79 -81 -82 91 -84 84 -86 -87 -88 88 -90 92 -92 -93 93 -95
leaf_value=-0.85407165664696783 -0.85407165664696783 -0.59432062087650328 -0.85407165664696783 -0.71658528610683536 -0.66046840017208741 -0.48530354907576712 -0.4023307248722468 -0.50773694228634836 -0.50773694228634836 -0.50862270881923999 -0.73086958434477123 -0.69273560958456748 -0.4926789112271911 -0.77878150135118096 -0.64325922181876471 -0.46024622894592909 -0.50657863220487476 -0.5636667719346472 -0.56876159447345986 -0.55533975015078141 -0.49913235310968695 -0.71854937711455158 -0.52553279717444346 -0.4023307248722473 -0.6629504932038166 -0.44815951505229101 -0.50433674172460319 -0.53689185348599344 -0.46686514369720694 -0.43579301611481885 -0.67337528393707946 -0.43579301611481869 -0.58834169677948489 -0.51944874422124854 -0.68032514442592129 -0.5152659578159271 -0.81642657899907434 -0.59253743298791883 -0.68764078704575482 -0.71854937711455158 -0.52395328342697933 -0.56796906652297785 -0.6532979091915363 -0.4023307248722468 -0.52120991744454193 -0.43538493939234846 -0.77878150135118096 -0.5636667719346472 -0.47558601110598536 -0.59006721599940359 -0.54132793464908413 -0.68764078704575482 -0.5378530044046631 -0.56044005099339911 -0.65078823734834335 -0.50271759859996257 -0.65643499899552737 -0.53139956252216713 -0.64325922181876471 -0.44339808230631234 -0.56567207873429282 -0.55291103546382048 -0.63895692723043407 -0.62820119075960734 -0.51328463793972212 -0.40233072487224686 -0.69596233052581546 -0.70349134605539421 -0.7477796726999747 -0.5666001546085091 -0.67337528393707946 -0.4926789112271911 -0.50171372986268548 -0.43244678699056144 -0.56294972283659217 -0.55945800548954105 -0.58302709758213545 -0.64433479546584738 -0.67337528393707946 -0.50773694228634836 -0.40233072487224686 -0.41927100981379889 -0.40233072487224691 -0.74982374931433993 -0.64710664825678732 -0.68032514442592129 -0.52974483383434756 -0.59055611311171385 -0.74982374931433993 -0.49913235310968707 -0.56545939467978501 -0.5152659578159271 -0.50657863220487476 -0.67337528393707946
leaf_weight=196.13010716438293 357.72714805603027 17.709264755249031 27.449360370635986 5.0914136171340934 4.6486819982528678 10.846924662590029 2.8777555227279654 6.6409742832183829 6.6409742832183829 3.7632187604904166 2.4350239038467398 3.0991213321685782 2.2136580944061279 2.6563897132873526 3.3204871416091901 8.6332665681839007 2.8777555227279654 6.1982426643371573 4.2059503793716457 13.724680185317995 3.0991213321685773 4.427316188812255 2.4350239038467407 2.2136580944061306 5.7555110454559353 15.274240851402284 6.8623400926589992 10.404193043708799 3.0991213321685782 5.9768768548965481 3.3204871416091946 5.9768768548965436 3.7632187604904175 5.9768768548965445 2.8777555227279654 3.5418529510498047 2.6563897132873535 21.029751896858215 4.2059503793716422 2.213658094406127 5.7555110454559308 6.6409742832183829 3.9845845699310303 6.4196084737777701 4.2059503793716448 9.0759981870651263 3.984584569931032 3.0991213321685782 8.1905349493026716 17.045167326927185 2.8777555227279663 4.2059503793716431 2.213658094406127 8.8546323776245099 4.4273161888122559 3.9845845699310303 3.5418529510498047 3.0991213321685791 3.3204871416091901 2.4350239038467398 39.181748270988464 3.3204871416091901 4.6486819982528687 2.213658094406127 12.617851138114927 2.4350239038467407 4.4273161888122559 3.3204871416091919 3.7632187604904166 2.4350239038467407 4.4273161888122559 2.2136580944061279 11.068290472030638 3.3204871416091901 9.961461424827581 5.0914136171340942 2.2136580944061306 6.1982426643371582 3.3204871416091937 13.281948566436766 4.2059503793716431 17.709264755249027 2.2136580944061279 2.8777555227279654 50.250038743019104 2.8777555227279654 8.6332665681838971 2.6563897132873526 2.8777555227279663 24.792970657348636 7.9691691398620605 3.5418529510498038 2.8777555227279654 2.2136580944061279
leaf_count=886 1616 80 124 23 21 49 13 30 30 17 11 14 10 12 15 39 13 28 19 62 14 20 11 10 26 69 31 47 14 27 15 27 17 27 13 16 12 95 19 10 26 30 18 29 19 41 18 14 37 77 13 19 10 40 20 18 16 14 15 11 177 15 21 10 57 11 20 15 17 11 20 10 50 15 45 23 10 28 15 60 19 80 10 13 227 13 39 12 13 112 36 16 13 10
internal_value=-0.704643 -0.640146 -0.573828 -0.561117 -0.574003 -0.600861 -0.613931 -0.605932 -0.612341 -0.620535 -0.560951 -0.559243 -0.648735 -0.630121 -0.556459 -0.541742 -0.53087 -0.519023 -0.473192 -0.558387 -0.53861 -0.561394 -0.65006 -0.528398 -0.55793 -0.505141 -0.563756 -0.484111 -0.57738 -0.544249 -0.510749 -0.538472 -0.494732 -0.596412 -0.523953 -0.589258 -0.71718 -0.570837 -0.600898 -0.578008 -0.636268 -0.645219 -0.576867 -0.554637 -0.5517 -0.556185 -0.590556 -0.546983 -0.533098 -0.624672 -0.676918 -0.610827 -0.639495 -0.600823 -0.58766 -0.5666 -0.589258 -0.604835 -0.543461 -0.561968 -0.53292 -0.505141 -0.556115 -0.545429 -0.480694 -0.489204 -0.633221 -0.63599 -0.615653 -0.676602 -0.621357 -0.583027 -0.54746 -0.560836 -0.56891 -0.509322 -0.546292 -0.595934 -0.5314 -0.548841 -0.46464 -0.452926 -0.511372 -0.648078 -0.65267 -0.58747 -0.576396 -0.602387 -0.673375 -0.520718 -0.597199 -0.43527 -0.512756 -0.579099
internal_weight=0 828.794 632.663 605.214 363.483 118.873 101.607 94.3018 91.4241 84.7831 244.609 242.174 7.30507 78.1421 234.869 241.731 161.818 113.118 33.869 48.7005 79.249 47.1509 6.86234 28.5562 19.9229 32.098 79.9131 25.6784 17.7093 50.0287 22.1366 16.1597 9.7401 29.8844 17.2665 6.41961 7.30507 27.8921 20.1443 15.9383 74.3789 64.6388 9.7401 231.77 220.259 213.839 45.1586 168.681 16.8238 28.3348 11.2897 11.511 61.9824 14.6101 8.63327 7.30507 6.41961 6.41961 162.261 58.8833 103.378 32.098 10.4042 71.2798 21.6938 5.75551 9.96146 6.41961 23.9075 6.19824 7.30507 5.53415 48.9218 37.8536 35.4185 8.4119 40.2886 9.29736 30.9912 24.5716 6.41961 27.6707 6.41961 55.3415 53.1278 27.0066 24.1289 15.4956 5.53415 32.098 11.2897 21.2511 29.8844 5.09141
internal_count=5360 3744 2858 2734 1642 537 459 426 413 383 1105 1094 33 353 1061 1092 731 511 153 220 358 213 31 129 90 145 361 116 80 226 100 73 44 135 78 29 33 126 91 72 336 292 44 1047 995 966 204 762 76 128 51 52 280 66 39 33 29 29 733 266 467 145 47 322 98 26 45 29 108 28 33 25 221 171 160 38 182 42 140 111 29 125 29 250 240 122 109 70 25 145 51 96 135 23
is_linear=0
shrinkage=1


Tree=1
num_leaves=95
num_cat=0
split_feature=2 7 7 8 4 5 3 1 1 5 6 3 8 5 5 3 0 3 3 1 5 1 6 1 3 5 6 3 3 1 5 8 8 3 3 6 3 5 5 5 1 1 3 1 3 3 5 3 1 5 5 8 6 6 5 3 1 5 5 8 6 1 8 3 1 8 8 0 1 8 3 3 3 8 5 1 1 1 1 0 3 1 8 3 1 8 8 3 1 3 3 5 5 3
split_gain=958.383 944.245 176.419 10.7062 9.88451 8.67431 8.98604 5.87634 8.45473 5.4293 6.39802 5.59619 4.70185 4.83139 4.33823 4.30291 4.06496 3.88681 3.84296 3.67468 6.94445 4.65513 6.74778 4.56951 4.32691 8.22754 4.21526 4.2147 3.84023 4.06511 5.37543 3.61399 4.37816 4.07867 3.89905 5.17811 4.32501 3.55195 4.31103 3.76472 3.52997 3.38697 3.28238 3.18854 3.15252 4.20876 3.86148 5.5737 3.11812 3.08321 3.0493 4.46082 4.40366 3.03603 4.09953 4.60283 9.81238 4.35616 5.37248 4.24341 3.91877 4.0974 3.8689 3.77048 3.69531 3.6584 3.36524 3.86094 3.42236 4.89411 3.26036 3.00957 3.85975 2.93968 3.06148 2.92147 3.19723 2.8219 3.97998 3.69697 4.98404 4.0588 3.49111 4.60934 3.3623 2.97686 2.94517 2.86555 2.85509 2.93748 2.81848 2.98895 2.70684 4.09579
threshold=4.5000000000000009 94402.000000000015 94406.000000000015 50.108224868774421 2.5000000000000004 20.500000000000004 185344.00000000003 18.500000000000004 20.500000000000004 22.500000000000004 4.5000000000000009 126875.50000000001 58.387445449829109 12.500000000000002 14.500000000000002 200859.50000000003 9.5000000000000018 184240.50000000003 145532.00000000003 26.500000000000004 19.500000000000004 20.500000000000004 13.500000000000002 29.500000000000004 140009.00000000003 5.5000000000000009 5.5000000000000009 136640.00000000003 133250.50000000003 50.500000000000007 4.5000000000000009 66.452991485595717 68.947822570800795 139743.50000000003 143234.50000000003 14.500000000000002 140682.50000000003 11.500000000000002 14.500000000000002 5.5000000000000009 31.500000000000004 37.500000000000007 159886.50000000003 1.0000000180025095e-35 168625.00000000003 185464.50000000003 14.500000000000002 145532.00000000003 30.500000000000004 10.500000000000002 5.5000000000000009 96.720428466796889 5.5000000000000009 4.5000000000000009 4.5000000000000009 153804.00000000003 33.500000000000007 8.5000000000000018 9.5000000000000018 95.916667938232436 13.500000000000002 41.500000000000007 86.356163024902358 164523.00000000003 36.500000000000007 81.83014297485353 92.206478118896499 9.5000000000000018 24.500000000000004 80.298576354980483 183085.50000000003 140009.00000000003 134121.50000000003 95.916667938232436 5.5000000000000009 29.500000000000004 39.500000000000007 40.500000000000007 27.500000000000004 10.500000000000002 143623.50000000003 23.500000000000004 81.405803680419936 160524.00000000003 42.500000000000007 98.913043975830092 67.556819915771499 143242.50000000003 24.500000000000004 139777.00000000003 160524.00000000003 12.500000000000002 4.5000000000000009 140009.00000000003
decision_type=2 2 2 2 2 2 2 2 2 2 2 2 2 2 2 2 2 2 2 2 2 2 2 2 2 2 2 2 2 2 2 2 2 2 2 2 2 2 2 2 2 2 2 2 2 2 2 2 2 2 2 2 2 2 2 2 2 2 2 2 2 2 2 2 2 2 2 2 2 2 2 2 2 2 2 2 2 2 2 2 2 2 2 2 2 2 2 2 2 2 2 2 2 2
left_child=1 -1 3 16 14 12 7 18 -9 10 -10 -12 13 -6 -5 31 17 37 -7 21 23 22 43 92 -23 -26 71 -22 -28 30 -30 33 -33 -14 35 36 50 39 -39 75 -8 -42 -41 -18 46 -46 -27 -48 -32 -50 51 52 -34 65 55 56 -55 73 59 -59 61 64 -63 -57 66 -36 68 -68 -60 -70 -69 72 -25 74 -56 -3 -77 78 79 80 88 85 86 87 -79 -81 -80 -84 89 -13 91 -73 -21 -94
right_child=-2 2 -4 4 5 6 40 8 9 -11 11 77 15 -15 -16 -17 19 -19 -20 20 27 24 -24 26 25 44 28 -29 29 -31 48 32 34 -35 53 -37 -38 38 -40 42 41 -43 -44 -45 45 -47 47 -49 49 -51 -52 -53 -54 54 57 63 -58 58 60 -61 -62 62 -64 -65 -66 -67 67 70 69 -71 -72 90 -74 -75 -76 76 -78 84 82 81 -82 -83 83 -85 -86 -87 -88 -89 -90 -91 -92 -93 93 -95
leaf_value=-0.14256781395234996 -0.14256781395234996 0.19103335982715136 -0.14256781395234996 0.07494855893272373 0.017734791808956051 0.048692931239304432 0.19179716393326057 0.2495305807098688 0.16667374002496493 0.16667374002496493 0.18634386203289044 0.047977976344217105 0.075868764225760985 0.166526219962019 -0.11400859765741365 -0.011397728000606436 0.16247254028190627 0.17956323463392815 -0.10499742530119603 0.1209231390601192 0.12120243714731432 0.15606046541682145 0.014298637743589358 0.18846656876182141 0.23526972939198643 -0.052344358601073109 0.17612902835347144 0.21026500563912418 0.0020875141914060589 0.018554277049491138 0.019699657192908036 0.015200676500593686 0.045028196317012076 0.22057691167316107 0.26244772113829695 0.020557943918557385 0.24496253525592163 0.21471120749044414 0.11918003299794167 0.074638071229065711 0.043218702345757753 0.18974608060822612 -0.045127320015871823 0.26540602929264739 0.2028240887463226 0.042867306722026592 0.10376605426445602 -0.072072330458012854 0.18469233084405884 0.10519342539939665 0.13152408647832872 0.20560446479490371 0.17531532608745859 -0.12510462248582041 0.19689130463233642 0.20316933844205784 0.13172989649688277 0.097445103879147413 0.0075087058774294009 -0.048352852301582157 0.16585717033777303 0.056108241571663747 0.20794422762269318 0.070931156138824142 -0.0039967375262231963 0.1344354939415264 0.049720944771703357 0.18899629072706431 0.20505829461978731 0.033376392764006189 0.064320459822314893 0.23552168119472094 0.025994452748976944 0.20886491848843952 0.058403971378377856 0.010845055013591599 0.15056136949278115 0.20422908090801309 0.052401083018677068 0.03450305804319196 0.02435664562525747 0.017902441434214406 0.047154583538768766 0.15245175385773257 0.074953405615413179 0.15928418551825738 -0.073313351274894384 -0.04803666640902509 0.25245693258122454 0.2011143547759866 0.13176294759859117 0.13288898042856637 0.11105639072620324 0.24559246050898415
leaf_weight=185.5547636449337 338.43848538398743 4.6067517995834368 25.969289720058441 2.2225269675254813 7.6375021636486036 4.492052197456359 11.320278167724611 3.1219490915536872 7.036665827035903 7.036665827035903 3.7520616054534903 2.4870767742395419 2.5583060979843131 3.055327832698822 2.6803227514028549 2.193763703107833 8.3886774480342847 10.0312322974205 2.5507984757423401 4.3456010371446636 6.4721595644950858 11.51383852958679 2.3185003846883765 2.5808528363704708 3.0366356670856502 3.888582423329356 6.9087630808353415 29.679161667823792 3.8563172072172227 5.8469164818525305 2.2882589548826244 3.4724498987197867 4.4196196049451828 8.1612729132175428 2.5935475677251842 3.4209507703781119 4.2035243809223166 5.3550205379724494 40.07454876601696 13.938541144132616 4.0717257410287848 2.5752527564764023 2.7378568798303595 4.6929582953453055 3.0346274226903907 3.591988280415535 8.067775219678877 2.321354240179061 9.3185243755579013 10.238500654697416 77.386564254760742 15.360321924090385 6.2812023311853409 3.2161288559436825 2.8054661750793439 2.7748086452484122 2.7676324099302292 4.3498701304197294 6.1584246009588259 3.6893482059240341 13.062850341200827 2.3274670094251615 6.0156830102205276 9.671128958463667 3.9204185456037512 16.036224350333214 4.3691222965717325 8.9780703634023649 3.0229053944349289 3.6840430200099945 2.7369000166654596 9.5142245292663592 3.3733606338500977 7.8954652100801468 3.7036127150058746 2.9932124614715576 3.6171588152647018 2.769236743450163 2.9230208098888379 3.1843424290418652 3.3869968950748444 12.365201383829115 18.0441701412201 3.6088340282440177 7.3563522398471832 4.7844974398612976 5.1414001286029816 3.8343861550092688 2.7138303369283676 2.5236536413431168 8.6141791641712171 4.043545424938201 2.9931674003601065 9.2746012955903989
leaf_count=886 1616 20 124 10 34 20 48 13 30 30 16 11 11 13 12 10 36 43 12 19 28 50 10 11 13 17 30 125 17 26 10 15 19 35 11 15 18 23 173 61 18 11 12 20 13 16 35 10 40 44 334 66 27 14 12 12 12 19 27 16 57 10 26 42 17 69 19 39 13 16 12 40 15 34 16 13 16 12 13 14 15 55 80 16 32 21 23 17 12 11 37 17 13 39
internal_value=0 0.0566471 0.112873 0.123378 0.112713 0.114567 0.09257 0.0811982 0.0876618 0.0822249 0.0753081 0.0671571 0.125139 0.0602499 -0.0283518 0.128015 0.139275 0.121182 -0.00697105 0.148135 0.157727 0.125626 0.171532 0.141826 0.105686 0.0814593 0.130119 0.19432 0.108602 0.0938141 0.110935 0.129294 0.12663 0.186041 0.128351 0.141679 0.145528 0.113195 0.130441 0.0851059 0.157832 0.0999881 0.0549755 0.199399 0.0591162 0.116119 0.03266 0.0644766 0.13015 0.143073 0.141487 0.171073 0.121505 0.11534 0.108112 0.0657617 -0.00631253 0.118286 0.106829 0.0305357 0.11813 0.103002 0.165587 0.100414 0.0871163 0.152257 0.0994551 0.129948 0.0613331 0.110756 0.159869 0.159541 0.096418 0.167847 0.118093 0.1299 0.0872971 0.0612042 0.0535545 0.0791151 0.125499 0.0537685 0.0295985 0.0477431 0.110309 0.109422 -0.027747 0.0304716 0.169847 0.125105 0.176492 0.204912 0.188744 0.212768
internal_weight=0 842.995 657.44 631.471 377.913 373.01 121.08 103.113 96.0703 92.9484 85.9117 78.8751 251.93 10.6928 4.90285 241.237 253.557 83.3543 7.04285 170.203 119.348 50.8549 15.4001 83.1968 35.4548 23.941 66.5834 36.1513 38.4573 31.5485 25.7016 239.043 228.324 10.7196 224.851 111.072 107.651 73.3231 45.4296 27.8935 17.9673 6.64698 16.6764 13.0816 20.9043 6.62662 14.2777 10.3891 21.8453 19.557 103.448 26.0611 10.7008 113.779 95.1493 18.4297 5.98376 76.7196 62.3151 8.03922 54.2759 41.213 8.34315 12.4459 32.8699 18.6298 28.9495 16.0841 12.8654 6.70695 11.715 28.1262 5.95421 14.4045 6.50908 11.2171 6.61037 75.123 64.9974 31.4456 11.1116 20.334 33.5518 25.4874 10.1256 7.96884 8.06442 21.8786 7.72456 5.01073 22.1719 13.5578 16.6134 12.2678
internal_count=5360 3744 2858 2734 1642 1620 530 453 421 408 378 348 1090 47 22 1043 1092 361 32 731 511 220 66 358 154 104 287 153 167 137 111 1033 987 46 972 479 464 318 196 122 77 29 73 56 91 29 62 45 94 84 446 112 46 493 413 80 26 333 271 35 236 179 36 54 143 80 126 70 56 29 51 120 26 62 28 49 29 332 288 139 49 90 149 113 44 35 36 97 34 22 94 57 71 52
is_linear=0
shrinkage=0.1


Tree=2
num_leaves=95
num_cat=0
split_feature=2 7 7 8 4 1 1 5 6 5 3 1 3 3 8 5 8 1 3 3 1 3 3 1 5 3 3 8 3 8 8 5 1 3 3 5 8 8 0 3 3 3 6 8 8 1 8 1 3 1 0 8 5 3 5 5 1 1 1 6 5 3 3 6 5 1 5 1 8 1 5 8 8 5 3 3 3 1 3 3 3 3 1 6 1 1 0 1 3 3 1 3 3 3
split_gain=811.842 770.856 140.957 8.12555 7.64192 6.57981 19.5958 6.21871 5.95994 7.51687 4.52291 4.15939 4.74643 4.47389 4.58646 3.93262 5.01411 4.31348 4.00574 6.30615 5.64707 4.79532 3.9105 3.8866 3.60689 3.45357 3.22376 4.12665 3.06046 3.0549 3.01026 3.0733 3.83431 3.32762 4.36542 2.92761 2.89798 3.81901 4.95861 5.19581 4.91089 2.86887 3.51616 3.79797 7.48581 4.24492 5.5516 5.14487 3.10224 2.85297 2.63573 2.61144 2.523 2.83358 2.4956 2.22407 2.21925 2.18937 3.44658 2.67271 3.77227 2.39171 2.42115 2.16889 2.06475 2.36017 6.34452 3.37603 2.05981 2.00016 6.91911 4.60752 4.88314 4.16346 6.12828 2.41178 4.37567 2.2548 2.23464 4.58664 1.98876 1.98051 1.97438 1.95398 3.16824 6.1327 4.22762 2.23317 2.03086 1.98774 3.80772 3.10398 6.31878 2.89578
threshold=4.5000000000000009 94402.000000000015 94406.000000000015 47.633054733276374 2.5000000000000004 1.0000000180025095e-35 20.500000000000004 20.500000000000004 4.5000000000000009 22.500000000000004 126875.50000000001 22.500000000000004 198345.00000000003 182894.00000000003 92.880565643310561 8.5000000000000018 20.02506256103516 26.500000000000004 139777.00000000003 134121.50000000003 49.500000000000007 134897.50000000003 143234.50000000003 35.500000000000007 14.500000000000002 142832.50000000003 129101.50000000001 58.387445449829109 134123.50000000003 88.380489349365249 13.563218116760256 6.5000000000000009 41.500000000000007 140681.50000000003 143606.50000000003 20.500000000000004 62.899168014526374 71.62280654907228 10.500000000000002 140210.50000000003 143608.50000000003 139006.50000000003 8.5000000000000018 95.199695587158217 90.662551879882827 37.500000000000007 76.961540222167983 42.500000000000007 143237.50000000003 39.500000000000007 10.500000000000002 93.40579986572267 6.5000000000000009 126875.50000000001 21.500000000000004 17.500000000000004 33.500000000000007 33.500000000000007 39.500000000000007 9.5000000000000018 20.500000000000004 143240.50000000003 145121.50000000003 13.500000000000002 1.5000000000000002 27.500000000000004 4.5000000000000009 42.500000000000007 85.634922027587905 26.500000000000004 10.500000000000002 89.147258758544936 95.916667938232436 15.500000000000002 141718.50000000003 174173.50000000003 180295.00000000003 27.500000000000004 143236.50000000003 160524.00000000003 140209.00000000003 133250.50000000003 29.500000000000004 12.500000000000002 20.500000000000004 1.0000000180025095e-35 10.500000000000002 18.500000000000004 139541.50000000003 139542.50000000003 23.500000000000004 175955.50000000003 145532.00000000003 143236.50000000003
decision_type=2 2 2 2 2 2 2 2 2 2 2 2 2 2 2 2 2 2 2 2 2 2 2 2 2 2 2 2 2 2 2 2 2 2 2 2 2 2 2 2 2 2 2 2 2 2 2 2 2 2 2 2 2 2 2 2 2 2 2 2 2 2 2 2 2 2 2 2 2 2 2 2 2 2 2 2 2 2 2 2 2 2 2 2 2 2 2 2 2 2 2 2 2 2
left_child=1 -1 3 15 24 36 -7 11 23 10 -10 13 26 14 25 16 30 83 19 54 21 -21 -20 51 -5 68 52 50 29 -12 31 33 -33 49 82 -23 -6 -38 -39 -40 -41 -30 43 44 45 46 48 -47 -43 -3 -28 -9 53 -13 -19 -54 -11 59 -59 -24 -61 -60 -63 64 -36 -66 -67 -68 -8 70 75 80 -73 74 -74 -29 -77 78 -71 -80 -72 -79 -35 84 85 86 -17 -85 -88 -86 -91 92 93 -92
right_child=-2 2 -4 4 5 6 7 8 9 56 28 12 -14 -15 -16 17 -18 18 22 20 -22 35 57 -25 -26 -27 27 69 41 -31 -32 32 -34 34 63 -37 37 38 39 40 -42 42 -44 -45 -46 47 -48 -49 -50 -51 -52 -53 55 -55 -56 -57 -58 58 61 60 -62 62 -64 -65 65 66 67 -69 -70 77 71 72 73 -75 -76 76 -78 81 79 -81 -82 -83 -84 87 89 -87 88 -89 -90 90 91 -93 -94 -95
leaf_value=-0.13691178429164699 -0.13691178429164699 0.11415017873582983 -0.13691178429164699 0.065784128681489293 -0.061622413556587631 0.2275519025514039 -0.11890562607147315 0.036950956941899177 0.16650912186621133 0.20235457656799141 -0.057257915718839994 0.19726428486713954 0.054299223045808191 0.19351762167860564 0.096392005247805557 0.018904957242104357 0.18738056295181191 0.14256807181715603 0.18600561395091225 0.030273089175277202 -0.071371937570904528 0.08694121184970259 0.17931100112392556 0.23971319328052534 -0.10698796927783444 0.062325901756004699 -0.039378990338381076 0.14310412080016374 0.15042334087513157 0.048310546877912641 -0.0032281187769851657 0.093120778324643119 -0.038869362612464625 0.082740357069314791 0.17289642915743186 0.18608682211643449 0.1785471641563052 -0.02775875383800119 0.20156409381212628 -0.073445308106366181 0.096348998013007919 0.066447303232288965 0.025691814120983765 0.10156779019356479 -0.079404221341031908 0.24767215568246137 0.090463348433219709 0.045065997533997038 -0.079842058855390016 0.19189129455190224 0.080759056332134677 0.16231823806067455 0.25385736526121983 0.0534878831379096 0.25303168714080626 0.13592323961194408 0.090755843062041527 0.094564746535977115 0.090356377012773992 0.027239301070023654 0.19362428182597202 0.23537064441534811 0.14824593662505303 0.17722454090250539 0.132611898359692 -0.035406229382472239 0.203357741282858 0.039629562059891627 0.011278327781855679 0.22216938257201344 -0.070610115027247553 0.21701559248329821 -0.12161858883304755 0.13109359030034523 0.099899428082687383 -0.017005748865246209 0.16708541079716405 0.054002561354610727 0.02969030221837414 0.21283374165982863 0.037568268714978835 0.12126515913150948 -0.032395027204946483 0.069425726736337082 0.12059072588301377 0.23568268824112262 0.077967964422123337 0.1789088718211555 0.19656718307071111 0.0077883138327974515 0.060569309249201869 0.18828695205780768 -0.032899050293450569 0.17259090686569925
leaf_weight=174.46851253509521 318.21796417236328 17.859938576817516 24.417715072631836 2.2758539021015158 2.2186774760484722 12.305458024144171 2.5370326936245 2.8996298164129239 4.1360607445240012 5.3485765159130079 4.0943566411733618 2.4326739609241468 13.161903440952299 2.5534001141786566 11.440449640154839 4.3052901178598386 6.2035148888826361 14.179326325654985 23.342700585722923 7.2957531064748826 2.3072993457317343 6.3931957185268384 19.628488630056385 3.4039024412631989 2.5760467946529388 4.9072175621986389 2.5304455906152707 23.208106711506847 3.910971224308013 8.2935867011547071 3.079927146434783 6.1846449524164182 3.4168806374073029 2.3930199891328838 2.6319344192743364 5.5757605135440826 2.3492079526186016 6.3087839484214792 2.7825372964143753 2.4925659894943237 5.3800456076860428 2.2572750151157477 19.123972192406654 27.502010032534599 3.9030355364084235 2.6429264843463889 10.853413149714468 2.383796215057373 4.0513693690299988 6.4165477603673926 6.5613349676132202 3.8913660645484924 4.0534569472074509 3.1401833742856979 2.3899264633655539 2.6409150213003159 2.6721766144037247 20.036854431033134 5.0261195898056057 3.090811312198638 2.4369995892047882 4.1501018553972271 13.781908005475996 3.534759894013404 5.0010807812213889 4.7070856392383558 2.6637793630361557 2.3887493908405304 2.3330349326133728 4.3427352309226972 3.2919244319200525 2.3684829771518698 2.3768810480833054 4.0538279116153717 2.6315894275903702 2.8047214001417151 2.392580583691597 4.5396115183830252 2.596274808049202 2.8891645818948746 3.5129352062940598 122.61969496309757 3.9443432092666626 2.5855769217014295 9.079253286123274 4.3878670930862418 2.41860531270504 6.6671544313430786 3.5824353992938995 7.7020202577114132 4.4849321842193621 2.8344454765319815 3.9508845508098593 4.7533113956451416
leaf_count=886 1616 75 124 10 10 50 11 12 17 22 18 10 57 11 48 18 26 59 96 31 10 27 81 14 12 21 11 97 17 36 13 26 15 10 11 23 10 28 12 11 23 10 83 118 17 11 47 10 18 27 28 16 17 13 10 11 11 83 21 13 10 17 57 15 21 20 11 10 10 18 14 10 10 17 11 12 10 19 11 12 15 513 17 11 38 18 10 28 15 33 19 12 17 20
internal_value=0 0.0504098 0.098956 0.107833 0.0987746 0.100338 0.103502 0.0991808 0.0796266 0.0722832 0.0642849 0.108183 0.112511 0.0684607 0.053411 0.121659 0.101528 0.129266 0.139331 0.112105 0.0764693 0.094176 0.150681 0.152502 -0.0259467 0.00311866 0.116249 0.113085 0.0595352 0.013419 0.0932348 0.0980939 0.0461496 0.10777 0.0837942 0.133128 0.0466173 0.0590518 0.0425037 0.0841053 0.04259 0.0669904 0.0625032 0.0756386 0.0483081 0.0707729 0.0471014 0.151591 -0.0274987 0.134698 0.047322 0.108789 0.165955 0.116249 0.158501 0.207333 0.165175 0.138581 0.124871 0.162013 0.100592 0.151322 0.16841 0.105814 0.0913007 0.0767517 0.0481274 0.12595 -0.0565402 0.116341 0.0984546 0.0503838 0.0891671 0.0557532 -0.00522687 0.129315 0.0677407 0.122431 0.168578 0.126151 -0.0147642 0.118864 0.0110807 0.106274 0.098084 0.136673 0.09452 0.148315 0.148768 0.0807989 0.0655715 0.093346 0.0729424 0.118207
internal_weight=0 847.678 673.209 648.791 391.978 387.126 365.594 353.289 111.368 101.174 93.1528 241.921 218.149 23.7711 21.2177 256.813 70.4262 186.387 129.635 38.1413 21.572 19.2647 91.494 10.1949 4.8519 9.77729 204.988 192.72 89.0167 12.3879 64.2227 61.1428 9.60153 51.5412 27.2648 11.969 21.5318 19.3131 16.9639 10.6551 7.87261 76.6288 72.7178 53.5938 26.0918 22.1888 17.1621 5.02672 6.30864 24.2765 9.09178 6.791 12.2672 5.57286 16.5693 6.69437 8.02075 68.1513 42.995 25.1563 5.52781 22.9581 17.932 20.9274 17.3926 14.7607 9.75961 5.05253 4.87007 183.629 46.641 18.2356 11.4308 9.0623 5.00847 28.4054 5.1973 136.987 9.82817 5.48544 6.80486 127.159 6.33736 56.7518 47.499 14.6942 10.3063 9.25273 6.00104 32.8048 23.7256 16.0236 13.1891 9.23824
internal_count=5360 3744 2858 2734 1660 1638 1544 1494 477 435 402 1017 916 101 90 1074 297 777 538 160 91 81 378 42 22 42 859 808 385 54 271 258 41 217 115 50 94 84 74 46 34 331 314 231 113 96 75 21 28 102 39 28 51 23 69 28 33 282 178 104 23 95 74 88 73 62 41 21 21 769 196 77 48 38 21 119 22 573 41 23 29 532 27 239 200 61 43 39 25 139 101 68 56 39
is_linear=0
shrinkage=0.1


Tree=3
num_leaves=95
num_cat=0
split_feature=2 7 7 8 4 1 1 5 6 5 1 3 1 3 3 1 8 3 0 0 3 8 1 5 5 1 6 3 1 3 8 3 6 5 1 5 3 3 3 3 8 8 5 3 5 5 8 1 3 5 6 3 3 1 5 8 3 1 1 6 1 8 6 1 8 1 1 1 3 0 0 1 1 1 3 1 1 8 8 5 1 0 8 1 5 3 3 1 3 3 8 1 5 8
split_gain=693.314 636.816 114.262 6.43804 5.97273 5.08744 15.4275 4.77227 4.71266 5.93378 3.4621 3.50893 3.16637 3.04543 3.70718 2.98647 2.9786 4.49898 3.46304 2.97126 2.91398 2.90414 2.62112 4.12427 3.79909 3.32832 4.08737 3.23416 3.02916 2.74478 3.38183 2.83285 2.69565 2.62044 3.5936 4.39329 2.58958 6.69166 3.99257 3.77335 3.74982 2.5706 2.53466 2.75388 2.415 3.15534 3.07641 2.77683 3.08869 2.41188 2.40516 4.24903 2.35541 2.69926 3.79812 2.42182 2.34511 2.26817 2.23178 2.18187 2.12803 2.12397 2.09028 2.58678 2.03297 2.00319 1.97105 1.96279 1.95496 6.39342 2.5654 2.35935 1.98708 2.52189 2.03472 1.95804 2.06715 1.94297 2.47634 2.40662 1.94177 1.9171 1.87023 2.09031 1.85817 2.87262 1.85281 3.53339 1.81267 2.00798 2.98286 1.79875 1.79759 1.75646
threshold=4.5000000000000009 94402.000000000015 94406.000000000015 50.108224868774421 2.5000000000000004 1.0000000180025095e-35 20.500000000000004 20.500000000000004 4.5000000000000009 22.500000000000004 22.500000000000004 198345.00000000003 26.500000000000004 129101.50000000001 134123.50000000003 35.500000000000007 92.880565643310561 142832.50000000003 10.500000000000002 9.5000000000000018 184240.50000000003 58.387445449829109 26.500000000000004 19.500000000000004 18.500000000000004 30.500000000000004 12.500000000000002 150032.50000000003 29.500000000000004 134123.50000000003 10.01253128051758 198316.00000000003 5.5000000000000009 15.500000000000002 37.500000000000007 6.5000000000000009 140210.50000000003 139777.00000000003 163105.50000000003 139006.50000000003 80.741760253906264 62.533422470092781 15.500000000000002 140210.50000000003 11.500000000000002 14.500000000000002 7.0197043418884286 43.500000000000007 140210.50000000003 12.500000000000002 5.5000000000000009 142832.50000000003 133250.50000000003 50.500000000000007 4.5000000000000009 8.3570075035095233 177797.50000000003 37.500000000000007 29.500000000000004 12.500000000000002 36.500000000000007 93.288288116455092 6.5000000000000009 27.500000000000004 93.40579986572267 25.500000000000004 25.500000000000004 32.500000000000007 143242.50000000003 10.500000000000002 10.500000000000002 30.500000000000004 33.500000000000007 26.500000000000004 143237.50000000003 33.500000000000007 27.500000000000004 92.64068984985353 86.040294647216811 11.500000000000002 53.500000000000007 10.500000000000002 98.913043975830092 29.500000000000004 4.5000000000000009 140009.00000000003 138384.50000000003 35.500000000000007 175869.00000000003 149493.00000000003 92.206478118896499 30.500000000000004 21.500000000000004 85.634922027587905
decision_type=2 2 2 2 2 2 2 2 2 2 2 2 2 2 2 2 2 2 2 2 2 2 2 2 2 2 2 2 2 2 2 2 2 2 2 2 2 2 2 2 2 2 2 2 2 2 2 2 2 2 2 2 2 2 2 2 2 2 2 2 2 2 2 2 2 2 2 2 2 2 2 2 2 2 2 2 2 2 2 2 2 2 2 2 2 2 2 2 2 2 2 2 2 2
left_child=1 -1 3 19 12 50 -7 10 15 13 16 21 -5 91 61 64 17 93 -19 20 44 49 24 28 27 26 -25 42 84 -26 31 -31 33 34 35 -30 37 39 41 -16 -40 -38 43 -21 46 -46 47 65 -49 -12 88 -52 -34 54 -54 -56 -53 -35 -39 -47 -22 -15 63 -11 -9 -3 -42 -37 70 -70 71 -43 73 -72 -74 76 -71 78 -13 -79 -55 -41 -68 -84 -24 -86 87 -27 89 90 -6 -10 -88 -8
right_child=-2 2 -4 4 5 6 7 8 9 62 11 77 -14 14 36 -17 -18 18 -20 22 60 -23 23 25 29 86 -28 -29 32 30 -32 -33 52 57 -36 67 38 58 40 81 66 68 -44 -45 45 59 -48 48 -50 -51 51 56 53 80 55 -57 -58 -59 -60 -61 -62 -63 -64 -65 -66 -67 82 -69 69 75 72 -73 74 -75 -76 -77 -78 79 -80 -81 -82 -83 83 -85 85 -87 92 -89 -90 -91 -92 -93 -94 -95
leaf_value=-0.13218880860197033 -0.13218880860197033 0.02187132098437912 -0.13218880860197033 0.056818808370239074 0.025979219198383852 0.20174678760510792 -0.11102903575366208 0.033037293840564343 0.082516273736528367 0.17834010568998021 0.0015752022479120602 0.039547120588682018 -0.10582650576113006 -0.059651770425555674 0.13020547156267415 0.20993459578817966 0.091818889276914006 0.01812956228529659 0.17212506537177386 0.11037169549372215 0.17770845906031096 0.10480431686918641 0.093164269145915857 0.046798552242900006 0.14753362083306154 0.19984174429143745 0.2002244221105024 0.17016394059292037 0.027031178799966513 0.091646505277891588 -0.02788947290247891 -0.028779583619639854 0.1355730505416162 0.1296238841948785 0.17597960623864067 0.22337684920216969 -0.069759514286340946 0.12857667351977825 -0.01337449621109367 -0.043932503885751942 0.15231967726629464 0.14438751447464601 0.1742719531124739 0.027511402641758623 0.16928310637182045 0.080053610058998428 0.1294155359944586 0.071566848478229694 -0.073057864530632649 0.11863498864588813 0.10542873860272733 -0.11333714018862591 -0.0045301105215597394 -0.046797772538902493 0.11783297579416879 0.034956569816832761 0.014458319275158 0.0078119650399280441 0.25779312748475486 0.14267514396007344 0.085946998508465697 0.03576936484791967 0.21690697487693111 0.040578983739671642 0.14297874229786015 0.092430372760661322 0.14019024456236112 0.10657309872199881 -0.089770092609225735 0.038806262970793926 0.053121633429406429 0.036434813554796344 0.018380919294319405 -0.050850897132208722 0.14111042586012354 -0.023915857309227538 0.15397889231406275 0.055450195450416934 0.16839025256358209 -0.071630576572211613 0.067617420400281375 0.054087706207804155 -0.019595507785565524 0.088658106100899636 0.084263134299817036 0.19418957921012089 0.19020221877239291 0.04398765571742147 0.13783650830837912 -0.014459175855393342 0.15899640053221212 0.18989146272317553 0.1165535800301853 0.010120531358598901
leaf_weight=163.21094670891762 297.68497729301453 6.2744269520044424 22.842164099216461 2.4144945442676535 4.2306393086910266 12.234632834792135 2.4498659074306488 2.9177816212177259 4.3156518042087546 2.7368146926164609 5.0462078452110282 3.974008768796919 2.3736773133277893 4.2783916443586332 4.0576038509607342 3.4921151399612427 12.864305809140205 3.799531951546669 2.3719089478254318 12.202687993645677 6.3977342098951322 199.07674264907837 4.5765674412250545 5.6848245561122877 3.4198447763919857 2.680342078208926 2.4999879002571106 8.8257838785648328 4.8805465698242241 12.532465651631357 4.2939066886901847 2.314038321375846 7.3502857536077491 2.9293841719627371 12.533161595463751 2.4639073759317398 2.4207076281309119 3.0741380006074897 3.2846388965845135 3.4849027246236783 5.5439569354057339 4.7935685664415359 3.6673346161842337 5.9749515801668158 5.678839147090911 35.485660150647163 5.5971476584672919 2.5703496634960166 3.4705609977245331 2.7028726190328598 2.6012556403875333 2.8354904502630234 3.9171151071786907 2.8900047540664664 18.505430266261104 4.3559653759002677 2.9091598093509674 3.1967204362154007 2.3649192899465561 6.5985244661569586 4.1775641143321991 5.1293772011995316 2.7312870472669601 2.715401366353035 3.9709606468677521 11.216347888112066 3.575820088386533 3.4574638456106186 4.5672159343957874 3.9937363415956497 4.6831140071153623 3.5047525614500046 2.8043772876262674 4.6484713405370712 2.6062769293785095 2.2763500064611435 2.5555801093578339 4.1818691194057465 2.3881680816411972 2.315254807472229 3.0473960489034653 4.6681061834096909 2.6453831493854523 5.4761432260274887 3.1453405022621146 9.7348047345876676 19.978747412562374 3.1809726059436798 2.8962891101837149 3.4168145954608917 2.8026646226644516 2.4434659630060196 3.9731242954730979 2.3395770937204361
leaf_count=886 1616 26 124 11 18 49 11 12 18 11 22 17 11 19 17 14 53 16 10 50 26 817 19 23 14 11 10 36 20 52 18 10 30 12 51 10 11 13 14 15 23 20 15 25 23 146 23 11 15 11 11 13 17 13 76 18 13 13 10 27 17 22 11 11 16 47 15 14 20 17 20 15 12 20 11 10 11 18 10 10 13 20 11 23 13 39 80 13 12 15 12 10 16 10
internal_value=0 0.04526 0.087694 0.0953079 0.0871954 0.0885611 0.0913388 0.0875366 0.0704287 0.0638578 0.0953884 0.0993151 -0.0238106 0.0566888 0.0516338 0.134601 0.0591813 0.0208761 0.0773156 0.107338 0.092243 0.102466 0.114747 0.122662 0.0961639 0.150146 0.0936613 0.119076 0.110655 0.0650146 0.0502709 0.0728764 0.101305 0.124267 0.139548 0.0972771 0.0588712 0.0925021 0.0488751 0.0514068 0.0845508 0.0300282 0.0984356 0.0831357 0.085474 0.0993139 0.0627804 0.0469308 -0.0115214 0.0424056 0.041502 -0.000606012 0.08442 0.0729274 0.0864527 0.102042 -0.04862 0.0660601 0.18476 0.0898723 0.14146 -0.00762551 0.145501 0.10973 0.0964122 0.0671189 0.103207 0.155176 0.0366583 0.00627551 0.0543191 0.0987943 0.0292843 0.00132836 0.0774989 0.0559784 0.0837473 0.04863 0.0879109 0.0101649 0.0119263 0.0121902 0.0799294 0.0533972 0.147898 0.167345 0.165653 0.115259 0.0678334 0.0484318 0.0789845 0.121333 0.177985 -0.0518491
internal_weight=0 845.72 682.509 659.667 393.986 389.198 367.506 355.271 111.761 101.38 243.51 219.685 4.78817 93.1966 86.4375 10.3809 23.8252 10.9609 6.17144 265.68 87.4672 206.826 178.213 124.982 53.231 37.998 8.18481 30.6708 86.9841 22.5603 19.1404 14.8465 69.5274 29.4612 23.3351 10.8019 77.0298 17.6497 59.3801 12.2106 20.5259 38.8542 21.845 18.1776 76.8919 47.763 29.1288 23.5317 6.04091 7.74908 21.6923 8.34591 40.0662 32.7159 26.7785 22.8614 5.74465 6.1261 5.43906 42.0842 10.5753 9.40777 8.1835 5.45222 6.88874 17.4908 17.2413 5.92137 36.4334 13.3929 23.0406 8.29832 14.7422 9.33159 5.41065 8.82567 6.54932 12.8593 6.36218 6.49712 5.9374 8.15301 11.6973 8.12153 17.4567 12.8801 29.8132 5.86131 13.3464 10.4501 7.0333 6.75912 23.9519 4.78944
internal_count=5360 3744 2858 2734 1642 1620 1526 1477 472 430 1005 905 22 397 369 42 100 47 26 1092 361 850 731 511 220 153 33 126 358 94 80 62 287 120 95 44 328 75 253 52 86 167 90 75 318 196 122 99 26 33 94 37 167 137 111 94 26 25 23 173 43 41 33 22 28 73 72 24 156 58 98 35 63 40 23 38 28 55 27 28 26 35 49 34 71 52 120 24 57 45 30 28 96 21
is_linear=0
shrinkage=0.1


Tree=4
num_leaves=95
num_cat=0
split_feature=2 7 7 8 4 3 1 1 5 6 5 6 3 5 1 1 5 6 5 8 8 3 5 3 8 8 5 5 0 1 3 1 3 3 1 5 5 3 8 5 1 1 5 6 8 3 8 3 1 1 1 1 0 8 1 5 3 3 3 8 3 8 5 3 3 1 3 5 6 6 8 3 3 5 6 1 6 5 8 1 8 1 3 5 3 1 3 0 3 1 3 0 3 6
split_gain=596.067 531.124 93.6937 5.23686 4.74581 4.10924 4.7285 13.3488 3.88189 4.30852 4.93661 3.35629 2.94428 2.94141 2.76598 2.58201 4.93659 4.49622 3.71878 3.92632 3.68127 3.54419 3.51052 3.48927 3.63646 3.37628 2.90929 2.88062 2.47434 2.45801 2.38602 2.27361 2.27131 2.79667 2.18569 3.49636 3.02013 2.81161 2.5835 2.52547 2.51276 2.35379 2.22917 2.18413 2.43787 2.15626 2.7189 2.33608 2.11242 3.36183 3.41792 2.03949 2.91404 2.40687 2.03794 2.11498 2.00883 5.10397 3.14878 2.94951 2.94559 2.09383 2.00447 2.02869 1.86725 2.57816 1.84577 1.94293 1.82802 2.62789 4.8177 2.43738 4.76267 1.88829 1.81834 1.86923 1.80911 1.74986 4.22004 4.72563 4.60997 3.13683 3.0534 2.86447 2.79735 6.44684 3.31226 4.27614 4.33221 3.91054 3.03789 2.75485 2.4943 2.564
threshold=4.5000000000000009 94402.000000000015 94406.000000000015 50.108224868774421 2.5000000000000004 129101.50000000001 1.0000000180025095e-35 20.500000000000004 20.500000000000004 4.5000000000000009 22.500000000000004 5.5000000000000009 134123.50000000003 14.500000000000002 39.500000000000007 26.500000000000004 10.500000000000002 14.500000000000002 14.500000000000002 89.147258758544936 95.916667938232436 140009.00000000003 11.500000000000002 198955.50000000003 55.497076034545906 89.913791656494155 6.5000000000000009 11.500000000000002 9.5000000000000018 35.500000000000007 175161.50000000003 27.500000000000004 159771.50000000003 143240.50000000003 26.500000000000004 19.500000000000004 18.500000000000004 136640.00000000003 11.776072502136232 15.500000000000002 29.500000000000004 25.500000000000004 11.500000000000002 5.5000000000000009 27.837044715881351 134123.50000000003 7.582566738128663 198316.00000000003 36.500000000000007 50.500000000000007 55.500000000000007 27.500000000000004 10.500000000000002 92.64068984985353 32.500000000000007 17.500000000000004 140210.50000000003 139777.00000000003 163105.50000000003 80.741760253906264 139006.50000000003 62.533422470092781 11.500000000000002 145532.00000000003 133254.00000000003 1.0000000180025095e-35 181860.00000000003 17.500000000000004 9.5000000000000018 4.5000000000000009 81.067951202392592 143238.50000000003 160524.00000000003 4.5000000000000009 6.5000000000000009 27.500000000000004 5.5000000000000009 10.500000000000002 79.391197204589858 30.500000000000004 82.114212036132827 46.500000000000007 143246.50000000003 5.5000000000000009 134507.00000000003 32.500000000000007 143247.50000000003 10.500000000000002 166536.50000000003 35.500000000000007 160214.50000000003 10.500000000000002 136640.00000000003 13.500000000000002
decision_type=2 2 2 2 2 2 2 2 2 2 2 2 2 2 2 2 2 2 2 2 2 2 2 2 2 2 2 2 2 2 2 2 2 2 2 2 2 2 2 2 2 2 2 2 2 2 2 2 2 2 2 2 2 2 2 2 2 2 2 2 2 2 2 2 2 2 2 2 2 2 2 2 2 2 2 2 2 2 2 2 2 2 2 2 2 2 2 2 2 2 2 2 2 2
left_child=1 -1 3 28 13 14 11 -8 15 29 12 -7 -11 -5 51 16 17 68 19 22 -21 25 -18 24 -17 -20 -25 -22 30 -10 32 -26 33 64 36 40 38 -37 39 41 -36 42 -30 44 -42 -38 47 -47 -45 -50 -51 52 -6 -53 55 -32 57 60 61 -60 -14 -58 -35 -64 -3 -66 67 -23 69 -9 -71 -72 -73 -74 75 -12 -48 81 79 -79 -80 83 91 92 85 -85 89 90 -89 -86 -88 -83 -33 -94
right_child=-2 2 -4 4 5 6 7 8 9 10 74 -13 56 -15 -16 23 18 -19 21 20 27 66 -24 26 31 -27 -28 -29 34 -31 54 77 -34 62 35 37 45 -39 -40 -41 43 -43 -44 48 -46 46 76 -49 49 50 -52 53 -54 -55 -56 -57 58 -59 59 -61 -62 -63 63 -65 65 -67 -68 -69 -70 70 71 72 73 -75 -76 -77 -78 78 80 -81 -82 82 -84 84 86 -87 87 88 -90 -91 -92 -93 93 -95
leaf_value=-0.1282030438179948 -0.1282030438179948 0.10626014715903574 -0.1282030438179948 0.058985037332609014 0.21610826847055684 0.060257938887025214 0.18334986397043901 0.14062540937140119 0.086197600397155197 -0.0069233138345928952 0.15609865222713759 -0.022972615590179882 0.11434268053262596 -0.098619459452462047 0.18881267103994925 -0.011049758257110985 0.024459820362712395 -0.043949486395260695 -0.080723665157589844 0.14780044283135826 0.052799645813508413 0.19292278315045652 -0.13091837141345955 -0.05654526695425776 0.14029119315413385 0.069712065715178295 0.071946749840809343 -0.083628330370839762 0.10546196754930258 0.1891176254164352 0.092208790195605142 0.19206503768387151 0.027313889678896072 0.073854463966704517 0.13264021509690596 0.077399899476245732 0.13045197748344584 0.14789854427791879 0.16380414787585093 0.15954760408049717 0.11949952952380892 -0.015609955391979262 0.01288404308468747 0.043960827251734093 0.01546849356613389 0.083829239627650917 0.040774808156388231 -0.026116126764525939 0.11374717624288083 -0.019904593740130726 0.1228186595950064 0.016452580750130848 0.095308341918010048 0.12770360557494551 0.081301301710307194 0.19856512964861381 -0.064365693877783833 0.16080796496015498 -0.012074598651879459 0.091318653236678454 0.01091398854109649 0.032731789382309605 0.17638643850238611 0.069911893968029756 -0.031565101470607031 0.066575522032197729 0.039995981238915429 0.091212011463275289 0.13061778985933056 -0.04390122539925722 0.11643625544278909 -0.050912641362332138 0.04094895653798189 0.16337858255362828 0.19414653124994141 0.036365796459787131 -0.082459794334321143 0.06774540620680343 -0.015881378670762877 0.20075642109646907 0.10036525213905374 0.14457791854064414 -0.051560527909543623 0.12402641036038278 0.076916725011877421 -0.073881773202036968 0.065687616161242982 0.007744177022129501 0.14678423815432712 0.17499528535849379 -0.082553070776937312 0.011838450773428037 0.12562686510251497 0.04876539035014707
leaf_weight=152.03132802248001 277.29416036605835 10.779547959566115 21.277522206306458 2.3108437359333029 2.9604069441556984 13.501955702900888 11.884292244911192 6.4276894479990032 6.9313976913690549 9.3723684996366483 2.4990186095237723 7.556586042046546 4.1527499258518246 2.428819015622139 4.7280752062797538 3.2563061565160742 2.617335081100463 2.3810173422098151 2.5163315981626537 2.4465583711862546 4.3903810381889343 2.9508094638586027 3.2717423141002655 2.8254464715719214 10.646541491150854 3.6645287871360779 4.6822537779808044 2.3902855962514877 14.746781438589109 3.4883532226085663 3.203751936554907 3.7110399901866939 8.930136561393736 6.0346854925155631 17.515926137566566 6.9151435345411292 3.477293252944949 31.095478683710098 6.1804257780313483 4.4764704108238211 27.2365837097168 2.4374885112047187 3.157897323369979 14.111801117658613 2.4557029455900183 12.208385840058328 2.3902926445007315 2.2960181534290305 19.175252690911297 4.4865295886993399 2.6803487241268158 4.4407349079847327 6.1358008086681366 3.4597322195768356 7.6125602871179581 4.4903322011232376 2.364233285188674 5.6123430579900733 3.2749580889940288 17.515697538852692 8.1722406446933729 36.629381954669952 6.729152634739874 2.4377256482839584 2.896558701992034 35.27747642993927 3.35372070968151 5.1664073616266251 11.811961099505423 3.2812804877758053 11.599906980991365 3.1661058813333494 2.3892350494861603 2.6649454385042191 2.7449742704629898 2.7263646721839905 2.3747111707925797 3.9603321552276602 3.6849849671125403 8.2049170881509763 45.956229731440544 2.7206874489784223 3.1831872761249542 2.959852695465087 10.389273226261141 3.7079159170389175 2.4470848143100712 3.6898811161518097 5.7067831307649612 6.6785350739955893 3.1773825287818909 3.6759845465421677 14.820857018232347 6.1373620629310599
leaf_count=886 1616 44 124 10 12 57 48 26 28 41 10 34 17 12 19 14 11 10 11 10 18 12 14 12 43 15 20 10 60 14 13 15 37 25 71 28 14 125 25 18 110 10 13 58 10 50 10 10 78 20 11 18 25 14 31 18 11 23 14 72 35 156 27 10 12 144 14 21 48 14 47 13 10 11 11 11 10 16 15 33 186 11 13 12 42 15 10 15 23 27 13 15 60 25
internal_value=0 0.0409201 0.0783634 0.0849687 0.0776879 0.0788879 0.0764135 0.0791819 0.0755214 0.0596083 0.0529174 0.0303917 0.0460237 -0.0217787 0.12116 0.0827345 0.0676809 0.089674 0.0383358 0.00193207 0.0426474 0.0695106 -0.0618623 0.090105 0.0934629 0.00846716 0.0235901 0.00470676 0.0957781 0.120653 0.0820837 0.0958026 0.0745647 0.0811419 0.102525 0.109743 0.0856472 0.135073 0.105953 0.091547 0.0987593 0.0765829 0.0891337 0.090299 0.110896 0.0579742 0.0448951 0.0664251 0.0751816 0.091907 0.0334726 0.10234 0.134623 0.0651711 0.117985 0.154279 0.0524085 0.081759 0.0436024 0.0750321 0.045763 0.0268446 0.118609 0.148072 0.0695071 0.0591288 0.102402 0.128186 0.0973699 0.0840705 0.0683348 0.0869157 0.0452584 0.105503 0.128246 0.0936276 -0.020641 0.0922892 0.104671 0.157455 0.091736 0.0818064 0.0284704 0.0898623 0.0729075 0.0139706 0.085154 0.050907 0.092186 0.115294 -0.0180567 0.0682963 0.116499 0.103119
internal_weight=0 838.724 686.692 665.415 397.604 392.865 371.14 350.081 338.197 105.484 95.0643 21.0585 87.094 4.73966 21.7248 232.713 76.4902 43.7221 32.7681 15.1163 9.22723 17.6518 5.88908 156.223 148.715 6.18086 7.5077 6.78067 267.81 10.4198 88.3919 145.459 73.0853 64.1551 179.419 125.673 53.7458 38.0106 30.9991 24.8186 87.6621 20.3422 17.9047 70.1462 29.6923 22.7467 19.2694 14.5044 40.4539 26.3421 7.16688 16.9967 9.09621 7.90047 15.3066 7.69408 77.7216 17.9373 59.7843 20.7907 12.325 38.9936 15.2016 9.16688 48.9536 38.174 11.4709 8.11722 41.3411 29.5292 23.1015 19.8202 8.22029 5.05418 7.97036 5.22538 4.765 134.812 61.8065 12.1652 49.6412 73.0058 9.57986 63.426 38.7567 6.66777 32.0889 15.0211 9.39666 17.0678 5.62447 6.39667 24.6693 20.9582
internal_count=5360 3744 2858 2734 1642 1620 1532 1441 1393 443 401 91 369 22 88 950 315 179 136 63 38 73 25 635 603 26 32 28 1092 42 361 589 299 262 731 511 220 153 126 101 358 83 73 287 120 94 80 60 167 109 31 69 37 32 62 31 328 75 253 86 52 167 62 37 200 156 47 33 169 121 95 81 34 21 32 21 20 546 250 49 201 296 39 257 157 27 130 61 38 69 23 26 100 85
is_linear=0
shrinkage=0.1


Tree=5
num_leaves=95
num_cat=0
split_feature=2 7 7 8 4 3 1 1 5 6 5 6 1 3 1 1 0 3 1 5 6 5 6 3 8 3 8 5 6 0 1 1 5 1 6 1 6 6 3 5 1 1 1 6 3 3 1 3 8 8 5 1 1 1 1 3 5 3 8 3 5 3 3 5 6 3 3 0 8 8 1 3 1 1 5 3 1 8 8 3 8 5 6 3 8 8 1 0 8 1 3 5 3 1
split_gain=515.276 446.394 77.5381 4.26901 3.80275 3.3149 3.82881 11.6046 3.12468 3.56159 4.1006 2.68368 2.59445 2.3513 2.26936 2.13643 2.08486 2.08048 2.06041 3.94276 3.60317 2.98252 3.5761 2.81442 2.91277 2.81293 2.75473 2.3372 2.26935 1.92702 1.8362 1.82423 3.05449 2.85579 4.20938 2.82423 3.46742 2.67124 3.3449 4.22143 2.73596 2.09485 2.07948 1.80127 2.32427 2.76983 2.1956 2.70152 1.9757 2.31746 2.67732 1.87432 2.45852 2.2853 2.21408 2.56788 1.8531 1.74763 1.74478 1.73282 3.65231 1.72839 3.9 1.70633 1.68636 2.7125 3.44635 2.94411 2.73868 3.93865 5.40166 3.35251 2.20694 5.45738 3.48798 2.66296 2.01315 1.88942 1.67909 2.49604 1.65081 1.63549 2.95788 2.62697 1.81177 5.02678 1.62415 2.37776 1.93856 1.59827 2.6042 2.14188 1.58737 1.91495
threshold=4.5000000000000009 94402.000000000015 94406.000000000015 50.108224868774421 2.5000000000000004 129101.50000000001 1.0000000180025095e-35 20.500000000000004 20.500000000000004 4.5000000000000009 22.500000000000004 5.5000000000000009 26.500000000000004 134123.50000000003 39.500000000000007 35.500000000000007 9.5000000000000018 185293.50000000003 26.500000000000004 10.500000000000002 14.500000000000002 14.500000000000002 8.5000000000000018 198955.50000000003 55.497076034545906 140009.00000000003 89.913791656494155 6.5000000000000009 5.5000000000000009 7.5000000000000009 27.500000000000004 26.500000000000004 19.500000000000004 20.500000000000004 13.500000000000002 30.500000000000004 12.500000000000002 13.500000000000002 139542.50000000003 5.5000000000000009 24.500000000000004 29.500000000000004 1.0000000180025095e-35 5.5000000000000009 140009.00000000003 134121.50000000003 42.500000000000007 160937.00000000003 22.649572372436527 8.3570075035095233 17.500000000000004 50.500000000000007 36.500000000000007 53.500000000000007 40.500000000000007 143246.50000000003 12.500000000000002 139545.00000000003 93.288288116455092 171603.00000000003 14.500000000000002 143236.50000000003 160524.00000000003 9.5000000000000018 8.5000000000000018 140210.50000000003 163105.50000000003 10.500000000000002 95.742755889892592 91.56504058837892 35.500000000000007 160524.00000000003 39.500000000000007 33.500000000000007 21.500000000000004 160214.50000000003 25.500000000000004 74.933155059814467 98.913043975830092 140448.00000000003 93.40579986572267 4.5000000000000009 4.5000000000000009 143234.50000000003 78.528137207031264 81.405803680419936 27.500000000000004 10.500000000000002 92.64068984985353 33.500000000000007 138384.50000000003 21.500000000000004 140009.00000000003 29.500000000000004
decision_type=2 2 2 2 2 2 2 2 2 2 2 2 2 2 2 2 2 2 2 2 2 2 2 2 2 2 2 2 2 2 2 2 2 2 2 2 2 2 2 2 2 2 2 2 2 2 2 2 2 2 2 2 2 2 2 2 2 2 2 2 2 2 2 2 2 2 2 2 2 2 2 2 2 2 2 2 2 2 2 2 2 2 2 2 2 2 2 2 2 2 2 2 2 2
left_child=1 -1 3 16 12 14 11 -8 18 15 13 -7 -5 58 86 80 17 29 19 20 81 22 28 24 -20 26 -23 -25 -21 -3 61 33 41 34 42 36 -34 38 -35 -40 59 63 -18 44 45 -43 47 56 49 50 51 52 -45 -53 57 -56 -46 -54 -11 60 -41 -26 -63 -33 65 92 68 -68 69 70 71 77 73 74 75 78 -69 -67 -66 -80 -10 82 -9 -84 -83 -86 87 -6 -88 -37 -91 -92 -15 -94
right_child=-2 2 -4 4 5 6 7 8 9 10 -12 -13 -14 64 -16 -17 31 -19 23 21 -22 25 -24 27 30 -27 -28 -29 -30 -31 -32 32 35 37 -36 89 -38 -39 39 40 -42 43 -44 48 46 -47 -48 -49 -50 -51 -52 53 54 -55 55 -57 -58 -59 -60 -61 -62 62 -64 -65 72 66 67 76 -70 -71 -72 -73 -74 -75 -76 -77 -78 -79 79 -81 -82 84 83 -85 85 -87 88 -89 -90 90 91 -93 93 -95
leaf_value=-0.12480950173346102 -0.12480950173346102 -0.019088859709122122 -0.12480950173346102 0.051353377972751517 0.19394237777121431 0.053621688972073325 0.16941636466300375 0.16296165929036835 0.020687976254824918 -0.054217758255763339 0.11630558962273566 -0.020828571174844077 -0.097868660758054157 0.060650538859964853 0.16997522939116966 0.17376210475972054 0.10424778734034733 0.11722564500530669 -0.0099715405238950342 0.0054654818320791915 -0.039914177619186343 -0.074382182692582996 0.084820457275757558 -0.051640098870965434 0.17078652559927052 0.09125331882132362 0.062175516220026261 0.063693468686025781 -0.089546456508673683 0.070909559345855772 0.082624277532946197 0.08801556033208513 0.028167814973933416 0.099716481092870873 -0.010021103844385943 0.18352442475066574 0.17075982924544666 0.13024641180824317 0.1531868567502146 -0.13334947716331888 0.059244839131915972 0.12223027546891146 0.18516087282320834 0.029134964006638508 0.15010877627221197 -0.010762479883551453 0.16255651099860935 0.035179964970162257 0.13992987690806744 -0.010096007648679841 0.12764527341555551 -0.06905031568356311 0.20207094575899492 0.062340973658881506 0.0078546358095388773 0.12855184309494855 0.064305934086316283 0.086350785579543121 0.032637532977300196 0.035742926122412304 0.0090767563606660474 0.0014316752124798097 0.16384743449373684 0.15049192133852302 0.13384983534502257 -0.058642184993166008 0.14628284338175862 0.11834587459144692 0.057360852857199787 -0.11726534997733756 0.13248785051355666 -0.1173803111831465 0.098542348902075305 -0.090382385534817644 -0.060904169121704002 -0.022740556395734392 0.022474458622023658 0.049992293798198223 0.1226431375415622 -0.018424336341779386 0.11918261296351439 0.16316616592801883 0.082376030705888004 -0.0053142752090445337 -0.046055165647095324 0.10860096307680821 0.014787957942866456 0.085056004028195853 0.11450714837967096 0.056652853813214402 0.15649421353863149 0.067301297685336325 0.085293804761899572 0.20434919450871702
leaf_weight=141.10960558056831 257.37372756004333 2.4552557319402686 19.748974144458771 2.4356550276279441 2.9678396284580284 13.647301942110063 11.589796751737593 2.4887226372957256 2.9636681824922544 4.1873675435781461 7.9136317968368521 7.5038920044898978 2.2336529344320297 4.787713870406149 4.7261868566274634 3.420130580663681 8.9190096557140368 9.6823633611202222 3.2480259984731665 7.3701396435499174 2.3606659919023505 2.4607391655445126 3.8478610664606085 2.7865426838397971 4.7326237559318525 11.577279940247534 3.696005642414093 4.7558231949806213 3.8152063935995102 76.717721745371819 135.45699737966061 8.6555665433406848 5.7371767759323102 9.9452757686376554 2.4144380390644065 5.9077816903591183 2.4266838580369949 4.9372304975986472 2.4861145019531277 2.8607010990381259 8.3012979924678785 2.7390224337577846 4.9330430179834357 9.0664704442024284 7.6844297051429802 3.6567253470420837 6.703182488679885 5.2210116237401953 3.4235077053308478 4.1289380192756644 6.3655664920806876 2.4320508837699881 2.7469020634889585 2.9048914015293121 3.9684658497571945 3.1713664531707764 3.7431614398956299 2.4863128662109375 5.1665748804807663 4.2600079476833344 4.8580570220947266 2.715961366891861 3.2447787374258041 8.8322536498308164 4.2943142503500038 2.3177610039710981 5.1213423758745167 3.2208725959062576 14.605184718966484 2.5230370312929162 3.1863800734281531 2.4974846392869949 3.355595037341117 4.1820003539323798 2.843797340989112 2.8357416391372672 6.8450879007577896 5.1771767735481262 2.3932082951068878 2.6356384456157684 3.9961369782686234 4.1878246366977718 7.93144543468952 6.0010979473590851 2.3694332242012051 18.594172701239586 4.4462384134531012 6.1848501712083817 3.4716840088367462 4.4712372422218349 15.918774843215944 3.2404254227876654 2.9628363847732544 2.4834242463111877
leaf_count=886 1616 10 124 11 12 57 48 10 12 19 32 34 11 20 19 14 36 39 14 31 10 11 16 12 19 47 15 20 16 312 546 35 23 40 10 24 10 20 10 12 34 11 20 37 31 15 27 21 14 17 26 11 11 12 16 13 15 10 22 18 20 11 13 36 18 11 21 13 61 11 13 11 14 18 12 12 28 22 10 11 16 17 32 25 10 75 18 25 14 18 65 13 12 10
internal_value=0 0.0371889 0.0704674 0.0762479 0.0696852 0.0707481 0.068529 0.0710179 0.0676594 0.0534118 0.0473674 0.0272087 -0.0200298 0.0411412 0.108652 0.109044 0.085998 0.0734697 0.0741182 0.0606853 0.0802657 0.0344323 0.00166435 0.0806831 0.083692 0.0622099 0.00759588 0.0210832 -0.0269421 0.0681186 0.0857736 0.0921981 0.0988013 0.0768114 0.111825 0.122614 0.0705529 0.0616835 0.0513351 0.0301999 0.0151231 0.0885911 0.133063 0.0809005 0.0996037 0.0461926 0.114232 0.0947757 0.0672286 0.0605506 0.069352 0.0554939 0.0686942 0.00246581 0.0976817 0.0614658 0.122004 0.147092 -0.00624394 -0.0154534 -0.0437088 0.125667 0.0898441 0.119569 0.0468043 0.0561395 0.0456757 0.0845562 0.026192 -0.00279988 0.0191141 -0.0170384 0.0237241 0.0106376 0.0387969 0.0621156 0.0531511 0.0163978 0.0879255 0.0487091 0.077241 0.08709 0.062543 0.0446056 0.103117 0.0911208 0.091674 0.120363 0.0585107 0.137003 0.125372 0.141409 0.102656 0.139582
internal_weight=0 828.026 686.916 667.167 398.765 394.095 372.298 351.147 339.557 105.916 95.5362 21.1512 4.66931 87.6225 21.7968 10.3799 268.402 88.8553 233.641 76.7006 43.9334 32.7672 15.0332 156.941 149.398 17.734 6.15674 7.54237 11.1853 79.173 146.15 179.547 125.632 53.9152 16.2665 37.7021 8.16386 37.6487 32.7115 22.7662 20.2801 87.9298 13.8521 70.442 29.7475 6.39575 23.3518 16.6486 40.6945 37.271 33.142 26.7765 21.4395 5.33694 12.373 7.13983 11.4276 5.23321 9.35394 11.9788 7.71876 10.6934 5.96074 17.4878 78.2686 55.7283 45.4943 15.1873 30.307 15.7018 13.1788 9.99242 22.5403 19.1847 15.0027 12.1589 10.066 7.49494 9.32316 5.02885 6.95981 41.5727 16.4213 13.9325 25.1514 20.9636 17.0706 9.15269 7.91792 29.5382 23.6304 19.1592 10.234 5.44626
internal_count=5360 3744 2858 2734 1642 1620 1532 1441 1393 443 401 91 22 369 88 42 1092 361 950 315 179 136 63 635 603 73 26 32 47 322 589 731 511 220 66 153 33 154 134 94 84 358 56 287 120 26 94 67 167 153 136 110 87 23 50 29 46 21 41 50 32 43 24 71 328 233 191 62 129 68 57 44 95 81 63 51 41 33 39 21 28 169 67 57 102 85 69 37 32 120 96 78 42 22
is_linear=0
shrinkage=0.1


Tree=6
num_leaves=95
num_cat=0
split_feature=2 7 7 8 8 8 8 5 3 5 5 8 1 5 3 1 1 8 3 8 8 3 8 0 8 1 6 1 3 1 1 3 3 1 1 1 8 5 5 6 0 6 3 5 1 3 1 5 3 5 8 0 8 5 8 3 8 3 5 1 5 8 3 5 1 3 1 3 3 3 1 3 3 3 3 3 6 1 5 3 3 1 1 1 5 8 5 1 8 1 1 1 1 8
split_gain=447.473 377.547 64.65 3.73144 6.1132 5.99075 3.9891 3.28346 3.50314 3.15944 6.52032 4.85901 4.71255 2.70914 2.73791 2.6256 4.25437 5.82392 4.71122 4.51824 3.83965 2.99422 2.87296 2.81388 2.80597 2.47326 3.66714 2.34482 2.26814 2.91234 3.26383 4.0784 2.90817 2.10806 2.12995 3.8456 6.08983 2.0584 2.2611 1.96168 3.41644 1.94208 6.4548 3.63304 3.34517 3.24218 3.91466 2.39665 3.31499 3.08476 2.11614 3.54078 2.90373 2.2809 1.97337 2.37463 2.20793 2.76542 1.95561 1.94747 1.90978 4.69777 2.25815 2.79059 2.95881 5.25488 4.59339 4.54817 3.19861 2.91385 3.34314 2.5971 2.25658 2.91843 1.88601 6.19698 2.87227 2.61015 2.09601 2.42229 3.09519 2.06332 3.57225 1.86455 1.83228 2.11294 1.76421 2.55805 1.74612 1.73928 1.71242 1.69299 1.65271 1.62314
threshold=4.5000000000000009 94402.000000000015 94406.000000000015 67.396617889404311 62.533422470092781 68.947822570800795 50.108224868774421 20.500000000000004 185344.00000000003 4.5000000000000009 8.5000000000000018 60.952981948852546 41.500000000000007 12.500000000000002 140210.50000000003 43.500000000000007 27.500000000000004 87.840488433837905 181453.50000000003 81.83014297485353 92.64068984985353 149493.00000000003 77.802917480468764 10.500000000000002 90.824913024902358 18.500000000000004 9.5000000000000018 36.500000000000007 143234.50000000003 52.500000000000007 41.500000000000007 168625.00000000003 140212.50000000003 52.500000000000007 20.500000000000004 23.500000000000004 85.634922027587905 8.5000000000000018 4.5000000000000009 4.5000000000000009 10.500000000000002 5.5000000000000009 180295.00000000003 4.5000000000000009 19.500000000000004 174252.50000000003 24.500000000000004 11.500000000000002 175161.50000000003 14.500000000000002 85.952087402343764 10.500000000000002 96.225070953369155 12.500000000000002 83.178913116455092 154945.50000000003 88.819442749023452 181860.00000000003 11.500000000000002 30.500000000000004 8.5000000000000018 20.02506256103516 198955.50000000003 5.5000000000000009 41.500000000000007 145121.50000000003 31.500000000000004 134122.50000000003 140210.50000000003 140681.50000000003 26.500000000000004 142832.50000000003 149493.00000000003 160937.00000000003 139540.50000000003 134121.50000000003 4.5000000000000009 52.500000000000007 21.500000000000004 175682.50000000003 143237.50000000003 20.500000000000004 22.500000000000004 30.500000000000004 10.500000000000002 98.913043975830092 3.5000000000000004 25.500000000000004 89.48966217041017 29.500000000000004 34.500000000000007 1.0000000180025095e-35 41.500000000000007 42.378194808959968
decision_type=2 2 2 2 2 2 2 2 2 2 2 2 2 2 2 2 2 2 2 2 2 2 2 2 2 2 2 2 2 2 2 2 2 2 2 2 2 2 2 2 2 2 2 2 2 2 2 2 2 2 2 2 2 2 2 2 2 2 2 2 2 2 2 2 2 2 2 2 2 2 2 2 2 2 2 2 2 2 2 2 2 2 2 2 2 2 2 2 2 2 2 2 2 2
left_child=1 -1 3 4 6 -5 60 28 15 -8 -11 12 13 -12 -15 16 18 27 19 22 21 23 -9 -21 -19 -22 -27 -18 32 30 41 -32 33 34 -7 36 -36 38 -38 -26 -41 47 44 -44 -43 50 -47 54 -49 -50 53 52 -52 59 -30 86 -57 -58 -45 -46 61 62 63 69 66 -66 67 -65 -68 -3 -71 -69 -72 -74 75 -62 -77 78 81 80 -80 91 -83 -10 85 -33 -56 -88 -17 -60 -85 -76 -78 -84
right_child=-2 2 -4 5 -6 7 9 8 83 10 11 -13 -14 14 -16 88 17 24 -20 20 25 -23 -24 -25 39 26 -28 -29 29 -31 31 84 -34 -35 35 -37 37 -39 -40 40 -42 42 43 58 45 46 -48 48 49 -51 51 -53 -54 -55 55 56 57 -59 89 -61 74 -63 -64 64 65 -67 68 71 -70 70 72 -73 73 -75 77 76 92 -79 79 -81 -82 82 93 90 -86 -87 87 -89 -90 -91 -92 -93 -94 -95
leaf_value=-0.12189847851749616 -0.12189847851749616 0.10217861653357448 -0.12189847851749616 -0.05592029901036543 0.14924576708213641 0.11917754972513742 -0.076354908241328207 0.086866976011056363 0.11861996025061811 0.1601553916117725 -0.053807977281823904 -0.1047249463617322 0.17012281815053662 0.12384717849295153 0.0071464659063170182 0.15125385122293974 -0.076559975383491963 0.13499543480559384 -0.076600624384004876 0.11112578673915351 -0.010251116585541609 -0.096161202247339581 0.22336111611832396 -0.023514627527193174 0.095448721524403313 0.099372036483965948 0.0041457118177143015 0.027494526753988269 0.15351435967603708 -0.017297046504029419 0.14807458825608008 -0.053372128744362861 0.12738632916105233 0.15753211193427086 -0.11688278361271257 0.076953593955231062 0.032811382353751382 0.01569266241086922 0.15589033219063719 -0.039323560205463799 0.041021908605047008 -0.098726950967243376 0.0094742225609179484 0.15741121726256793 0.098693850869317604 0.040913876129412302 -0.11963264874476112 0.095710548619040159 -0.059470349230911379 0.058108089751863545 0.049264476309249093 0.053008650524504666 -0.07642409331208791 0.14622535214445911 0.09064390282973582 0.01983620390843973 0.18591434073168556 0.084790974285250884 0.015326589986121264 -0.0094141350805599898 0.098637221822972326 0.13581711116001399 -0.0382522415415434 0.1287589520864881 -0.10798015922543965 0.071216621859610696 0.045617766236208931 -0.092381779105518189 0.17485591581415505 0.11601066440620807 -0.022426250385915628 0.022793227685458942 0.1361433707463211 0.009142066288784655 0.1022387064453805 0.1130684646892743 0.02530641157212915 0.14474477838869718 0.098743558421153968 0.11850817905729849 -0.011248274282435579 0.0053811932259661991 0.091759884313610762 0.0064415917211944288 0.11088998496240488 0.075662715632475383 0.084745573386127884 -0.048079925310637588 0.056691268729091138 0.12532169688443534 0.10378959601640431 0.18373471982834075 -0.050268018899816407 0.021306262421759311
leaf_weight=130.57235106825829 238.154536485672 20.026163950562477 18.274234235286713 4.2636415511369696 11.261341616511343 8.8564196228981 2.298621833324435 3.720211684703826 10.077547743916513 4.1215576380491283 3.7165220379829433 2.6373601257801047 2.4241310060024253 3.0909340977668744 5.7504744678735733 3.3990943431854239 8.0234099328517896 2.6267033517360714 2.4665728807449332 2.6311566084623319 3.3888236284256008 2.5633152574300766 2.6337888687849045 3.7853610962629318 3.6651378870010403 20.575508594512943 5.0332907289266577 2.9663017839193335 4.1558553576469448 4.6368334740400305 9.4323291331529635 2.4073599278926832 11.573418840765951 2.9820051640272132 2.596253067255021 79.476023718714714 2.9919041246175766 7.5731590241193771 2.9786340892314911 7.5253310054540661 17.835953861474991 2.1104194521903983 3.6682063192129162 7.1254507899284345 3.4463831037282926 3.1365025937557212 2.9446297585964203 6.4013435691595069 4.3076365590095502 4.6293179392814636 2.9521268159151104 16.108367145061493 4.8707741498947144 3.4865795969963074 4.4292786121368426 2.4368328452110264 4.4730049669742584 6.8392396122217178 2.4585082828998566 3.2261295020580292 25.594464123249054 8.127274736762045 2.4852801561355582 2.4804671555757585 3.5267809033393851 3.0531096607446671 3.7134166210889807 3.4075264334678632 3.9543371349573135 5.1942206174135235 6.2752527743577939 4.6018184572458267 2.9623898863792419 4.6488788723945618 7.3628031611442548 3.1950870305299786 14.512540936470034 7.8124639093875876 3.9150260090827924 3.8729985505342475 7.3830888569355011 5.2954582273960105 103.2670516371727 3.849679321050643 3.2352384030818939 2.6837849020957947 2.4876581877470016 3.4757729023694992 4.5889588892459869 3.4616723954677582 3.4054973274469376 3.8989101201295853 3.6143220067024222 3.3769382238388053
leaf_count=886 1616 81 124 18 46 37 10 16 41 17 16 11 10 13 26 14 35 11 11 11 15 11 11 16 15 85 21 13 17 19 38 10 47 12 12 321 12 31 12 32 74 10 15 29 14 13 12 26 18 19 12 65 20 14 18 10 18 28 10 13 103 33 10 10 15 13 15 14 16 21 26 19 12 19 30 13 59 32 16 16 30 22 422 16 13 11 10 14 19 14 14 16 15 14
internal_value=0 0.0339255 0.0636622 0.0687543 0.0769503 0.0619177 0.0741583 0.0633179 0.0493679 0.0351379 0.0469258 0.020439 0.0424722 0.017831 0.0479447 0.0419987 0.0370927 0.0142451 0.0579117 0.0653959 0.0523375 -0.00480115 0.143445 0.031696 0.0360207 0.0700319 0.0806557 -0.048474 0.0698776 0.0604714 0.0634667 0.103049 0.0797579 0.074628 0.0722616 0.0679161 0.0234136 0.0503077 0.0942141 0.0270641 0.0171814 0.0566176 0.044787 0.0973973 0.0239905 0.0304375 -0.0368266 0.0726125 0.0407803 0.00143496 0.0424362 0.0262031 -0.028993 0.0806757 0.0898666 0.07891 0.106177 0.124776 0.12212 0.0464241 0.0776642 0.0640584 0.0552659 0.0589063 0.0326196 -0.0248318 0.0534387 0.0104367 0.112267 0.0755342 0.0475697 -0.0262073 0.0219695 0.0585724 0.0829104 0.0654655 0.0256468 0.0885091 0.085334 0.0502612 0.0268661 0.0896529 0.0855482 0.0907908 0.0520433 0.0146483 0.0428368 0.00732852 0.0969298 0.0796434 0.0521356 0.130453 0.0102376 0.0895289
internal_weight=0 814.786 684.214 665.939 302.859 363.08 291.598 358.817 114.762 24.0396 21.741 17.6194 14.9821 12.5579 8.84141 97.4289 89.4409 42.6428 46.798 44.3315 37.9775 8.97983 6.354 6.41652 31.6531 28.9976 25.6088 10.9897 244.055 125.027 120.39 17.7587 119.028 107.454 104.472 95.616 16.14 13.5437 5.97054 29.0264 25.3613 102.632 58.9957 16.7138 42.2819 40.1715 6.08113 43.6359 15.3383 8.93695 34.0904 23.9313 7.8229 10.1591 28.2976 24.1418 13.7491 11.3122 13.0456 6.67251 267.558 74.4569 66.3296 63.8444 24.7375 6.57989 18.1576 10.4898 7.66775 39.1069 19.0807 8.00934 13.8865 7.61127 193.101 46.9164 21.3219 146.185 138.372 15.1711 11.2981 123.201 111.939 17.3327 8.32638 5.09114 10.3927 5.96343 7.98805 5.92018 7.25518 11.2617 18.1269 106.644
internal_count=5360 3744 2858 2734 1241 1493 1195 1475 481 103 93 76 65 55 39 410 377 180 197 186 159 38 27 27 132 121 106 48 994 510 491 72 484 437 425 388 67 55 24 121 106 419 241 68 173 163 25 178 63 37 138 97 32 41 115 98 56 46 53 27 1092 304 271 261 102 28 74 43 31 159 78 33 57 31 788 190 87 598 566 62 46 504 458 71 34 21 42 24 33 24 30 46 74 436
is_linear=0
shrinkage=0.1


Tree=7
num_leaves=95
num_cat=0
split_feature=2 7 7 3 8 8 8 8 5 3 5 5 8 1 5 1 1 8 3 8 8 3 8 0 8 0 3 1 6 8 1 5 3 3 1 1 8 1 1 1 3 6 3 1 5 3 1 8 5 5 1 1 8 3 8 1 3 3 8 5 1 1 8 3 3 5 0 5 6 5 3 5 1 3 3 5 1 8 8 5 3 8 1 1 3 6 5 1 1 5 6 1 5 5
split_gain=389.929 320.715 54.1789 3.27866 3.40448 5.67791 4.89639 3.03312 2.88255 2.91003 2.68525 5.09877 4.15665 3.63487 2.45154 2.11547 3.42931 4.74372 3.82457 3.59042 3.08592 2.46684 2.33606 2.26455 2.19085 2.07776 2.03948 1.98609 2.94486 1.96068 1.94931 1.92878 1.91056 2.94402 2.34083 3.21049 5.06551 2.29771 1.95995 2.5083 3.73956 1.88273 5.90023 2.63124 2.46122 2.89039 3.57722 2.89723 2.22227 2.09449 3.14614 2.88377 2.08262 2.27164 1.94526 1.82857 1.75755 3.99966 6.92546 2.95131 2.93226 3.19395 2.91014 1.93625 2.84708 1.84332 2.34526 5.82041 2.78407 2.04689 2.67308 2.02352 1.73098 2.5578 4.25451 4.86686 5.65757 2.3778 2.39212 2.28314 2.88232 2.40288 2.15883 3.03961 1.94701 1.88295 1.81712 2.54269 2.01705 1.95582 1.80884 1.91203 3.45225 2.99724
threshold=4.5000000000000009 94402.000000000015 94406.000000000015 200859.50000000003 67.396617889404311 62.533422470092781 68.947822570800795 50.108224868774421 20.500000000000004 185344.00000000003 4.5000000000000009 8.5000000000000018 60.952981948852546 41.500000000000007 12.500000000000002 43.500000000000007 27.500000000000004 87.840488433837905 181453.50000000003 81.83014297485353 92.64068984985353 149493.00000000003 77.802917480468764 10.500000000000002 90.824913024902358 9.5000000000000018 185293.50000000003 18.500000000000004 9.5000000000000018 70.064933776855483 36.500000000000007 20.500000000000004 143234.50000000003 140212.50000000003 20.500000000000004 23.500000000000004 85.634922027587905 28.500000000000004 52.500000000000007 41.500000000000007 168625.00000000003 5.5000000000000009 180295.00000000003 19.500000000000004 4.5000000000000009 144074.50000000003 32.500000000000007 83.178913116455092 4.5000000000000009 3.5000000000000004 20.500000000000004 22.500000000000004 84.635734558105483 164523.00000000003 91.56504058837892 28.500000000000004 139543.50000000003 139743.50000000003 93.875000000000014 10.500000000000002 25.500000000000004 52.500000000000007 76.043479919433608 129101.50000000001 129847.00000000001 4.5000000000000009 9.5000000000000018 6.5000000000000009 13.500000000000002 9.5000000000000018 138469.50000000003 12.500000000000002 26.500000000000004 139777.00000000003 140681.50000000003 4.5000000000000009 41.500000000000007 20.02506256103516 8.3570075035095233 20.500000000000004 150032.50000000003 10.01253128051758 20.500000000000004 22.500000000000004 160937.00000000003 2.5000000000000004 14.500000000000002 36.500000000000007 40.500000000000007 5.5000000000000009 3.5000000000000004 45.500000000000007 21.500000000000004 15.500000000000002
decision_type=2 2 2 2 2 2 2 2 2 2 2 2 2 2 2 2 2 2 2 2 2 2 2 2 2 2 2 2 2 2 2 2 2 2 2 2 2 2 2 2 2 2 2 2 2 2 2 2 2 2 2 2 2 2 2 2 2 2 2 2 2 2 2 2 2 2 2 2 2 2 2 2 2 2 2 2 2 2 2 2 2 2 2 2 2 2 2 2 2 2 2 2 2 2
left_child=1 -1 3 4 5 7 -6 25 29 15 -9 -12 13 14 -13 16 18 30 19 22 21 23 -10 -21 -19 26 -3 -22 -29 -8 -18 -16 33 34 -31 36 -36 -35 39 41 -41 49 43 -43 55 47 52 -46 -44 51 -51 -34 -47 -54 -49 -45 60 -58 -59 -60 -37 62 -62 -64 -65 -66 68 -68 -67 -69 71 -71 79 77 -75 76 84 78 86 80 82 85 -27 -84 -76 -81 87 -74 -89 -90 -77 92 -92 -93
right_child=-2 2 -4 -5 6 -7 8 10 9 -11 11 12 -14 -15 31 -17 17 24 -20 20 27 -23 -24 -25 -26 72 -28 28 -30 32 -32 -33 38 37 35 56 -38 -39 -40 40 -42 42 48 44 45 46 -48 54 -50 50 -52 -53 53 -55 -56 -57 57 58 59 -61 61 -63 63 64 65 66 67 69 -70 70 -72 -73 73 74 75 90 -78 -79 -80 81 -82 -83 83 -85 -86 -87 -88 88 89 -91 91 93 -94 -95
leaf_value=-0.11938538270223142 -0.11938538270223142 0.053469211461372512 -0.11938538270223142 -0.01388931308443969 -0.050877546713314285 0.14130640887639404 0.13822058235941537 -0.070163641233199611 0.07729262838139779 0.083264341597597685 0.14482266825642429 -0.049143027694653549 -0.095826126525082642 0.1534946810352128 0.10961152719822186 0.087035085392572556 -0.07034095589058463 0.11882930353722164 -0.070618132392125929 0.099437818492098984 -0.0092540239301244411 -0.088374342468851286 0.19991843607667592 -0.021238483028706092 0.024367594807785189 0.11030906434246057 0.10415248256155984 0.089002605995389339 0.0037285507155029735 0.1167949755017884 0.024618909018040324 0.011897801503969388 0.025645271395185416 0.061790669034244253 -0.10964764852711256 0.13781611294261539 0.045412002116666426 0.15604662762289087 -0.011274592533388163 0.13405277674963725 0.039753650408258095 -0.092596891614616969 0.018469825185934159 -0.083668510738737517 0.15783998451463563 -0.023025214193017521 -0.08177946627265209 -0.026543889237400871 0.10891486550234274 0.14500867850668867 0.04382360364542031 0.14563649094826897 0.022569957588441575 0.13570423248023736 0.06433870715634149 0.026788791293088723 -0.062284866802206254 0.13207433123197029 0.051803237730390909 -0.056387608642828636 -0.040650314597126876 0.17680099302196073 0.11275264219448154 -0.011996166529040175 0.13307531855622348 0.067923140657362088 -0.079813924243231804 0.11844603530153824 0.18839416627844832 -0.05022161539145642 0.11614605890094734 0.052774417163945778 -0.0048956958326683763 0.13624651216505687 0.0092099286135827307 0.15022269607271732 0.14957655915479207 0.13116070639614799 -0.025685060483587069 -0.027014564477194272 0.12751945702157738 -0.026784474112613033 -0.036249936250327457 0.065456450712973277 -0.10022793165610432 0.067800725182192198 0.088555500430798198 0.14725129294784689 0.11309695838869492 -0.001193958269282653 0.10436323507502661 -0.0039491343335384356 -0.017451443918023266 0.10591958639829149
leaf_weight=120.50518223643303 219.79274773597717 79.522836208343506 16.865285098552704 5.6280985772609702 4.2199608087539664 10.957208365201948 3.4765419363975516 2.2537071555852917 3.7605603933334342 16.448543652892113 4.102724194526675 3.6651590168476131 2.5961851328611365 2.4181027114391318 3.2292658984661085 8.0058844983577711 7.8678126633167249 2.6822843253612545 2.4109504818916312 2.6454486548900586 3.3791024982929256 2.5129164606332779 2.6470760107040405 3.7726332396268845 29.011892035603523 6.2603625506162706 8.8200313001871091 20.669325187802318 5.0366007089614859 8.5306525379419309 2.9806918203830719 5.3949424475431442 2.9141351878643018 4.1295077949762327 2.4960619956254968 7.4504682272672644 13.509915217757225 6.9206757545471191 4.4602445960044852 9.3790652304887789 7.6236826032400122 2.0293939113616934 3.452593162655833 3.3612549006938925 2.7355521172285089 4.6358035802841204 3.7012610137462607 2.9687518030405036 12.743928238749502 3.4315741509199134 29.397735238075256 6.4053998291492462 5.1612795442342758 2.7049559056758881 11.39436212182045 2.7047161608934402 2.9525495469570187 8.1750813722610474 6.4584819674491882 4.1360395401716232 2.479450821876525 2.6912972778081885 8.8102777898311597 4.7159160375595084 4.1858160197734824 6.4114262014627474 3.2407753616571453 5.2339985370636013 2.7372844368219376 3.2224078178405744 3.4607220739126205 4.6747302412986755 7.1838828027248445 18.332003220915794 4.8603143095970136 5.0434227436780921 2.4001294374465942 4.4464117735624304 3.4381170719861975 2.4341554790735307 8.9764385968446714 4.5845571756362906 3.8620502054691341 12.287471145391462 2.4427057504653931 15.010720044374464 14.110279127955435 2.6975992918014509 2.4709042459726334 3.799891471862793 38.469670116901398 5.2372045516967756 2.4762528091669074 4.7214292734861374
leaf_count=886 1616 322 124 24 18 45 14 10 16 68 17 16 11 10 13 33 35 11 11 11 15 11 11 16 121 26 36 85 21 36 13 25 12 17 12 30 55 28 18 38 31 10 14 14 11 19 15 12 52 14 120 26 21 11 46 11 12 33 26 17 10 11 36 19 17 26 13 21 11 13 14 19 29 77 20 21 10 18 14 10 37 19 16 50 10 61 58 11 10 16 159 22 10 20
internal_value=0 0.0309795 0.0576122 0.0621113 0.0627615 0.0706546 0.056205 0.0679623 0.0574775 0.0443602 0.0336625 0.0445936 0.0208291 0.0414212 0.0193692 0.0377891 0.0333779 0.0128256 0.0520468 0.0587041 0.0470325 -0.00438302 0.127951 0.0285027 0.0323619 0.0710376 0.0585294 0.0628204 0.0722947 0.0636653 -0.0442502 0.0484859 0.0625755 0.0717127 0.0665725 0.0621576 0.0212311 0.120823 0.0537836 0.0562692 0.091771 0.0502173 0.0384641 0.0184437 0.0241678 0.0348391 0.00457538 0.0635182 0.0896348 0.0662774 0.0544003 0.108116 0.030141 0.0614733 0.0455539 -0.0344174 0.0702412 0.0459056 0.0629245 0.00956616 0.0791534 0.0707262 0.0649206 0.0705265 0.0607062 0.0710435 0.0620841 0.0427633 0.103968 0.0667054 0.042862 0.0107471 0.0773324 0.0838995 0.0936529 0.0817593 0.0163801 0.0624268 0.0533581 0.0623173 0.0796379 0.0376399 0.0604586 0.041134 -0.0273947 0.0545708 0.0623382 0.0394353 0.0749454 0.0438405 0.0930981 0.0874384 0.0969963 0.0481401
internal_weight=0 800.862 680.357 663.492 657.864 298.506 359.357 287.549 355.137 113.832 23.6601 21.4064 17.3037 14.7075 12.2894 97.3832 89.3773 42.5427 46.8346 44.4237 38.016 8.931 6.40764 6.41808 31.6942 263.889 88.3429 29.085 25.7059 241.306 10.8485 8.62421 237.829 116.624 105.573 97.0427 16.006 11.0502 121.206 116.745 17.0027 99.7427 57.5939 41.3973 39.3679 33.302 16.2033 17.0987 16.1965 42.1488 32.8293 9.31954 12.502 7.86624 14.3631 6.06597 81.0367 21.7222 18.7696 10.5945 59.3146 51.8641 49.1728 46.6934 37.8831 33.1672 28.9813 19.8326 9.14871 16.5919 11.3579 7.89714 175.546 122.13 83.9831 65.6511 9.70315 38.1471 33.7007 53.4158 31.3863 22.0294 22.4099 16.1495 7.30302 17.4449 30.2626 16.1523 8.9684 6.2708 55.948 50.9046 40.9459 9.95863
internal_count=5360 3744 2858 2734 2710 1229 1481 1184 1463 478 102 92 75 64 54 410 377 180 197 186 159 38 27 27 132 1082 358 121 106 985 48 38 971 476 431 395 67 45 495 477 69 408 236 170 160 135 66 69 66 172 134 38 51 32 58 25 328 88 76 43 240 210 199 189 153 134 117 80 37 67 46 32 724 505 349 272 40 156 138 219 129 90 92 66 30 71 124 66 37 26 232 211 169 42
is_linear=0
shrinkage=0.1


Tree=8
num_leaves=95
num_cat=0
split_feature=2 7 7 3 8 8 8 8 5 3 5 5 8 1 6 3 0 3 5 8 3 6 5 6 1 1 5 1 8 8 8 1 1 3 0 3 1 1 3 3 1 6 1 3 1 8 1 1 1 1 3 3 3 1 1 1 5 1 1 6 6 5 3 6 3 3 5 3 5 3 3 1 1 3 1 5 3 1 8 6 5 5 1 1 0 8 6 1 1 3 3 3 5 5
split_gain=340.993 273.781 45.6696 2.68416 2.86372 4.76981 3.98859 2.46878 2.40465 2.40133 2.20551 4.21155 3.41485 3.23113 2.91055 1.84454 1.8311 1.72601 1.67955 2.3483 2.00957 1.74984 1.73304 1.80989 1.70201 3.14512 2.25308 1.80219 1.64324 2.0489 5.30802 2.69357 3.12063 3.567 2.53385 2.7412 2.7298 2.08138 2.11429 4.5884 4.0776 4.01384 2.96311 1.62912 1.77869 1.62057 2.80068 1.91898 1.60189 1.50734 1.50828 4.05221 3.59143 2.10213 4.75315 1.73514 3.47338 3.79807 3.22473 3.18686 2.92661 3.23486 2.79801 4.17817 1.79961 3.61752 3.94859 1.74751 1.73107 1.50102 4.04796 2.18625 3.27846 2.90124 2.52283 2.19249 1.4859 3.51854 1.6757 1.47766 5.87671 2.27553 1.48556 4.29698 3.73595 3.47042 3.41777 4.54081 3.19784 2.37735 3.19077 4.07118 2.6296 5.4597
threshold=4.5000000000000009 94402.000000000015 94406.000000000015 200859.50000000003 67.396617889404311 62.533422470092781 68.947822570800795 50.108224868774421 20.500000000000004 185344.00000000003 4.5000000000000009 8.5000000000000018 60.952981948852546 30.500000000000004 5.5000000000000009 126875.50000000001 9.5000000000000018 185293.50000000003 11.500000000000002 7.0197043418884286 168625.00000000003 12.500000000000002 14.500000000000002 12.500000000000002 25.500000000000004 43.500000000000007 6.5000000000000009 34.500000000000007 71.62280654907228 88.118579864501967 87.071151733398452 35.500000000000007 47.500000000000007 140448.00000000003 10.500000000000002 160107.50000000003 24.500000000000004 33.500000000000007 140009.00000000003 136640.00000000003 27.500000000000004 5.5000000000000009 29.500000000000004 198318.50000000003 30.500000000000004 84.635734558105483 37.500000000000007 42.500000000000007 36.500000000000007 57.500000000000007 138470.50000000003 134123.50000000003 134897.50000000003 25.500000000000004 28.500000000000004 26.500000000000004 4.5000000000000009 41.500000000000007 20.500000000000004 12.500000000000002 13.500000000000002 5.5000000000000009 160937.00000000003 5.5000000000000009 168625.00000000003 145532.00000000003 14.500000000000002 198316.00000000003 20.500000000000004 143240.50000000003 145532.00000000003 38.500000000000007 45.500000000000007 139542.50000000003 31.500000000000004 18.500000000000004 129101.50000000001 33.500000000000007 10.01253128051758 14.500000000000002 9.5000000000000018 1.5000000000000002 37.500000000000007 39.500000000000007 10.500000000000002 95.346321105957045 5.5000000000000009 43.500000000000007 44.500000000000007 143234.50000000003 160524.00000000003 168625.00000000003 8.5000000000000018 4.5000000000000009
decision_type=2 2 2 2 2 2 2 2 2 2 2 2 2 2 2 2 2 2 2 2 2 2 2 2 2 2 2 2 2 2 2 2 2 2 2 2 2 2 2 2 2 2 2 2 2 2 2 2 2 2 2 2 2 2 2 2 2 2 2 2 2 2 2 2 2 2 2 2 2 2 2 2 2 2 2 2 2 2 2 2 2 2 2 2 2 2 2 2 2 2 2 2 2 2
left_child=1 -1 3 4 5 7 -6 16 28 15 -9 -12 13 -13 -15 -10 17 18 19 20 21 24 48 69 -3 26 27 -26 -8 30 31 34 45 -34 35 36 -30 38 39 -36 41 -40 -42 -11 -45 46 -33 -48 -20 50 51 53 -53 -18 -55 58 57 62 59 -52 61 -60 63 -57 65 66 -63 -66 -68 71 -71 73 -73 74 -24 -75 -56 -78 -79 81 -81 -31 89 -84 85 -85 87 -86 -88 -83 -91 -92 93 -93
right_child=-2 2 -4 -5 6 -7 8 10 9 43 11 12 -14 14 -16 -17 49 -19 22 -21 -22 -23 23 -25 25 -27 -28 -29 29 79 -32 32 33 -35 37 -37 -38 -39 40 -41 42 -43 -44 44 -46 -47 47 -49 -50 -51 55 52 -54 54 76 56 -58 -59 60 -61 -62 64 -64 -65 67 -67 68 -69 -70 70 -72 72 -74 75 -76 -77 77 78 -80 80 -82 82 83 84 86 -87 88 -89 -90 90 91 92 -94 -95
leaf_value=-0.11720384856321378 -0.11720384856321378 -0.040795095490492601 -0.11720384856321378 -0.012517577118725262 -0.046304235075163042 0.12948060799292144 0.11214881417206245 -0.064517579127928562 0.10961046186662145 0.1310588581194205 0.13229047015530021 -0.0074683594010497845 -0.087964688891663742 0.14236965979736793 0.011941041462351868 0.031546785805411891 0.11627594445703199 0.095012833925801843 0.17273083809403322 0.087310287719553736 -0.065776295925387002 0.076546727828585071 0.049262017940606362 0.099515919966568334 -0.035301241373050705 -0.044225051185809487 0.1346649614250246 0.085084535292532876 0.02111951141211562 0.11922101890109432 -0.063285455854922734 -0.012003432510672983 0.091663487837607083 -0.076036226664106102 0.073915251540121893 -0.0019438919445909583 0.12461752091570646 -0.047970848582756929 0.072463803031208904 -0.066683267529492399 0.18707210999124496 -0.044785117733959254 0.050430874596784137 0.085745344805689641 0.0064467451003044577 0.15860745948746602 0.14738570336699444 0.059574145211575835 0.066571096424303811 0.14595873500953765 0.12940035578793382 -0.093734789789245029 0.035095776928007839 -0.056127417849073206 0.10934754808675305 0.13313237033691519 0.09071405187119129 0.1224979921572949 0.13003735020955803 0.0006007115221364082 0.11417998277558095 -0.076141720809518643 -0.091459152125800802 -0.026279068245137333 0.1189140958823614 -0.092897697756744071 0.12207795697013642 0.0088602205201092025 0.025675480401087053 0.13757174995669161 0.025097138095573276 -0.086947504949914878 0.050196442827087587 0.078986016011141233 0.16185867339061777 -0.035889076876340818 0.13691289061337339 0.046455526922126206 -0.049786659810796829 -0.08287991836543647 0.10981043139115731 0.080823078426563763 -0.03378887723238045 0.10077731477828654 0.11885398569543558 -0.036226424504054236 0.059259484194305358 -0.036270399160462097 0.16659831561037092 0.028782661353311374 0.17898485617390089 0.019191295155891672 0.031516931483644664 0.17591129696516652
leaf_weight=110.96238747239113 202.38737940788269 4.6996223777532711 15.529724657535551 5.6207695603370658 4.1754800230264655 10.771410167217253 5.4145206212997428 2.2082760035991695 3.1274674385786048 3.9886437356472024 4.0450591444969204 7.6410191655159014 2.5479265898466101 4.0020499378442764 2.9885555803775787 94.082138195633888 7.8281344920396831 8.7073895782232267 2.4251648038625708 5.6926144212484351 2.6765857487916938 5.215346783399581 5.9667365700006538 6.9144701510667792 2.4875516295433027 3.8200488388538361 2.9947934448719025 2.4864987283945084 3.682209104299548 7.2882318645715705 4.4492392838001242 2.4751695990562501 2.6245626360177985 2.4545274525880814 3.9591837078332954 4.107012838125228 8.2762468010187131 3.9669082611799231 5.9068919569253939 5.6102050393819809 2.9643163979053488 5.7735482454299927 3.4157314896583557 7.9540478736162186 4.3895762711763382 3.6984798163175574 5.3835488706827146 4.6281314045190811 3.4341447800397873 2.6031123101711264 9.0333249270915967 2.934096932411193 8.2429588437080366 3.2355202883482006 7.606811165809634 2.6282579153776151 75.551878392696381 3.5775607526302329 2.6220231354236665 2.439898654818534 4.3849389255046836 3.0664551407098797 2.4108562916517258 4.3911911994218826 2.6819732487201682 3.6291872262954703 2.7143435925245267 3.1227445006370544 5.9366150796413422 5.3728375732898694 7.911714494228363 3.4883691519498816 3.4839382916688919 2.4927614480257025 2.9856553375720978 4.9819879829883575 3.6491712480783454 6.8600275218486768 2.4570864289999008 3.1033278405666342 3.2302483320236206 61.236223548650742 5.9251491427421561 2.6670711934566516 3.420881628990176 6.0272159278392792 4.9110744148492795 4.2084446400403976 6.3827434480190277 28.036413311958313 3.4427174627780941 4.1601979732513445 12.193840608000754 4.7735128700733185
leaf_count=886 1616 19 124 24 18 45 22 10 13 17 17 34 11 17 13 397 32 36 10 23 11 21 24 28 10 16 12 10 16 30 18 10 11 10 16 17 34 16 25 24 12 24 14 33 18 15 22 19 14 11 38 12 34 13 31 11 320 15 11 10 18 13 10 18 11 15 11 13 24 22 32 14 14 10 12 20 15 28 10 13 13 251 24 11 14 25 20 17 26 115 14 17 50 20
internal_value=0 0.0283593 0.0522984 0.0562916 0.0568834 0.0641576 0.0508598 0.0616912 0.052008 0.0400192 0.0305943 0.0404901 0.018875 0.0374798 0.0866101 0.0340583 0.0644741 0.0527443 0.0481166 0.0294804 0.0159776 0.0260597 0.0594484 0.052586 0.0100906 0.0303761 0.0661379 0.0248789 0.0576846 0.0564264 0.0425766 0.04941 0.0790059 0.0106207 0.0362059 0.0685413 0.0927487 0.0197649 0.0294899 -0.00851285 0.0496258 0.0145086 0.113918 0.0754989 0.0575456 0.100466 0.0832447 0.106793 0.110511 0.0704358 0.0692862 0.0530354 0.00127637 0.0713216 0.0565408 0.0747137 0.0824966 0.0347681 0.0573222 0.10201 0.0391141 0.0252683 0.00148616 0.0334086 0.0122806 -0.00565867 0.0213615 0.0597088 0.0559229 0.0437403 0.0705867 0.0284989 -0.0184191 0.0484127 0.0868134 0.00242073 0.0742601 0.0536757 0.0210748 0.0627382 0.0153959 0.0646767 0.0619795 0.0434837 0.0600621 0.00580103 0.0849925 0.0332852 0.119922 0.0674291 0.051838 0.0781457 0.0617141 0.102931
internal_weight=0 785.679 674.716 659.187 653.566 296.051 357.515 285.279 353.34 113.542 23.4329 21.2246 17.1796 14.6316 6.99061 97.2096 261.846 88.2382 79.5308 30.0731 24.3804 21.7039 49.4578 43.5985 16.4885 11.7889 7.96884 4.97405 239.798 234.383 73.3759 68.9267 21.2644 5.07909 47.6623 16.0655 11.9585 31.5968 27.6299 9.56939 18.0605 11.6804 6.38005 16.3323 12.3436 16.1853 12.4868 10.0117 5.85931 173.608 171.005 42.8138 11.1771 31.6368 23.8086 128.191 88.5597 13.0079 39.6315 11.4732 28.1583 23.7733 9.43031 7.01945 21.1513 15.3466 11.7174 5.80472 8.65096 36.684 13.2846 23.3994 6.97231 16.4271 8.95239 7.47475 20.5731 12.9663 9.31711 161.007 6.33358 154.674 147.385 33.5426 27.6174 8.69429 18.9231 7.62933 11.2938 113.843 52.6067 24.5703 21.1276 8.93371
internal_count=5360 3744 2858 2734 2710 1229 1481 1184 1463 478 102 92 75 64 30 410 1082 358 322 122 99 88 200 176 67 48 32 20 985 963 303 285 87 21 198 67 50 131 115 40 75 49 26 68 51 66 51 41 24 724 713 175 46 129 97 538 374 54 164 48 116 98 39 29 87 63 48 24 35 148 54 94 28 66 36 30 84 53 38 660 26 634 604 137 113 36 77 31 46 467 216 101 87 37
is_linear=0
shrinkage=0.1


Tree=9
num_leaves=95
num_cat=0
split_feature=2 7 7 1 1 3 5 3 1 5 1 0 3 8 3 3 5 3 3 6 8 5 3 3 3 6 5 5 3 1 3 3 5 8 3 3 5 3 1 8 0 5 5 8 8 6 8 8 8 1 3 1 0 3 3 3 3 5 8 8 3 8 8 5 8 3 1 6 5 6 1 6 8 1 1 6 3 1 3 3 1 3 8 1 8 1 8 3 3 3 8 1 6 1
split_gain=299.075 234.634 38.6752 2.69311 16.0899 4.11223 3.63508 3.28925 2.72731 2.80612 5.23837 5.54562 3.04585 3.5447 2.66419 3.73288 2.58486 4.09501 4.08636 3.00911 2.5394 2.72226 2.47282 2.28542 2.85413 2.24185 2.60821 2.15907 1.8406 1.71758 1.7034 3.00472 2.85849 8.16117 2.0988 2.72536 5.28841 4.41972 3.8904 3.29881 2.79025 2.42827 4.68689 3.32427 3.03447 3.009 2.67935 2.30546 4.8507 4.16124 2.49816 3.86361 3.56792 5.03287 3.57003 5.72175 2.32892 2.78085 2.29509 4.9768 2.85055 2.58488 2.25613 3.65109 3.15965 2.19895 5.77834 3.24671 3.95934 2.99869 2.5139 2.17636 2.15621 1.96677 4.24538 3.17031 3.07445 2.59438 2.23112 1.86651 4.28165 3.89536 1.87796 4.51426 3.79978 3.66187 3.69459 2.47716 2.59286 1.85827 1.82727 1.89049 1.81159 1.9718
threshold=4.5000000000000009 94402.000000000015 94406.000000000015 1.0000000180025095e-35 20.500000000000004 134119.50000000003 22.500000000000004 160892.50000000003 22.500000000000004 21.500000000000004 36.500000000000007 9.5000000000000018 160107.50000000003 84.170478820800795 145116.50000000003 175682.50000000003 18.500000000000004 145121.50000000003 182894.00000000003 4.5000000000000009 84.635734558105483 5.5000000000000009 181453.50000000003 164523.00000000003 139542.50000000003 5.5000000000000009 14.500000000000002 14.500000000000002 200081.50000000003 32.500000000000007 129101.50000000001 129847.00000000001 18.500000000000004 9.7001762390136737 133254.00000000003 134507.00000000003 1.5000000000000002 134121.50000000003 36.500000000000007 7.0197043418884286 10.500000000000002 4.5000000000000009 5.5000000000000009 68.517951965332045 62.533422470092781 14.500000000000002 60.952981948852546 89.913791656494155 90.041816711425795 23.500000000000004 139543.50000000003 39.500000000000007 9.5000000000000018 140210.50000000003 160524.00000000003 149669.50000000003 175682.50000000003 9.5000000000000018 78.297103881835952 49.505928039550788 160107.50000000003 85.811687469482436 73.844417572021499 8.5000000000000018 23.621724128723148 145532.00000000003 24.500000000000004 8.5000000000000018 14.500000000000002 12.500000000000002 33.500000000000007 7.5000000000000009 88.469902038574233 29.500000000000004 39.500000000000007 5.5000000000000009 143949.50000000003 48.500000000000007 153804.00000000003 140009.00000000003 50.500000000000007 140448.00000000003 84.478221893310561 25.500000000000004 83.178913116455092 33.500000000000007 76.372180938720717 143243.50000000003 181454.50000000003 182894.00000000003 93.40579986572267 28.500000000000004 5.5000000000000009 32.500000000000007
decision_type=2 2 2 2 2 2 2 2 2 2 2 2 2 2 2 2 2 2 2 2 2 2 2 2 2 2 2 2 2 2 2 2 2 2 2 2 2 2 2 2 2 2 2 2 2 2 2 2 2 2 2 2 2 2 2 2 2 2 2 2 2 2 2 2 2 2 2 2 2 2 2 2 2 2 2 2 2 2 2 2 2 2 2 2 2 2 2 2 2 2 2 2 2 2
left_child=1 -1 3 5 -5 -3 8 25 16 28 11 -11 13 -12 -8 -16 18 -18 19 -6 21 -21 -9 24 -13 -7 -27 -23 30 -30 32 -32 -10 -34 -33 36 -36 38 39 -38 -41 45 -43 44 46 58 -44 49 -49 -45 51 -50 53 -52 55 90 -56 -58 59 73 -61 -60 64 -64 -39 69 -67 68 -68 -55 -70 -59 79 78 75 76 -75 -76 -37 -51 81 -81 83 -83 85 -85 -87 -84 -89 -73 -54 -92 -93 -94
right_child=-2 2 -4 4 6 7 14 22 9 10 12 23 -14 -15 15 -17 17 -19 -20 20 -22 27 -24 -25 -26 26 -28 -29 29 -31 31 34 33 -35 35 41 37 62 -40 40 -42 42 43 47 -46 -47 -48 48 50 72 52 -53 54 65 56 -57 57 71 61 60 -62 -63 63 -65 -66 66 67 -69 70 -71 -72 89 -74 74 77 -77 -78 -79 -80 80 -82 82 87 84 -86 86 -88 88 -90 -91 91 92 93 -95
leaf_value=-0.11530117868388318 -0.11530117868388318 0.1468233342242011 -0.11530117868388318 0.15017973730438294 0.091033857934935375 0.02067634900949037 0.14422008522919269 0.13234727957861867 0.099129809356354459 0.065170144433476157 0.09825341506453962 -0.0036537961996115469 0.17081557142943143 -0.053025899094377951 -0.020268553664050587 0.12103990002501151 0.091772682809284079 -0.017501887069962391 0.11078021436360364 0.028832435062093095 0.012058201920709378 -0.12033965141804984 0.032876969077948855 0.0035931450594775677 -0.13802332308040477 0.02880807035332646 -0.078354980895413151 -0.0028378459045865462 0.067997604635557166 -0.038277431258276942 0.0046458279190687291 0.10475307096428728 -0.11554193764634065 0.084143906830643378 0.17208248935464743 0.03942423014388826 0.17013160162852281 -0.0097612106922353448 -0.02299993802701461 0.13050819326350291 -0.0044743797487623764 0.12966743377434065 0.065536269424471952 -0.059448226721684531 0.13305525715975539 -0.05899273312444369 -0.044079459445249464 0.18252219868812328 0.1072955923544171 0.01233203671629865 -0.1211525961033295 -0.024859135017659236 -0.0070435465649696678 0.02638304739109916 0.13939649500958937 -0.057318576843271123 0.14508388638837397 0.014774430779283738 0.13257622455877349 -0.14442992602455773 0.0091029439217814364 0.048707412962915989 0.11409469325747237 -0.0056726840134734557 -0.13417441959173204 0.14197307507592535 -0.078384789080245737 -0.11501102443348442 -0.005185513532655184 0.12963574648429074 0.13713914054371393 0.035374980801983001 -0.048866525523202677 0.10014452984754257 0.12199674650086068 -0.1100587650492556 -0.055496858289908836 0.0054582421251580613 0.15149140332570354 0.12036547983215516 -0.064298307650573344 -0.097125925506759039 0.015182954228495305 0.099266006233629522 -0.062007615906336438 -0.076646452723622915 0.063915327053420651 0.1585839686777448 0.041595600040752877 0.1557014533445174 0.031409381556722675 0.045530044714548065 0.1675249509079719 0.079709606608314679
leaf_weight=101.97439177334309 185.99392449855804 2.6618661582469931 14.27181103825569 16.503378868103027 2.9100208729505601 17.140585720539097 6.9477973431348783 3.5050808936357489 19.489762261509895 5.7223631590604827 4.2649229913949949 2.4318028688430786 2.601330891251564 2.4321835339069366 3.3543573766946793 4.2228889614343643 11.08115302026272 4.9663760513067237 3.444475218653678 2.8795374184846878 13.405773863196373 5.2809371948242188 8.7090112268924695 4.0385501384735107 4.5171146243810654 3.5745947659015638 6.2287030816078186 2.2216716408729553 2.3775524497032157 4.2198850810527802 13.189766094088553 7.7209983617067328 2.704174771904948 8.4183323234319669 2.4075811505317679 4.6287355273962083 3.8552008718252164 10.098536044359205 3.6569443792104712 2.6532625705003738 3.6218278110027313 8.8675882369279844 145.93777212500572 4.5844348967075339 6.6210837066173545 3.1488782316446295 2.2644934803247443 2.938444346189498 14.643061041831972 15.187216579914091 2.4185211956501034 2.6059052199125281 4.1417600512504569 8.9068579673767108 6.8066785931587246 5.151499778032302 3.8168749958276775 7.8284571468830091 4.3209717571735409 2.5306905210018149 2.315939873456955 24.575908169150352 3.3668236583471307 10.431907147169111 2.558453008532525 2.4295010268688193 3.4140824079513532 3.1110492646694174 2.6526790857315063 4.110951989889144 2.3321151435375214 2.446720689535141 2.672275483608245 2.4180260300636309 4.5424577146768561 3.0822670459747314 2.6712203323841095 3.2966136336326599 2.8829855918884277 8.6935146301984769 2.9396025091409674 2.5153234004974392 4.1051310449838621 10.677682176232343 2.8982919305562964 3.055368334054946 4.81976218521595 4.6616914868354797 3.1915114969015121 2.6995897889137268 11.567147716879846 8.0586287528276461 3.7012405842542639 8.2705317586660367
leaf_count=886 1616 11 124 76 12 71 29 15 81 24 18 10 11 10 14 18 45 21 14 12 55 23 37 17 19 16 27 10 10 18 54 32 11 35 10 19 16 41 15 11 15 37 616 19 28 13 10 12 60 63 10 11 17 37 28 21 16 32 18 11 10 101 14 43 11 10 14 13 11 17 10 10 11 10 19 13 11 14 12 36 12 11 17 45 12 13 20 19 13 11 47 33 15 34
internal_value=0 0.0259886 0.0475493 0.0511032 0.0527805 0.0265513 0.0500819 0.0183755 0.0488469 0.0508599 0.0188213 -0.0146569 0.0789834 0.0433134 0.0994945 0.0584843 0.0255332 0.0579545 0.00827249 -0.0049527 -0.0166949 -0.0538219 0.061422 -0.0562315 -0.0910001 -0.00113822 -0.0392799 -0.085545 0.0524972 2.14493e-05 0.0531864 0.051703 0.0760454 0.035595 0.0530566 0.0521712 0.0281183 0.0195054 0.0654119 0.0973278 0.0525996 0.0546846 0.0578995 0.0560215 0.0668205 0.0361794 0.0638614 0.0469376 0.0557058 0.0326519 0.0523521 0.0873302 0.0459244 0.0170372 0.0590829 0.041209 0.0900546 0.0700533 0.0414127 0.0212078 -0.071065 0.0612484 -0.00441844 0.02355 -0.0349098 0.0294352 0.00183475 -0.0277455 0.00457878 0.0589897 0.0614005 0.0479811 0.0391062 0.04022 0.0204137 -0.0300217 0.0184522 0.0729881 0.0824354 0.0428529 0.0525996 0.0603012 0.0457661 0.0296158 0.0444773 0.0611123 0.00938061 0.0781338 0.11104 0.0984944 0.0554108 0.0635973 0.0821851 0.106859
internal_weight=0 770.223 668.249 653.977 612.157 41.8198 595.654 39.158 581.129 534.939 26.0083 16.7098 9.29844 6.69711 14.525 7.57725 46.1899 16.0475 30.1424 26.6979 23.7879 10.3821 12.2141 10.9875 6.94892 26.9439 9.8033 7.50261 508.931 6.59744 502.333 471.721 30.6123 11.1225 458.531 450.81 42.6505 40.243 13.7872 10.1303 6.27509 408.16 347.745 338.877 154.823 60.4147 148.202 184.054 114.052 70.0018 111.114 17.249 93.8649 29.3758 64.4891 40.8908 23.5983 16.7916 57.2658 28.3689 4.84663 28.8969 26.4557 13.7987 12.657 26.9572 13.9394 11.5099 8.39888 13.0178 4.98479 12.9748 65.4174 23.5223 16.0106 8.17151 5.08925 7.83907 7.51172 62.7451 47.5579 44.6183 35.9248 23.9664 21.4511 18.5528 7.87513 11.9583 7.8532 5.14631 35.7393 31.5975 20.0304 11.9718
internal_count=5360 3744 2858 2734 2557 177 2481 166 2420 2228 109 70 39 28 61 32 192 66 126 112 100 45 52 46 29 114 43 33 2119 28 2091 1964 127 46 1910 1878 176 166 57 42 26 1702 1451 1414 654 251 626 760 469 291 457 71 386 122 264 167 97 69 238 119 21 119 109 57 52 112 58 48 35 54 21 53 272 98 67 34 21 33 31 261 198 186 150 101 90 78 33 49 32 21 146 129 82 49
is_linear=0
shrinkage=0.1


Tree=10
num_leaves=95
num_cat=0
split_feature=2 7 7 4 3 1 1 1 5 6 3 3 3 6 1 1 5 3 1 1 8 5 8 3 1 3 1 1 1 8 3 1 3 8 5 5 5 3 3 3 6 1 5 8 3 8 0 1 3 3 3 8 8 3 3 8 6 1 3 8 5 3 0 5 3 1 5 5 3 8 3 1 8 1 5 8 3 6 8 0 1 5 3 6 1 1 5 5 3 3 8 3 6 8
split_gain=262.985 201.807 32.8923 2.40407 2.09149 2.80643 14.5833 2.25017 2.1977 2.5047 2.81528 2.43985 2.42661 2.20487 2.58569 4.74588 2.40682 1.94007 1.81062 2.35014 1.92237 1.76474 2.10432 2.32843 2.11052 2.06719 1.70743 2.11742 1.7035 2.75121 2.34561 4.81211 3.42594 3.35193 2.64945 2.61156 7.08853 3.21083 3.22834 5.32718 2.33753 2.3036 2.29767 2.24393 2.21939 2.10635 2.03692 1.9857 3.16055 4.07027 3.48611 4.18756 3.11617 2.12742 2.33983 2.18729 5.24694 1.80935 1.74391 2.41327 1.69755 1.69182 1.68885 2.85383 3.23451 1.89453 1.6847 3.46791 1.66372 1.62558 2.5075 3.12875 2.50765 1.59106 2.74074 2.37427 1.58896 1.58608 1.58306 1.57733 3.92319 2.89632 1.81966 4.91667 4.22117 4.09164 1.73137 3.00337 1.57563 3.7588 2.62958 2.37172 2.36178 1.58439
