tree
version=v4
num_class=1
num_tree_per_iteration=1
label_index=0
max_feature_idx=8
objective=binary sigmoid:1
feature_names=Column_0 Column_1 Column_2 Column_3 Column_4 Column_5 Column_6 Column_7 Column_8
feature_infos=[0:11] [0:69] [0:12] [124587:201897] [0:3] [0:23] [0:15] [51873:241116] [-1:100]
tree_sizes=1693 1660 1669 1674 1660 1669 1675 1677 1681 1677 1679 1677 1689 1678 1684 1682 1690 1683 1681 1684 1677 1678 1686 1685 1682 1684 1681 1690 1695 1676 1689 1679 1686 1690 1695 1686 1694 1688 1692 1680 1681 1685 1681 1683 1698 1685 1699 1690 1699

Tree=0
num_leaves=15
num_cat=0
split_feature=2 7 7 4 1 1 1 5 5 3 3 3 5 5
split_gain=1143.53 1175.82 225.355 12.2362 9.15933 41.2351 9.24293 7.20586 9.08378 5.53643 5.94672 13.2302 8.14444 6.84401
threshold=4.5000000000000009 94402.000000000015 94406.000000000015 2.5000000000000004 1.0000000180025095e-35 20.500000000000004 26.500000000000004 10.500000000000002 14.500000000000002 129101.50000000001 140009.00000000003 143232.50000000003 4.5000000000000009 5.5000000000000009
decision_type=2 2 2 2 2 2 2 2 2 2 2 2 2 2
left_child=1 -1 3 -3 -5 -6 7 -7 -9 -8 13 -12 -13 -11
right_child=-2 2 -4 4 5 6 9 8 -10 10 11 12 -14 -15
leaf_value=-0.85407165664696783 -0.85407165664696783 -0.70349134605539421 -0.85407165664696783 -0.60791342436253903 -0.4023307248722468 -0.55348358417329413 -0.50719915546280703 -0.65900170883515652 -0.58302709758213522 -0.51162288578548576 -0.50563582167344268 -0.6102749633082295 -0.55216281031802383 -0.58778226528502697
leaf_weight=196.13010716438293 357.72714805603027 5.9768768548965445 27.449360370635986 36.968090176582336 16.823801517486572 58.219207882881165 24.792970657348633 19.480191230773926 81.905349493026733 13.724680185317991 57.112378835678101 27.892091989517212 178.1994765996933 84.119007587432861
leaf_count=886 1616 27 124 167 76 263 112 88 370 62 258 126 805 380
internal_value=-0.704643 -0.640146 -0.573828 -0.561117 -0.559697 -0.556527 -0.561283 -0.581523 -0.597625 -0.552911 -0.55605 -0.548225 -0.560028 -0.577099
internal_weight=0 828.794 632.663 605.214 599.237 562.269 545.445 159.605 101.386 385.841 361.048 263.204 206.092 97.8437
internal_count=5360 3744 2858 2734 2707 2540 2464 721 458 1743 1631 1189 931 442
is_linear=0
shrinkage=1


Tree=1
num_leaves=15
num_cat=0
split_feature=7 7 8 5 3 1 1 6 5 3 1 0 5 8
split_gain=724.475 1354.77 13.8334 12.3689 11.0652 7.22758 8.49142 6.99912 9.52266 6.0818 5.47773 5.287 4.84067 4.6006
threshold=94406.000000000015 94402.000000000015 50.108224868774421 20.500000000000004 185344.00000000003 18.500000000000004 22.500000000000004 4.5000000000000009 22.500000000000004 198318.50000000003 40.500000000000007 9.5000000000000018 11.500000000000002 55.662393569946296
decision_type=2 2 2 2 2 2 2 2 2 2 2 2 2 2
left_child=1 -1 11 9 5 -5 -7 -8 10 13 -9 12 -3 -4
right_child=-2 2 3 4 -6 6 7 8 -10 -11 -12 -13 -14 -15
leaf_value=-0.14256781395234996 -0.14256781395234996 0.089687953304435436 0.045097852323328774 -0.021422498493273195 0.15768473614534018 0.16534885418263406 0.16493763744790796 0.040634032370561644 0.18052329340810414 0.071244996693550014 0.11732810522518367 0.15160958168899435 0.13946390275259182 0.1307226564447958
leaf_weight=274.98126937448978 274.98126937448978 31.202781289815903 6.4521341174840918 7.5255854576826087 18.074461475014687 10.478847399353979 7.1534319072961798 63.774285346269608 6.2296784818172446 20.240377843379974 10.905182197690008 169.24260327219963 52.258974730968475 228.60148397088051
leaf_count=1313 1313 135 28 33 78 45 31 276 27 88 47 731 226 989
internal_value=0 0.0427235 0.123325 0.111253 0.0853613 0.073037 0.0802508 0.0701247 0.061742 0.123843 0.0518334 0.141452 0.120855 0.128372
internal_weight=0 907.121 632.14 379.435 124.141 106.067 98.5414 88.0626 80.9091 255.294 74.6795 252.704 83.4618 235.054
internal_count=5360 4047 2734 1642 537 459 426 381 350 1105 323 1092 361 1017
is_linear=0
shrinkage=0.1


Tree=2
num_leaves=15
num_cat=0
split_feature=2 7 7 8 4 1 1 3 6 8 0 3 1 3
split_gain=811.927 769.777 140.638 10.2301 8.91182 7.41899 20.1314 5.43508 5.46973 4.17592 3.89001 4.58936 4.2295 5.93271
threshold=4.5000000000000009 94402.000000000015 94406.000000000015 50.108224868774421 2.5000000000000004 1.0000000180025095e-35 20.500000000000004 129101.50000000001 4.5000000000000009 92.206478118896499 9.5000000000000018 184240.50000000003 26.500000000000004 139743.50000000003
decision_type=2 2 2 2 2 2 2 2 2 2 2 2 2 2
left_child=1 -1 3 10 -5 -6 -7 -8 9 -9 11 -3 -12 -14
right_child=-2 2 -4 4 5 6 7 8 -10 -11 12 -13 13 -15
leaf_value=-0.13691178429164699 -0.13691178429164699 0.096929155405356807 -0.13691178429164699 -0.035090214990637934 0.04243927663959584 0.22951980697367974 0.14859073367423667 0.095327963621847048 0.090309239236647271 0.16121678405176387 0.10766889833905009 0.16829652025128486 0.10772832049876005 0.15584085141305559
leaf_weight=174.46851253509521 318.21796417236328 75.731878042221069 24.417715072631836 5.0208370685577384 21.869740784168243 12.046784430742262 20.060169711709023 18.097491905093193 292.21936421096325 20.531769394874573 52.621369570493698 10.227444827556608 36.453173115849495 86.315689504146576
leaf_count=886 1616 318 124 22 94 49 84 76 1231 86 220 43 152 359
internal_value=0 0.0503473 0.0987045 0.107539 0.097277 0.099004 0.102412 0.0980486 0.0949841 0.130348 0.122847 0.10542 0.131388 0.141555
internal_weight=0 850.082 675.613 651.196 389.846 384.825 362.956 350.909 330.849 38.6293 261.35 85.9593 175.39 122.769
internal_count=5360 3744 2858 2734 1642 1620 1526 1477 1393 162 1092 361 731 511
is_linear=0
shrinkage=0.1


Tree=3
num_leaves=15
num_cat=0
split_feature=2 7 7 8 5 6 5 5 8 1 8 1 1 8
split_gain=693.15 635.052 113.783 7.89198 9.13039 6.48592 7.64127 4.46354 6.74374 4.45304 4.26899 4.01652 4.91707 7.39487
threshold=4.5000000000000009 94402.000000000015 94406.000000000015 50.108224868774421 20.500000000000004 4.5000000000000009 22.500000000000004 8.5000000000000018 20.02506256103516 26.500000000000004 58.387445449829109 27.500000000000004 40.500000000000007 81.405803680419936
decision_type=2 2 2 2 2 2 2 2 2 2 2 2 2 2
left_child=1 -1 3 7 10 -6 11 8 -3 -9 -5 -7 13 -13
right_child=-2 2 -4 4 5 6 -8 9 -10 -11 -12 12 -14 -15
leaf_value=-0.13218880860197033 -0.13218880860197033 0.076747795371326227 -0.13218880860197033 0.036191716639824005 0.13416898659495616 0.069429313190867745 0.14668394218501937 0.093269755562047363 0.17366491837502407 0.12623436829304263 0.099042189859476049 -0.05904258911171506 0.086464497388151651 0.038044438476305092
leaf_weight=163.21094670891762 297.68497729301453 66.167454704642296 22.842164099216461 11.282225027680395 11.961511477828024 52.613099694252014 8.7635692656040174 59.10402700304985 8.0534415096044523 133.62786492705345 256.60047687590122 10.278995141386984 12.396945536136625 33.135112002491951
leaf_count=886 1616 271 124 47 49 220 36 243 33 545 1058 43 51 138
internal_value=0 0.0451217 0.0872561 0.0948053 0.0858657 0.0640254 0.0568658 0.108101 0.0872639 0.116125 0.0963952 0.0496061 0.0309187 0.0150575
internal_weight=0 850.038 686.827 663.985 397.032 129.149 117.188 266.953 74.2209 192.732 267.883 108.424 55.8111 43.4141
internal_count=5360 3744 2858 2734 1642 537 488 1092 304 788 1105 452 232 181
is_linear=0
shrinkage=0.1


Tree=4
num_leaves=15
num_cat=0
split_feature=7 7 4 8 5 3 3 1 5 8 1 1 5 6
split_gain=455.809 761.278 6.45931 5.47886 6.92686 8.0975 4.73482 4.1747 4.12897 4.18501 3.96293 4.85115 4.31664 6.19334
threshold=94406.000000000015 94402.000000000015 2.5000000000000004 47.633054733276374 20.500000000000004 185344.00000000003 129101.50000000001 31.500000000000004 8.5000000000000018 20.02506256103516 18.500000000000004 22.500000000000004 22.500000000000004 4.5000000000000009
decision_type=2 2 2 2 2 2 2 2 2 2 2 2 2 2
left_child=1 -1 -3 8 -5 6 -6 -7 9 -4 -8 -12 13 -13
right_child=-2 2 3 4 5 7 10 -9 -10 -11 11 12 -14 -15
leaf_value=-0.1282030438179948 -0.1282030438179948 -0.016659578770513262 0.068557979089668056 0.08687462481318256 0.12463739422269329 0.15561277300148935 -0.027075239070581531 0.058791236258043313 0.10400993790684916 0.15284944209738929 0.1129449314855645 0.12052427600348391 0.11603730701941828 0.024774870885034384
leaf_weight=225.30150529742241 225.30150529742241 6.2912847846746436 66.352085769176483 271.36744409799576 7.6073417812585822 11.834691464900972 7.5069442242383948 7.140029862523078 191.83279186487198 6.4640194922685614 10.375826120376585 7.4638196825981131 6.9580474048852912 71.17715260386467
leaf_count=1313 1313 27 269 1103 31 48 32 29 774 26 42 30 28 295
internal_value=0 0.0308842 0.0841919 0.0851444 0.0777805 0.0588063 0.0484942 0.11918 0.0963144 0.0760407 0.0428966 0.0483696 0.0405422 0.0338625
internal_weight=0 897.673 672.371 666.08 401.431 130.064 111.089 18.9747 264.649 72.8161 103.482 95.9748 85.599 78.641
internal_count=5360 4047 2734 2707 1638 535 458 77 1069 295 427 395 353 325
is_linear=0
shrinkage=0.1


Tree=5
num_leaves=15
num_cat=0
split_feature=2 7 7 8 5 5 8 3 8 8 8 3 3 0
split_gain=514.345 443.28 76.7801 5.21426 6.23702 6.04774 8.081 6.89913 5.07341 4.93184 12.3639 4.89301 3.95889 4.94268
threshold=4.5000000000000009 94402.000000000015 94406.000000000015 47.633054733276374 8.5000000000000018 4.5000000000000009 74.933155059814467 143234.50000000003 85.811687469482436 62.533422470092781 67.556819915771499 129101.50000000001 138395.50000000003 10.500000000000002
decision_type=2 2 2 2 2 2 2 2 2 2 2 2 2 2
left_child=1 -1 3 -3 5 6 -5 -8 -9 -6 -11 -12 13 -7
right_child=-2 2 -4 4 9 12 7 8 -10 10 11 -13 -14 -15
leaf_value=-0.12480950173346102 -0.12480950173346102 0.086078278562838284 -0.12480950173346102 -0.028762052269074578 0.013882772617274551 0.13854972668160556 0.11445834992109755 0.12990877142676599 0.021716585857276819 0.18746786694688694 0.12202108099936859 0.057128963774182667 0.12866239140400701 0.029067641270114793
leaf_weight=141.10960558056831 257.37372756004333 267.52792821824551 19.748974144458771 7.8730685561895362 21.291304290294647 6.7181395590305337 27.877304121851921 5.4270067662000683 21.524024114012718 7.8582824468612662 12.188901409506796 248.79481539130211 39.237966641783714 10.677368432283401
leaf_count=886 1616 1074 124 32 87 27 112 22 87 32 49 1011 158 43
internal_value=0 0.0368173 0.069551 0.0752208 0.068127 0.0873709 0.065976 0.0795799 0.0435028 0.0602118 0.0638809 0.0601597 0.111058 0.0713496
internal_weight=0 837.855 696.745 676.996 409.468 119.335 62.7014 54.8283 26.951 290.133 268.842 260.984 56.6335 17.3955
internal_count=5360 3744 2858 2734 1660 481 253 221 109 1179 1092 1060 228 70
is_linear=0
shrinkage=0.1


Tree=6
num_leaves=15
num_cat=0
split_feature=2 7 7 3 4 3 1 1 1 6 3 5 5 3
split_gain=446.197 373.937 63.8009 5.02369 4.34386 4.08685 5.04696 24.441 5.33629 5.22988 3.62007 3.21389 4.6475 7.62978
threshold=4.5000000000000009 94402.000000000015 94406.000000000015 200859.50000000003 2.5000000000000004 129101.50000000001 1.0000000180025095e-35 20.500000000000004 22.500000000000004 5.5000000000000009 174173.50000000003 22.500000000000004 21.500000000000004 181454.50000000003
decision_type=2 2 2 2 2 2 2 2 2 2 2 2 2 2
left_child=1 -1 3 4 -3 -6 9 -8 -9 10 -7 12 -10 -14
right_child=-2 2 -4 -5 5 6 7 8 11 -11 -12 -13 13 -15
leaf_value=-0.12189847851749616 -0.12189847851749616 -0.01561575180163517 -0.12189847851749616 -0.024044231027590908 0.099940238917355428 0.038854107797780812 0.18232577742480222 0.032473903169514665 0.069344410957012201 -0.014196551973701305 0.12860884656242463 0.11667103912839856 -0.0145290753425854 0.10628431961975003
leaf_weight=130.57235106825829 238.154536485672 6.1189138591289511 18.274234235286713 5.9488284885883322 40.187025457620621 18.174238383769993 18.547708675265312 44.608159407973289 487.35039030015469 14.962233453989027 5.9697277247905722 13.49460059404373 16.284068197011951 7.6987227946519843
leaf_count=886 1616 26 124 24 161 74 75 179 1959 61 24 54 66 31
internal_value=0 0.033418 0.0624883 0.0674483 0.0682566 0.0690257 0.0670445 0.0693581 0.0656785 0.0322581 0.0610465 0.0685008 0.0672295 0.0242533
internal_weight=0 828.191 697.619 679.345 673.396 667.277 627.09 587.984 569.436 39.1062 24.144 524.828 511.333 23.9828
internal_count=5360 3744 2858 2734 2710 2684 2523 2364 2289 159 98 2110 2056 97
is_linear=0
shrinkage=0.1


Tree=7
num_leaves=15
num_cat=0
split_feature=2 7 7 8 5 3 3 3 1 1 1 8 8 0
split_gain=388.613 317.187 53.3667 4.35045 5.28629 5.96126 3.68773 3.41398 3.33161 4.59296 3.51548 5.82641 3.89611 3.18079
threshold=4.5000000000000009 94402.000000000015 94406.000000000015 50.108224868774421 20.500000000000004 185344.00000000003 198316.00000000003 184240.50000000003 18.500000000000004 22.500000000000004 40.500000000000007 92.64068984985353 89.48966217041017 9.5000000000000018
decision_type=2 2 2 2 2 2 2 2 2 2 2 2 2 2
left_child=1 -1 3 13 6 8 7 -5 -6 -10 11 -11 -12 -3
right_child=-2 2 -4 4 5 -7 -8 -9 9 10 12 -13 -14 -15
leaf_value=-0.11938538270223142 -0.11938538270223142 0.055108203515885461 -0.11938538270223142 0.06341763544035027 -0.034128290435289733 0.089009364274094963 0.023790223446248489 0.12893582595999792 0.094426246711153905 -0.012404853840128007 0.12382240247413104 0.042069756379721081 0.018954755294354295 0.078085576239854293
leaf_weight=120.50518223643303 219.79274773597717 90.036635026335716 16.865285098552704 243.80726836621761 7.7990375757217398 19.347555533051491 23.077670082449913 8.2212838977575284 11.106641948223112 34.861536219716072 7.2132448405027372 44.950494006276131 6.9624471217393875 182.08972153067589
leaf_count=886 1616 361 124 979 33 78 93 33 45 142 29 182 28 731
internal_value=0 0.0304091 0.0563318 0.0606933 0.0541532 0.0377224 0.0620514 0.0655549 0.0289328 0.0336126 0.0264262 0.0182755 0.0723162 0.0704832
internal_weight=0 816.844 696.339 679.474 407.347 132.241 275.106 252.029 112.893 105.094 93.9877 79.812 14.1757 272.126
internal_count=5360 3744 2858 2734 1642 537 1105 1012 459 426 381 324 57 1092
is_linear=0
shrinkage=0.1


Tree=8
num_leaves=15
num_cat=0
split_feature=2 7 7 3 8 5 1 1 1 8 1 5 8 8
split_gain=339.575 270.269 44.8802 3.99113 3.55813 5.2109 3.89376 10.362 3.69039 4.29743 6.27074 6.96611 4.44515 3.91299
threshold=4.5000000000000009 94402.000000000015 94406.000000000015 200859.50000000003 47.633054733276374 8.5000000000000018 1.0000000180025095e-35 20.500000000000004 40.500000000000007 87.550323486328139 24.500000000000004 17.500000000000004 73.623321533203139 79.622509002685561
decision_type=2 2 2 2 2 2 2 2 2 2 2 2 2 2
left_child=1 -1 3 4 -3 -6 -7 -8 9 10 13 12 -12 -9
right_child=-2 2 -4 -5 5 6 7 8 -10 -11 11 -13 -14 -15
leaf_value=-0.11720384856321378 -0.11720384856321378 0.064493600763968664 -0.11720384856321378 -0.026833274998470109 0.067344616834276047 -0.0049285288634035966 0.16097832033099857 0.016345170509691011 0.06761684438642436 0.047470896263933027 0.011305887341459618 0.0048363407810287293 0.098265689909355067 -0.072426566315141605
leaf_weight=110.96238747239113 202.38737940788269 264.18054194748402 15.529724657535551 5.9467697441577902 117.72724752128124 16.399089455604553 7.522585302591323 9.4517696648836154 46.341657161712646 136.81284563243389 8.467315077781679 35.687629193067551 19.224534094333649 10.461257040500639
leaf_count=886 1616 1064 124 24 474 68 32 38 186 550 34 145 77 42
internal_value=0 0.027704 0.0508813 0.0547301 0.0554515 0.0495982 0.042403 0.0452362 0.0419684 0.0365683 0.0186602 0.03404 0.0716761 -0.0302908
internal_weight=0 804.715 693.753 678.223 672.276 408.096 290.369 273.97 266.447 220.105 83.2925 63.3795 27.6918 19.913
internal_count=5360 3744 2858 2734 2710 1646 1172 1104 1072 886 336 256 111 80
is_linear=0
shrinkage=0.1


Tree=9
num_leaves=15
num_cat=0
split_feature=2 7 7 4 3 1 1 1 8 6 8 8 8 6
split_gain=297.618 231.26 37.9328 3.85867 3.58939 3.53945 20.5875 4.44864 4.3175 3.76868 3.21603 8.15131 4.60544 3.78241
threshold=4.5000000000000009 94402.000000000015 94406.000000000015 2.5000000000000004 129101.50000000001 1.0000000180025095e-35 20.500000000000004 22.500000000000004 87.96551895141603 5.5000000000000009 66.079193115234389 62.533422470092781 69.253246307373061 5.5000000000000009
decision_type=2 2 2 2 2 2 2 2 2 2 2 2 2 2
left_child=1 -1 3 -3 -5 9 -7 8 -8 -6 11 13 -12 -9
right_child=-2 2 -4 4 5 6 7 10 -10 -11 12 -13 -14 -15
leaf_value=-0.11530117868388318 -0.11530117868388318 -0.027670034644355308 -0.11530117868388318 0.079369309128005425 0.04350783238803179 0.15768350673313547 -0.013558119486725563 0.067740938472270765 0.04849808283957685 -0.020234007955947497 -0.046528389908575676 0.15784826015383163 0.0442518568859743 0.042269362804037286
leaf_weight=101.97439177334309 185.99392449855804 6.4276534467935553 14.27181103825569 39.638080164790154 24.445838049054146 17.32370100915432 22.915101140737534 114.0858718007803 21.951370641589165 14.946884810924528 5.7016949653625479 7.9253934025764456 281.28640285134315 119.22075870633125
leaf_count=886 1616 27 124 161 99 75 92 462 88 61 23 32 1132 482
internal_value=0 0.0252646 0.0460344 0.0494412 0.0501816 0.0483446 0.050281 0.0470343 0.0168035 0.0193221 0.0496021 0.0581128 0.0424483 0.0547248
internal_weight=0 792.115 690.141 675.869 669.441 629.803 590.41 573.087 44.8665 39.3927 528.22 241.232 286.988 233.307
internal_count=5360 3744 2858 2734 2707 2546 2386 2311 180 160 2131 976 1155 944
is_linear=0
shrinkage=0.1


Tree=10
num_leaves=15
num_cat=0
split_feature=2 7 7 3 8 4 6 3 6 8 8 3 1 3
split_gain=261.553 198.643 32.2085 3.21201 2.80908 3.26023 3.61812 3.69685 3.04785 3.80028 3.53358 3.78295 3.13932 4.04942
threshold=4.5000000000000009 94402.000000000015 94406.000000000015 200859.50000000003 50.108224868774421 2.5000000000000004 1.5000000000000002 143234.50000000003 4.5000000000000009 58.387445449829109 70.064933776855483 160862.00000000003 36.500000000000007 185310.00000000003
decision_type=2 2 2 2 2 2 2 2 2 2 2 2 2 2
left_child=1 -1 3 4 -3 -6 -7 -8 -9 -10 11 -11 13 -12
right_child=-2 2 -4 -5 5 6 7 8 9 10 12 -13 -14 -15
leaf_value=-0.11363484112868066 -0.11363484112868066 0.053359268143995935 -0.11363484112868066 -0.028493362016803893 -0.040752739818565815 0.12102495099300457 0.050143193257880761 0.062609110224500719 -0.03863728540696415 0.020062907649875696 0.0074477079889603004 0.13029371832529477 0.049915989770669703 0.052492523331751077
leaf_weight=93.553684636950493 170.63516294956207 265.4176632463932 13.093292206525801 5.9385475516319266 4.9260953664779654 5.5846977084875098 186.47917422652245 26.068943008780479 8.6539947986602765 5.694185405969618 92.891547992825508 6.8689641058444977 38.763018593192101 25.418419301509857
leaf_count=886 1616 1082 124 24 21 23 757 106 35 23 376 28 156 103
internal_value=0 0.0230554 0.0417021 0.0447255 0.0453776 0.0400993 0.041104 0.039962 0.0306716 0.0260018 0.0292993 0.0803321 0.0252176 0.0171254
internal_weight=0 779.352 685.799 672.705 666.767 401.349 396.423 390.838 204.359 178.29 169.636 12.5631 157.073 118.31
internal_count=5360 3744 2858 2734 2710 1628 1607 1584 827 721 686 51 635 479
is_linear=0
shrinkage=0.1


Tree=11
num_leaves=15
num_cat=0
split_feature=2 7 7 5 5 8 3 3 3 0 6 3 0 5
split_gain=230.368 171.16 27.4506 3.35859 3.48464 4.20125 5.22561 3.36914 3.35692 3.27637 3.11264 3.26661 4.50807 3.41398
threshold=4.5000000000000009 94402.000000000015 94406.000000000015 22.500000000000004 21.500000000000004 85.634922027587905 164523.00000000003 143237.50000000003 200859.50000000003 7.5000000000000009 3.5000000000000004 143427.00000000003 10.500000000000002 14.500000000000002
decision_type=2 2 2 2 2 2 2 2 2 2 2 2 2 2
left_child=1 -1 3 4 8 7 -7 -6 9 -3 11 -11 13 -13
right_child=-2 2 -4 -5 5 6 -8 -9 -10 10 -12 12 -14 -15
leaf_value=-0.11217024016810498 -0.11217024016810498 -0.025976041848056821 -0.11217024016810498 0.084026541587968309 0.090759187288241394 -0.085496721477290039 0.041205731560095354 0.0027814973558290801 -0.035540944109422504 0.03108835538719007 0.039974637640059874 -0.0039339432753894357 0.10214629139148726 0.092666777776833728
leaf_weight=85.69937489926815 156.30946934223175 7.077802672982215 11.994043439626692 17.241621911525726 7.3366777598857906 8.1784287393093127 5.4072924852371207 10.702833622694014 5.6832246929407111 21.421288087964058 542.55399027466774 9.1253966391086561 28.591719627380371 6.1067265570163718
leaf_count=886 1616 29 124 71 30 33 22 44 23 87 2215 37 118 25
internal_value=0 0.021025 0.0377764 0.040463 0.0393113 0.00693191 -0.0350675 0.0385621 0.0409614 0.0416685 0.0424563 0.0630926 0.0787364 0.0347944
internal_weight=0 767.12 681.421 669.427 652.185 31.6252 13.5857 18.0395 620.56 614.877 607.799 65.2451 43.8238 15.2321
internal_count=5360 3744 2858 2734 2663 129 55 74 2534 2511 2482 267 180 62
is_linear=0
shrinkage=0.1


Tree=12
num_leaves=15
num_cat=0
split_feature=2 7 7 5 5 1 0 1 0 1 1 1 8 5
split_gain=203.336 147.94 23.4831 2.80597 2.84051 5.98265 4.86521 3.20373 2.61449 2.98742 15.9054 5.8943 3.23425 3.33842
threshold=4.5000000000000009 94402.000000000015 94406.000000000015 22.500000000000004 21.500000000000004 36.500000000000007 9.5000000000000018 25.500000000000004 7.5000000000000009 20.500000000000004 1.0000000180025095e-35 22.500000000000004 92.880565643310561 18.500000000000004
decision_type=2 2 2 2 2 2 2 2 2 2 2 2 2 2
left_child=1 -1 3 4 8 6 -6 -8 -3 10 -10 12 13 -11
right_child=-2 2 -4 -5 5 -7 7 -9 9 11 -12 -13 -14 -15
leaf_value=-0.11087888743693547 -0.11087888743693547 -0.02340986686664398 -0.11087888743693547 0.076707220296461778 0.045869865331084961 0.072695508296755709 -0.0045027104503002294 -0.097462371119382996 0.025172716905201665 -0.044182335971064898 0.14483170456996938 0.038612961269537158 0.033971914967250813 0.033178912469226933
leaf_weight=78.400775194168091 142.99735069274902 7.068780228495597 10.972568988800047 17.010294616222382 7.0920682400465056 9.4787098020315153 6.8620761930942544 8.0642668008804304 37.821305677294731 18.840400427579883 15.727859422564505 512.62047943472862 17.538376212120056 7.9244456738233557
leaf_count=886 1616 29 124 71 29 39 28 33 154 76 74 2098 71 32
internal_value=0 0.0191645 0.0342239 0.0366143 0.0355635 0.00627077 -0.0223244 -0.0547261 0.0370576 0.0377577 0.0603176 0.0355886 0.000594174 -0.0212775
internal_weight=0 755.422 677.022 666.049 649.039 31.4971 22.0184 14.9263 617.542 610.473 53.5492 556.924 44.3032 26.7648
internal_count=5360 3744 2858 2734 2663 129 90 61 2534 2505 228 2277 179 108
is_linear=0
shrinkage=0.1


Tree=13
num_leaves=15
num_cat=0
split_feature=2 0 4 0 3 6 6 1 8 5 6 3 3 3
split_gain=179.867 41.4761 23.5786 8.03998 5.06959 3.522 3.3451 3.44406 4.74485 4.90075 4.34593 6.51275 4.03706 3.9625
threshold=4.5000000000000009 7.5000000000000009 2.5000000000000004 6.5000000000000009 134119.50000000003 3.5000000000000004 11.500000000000002 46.500000000000007 81.405803680419936 14.500000000000002 14.500000000000002 160107.50000000003 164523.00000000003 140448.00000000003
decision_type=2 2 2 2 2 2 2 2 2 2 2 2 2 2
left_child=1 3 -3 -1 -4 -6 -7 8 -8 10 11 -10 13 -11
right_child=-2 2 4 -5 5 6 7 -9 9 12 -12 -13 -14 -15
leaf_value=0.04931533708068063 -0.10973712151975645 -0.08934715424898157 0.051529996317798255 -0.10175751554870692 0.044171411690674539 0.015801843966919926 0.057247808293642399 -0.017157776046161269 0.10750347279927552 0.0082943764331453729 -0.041790817905219074 0.0096553021986667126 0.044805129494919771 -0.083316410631850982
leaf_weight=3.9424041658639899 130.66657555103302 18.236284837126732 69.187071897089481 33.094566859304905 69.663372986018658 412.30948583781719 65.777419939637184 12.085359103977678 14.11061801761389 9.2359599396586471 4.9194265604019156 13.133807301521299 8.3940481096506101 9.6593332439661008
leaf_count=16 1616 193 289 376 312 1987 274 52 59 38 20 55 34 39
internal_value=0 0.0174782 0.0228842 -0.0856766 0.025857 0.0229888 0.020304 0.0338223 0.0387421 0.0182679 0.0447137 0.0603335 -0.0129017 -0.0385373
internal_weight=0 743.749 706.712 37.037 688.476 619.289 549.625 137.316 125.231 59.4532 32.1639 27.2444 27.2893 18.8953
internal_count=5360 3744 3352 392 3159 2870 2558 571 519 245 134 114 111 77
is_linear=0
shrinkage=0.1


Tree=14
num_leaves=15
num_cat=0
split_feature=7 7 3 1 1 3 3 3 1 8 3 5 3 8
split_gain=132.403 165.361 2.4356 2.64916 17.4573 3.23569 3.71444 3.02233 2.9898 3.92561 3.08455 6.80399 6.50388 5.12831
threshold=94402.000000000015 94406.000000000015 129101.50000000001 1.0000000180025095e-35 20.500000000000004 129847.00000000001 133687.00000000003 160892.50000000003 22.500000000000004 87.96551895141603 134507.00000000003 5.5000000000000009 134121.50000000003 7.0197043418884286
decision_type=2 2 2 2 2 2 2 2 2 2 2 2 2 2
left_child=-1 2 -2 7 -5 -6 -7 -4 9 -8 11 -10 13 -13
right_child=1 -3 3 4 5 6 8 -9 10 -11 -12 12 -14 -15
leaf_value=-0.10917359260654809 0.055212078876144877 -0.10878159683370439 -0.013093806901367378 0.13802127226035571 -0.017149013949564682 0.085922081734636474 -0.02606152089064975 0.045586966767443796 0.10302180465340832 0.034996275300508257 0.032894402214896971 0.12817477191505791 -0.041534385487972655 -0.004396812379899329
leaf_weight=100.76620317995548 38.54801732301712 97.384637042880058 28.700879767537117 14.865233838558195 15.284156829118727 11.424424618482588 22.303889706730843 12.643695384263991 6.0403789132833472 19.947223499417305 452.87746870517731 4.8220116943120939 24.251465991139412 7.3894876688718796
leaf_count=1313 164 1313 117 75 63 47 90 52 25 81 1871 20 99 30
internal_value=0 0.0128502 0.0308219 0.0293068 0.0310524 0.0282348 0.0294981 0.00485152 0.0282992 0.00276455 0.030477 0.00471942 -0.0115652 0.0479523
internal_weight=0 756.483 659.098 620.55 579.206 564.341 549.056 41.3446 537.632 42.2511 495.381 42.5033 36.463 12.2115
internal_count=5360 4047 2734 2570 2401 2326 2263 169 2216 171 2045 174 149 50
is_linear=0
shrinkage=0.1


Tree=15
num_leaves=15
num_cat=0
split_feature=2 7 7 5 3 3 3 6 3 1 3 3 5 1
split_gain=141.417 104.458 16.101 2.41421 2.75408 3.08258 2.59346 2.66743 3.05066 5.48782 3.49747 3.50479 3.09656 2.98097
threshold=4.5000000000000009 94402.000000000015 94406.000000000015 22.500000000000004 143237.50000000003 175682.50000000003 200859.50000000003 5.5000000000000009 134119.50000000003 1.0000000180025095e-35 181453.50000000003 174252.50000000003 11.500000000000002 27.500000000000004
decision_type=2 2 2 2 2 2 2 2 2 2 2 2 2 2
left_child=1 -1 3 6 -5 -6 7 -3 -9 12 11 -11 -10 -13
right_child=-2 2 -4 4 5 -7 -8 8 9 10 -12 13 -14 -15
leaf_value=-0.10840828692012416 -0.10782498998188583 0.034869516222390207 -0.1083386132930599 0.12297524050070188 -0.0089927277612116968 0.098254023751086661 -0.040298787859397778 0.041073896111775567 0.019514310777459517 0.019197851171054145 0.049445896216367614 0.015034493054700677 -0.078873725431760647 -0.073937326249526661
leaf_weight=63.203064627945423 108.76427780836821 279.1812822073698 8.7864252403378469 5.5633725672960308 6.30508244037628 4.6615161746740341 5.6821912527084342 66.606680855154991 4.9668890535831443 221.87144020199776 36.087539583444595 7.336737707257269 8.9864755123853666 7.7369512617588043
leaf_count=886 1616 1169 124 24 27 20 23 283 20 919 150 30 37 32
internal_value=0 0.0144348 0.0261317 0.0279356 0.0656668 0.0365941 0.0269587 0.0275627 0.0217935 0.0173187 0.0204448 0.0160278 -0.0438512 -0.0306325
internal_weight=0 726.976 663.773 654.986 16.53 10.9666 638.456 632.774 353.593 286.986 273.033 236.945 13.9534 15.0737
internal_count=5360 3744 2858 2734 71 47 2663 2640 1471 1188 1131 981 57 62
is_linear=0
shrinkage=0.1


Tree=16
num_leaves=15
num_cat=0
split_feature=2 0 4 0 1 1 1 8 3 6 1 8 5 5
split_gain=125.719 26.7563 14.8546 6.31962 3.25829 14.8779 4.07026 3.63773 3.49522 3.62911 3.82645 4.78286 6.23319 4.40621
threshold=4.5000000000000009 7.5000000000000009 2.5000000000000004 6.5000000000000009 20.500000000000004 1.0000000180025095e-35 22.500000000000004 92.880565643310561 129101.50000000001 10.500000000000002 46.500000000000007 78.528137207031264 20.500000000000004 3.5000000000000004
decision_type=2 2 2 2 2 2 2 2 2 2 2 2 2 2
left_child=1 3 -3 -1 5 -4 7 -6 -8 -10 11 13 -13 -11
right_child=-2 2 4 -5 6 -7 8 -9 9 10 -12 12 -14 -15
leaf_value=0.039369279121863443 -0.10702515431592555 -0.081507146806157005 0.011852884937984195 -0.096831867622611464 -0.030981588135922208 0.1321369447227517 0.051960699062576755 0.024248224854306524 0.013139033095900077 -0.027898928868093021 -0.018929966143883051 0.039989986325567925 -0.028692617019386718 0.067932575139341575
leaf_weight=3.9157991409301784 99.111851744353771 14.922157958149908 39.672066256403923 26.201059974730015 31.217543624341488 13.881211042404173 31.779975965619087 19.297840677201748 404.69662039726973 5.2933751419186583 13.142295949161051 42.660908587276936 19.142525054514408 51.255113266408443
leaf_count=16 1616 193 164 376 154 76 139 86 1984 23 57 179 78 219
internal_value=0 0.0131322 0.0171768 -0.079123 0.019368 0.043031 0.017319 -0.00988275 0.0197384 0.0178286 0.0322614 0.0379459 0.0187168 0.058962
internal_weight=0 717.078 686.962 30.1169 672.039 53.5533 618.486 50.5154 567.971 536.191 131.494 118.352 61.8034 56.5485
internal_count=5360 3744 3352 392 3159 240 2919 240 2679 2540 556 499 257 242
is_linear=0
shrinkage=0.1


Tree=17
num_leaves=15
num_cat=0
split_feature=2 7 7 8 3 3 8 1 8 1 0 1 1 6
split_gain=111.943 85.8487 13.0087 2.21323 3.21548 5.75195 3.57886 3.35438 4.75716 3.46173 2.98504 4.22398 6.63107 5.35285
threshold=4.5000000000000009 94402.000000000015 94406.000000000015 47.633054733276374 139541.50000000003 134121.50000000003 25.19841289520264 43.500000000000007 7.582566738128663 29.500000000000004 9.5000000000000018 26.500000000000004 20.500000000000004 5.5000000000000009
decision_type=2 2 2 2 2 2 2 2 2 2 2 2 2 2
left_child=1 -1 3 4 5 -3 10 8 9 -7 -6 12 -12 -13
right_child=-2 2 -4 -5 6 7 -8 -9 -10 -11 11 13 -14 -15
leaf_value=-0.10731223281771617 -0.1063121250450597 0.038816157909855792 -0.10720290144578842 0.018922813057167535 0.015260799135921399 -0.023964810590135249 0.089214196629761849 -0.095416151303574989 -0.072342433081306265 0.065883996490331914 0.082658713848473314 0.082321864108662379 -0.014721955511403399 0.031078171827586706
leaf_weight=55.666697576642036 90.250852353870869 35.852851271629333 7.6967869214713565 396.75441637635231 57.411269217729568 8.1456389278173535 12.545566603541372 4.998335286974906 7.4465675652027121 9.0549546182155591 9.8479197174310666 38.902898266911507 24.117168456315994 42.824047937989235
leaf_count=886 1616 156 124 1660 242 34 54 21 31 38 44 169 101 184
internal_value=0 0.0119141 0.0220376 0.0235729 0.030919 0.0118692 0.0376399 -0.0207201 -0.00557204 0.0233345 0.0339021 0.0431526 0.0135128 0.0554707
internal_weight=0 711.265 655.598 647.902 251.147 65.4983 185.649 29.6455 24.6472 17.2006 173.103 115.692 33.9651 81.7269
internal_count=5360 3744 2858 2734 1074 280 794 124 103 72 740 498 145 353
is_linear=0
shrinkage=0.1


Tree=18
num_leaves=15
num_cat=0
split_feature=2 7 7 5 6 3 6 3 5 3 3 3 5 5
split_gain=99.8061 75.3184 11.3277 2.05525 2.50683 3.98138 2.18042 2.84736 6.16168 9.89538 7.02718 5.85324 5.30987 4.56575
threshold=4.5000000000000009 94402.000000000015 94406.000000000015 22.500000000000004 6.5000000000000009 145116.50000000003 3.5000000000000004 143234.50000000003 4.5000000000000009 149721.50000000003 160937.00000000003 140009.00000000003 5.5000000000000009 5.5000000000000009
decision_type=2 2 2 2 2 2 2 2 2 2 2 2 2 2
left_child=1 -1 3 6 5 -5 -3 11 9 -9 -11 12 -8 -10
right_child=-2 2 -4 4 -6 -7 7 8 13 10 -12 -13 -14 -15
leaf_value=-0.10656920491010576 -0.10567551036101859 0.037807354994097452 -0.10647162535878159 0.086907460819661941 0.11575226808180168 -0.033357714254995466 0.052025959543025906 -0.10163325612214121 0.096201244320042734 0.098613898095418623 -0.020696559483751972 0.044613843612093397 0.006691371794303339 0.014890582452325425
leaf_weight=50.702546410262585 82.129171166568995 64.824094012379646 7.0097288377583018 5.8374909460544604 4.9635781198739997 5.2089548408985138 31.327597856521606 11.883780449628828 7.1137019246816626 6.4830411523580578 20.694560006260872 102.5086126178503 147.38319292664528 236.35611346364021
leaf_count=886 1616 279 124 26 22 23 136 49 30 27 86 437 624 995
internal_value=0 0.0108297 0.0199649 0.0213398 0.0567212 0.0301964 0.0204387 0.0184415 0.0113511 -0.0255182 0.00776418 0.0255649 0.0146384 0.0172663
internal_weight=0 702.297 651.594 644.585 16.01 11.0464 628.575 563.751 282.531 39.0614 27.1776 281.219 178.711 243.47
internal_count=5360 3744 2858 2734 71 49 2663 2384 1187 162 113 1197 760 1025
is_linear=0
shrinkage=0.1


Tree=19
num_leaves=15
num_cat=0
split_feature=2 0 4 3 0 3 1 6 6 6 8 1 5 5
split_gain=89.0957 17.2049 9.57143 5.45875 8.0392 2.32789 2.63419 2.14444 2.08534 2.58399 3.23105 4.52521 3.71153 4.23001
threshold=4.5000000000000009 7.5000000000000009 2.5000000000000004 166936.00000000003 6.5000000000000009 129101.50000000001 39.500000000000007 5.5000000000000009 3.5000000000000004 11.500000000000002 79.447261810302749 46.500000000000007 14.500000000000002 9.5000000000000018
decision_type=2 2 2 2 2 2 2 2 2 2 2 2 2 2
left_child=1 3 -3 -1 -5 6 -4 -6 -7 -10 11 -11 13 -12
right_child=-2 2 5 4 7 8 -8 -9 9 10 12 -13 -14 -15
leaf_value=-0.10075942155650658 -0.10510634975510356 -0.07430868273770895 0.022904247656499368 0.17682191301578826 -0.11077060592187714 0.029860635808360965 0.084294946636436163 0.032697034886466102 0.0069770371037081742 0.046302839992789939 0.0025419118500103854 -0.027849044447713484 -0.018046989981188529 0.069465119912075809
leaf_weight=18.014440644532446 74.69541485235095 12.363251328468321 26.064912080764771 1.9354400038719166 3.2470839694142342 66.153586566448212 9.5504228174686414 1.5340708345174787 407.79334820061922 65.509177677333355 25.287884701043367 9.4123671725392324 32.041518025100231 15.075025469064711
leaf_count=309 1616 193 116 8 62 312 44 13 2053 286 112 41 132 63
internal_value=0 0.00983578 0.0128625 -0.0720721 0.00486948 0.0145032 0.0393665 -0.0647379 0.0130779 0.0110779 0.0224288 0.0369872 0.0073644 0.0275369
internal_weight=0 693.983 669.251 24.731 6.71659 656.888 35.6153 4.78115 621.273 555.119 147.326 74.9215 72.4044 40.3629
internal_count=5360 3744 3352 392 83 3159 160 75 2999 2687 634 327 307 175
is_linear=0
shrinkage=0.1


Tree=20
num_leaves=15
num_cat=0
split_feature=7 7 5 3 3 3 6 8 1 5 1 1 8 1
split_gain=73.9343 77.6884 1.73125 2.24443 2.49792 2.07587 2.08876 2.55216 4.32706 4.58758 6.09092 3.51357 2.96355 2.93655
threshold=94402.000000000015 94406.000000000015 22.500000000000004 143237.50000000003 175682.50000000003 200859.50000000003 5.5000000000000009 48.187410354614265 25.500000000000004 6.5000000000000009 37.500000000000007 20.500000000000004 54.262557983398445 42.500000000000007
decision_type=2 2 2 2 2 2 2 2 2 2 2 2 2 2
left_child=-1 2 5 -4 -5 6 7 8 11 10 -10 -2 -9 -14
right_child=1 -3 3 4 -6 -7 -8 12 9 -11 -12 -13 13 -15
leaf_value=-0.10542709427896856 0.049755963215980546 -0.10471318748805231 0.10554771712769065 -0.016284562239469755 0.082442084583673247 -0.043170235916486242 0.012575249678401538 -0.055847229447842532 -0.050138564237689524 0.062869567809440516 0.063178343593819283 -0.01730932265083935 0.02340870781148411 -0.022129283690449829
leaf_weight=62.52759812772274 12.056583747267721 56.115729626268148 5.0724487155675879 6.1859842687845212 4.3754649609327316 5.6473980844020835 345.58794744312763 5.5117819756269446 9.528240844607355 58.421760559082031 9.4458891004323942 22.188284397125244 139.09390537440777 15.765961214900015
leaf_count=1313 55 1313 24 27 20 23 1471 23 41 259 41 93 590 67
internal_value=0 0.00809857 0.0180073 0.0508748 0.0246165 0.0171829 0.0177347 0.0242898 0.0358992 0.0489948 0.00627398 0.00630234 0.016208 0.0187726
internal_weight=0 694.997 638.882 15.6339 10.5614 623.248 617.6 272.012 111.641 77.3959 18.9741 34.2449 160.372 154.86
internal_count=5360 4047 2734 71 47 2663 2640 1169 489 341 82 148 680 657
is_linear=0
shrinkage=0.1


Tree=21
num_leaves=15
num_cat=0
split_feature=2 7 4 5 1 5 1 3 3 3 8 8 5 0
split_gain=71.2195 55.3323 2.30753 2.14201 2.02229 3.27582 3.93845 3.25453 1.8044 4.30645 2.59808 2.45037 3.16053 5.10227
threshold=4.5000000000000009 94402.000000000015 2.5000000000000004 14.500000000000002 39.500000000000007 10.500000000000002 42.500000000000007 144074.50000000003 134119.50000000003 134897.50000000003 79.447261810302749 55.497076034545906 18.500000000000004 10.500000000000002
decision_type=2 2 2 2 2 2 2 2 2 2 2 2 2 2
left_child=1 -1 3 -3 -4 6 7 -6 -7 -10 11 12 -11 -14
right_child=-2 2 4 -5 5 8 -8 -9 9 10 -12 -13 13 -15
leaf_value=-0.10518640275954463 -0.10413909803126031 0.024094923654838944 0.012942415251312256 -0.078694891939512832 0.094900151827600449 0.084359919611034784 -0.0085925758393306031 -0.0042374620719432118 -0.046946813730579073 0.010058439847181078 0.017705671017492441 0.10829980486897789 0.0061057317201672311 0.11029677389922117
leaf_weight=40.569851752370596 61.676383819431067 3.4199563972651941 495.15570947155356 4.9785617254674435 7.9628203809261304 7.9121346473693839 39.870477516204119 5.6688259094953537 6.0255591534078112 14.535529833286999 28.328835133463144 7.5931969322264186 7.5125698447227487 12.554406799376011
leaf_count=886 1616 28 2167 55 35 37 173 24 26 65 122 33 35 58
internal_value=0 0.00807239 0.0152349 -0.0368379 0.0159257 0.0266326 0.00727189 0.053673 0.0388966 0.0341976 0.0411305 0.0568571 0.0455685 0.0712903
internal_weight=0 682.088 641.519 8.39852 633.12 137.964 53.5021 13.6316 84.4622 76.5501 70.5245 42.1957 34.6025 20.067
internal_count=5360 3744 2858 83 2775 608 232 59 376 339 313 191 158 93
is_linear=0
shrinkage=0.1


Tree=22
num_leaves=15
num_cat=0
split_feature=2 0 4 3 0 3 1 1 1 8 5 3 5 3
split_gain=63.7831 11.2421 5.85151 4.90023 6.27056 4.32735 2.01908 14.6406 2.88812 2.77734 2.15533 4.78765 3.27493 2.96352
threshold=4.5000000000000009 7.5000000000000009 2.5000000000000004 166936.00000000003 6.5000000000000009 134119.50000000003 20.500000000000004 1.0000000180025095e-35 22.500000000000004 92.880565643310561 18.500000000000004 160524.00000000003 10.500000000000002 149493.00000000003
decision_type=2 2 2 2 2 2 2 2 2 2 2 2 2 2
left_child=1 3 -3 5 -5 -1 7 -4 9 10 12 -12 13 -8
right_child=-2 2 6 4 -6 -7 8 -9 -10 -11 11 -13 -14 -15
leaf_value=0.10888022383174956 -0.10372974118621887 -0.064868897636436801 -2.7437738749554695e-05 0.16346976642164424 -0.05839969852519853 -0.11083905438940829 -0.062742985723451661 0.12547124059989076 0.011245628308167922 0.016139486346063582 0.054927446312281691 -0.083164712222626405 -0.10244585667724482 0.039042576148197158
leaf_weight=0.95910987257957714 56.016105696558952 10.384916353970764 39.060471087694168 1.8586838245391835 4.0482746139168739 13.702309519052504 6.6531888730824011 12.198747321963308 544.54130362346768 18.754028111696243 6.7027037888765353 4.0142643749713898 7.871938429772853 5.0178064703941345
leaf_count=4 1616 193 164 8 75 305 33 76 2679 86 34 26 39 22
internal_value=0 0.0073127 0.00959798 -0.0654841 0.0114138 -0.0964656 0.0107973 0.0298389 0.00915286 -0.0140977 -0.0328376 0.00320214 -0.0526011 -0.0189815
internal_weight=0 675.768 655.199 20.5684 5.90696 14.6614 644.814 51.2592 593.555 49.0139 30.2599 10.717 19.5429 11.671
internal_count=5360 3744 3352 392 83 309 3159 240 2919 240 154 60 94 55
is_linear=0
shrinkage=0.1


Tree=23
num_leaves=15
num_cat=0
split_feature=2 7 3 1 5 1 5 8 1 1 8 1 1 1
split_gain=57.1864 46.5987 1.46143 1.38566 2.77357 3.77797 2.39349 3.11896 6.44447 5.27115 4.14383 4.13835 2.88843 3.1938
threshold=4.5000000000000009 94402.000000000015 200859.50000000003 39.500000000000007 10.500000000000002 42.500000000000007 20.500000000000004 50.577754974365241 31.500000000000004 33.500000000000007 92.64068984985353 22.500000000000004 31.500000000000004 19.500000000000004
decision_type=2 2 2 2 2 2 2 2 2 2 2 2 2 2
left_child=1 -1 3 6 5 -5 -3 8 -8 -10 11 -9 13 -12
right_child=-2 2 -4 4 -6 -7 7 10 9 -11 12 -13 -14 -15
leaf_value=-0.10458693687599341 -0.10336224565560698 0.016067861542848845 -0.035951222474767473 0.051453142796498187 0.033610114204528432 -0.01091162883766365 -0.0010188871420288848 0.028989066324825202 0.14375523927390135 0.031397457061013066 -0.055093103235812152 -0.045184264316520936 -0.028776291056878057 0.029983133976885231
leaf_weight=35.679474998265505 50.856487158685923 316.96529008448124 6.0763111226260653 12.846839115023611 83.387528106570244 39.827444463968277 47.902061324566603 9.3302531056106073 6.1671608909964588 12.92850900441408 4.9406539946794501 38.811272505670786 15.682371623814104 41.283192612230778
leaf_count=886 1616 1406 30 57 382 174 224 47 31 62 21 174 67 183
internal_value=0 0.00661896 0.0128561 0.0133268 0.0222626 0.00429864 0.0108657 0.00155224 0.018563 0.0676847 -0.008804 -0.0308088 0.0083081 0.0208897
internal_weight=0 671.828 636.149 630.073 136.062 52.6743 494.011 177.045 66.9977 19.0957 110.048 48.1415 61.9062 46.2238
internal_count=5360 3744 2858 2828 613 231 2215 809 317 93 492 221 271 204
is_linear=0
shrinkage=0.1


Tree=24
num_leaves=15
num_cat=0
split_feature=2 7 4 1 3 6 3 3 1 3 1 8 3 1
split_gain=51.3066 41.3254 1.35957 1.75456 2.28696 1.53187 1.41654 3.6598 8.44296 4.01837 6.12857 3.58958 4.23222 3.9887
threshold=4.5000000000000009 94402.000000000015 2.5000000000000004 32.500000000000007 140210.50000000003 1.5000000000000002 143234.50000000003 140009.00000000003 25.500000000000004 139543.50000000003 27.500000000000004 92.206478118896499 134121.50000000003 37.500000000000007
decision_type=2 2 2 2 2 2 2 2 2 2 2 2 2 2
left_child=1 -1 3 4 -3 -4 7 9 -9 11 -11 12 -7 -13
right_child=-2 2 5 -5 -6 6 -8 8 -10 10 -12 13 -14 -15
leaf_value=-0.10413283856431617 -0.10303206711592149 -0.093195212276237394 0.059102685724115256 -0.097767642519971373 0.046463139079068919 0.024610206506098894 0.0070411515899330181 -0.0083302999126296361 0.053331789973688738 0.030509577164418263 -0.092193256867242696 0.046254839859086225 -0.012381768062944554 -0.0264251116778569
leaf_weight=32.417725242674351 46.156801985576749 1.7074914872646312 6.8721995092928401 2.5517281107604504 3.7425081245601177 54.827558513730764 322.42819489911199 33.678683593869209 65.181652884930372 7.2446873188018825 9.2905087769031507 46.089055567979813 70.95199566334486 9.030449762940405
leaf_count=886 1616 11 33 30 42 249 1432 149 297 32 40 201 303 39
internal_value=0 0.00599115 0.0116256 -0.0293334 0.00270801 0.0121495 0.011628 0.0166194 0.0323254 0.00875495 -0.0384326 0.0130682 0.00374311 0.0343474
internal_weight=0 666.014 633.597 8.00173 5.45 625.595 618.723 296.295 98.8603 197.434 16.5352 180.899 125.78 55.1195
internal_count=5360 3744 2858 83 53 2775 2742 1310 446 864 72 792 552 240
is_linear=0
shrinkage=0.1


Tree=25
num_leaves=15
num_cat=0
split_feature=7 7 5 6 3 5 1 0 1 6 3 5 5 1
split_gain=45.0876 44.9991 1.53223 2.17664 3.20369 1.99479 4.70891 4.10775 2.83981 1.72918 2.18002 3.23256 2.99001 2.97495
threshold=94402.000000000015 94406.000000000015 22.500000000000004 6.5000000000000009 145116.50000000003 21.500000000000004 36.500000000000007 9.5000000000000018 25.500000000000004 5.5000000000000009 140009.00000000003 12.500000000000002 10.500000000000002 20.500000000000004
decision_type=2 2 2 2 2 2 2 2 2 2 2 2 2 2
left_child=-1 2 5 4 -4 9 7 -7 -9 10 11 12 -2 -12
right_child=1 -3 3 -5 -6 6 -8 8 -10 -11 13 -13 -14 -15
leaf_value=-0.10345435869238073 -0.0035580143356045528 -0.10308854299409609 0.071923653558124495 0.10083189030143198 -0.03868349399446934 0.024569592469356364 0.047109654306294588 -0.021750381063463199 -0.11011888346706716 0.0071476082472019184 0.056138638743155389 0.024753688511868367 -0.081568271304099105 0.018229716960521739
leaf_weight=40.499408958479762 15.254422262310984 36.248674541711807 5.3701587915420514 4.5474471300840369 5.1110238134860992 6.8083993792533919 8.8455769866704923 6.7373901307582855 7.9015640318393707 321.92261067777872 23.230029746890068 22.780045062303543 7.2476114183664313 190.16734501719475
leaf_count=1313 66 1313 26 22 23 29 39 28 33 1396 112 99 31 830
internal_value=0 0.00523699 0.0115104 0.0430549 0.0179874 0.0107343 -0.0142826 -0.0396027 -0.0694484 0.0120396 0.0181276 -0.00180116 -0.0286841 0.0223564
internal_weight=0 662.172 625.924 15.0286 10.4812 610.895 30.2929 21.4474 14.639 580.602 258.679 45.2821 22.502 213.397
internal_count=5360 4047 2734 71 49 2663 129 90 61 2534 1138 196 97 942
is_linear=0
shrinkage=0.1


Tree=26
num_leaves=15
num_cat=0
split_feature=2 7 1 1 1 0 6 5 8 3 8 1 1 8
split_gain=41.3709 32.6651 1.30486 1.46795 3.05015 3.96714 3.07101 2.86814 4.18589 3.15253 3.48445 2.82639 3.97308 3.06734
threshold=4.5000000000000009 94402.000000000015 57.500000000000007 48.500000000000007 40.500000000000007 10.500000000000002 2.5000000000000004 18.500000000000004 21.24060153961182 139545.00000000003 43.80482482910157 42.500000000000007 44.500000000000007 16.878787994384769
decision_type=2 2 2 2 2 2 2 2 2 2 2 2 2 2
left_child=1 -1 3 4 6 11 -3 9 -9 10 -5 -6 -13 -14
right_child=-2 2 -4 7 5 -7 -8 8 -10 -11 -12 12 13 -15
leaf_value=-0.10336006546861505 -0.10246706427746229 0.030885870266932014 0.050906234169565689 -0.046956537181880253 0.043989898930708995 0.046184565563529553 0.0048706630388869751 0.083067728920831002 -0.033905078927723785 -0.055771676788726188 0.076032372551725874 -0.077667488072466651 -0.04604332524133728 0.065101228923240398
leaf_weight=26.736685570329428 37.971083510667086 50.369259420782328 7.5189512409269801 4.4021751023829001 9.03698553517461 48.291706789284945 457.73862101137638 6.6810442730784398 5.6434088200330734 16.247464699670672 4.832130566239357 7.9022060427814749 4.379658177495001 5.7338754273951054
leaf_count=886 1616 227 34 20 43 220 2078 34 25 73 21 37 19 27
internal_value=0 0.00489444 0.0094976 0.00899645 0.0102338 0.0290101 0.00744958 -0.0100994 0.0295055 -0.0292547 0.0174011 -0.0016479 -0.0245406 0.0169702
internal_weight=0 655.514 628.777 621.259 583.452 75.3444 508.108 37.8062 12.3245 25.4818 9.23431 27.0527 18.0157 10.1135
internal_count=5360 3744 2858 2824 2651 346 2305 173 59 114 41 126 83 46
is_linear=0
shrinkage=0.1


Tree=27
num_leaves=15
num_cat=0
split_feature=2 7 5 6 3 5 1 0 1 1 1 1 5 3
split_gain=37.1991 29.1021 1.24964 1.91754 2.68616 1.83458 3.65137 3.24066 2.26641 1.54105 12.0333 2.69541 2.04846 6.02425
threshold=4.5000000000000009 94402.000000000015 22.500000000000004 6.5000000000000009 143427.00000000003 21.500000000000004 36.500000000000007 9.5000000000000018 25.500000000000004 20.500000000000004 1.0000000180025095e-35 22.500000000000004 18.500000000000004 143237.50000000003
decision_type=2 2 2 2 2 2 2 2 2 2 2 2 2 2
left_child=1 -1 5 4 -4 9 7 -7 -9 10 -3 12 -11 -14
right_child=-2 2 3 -5 -6 6 -8 8 -10 11 -12 -13 13 -15
leaf_value=-0.1030308802669741 -0.10222679195389338 0.00026952829556141681 0.072252738487641563 0.092564281050421873 -0.030391429988818237 0.018851179405644337 0.038398680852600918 -0.021432892607911515 -0.09944832704983958 -0.030455208520065991 0.12099288362375533 0.0097036325119503226 0.094186295809481402 -0.043173229818953496
leaf_weight=24.265709990635514 34.434297660365701 38.590870808809996 4.4813261181116086 4.4076053351163855 5.9144530333578587 6.9182212240994021 8.8255510665476304 6.8453232347965249 8.1657103504985553 30.472662404179573 10.503917276859282 488.90880567021668 5.681656137108801 7.2891603522002697
leaf_count=886 1616 163 23 23 28 34 42 31 39 128 74 2213 24 36
internal_value=0 0.0044226 0.00858115 0.0372905 0.0138556 0.00788695 -0.0159154 -0.0377744 -0.0638718 0.00914594 0.0260985 0.00758253 -0.0162881 0.0169949
internal_weight=0 651.271 627.005 14.8034 10.3958 612.202 30.7548 21.9293 15.011 581.447 49.0948 532.352 43.4435 12.9708
internal_count=5360 3744 2858 74 51 2784 146 104 70 2638 237 2401 188 60
is_linear=0
shrinkage=0.1


Tree=28
num_leaves=15
num_cat=0
split_feature=2 7 3 4 1 3 6 1 1 3 6 1 8 8
split_gain=33.4717 25.9673 1.27632 1.31073 2.65833 2.00302 1.17074 1.44135 12.32 2.25587 2.78661 1.67771 1.85383 1.46654
threshold=4.5000000000000009 94402.000000000015 124649.50000000001 2.5000000000000004 32.500000000000007 140210.50000000003 1.5000000000000002 1.0000000180025095e-35 20.500000000000004 134122.50000000003 5.5000000000000009 22.500000000000004 92.880565643310561 23.621724128723148
decision_type=2 2 2 2 2 2 2 2 2 2 2 2 2 2
left_child=1 -1 -3 4 5 -4 -5 9 -9 -8 -11 12 -10 -12
right_child=-2 2 3 6 -6 -7 7 8 11 10 13 -13 -14 -15
leaf_value=-0.10273477115754406 -0.10201039910824211 0.067403520505784686 -0.088510617630133195 0.049957525016391183 -0.12911244490650689 0.043815360324109515 0.048270791653114042 0.11906493736160306 -0.027522959578854159 0.0036084161446723268 -0.016141975927396936 0.0084320873582957485 0.013536903675776056 -0.081923672985450363
leaf_weight=22.016582552343607 31.220168400555849 3.567920893430709 1.6503688097000111 6.5572326406836501 2.1155263688415289 3.7276617474853992 5.4901862144470206 9.9467784613370878 28.124336190521717 19.438209384679794 5.7515530884265891 511.98198006302118 18.055227264761925 8.2509045451879484
leaf_count=886 1616 17 11 33 29 42 23 75 119 82 24 2292 77 34
internal_value=0 0.00400267 0.00776472 0.00742212 -0.0341476 0.00320818 0.00792979 0.00747581 0.00875139 -0.0111384 -0.0208921 0.00678553 -0.0114694 -0.0549036
internal_weight=0 646.674 624.658 621.09 7.49356 5.37803 613.596 607.039 568.108 38.9309 33.4407 558.162 46.1796 14.0025
internal_count=5360 3744 2858 2841 82 53 2759 2726 2563 163 140 2488 196 58
is_linear=0
shrinkage=0.1


Tree=29
num_leaves=15
num_cat=0
split_feature=2 0 3 0 3 4 5 1 6 3 8 1 3 3
split_gain=30.1313 4.29615 4.5872 4.27658 3.62234 2.09498 2.16864 4.27122 1.8228 1.2376 2.71226 2.09905 1.60888 3.054
threshold=4.5000000000000009 7.5000000000000009 166936.00000000003 6.5000000000000009 134119.50000000003 2.5000000000000004 12.500000000000002 20.500000000000004 5.5000000000000009 129101.50000000001 7.582566738128663 39.500000000000007 129847.00000000001 133687.00000000003
decision_type=2 2 2 2 2 2 2 2 2 2 2 2 2 2
left_child=1 2 4 -4 -1 6 7 -3 -5 10 -7 -12 -11 -14
right_child=-2 5 3 8 -6 9 -8 -9 -10 12 11 -13 13 -15
leaf_value=0.096332819842269574 -0.10181542960251806 0.22690039184955541 0.15292805490930975 -0.11151030469477197 -0.11070463866512106 -0.015475727959347568 -0.084294629092874163 -0.058187334871034772 0.043552628293398746 -0.027217725689887839 0.027131100122907939 0.099000967913459831 0.058150785291731358 0.0042872461652502195
leaf_weight=0.93668559193611045 28.300517721101642 0.7602956779301161 1.7675588279962529 1.6997056379914286 8.6398440022021514 11.326157689094542 5.1391259990632534 1.7019176483154295 1.3684418704360721 15.63307750225067 16.542978584766391 5.3871128410100928 10.727785484865306 560.65892014652491
leaf_count=4 1616 4 8 62 305 55 120 69 13 70 77 28 50 2879
internal_value=0 0.00361723 -0.0503644 0.0290286 -0.0904542 0.00485632 -0.0473232 0.0298436 -0.0423498 0.00549577 0.0242624 0.0447859 0.00443259 0.00529853
internal_weight=0 642.29 14.4122 4.83571 9.57653 627.877 7.60134 2.46221 3.06815 620.276 33.2562 21.9301 587.02 571.387
internal_count=5360 3744 392 83 309 3352 193 73 75 3159 160 105 2999 2929
is_linear=0
shrinkage=0.1


Tree=30
num_leaves=15
num_cat=0
split_feature=7 7 8 5 3 1 8 8 8 8 8 8 1 0
split_gain=27.8847 27.4142 1.2877 2.99093 3.62165 3.24246 2.38933 2.51426 3.32982 3.17071 3.23895 2.63591 4.91624 4.67677
threshold=94402.000000000015 94406.000000000015 50.108224868774421 20.500000000000004 185344.00000000003 31.500000000000004 58.387445449829109 66.079193115234389 62.899168014526374 68.947822570800795 71.62280654907228 88.118579864501967 23.500000000000004 10.500000000000002
decision_type=2 2 2 2 2 2 2 2 2 2 2 2 2 2
left_child=-1 2 -2 6 -5 -6 -4 8 -8 -9 -11 12 -12 -14
right_child=1 -3 3 4 5 -7 7 9 -10 10 11 -13 13 -15
leaf_value=-0.10222495545656173 0.013141631193608653 -0.10224397119520656 -0.035051767482399021 -0.015693370054091531 0.069757595694948576 -0.020257341119815659 0.0067179987946297069 -0.069349141232550718 0.12532958869443797 0.089782349210350887 -0.059094898166941724 0.017330645474577897 0.048332454135838712 -0.013192918810311417
leaf_weight=26.036104902625084 239.40460063517094 23.677141604945064 11.243099413812159 107.39367874711752 10.155672542750837 6.6038712859153739 5.0299025028943998 4.9235680997371665 4.4703496769070625 5.1994977742433539 14.014979802072046 151.85332499444485 18.458318024873734 37.364073440432549
leaf_count=1313 1092 1313 47 459 49 29 22 21 21 22 61 667 81 163
internal_value=0 0.00334898 0.0074069 0.00376239 -0.00894629 0.0342884 0.0100098 0.0121093 0.0625308 0.0100429 0.0117657 0.0099359 -0.00614312 0.00715116
internal_weight=0 639.792 616.115 376.71 124.153 16.7595 252.557 241.314 9.50025 231.814 226.89 221.691 69.8374 55.8224
internal_count=5360 4047 2734 1642 537 78 1105 1058 43 1015 994 972 305 244
is_linear=0
shrinkage=0.1


Tree=31
num_leaves=15
num_cat=0
split_feature=7 7 5 6 3 5 1 3 3 1 6 3 5 5
split_gain=25.1092 24.5188 1.14962 1.72065 2.25496 1.31584 3.03784 1.4782 4.21135 1.98737 1.30645 2.05477 2.72372 2.33647
threshold=94402.000000000015 94406.000000000015 22.500000000000004 6.5000000000000009 145116.50000000003 21.500000000000004 36.500000000000007 183085.50000000003 145532.00000000003 26.500000000000004 5.5000000000000009 140009.00000000003 12.500000000000002 10.500000000000002
decision_type=2 2 2 2 2 2 2 2 2 2 2 2 2 2
left_child=-1 2 5 4 -4 10 7 8 9 -7 11 12 13 -2
right_child=1 -3 3 -5 -6 6 -8 -9 -10 -11 -12 -13 -14 -15
leaf_value=-0.10200937853973986 -0.0092398920693469496 -0.10202883870946911 0.060385040118541539 0.089002868927527942 -0.033915026798395941 0.018969281673217684 0.036085425713192058 0.012871011802763994 -0.12717122640016074 -0.065642276356040627 0.0028191887215538842 0.016615308009578982 0.01766695212410695 -0.078343361626269425
leaf_weight=23.605693406425416 14.99553330242634 21.466837784275413 4.9983086138963682 4.1461230069398871 5.1470662802457809 6.7019619494676679 8.5035780221223813 5.0150095075368872 4.8625227361917487 4.7388846427202225 316.88548970967531 208.6843284368515 22.288631118834019 7.262469381093978
leaf_count=1313 66 1313 26 22 23 28 39 22 20 20 1396 942 99 31
internal_value=0 0.0030236 0.0066951 0.0347253 0.0125437 0.00602738 -0.0144494 -0.034607 -0.0492115 -0.0160775 0.00709849 0.0124535 -0.00704321 -0.0317874
internal_weight=0 635.697 614.23 14.2915 10.1454 599.938 29.822 21.3184 16.3034 11.4408 570.116 253.231 44.5466 22.258
internal_count=5360 4047 2734 71 49 2663 129 90 68 48 2534 1138 196 97
is_linear=0
shrinkage=0.1


Tree=32
num_leaves=15
num_cat=0
split_feature=7 7 8 8 8 8 8 8 1 1 8 1 8 8
split_gain=22.6191 21.9495 1.0391 6.92955 5.99963 3.36248 2.69978 2.69947 8.78395 5.2486 5.8013 2.7728 7.11641 4.11114
threshold=94402.000000000015 94406.000000000015 67.396617889404311 62.533422470092781 68.947822570800795 50.108224868774421 70.064933776855483 87.550323486328139 37.500000000000007 42.500000000000007 79.447261810302749 33.500000000000007 80.067565917968764 86.356163024902358
decision_type=2 2 2 2 2 2 2 2 2 2 2 2 2 2
left_child=-1 2 3 5 -4 -2 -6 8 11 -10 -11 13 -13 -8
right_child=1 -3 4 -5 6 -7 7 -9 9 10 -12 12 -14 -15
leaf_value=-0.10181502058547476 0.011186608411869005 -0.10183448256983518 -0.11495853648541834 0.093460619812064771 0.084538332641594216 -0.028024569551712453 -0.010425977540756557 0.0087307825648437597 0.10864738082670461 0.10120428676220901 -0.037850802066627026 -0.16935547824894942 -0.0098973073054799687 -0.094293662589055416
leaf_weight=21.398012585006654 237.70112209767103 19.459183019585907 4.3032422363758078 9.744903586804865 4.0983235388994208 24.085533797740936 58.711658447980881 233.93861477822065 8.1329594254493731 4.439290687441825 9.255047455430029 4.5576737225055677 7.2521797567605972 6.4910324439406386
leaf_count=1313 1092 1313 18 46 18 103 254 1027 36 20 41 20 31 28
internal_value=0 0.0027243 0.006045 0.0106612 0.00237116 0.00757901 0.00386993 0.00287646 -0.0109798 0.0450165 0.00722666 -0.0268506 -0.0714356 -0.0187751
internal_weight=0 632.171 612.712 271.532 341.18 261.787 336.877 332.778 98.8398 21.8273 13.6943 77.0125 11.8099 65.2027
internal_count=5360 4047 2734 1241 1493 1195 1475 1457 430 97 61 333 51 282
is_linear=0
shrinkage=0.1


Tree=33
num_leaves=15
num_cat=0
split_feature=7 7 3 3 3 3 3 1 3 0 6 3 1 0
split_gain=20.3875 19.671 1.06947 1.22185 3.26909 4.4862 1.83753 2.18736 1.64101 3.70845 4.18839 3.27248 6.55001 3.52331
threshold=94402.000000000015 94406.000000000015 200862.50000000003 182701.50000000003 198316.00000000003 198323.00000000003 185310.00000000003 31.500000000000004 143234.50000000003 10.500000000000002 3.5000000000000004 140009.00000000003 25.500000000000004 10.500000000000002
decision_type=2 2 2 2 2 2 2 2 2 2 2 2 2 2
left_child=-1 2 3 8 6 -6 -5 -8 11 -10 -11 -2 13 -13
right_child=1 -3 -4 4 5 -7 7 -9 9 10 -12 12 -14 -15
leaf_value=-0.10163973696021351 0.001654330161860377 -0.10165886835052494 -0.042525930638530829 0.02553456838349525 -0.079362737157131741 0.012751154062766541 0.12348888287701383 0.031381519748165006 -0.019191343674151515 0.050641235035816072 0.00084286365932094594 0.029668933625199158 0.043338838178721223 -0.037165830821196469
leaf_weight=19.393413074314594 193.55473685264587 17.636265973560512 4.608480066061019 19.877120479941372 6.0186173021793357 43.509219504892826 5.1700733900070173 5.1431424617767334 82.582568168640137 19.294980362057686 135.4744575470686 12.794402584433554 62.518997967243195 20.566955551505089
leaf_count=1313 868 1313 19 90 27 196 27 24 358 92 594 57 291 91
internal_value=0 0.00246048 0.00546528 0.00582994 0.0173679 0.00155748 0.0433052 0.0775555 0.00408391 -0.00207945 0.00705119 0.00913819 0.0242459 -0.0115341
internal_weight=0 628.75 611.114 606.505 79.7182 49.5278 30.1903 10.3132 526.787 237.352 154.769 289.435 95.8804 33.3614
internal_count=5360 4047 2734 2715 364 223 141 51 2351 1044 686 1307 439 148
is_linear=0
shrinkage=0.1


Tree=34
num_leaves=15
num_cat=0
split_feature=7 7 3 5 5 3 3 6 1 3 1 1 1 5
split_gain=18.3832 17.6442 0.952784 0.947161 1.58495 2.7628 1.77922 1.61319 1.72662 1.55481 1.27382 9.69558 1.64226 1.74786
threshold=94402.000000000015 94406.000000000015 124649.50000000001 22.500000000000004 21.500000000000004 175869.00000000003 139541.50000000003 5.5000000000000009 28.500000000000004 143237.50000000003 20.500000000000004 1.0000000180025095e-35 22.500000000000004 18.500000000000004
decision_type=2 2 2 2 2 2 2 2 2 2 2 2 2 2
left_child=-1 2 -2 4 10 6 -6 -8 -9 -5 11 -4 13 -12
right_child=1 -3 3 9 5 -7 7 8 -10 -11 12 -13 -14 -15
leaf_value=-0.10148160900173042 0.057719388044603262 -0.10150016725693384 -0.00077718950347937393 0.081774865030883506 0.014055385105289281 0.029315902862715373 -0.10269874826694403 0.010346514109242904 -0.072456669628944467 0.0086459739872035927 -0.027969442669034512 0.11613368449416417 0.0054583460169040244 0.016418658222798959
leaf_weight=17.57383744046092 3.4013434648513785 15.981634672731159 38.098009660840034 4.1429407596588126 4.7382277101278367 8.2992958128452283 4.9908571988344184 4.7879820466041547 5.3123207837343216 9.7484465390443784 30.318143665790558 8.7165023609995824 474.51708053052425 12.540240079164503
leaf_count=1313 17 1313 162 24 20 37 22 20 23 47 126 74 2109 53
internal_value=0 0.00222171 0.0049409 0.00464477 0.00403943 -0.0191274 -0.0394027 -0.0561871 -0.0332044 0.0304558 0.00519446 0.0209907 0.00376514 -0.0149816
internal_weight=0 625.593 609.611 606.21 592.319 28.1287 19.8294 15.0912 10.1003 13.8914 564.19 46.8145 517.375 42.8584
internal_count=5360 4047 2734 2717 2646 122 85 65 43 71 2524 236 2288 179
is_linear=0
shrinkage=0.1


Tree=35
num_leaves=15
num_cat=0
split_feature=7 7 1 1 5 3 3 1 3 0 1 6 1 5
split_gain=16.5819 15.8392 0.931138 1.40218 2.45143 2.672 2.57074 2.16841 4.25414 3.19986 2.11542 2.0574 2.49346 2.50566
threshold=94402.000000000015 94406.000000000015 57.500000000000007 48.500000000000007 18.500000000000004 143240.50000000003 139545.00000000003 40.500000000000007 198363.50000000003 10.500000000000002 54.500000000000007 2.5000000000000004 31.500000000000004 10.500000000000002
decision_type=2 2 2 2 2 2 2 2 2 2 2 2 2 2
left_child=-1 2 3 7 6 -6 -5 11 9 -9 -8 12 13 -2
right_child=1 -3 -4 4 5 -7 10 8 -10 -11 -12 -13 -14 -15
leaf_value=-0.10133891106093662 0.03431956319343165 -0.10135672052683845 0.040331247866944475 0.010324081825974617 -0.021131759661692603 0.07495154741457255 -0.032752571639695034 -0.00058761083385102698 -0.056367772992696442 0.045433214177745165 -0.11201184584592899 0.00076096619553198792 0.056109369600179794 -0.020597972552339066
leaf_weight=15.922717506065963 16.795150525867939 14.480205276980994 7.154711425304412 8.9452682137489337 6.3106653764843923 5.3462636470794678 11.187658071517946 23.486406490206718 6.4025427997112265 42.355109289288521 4.8174221515655509 443.59693203121424 15.144456043839453 16.440836973488331
leaf_count=1313 77 1313 33 40 30 25 49 106 29 198 21 1977 71 78
internal_value=0 0.00200696 0.00446875 0.0040417 -0.014924 0.0229353 -0.032612 0.00527221 0.0214499 0.0290171 -0.0566091 0.0028966 0.0224781 0.00715352
internal_weight=0 622.464 607.983 600.829 36.6073 11.6569 24.9503 564.221 72.2441 65.8415 16.0051 491.977 48.3804 33.236
internal_count=5360 4047 2734 2701 165 55 110 2536 333 304 70 2203 226 155
is_linear=0
shrinkage=0.1


Tree=36
num_leaves=15
num_cat=0
split_feature=7 7 3 8 1 8 1 3 3 1 1 1 1 3
split_gain=14.9611 14.228 0.871237 2.14435 1.81133 1.72336 2.28503 1.57901 2.66584 2.56033 2.03785 1.66318 9.15614 2.39753
threshold=94402.000000000015 94406.000000000015 129101.50000000001 7.582566738128663 39.500000000000007 72.500000000000014 26.500000000000004 129847.00000000001 133687.00000000003 32.500000000000007 31.500000000000004 1.0000000180025095e-35 20.500000000000004 160892.50000000003
decision_type=2 2 2 2 2 2 2 2 2 2 2 2 2 2
left_child=-1 2 3 -2 5 -5 -7 10 9 -9 -4 13 -13 -10
right_child=1 -3 7 4 -6 6 -8 8 11 -11 -12 12 -14 -15
leaf_value=-0.10121010135980529 -0.015447850329590391 -0.10122706192079199 0.0071728141904477492 0.077303237987353945 0.091104173029727023 0.048066402722128761 -0.036990581651567829 0.097788486264251351 -0.033307872352855011 -0.0011451849346080522 -0.065296098620056378 0.11477272212082712 0.0029288629428358814 0.020636855512556396
leaf_weight=14.424873731099067 11.382176473736761 13.118160378187893 7.9205235317349416 4.2825727164745393 4.9750566333532324 6.0843085050582868 6.5679350793361664 5.8695279061794263 27.067625105381012 4.7188012897968292 7.6071559935808182 7.4281119704246512 501.13749741017818 11.843874812126158
leaf_count=1313 56 1313 37 20 28 29 31 28 114 22 33 68 2216 52
internal_value=0 0.00180949 0.00403668 0.0197637 0.0380561 0.0224718 0.00391228 0.00312386 0.00399905 0.0536976 -0.0283304 0.00303787 0.00456245 -0.0168882
internal_weight=0 620.003 606.885 33.292 21.9099 16.9348 12.6522 573.593 558.065 10.5883 15.5277 547.477 508.566 38.9115
internal_count=5360 4047 2734 164 108 80 60 2570 2500 50 70 2450 2284 166
is_linear=0
shrinkage=0.1


Tree=37
num_leaves=15
num_cat=0
split_feature=7 7 3 3 3 3 3 1 5 5 3 3 0 3
split_gain=13.5039 12.7907 0.832053 1.00395 2.5817 3.73419 1.60065 2.03841 1.54929 4.32272 1.37181 1.30339 4.31525 4.09798
threshold=94402.000000000015 94406.000000000015 200862.50000000003 182701.50000000003 198316.00000000003 198323.00000000003 185310.00000000003 31.500000000000004 4.5000000000000009 10.500000000000002 198955.50000000003 145532.00000000003 9.5000000000000018 175161.50000000003
decision_type=2 2 2 2 2 2 2 2 2 2 2 2 2 2
left_child=-1 2 3 11 6 -6 -5 -8 -7 -10 -11 -2 13 -13
right_child=1 -3 -4 4 5 8 7 -9 9 10 -12 12 -14 -15
leaf_value=-0.10109380929402581 0.0053156460649902825 -0.1011098450686001 -0.038635265096894772 0.021382195368993131 -0.072908534639638797 -0.035761149459899028 0.11712273763401351 0.026190201673956449 0.10253003054041265 -0.046809371648467407 0.013034411057412904 -0.047621073510624362 0.0068333833675079461 0.023298888101303324
leaf_weight=13.066416048444806 389.0030809789896 11.88286344334483 4.6173011362552634 19.572761073708538 6.0744908377528182 6.1227467060089102 4.8374747261404973 5.0269814133644104 5.2577017098665229 4.4556954130530384 27.299946591258049 34.969131134450436 87.669026300311089 10.62269566208124
leaf_count=1313 1760 1313 19 90 27 26 27 24 23 21 126 152 393 46
internal_value=0 0.00163666 0.00365295 0.00397788 0.0145109 0.000497943 0.0379365 0.070783 0.0108352 0.0185431 0.00463761 0.00239172 -0.00614355 -0.031097
internal_weight=0 617.412 605.529 600.912 78.6478 49.2106 29.4372 9.86446 43.1361 37.0133 31.7556 522.264 133.261 45.5918
internal_count=5360 4047 2734 2715 364 223 141 51 196 170 147 2351 591 198
is_linear=0
shrinkage=0.1


Tree=38
num_leaves=15
num_cat=0
split_feature=7 7 8 5 5 8 5 3 1 1 1 3 3 1
split_gain=12.1906 11.5043 0.886751 2.82566 2.81247 4.62741 3.21373 4.84887 5.22235 4.22844 4.54389 3.15588 4.0774 3.4494
threshold=94402.000000000015 94406.000000000015 47.633054733276374 20.500000000000004 8.5000000000000018 20.02506256103516 5.5000000000000009 140681.50000000003 26.500000000000004 41.500000000000007 31.500000000000004 139540.50000000003 134121.50000000003 25.500000000000004
decision_type=2 2 2 2 2 2 2 2 2 2 2 2 2 2
left_child=-1 2 4 -4 5 6 7 -2 -9 10 -8 12 -6 -13
right_child=1 -3 3 -5 11 -7 9 8 -10 -11 -12 13 -14 -15
leaf_value=-0.10098878834670111 0.039015757143300495 -0.10100386140331091 0.0063779110789943172 -0.012115273643441719 0.021827323633499415 0.078157806795872239 -0.061347896249054901 0.05584529582254974 -0.064014793028161265 -0.11481707152871577 0.044406351010158183 -0.0039500804890864162 -0.041985493536804086 0.033333943614638074
leaf_weight=11.834651716519145 17.63378319144249 10.762767260894178 251.22591795772314 123.1101594902575 20.582659147679806 5.5454902648925772 10.391967400908475 4.8704616427421596 14.331559613347052 6.4935470372438422 6.6709597557783118 34.260887280106544 19.498943842947483 89.993269309401512
leaf_count=1313 81 1313 1118 542 102 26 46 22 63 28 31 159 85 431
internal_value=0 0.00147538 0.00329963 0.000295946 0.00818247 -0.00926454 -0.0172921 0.00115529 -0.0336131 -0.0461386 -0.020002 0.0151829 -0.00921641 0.0230535
internal_weight=0 615.372 604.61 374.336 230.274 65.9378 60.3923 36.8358 19.202 23.5565 17.0629 164.336 40.0816 124.254
internal_count=5360 4047 2734 1660 1074 297 271 166 85 105 77 777 187 590
is_linear=0
shrinkage=0.1


Tree=39
num_leaves=15
num_cat=0
split_feature=7 7 3 3 3 3 0 8 8 8 8 5 3 3
split_gain=11.0086 10.3541 0.74767 0.909827 2.07912 3.05429 1.43879 1.54785 2.11038 1.46277 3.12784 4.43489 1.38973 1.2153
threshold=94402.000000000015 94406.000000000015 200859.50000000003 182701.50000000003 198316.00000000003 198323.00000000003 10.500000000000002 71.116603851318374 93.40579986572267 98.913043975830092 79.02777481079103 20.500000000000004 185310.00000000003 193849.50000000003
decision_type=2 2 2 2 2 2 2 2 2 2 2 2 2 2
left_child=-1 2 3 -2 12 -6 7 -7 -9 10 11 -8 -5 -14
right_child=1 -3 -4 4 5 6 9 8 -10 -11 -12 -13 13 -15
leaf_value=-0.10089393745298131 0.0018332512820935728 -0.10090803442534402 -0.032873803043850534 0.019294585554805205 -0.065098168332968206 0.064551719116604803 0.035705043253884461 -0.047924712547147516 0.045980307453672264 -0.042494453831121499 0.079107940738986526 -0.088319125220363295 0.10185479501008309 0.030444192131584183
leaf_weight=10.717990801203994 520.67620740830898 9.7473324299789947 5.7584625035524359 19.415073141455654 6.1485736668109885 8.0081541314721125 6.8232628256082588 4.2297481447458249 5.5118715092539787 7.4142102450132361 4.7882355228066436 4.9929400384426117 4.7354552298784238 4.7977331392467022
leaf_count=1313 2351 1313 24 90 27 37 32 19 26 32 21 24 24 27
internal_value=0 0.00133501 0.00298692 0.00333251 0.0134883 0.000705068 0.0103917 0.0319817 0.00520736 -0.00556328 0.0109272 -0.0167014 0.0346479 0.0659162
internal_weight=0 613.047 603.3 597.541 76.8653 47.917 41.7684 17.7498 9.74162 24.0186 16.6044 11.8162 28.9483 9.53319
internal_count=5360 4047 2734 2710 359 218 191 82 45 109 77 56 141 51
is_linear=0
shrinkage=0.1


Tree=40
num_leaves=15
num_cat=0
split_feature=7 7 1 1 1 5 8 6 8 3 3 5 3 3
split_gain=9.94235 9.32253 0.818339 1.07325 1.91372 1.88058 3.43115 2.17955 1.60216 2.18069 1.43614 1.4453 1.29939 3.03697
threshold=94402.000000000015 94406.000000000015 57.500000000000007 48.500000000000007 44.500000000000007 18.500000000000004 21.24060153961182 13.500000000000002 80.833335876464858 160107.50000000003 140448.00000000003 11.500000000000002 140210.50000000003 151698.50000000003
decision_type=2 2 2 2 2 2 2 2 2 2 2 2 2 2
left_child=-1 2 3 4 -2 7 -7 12 10 -10 11 -6 -5 -14
right_child=1 -3 -4 5 8 6 -8 -9 9 -11 -12 -13 13 -15
leaf_value=-0.10080824163876162 0.0020041901798583616 -0.10082138581908451 0.036623771052922062 0.013825253294707178 0.00052124067874039198 0.071737692478384102 -0.037825576594448261 -0.090182837261025064 0.088184167265551727 0.00053865793889969085 -0.019649529796549745 0.084238811957630125 -0.079379054364034529 0.025736214121224149
leaf_weight=9.7058637817390245 529.7443353831768 8.8269453747197968 7.0269563645124427 8.7107696235179954 4.5719381123781258 5.963303476572035 5.4895498007535934 4.8125587403774253 7.7136811614036542 4.4919208586215973 8.8015398383140546 3.7565551251173019 6.8848811239004117 4.5750150382518768
leaf_count=1313 2399 1313 33 40 21 31 24 20 35 20 41 20 30 20
internal_value=0 0.00120294 0.00269754 0.00229722 0.00338098 -0.0143321 0.0192221 -0.0297141 0.0282431 0.0559288 0.00851631 0.0382819 -0.0152867 -0.037415
internal_weight=0 611.37 602.543 595.516 559.08 36.4361 11.4529 24.9832 29.3356 12.2056 17.13 8.32849 20.1707 11.4599
internal_count=5360 4047 2734 2701 2536 165 55 110 137 55 82 41 90 50
is_linear=0
shrinkage=0.1


Tree=41
num_leaves=15
num_cat=0
split_feature=2 0 3 3 0 6 6 1 5 6 3 5 5 3
split_gain=8.74222 0.816279 5.06279 3.83743 3.51833 1.62349 2.39027 1.07584 0.876101 3.62578 2.60304 1.13786 8.64132 5.24263
threshold=4.5000000000000009 7.5000000000000009 145121.50000000003 134119.50000000003 6.5000000000000009 13.500000000000002 9.5000000000000018 36.500000000000007 1.5000000000000002 13.500000000000002 139542.50000000003 4.5000000000000009 5.5000000000000009 140682.50000000003
decision_type=2 2 2 2 2 2 2 2 2 2 2 2 2 2
left_child=1 2 3 -1 -4 6 7 -6 9 10 -3 13 -13 -10
right_child=-2 8 4 -5 5 -7 -8 -9 11 -11 -12 12 -14 -15
leaf_value=0.080539595805475539 -0.10053733327418302 0.11943311307005378 0.15077812576640015 -0.14993354978853202 -0.10875038935409485 -0.15834978765706109 0.20277320653888009 0.050825141444608715 0.016463710910075837 -0.046051218915814138 0.021740676094267147 0.087453628760992275 0.00050330596917654892 -0.037395443230270067
leaf_weight=0.90178905427455713 8.5907525112852436 3.9672561436891582 1.8624015450477598 3.6324520166963339 0.98771239724010296 0.69543732795864333 0.5273067676462232 0.73829007893800735 35.563332536257803 5.3233993463218203 8.7277296837419254 11.697917917743323 498.63694427581504 36.748016967438161
leaf_count=4 1616 22 9 219 127 5 5 23 220 24 41 67 2781 197
internal_value=0 0.00104823 -0.0282788 -0.104096 0.0431748 -0.0247865 0.0164351 -0.0404926 0.00150451 0.0232218 0.0522701 0.000832904 0.00249639 -0.0109071
internal_weight=0 610.01 9.34539 4.53424 4.81115 2.94875 2.25331 1.726 600.665 18.0184 12.695 582.646 510.335 72.3113
internal_count=5360 3744 392 223 169 160 155 150 3352 87 63 3265 2848 417
is_linear=0
shrinkage=0.1


Tree=42
num_leaves=15
num_cat=0
split_feature=7 0 3 0 3 6 3 1 1 3 3 8 3 6
split_gain=8.5616 0.954833 4.5253 3.10369 3.04974 1.67949 1.63547 0.799996 8.93382 2.03995 5.74518 2.6638 1.88836 2.84489
threshold=94402.000000000015 7.5000000000000009 145121.50000000003 6.5000000000000009 124648.50000000001 13.500000000000002 198318.50000000003 20.500000000000004 1.0000000180025095e-35 142832.50000000003 143607.50000000003 41.602191925048835 139743.50000000003 5.5000000000000009
decision_type=2 2 2 2 2 2 2 2 2 2 2 2 2 2
left_child=-1 2 4 -4 -2 6 -5 8 9 12 -11 -12 13 -3
right_child=1 7 3 5 -6 -7 -8 -9 -10 10 11 -13 -14 -15
leaf_value=-0.10071789134456072 0.13796025690564148 -0.062133269419047676 0.14413428115576618 0.082884949761109106 -0.12689276083379317 -0.13648887587832387 -0.12275316607888352 0.00048002749200735332 0.11325151730307914 -0.11904731617101552 0.05196019681327016 -0.027055964692979686 0.06736335386365272 0.044383639522842008
leaf_weight=8.3803851311095041 0.48458161763846685 4.5801697671413439 1.7587586641311643 1.4381714882329109 4.2289044661447406 0.91363160125911225 0.52901701815426339 552.08826210768893 7.6112144589424124 4.9939110577106502 6.7359708268195417 11.63756427168846 5.898750275373458 5.5407130010426044
leaf_count=1313 9 19 9 94 293 58 21 3314 76 21 31 51 25 26
internal_value=0 0.00105124 -0.0306534 0.0394564 -0.0996639 -0.0244501 0.0275847 0.00154622 0.0140708 -0.00509505 -0.0239382 0.00191236 0.022391 -0.00382021
internal_weight=0 608.44 9.35306 4.63958 4.71349 2.88082 1.96719 599.087 46.9983 39.3871 23.3674 18.3735 16.0196 10.1209
internal_count=5360 4047 484 182 302 173 115 3563 249 173 103 82 70 45
is_linear=0
shrinkage=0.1


Tree=43
num_leaves=15
num_cat=0
split_feature=7 2 6 3 3 8 8 5 8 5 5 1 1 0
split_gain=7.73611 5.78505 0.704878 1.62587 4.61159 2.33289 4.84696 3.34632 3.2514 2.55405 1.87549 1.40183 2.91674 2.07123
threshold=94402.000000000015 4.5000000000000009 2.5000000000000004 143606.50000000003 138469.50000000003 81.62280654907228 92.206478118896499 18.500000000000004 1.0000000180025095e-35 10.500000000000002 14.500000000000002 40.500000000000007 42.500000000000007 9.5000000000000018
decision_type=2 2 2 2 2 2 2 2 2 2 2 2 2 2
left_child=-1 2 3 4 10 8 -7 -8 -5 -10 -2 -4 -13 -14
right_child=1 -3 11 5 -6 6 7 -9 9 -11 -12 12 13 -15
leaf_value=-0.10064919300791758 -0.010005486348818681 -0.10047504951828828 -0.0016923615427638398 0.0061763205738667969 -0.096822287792389897 -0.090243578695301849 -0.0065855522764457167 0.10040461523495135 0.13599928224023811 0.034751558028145189 0.061832720850146267 0.043614611890665539 -0.018379498407074379 0.014552004928760316
leaf_weight=7.5877983495593062 10.109249129891397 5.5717539642937473 439.77256567776203 9.1868545860052127 4.7219336777925482 4.542949629947544 8.6211622506380063 4.4232114739716062 5.3185885921120626 4.6871913075447083 5.6738164573907843 21.925632037222385 30.003902352415025 52.547160429880023
leaf_count=1313 45 1189 2078 44 21 23 42 23 25 24 26 108 140 259
internal_value=0 0.000952418 0.0018919 0.0124432 -0.0101199 0.0250222 -0.00128708 0.0296937 0.049131 0.08857 0.0158195 0.000781321 0.0111938 0.00258276
internal_weight=0 607.106 601.534 57.285 20.505 36.78 17.5873 13.0444 19.1926 10.0058 15.7831 544.249 104.477 82.5511
internal_count=5360 4047 2858 273 92 181 88 65 93 49 71 2585 507 399
is_linear=0
shrinkage=0.1


Tree=44
num_leaves=15
num_cat=0
split_feature=7 2 1 1 5 1 8 8 6 6 8 5 6 1
split_gain=6.99117 5.21836 0.704809 0.880093 1.75236 1.52218 1.47159 3.86982 3.5087 1.45476 3.88486 4.27056 2.97776 2.00244
threshold=94402.000000000015 4.5000000000000009 57.500000000000007 48.500000000000007 8.5000000000000018 44.500000000000007 79.447261810302749 93.288288116455092 5.5000000000000009 11.500000000000002 81.405803680419936 14.500000000000002 14.500000000000002 33.500000000000007
decision_type=2 2 2 2 2 2 2 2 2 2 2 2 2 2
left_child=-1 2 3 5 -5 9 8 -8 -6 -2 -11 12 -12 -13
right_child=1 -3 -4 4 6 -7 7 -9 -10 10 11 13 -14 -15
leaf_value=-0.10058710837639373 -0.0018171539508861627 -0.10042963593639852 0.033387885196050855 -0.047200345204485732 0.070700426192264021 0.024642319789350779 -0.096245629868289911 0.033777295710257303 -0.02287887943577991 0.027637495893122949 0.029330196973025687 -0.021780328425819569 -0.054957376576271734 -0.08544757265892633
leaf_weight=6.8697462079580864 403.67151879798621 5.0436950796283773 6.9438075814396134 10.938203730620442 7.2202335689216914 28.974545712582767 4.5878124684095365 4.5683410065248609 9.0023408755660039 64.374628286808729 27.999158268794417 21.284136118367318 4.9293413311243048 6.4331315308809272
leaf_count=1313 1939 1189 34 49 39 142 20 23 42 302 130 90 21 27
internal_value=0 0.000862981 0.00171315 0.00134286 -0.0137409 0.00232516 0.000680074 -0.0313724 0.0187708 0.00110209 0.0105279 -0.00763374 0.0167125 -0.0365574
internal_weight=0 605.971 600.927 593.983 36.3169 557.666 25.3787 9.15615 16.2226 528.692 125.02 60.6458 32.9285 27.7173
internal_count=5360 4047 2858 2824 173 2651 124 43 81 2509 570 268 151 117
is_linear=0
shrinkage=0.1


Tree=45
num_leaves=15
num_cat=0
split_feature=7 7 5 6 6 1 5 1 1 5 8 8 1 1
split_gain=6.32982 6.44984 0.707019 1.4558 0.873276 1.937 2.63583 1.6252 2.32337 3.485 2.63562 2.03742 1.05164 3.83477
threshold=94406.000000000015 94402.000000000015 22.500000000000004 5.5000000000000009 2.5000000000000004 40.500000000000007 6.5000000000000009 31.500000000000004 29.500000000000004 10.500000000000002 83.178913116455092 84.478221893310561 40.500000000000007 42.500000000000007
decision_type=2 2 2 2 2 2 2 2 2 2 2 2 2 2
left_child=1 -1 4 -4 5 7 -7 8 9 10 -3 -11 -6 -14
right_child=-2 2 3 -5 12 6 -8 -9 -10 11 -12 -13 13 -15
leaf_value=-0.10053098369987601 -0.10069114068294537 0.097287657462473767 -0.014784426034509985 0.052393933915556162 -0.0021126031755883848 -0.083172270423546218 0.022651602379399238 0.049174194188845867 -0.054677531820280525 -0.048705269807239819 0.011644647214934932 0.03257313874036518 0.047204023567100094 -0.00076016787644654421
leaf_weight=6.2192971755284807 6.2106891619041553 7.1437979042530078 5.4982593655586225 7.8050596415996552 427.79974236339331 4.530390188097952 4.8987774103879929 14.59237729012966 4.8714309036731711 7.9674631878733617 7.2301203459501266 5.0318988896906376 21.052770882844925 80.048112064599991
leaf_count=1313 1313 34 27 44 1922 20 24 71 23 37 34 25 103 370
internal_value=0 0.000780545 0.00183337 0.0246291 0.00131513 0.0131591 -0.0281931 0.0214841 0.00895294 0.0202768 0.054209 -0.0172434 5.51226e-05 0.00922767
internal_weight=0 604.689 598.47 13.3033 585.167 56.2663 9.42917 46.8371 32.2447 27.3733 14.3739 12.9994 528.901 101.101
internal_count=5360 4047 2734 71 2663 268 44 224 153 130 68 62 2395 473
is_linear=0
shrinkage=0.1


Tree=46
num_leaves=15
num_cat=0
split_feature=7 2 3 3 6 3 5 5 3 5 3 3 3 3
split_gain=5.71122 4.24815 0.616835 0.627896 1.91148 1.51418 3.54143 3.53705 3.38212 3.06303 3.33182 1.14325 2.61305 2.42866
threshold=94402.000000000015 4.5000000000000009 200859.50000000003 182701.50000000003 13.500000000000002 198316.00000000003 4.5000000000000009 8.5000000000000018 185344.00000000003 11.500000000000002 198364.50000000003 145532.00000000003 144148.50000000003 149721.50000000003
decision_type=2 2 2 2 2 2 2 2 2 2 2 2 2 2
left_child=-1 2 3 11 5 7 -7 -5 -9 -8 -11 12 -2 -13
right_child=1 -3 -4 4 -6 6 9 8 -10 10 -12 13 -14 -15
leaf_value=-0.10048024932071459 0.0019363203900726791 -0.10035136866102071 -0.031060942503774655 0.098578711007465056 0.044364650302818061 -0.075628587760621632 0.069411119948370958 -0.044467061674353527 0.054557156035738325 -0.073644265551705307 0.0081197836614002403 -0.035875990020707342 0.055680908846336231 -0.0010736880856195524
leaf_weight=5.6301497770473352 375.37892671860754 4.1312398444861165 5.7963736387900999 5.0063576698303249 13.475559324026106 6.4745000349357715 6.0826961100101462 7.5854478757828456 6.3251598663628101 6.2213993817567852 25.052474224939942 24.623483681119978 9.2698375061154348 107.9970003189519
leaf_count=1313 1744 1189 30 27 62 30 31 36 38 32 156 115 43 514
internal_value=0 0.000705946 0.00140259 0.00171965 0.0101929 0.00285428 -0.00735096 0.0265 0.000559297 0.00448267 -0.00814577 0.00047105 0.00323154 -0.00753539
internal_weight=0 603.42 599.289 593.493 76.2236 62.748 43.8311 18.917 13.9106 37.3566 31.2739 517.269 384.649 132.62
internal_count=5360 4047 2858 2828 412 350 249 101 74 219 188 2416 1787 629
is_linear=0
shrinkage=0.1


Tree=47
num_leaves=15
num_cat=0
split_feature=7 2 3 8 1 8 1 5 3 3 1 1 3 8
split_gain=5.16298 3.83506 0.607331 1.94677 1.50005 1.39178 1.8533 1.32512 1.30798 2.00085 2.20537 1.62033 1.22881 4.03676
threshold=94402.000000000015 4.5000000000000009 129101.50000000001 7.582566738128663 39.500000000000007 72.500000000000014 26.500000000000004 18.500000000000004 129847.00000000001 133687.00000000003 32.500000000000007 31.500000000000004 140009.00000000003 94.868419647216811
decision_type=2 2 2 2 2 2 2 2 2 2 2 2 2 2
left_child=-1 2 3 7 5 -5 -7 -2 11 10 -10 -4 13 -11
right_child=1 -3 8 4 -6 6 -8 -9 9 12 -12 -13 -14 -15
leaf_value=-0.10043437571140534 0.0089654571001094637 -0.10031781557506377 0.0038672222314611992 0.068808613783895828 0.083244378553473344 0.042538467648664535 -0.034477327380220898 -0.06126202339644328 0.088074562159555475 -0.019441541375199226 -0.0055605733540562835 -0.06087014546112867 0.003190730415993779 0.018738579431755491
leaf_weight=5.0965787307359269 6.7066881507635099 3.7392869973555198 7.8120595440268499 4.1328699886798921 4.553645931184291 5.9204025343060476 6.6163944453001022 4.482678085565567 5.5098769217729551 91.790743274614215 4.6282993704080582 7.6546843200922012 409.16113401623443 39.655977537855506
leaf_count=1313 33 1189 37 20 28 29 31 23 28 410 22 33 1986 178
internal_value=0 0.000639886 0.00127051 0.0145833 0.0323782 0.0184831 0.00189277 -0.019169 0.000508429 0.00131387 0.0453281 -0.0281721 0.000488461 -0.00792303
internal_weight=0 602.365 598.625 32.4127 21.2233 16.6697 12.5368 11.1894 566.213 550.746 10.1382 15.4667 540.608 131.447
internal_count=5360 4047 2858 164 108 80 60 56 2694 2624 50 70 2574 588
is_linear=0
shrinkage=0.1


Tree=48
num_leaves=15
num_cat=0
split_feature=7 2 8 5 5 8 1 8 8 8 8 8 8 6
split_gain=4.66779 3.46287 0.625256 2.3526 3.79217 5.23555 4.51092 6.96696 2.8014 6.97545 3.02837 2.6668 2.66519 2.41542
threshold=94402.000000000015 4.5000000000000009 47.633054733276374 8.5000000000000018 4.5000000000000009 74.933155059814467 24.500000000000004 66.452991485595717 62.533422470092781 66.079193115234389 57.15094184875489 81.405803680419936 86.040294647216811 14.500000000000002
decision_type=2 2 2 2 2 2 2 2 2 2 2 2 2 2
left_child=-1 2 -2 4 5 -4 -6 -8 10 -10 -5 -7 -9 -11
right_child=1 -3 3 8 6 11 7 12 9 13 -12 -13 -14 -15
leaf_value=-0.10039290412546903 0.0052846537661946826 -0.10028748730662351 -0.085708364439210719 -0.015462558463381362 0.084326599364712526 0.09033381835047026 0.14447669010769579 -0.046934501178495867 0.10876974405486071 -0.0079098739190426436 -0.098233083202572472 -0.0011242892287302677 0.016933775806481709 0.045128300515706876
leaf_weight=4.6133833257481447 227.0160354161635 3.3844180651940396 7.2596600428223601 13.724476626142861 12.201395872980354 3.4316788967698804 3.688983963802456 8.9720652140676957 5.4196781376376739 232.07272033626214 6.5204589515924445 44.935951826628298 24.040803434327245 8.9163927733898145
leaf_count=1313 1124 1189 35 63 59 17 19 41 29 1080 28 212 112 39
internal_value=0 0.000579964 0.00115064 -0.00137772 0.0113377 -0.00652086 0.0316518 0.0141403 -0.00636229 -0.00342434 -0.0421212 0.00536465 -0.000424011 -0.00594751
internal_weight=0 601.585 598.2 371.184 104.531 55.6273 48.9032 36.7019 266.654 246.409 20.2449 48.3676 33.0129 240.989
internal_count=5360 4047 2858 1734 495 264 231 172 1239 1148 91 229 153 1119
is_linear=0
shrinkage=0.1


end of trees

feature_importances:
Column_3=153
Column_1=140
Column_8=100
Column_5=91
Column_7=74
Column_6=49
Column_0=34
Column_2=31
Column_4=14

parameters:
[boosting: gbdt]
[objective: binary]
[metric: auc]
[tree_learner: serial]
[device_type: cpu]
[data_sample_strategy: bagging]
[data: ]
[valid: ]
[num_iterations: 10000]
[learning_rate: 0.1]
[num_leaves: 15]
[num_threads: 0]
[seed: 45]
[deterministic: 0]
[force_col_wise: 0]
[force_row_wise: 0]
[histogram_pool_size: -1]
[max_depth: -1]
[min_data_in_leaf: 20]
[min_sum_hessian_in_leaf: 0.001]
[bagging_fraction: 0.9]
[pos_bagging_fraction: 1]
[neg_bagging_fraction: 1]
[bagging_freq: 0]
[bagging_seed: 32645]
[feature_fraction: 0.9]
[feature_fraction_bynode: 1]
[feature_fraction_seed: 3942]
[extra_trees: 0]
[extra_seed: 24660]
[early_stopping_round: 0]
[early_stopping_min_delta: 0]
[first_metric_only: 0]
[max_delta_step: 0]
[lambda_l1: 0]
[lambda_l2: 0]
[linear_lambda: 0]
[min_gain_to_split: 0]
[drop_rate: 0.1]
[max_drop: 50]
[skip_drop: 0.5]
[xgboost_dart_mode: 0]
[uniform_drop: 0]
[drop_seed: 5926]
[top_rate: 0.2]
[other_rate: 0.1]
[min_data_per_group: 100]
[max_cat_threshold: 32]
[cat_l2: 10]
[cat_smooth: 10]
[max_cat_to_onehot: 4]
[top_k: 20]
[monotone_constraints: ]
[monotone_constraints_method: basic]
[monotone_penalty: 0]
[feature_contri: ]
[forcedsplits_filename: ]
[refit_decay_rate: 0.9]
[cegb_tradeoff: 1]
[cegb_penalty_split: 0]
[cegb_penalty_feature_lazy: ]
[cegb_penalty_feature_coupled: ]
[path_smooth: 0]
[interaction_constraints: ]
[verbosity: -1]
[saved_feature_importance_type: 0]
[use_quantized_grad: 0]
[num_grad_quant_bins: 4]
[quant_train_renew_leaf: 0]
[stochastic_rounding: 1]
[linear_tree: 0]
[max_bin: 255]
[max_bin_by_feature: ]
[min_data_in_bin: 3]
[bin_construct_sample_cnt: 200000]
[data_random_seed: 185]
[is_enable_sparse: 1]
[enable_bundle: 1]
[use_missing: 1]
[zero_as_missing: 0]
[feature_pre_filter: 1]
[pre_partition: 0]
[two_round: 0]
[header: 0]
[label_column: ]
[weight_column: ]
[group_column: ]
[ignore_column: ]
[categorical_feature: ]
[forcedbins_filename: ]
[precise_float_parser: 0]
[parser_config_file: ]
[objective_seed: 14259]
[num_class: 1]
[is_unbalance: 0]
[scale_pos_weight: 1]
[sigmoid: 1]
[boost_from_average: 1]
[reg_sqrt: 0]
[alpha: 0.9]
[fair_c: 1]
[poisson_max_delta_step: 0.7]
[tweedie_variance_power: 1.5]
[lambdarank_truncation_level: 30]
[lambdarank_norm: 1]
[label_gain: ]
[lambdarank_position_bias_regularization: 0]
[eval_at: ]
[multi_error_top_k: 1]
[auc_mu_weights: ]
[num_machines: 1]
[local_listen_port: 12400]
[time_out: 120]
[machine_list_filename: ]
[machines: ]
[gpu_platform_id: -1]
[gpu_device_id: -1]
[gpu_use_dp: 0]
[num_gpu: 1]

end of parameters

pandas_categorical:null
