tree
version=v4
num_class=1
num_tree_per_iteration=1
label_index=0
max_feature_idx=8
objective=binary sigmoid:1
feature_names=Column_0 Column_1 Column_2 Column_3 Column_4 Column_5 Column_6 Column_7 Column_8
feature_infos=[0:11] [0:69] [0:12] [124587:201897] [0:3] [0:23] [0:15] [51873:241116] [-1:100]
tree_sizes=1679 1686 1681 1681 1680 1678 1690 1688 1685 1677 1687 1679 1680 1686 1690 1687 1685 1674 1684 1698 1687 1672 1672 1694 1687 1697 1686 1689 1687 1694 1687 1693 1685 1685 1688 1692 1687 1697 1692 1686 1687 1688 1691 1696 1683 1698 1690 1703 1690 1678 1688 1695 1691 1669 1694 1686 1686

Tree=0
num_leaves=15
num_cat=0
split_feature=7 7 8 5 6 5 4 8 5 0 1 1 5 5
split_gain=859.555 1685.16 15.1106 12.7421 9.2223 9.84499 6.83932 6.06736 7.73495 5.78552 5.31026 5.27504 10.1545 6.20865
threshold=94406.000000000015 94402.000000000015 50.108224868774421 20.500000000000004 4.5000000000000009 22.500000000000004 2.5000000000000004 55.662393569946296 12.500000000000002 9.5000000000000018 35.500000000000007 26.500000000000004 19.500000000000004 20.500000000000004
decision_type=2 2 2 2 2 2 2 2 2 2 2 2 2 2
left_child=1 -1 9 6 10 -6 -4 8 -8 -3 -5 13 -13 -11
right_child=-2 2 3 4 5 -7 7 -9 -10 11 -12 12 -14 -15
leaf_value=-0.77935741405252135 -0.77935741405252135 -0.63419966312214004 -0.70406725875673448 -0.63092825075511305 -0.66142504690779325 -0.60368038502901866 -0.71061422878245506 -0.63041539444657024 -0.59866104134263298 -0.61652056655233123 -0.55348694816516086 -0.62162664178481153 -0.58891760948082528 -0.65277066943433026
leaf_weight=290.6533077955246 290.6533077955246 79.913057208061218 3.320487141609191 7.747803330421446 100.05734586715698 7.9691691398620597 5.0914136171340934 233.98366057872772 2.2136580944061279 28.55618941783905 3.0991213321685791 79.24895977973938 33.868968844413757 20.144288659095764
leaf_count=1313 1313 361 15 35 452 36 23 1057 10 129 14 358 153 91
internal_value=-0.704643 -0.680403 -0.63288 -0.639323 -0.652752 -0.657165 -0.632797 -0.631816 -0.676689 -0.623192 -0.608802 -0.617757 -0.611833 -0.631515
internal_weight=0 895.867 605.214 363.483 118.873 108.027 244.609 241.289 7.30507 241.731 10.8469 161.818 113.118 48.7005
internal_count=5360 4047 2734 1642 537 488 1105 1090 33 1092 49 731 511 220
is_linear=0
shrinkage=1


Tree=1
num_leaves=15
num_cat=0
split_feature=2 0 4 6 1 6 0 1 2 0 2 3 3 1
split_gain=1048.4 333.898 201.948 50.2268 31.685 33.3264 24.0152 22.9785 13.9547 13.5876 12.9911 12.8082 12.7502 10.4808
threshold=4.5000000000000009 7.5000000000000009 2.5000000000000004 5.5000000000000009 20.500000000000004 3.5000000000000004 6.5000000000000009 1.0000000180025095e-35 3.5000000000000004 9.5000000000000018 3.5000000000000004 145121.50000000003 134119.50000000003 1.0000000180025095e-35
decision_type=2 2 2 2 2 2 2 2 2 2 2 2 2 2
left_child=1 6 -3 4 7 10 11 -4 -5 -7 -6 -1 -10 -14
right_child=-2 2 3 8 5 9 -8 -9 12 -11 -12 -13 13 -15
leaf_value=-0.044403307220176214 -0.072935035982367266 -0.065987926407409039 0.053322696989515653 -0.072935035982367266 -0.072935035982367266 0.039870623535135985 -0.069370578502247038 0.14465244800659718 0.081518453097634544 0.01487508273397932 0.066221537935696212 0.14554693825295137 0.012041537860407828 0.058995721072668261
leaf_weight=1.577087610960006 348.36808371543884 41.745062947273254 22.365692064166069 1.9401687830686558 1.724594473838805 75.699375256896019 81.201754286885262 9.9515000283718091 64.823081225156784 192.95841461420059 60.999301746487617 2.029507502913475 12.436953142285345 267.61227336525917
leaf_count=7 1616 193 99 9 8 338 376 44 286 867 270 9 55 1183
internal_value=0 0.0302873 0.0408904 0.0471699 0.0341883 0.0295796 -0.0637632 0.0814461 0.0607836 0.021918 0.0623954 0.0624857 0.0615359 0.0569105
internal_weight=0 837.065 752.256 710.511 363.699 331.382 84.8083 32.3172 346.812 268.658 62.7239 3.6066 344.872 280.049
internal_count=5360 3744 3352 3159 1626 1483 392 143 1533 1205 278 16 1524 1238
is_linear=0
shrinkage=0.05


Tree=2
num_leaves=15
num_cat=0
split_feature=2 7 7 4 3 6 5 3 6 5 3 3 0 5
split_gain=963.557 993.745 185.196 8.71664 6.11255 6.38956 6.29949 6.13025 6.09864 5.47778 5.44049 5.48214 4.66019 5.66996
threshold=4.5000000000000009 94402.000000000015 94406.000000000015 2.5000000000000004 129101.50000000001 5.5000000000000009 22.500000000000004 200859.50000000003 9.5000000000000018 20.500000000000004 134507.00000000003 133687.00000000003 10.500000000000002 21.500000000000004
decision_type=2 2 2 2 2 2 2 2 2 2 2 2 2 2
left_child=1 -1 3 8 -5 7 9 -6 -3 -7 11 -11 -12 -14
right_child=-2 2 -4 4 5 6 -8 -9 -10 10 12 -13 13 -15
leaf_value=-0.072425797086103069 -0.071321811453543035 -0.021665994251931851 -0.072160950716601474 0.083312325933886322 0.068945588212612138 0.06040083772357701 0.098671668276347546 0.010499972829077863 0.10922224927879849 0.05493932411689878 0.034425599942965894 -0.013990268120688921 0.070490547350833085 0.026083015022760409
leaf_weight=189.1824993044138 338.68092560768127 4.8007767945528022 26.359543696045876 37.323541328310966 271.13240401446819 218.79769723117352 9.0250127017497999 4.5620575100183478 1.0924862176179884 4.8638032972812635 27.242054387927055 7.0884961783885956 33.340248614549637 9.1636054515838605
leaf_count=886 1616 22 124 161 1183 948 39 20 5 21 119 31 145 40
internal_value=0 0.028512 0.057675 0.063121 0.0636939 0.0624427 0.0575119 0.0679785 0.00259792 0.0562757 0.0452281 0.0140596 0.0505694 0.0609165
internal_weight=0 843.974 654.792 628.432 622.539 585.215 309.521 275.694 5.89326 300.496 81.6982 11.9523 69.7459 42.5039
internal_count=5360 3744 2858 2734 2707 2546 1343 1203 27 1304 356 52 304 185
is_linear=0
shrinkage=0.05


Tree=3
num_leaves=15
num_cat=0
split_feature=2 7 7 8 1 1 5 6 5 1 5 8 1 6
split_gain=887.397 897.218 165.299 12.3875 9.90182 26.6783 9.25671 7.3371 10.0142 5.49459 5.32922 7.13218 5.77499 5.17999
threshold=4.5000000000000009 94402.000000000015 94406.000000000015 50.108224868774421 1.0000000180025095e-35 20.500000000000004 20.500000000000004 4.5000000000000009 22.500000000000004 22.500000000000004 8.5000000000000018 20.02506256103516 26.500000000000004 14.500000000000002
decision_type=2 2 2 2 2 2 2 2 2 2 2 2 2 2
left_child=1 -1 3 10 -5 -6 9 -8 -9 -7 11 13 -12 -3
right_child=-2 2 -4 4 5 6 7 8 -10 -11 12 -13 -14 -15
leaf_value=-0.070860518195407757 -0.069854062433002781 0.052479974329479741 -0.0706194777873628 0.022025703462769275 0.12991968537035672 0.035417557681911856 0.081418963935170896 0.032255310270633823 0.091169202541451125 0.060933374199767132 0.058663858359739807 0.10120488422564976 0.077829765892688738 -0.04453487239293414
leaf_weight=183.82908353209496 328.75884032249451 62.185586750507355 25.607240974903107 23.817491456866264 11.596554011106489 23.41339036822319 10.154069557785986 92.955802157521248 7.8198693543672553 213.42114049196243 56.749072372913361 7.7271008342504492 127.85252249240875 1.4070488959550846
leaf_count=886 1616 265 124 103 49 100 43 402 33 912 243 33 545 6
internal_value=0 0.0269064 0.0539445 0.0589354 0.0532465 0.0553158 0.052828 0.0409086 0.0368268 0.0584109 0.0674532 0.0558451 0.0719379 0.0503334
internal_weight=0 848.536 664.707 639.1 383.178 359.361 347.764 110.93 100.776 236.835 255.921 71.3197 184.602 63.5926
internal_count=5360 3744 2858 2734 1642 1539 1490 478 435 1012 1092 304 788 271
is_linear=0
shrinkage=0.05


Tree=4
num_leaves=15
num_cat=0
split_feature=2 7 7 8 5 6 5 8 5 0 5 4 8 5
split_gain=818.912 812.584 148.107 10.731 8.68607 6.25577 6.48913 4.78324 6.47273 4.70963 4.67957 4.02986 4.00793 3.69689
threshold=4.5000000000000009 94402.000000000015 94406.000000000015 50.108224868774421 20.500000000000004 4.5000000000000009 22.500000000000004 58.387445449829109 4.5000000000000009 9.5000000000000018 11.500000000000002 2.5000000000000004 7.0197043418884286 14.500000000000002
decision_type=2 2 2 2 2 2 2 2 2 2 2 2 2 2
left_child=1 -1 3 9 7 -6 -7 8 -5 10 12 13 -3 -9
right_child=-2 2 -4 4 5 6 -8 11 -10 -11 -12 -13 -14 -15
leaf_value=-0.06943481788051524 -0.068514503241946481 0.029495673366566517 -0.069214756880110154 -0.055978677932903356 0.073865854171023246 0.032144109599259479 0.077123592645006567 0.038850685454397155 0.041465575361237718 0.067776123139910299 0.062487560256983446 0.057262719934687317 0.073664754373191074 -0.07369561255551535
leaf_weight=178.36205671727657 318.68268942832947 25.633623823523521 24.840045928955078 2.1037645041942588 11.756710588932036 105.52841113507748 8.6779804825782758 2.2047055363655086 8.9722540676593763 174.22124117612839 53.690732583403587 247.73366963863373 6.4228745996952048 1.0905763804912565
leaf_count=886 1616 108 124 9 49 452 36 10 38 731 226 1043 27 5
internal_value=0 0.0254496 0.050601 0.0551937 0.0499275 0.039137 0.0355619 0.0551133 0.0229571 0.0630548 0.0534621 0.0565321 0.0383454 0.00160339
internal_weight=0 851.239 672.877 648.037 388.068 125.963 114.206 262.105 11.076 259.968 85.7472 251.029 32.0565 3.29528
internal_count=5360 3744 2858 2734 1642 537 488 1105 47 1092 361 1058 135 15
is_linear=0
shrinkage=0.05


Tree=5
num_leaves=15
num_cat=0
split_feature=7 7 1 1 1 3 6 4 3 5 3 3 6 6
split_gain=596.908 1031.21 7.45348 31.9486 6.706 6.31435 6.24623 6.17075 5.22713 4.70121 5.34057 5.02958 4.67144 4.27171
threshold=94402.000000000015 94406.000000000015 1.0000000180025095e-35 20.500000000000004 22.500000000000004 134119.50000000003 5.5000000000000009 2.5000000000000004 129101.50000000001 18.500000000000004 182894.00000000003 143619.50000000003 4.5000000000000009 5.5000000000000009
decision_type=2 2 2 2 2 2 2 2 2 2 2 2 2 2
left_child=-1 2 5 -4 9 -2 -7 -6 -9 10 12 -11 -5 -10
right_child=1 -3 3 4 7 6 -8 8 13 11 -12 -13 -14 -15
leaf_value=-0.06786185968106849 0.10639772274642018 -0.067350043036251458 0.11782257014058209 0.074160088315465611 -0.010618245678235612 0.041875348426494312 0.0007287700668840815 0.072266197163032134 0.05695764384995633 0.077345224909600968 0.080748150215125145 0.020262071722359012 0.0066246797180079921 0.047774449147108079
leaf_weight=254.34534882009029 2.6323892921209326 251.06443640589714 18.554955065250397 2.8669065386056962 3.8162688910961142 24.5367731153965 14.778715014457701 33.669681668281555 231.16868793964386 9.7356168329715747 3.3557289838790885 6.3926226645708075 23.959011107683182 280.04533877968788
leaf_count=1313 11 1313 76 12 17 103 63 139 965 41 14 27 100 1166
internal_value=0 0.0188165 0.0518188 0.0532128 0.051198 0.031428 0.0264083 0.0527401 0.0531839 0.0329267 0.0212811 0.0547196 0.0138422 0.051927
internal_weight=0 906.577 655.513 613.565 595.01 41.9479 39.3155 548.7 544.884 46.3099 30.1816 16.1282 26.8259 511.214
internal_count=5360 4047 2734 2557 2481 177 166 2287 2270 194 126 68 112 2131
is_linear=0
shrinkage=0.05


Tree=6
num_leaves=15
num_cat=0
split_feature=2 7 7 4 6 3 6 3 5 6 0 6 3 3
split_gain=700.885 671.805 120.089 6.03808 5.16732 4.62656 4.47576 5.19518 4.77338 4.25357 5.7437 4.90007 4.31441 6.03303
threshold=4.5000000000000009 94402.000000000015 94406.000000000015 2.5000000000000004 9.5000000000000018 129101.50000000001 5.5000000000000009 200859.50000000003 22.500000000000004 11.500000000000002 10.500000000000002 8.5000000000000018 138395.50000000003 134123.50000000003
decision_type=2 2 2 2 2 2 2 2 2 2 2 2 2 2
left_child=1 -1 3 4 -3 -5 7 -7 9 10 11 -8 13 -12
right_child=-2 2 -4 5 -6 6 8 -9 -10 -11 12 -13 -14 -15
leaf_value=-0.066943702042719863 -0.066160260119594083 -0.023621856925036988 -0.066763911298450482 0.065817695273820934 0.093872136319504834 0.053513488412778622 0.027742844338448071 0.00095097627843466776 0.078909503756853738 0.049196230779328803 0.042982844525871727 -0.036704114690087664 0.049609533889606455 -0.0055668606511473304
leaf_weight=167.27271170914173 298.30822525918484 4.8715329319238654 23.290030807256699 39.421411246061325 1.1582756638526914 286.44786484539509 49.443182498216629 4.7794198840856543 9.5672709643840772 149.0257163643837 19.868989273905758 3.1365250796079627 84.54426334798336 9.438574478030203
leaf_count=886 1616 22 124 161 5 1183 205 20 39 616 82 13 349 39
internal_value=0 0.0228891 0.0448259 0.0487535 -0.00105225 0.0492116 0.0481493 0.0526509 0.0441158 0.0430605 0.0375665 0.0238984 0.0438788 0.0273473
internal_weight=0 852.266 684.993 661.703 6.02981 655.673 616.252 291.227 325.025 315.457 166.432 52.5797 113.852 29.3076
internal_count=5360 3744 2858 2734 27 2707 2546 1203 1343 1304 688 218 470 121
is_linear=0
shrinkage=0.05


Tree=7
num_leaves=15
num_cat=0
split_feature=2 7 7 8 1 1 4 3 8 1 8 1 3 3
split_gain=649.957 612.788 108.539 9.14547 7.69069 20.8789 7.44335 4.58831 4.0722 7.50964 5.50795 5.61758 7.22854 7.1173
threshold=4.5000000000000009 94402.000000000015 94406.000000000015 47.633054733276374 1.0000000180025095e-35 20.500000000000004 2.5000000000000004 129101.50000000001 87.550323486328139 37.500000000000007 70.064933776855483 23.500000000000004 143237.50000000003 159886.50000000003
decision_type=2 2 2 2 2 2 2 2 2 2 2 2 2 2
left_child=1 -1 3 -3 -5 -6 -7 -8 9 10 -9 12 -12 -14
right_child=-2 2 -4 4 5 6 7 8 -10 -11 11 -13 13 -15
leaf_value=-0.065847490950092347 -0.065125691279834641 0.053200740159713371 -0.065682072416699641 0.014133904812060023 0.10668053996600722 -0.039548496210166338 0.064031580459320891 0.044978954884865391 0.044274315930643571 0.052373609447783381 -0.051552668826155092 0.025354594549301425 0.09793490267632686 -0.0079685334996401052
leaf_weight=161.69592839479446 288.15215730667114 263.19133001565933 22.509737625718117 24.607291668653488 12.441146731376646 2.8586576730012885 21.183469533920288 25.980540439486504 214.13989333808422 36.031330481171608 6.0396707206964475 52.358698904514313 2.1814127564430237 5.8170999586582184
leaf_count=886 1616 1074 124 103 50 13 86 107 880 148 25 215 9 24
internal_value=0 0.0217554 0.0423041 0.0459493 0.041221 0.0429795 0.0408177 0.0414493 0.0400528 0.0330127 0.0254611 0.017824 -0.0102633 0.0209142
internal_weight=0 851.036 689.34 666.831 403.639 379.032 366.591 363.732 342.549 128.409 92.3774 66.3969 14.0382 7.99851
internal_count=5360 3744 2858 2734 1660 1557 1507 1494 1408 528 380 273 58 33
is_linear=0
shrinkage=0.05


Tree=8
num_leaves=15
num_cat=0
split_feature=2 0 4 6 0 6 1 1 2 2 0 5 5 5
split_gain=603.558 172.814 100.76 17.9329 15.4319 15.0596 15.7645 11.3175 6.60333 6.48285 6.37466 7.45484 7.80355 7.51792
threshold=4.5000000000000009 7.5000000000000009 2.5000000000000004 5.5000000000000009 6.5000000000000009 3.5000000000000004 20.500000000000004 1.0000000180025095e-35 3.5000000000000004 3.5000000000000004 9.5000000000000018 3.5000000000000004 20.500000000000004 1.5000000000000002
decision_type=2 2 2 2 2 2 2 2 2 2 2 2 2 2
left_child=1 4 -3 5 -1 9 7 -7 -5 -4 -8 13 -13 -12
right_child=-2 2 3 8 -6 6 10 -9 -10 -11 11 12 -14 -15
leaf_value=0.042132519323169665 -0.064172008967101665 -0.056624175969845418 -0.064105356856793194 -0.064117459840737925 -0.060534834791691333 0.031902341479466627 0.026821796779798953 0.10077492092368157 0.03945478119144652 0.045553093557143244 0.056544199858131472 0.023505448872580933 0.0021567975346359416 -0.03163747396614576
leaf_weight=3.8761475831270209 278.06834203004837 34.0812958329916 1.3729518651962269 1.5453123897314061 65.671671718358994 17.709814682602886 78.526931062340736 8.9941165000200254 372.06879761815071 73.537620887160301 2.8170612603426006 89.192553922533989 82.302937477827072 17.020668208599091
leaf_count=16 1616 193 8 9 376 73 338 36 1524 304 12 394 378 83
internal_value=0 0.0207055 0.0274462 0.0312917 -0.0548128 0.0235124 0.0184527 0.0550992 0.0390264 0.0435433 0.0148264 0.00990324 0.01326 -0.0191152
internal_weight=0 848.718 779.17 745.089 69.5478 371.475 296.564 26.7039 373.614 74.9106 269.86 191.333 171.495 19.8377
internal_count=5360 3744 3352 3159 392 1626 1314 109 1533 312 1205 867 772 95
is_linear=0
shrinkage=0.05


Tree=9
num_leaves=15
num_cat=0
split_feature=7 7 8 5 3 1 1 5 1 3 3 1 3 3
split_gain=459.58 727.422 8.2379 7.78588 9.95092 6.11544 7.50245 5.05504 5.67001 7.00062 6.15234 6.95315 5.95145 5.00894
threshold=94402.000000000015 94406.000000000015 47.633054733276374 20.500000000000004 185344.00000000003 18.500000000000004 20.500000000000004 8.5000000000000018 26.500000000000004 139777.00000000003 134121.50000000003 51.500000000000007 134897.50000000003 198316.00000000003
decision_type=2 2 2 2 2 2 2 2 2 2 2 2 2 2
left_child=-1 2 7 13 5 -5 -7 -2 -9 10 -10 12 -12 -4
right_child=1 -3 3 4 -6 6 -8 8 9 -11 11 -13 -14 -15
leaf_value=-0.064146850299253641 0.037271229236632682 -0.06339030235473872 0.043955832870571643 -0.020857786793379365 0.060573395719103987 0.09955073168403622 0.022323758565577015 0.039787405351689675 0.063374060523277154 0.065861552629113237 -0.0018011131484569941 -0.065838832729877214 0.053501632280601945 0.019681551167113065
leaf_weight=224.77638550102711 73.404120340943336 218.61388358473778 252.02499783039093 7.9187018126249304 19.05456268787384 3.2449508756399146 101.98627354204655 58.994594857096672 17.150910064578056 93.663078218698502 7.9000372886657777 1.98052518069744 12.662321597337721 23.208700940012932
leaf_count=1313 297 1313 1023 33 78 13 418 239 69 378 32 8 51 95
internal_value=0 0.0158523 0.0415856 0.0371186 0.0271457 0.0215165 0.0247052 0.0484342 0.0526941 0.0584038 0.0408062 0.0236363 0.0322544 0.0419089
internal_weight=0 891.808 673.194 407.438 132.204 113.15 105.231 265.756 192.351 133.357 39.6938 22.5429 20.5624 275.234
internal_count=5360 4047 2734 1660 542 464 431 1074 777 538 160 91 83 1118
is_linear=0
shrinkage=0.05


Tree=10
num_leaves=15
num_cat=0
split_feature=2 7 7 1 1 1 3 6 5 5 3 3 5 5
split_gain=521.783 489.161 84.4047 5.47555 24.6207 5.46746 5.3883 5.28635 4.24625 4.13662 4.77162 4.20855 4.06498 3.91201
threshold=4.5000000000000009 94402.000000000015 94406.000000000015 1.0000000180025095e-35 20.500000000000004 22.500000000000004 134119.50000000003 5.5000000000000009 22.500000000000004 18.500000000000004 182894.00000000003 143619.50000000003 8.5000000000000018 21.500000000000004
decision_type=2 2 2 2 2 2 2 2 2 2 2 2 2 2
left_child=1 -1 3 6 -5 9 -3 -8 13 10 12 -11 -6 -7
right_child=-2 2 -4 4 5 8 7 -9 -10 11 -12 -13 -14 -15
leaf_value=-0.063641530887482201 -0.062472258223743006 0.090293581621036595 -0.063414729654076851 0.096685260332247586 0.025036647587418318 0.040406387096773085 0.031538412558961469 -0.0058110146080580282 0.066670365716586827 0.062862054786427909 0.067028718205648277 0.011514696160090153 -0.013411970328985166 0.02080176355199307
leaf_weight=148.5111408084631 258.21533849835396 2.7154625207185736 20.590134799480438 18.931306511163712 13.058810204267507 524.5234309732914 25.266050294041634 15.157372802495955 14.715251997113226 10.115444228053095 3.4675004929304114 6.5905883014202109 14.515916407108305 26.743617907166481
leaf_count=886 1616 11 124 76 53 2119 103 63 59 41 14 27 59 109
internal_value=0 0.0187419 0.0363109 0.0393493 0.0405245 0.0387922 0.0221137 0.0175337 0.0401629 0.0225443 0.011748 0.0426053 0.00479649 0.0394553
internal_weight=0 844.902 696.391 675.801 632.662 613.731 43.1389 40.4234 565.982 47.7483 31.0422 16.706 27.5747 551.267
internal_count=5360 3744 2858 2734 2557 2481 177 166 2287 194 126 68 112 2228
is_linear=0
shrinkage=0.05


Tree=11
num_leaves=15
num_cat=0
split_feature=2 7 7 8 5 6 8 3 8 8 3 5 6 3
split_gain=486.175 449.111 76.8888 7.34419 7.12345 10.4159 6.64358 6.24412 5.82364 11.8879 4.62813 4.50839 4.76722 4.43576
threshold=4.5000000000000009 94402.000000000015 94406.000000000015 47.633054733276374 8.5000000000000018 14.500000000000002 91.042778015136733 198316.00000000003 62.533422470092781 67.556819915771499 129101.50000000001 8.5000000000000018 14.500000000000002 174496.50000000003
decision_type=2 2 2 2 2 2 2 2 2 2 2 2 2 2
left_child=1 -1 3 11 5 7 -7 13 -6 -10 -11 12 -3 -5
right_child=-2 2 -4 4 8 6 -8 -9 9 10 -12 -13 -14 -15
leaf_value=-0.062802478756659508 -0.06171692726296079 0.035031701721631288 -0.062592413186060861 0.04596179799353587 0.0037872792283325431 0.032735852804972418 -0.092939340639947299 0.0069788832849186667 0.091230964368739398 0.059073713807273789 0.027555025622214548 0.047736439492547085 -0.055651632781844235 0.078050264287042051
leaf_weight=143.10743278264999 248.55156107246876 72.383051931858063 19.836698561906815 93.554207161068916 21.45679122209549 1.9869361221790303 2.2338334023952484 9.3269988149404508 7.9130722284317008 12.21734833717346 249.42952570319176 193.50064535439014 1.4788836836814869 12.170960843563078
leaf_count=886 1616 291 124 377 87 8 9 38 32 49 1011 777 6 49
internal_value=0 0.0178821 0.0344366 0.0372769 0.033075 0.043366 -0.0337775 0.0461961 0.0288572 0.0308528 0.0290268 0.043725 0.033216 0.0496558
internal_weight=0 840.596 697.489 677.652 410.29 119.273 4.22077 115.052 291.017 269.56 261.647 267.363 73.8619 105.725
internal_count=5360 3744 2858 2734 1660 481 17 464 1179 1092 1060 1074 297 426
is_linear=0
shrinkage=0.05


Tree=12
num_leaves=15
num_cat=0
split_feature=2 7 7 8 5 3 3 8 5 3 8 8 3 3
split_gain=453.415 412.86 70.1466 6.65578 6.70572 8.90998 4.55804 4.16306 5.50129 3.62342 3.53892 4.98158 4.71589 3.81153
threshold=4.5000000000000009 94402.000000000015 94406.000000000015 50.108224868774421 20.500000000000004 185344.00000000003 200859.50000000003 58.387445449829109 4.5000000000000009 136640.00000000003 66.452991485595717 68.947822570800795 139541.50000000003 143234.50000000003
decision_type=2 2 2 2 2 2 2 2 2 2 2 2 2 2
left_child=1 -1 3 -3 6 -6 7 8 -5 -10 12 -12 -9 -13
right_child=-2 2 -4 4 5 -7 -8 10 9 -11 11 13 -14 -15
leaf_value=-0.062025024388205965 -0.061015660503573516 0.041388463534610093 -0.061830137212935045 -0.064221180153740953 0.016681685016106295 0.053466825204948831 -0.02946562587005444 -0.011035857605320156 0.10304999335722964 0.011579044403481663 -0.019117402832030953 0.043683960939620695 0.078411032855002408 0.031203685921720011
leaf_weight=137.79084478318691 239.07775618135929 272.29004292190075 19.095957934856415 2.1935838758945456 113.00583033263683 19.268429681658745 2.6537821292877188 1.7367927134037007 1.2480125874280918 8.1714208275079709 3.9708203524351111 120.31974776089191 9.7231790870428068 124.45997777581215
leaf_count=886 1616 1092 124 9 459 78 11 7 5 33 16 484 39 501
internal_value=0 0.0170696 0.0326804 0.0353383 0.0312881 0.0220402 0.0357448 0.0363814 0.00709121 0.0236983 0.0376886 0.0364371 0.0648551 0.0373383
internal_weight=0 835.928 698.138 679.042 406.752 132.274 274.477 271.824 11.613 9.41943 260.211 248.751 11.46 244.78
internal_count=5360 3744 2858 2734 1642 537 1105 1094 47 38 1047 1001 46 985
is_linear=0
shrinkage=0.05


Tree=13
num_leaves=15
num_cat=0
split_feature=7 7 8 5 3 1 1 1 8 3 6 5 1 1
split_gain=348.256 519.096 6.03137 6.05157 8.00626 5.06457 6.66451 5.05815 6.41853 4.75106 4.74752 4.88752 4.37011 4.15832
threshold=94402.000000000015 94406.000000000015 50.108224868774421 20.500000000000004 185344.00000000003 18.500000000000004 22.500000000000004 40.500000000000007 92.64068984985353 126875.50000000001 4.5000000000000009 22.500000000000004 37.500000000000007 32.500000000000007
decision_type=2 2 2 2 2 2 2 2 2 2 2 2 2 2
left_child=-1 2 -2 -4 5 -5 -7 8 12 -10 -11 -12 13 -8
right_child=1 -3 3 4 -6 6 7 -9 9 10 11 -13 -14 -15
leaf_value=-0.061005317955283724 0.039286156804032801 -0.060441097941744085 0.033907811565886521 -0.02261056378014107 0.050644763991587641 0.055385020752125071 -0.00087200831420571805 0.042008051167921917 0.10282501250952701 0.067383384037844662 0.0075337072160000882 0.069509363669491023 0.077409407023245502 -0.043356712626466842
leaf_weight=193.26073044538498 272.51111271977425 187.49485316872597 274.86510801315308 7.9687313437461844 19.323442324995995 11.094340234994887 26.102933719754219 14.114827305078505 1.7486596107482899 4.4984719008207312 35.287742331624031 3.496363252401351 1.484954148530959 7.3902688622474662
leaf_count=1313 1092 1313 1105 33 78 45 106 57 7 18 143 14 6 30
internal_value=0 0.0132157 0.0335282 0.0296765 0.0208996 0.0158215 0.0187322 0.0144119 0.00954357 0.0220248 0.0187604 0.0131208 -0.00652494 -0.0102463
internal_weight=0 867.382 679.887 407.376 132.511 113.187 105.219 94.1242 80.0094 45.0312 43.2826 38.7841 34.9782 33.4932
internal_count=5360 4047 2734 1642 537 459 426 381 324 182 175 157 142 136
is_linear=0
shrinkage=0.05


Tree=14
num_leaves=15
num_cat=0
split_feature=2 7 7 8 5 6 8 1 1 1 8 5 1 8
split_gain=395.319 350.32 58.6895 5.47854 5.88399 9.39657 5.98998 5.83507 11.6558 4.62412 5.01109 5.54508 8.12924 7.5853
threshold=4.5000000000000009 94402.000000000015 94406.000000000015 47.633054733276374 8.5000000000000018 14.500000000000002 91.042778015136733 1.0000000180025095e-35 20.500000000000004 40.500000000000007 87.550323486328139 17.500000000000004 23.500000000000004 55.497076034545906
decision_type=2 2 2 2 2 2 2 2 2 2 2 2 2 2
left_child=1 -1 3 -3 5 -5 -7 -6 -9 10 11 12 -10 -14
right_child=-2 2 -4 4 7 6 -8 8 9 -11 -12 -13 13 -15
leaf_value=-0.06063599375220774 -0.059754341767592693 0.037400813378502269 -0.060471461153357234 0.040232671973132232 -0.0042516085770426806 0.027216821731153102 -0.092006846241255991 0.086438667846692824 -0.020618758721501304 0.038667057036109238 0.027258079765915856 0.00026056533086784694 -0.063659075330964807 0.04397828744284181
leaf_weight=127.49250686168671 220.73447918891907 268.02453877031803 17.666925013065338 115.51777127385139 16.757646784186363 1.997328221797942 2.2294799238443375 7.7869553565978995 7.4552246183156958 46.769947528839111 137.04248163104057 46.684075221419334 1.7376054525375391 28.203926771879196
leaf_count=886 1616 1074 124 464 69 8 9 32 30 188 551 189 7 113
internal_value=0 0.0155763 0.0294993 0.0318361 0.0282177 0.0375535 -0.0356691 0.024395 0.0261363 0.0243835 0.0213623 0.0117529 0.0260993 0.0377317
internal_weight=0 825.366 697.874 680.207 412.182 119.745 4.22681 292.438 275.68 267.893 221.123 84.0808 37.3968 29.9415
internal_count=5360 3744 2858 2734 1660 481 17 1179 1110 1078 890 339 150 120
is_linear=0
shrinkage=0.05


Tree=15
num_leaves=15
num_cat=0
split_feature=2 7 7 1 1 5 1 4 1 5 1 0 1 5
split_gain=369.633 323.248 53.7841 4.39144 22.3236 4.90213 4.93101 3.29453 3.24309 3.10916 7.03272 6.34941 3.94489 3.0287
threshold=4.5000000000000009 94402.000000000015 94406.000000000015 1.0000000180025095e-35 20.500000000000004 22.500000000000004 22.500000000000004 2.5000000000000004 39.500000000000007 21.500000000000004 36.500000000000007 10.500000000000002 48.500000000000007 18.500000000000004
decision_type=2 2 2 2 2 2 2 2 2 2 2 2 2 2
left_child=1 -1 3 -3 -5 6 13 8 -8 -9 11 -11 -12 -6
right_child=-2 2 -4 4 5 -7 7 9 -10 10 12 -13 -14 -15
leaf_value=-0.060011556929531876 -0.05918855154162192 0.014899332281144553 -0.059858264008245378 0.085580392818364937 0.0044610912654898067 0.057765218065118078 0.017801880166641065 0.031472824712198276 -0.077902740697613659 0.036535859057894395 0.071852923322927545 -0.027348896971353093 0.0019354893360458464 0.030961928040838194
leaf_weight=122.50443479418755 211.92526380717754 43.597299069166183 16.973078146576881 18.395992890000343 31.365422114729881 15.163541272282599 2.5464762598276134 524.88338452577591 1.3568359911441801 5.9712998270988509 6.2079777866601926 11.15528492629528 2.9887213110923767 16.428551360964775
leaf_count=886 1616 177 124 76 126 61 11 2105 6 24 25 45 12 66
internal_value=0 0.0148924 0.0280568 0.030251 0.0313026 0.0296871 0.0289809 0.0303077 -0.0154661 0.0306319 0.0138633 -0.00507504 0.0491313 0.0135704
internal_weight=0 819.538 697.034 680.061 636.463 618.067 602.904 555.11 3.90331 551.207 26.3233 17.1266 9.1967 47.794
internal_count=5360 3744 2858 2734 2557 2481 2420 2228 17 2211 106 69 37 192
is_linear=0
shrinkage=0.05


Tree=16
num_leaves=15
num_cat=0
split_feature=2 7 7 8 8 8 8 8 0 3 3 3 3 8
split_gain=345.874 298.586 49.3514 4.98208 4.11896 11.0805 4.22285 5.00164 4.02241 4.11426 3.04239 5.47051 4.1715 3.037
threshold=4.5000000000000009 94402.000000000015 94406.000000000015 50.108224868774421 62.533422470092781 66.079193115234389 87.550323486328139 87.071151733398452 9.5000000000000018 184240.50000000003 139743.50000000003 141718.50000000003 139545.00000000003 68.947822570800795
decision_type=2 2 2 2 2 2 2 2 2 2 2 2 2 2
left_child=1 -1 3 8 -5 -6 7 13 9 -3 12 -12 -10 -7
right_child=-2 2 -4 4 5 6 -8 -9 10 -11 11 -13 -14 -15
leaf_value=-0.059429603548586799 -0.058660476698096611 0.021420378131767892 -0.059286611733914342 0.005790459634571336 0.081545399125229928 -0.012506148886598099 0.028861006678856879 -0.033018487456060154 0.03052966970428533 0.054430460824938631 0.060350861635590371 0.036490200105025322 -0.061906599264700629 0.02161498897273046
leaf_weight=117.64192317426205 203.35821290314198 79.239915043115616 16.297011762857437 25.459892585873604 8.9479934573173505 6.9469251483678809 255.13777688145638 4.7176080197095862 53.483222082257271 10.715755701065062 32.141371160745621 95.087829127907753 1.2490316629409779 106.45147186517715
leaf_count=886 1616 318 124 103 36 28 1027 19 215 43 129 382 5 429
internal_value=0 0.014243 0.0266978 0.0287598 0.0252634 0.0265606 0.0252424 0.0174261 0.0340017 0.0253526 0.0382775 0.042518 0.0284202 0.0195247
internal_weight=0 813.518 695.876 679.579 407.662 382.202 373.254 118.116 271.917 89.9557 181.961 127.229 54.7323 113.398
internal_count=5360 3744 2858 2734 1642 1539 1503 476 1092 361 731 511 220 457
is_linear=0
shrinkage=0.05


Tree=17
num_leaves=15
num_cat=0
split_feature=7 7 8 5 3 3 1 1 1 3 1 3 5 6
split_gain=267.467 377.729 4.55727 5.26978 7.12103 4.04093 4.02936 5.57907 3.7595 3.6865 3.59299 3.50966 3.49039 5.07353
threshold=94402.000000000015 94406.000000000015 50.108224868774421 20.500000000000004 185344.00000000003 200859.50000000003 18.500000000000004 20.500000000000004 31.500000000000004 145532.00000000003 32.500000000000007 198318.50000000003 22.500000000000004 4.5000000000000009
decision_type=2 2 2 2 2 2 2 2 2 2 2 2 2 2
left_child=-1 2 -2 5 6 -4 9 -8 -6 -5 -10 -12 13 -9
right_child=1 -3 3 4 8 -7 7 12 10 -11 11 -13 -14 -15
leaf_value=-0.058657800971786328 0.032363863031302481 -0.058228191127116961 0.028555609783401204 0.0024687937195737083 0.060986339017858097 -0.033153538029495631 0.080309720659150874 0.048641276337278834 -0.061826465842832593 -0.06816569394433146 0.091509783402277556 0.0069828987149840559 0.044675534268824153 0.005712437431950163
leaf_weight=164.39600630104542 271.40883214771748 159.19310910999775 272.13000518083572 5.0852369964122763 12.068975731730463 2.679024711251258 3.0477823019027701 7.46931467950344 1.2470732331275929 2.9010435789823532 1.7296150922775266 4.2348122447729111 7.4266576617956153 87.619817242026329
leaf_count=1313 1092 1313 1094 21 49 11 13 30 5 12 7 17 30 353
internal_value=0 0.0110927 0.0273439 0.0240016 0.0158246 0.027954 0.0110542 0.0136448 0.0439195 -0.0231894 0.0153568 0.0314947 0.0116629 0.00908453
internal_weight=0 838.241 679.048 407.639 132.83 274.809 113.55 105.564 19.2805 7.98628 7.2115 5.96443 102.516 95.0891
internal_count=5360 4047 2734 1642 537 1105 459 426 78 33 29 24 413 383
is_linear=0
shrinkage=0.05


Tree=18
num_leaves=15
num_cat=0
split_feature=2 7 7 8 5 6 5 1 5 8 1 8 6 6
split_gain=303.371 255.513 41.7091 4.15427 4.7518 4.48301 4.37111 3.67626 3.41227 5.80804 4.58927 4.45019 4.13184 4.04778
threshold=4.5000000000000009 94402.000000000015 94406.000000000015 50.108224868774421 20.500000000000004 4.5000000000000009 22.500000000000004 35.500000000000007 8.5000000000000018 20.02506256103516 26.500000000000004 15.362761974334719 14.500000000000002 5.5000000000000009
decision_type=2 2 2 2 2 2 2 2 2 2 2 2 2 2
left_child=1 -1 3 8 -5 7 -7 -6 9 11 -10 12 -3 -12
right_child=-2 2 -4 4 5 6 -8 -9 10 -11 13 -13 -14 -15
leaf_value=-0.058381271875092969 -0.057704214506378561 0.021137237216717539 -0.058258845770965434 0.026579188678431453 0.026730660042605971 0.0094630658259477612 0.045965251017185474 0.087883638099516201 0.022837368491148018 0.061620452760567018 0.048758491071468957 -0.056654818408469011 -0.062891708346874853 0.031391170503196592
leaf_weight=108.33063025027514 186.94955810904503 63.942066967487335 15.006385318934916 274.57767927646637 8.6668054610490781 111.70794789493084 8.8513824641704542 3.4303137063980094 60.269145607948303 8.1666126996278745 62.476745054125786 1.9916076362133015 1.4971933662891377 72.461829990148544
leaf_count=886 1616 257 124 1105 35 452 36 14 243 33 252 8 6 293
internal_value=0 0.0130295 0.0241918 0.0260166 0.0228251 0.0150546 0.012143 0.0440715 0.0308159 0.0217969 0.0343087 0.0169739 0.0192147 0.0394323
internal_weight=0 801.376 693.046 678.039 407.234 132.656 120.559 12.0971 270.805 75.5975 195.208 67.4309 65.4393 134.939
internal_count=5360 3744 2858 2734 1642 537 488 49 1092 304 788 271 263 545
is_linear=0
shrinkage=0.05


Tree=19
num_leaves=15
num_cat=0
split_feature=2 7 7 1 1 3 1 3 3 3 5 3 3 4
split_gain=284.421 236.679 38.3999 3.75172 21.3244 4.72671 4.34123 4.33406 3.87699 3.45328 3.39683 4.3787 4.07751 3.31232
threshold=4.5000000000000009 94402.000000000015 94406.000000000015 1.0000000180025095e-35 20.500000000000004 134119.50000000003 22.500000000000004 160892.50000000003 129101.50000000001 129847.00000000001 18.500000000000004 182894.00000000003 185464.50000000003 2.5000000000000004
decision_type=2 2 2 2 2 2 2 2 2 2 2 2 2 2
left_child=1 -1 3 5 -5 -3 10 -7 -8 -10 11 -6 -12 -11
right_child=-2 2 -4 4 6 7 8 -9 9 13 12 -13 -14 -15
leaf_value=-0.057906826656923073 -0.057272233450772092 0.074704781730248457 -0.057792261431601523 0.079832607489021781 -0.0065263466600304736 -0.0046103039785147133 0.041600736143826311 0.030444297333667741 0.00019609723361266462 -0.023635994926203507 0.038660243815377963 0.052891968177823247 -0.027909730410266426 0.025350059040015551
leaf_weight=103.87014772742987 179.13921419531107 2.696914240717887 14.386835657060145 17.707509115338326 27.931456491351131 28.153812006115913 34.693570584058762 12.838302433490751 14.397300794720648 3.4741597622632971 14.174729689955713 3.4877607822418204 2.7458651512861243 514.61783917248249
leaf_count=886 1616 11 124 76 112 114 141 52 58 15 57 14 11 2073
internal_value=0 0.0124665 0.0230402 0.0247582 0.0257359 0.0105868 0.0241797 0.00636843 0.0254055 0.0243503 0.0097962 6.95168e-05 0.0278573 0.0250216
internal_weight=0 795.176 691.306 676.919 633.23 43.689 615.523 40.9921 567.183 532.489 48.3398 31.4192 16.9206 518.092
internal_count=5360 3744 2858 2734 2557 177 2481 166 2287 2146 194 126 68 2088
is_linear=0
shrinkage=0.05


Tree=20
num_leaves=15
num_cat=0
split_feature=2 7 7 1 1 3 6 5 1 5 3 3 5 3
split_gain=266.821 219.441 35.3939 3.40814 20.0544 4.30914 4.37142 4.1846 3.98665 3.43715 3.19048 4.09625 3.72583 6.69841
threshold=4.5000000000000009 94402.000000000015 94406.000000000015 1.0000000180025095e-35 20.500000000000004 134119.50000000003 5.5000000000000009 22.500000000000004 22.500000000000004 3.5000000000000004 129101.50000000001 129847.00000000001 21.500000000000004 181454.50000000003
decision_type=2 2 2 2 2 2 2 2 2 2 2 2 2 2
left_child=1 -1 3 5 -5 -3 -7 8 -6 -8 -10 -12 -13 -14
right_child=-2 2 -4 4 7 6 9 -9 10 -11 11 12 13 -15
leaf_value=-0.057462740480198241 -0.056867442636455545 0.07153461649752528 -0.057355434564894718 0.077555516145995124 0.0085116156794695034 0.018752375908275137 0.06485210789215011 0.049240532803053613 0.038498778004664336 -0.021903103874232291 -0.0044175905549384414 0.024289942113106092 -0.014066041847123248 0.041952479724181618
leaf_weight=99.548553802073002 171.58469121158123 2.6761228740215293 13.786765970289705 17.325686693191528 47.82505202293396 25.53713746368885 1.2413783073425282 14.836530193686484 33.56748740375042 14.216853171586989 13.666740387678145 480.35541999340057 16.354363486170772 7.9210199713706961
leaf_count=886 1616 11 124 76 192 103 5 61 137 58 55 1938 66 32
internal_value=0 0.0119308 0.0219524 0.023571 0.0245047 0.0100622 0.00604934 0.023009 0.02236 -0.0149362 0.0235601 0.0225926 0.0233241 0.00421271
internal_weight=0 788.859 689.311 675.524 631.852 43.6715 40.9954 614.527 599.69 15.4582 551.865 518.298 504.631 24.2754
internal_count=5360 3744 2858 2734 2557 177 166 2481 2420 63 2228 2091 2036 98
is_linear=0
shrinkage=0.05


Tree=21
num_leaves=15
num_cat=0
split_feature=2 7 7 8 3 6 0 0 8 8 0 3 0 3
split_gain=250.453 203.636 32.658 3.85224 3.4666 6.11553 4.71238 4.09698 4.20197 3.8218 3.32249 4.31751 3.30161 3.59818
threshold=4.5000000000000009 94402.000000000015 94406.000000000015 47.633054733276374 143234.50000000003 4.5000000000000009 7.5000000000000009 6.5000000000000009 58.387445449829109 59.824562072753913 9.5000000000000018 140214.50000000003 9.5000000000000018 184240.50000000003
decision_type=2 2 2 2 2 2 2 2 2 2 2 2 2 2
left_child=1 -1 3 12 6 -6 -5 -7 -9 -10 11 -8 13 -3
right_child=-2 2 -4 4 5 7 10 8 9 -11 -12 -13 -14 -15
leaf_value=-0.057046689073806472 -0.056487802775765365 0.0154670034652726 -0.056946093490613352 -0.058622501362899551 0.035262653012631331 0.09423156119163445 0.02922248148347184 -0.018829348316514501 0.092759366776711261 0.012209025869648754 0.020200259781386919 0.067473054381910577 0.031097307146955806 0.046593393765637509
leaf_weight=95.366617195308208 164.2855334430933 76.992070153355598 13.206256262958048 1.6963483542203892 32.164478808641434 1.4902621209621418 58.134601250290871 11.102255553007124 1.4852108508348454 172.89133293926716 122.50657716393471 8.4495540112256986 176.44996362924576 10.557840719819067
leaf_count=886 1616 312 124 7 131 6 236 45 6 699 496 34 719 43
internal_value=0 0.0114197 0.0209222 0.0224481 0.0194144 0.0151241 0.0243422 0.0116596 0.0109962 0.0128951 0.0250865 0.0340765 0.0271587 0.0192206
internal_weight=0 782.493 687.127 673.92 409.921 219.134 190.787 186.969 185.479 174.377 189.091 66.5842 264 87.5499
internal_count=5360 3744 2858 2734 1660 887 773 756 750 705 766 270 1074 355
is_linear=0
shrinkage=0.05


Tree=22
num_leaves=15
num_cat=0
split_feature=2 0 4 0 3 3 3 6 6 3 5 3 3 8
split_gain=235.196 56.9571 32.0676 7.74563 8.94336 6.26454 4.84161 3.80984 4.2923 4.16771 4.43994 4.2984 3.66027 3.14806
threshold=4.5000000000000009 7.5000000000000009 2.5000000000000004 6.5000000000000009 145121.50000000003 134119.50000000003 126875.50000000001 3.5000000000000004 11.500000000000002 143606.50000000003 4.5000000000000009 198316.00000000003 139543.50000000003 83.902484893798842
decision_type=2 2 2 2 2 2 2 2 2 2 2 2 2 2
left_child=1 3 -3 4 -1 -4 -5 9 -9 10 -7 -11 13 -12
right_child=-2 2 5 6 -6 7 -8 8 -10 11 12 -13 -14 -15
leaf_value=-0.06365528017238202 -0.056131480987148388 -0.046573577452334355 0.030150195241788014 0.1030319773948913 0.088520149760503306 -0.10307694528796139 -0.0539287808680039 0.010605100428932075 0.020698945084485103 0.037166791027680293 0.006741606695946558 -0.036420381189422264 -0.029852822899561468 0.048611584903031066
leaf_weight=1.719074755907058 157.24012046307325 21.08478906750679 70.428652741014957 0.49767595529556174 2.2025187462568283 0.85925512015819805 38.355528496205807 430.75563637912273 139.4069300070405 45.325343869626522 12.567016839981084 2.0753218233585349 4.1792870312929145 6.9842739999294272
leaf_count=7 1616 193 289 2 9 4 374 1987 571 194 57 9 17 31
internal_value=0 0.0109261 0.014196 -0.0451586 0.0218123 0.0159942 -0.0519182 0.0144416 0.0130731 0.02528 0.00857694 0.033945 0.0126198 0.0216987
internal_weight=0 776.441 733.667 42.7748 3.92159 712.582 38.8532 642.153 570.163 71.9905 24.5898 47.4007 23.7306 19.5513
internal_count=5360 3744 3352 392 16 3159 376 2870 2558 312 109 203 105 88
is_linear=0
shrinkage=0.05


Tree=23
num_leaves=15
num_cat=0
split_feature=2 4 3 2 6 6 1 1 1 3 8 8 5 1
split_gain=220.869 44.4821 8.32887 4.79007 4.75631 6.742 5.66375 14.4971 4.86573 6.46127 6.45811 8.06236 4.8507 4.80615
threshold=4.5000000000000009 2.5000000000000004 134119.50000000003 3.5000000000000004 4.5000000000000009 6.5000000000000009 20.500000000000004 1.0000000180025095e-35 34.500000000000007 134122.50000000003 93.288288116455092 47.014259338378913 22.500000000000004 22.500000000000004
decision_type=2 2 2 2 2 2 2 2 2 2 2 2 2 2
left_child=1 -1 -3 -4 -5 6 7 -6 10 -10 11 13 -7 -8
right_child=-2 2 3 4 5 12 8 -9 9 -11 -12 -13 -14 -15
leaf_value=-0.046821904644819633 -0.05579679294751301 0.029257748472010355 -0.056158650903454413 0.023407442926934315 0.0047727380880328834 0.017349475211667641 -0.026809540017083806 0.073988126551070066 -0.023065941027186905 0.015380532230332403 0.012672149918911116 -0.015975145694119657 0.066202193361286937 0.0094992988701785505
leaf_weight=32.5178187713027 150.44588135927916 70.630723364651203 2.6285119205713263 74.188879661262035 24.714636996388435 147.47697830945253 10.227489262819288 10.902340576052664 11.870467424392698 137.65486926585436 80.738333113491535 81.066157557070255 5.2625221312046042 83.71878107637167
leaf_count=308 1616 291 27 325 101 605 56 50 67 667 373 430 22 422
internal_value=0 0.0104151 0.0129266 0.0112061 0.0114713 0.00997957 0.0068433 0.0259595 0.0051633 0.0123284 0.00097423 -0.00442236 0.0190327 0.00554653
internal_weight=0 773.599 741.081 670.45 667.821 593.633 440.893 35.617 405.276 149.525 255.751 175.012 152.74 93.9463
internal_count=5360 3744 3436 3145 3118 2793 2166 151 2015 734 1281 908 627 478
is_linear=0
shrinkage=0.05


Tree=24
num_leaves=15
num_cat=0
split_feature=2 7 7 8 5 5 8 1 8 8 8 8 5 1
split_gain=207.52 178.361 27.8905 3.46907 4.78406 5.64078 7.23476 4.2943 6.91036 4.13581 9.74727 4.69535 3.8123 4.76087
threshold=4.5000000000000009 94402.000000000015 94406.000000000015 47.633054733276374 8.5000000000000018 4.5000000000000009 74.933155059814467 24.500000000000004 66.452991485595717 62.533422470092781 67.556819915771499 60.952981948852546 8.5000000000000018 26.500000000000004
decision_type=2 2 2 2 2 2 2 2 2 2 2 2 2 2
left_child=1 -1 3 12 5 6 -5 -7 -9 11 -11 -6 -3 -14
right_child=-2 2 -4 4 9 7 -8 8 -10 10 -12 -13 13 -15
leaf_value=-0.056529799461450696 -0.055482210340422257 0.014770188174104132 -0.056326127894802458 -0.029807762866144196 0.0014644233956834115 0.060705934472009518 0.021697742507424123 0.088239318288803839 0.021956910393599229 0.070377511466873058 0.01369492563532391 -0.068711328913699563 0.01634782083369524 0.033533009720422023
leaf_weight=89.282084822654724 143.89941694587469 72.920415386557579 12.190153785049914 7.8003835231065741 18.733950555324558 14.345491498708723 54.136762008070946 4.3979513943195334 37.137670204043388 7.8115754872560492 260.84642373025417 2.7310899496078482 58.288972184062004 130.59508343040943
leaf_count=886 1616 297 124 32 76 59 221 18 151 32 1060 11 239 538
internal_value=0 0.00992426 0.0186247 0.0199889 0.0171061 0.0256029 0.0152111 0.0371209 0.0289751 0.0136556 0.015343 -0.00746434 0.0244808 0.0282297
internal_weight=0 771.218 681.936 669.746 407.941 117.818 61.9371 55.8811 41.5356 290.123 268.658 21.465 261.804 188.884
internal_count=5360 3744 2858 2734 1660 481 253 228 169 1179 1092 87 1074 777
is_linear=0
shrinkage=0.05


Tree=25
num_leaves=15
num_cat=0
split_feature=2 4 3 1 6 2 6 6 1 1 5 1 8 8
split_gain=195.175 38.2869 7.20241 4.68355 4.63583 4.16224 4.13002 5.51838 4.96937 13.7371 4.48647 4.41968 4.54644 8.19995
threshold=4.5000000000000009 2.5000000000000004 134119.50000000003 20.500000000000004 9.5000000000000018 3.5000000000000004 4.5000000000000009 6.5000000000000009 20.500000000000004 1.0000000180025095e-35 22.500000000000004 40.500000000000007 93.288288116455092 47.014259338378913
decision_type=2 2 2 2 2 2 2 2 2 2 2 2 2 2
left_child=1 4 3 -3 -1 -4 -7 8 9 -8 -9 12 13 -10
right_child=-2 2 5 -5 -6 6 7 10 11 -11 -12 -13 -14 -15
leaf_value=-0.050453923741788434 -0.055186328255193831 0.078712599493105953 -0.055503218730809468 0.023785339260224261 0.031655344983081972 0.021568065091961474 0.0037545593741145989 0.0155990777294271 0.0063612025348788797 0.07193197637390232 0.062996354485813449 0.014602184882224579 0.010927629534305629 -0.013118891414804632
leaf_weight=28.549828313291076 137.596669010818 4.1236691474914542 2.4043974205851546 65.937493234872818 1.8291636109352101 73.603939652442932 24.694417476654053 146.84228507429361 123.86448755860329 10.542775824666021 5.1684571504592887 86.202721893787384 95.605703845620155 95.80657509714365
leaf_count=296 1616 18 27 273 12 325 101 605 629 50 22 427 443 516
internal_value=0 0.00949618 0.0117703 0.0270183 -0.04551 0.0101632 0.0104016 0.00900556 0.00614958 0.0241529 0.0172106 0.00456946 0.00182632 -0.00213478
internal_weight=0 765.176 734.797 70.0612 30.379 664.736 662.331 588.727 436.717 35.2372 152.011 401.479 315.277 219.671
internal_count=5360 3744 3436 291 308 3145 3118 2793 2166 151 627 2015 1588 1145
is_linear=0
shrinkage=0.05


Tree=26
num_leaves=15
num_cat=0
split_feature=7 7 3 5 5 5 6 5 1 3 1 1 5 6
split_gain=169.527 201.171 3.25604 3.69864 3.34302 3.75561 3.12547 4.07763 3.70819 3.31961 4.53617 9.59222 3.70554 3.67868
threshold=94402.000000000015 94406.000000000015 200859.50000000003 4.5000000000000009 12.500000000000002 20.500000000000004 5.5000000000000009 22.500000000000004 57.500000000000007 129101.50000000001 1.0000000180025095e-35 20.500000000000004 3.5000000000000004 11.500000000000002
decision_type=2 2 2 2 2 2 2 2 2 2 2 2 2 2
left_child=-1 2 6 -4 -5 -6 8 9 -2 -8 12 -12 -11 -13
right_child=1 -3 3 4 5 -7 7 -9 -10 10 11 13 -14 -15
leaf_value=-0.05578240614552854 0.022148990836351717 -0.05501426143741657 -0.095209739504365093 0.063599918544163914 -0.097608538553897548 0.015247000828689803 0.028963895071695223 0.047140814198217182 0.084421459296898163 0.06114094495857321 0.073579663619914221 0.0079601305204191428 -0.022352125831376392 0.019042013274896047
leaf_weight=119.52519036829472 288.92791648209095 108.28957444429398 1.2423806786537159 1.4907776862382887 1.1839445382356646 1.9535739868879316 37.371983841061592 10.055602312088011 2.4105633050203314 1.4777534902095784 6.7240819334983817 158.49887275695801 13.19240093231201 141.95854867994785
leaf_count=1313 1186 1313 5 6 5 8 157 43 10 6 31 644 54 579
internal_value=0 0.00819304 0.0184628 -0.0186095 0.00195242 -0.0273391 0.0187923 0.0157375 0.0226642 0.0148585 0.0132206 0.0145178 -0.0139417 0.013196
internal_weight=0 774.778 666.488 5.87068 4.6283 3.13752 660.618 369.279 291.338 359.224 321.852 307.182 14.6702 300.457
internal_count=5360 4047 2734 24 19 13 2710 1514 1196 1471 1314 1254 60 1223
is_linear=0
shrinkage=0.05


Tree=27
num_leaves=15
num_cat=0
split_feature=2 7 7 8 5 3 1 0 3 1 1 1 8 8
split_gain=172.737 151.161 23.1157 3.03757 4.47474 6.23999 3.56324 3.46787 3.44493 3.3309 4.14493 4.72515 4.31441 6.23444
threshold=4.5000000000000009 94402.000000000015 94406.000000000015 50.108224868774421 20.500000000000004 185344.00000000003 31.500000000000004 9.5000000000000018 184240.50000000003 40.500000000000007 27.500000000000004 18.500000000000004 87.840488433837905 88.819442749023452
decision_type=2 2 2 2 2 2 2 2 2 2 2 2 2 2
left_child=1 -1 3 7 -5 9 -7 8 -3 10 11 -6 -12 -14
right_child=-2 2 -4 4 5 6 -8 -9 -10 -11 12 -13 13 -15
leaf_value=-0.055811659353995458 -0.054644218946508741 0.01001446218986261 -0.055574354768651781 0.018534640719841042 -0.026103335134385106 0.050960556043166155 0.0059581417961632015 0.025809922832524548 0.040772037536744826 0.02561454046967522 -0.03248369500672265 0.015605936878006 0.099156684046737151 -0.0054540818256923517
leaf_weight=81.174684092402458 125.67096892744303 77.327407851815224 10.973902970552443 269.82118685543537 8.0180449187755567 11.672933578491213 7.0583079904317847 175.85923197865486 10.318439692258833 14.046691775321959 15.837537318468092 44.346257939934731 1.4982036352157617 28.851043820381165
leaf_count=886 1616 318 124 1105 33 49 29 731 43 57 64 182 6 117
internal_value=0 0.00865602 0.0164016 0.01759 0.0148504 0.0072811 0.0340027 0.0217605 0.0136355 0.00283581 -0.000410889 0.00921939 -0.0113292 -0.000289926
internal_weight=0 756.804 675.629 664.655 401.15 131.329 18.7312 263.505 87.6458 112.598 98.5511 52.3643 46.1868 30.3492
internal_count=5360 3744 2858 2734 1642 537 78 1092 361 459 402 215 187 123
is_linear=0
shrinkage=0.05


Tree=28
num_leaves=15
num_cat=0
split_feature=2 7 7 8 5 6 5 8 1 6 8 5 1 1
split_gain=162.674 140.898 21.4406 2.78093 4.11329 3.61563 3.61457 4.52222 4.50385 4.16746 4.06396 3.79932 3.97757 3.54301
threshold=4.5000000000000009 94402.000000000015 94406.000000000015 47.633054733276374 20.500000000000004 4.5000000000000009 8.5000000000000018 20.02506256103516 26.500000000000004 5.5000000000000009 15.362761974334719 6.5000000000000009 41.500000000000007 35.500000000000007
decision_type=2 2 2 2 2 2 2 2 2 2 2 2 2 2
left_child=1 -1 3 6 -5 13 7 10 -8 -10 11 -3 -13 -6
right_child=-2 2 -4 4 5 -7 8 -9 9 -11 -12 12 -14 -15
leaf_value=-0.05549742422018128 -0.054397247802362339 0.014870489174604562 -0.055274315954735379 0.017686152980648833 0.01649350489819593 0.004373594192025097 0.012874535096817267 0.051975643799082719 0.039395745961439188 0.021334059791008254 -0.063292127848801324 0.0054600254611059931 -0.060047374249433419 0.078135820964175054
leaf_weight=77.641882866621017 120.07092683762312 54.004436507821083 10.493927597999571 272.32408031821251 8.4295901209115964 120.70429906249046 57.541037797927856 6.2464643418788901 59.540530279278755 68.887866541743279 1.9688407629728306 6.267275542020796 3.6766992062330246 3.2220803797245017
leaf_count=886 1616 222 124 1118 35 493 239 26 249 289 8 26 15 14
internal_value=0 0.00828123 0.0156358 0.0167585 0.0141719 0.00694117 0.0208136 0.0113155 0.0244993 0.0297076 0.00746244 0.00964083 -0.0187608 0.0335397
internal_weight=0 750.949 673.307 662.813 404.68 132.356 258.133 72.1637 185.969 128.428 65.9173 63.9484 9.94397 11.6517
internal_count=5360 3744 2858 2734 1660 542 1074 297 777 538 271 263 41 49
is_linear=0
shrinkage=0.05


Tree=29
num_leaves=15
num_cat=0
split_feature=2 7 7 3 6 3 3 3 8 0 3 8 8 8
split_gain=153.258 131.419 19.903 3.03768 2.60497 3.43998 3.72332 3.35222 4.90763 3.53756 3.25262 3.05097 3.45923 6.49095
threshold=4.5000000000000009 94402.000000000015 94406.000000000015 200859.50000000003 5.5000000000000009 129101.50000000001 181454.50000000003 143950.50000000003 38.401605606079109 7.5000000000000009 143625.50000000003 48.187410354614265 18.350168228149418 15.362761974334719
decision_type=2 2 2 2 2 2 2 2 2 2 2 2 2 2
left_child=1 -1 3 4 11 -6 7 9 -9 -7 -11 12 13 -3
right_child=-2 2 -4 -5 5 6 -8 8 -10 10 -12 -13 -14 -15
leaf_value=-0.055201756651633883 -0.054164441254934116 0.024894660188008306 -0.054991865394983269 -0.019957432623913259 0.027734477977589836 -0.059195181556647027 0.025957419049278087 0.017603761709850962 -0.010652690823306507 0.012825881361520615 0.087588796887018691 0.015486847217902082 0.050926030196694339 -0.057931788789966403
leaf_weight=74.240806460380554 114.69349598884583 105.72488927841187 10.032105423510073 5.832604691386222 37.979267999529839 1.6946423798799504 40.892296031117439 24.537017971277237 41.115600630640984 218.74738821387291 1.4645330160856236 168.18004836142063 12.397297471761702 2.4195635467767707
leaf_count=886 1616 442 124 24 162 7 169 102 168 900 6 692 52 10
internal_value=0 0.00792177 0.0149057 0.0159666 0.0162864 0.0134878 0.0118404 0.0098329 -9.21207e-05 0.0127693 0.0133231 0.0198383 0.0259094 0.0230415
internal_weight=0 745.258 671.017 660.985 655.153 366.431 328.451 287.559 65.6526 221.907 220.212 288.722 120.542 108.144
internal_count=5360 3744 2858 2734 2710 1514 1352 1183 270 913 906 1196 504 452
is_linear=0
shrinkage=0.05


Tree=30
num_leaves=15
num_cat=0
split_feature=2 7 7 1 1 5 1 8 5 8 6 5 6 6
split_gain=144.438 122.653 18.4895 2.53767 17.848 3.47386 3.52057 4.08827 3.09881 4.70075 4.712 3.76617 3.06326 2.78943
threshold=4.5000000000000009 94402.000000000015 94406.000000000015 1.0000000180025095e-35 20.500000000000004 22.500000000000004 22.500000000000004 92.880565643310561 18.500000000000004 87.96551895141603 8.5000000000000018 10.500000000000002 4.5000000000000009 6.5000000000000009
decision_type=2 2 2 2 2 2 2 2 2 2 2 2 2 2
left_child=1 -1 3 -3 -5 6 7 8 11 10 -10 12 -6 -7
right_child=-2 2 -4 4 5 13 -8 -9 9 -11 -12 -13 -14 -15
leaf_value=-0.054923394935662145 -0.053944875330783508 0.0034877303010662389 -0.054725821571928068 0.069466551691925837 0.057412709888619233 0.025234212457779393 0.015236784036184396 0.019329565289211245 -0.017717145727815131 0.093641496050772488 0.088428278778043129 -0.050325521981889478 -0.015479672528661429 0.074720114540965513
leaf_weight=70.968895308673382 109.53265562653542 43.143574506044388 9.5880513787269575 15.240437000989912 1.6948150098323882 10.029242783784865 539.42463681101799 18.560389056801796 7.3440107405185682 1.4892567694187153 1.2191063463687895 7.4607913941144934 9.636319085955618 3.9768774658441535
leaf_count=886 1616 177 124 76 7 43 2228 75 30 6 5 30 39 18
internal_value=0 0.00757596 0.0142079 0.0152105 0.0160315 0.0146761 0.0140887 0.00102474 -0.0107538 0.0116534 -0.00260553 -0.0227402 -0.00457705 0.0392852
internal_weight=0 739.776 668.808 659.219 616.076 600.835 586.829 47.4047 28.8443 10.0524 8.56312 18.7919 11.3311 14.0061
internal_count=5360 3744 2858 2734 2557 2481 2420 192 117 41 35 76 46 61
is_linear=0
shrinkage=0.05


Tree=31
num_leaves=15
num_cat=0
split_feature=7 7 3 5 5 5 6 5 1 3 1 1 6 0
split_gain=125.725 142.201 2.75952 3.31779 3.03332 3.41806 2.41255 3.64384 3.42912 2.86865 3.78406 8.74752 3.36143 5.27112
threshold=94402.000000000015 94406.000000000015 200859.50000000003 4.5000000000000009 12.500000000000002 20.500000000000004 5.5000000000000009 22.500000000000004 57.500000000000007 129101.50000000001 1.0000000180025095e-35 20.500000000000004 11.500000000000002 10.500000000000002
decision_type=2 2 2 2 2 2 2 2 2 2 2 2 2 2
left_child=-1 2 6 -4 -5 -6 8 9 -2 -8 -11 -12 13 -13
right_child=1 -3 3 4 5 -7 7 -9 -10 10 11 12 -14 -15
leaf_value=-0.054391798544254799 0.01773884579678706 -0.053818776612113317 -0.092437343641606856 0.058756855215417486 -0.095431981778691 0.012642290454008318 0.024551075292234447 0.042356736665976773 0.078853630621708637 -0.015081573793270481 0.069552275724224608 -0.0088506985913395318 0.015347737841952714 0.010887535457204457
leaf_weight=95.404365845024586 284.59820455312729 86.162532396614552 1.2369158267974842 1.4797877073287962 1.1760309636592867 1.9359456896781919 36.510456085205078 9.6878704279661161 2.3139108419418326 14.632421508431433 6.237223967909812 49.268467634916306 140.28509131073952 107.90070347487926
leaf_count=1313 1186 1313 5 6 5 8 157 43 10 60 31 201 579 443
internal_value=0 0.00657795 0.0144955 -0.019755 -0.000176077 -0.0281995 0.014802 0.0121025 0.0182317 0.0112765 0.00975392 0.0109505 0.00972173 0.00470011
internal_weight=0 743.426 657.263 5.82868 4.59176 3.11198 651.434 364.522 286.912 354.834 318.324 303.691 297.454 157.169
internal_count=5360 4047 2734 24 19 13 2710 1514 1196 1471 1314 1254 1223 644
is_linear=0
shrinkage=0.05


Tree=32
num_leaves=15
num_cat=0
split_feature=2 7 7 8 5 6 1 1 8 8 1 6 1 1
split_gain=128.41 107.084 16.0079 2.35117 3.98693 3.33098 3.62984 4.27492 5.60796 5.23869 3.38726 3.38598 3.05327 3.88506
threshold=4.5000000000000009 94402.000000000015 94406.000000000015 50.108224868774421 20.500000000000004 4.5000000000000009 27.500000000000004 39.500000000000007 81.405803680419936 91.042778015136733 35.500000000000007 12.500000000000002 18.500000000000004 20.500000000000004
decision_type=2 2 2 2 2 2 2 2 2 2 2 2 2 2
left_child=1 -1 3 -3 -5 10 12 8 -8 -9 -6 -10 -7 -14
right_child=-2 2 -4 4 5 6 7 9 11 -11 -12 -13 13 -15
leaf_value=-0.054415230496014426 -0.0535413356223641 0.017524715031493245 -0.05424146779696444 0.014899570514984785 0.013426432924765565 -0.017342484452458312 -0.046413881559538052 0.042989429274186662 0.0048587634051311841 -0.013474491994257751 0.07468990699973449 -0.030060202651331799 0.066240592781639615 0.011638689674150974
leaf_weight=64.815793041139841 99.81570253521204 258.40755163133144 8.7564179785549623 266.63377794623375 8.3342709690332395 8.2429916560649854 10.610060453414915 8.335533335804941 24.949938327074051 8.0994969457387906 3.0937846750020972 9.6186249405145627 3.508968159556388 45.5093614757061
leaf_count=886 1616 1092 124 1105 35 34 43 34 101 33 14 39 19 185
internal_value=0 0.00692848 0.0129156 0.0138129 0.0113965 0.00422832 0.00174964 -0.00667324 -0.0146168 0.0151629 0.0300116 -0.00485736 0.0108127 0.0155474
internal_weight=0 728.917 664.101 655.344 396.937 130.303 118.875 61.6137 45.1786 16.435 11.4281 34.5686 57.2613 49.0183
internal_count=5360 3744 2858 2734 1642 537 488 250 183 67 49 140 238 204
is_linear=0
shrinkage=0.05


Tree=33
num_leaves=15
num_cat=0
split_feature=2 0 4 0 3 3 8 6 3 5 5 6 5 5
split_gain=121.152 27.9971 13.7938 5.42951 7.9328 3.13707 2.85416 2.64781 2.63515 2.78999 2.50593 2.75443 2.40799 2.64639
threshold=4.5000000000000009 7.5000000000000009 2.5000000000000004 6.5000000000000009 145121.50000000003 129101.50000000001 7.582566738128663 12.500000000000002 200859.50000000003 4.5000000000000009 21.500000000000004 5.5000000000000009 10.500000000000002 20.500000000000004
decision_type=2 2 2 2 2 2 2 2 2 2 2 2 2 2
left_child=1 3 7 4 -1 6 -4 -3 -7 -10 -5 -12 -11 -14
right_child=-2 2 5 10 -6 8 -8 -9 9 12 11 -13 13 -15
leaf_value=-0.064633249116328478 -0.053356712057475136 -0.044755400863382006 0.0044503684418213977 -0.052318934686889675 0.080560009175995984 0.0092232139772192839 0.033917717650172506 0.051574450039630106 -0.083873160407496081 0.04484798800764174 -0.053507987505406446 0.073078707888894714 -0.091246689784622484 0.0023698681858292073
leaf_weight=1.7031961828470259 95.267857063561678 13.656877912580963 12.428064718842505 24.914817042648796 2.1014933586120605 635.72205102071166 24.254531189799309 0.75266785919666368 1.4531577080488194 1.6246750727295873 0.85522090271115192 0.86373865604400635 1.139695852994919 2.2358518242835999
leaf_count=7 1616 187 55 357 9 2965 105 6 8 8 14 5 6 12
internal_value=0 0.00662467 0.00868533 -0.040309 0.0155632 0.00971286 0.0239342 -0.0397237 0.00890051 -0.0228891 -0.0482904 0.010099 -0.00516605 -0.0292382
internal_weight=0 723.706 693.268 30.4385 3.80469 678.858 36.6826 14.4095 642.175 6.45338 26.6338 1.71896 5.00022 3.37555
internal_count=5360 3744 3352 392 16 3159 160 193 2999 34 376 19 26 18
is_linear=0
shrinkage=0.05


Tree=34
num_leaves=15
num_cat=0
split_feature=2 7 7 3 5 5 5 6 5 3 3 5 3 5
split_gain=114.309 97.3204 14.4309 2.27764 2.80367 2.51833 2.90489 2.18935 3.44589 2.84344 4.35769 3.94289 4.10413 3.70046
threshold=4.5000000000000009 94402.000000000015 94406.000000000015 200859.50000000003 4.5000000000000009 12.500000000000002 20.500000000000004 5.5000000000000009 22.500000000000004 140009.00000000003 139543.50000000003 21.500000000000004 175682.50000000003 12.500000000000002
decision_type=2 2 2 2 2 2 2 2 2 2 2 2 2 2
left_child=1 -1 3 7 -5 -6 -7 9 -9 10 13 -11 -13 -3
right_child=-2 2 -4 4 5 6 -8 8 -10 11 -12 12 -14 -15
leaf_value=-0.054141413033643816 -0.053182304615308568 -0.0058489511262510572 -0.053967503456783354 -0.086150508646103713 0.053542294690557851 -0.088838017266742064 0.011430646294722673 0.0096178758379555848 0.040120890584671276 0.020360294080671609 -0.054370506407476905 -0.025390498667404379 0.022980380062415109 0.022921032751023234
leaf_weight=60.946798052638769 90.911269504576921 21.686816081404686 8.2139932140707952 1.2123395204544056 1.4594119787216184 1.1560960710048678 1.9252413660287855 352.2247572094202 9.5087856948375684 219.17354100942612 2.8900042921304694 9.9679435193538684 7.829853728413581 23.062622427940369
leaf_count=886 1616 91 124 5 6 5 8 1471 43 921 12 42 33 97
internal_value=0 0.00631264 0.0118926 0.0127221 -0.018599 -0.000563401 -0.0261894 0.0130009 0.0104197 0.0162816 0.0051353 0.0185224 -0.00411051 0.0089783
internal_weight=0 721.258 660.311 652.097 5.75309 4.54075 3.08134 646.344 361.734 284.611 47.6394 236.971 17.7978 44.7494
internal_count=5360 3744 2858 2734 24 19 13 2710 1514 1196 200 996 75 188
is_linear=0
shrinkage=0.05


Tree=35
num_leaves=15
num_cat=0
split_feature=7 7 8 3 3 1 8 1 8 1 8 0 1 1
split_gain=102.545 109.898 2.17015 3.45139 6.03365 3.33812 4.71248 4.40606 5.03853 3.37869 3.24435 3.47642 4.67269 7.02425
threshold=94402.000000000015 94406.000000000015 47.633054733276374 139541.50000000003 134121.50000000003 43.500000000000007 7.582566738128663 29.500000000000004 12.727732658386232 36.500000000000007 25.19841289520264 9.5000000000000018 26.500000000000004 20.500000000000004
decision_type=2 2 2 2 2 2 2 2 2 2 2 2 2 2
left_child=-1 2 3 4 -2 6 9 8 -8 -6 11 -5 13 -13
right_child=1 -3 -4 10 5 -7 7 -9 -10 -11 -12 12 -14 -15
leaf_value=-0.053666082914601787 0.019640530180377841 -0.053101231115223461 0.0098213773311149333 0.0073771211195112043 -0.0021090581933874194 -0.048146931164088053 -0.080484005503235784 -0.07417917886365874 0.044496732757111544 0.048352553856152482 0.043812023232744024 0.042098116297305942 0.028863777463924857 -0.0077475234811753045
leaf_weight=81.067782133817673 35.935588642954826 71.716710470616817 398.71958230435848 57.373656749725342 12.641249477863321 4.9885690510272971 1.2093928158283227 3.7996896356344223 2.4201481342315674 4.497279927134513 12.511869341135023 9.9968327730894071 82.309594020247459 24.122752323746681
leaf_count=1313 156 1313 1660 242 53 21 5 16 10 19 54 44 353 101
internal_value=0 0.00564045 0.0121164 0.0157503 0.00587702 -0.0108571 -0.00328529 -0.0365456 0.00285213 0.0111325 0.0192209 0.0174507 0.0224147 0.00685695
internal_weight=0 722.243 650.526 251.807 65.4919 29.5563 24.5678 7.42923 3.62954 17.1385 186.315 173.803 116.429 34.1196
internal_count=5360 4047 2734 1074 280 124 103 31 15 72 794 740 498 145
is_linear=0
shrinkage=0.05


Tree=36
num_leaves=15
num_cat=0
split_feature=2 7 7 1 1 1 5 5 6 6 5 8 6 8
split_gain=101.884 85.3208 12.557 2.11678 16.7295 3.29151 4.65592 8.72702 4.61631 3.86665 3.52138 3.00136 3.33703 4.35114
threshold=4.5000000000000009 94402.000000000015 94406.000000000015 1.0000000180025095e-35 20.500000000000004 26.500000000000004 10.500000000000002 14.500000000000002 14.500000000000002 13.500000000000002 8.5000000000000018 86.899311065673842 13.500000000000002 72.928920745849624
decision_type=2 2 2 2 2 2 2 2 2 2 2 2 2 2
left_child=1 -1 3 -3 -5 6 8 9 -6 -8 -10 12 -9 -14
right_child=-2 2 -4 4 5 -7 7 11 10 -11 -12 -13 13 -15
leaf_value=-0.053719795683883111 -0.052861004435064578 0.00079582337393521762 -0.053566329336955987 0.06630474128836901 0.018809477008614198 0.013435498380963015 -0.037589871861773511 -0.0075294480824668279 -0.11082089266392037 0.02701709711147884 0.0089196980134500069 0.015867886524757471 0.058520029669846124 -0.030366889816719013
leaf_weight=55.582114104181528 82.729073960334063 42.809276908636093 7.4911779947578898 14.008936479687689 60.829078450798988 417.25612030923367 18.73639610409737 42.500758841633797 1.23127694427967 2.6425015479326239 1.2247523665428159 41.220136284828186 4.457855910062789 1.9920140057802198
leaf_count=886 1616 177 124 76 253 1758 77 176 5 11 5 169 19 8
internal_value=0 0.0057614 0.0107981 0.0115411 0.0123001 0.0110223 0.00526315 -0.000882604 0.016096 -0.0296042 -0.0511096 0.00592711 -0.00244378 0.0310677
internal_weight=0 711.982 656.4 648.909 606.1 592.091 174.835 111.55 63.2851 21.3789 2.45603 90.1708 48.9506 6.44987
internal_count=5360 3744 2858 2734 2557 2481 723 460 263 88 10 372 203 27
is_linear=0
shrinkage=0.05


Tree=37
num_leaves=15
num_cat=0
split_feature=7 7 3 6 1 3 1 1 3 3 1 8 1 0
split_gain=91.4357 96.4876 2.08973 2.08021 3.19518 2.76126 4.73561 5.99201 3.83521 3.35431 3.97372 3.45103 3.55685 5.53645
threshold=94402.000000000015 94406.000000000015 200859.50000000003 5.5000000000000009 57.500000000000007 134119.50000000003 1.0000000180025095e-35 20.500000000000004 181453.50000000003 174252.50000000003 23.500000000000004 78.528137207031264 27.500000000000004 10.500000000000002
decision_type=2 2 2 2 2 2 2 2 2 2 2 2 2 2
left_child=-1 2 3 4 -2 -5 -7 -8 9 -9 -11 12 -12 -14
right_child=1 -3 -4 5 -6 6 7 8 -10 10 11 -13 13 -15
leaf_value=-0.053294921763186988 0.014005354577317997 -0.052789462205559884 -0.019159648393138086 0.017904549998849908 0.074513951843101001 -0.020384839383923881 0.066075404912113486 0.0064536792907128257 0.02224661933406781 0.035410310214292966 0.054172612991050119 -0.055861606056165462 -0.11917302977490983 0.0058292622148646573
leaf_weight=73.850902628153563 280.06398881971836 65.265681508928537 5.6940667182207099 66.889804348349571 2.1988623738288871 15.355126008391379 4.3924532383680335 220.25244066119194 36.687221840023994 2.8842328041791907 1.8751672357320766 6.300117552280426 1.2114608138799665 3.2951831072568893
leaf_count=1313 1186 1313 24 291 10 63 24 916 155 12 8 26 5 14
internal_value=0 0.00515308 0.0109971 0.0112648 0.0144767 0.00874045 0.00664301 0.00814181 0.00720799 0.00486837 -0.0175628 -0.0296104 -0.00369523 -0.0277734
internal_weight=0 712.366 647.1 641.406 282.263 359.143 292.253 276.898 272.506 235.819 15.5662 12.6819 6.38181 4.50664
internal_count=5360 4047 2734 2710 1196 1514 1223 1160 1136 981 65 53 27 19
is_linear=0
shrinkage=0.05


Tree=38
num_leaves=15
num_cat=0
split_feature=2 7 7 8 5 5 8 1 6 8 5 1 5 6
split_gain=90.9267 74.9804 10.9587 2.00077 3.9716 3.48686 4.21217 3.82165 3.52526 3.39608 3.58947 3.34528 3.1123 3.03642
threshold=4.5000000000000009 94402.000000000015 94406.000000000015 47.633054733276374 20.500000000000004 8.5000000000000018 20.02506256103516 26.500000000000004 5.5000000000000009 15.362761974334719 6.5000000000000009 50.500000000000007 22.500000000000004 4.5000000000000009
decision_type=2 2 2 2 2 2 2 2 2 2 2 2 2 2
left_child=1 -1 3 5 -5 6 9 -7 -9 10 -3 -12 -10 -6
right_child=-2 2 -4 4 13 7 -8 8 12 -11 11 -13 -14 -15
leaf_value=-0.053343609368727452 -0.052573818916810823 0.00800497691166417 -0.053207864627806412 0.011770179458530886 0.026086546081679443 0.0068390476652408555 0.044711531490815443 0.031756994062372666 0.012671632303138773 -0.063943307048514295 -0.01158983524705752 -0.088916955378419482 0.070175743780604455 -0.0012222904956915154
leaf_weight=50.649415262043476 75.239991437643766 52.500384375452995 6.8265957720577708 266.08954752981663 11.130424469709395 55.835769712924957 5.9690546989440909 56.769227743148804 63.957373082637787 1.9635464549064625 8.0005098879337293 1.6949617415666569 2.4428814947605124 119.05197988450527
leaf_count=886 1616 222 124 1118 49 239 26 249 277 8 34 7 12 493
internal_value=0 0.00525896 0.00980977 0.0104763 0.00826897 0.0139873 0.0045368 0.0176898 0.0226086 0.000799155 0.0028431 -0.0251082 0.0147872 0.00111258
internal_weight=0 702.882 652.232 645.406 396.272 249.134 70.1285 179.005 123.169 64.1594 62.1959 9.69547 66.4003 130.182
internal_count=5360 3744 2858 2734 1660 1074 297 777 538 271 263 41 289 542
is_linear=0
shrinkage=0.05


Tree=39
num_leaves=15
num_cat=0
split_feature=2 0 4 0 3 5 3 1 1 1 3 5 5 5
split_gain=85.9426 18.6031 8.88825 4.33187 7.25371 2.57256 2.49794 2.83819 2.53307 2.42477 1.95119 2.41367 1.98586 2.34796
threshold=4.5000000000000009 7.5000000000000009 2.5000000000000004 6.5000000000000009 145121.50000000003 21.500000000000004 129101.50000000001 39.500000000000007 20.500000000000004 22.500000000000004 200859.50000000003 4.5000000000000009 10.500000000000002 20.500000000000004
decision_type=2 2 2 2 2 2 2 2 2 2 2 2 2 2
left_child=1 3 -3 4 -1 -5 7 8 -4 -10 -8 -12 -13 -14
right_child=-2 2 6 5 -6 -7 10 -9 9 -11 11 12 13 -15
leaf_value=-0.063917551371340753 -0.052442000082688262 -0.036331150608709471 0.071430241282907148 -0.051103920190206091 0.076348686781794808 0.017296188791830983 0.0069011991946264367 0.043363941616438306 -0.034193894526249095 0.013519249558734923 -0.080027698561058486 0.04153107844735629 -0.087088868344673387 0.0030866542544959593
leaf_weight=1.6971463263034849 71.745851591229439 11.850833352655171 1.6585839986801172 19.586325053125623 2.0172831118106842 1.4784110113978375 620.03366582840681 9.6606078296899778 3.0417199581861523 21.373545914888382 1.3648128435015667 1.5669430494308469 1.0834489949047568 2.1629676818847656
leaf_count=7 1616 193 8 357 9 19 2965 44 13 95 8 8 6 12
internal_value=0 0.00502323 0.00658794 -0.0375246 0.0122602 -0.0463033 0.00735632 0.0202141 0.0116369 0.00757502 0.0066226 -0.0213374 -0.00469593 -0.0270082
internal_weight=0 698.576 673.797 24.7792 3.71443 21.0647 661.946 35.7345 26.0738 24.4153 626.212 6.17817 4.81336 3.24642
internal_count=5360 3744 3352 392 16 376 3159 160 116 108 2999 34 26 18
is_linear=0
shrinkage=0.05


Tree=40
num_leaves=15
num_cat=0
split_feature=2 7 7 8 5 6 8 3 3 3 6 6 8 8
split_gain=81.24 68.6034 9.97322 1.80535 3.68524 8.0814 5.50627 4.13473 4.18548 4.89404 3.73856 3.71957 3.61115 9.36305
threshold=4.5000000000000009 94402.000000000015 94406.000000000015 47.633054733276374 8.5000000000000018 14.500000000000002 91.042778015136733 198316.00000000003 174496.50000000003 173978.00000000003 13.500000000000002 12.500000000000002 62.533422470092781 66.079193115234389
decision_type=2 2 2 2 2 2 2 2 2 2 2 2 2 2
left_child=1 -1 3 -3 5 7 -7 8 9 11 -10 -5 -6 -14
right_child=-2 2 -4 4 12 6 -8 -9 10 -11 -12 -13 13 -15
leaf_value=-0.053145692044340789 -0.052317237417635436 0.013002684463093883 -0.053011672196987471 0.014146819893140311 -0.015396790296783312 0.0086315740133518348 -0.10664092854274998 -0.014335884438960795 0.073238243854679336 -0.058163653403299487 0.014666028624565045 0.041447625466674416 0.066369607294521127 0.0046222957029907873
leaf_weight=47.612204480916262 68.405402712523937 247.53533142805099 6.4123627208173266 70.957243204116821 21.094420492649078 1.9328559190034855 2.2325774282217026 9.1575224548578245 6.7033419013023359 2.1080662757158271 4.5896440446376801 15.137837037444113 6.2909441888332358 254.74996843934059
leaf_count=886 1616 1074 124 303 87 8 9 38 29 9 20 65 27 1065
internal_value=0 0.00478495 0.00903552 0.00965478 0.00755651 0.0151943 -0.0531519 0.0178145 0.0207735 0.0171041 0.0494336 0.018947 0.00450235 0.00611037
internal_weight=0 696.514 648.902 642.49 394.954 112.819 4.16543 108.654 99.4961 88.2031 11.293 86.0951 282.135 261.041
internal_count=5360 3744 2858 2734 1660 481 17 464 426 377 49 368 1179 1092
is_linear=0
shrinkage=0.05


Tree=41
num_leaves=15
num_cat=0
split_feature=7 7 3 5 5 5 6 5 3 3 5 3 5 5
split_gain=75.0899 75.4758 1.69956 2.32353 2.09796 2.51715 1.79983 3.23266 2.47158 3.92166 3.61028 3.84204 3.48726 4.95757
threshold=94402.000000000015 94406.000000000015 200859.50000000003 4.5000000000000009 12.500000000000002 20.500000000000004 5.5000000000000009 22.500000000000004 140009.00000000003 139543.50000000003 21.500000000000004 198363.50000000003 1.5000000000000002 12.500000000000002
decision_type=2 2 2 2 2 2 2 2 2 2 2 2 2 2
left_child=-1 2 6 -4 -5 -6 8 -8 9 12 -10 -12 -2 -14
right_child=1 -3 3 4 5 -7 7 -9 10 -11 11 -13 13 -15
leaf_value=-0.052766229603980752 0.082448608998991813 -0.052275814341419591 -0.080756223105153929 0.048396922826655024 -0.084470807730244693 0.0097731641767981516 0.0063074528002212155 0.036427620347981034 0.016338138794397127 -0.054451392114973733 -0.018939593549276299 0.039597480963064341 -0.015043306512376965 0.019122985616711916
leaf_weight=62.60236470028758 1.4312592446804036 54.152669861912727 1.1731892079114903 1.424033001065254 1.1257094889879229 1.9116865396499632 346.80994403362274 9.1429354101419431 214.8282832801342 2.8892565518617621 14.040009289979936 3.5023639500141135 19.990504264831543 22.643716931343079
leaf_count=1313 6 1313 5 6 5 8 1471 43 921 12 60 15 85 97
internal_value=0 0.00440689 0.00919618 -0.0181432 -0.00167828 -0.0251552 0.00943867 0.00708111 0.012443 0.00198007 0.0145572 -0.00725257 0.00568013 0.00310296
internal_weight=0 695.066 640.913 5.63462 4.46143 3.0374 635.278 355.953 279.325 46.9547 232.371 17.5424 44.0655 42.6342
internal_count=5360 4047 2734 24 19 13 2710 1514 1196 200 996 75 188 182
is_linear=0
shrinkage=0.05


Tree=42
num_leaves=15
num_cat=0
split_feature=7 7 1 1 3 3 5 1 8 3 6 5 8 3
split_gain=71.0004 70.9019 1.67864 16.0448 3.43103 3.78105 2.98706 3.03878 3.63594 2.9841 4.3921 2.85917 4.32961 4.96657
threshold=94402.000000000015 94406.000000000015 1.0000000180025095e-35 20.500000000000004 134119.50000000003 160892.50000000003 22.500000000000004 22.500000000000004 92.880565643310561 145116.50000000003 6.5000000000000009 18.500000000000004 87.96551895141603 185464.50000000003
decision_type=2 2 2 2 2 2 2 2 2 2 2 2 2 2
left_child=-1 2 4 -4 -2 -6 7 8 11 -8 -11 -5 13 -13
right_child=1 -3 3 6 5 -7 9 -9 -10 10 -12 12 -14 -15
leaf_value=-0.052624701306387835 0.057657628591803949 -0.052160039931539108 0.064268157744592311 -0.027261183803547653 -0.014602130541903372 0.018559484219646535 0.057168931516328347 0.0087626497197647851 0.012880825635412839 -0.017568717228647529 0.068519649147799483 0.011716427624997644 0.085706589282556436 -0.083458364228695445
leaf_weight=59.705317758023739 2.3665907979011527 51.623058885335922 13.0515850931406 18.592548310756687 27.656850516796112 12.471962332725523 6.1559214890003187 524.19276501238346 18.246806800365448 4.749301865696907 2.1533153504133224 6.7118486464023572 1.4537995606660832 1.7225120812654493
leaf_count=1313 11 1313 76 76 114 52 29 2228 75 21 11 28 6 7
internal_value=0 0.00420637 0.00875631 0.00943974 -0.000845356 -0.00429556 0.00821436 0.00767354 -0.00454422 0.0318591 0.0092871 -0.015708 0.00601538 -0.0077207
internal_weight=0 691.149 639.526 597.03 42.4954 40.1288 583.979 570.92 46.7275 13.0585 6.90262 28.4807 9.88816 8.43436
internal_count=5360 4047 2734 2557 177 166 2481 2420 192 61 32 117 41 35
is_linear=0
shrinkage=0.05


Tree=43
num_leaves=15
num_cat=0
split_feature=2 0 3 0 3 1 1 3 3 1 8 8 3 3
split_gain=68.7284 14.2551 3.96478 5.48093 3.70693 2.36169 15.0679 4.49105 3.29899 3.09416 4.35129 2.71994 2.69343 4.66386
threshold=4.5000000000000009 7.5000000000000009 166936.00000000003 6.5000000000000009 134119.50000000003 20.500000000000004 1.0000000180025095e-35 134119.50000000003 160892.50000000003 22.500000000000004 92.880565643310561 90.824913024902358 142832.50000000003 143240.50000000003
decision_type=2 2 2 2 2 2 2 2 2 2 2 2 2 2
left_child=1 2 4 -4 -1 6 7 -3 12 10 11 -7 -9 -14
right_child=-2 5 3 -5 -6 9 -8 8 -10 -11 -12 -13 13 -15
leaf_value=0.045614153258379392 -0.051980546856737489 0.072354279958526266 0.073896639003089085 -0.031414808059295439 -0.05509274073825237 -0.015941844197851433 0.063382899013736324 0.0021919587586523744 0.018969619177168159 0.0056561422045314095 0.011294228992757496 -0.09281335137631079 -0.07979800024530298 -0.011189172037790348
leaf_weight=0.9740567952394511 59.225963618606329 2.0801251232624045 1.7325180619955052 4.3067405037581921 14.763189252465962 29.771137151867155 12.584029495716093 14.205675609409811 11.800625316798685 559.31070946529508 19.383479744195938 1.1969835385680188 3.3809979110956183 9.2640539705753309
leaf_count=4 1616 10 8 75 305 164 76 60 50 2840 92 8 14 38
internal_value=0 0.00416242 -0.0356431 -0.00120349 -0.0488595 0.00546989 0.0155612 0.000786704 -0.0030649 0.00458739 -0.0072844 -0.0189131 -0.0127488 -0.0295336
internal_weight=0 684.754 21.7765 6.03926 15.7372 662.978 53.3155 40.7315 38.6514 609.662 50.3516 30.9681 26.8507 12.6451
internal_count=5360 3744 392 83 309 3352 248 172 162 3104 264 172 112 52
is_linear=0
shrinkage=0.05


Tree=44
num_leaves=15
num_cat=0
split_feature=2 4 6 3 8 1 8 1 1 5 6 8 1 5
split_gain=65.0369 10.8539 4.39553 2.62049 2.59329 2.5778 2.66107 2.74328 2.26663 2.33776 2.0724 3.85489 6.16864 5.99379
threshold=4.5000000000000009 2.5000000000000004 9.5000000000000018 129101.50000000001 7.582566738128663 39.500000000000007 56.538461685180671 36.500000000000007 52.500000000000007 6.5000000000000009 11.500000000000002 82.018520355224624 46.500000000000007 14.500000000000002
decision_type=2 2 2 2 2 2 2 2 2 2 2 2 2 2
left_child=1 2 -1 4 8 6 -6 -8 9 -3 -5 12 -12 -13
right_child=-2 3 -4 10 5 -7 7 -9 -10 -11 11 13 -14 -15
leaf_value=-0.04421659363299283 -0.051880226579996115 0.035728109175372981 0.044699690375319033 0.0026275673853766229 0.073238626489596698 0.056233169688243705 0.018315769286617722 -0.051527310722126018 0.070491514855535037 -0.019494892604943428 0.021566370161279266 0.014150893389027117 -0.021386081419783279 -0.01597695931495963
leaf_weight=15.043835476040842 56.443666063249111 2.4675774574279776 1.5314029976725567 482.40220854058862 1.9444562941789669 6.0003232806920996 13.648154199123381 1.5673866569995887 1.0271019041538227 8.5807784050703031 72.685685887932777 36.266805108636618 9.4452065080404264 30.301417492330074
leaf_count=296 1616 11 12 2630 9 28 61 7 5 40 319 158 42 126
internal_value=0 0.00396506 -0.0360015 0.00495923 0.0182293 0.0280238 0.0181598 0.0111211 -0.000556294 -0.0071612 0.00421834 0.00937903 0.0166268 0.000436893
internal_weight=0 682.912 16.5752 666.337 35.2358 23.1603 17.16 15.2155 12.0755 11.0484 631.101 148.699 82.1309 66.5682
internal_count=5360 3744 308 3436 161 105 77 68 56 51 3275 645 361 284
is_linear=0
shrinkage=0.05


Tree=45
num_leaves=15
num_cat=0
split_feature=7 7 3 3 1 5 3 3 5 5 5 5 3 1
split_gain=64.3495 60.1316 1.56569 6.49554 9.48176 5.57 5.48879 6.50547 4.44239 4.05737 3.91533 3.77408 4.18729 3.68788
threshold=94402.000000000015 94406.000000000015 143234.50000000003 140009.00000000003 25.500000000000004 4.5000000000000009 149493.00000000003 160937.00000000003 5.5000000000000009 5.5000000000000009 22.500000000000004 1.5000000000000002 174252.50000000003 20.500000000000004
decision_type=2 2 2 2 2 2 2 2 2 2 2 2 2 2
left_child=-1 2 3 9 13 6 -4 -8 -7 -2 -11 -9 -13 -5
right_child=1 -3 5 4 -6 8 7 11 -10 10 -12 12 -14 -15
leaf_value=-0.052436241798411082 0.021407624801591266 -0.051880791683388765 -0.036468375891220123 0.027923495070455107 0.031595935345168517 0.044569971848602681 0.032279117962726422 0.024011099980649455 0.0070657245926351881 0.00085362434304349713 0.04839701706492424 -0.10169319901184333 -0.017761023822976656 -0.0099475563925211299
leaf_weight=54.755401708185673 32.508720830082893 45.104042496532202 14.139939293265341 8.5377298891544324 67.715296402573586 8.1273674517869932 10.953417867422102 4.8995371907949474 277.11480951309204 163.69751067459583 4.4480639547109595 1.6402736455202127 15.798403218388556 26.019490659236908
leaf_count=1313 142 1313 60 40 291 35 47 21 1189 704 22 7 68 108
internal_value=0 0.00390539 0.00786413 0.0104647 0.0207201 0.00549608 -0.0103697 0.000715178 0.00813433 0.00523758 0.00211132 -0.014762 -0.0256556 -0.000591109
internal_weight=0 680.705 635.601 302.927 102.273 332.674 47.4316 33.2916 285.242 200.654 168.146 22.3382 17.4387 34.5572
internal_count=5360 4047 2734 1307 439 1427 203 143 1224 868 726 96 75 148
is_linear=0
shrinkage=0.05


Tree=46
num_leaves=15
num_cat=0
split_feature=2 0 3 0 3 1 1 3 3 1 8 8 8 3
split_gain=58.2634 12.1481 3.7702 4.94392 3.54665 2.11279 14.3466 4.2203 3.06029 2.67947 3.97639 2.53784 2.61565 2.41074
threshold=4.5000000000000009 7.5000000000000009 166936.00000000003 6.5000000000000009 134119.50000000003 20.500000000000004 1.0000000180025095e-35 134119.50000000003 160892.50000000003 22.500000000000004 92.880565643310561 90.824913024902358 89.147258758544936 129101.50000000001
decision_type=2 2 2 2 2 2 2 2 2 2 2 2 2 2
left_child=1 2 4 -4 -1 6 7 -3 -9 10 11 12 -7 -11
right_child=-2 5 3 -5 -6 9 -8 8 -10 13 -12 -13 -14 -15
leaf_value=0.044185118673671329 -0.051694666290286899 0.070697022691208186 0.071958930713829403 -0.029967316384901056 -0.054669947140138023 -0.018844624721478707 0.062380307057705725 -0.012858496520312325 0.017745415458146341 0.018637014700540494 0.010661006049503433 -0.090468490276932864 0.049314397331089367 0.004146860596197898
leaf_weight=0.97234508395195263 51.239060398191214 2.0157098025083533 1.6789484918117512 4.0827378332614899 13.567301668226717 28.13404747098685 12.014007091522215 26.769297324120998 11.755912426859139 30.364255949854851 19.29354677349329 1.1714859381318081 1.4817118756473053 525.00043629482388
leaf_count=4 1616 10 8 75 305 157 76 112 50 140 92 8 7 2700
internal_value=0 0.00359965 -0.034495 -0.00026613 -0.048059 0.00477499 0.0143915 0.00017033 -0.00351976 0.00394024 -0.00713646 -0.0182897 -0.0154345 0.0049391
internal_weight=0 678.302 20.3013 5.76169 14.5396 658 52.5549 40.5409 38.5252 605.445 50.0808 30.7872 29.6158 555.365
internal_count=5360 3744 392 83 309 3352 248 172 162 3104 264 172 164 2840
is_linear=0
shrinkage=0.05


Tree=47
num_leaves=15
num_cat=0
split_feature=7 7 8 5 8 5 6 0 6 5 8 8 8 8
split_gain=59.4666 53.7802 1.62264 3.63906 2.93433 5.60269 2.92716 2.90545 3.30374 2.98396 3.50788 2.8602 4.45432 3.13849
threshold=94402.000000000015 94406.000000000015 50.108224868774421 20.500000000000004 58.387445449829109 12.500000000000002 4.5000000000000009 9.5000000000000018 1.0000000180025095e-35 11.500000000000002 7.0197043418884286 62.533422470092781 67.556819915771499 58.000000000000007
decision_type=2 2 2 2 2 2 2 2 2 2 2 2 2 2
left_child=-1 2 7 4 5 -4 -5 9 -9 10 -2 13 -13 -8
right_child=1 -3 3 6 -6 -7 11 8 -10 -11 -12 12 -14 -15
leaf_value=-0.052286721258966398 -0.017515585181638111 -0.051713614610180404 -0.03812748467446217 0.02313840033543399 0.0097899085824310894 0.040342955994521458 -0.0071339985602933047 -0.079598313174712526 0.014816451827113339 0.010244535949950858 0.02435898923620626 0.053823952121364753 -0.003893970649535141 -0.07765339400769411
leaf_weight=51.085539827123284 25.414346531033519 41.163658022880554 8.1592297554016096 10.871361389756201 247.08165664970875 3.1540012508630744 3.8299853056669226 0.93182981014251609 163.33300042152405 51.360012128949165 6.2266658693552008 3.4509384036064139 106.59282958507538 2.6830608248710632
leaf_count=1313 108 1313 34 49 1058 13 16 4 727 226 27 15 446 11
internal_value=0 0.00366541 0.00726618 0.00523972 0.00864978 -0.0162508 -0.00167508 0.0104282 0.0142809 0.00280343 -0.00927505 -0.00398945 -0.00208395 -0.0361846
internal_weight=0 674.253 633.089 385.823 258.395 11.3132 127.428 247.266 164.265 83.001 31.641 116.557 110.044 6.51305
internal_count=5360 4047 2734 1642 1105 47 537 1092 731 361 135 488 461 27
is_linear=0
shrinkage=0.05


Tree=48
num_leaves=15
num_cat=0
split_feature=7 7 6 1 1 1 8 1 1 1 8 6 8 1
split_gain=56.2801 50.63 1.48224 3.0343 3.00019 2.8141 9.4931 1.91454 6.34789 1.79457 4.34613 1.76974 3.55476 6.05368
threshold=94402.000000000015 94406.000000000015 5.5000000000000009 57.500000000000007 55.500000000000007 50.500000000000007 83.178913116455092 1.0000000180025095e-35 20.500000000000004 48.500000000000007 10.01253128051758 11.500000000000002 71.065532684326186 46.500000000000007
decision_type=2 2 2 2 2 2 2 2 2 2 2 2 2 2
left_child=-1 2 3 4 5 9 -7 -4 -9 -2 -11 -10 13 -13
right_child=1 -3 7 -5 -6 6 -8 8 11 10 -12 12 -14 -15
leaf_value=-0.05217096931155954 0.0093693336746465145 -0.051627446807966715 -0.011405934825928887 0.070349303422547152 -0.043669448466934851 0.067469245391411956 -0.066814270758139796 0.061898640433220686 0.001631610195995274 0.045097178319286231 -0.057299941615415954 0.025067888496581953 0.002147865827707126 -0.019764212414903014
leaf_weight=48.699161879718304 262.97410544753075 39.219785429537296 17.414305999875069 2.0426578670740119 2.6591036915779105 6.2314343452453604 1.6685573756694791 4.9329046607017508 190.706125035882 1.5780277550220478 3.0183329284191132 50.216472372412682 79.399041518568993 8.8579857945442182
leaf_count=1313 1140 1313 74 10 12 28 7 32 817 7 13 222 334 38
internal_value=0 0.00349666 0.0069191 0.00963204 0.00918612 0.00969633 0.0391072 0.00475685 0.00559927 0.00882798 -0.0221448 0.0047556 0.00905797 0.0183455
internal_weight=0 670.919 631.699 280.172 278.13 275.47 7.89999 351.527 334.113 267.57 4.59636 329.18 138.473 59.0745
internal_count=5360 4047 2734 1217 1207 1195 35 1517 1443 1160 20 1411 594 260
is_linear=0
shrinkage=0.05


Tree=49
num_leaves=15
num_cat=0
split_feature=7 7 3 5 5 5 1 4 5 1 5 3 1 3
split_gain=53.2775 47.685 1.52914 2.0325 1.87592 2.31085 1.58847 3.33716 3.03132 4.76866 3.51796 2.90925 4.03083 6.19949
threshold=94402.000000000015 94406.000000000015 200859.50000000003 4.5000000000000009 12.500000000000002 20.500000000000004 39.500000000000007 2.5000000000000004 10.500000000000002 42.500000000000007 1.5000000000000002 144074.50000000003 41.500000000000007 181454.50000000003
decision_type=2 2 2 2 2 2 2 2 2 2 2 2 2 2
left_child=-1 2 6 -4 -5 -6 -2 -8 9 11 -11 -9 13 -13
right_child=1 -3 3 4 5 -7 7 8 -10 10 -12 12 -14 -15
leaf_value=-0.052061282714576787 0.0054954302946381584 -0.051545736547463042 -0.078676537822585838 0.043976390687981953 -0.083562877708112326 0.0073909979956472919 -0.075734117365990436 0.04781513560375391 0.018283336075702223 0.040415354773462996 -0.010755838108690659 -0.098755119422871143 0.079933092941923203 0.031025716331333532
leaf_weight=46.419211247935891 489.55516198277473 37.364659775048494 1.1519880443811406 1.389209911227226 1.109736889600754 1.883787930011749 1.084647849202155 7.9885974079370481 82.368736639618874 3.7127820998430243 35.225095167756081 1.6532766520977022 1.1677001863718031 2.0752079635858536
leaf_count=1313 2119 1313 5 6 5 8 5 35 362 16 152 7 5 9
internal_value=0 0.0033358 0.00658887 -0.0195767 -0.00404252 -0.0263267 0.00682065 0.0116165 0.0123226 0.00284831 -0.00587659 0.029215 -0.00113289 -0.0265214
internal_weight=0 667.731 630.366 5.53472 4.38273 2.99352 624.831 135.276 134.191 51.8227 38.9379 12.8848 4.89618 3.72848
internal_count=5360 4047 2734 24 19 13 2710 591 586 224 168 56 21 16
is_linear=0
shrinkage=0.05


Tree=50
num_leaves=15
num_cat=0
split_feature=2 0 4 3 0 3 6 6 6 6 3 3 5 6
split_gain=46.8675 9.15621 4.35741 3.68282 4.20393 3.32631 2.40158 1.95048 2.97872 1.78642 3.98598 1.91188 4.40625 4.63499
threshold=4.5000000000000009 7.5000000000000009 2.5000000000000004 166936.00000000003 6.5000000000000009 126875.50000000001 12.500000000000002 5.5000000000000009 13.500000000000002 1.5000000000000002 198316.00000000003 143234.50000000003 4.5000000000000009 4.5000000000000009
decision_type=2 2 2 2 2 2 2 2 2 2 2 2 2 2
left_child=1 3 6 5 -5 -1 -3 -6 -9 10 -4 -11 13 -13
right_child=-2 2 9 4 7 -7 -8 8 -10 11 -12 12 -14 -15
leaf_value=0.08305008612871595 -0.051377788027501294 -0.037563860440691745 0.050185115358331214 0.070005542442467011 -0.055939358269386542 -0.05195694808547098 0.062264490588132861 0.072969466828504498 -0.076689553780355815 0.0069958078424680386 -0.037600443753727904 0.01895367532928682 0.0038711010707771993 -0.020506493585599347
leaf_weight=0.47398786246776836 42.17337023280561 8.4371132403612101 5.4387764632701865 1.6152569353580464 2.2398227732628588 12.182454034686087 0.64878953248262483 0.91647232882678487 0.52176646888256073 305.87592376768589 1.6964212469756601 9.2787686139345151 279.94852119684219 37.586528498679399
leaf_count=2 1616 187 30 8 62 307 6 9 4 1530 8 41 1363 187
internal_value=0 0.00297263 0.00394705 -0.0322542 0.00276635 -0.0469009 -0.0304355 -0.0267624 0.0186759 0.0044353 0.0293138 0.00415473 0.00149568 -0.0126939
internal_weight=0 666.861 648.911 17.9498 5.29332 12.6564 9.0859 3.67806 1.43824 639.825 7.1352 632.69 326.814 46.8653
internal_count=5360 3744 3352 392 83 309 193 75 13 3159 38 3121 1591 228
is_linear=0
shrinkage=0.05


Tree=51
num_leaves=15
num_cat=0
split_feature=7 7 3 6 1 1 1 8 3 3 8 3 6 1
split_gain=49.1754 42.6937 1.35865 1.67084 2.81131 2.49124 2.454 8.69797 2.34159 4.00485 3.87661 2.99217 2.61988 2.45088
threshold=94402.000000000015 94406.000000000015 200859.50000000003 5.5000000000000009 57.500000000000007 55.500000000000007 50.500000000000007 83.178913116455092 181454.50000000003 143950.50000000003 38.401605606079109 143625.50000000003 7.5000000000000009 48.500000000000007
decision_type=2 2 2 2 2 2 2 2 2 2 2 2 2 2
left_child=-1 2 3 4 5 6 -2 -8 9 11 13 -5 -10 -11
right_child=1 -3 -4 8 -6 -7 7 -9 12 10 -12 -13 -14 -15
leaf_value=-0.051937651709402004 0.0084278137736332661 -0.051409051501597962 -0.018771271502543763 0.0050135025328427929 0.068781228652063889 -0.040729757351124336 0.065064240937910967 -0.063340279675934891 0.076010032756377521 0.01445411690310359 -0.018113414145487651 0.079049401019938181 0.012798622667998442 -0.030806580766277476
leaf_weight=43.203539898619056 261.42117692530155 34.052723290398717 5.454883709549903 245.99960106611252 1.9667202681303013 2.5167130827903739 6.0386584401130667 1.6873849630355833 1.7153014987707127 19.681838750839237 39.98775726556778 1.3723281919956196 36.944093748927116 3.5270165950059882
leaf_count=1313 1140 1313 24 1069 10 11 28 7 8 87 168 6 161 15
internal_value=0 0.00311839 0.00607361 0.0062912 0.0092168 0.00878558 0.00924858 0.0370204 0.0039989 0.0025544 -0.00867905 0.00542423 0.0156033 0.00757591
internal_weight=0 662.366 628.313 622.859 273.631 271.664 269.147 7.72604 349.228 310.569 63.1966 247.372 38.6594 23.2089
internal_count=5360 4047 2734 2710 1196 1186 1175 35 1514 1345 270 1075 169 102
is_linear=0
shrinkage=0.05


Tree=52
num_leaves=15
num_cat=0
split_feature=7 7 1 0 1 3 1 6 3 1 4 6 3 3
split_gain=46.5728 40.2492 1.34747 3.25914 3.8601 3.33196 2.88907 4.6919 2.8997 2.7898 2.45314 2.44026 3.75742 2.96243
threshold=94402.000000000015 94406.000000000015 39.500000000000007 10.500000000000002 48.500000000000007 198363.50000000003 56.500000000000007 12.500000000000002 151698.50000000003 55.500000000000007 2.5000000000000004 2.5000000000000004 198316.00000000003 143606.50000000003
decision_type=2 2 2 2 2 2 2 2 2 2 2 2 2 2
left_child=-1 2 11 10 5 -5 7 9 -8 -6 -4 12 13 -2
right_child=1 -3 3 4 6 -7 8 -9 -10 -11 -12 -13 -14 -15
leaf_value=-0.051840214524663634 0.00055352883904306589 -0.051338618874498115 -0.071301495727469952 0.026730060524032945 0.0098147231359945047 -0.016467192118663765 0.0069081426876151973 -0.054477803486088522 0.076119807265257411 -0.064145970627870252 0.0015880234688075328 0.0033843233468727439 -0.071950099516659774 0.026476856080745643
leaf_weight=41.171772539615631 17.070298135280609 32.435270071029663 1.1831107437610615 54.448297321796417 15.082370519638069 4.8627086877822867 4.9174975454807273 4.4151720553636542 2.1860941499471664 1.392741039395333 47.458090424537659 441.88467085361481 1.2091503292322148 31.096969902515411
leaf_count=1313 74 1313 6 240 67 21 22 19 10 6 208 1915 5 141
internal_value=0 0.00297278 0.00578143 0.0101869 0.0159655 0.0231885 0.000662199 -0.00870444 0.0282077 0.00356238 -0.000184885 0.0045623 0.0151044 0.0172897
internal_weight=0 659.642 627.207 135.946 87.3049 59.311 27.9939 20.8903 7.10359 16.4751 48.6412 491.261 49.3764 48.1673
internal_count=5360 4047 2734 599 385 261 124 92 32 73 214 2135 220 215
is_linear=0
shrinkage=0.05


Tree=53
num_leaves=15
num_cat=0
split_feature=7 7 5 1 6 1 5 1 1 0 3 3 3 3
split_gain=44.1163 37.9584 1.32983 2.996 2.82838 3.55279 2.53542 5.34783 4.86021 3.979 3.90069 2.8377 4.51797 4.84178
threshold=94402.000000000015 94406.000000000015 22.500000000000004 44.500000000000007 5.5000000000000009 33.500000000000007 21.500000000000004 36.500000000000007 33.500000000000007 9.5000000000000018 160107.50000000003 139545.00000000003 184467.00000000003 160524.00000000003
decision_type=2 2 2 2 2 2 2 2 2 2 2 2 2 2
left_child=-1 2 6 4 5 -4 -2 8 9 11 -9 -8 13 -13
right_child=1 -3 3 -5 -6 -7 7 10 -10 -11 -12 12 -14 -15
leaf_value=-0.051747816978628326 0.005881932268709934 -0.051271789102075631 0.0046265881565940954 0.071050681442930433 0.028401864174089814 -0.097514585925799147 0.086330659828286666 0.0033887548355081686 -0.10573901094489704 -0.031394730249711698 0.077529079363367559 0.011216009838033185 0.055003224750355365 -0.11604205630587971
leaf_weight=39.231963975355029 580.8557716012001 30.892584402114153 3.3520084619522077 2.4314947873353949 7.8731597661972046 1.1411920189857481 1.1813465207815248 6.5346820354461652 1.6193405538797367 13.300355419516563 2.4351966679096222 1.9412703216075899 2.2451203614473343 1.2153938710689542
leaf_count=1313 2534 1313 15 12 39 5 5 28 7 55 11 8 10 5
internal_value=0 0.0028334 0.00550291 0.0203136 0.0103376 -0.0213154 0.0051444 -0.008914 -0.0224425 -0.0156587 0.0235168 0.0161339 0.000782216 -0.0377815
internal_weight=0 657.019 626.126 14.7979 12.3664 4.4932 611.328 30.4727 21.5028 19.8835 8.96988 6.58313 5.40178 3.15666
internal_count=5360 4047 2734 71 59 20 2663 129 90 83 39 28 23 13
is_linear=0
shrinkage=0.05


Tree=54
num_leaves=15
num_cat=0
split_feature=2 0 3 0 3 6 6 1 1 3 3 3 3 3
split_gain=37.8071 7.06106 3.49261 3.60693 3.03814 1.78109 2.68748 1.71408 13.4847 4.02452 2.72981 2.30983 4.37873 4.15091
threshold=4.5000000000000009 7.5000000000000009 166936.00000000003 6.5000000000000009 134119.50000000003 5.5000000000000009 13.500000000000002 20.500000000000004 1.0000000180025095e-35 134119.50000000003 160892.50000000003 142832.50000000003 139743.50000000003 143240.50000000003
decision_type=2 2 2 2 2 2 2 2 2 2 2 2 2 2
left_child=1 2 4 -4 -1 -5 -7 8 9 -3 11 12 -11 -13
right_child=-2 7 3 5 -6 6 -8 -9 -10 10 -12 13 -14 -15
leaf_value=0.039668932401923984 -0.051121529625628007 0.068945192495142055 0.068127491211562238 -0.055983729949125809 -0.053867102656852774 0.070271128873246588 -0.074552926588382848 0.0025032726257273011 0.060868813009334166 -0.024025212774000437 0.015257552995972288 -0.077124916064463783 0.032346073223812964 -0.012087283304078546
leaf_weight=0.94929821789264579 34.674228642135859 1.9333134442567814 1.5427986681461323 1.9012171383947136 10.154532585293053 0.89481788501143433 0.49895361065864563 590.09228363633156 11.080362245440481 8.0491864643991011 11.590965192764996 3.343086600303649 6.0222421251237384 9.2177080959081632
leaf_count=4 1616 10 8 62 305 9 4 3104 76 34 50 14 26 38
internal_value=0 0.00244789 -0.0304227 0.00503354 -0.0458704 -0.0245087 0.0184258 0.00326496 0.0120373 -0.00143681 -0.00499671 -0.0138118 0.000100378 -0.0293972
internal_weight=0 657.271 15.9416 4.83779 11.1038 3.29499 1.39377 641.329 51.2369 40.1565 38.2232 26.6322 14.0714 12.5608
internal_count=5360 3744 392 83 309 75 13 3352 248 172 162 112 60 52
is_linear=0
shrinkage=0.05


Tree=55
num_leaves=15
num_cat=0
split_feature=7 7 8 5 3 1 1 3 3 8 3 8 5 3
split_gain=40.8829 34.1267 1.25697 3.47426 4.56117 3.39445 3.61273 3.01551 5.28524 3.03565 2.8698 2.85718 5.18249 2.78278
threshold=94402.000000000015 94406.000000000015 50.108224868774421 20.500000000000004 185344.00000000003 31.500000000000004 32.500000000000007 139541.50000000003 134121.50000000003 20.02506256103516 198318.50000000003 58.387445449829109 12.500000000000002 139542.50000000003
decision_type=2 2 2 2 2 2 2 2 2 2 2 2 2 2
left_child=-1 2 7 11 -5 -6 -7 8 9 -2 -8 12 -4 -9
right_child=1 -3 3 4 5 6 10 13 -10 -11 -12 -13 -14 -15
leaf_value=-0.051647797421627777 0.0069381330855284879 -0.05116318811891523 -0.039049846739613508 -0.0072687532047366697 0.0379591414428673 -0.08742198336097913 0.071257018779693856 0.045416456620403001 -0.017156596345415848 0.057068361974882888 -0.011839221812685449 0.0077868933772932136 0.03684969051293184 0.01007249225098604
leaf_weight=36.603290362283587 30.701259851455688 28.181730089709163 8.1140536367893201 108.97192205488682 10.603856950998308 1.1691598147153843 1.3964996039867399 5.7535077184438697 29.074869275093079 3.3493525087833396 4.05910724401474 244.03824591636658 3.1115069091320029 173.79061844944954
leaf_count=1313 142 1313 34 459 49 5 7 25 126 16 17 1058 13 783
internal_value=0 0.00265675 0.0050869 0.00329722 -0.00348915 0.020417 -0.00766163 0.00790018 -0.00149978 0.0118691 0.00943135 0.00665235 -0.018012 0.0112051
internal_weight=0 652.316 624.134 381.464 126.201 17.2286 6.62477 242.67 63.1255 34.0506 5.45561 255.264 11.2256 179.544
internal_count=5360 4047 2734 1642 537 78 29 1092 284 158 24 1105 47 808
is_linear=0
shrinkage=0.05


Tree=56
num_leaves=15
num_cat=0
split_feature=2 0 4 6 5 6 6 0 6 8 5 1 5 1
split_gain=33.9937 6.12209 2.91889 2.41803 3.14017 2.33976 2.15427 1.61222 1.50339 2.29727 1.26869 3.68563 1.15237 2.93923
threshold=4.5000000000000009 7.5000000000000009 2.5000000000000004 6.5000000000000009 21.500000000000004 13.500000000000002 12.500000000000002 6.5000000000000009 1.5000000000000002 18.350168228149418 8.5000000000000018 21.500000000000004 22.500000000000004 44.500000000000007
decision_type=2 2 2 2 2 2 2 2 2 2 2 2 2 2
left_child=1 3 6 4 -1 -5 10 -7 9 -4 11 -3 -10 -14
right_child=-2 2 8 5 -6 7 -8 -9 12 -11 -12 -13 13 -15
leaf_value=-0.047978311162850978 -0.051012355192552594 0.11911152358427626 -0.029716978923324772 0.069520686573904297 0.037129214562162553 0.013758463964072815 0.061755596204556951 -0.079388238494291441 0.0027511605193491565 0.04157089745678566 -0.044859048538469642 -0.051260569778934409 0.0071132228155570566 0.067603502090786263
leaf_weight=10.783187508583067 31.433069132268429 0.48711201548576244 1.4288409650325764 1.0816614069044583 1.2049276288598765 1.2078878134489057 0.62778665870428074 0.75486440956592549 608.59084795229137 5.4053902830928564 5.9279190469533205 0.91129749268293381 12.507214073091744 2.3922862224280825
leaf_count=350 1616 2 8 10 20 6 6 6 3039 30 147 38 69 13
internal_value=0 0.00222053 0.00296332 -0.0293185 -0.0394241 0.0104747 -0.0271362 -0.0220653 0.00334315 0.0266667 -0.0347533 0.00808563 0.0030875 0.0168256
internal_weight=0 653.311 638.279 15.0325 11.9881 3.04441 7.95412 1.96275 630.325 6.83423 7.32633 1.39841 623.49 14.8995
internal_count=5360 3744 3352 392 370 22 193 12 3159 38 187 40 3121 82
is_linear=0
shrinkage=0.05


end of trees

feature_importances:
Column_3=151
Column_1=144
Column_5=124
Column_8=104
Column_7=88
Column_6=83
Column_2=44
Column_0=40
Column_4=20

parameters:
[boosting: gbdt]
[objective: binary]
[metric: auc]
[tree_learner: serial]
[device_type: cpu]
[data_sample_strategy: bagging]
[data: ]
[valid: ]
[num_iterations: 10000]
[learning_rate: 0.05]
[num_leaves: 15]
[num_threads: 0]
[seed: 44]
[deterministic: 0]
[force_col_wise: 0]
[force_row_wise: 0]
[histogram_pool_size: -1]
[max_depth: -1]
[min_data_in_leaf: 5]
[min_sum_hessian_in_leaf: 0.001]
[bagging_fraction: 0.5]
[pos_bagging_fraction: 1]
[neg_bagging_fraction: 1]
[bagging_freq: 0]
[bagging_seed: 21897]
[feature_fraction: 0.8]
[feature_fraction_bynode: 1]
[feature_fraction_seed: 12646]
[extra_trees: 0]
[extra_seed: 20733]
[early_stopping_round: 0]
[early_stopping_min_delta: 0]
[first_metric_only: 0]
[max_delta_step: 0]
[lambda_l1: 0]
[lambda_l2: 0]
[linear_lambda: 0]
[min_gain_to_split: 0]
[drop_rate: 0.1]
[max_drop: 50]
[skip_drop: 0.5]
[xgboost_dart_mode: 0]
[uniform_drop: 0]
[drop_seed: 20829]
[top_rate: 0.2]
[other_rate: 0.1]
[min_data_per_group: 100]
[max_cat_threshold: 32]
[cat_l2: 10]
[cat_smooth: 10]
[max_cat_to_onehot: 4]
[top_k: 20]
[monotone_constraints: ]
[monotone_constraints_method: basic]
[monotone_penalty: 0]
[feature_contri: ]
[forcedsplits_filename: ]
[refit_decay_rate: 0.9]
[cegb_tradeoff: 1]
[cegb_penalty_split: 0]
[cegb_penalty_feature_lazy: ]
[cegb_penalty_feature_coupled: ]
[path_smooth: 0]
[interaction_constraints: ]
[verbosity: -1]
[saved_feature_importance_type: 0]
[use_quantized_grad: 0]
[num_grad_quant_bins: 4]
[quant_train_renew_leaf: 0]
[stochastic_rounding: 1]
[linear_tree: 0]
[max_bin: 255]
[max_bin_by_feature: ]
[min_data_in_bin: 3]
[bin_construct_sample_cnt: 200000]
[data_random_seed: 182]
[is_enable_sparse: 1]
[enable_bundle: 1]
[use_missing: 1]
[zero_as_missing: 0]
[feature_pre_filter: 1]
[pre_partition: 0]
[two_round: 0]
[header: 0]
[label_column: ]
[weight_column: ]
[group_column: ]
[ignore_column: ]
[categorical_feature: ]
[forcedbins_filename: ]
[precise_float_parser: 0]
[parser_config_file: ]
[objective_seed: 3944]
[num_class: 1]
[is_unbalance: 0]
[scale_pos_weight: 1]
[sigmoid: 1]
[boost_from_average: 1]
[reg_sqrt: 0]
[alpha: 0.9]
[fair_c: 1]
[poisson_max_delta_step: 0.7]
[tweedie_variance_power: 1.5]
[lambdarank_truncation_level: 30]
[lambdarank_norm: 1]
[label_gain: ]
[lambdarank_position_bias_regularization: 0]
[eval_at: ]
[multi_error_top_k: 1]
[auc_mu_weights: ]
[num_machines: 1]
[local_listen_port: 12400]
[time_out: 120]
[machine_list_filename: ]
[machines: ]
[gpu_platform_id: -1]
[gpu_device_id: -1]
[gpu_use_dp: 0]
[num_gpu: 1]

end of parameters

pandas_categorical:null
