tree
version=v4
num_class=1
num_tree_per_iteration=1
label_index=0
max_feature_idx=8
objective=binary sigmoid:1
feature_names=Column_0 Column_1 Column_2 Column_3 Column_4 Column_5 Column_6 Column_7 Column_8
feature_infos=[0:11] [0:69] [0:12] [124587:201897] [0:3] [0:23] [0:15] [51873:241116] [-1:100]
tree_sizes=4866 5003 5232 5225 4923 5061 5158 5488 5178 5004 5098

Tree=0
num_leaves=46
num_cat=0
split_feature=2 7 7 8 5 3 3 0 1 8 1 5 5 6 1 5 3 3 1 5 1 8 5 6 1 3 1 5 1 0 3 3 8 1 3 3 6 1 3 1 1 3 0 0 3
split_gain=1143.53 1175.82 225.355 15.1106 12.7421 11.9484 6.87273 5.78552 5.36425 6.83664 5.27504 10.1545 6.20865 6.04334 5.141 5.09056 4.45614 4.22421 4.08053 3.37199 7.29471 4.82368 3.79249 3.98224 3.07109 2.86255 2.83465 2.76396 2.57762 3.39401 5.995 5.09728 1.80753 1.55725 1.53076 1.28906 1.0173 0.928554 0.819779 0.644982 0.0786107 0.0232048 5.68434e-14 2.84217e-14 7.10543e-15
threshold=4.5000000000000009 94402.000000000015 94406.000000000015 50.108224868774421 20.500000000000004 185344.00000000003 198318.50000000003 9.5000000000000018 40.500000000000007 95.199695587158217 26.500000000000004 19.500000000000004 20.500000000000004 5.5000000000000009 1.0000000180025095e-35 11.500000000000002 143240.50000000003 140448.00000000003 27.500000000000004 8.5000000000000018 26.500000000000004 89.147258758544936 10.500000000000002 6.5000000000000009 41.500000000000007 134123.50000000003 32.500000000000007 5.5000000000000009 38.500000000000007 10.500000000000002 142832.50000000003 149493.00000000003 88.118579864501967 39.500000000000007 145121.50000000003 139542.50000000003 8.5000000000000018 33.500000000000007 149668.50000000003 25.500000000000004 25.500000000000004 143238.50000000003 10.500000000000002 9.5000000000000018 175774.50000000003
decision_type=2 2 2 2 2 2 2 2 2 2 2 2 2 2 2 2 2 2 2 2 2 2 2 2 2 2 2 2 2 2 2 2 2 2 2 2 2 2 2 2 2 2 2 2 2
left_child=1 42 3 7 6 8 14 15 9 18 12 13 34 37 -5 27 35 40 -6 28 21 -21 -22 24 32 -15 -27 -3 29 30 -16 39 -24 -13 -9 -17 -28 -12 -19 -31 -11 -23 43 -1 -4
right_child=-2 2 44 4 5 -7 -8 10 -10 17 11 33 -14 25 19 16 -18 38 -20 20 22 41 23 -25 -26 26 36 -29 -30 31 -32 -33 -34 -35 -36 -37 -38 -39 -40 -41 -42 -43 -44 -45 -46
leaf_value=-1.0035001418358609 -1.0035001418358609 -0.41702945847920553 -1.0035001418358607 -0.53502806443985385 -0.53686665187076432 -0.34326339539588391 -0.53122553134410699 -0.38959579865482968 -0.40117889946956609 -0.44095483056922719 -0.25945625420690854 -0.27341378745247324 -0.49715316336309656 -0.33031757683823726 -0.20369652492324009 -0.39668396482504159 -0.31685392553828484 -0.51213281253704146 -0.66348008566133965 -0.56849035568242567 -0.47067750435798472 -0.42390800295508674 -0.48117468947133962 -0.2807146509963071 -0.31513300770295255 -0.36947778145028742 -0.52711879560070041 -0.54017610924640336 -0.43619757635132744 -0.38981434772680579 -0.40117889946956609 -0.2807146509963071 -0.38794106996701017 -0.18367400639284859 -0.29488691552257296 -0.48284957640058912 -0.44334138643520676 -0.33069449876712731 -0.58522150130371164 -0.44823524652943286 -0.41791004509085206 -0.4366095607852305 -1.0035001418358609 -1.0035001418358609 -1.0035001418358609
leaf_weight=94.744566440582275 357.72714805603027 12.617851138114931 12.175119519233705 11.953753709793089 20.144288659095764 17.266533136367798 19.480191230773926 17.266533136367801 12.617851138114927 11.73238790035248 11.289656281471251 21.915215134620667 20.144288659095764 11.289656281471251 13.503314375877382 14.831509232521059 22.136580944061279 12.617851138114931 20.58702027797699 17.930630564689636 17.266533136367798 11.73238790035248 14.167411804199217 16.602435708045959 13.946045994758604 12.617851138114927 12.175119519233704 17.266533136367798 19.0374596118927 11.732387900352476 11.289656281471251 13.281948566436766 20.144288659095764 11.953753709793089 11.289656281471251 13.060582756996153 11.06829047203064 20.808386087417603 11.953753709793089 21.251117706298828 11.953753709793089 11.289656281471251 86.775397300720215 14.610143423080443 15.274240851402281
leaf_count=428 1616 57 55 54 91 78 88 78 57 53 51 99 91 51 61 67 100 57 93 81 78 53 64 75 63 57 55 78 86 53 51 60 91 54 51 59 50 94 54 96 54 51 392 66 69
internal_value=-0.704643 -0.575649 -0.443013 -0.417592 -0.443363 -0.497079 -0.417259 -0.37884 -0.523218 -0.540522 -0.357097 -0.333403 -0.41213 -0.372577 -0.407398 -0.422869 -0.383856 -0.489593 -0.600861 -0.400241 -0.421762 -0.490713 -0.387379 -0.365204 -0.394272 -0.418146 -0.445795 -0.488181 -0.370841 -0.353331 -0.293622 -0.385328 -0.426438 -0.241741 -0.352153 -0.437031 -0.487225 -0.305638 -0.547689 -0.427455 -0.429325 -0.430137 -1.0035 -1.0035 -1.0035
internal_weight=0 828.794 632.663 605.214 363.483 118.873 244.609 241.731 101.607 88.9891 161.818 113.118 48.7005 79.249 225.129 79.9131 50.0287 48.2577 40.7313 213.175 123.079 40.9527 82.1267 64.8602 48.2577 47.1509 35.8613 29.8844 90.0959 71.0584 24.793 46.2655 34.3117 33.869 28.5562 27.8921 23.2434 32.098 24.5716 32.9835 23.6861 23.022 196.13 109.355 27.4494
internal_count=5360 3744 2858 2734 1642 537 1105 1092 459 402 731 511 220 358 1017 361 226 218 184 963 556 185 371 293 218 213 162 135 407 321 112 209 155 153 129 126 105 145 111 149 107 104 886 494 124
is_linear=0
shrinkage=1


Tree=1
num_leaves=48
num_cat=0
split_feature=2 7 7 8 1 1 3 5 3 5 1 3 3 3 8 5 3 8 1 3 1 3 6 1 1 3 8 3 3 8 5 3 3 5 6 8 0 8 1 3 3 1 3 0 1 3 3
split_gain=795.099 752.062 137.217 7.60685 8.21203 27.7945 6.16579 6.22285 5.28163 4.69226 4.07717 6.12161 6.34721 4.57283 3.72247 3.0736 4.11718 3.04683 3.67768 5.48201 2.66137 3.51819 2.27021 1.99667 3.21835 1.91621 2.14654 1.88752 2.79604 2.42084 1.58152 1.72881 1.4736 1.46081 1.24049 1.7117 4.06516 3.26383 1.43012 1.29905 0.856266 0.481499 0.124581 1.13687e-13 5.68434e-14 5.68434e-14 7.10543e-15
threshold=4.5000000000000009 94402.000000000015 94406.000000000015 47.633054733276374 1.0000000180025095e-35 20.500000000000004 129101.50000000001 20.500000000000004 163105.50000000003 8.5000000000000018 26.500000000000004 139777.00000000003 134121.50000000003 143234.50000000003 95.199695587158217 5.5000000000000009 140681.50000000003 58.697479248046882 22.500000000000004 198345.00000000003 20.500000000000004 140009.00000000003 5.5000000000000009 33.500000000000007 39.500000000000007 143238.50000000003 83.178913116455092 183086.50000000003 174252.50000000003 73.313842773437514 5.5000000000000009 143234.50000000003 140214.50000000003 14.500000000000002 13.500000000000002 95.346321105957045 10.500000000000002 88.380489349365249 33.500000000000007 140009.00000000003 198316.00000000003 24.500000000000004 160215.50000000003 10.500000000000002 42.500000000000007 164523.00000000003 182894.00000000003
decision_type=2 2 2 2 2 2 2 2 2 2 2 2 2 2 2 2 2 2 2 2 2 2 2 2 2 2 2 2 2 2 2 2 2 2 2 2 2 2 2 2 2 2 2 2 2 2 2
left_child=1 44 3 9 33 -6 -7 17 14 15 20 12 -12 -13 25 16 -3 -8 -19 27 -11 -22 -16 42 -25 26 -9 28 29 -20 31 -31 -17 -5 35 37 -37 39 -38 -32 -10 -23 -15 45 -1 -2 -47
right_child=43 2 -4 4 5 6 7 8 40 10 11 13 -14 23 22 32 -18 18 19 -21 21 41 -24 24 -26 -27 -28 -29 -30 30 34 -33 -34 -35 -36 36 38 -39 -40 -41 -42 -43 -44 -45 -46 46 -48
leaf_value=-0.27331881530522134 -0.27331881530522134 0.29103799553252624 -0.27331881530522134 0.12859393598956831 0.49985869255352028 0.29607110884288451 0.10553985449588442 0.16460781782137734 0.25082768177563947 0.2729053991448615 0.29901921286341587 0.37788122837943389 0.13558744938097941 0.30546135242164724 0.21228463600648087 0.095894620378612849 0.16761953463055951 0.12871948189316681 0.30678114333038559 0.087036375461171725 0.26789624233014042 0.11485068720746237 0.11771589320685955 0.19037822425165421 0.30005551567624905 0.011575199300533655 0.044677397689207393 0.30144924245764915 0.14991250953824412 0.29909928380284684 0.14413432563721601 0.20392207896658832 0.18782413478062418 0.030054367106956987 0.25958042909685758 0.081911136740218701 0.17947492233749157 0.30809383583513217 0.26531317017789413 0.22833731338054619 0.17928824282370176 0.16881968475987374 0.33354577800675989 -0.27331881530522134 -0.27331881530522134 -0.27331881530522129 -0.27331881530522134
leaf_weight=147.80915366113186 141.1351679712534 20.715774178504944 24.34041839838028 12.113706141710283 11.980313524603842 20.721610724925995 12.385867625474928 12.156398028135301 15.29903067648411 17.888106271624565 16.779295235872269 23.267528936266899 21.926852241158485 12.357326805591585 17.911086246371269 14.055294066667559 22.614844262599945 21.390116482973099 14.356973916292189 12.357481792569159 12.389235764741896 14.790732637047769 23.444774955511093 20.022421330213547 22.989837527275085 13.558216616511343 11.729401275515555 11.963341668248175 20.479237824678421 18.531933367252353 13.2210990190506 12.981101393699644 13.845282033085821 11.958126127719877 16.380155593156815 13.765749156475065 21.086059376597404 13.956021174788473 12.288200601935385 16.44425342977047 11.89611631631851 11.959077075123785 12.927672386169432 147.4165662676096 26.107061669230461 18.451607495546344 10.207272231578825
leaf_count=753 719 86 124 52 50 87 52 53 65 75 69 96 91 51 76 59 94 90 60 53 52 62 99 83 95 59 51 50 85 77 56 54 58 51 68 57 88 58 51 69 49 50 53 751 133 94 52
internal_value=0 0.0976629 0.192934 0.210316 0.192837 0.200195 0.190176 0.183676 0.143538 0.236979 0.253595 0.273119 0.206436 0.301307 0.117311 0.193287 0.226624 0.202046 0.207499 0.216018 0.208996 0.179787 0.158673 0.275219 0.249 0.0716274 0.105715 0.224612 0.219314 0.228603 0.220508 0.259893 0.141513 0.0796426 0.208924 0.199781 0.17336 0.228333 0.21108 0.19081 0.219534 0.138979 0.31982 -0.273319 -0.273319 -0.273319 -0.273319
internal_weight=0 851.142 677.226 652.886 394.356 370.285 358.304 337.583 105.995 258.529 187.298 130.271 38.7061 91.5648 78.7999 71.2312 43.3306 231.588 219.202 197.812 57.0272 39.139 41.3559 68.2973 43.0123 37.444 23.8858 185.454 173.491 153.012 138.655 31.513 27.9006 24.0718 107.142 90.7614 47.14 43.6214 33.3743 29.6654 27.1951 26.7498 25.285 317.211 173.916 169.794 28.6589
internal_count=5360 3744 2858 2734 1660 1557 1507 1420 452 1074 777 538 160 378 338 297 180 968 916 826 239 164 175 282 178 163 104 773 723 638 578 131 117 103 447 379 196 183 139 125 114 112 104 1616 886 865 146
is_linear=0
shrinkage=0.2


Tree=2
num_leaves=50
num_cat=0
split_feature=2 7 7 1 1 5 6 1 5 8 5 3 5 5 6 3 5 8 5 3 3 3 1 8 3 3 6 1 0 5 6 5 3 3 8 0 3 5 3 3 5 1 1 1 1 1 7 1 1
split_gain=576.394 510.663 89.7992 4.97258 26.5248 7.33775 4.71184 4.76509 6.25747 5.19089 12.4295 5.14729 7.71244 6.53221 3.91543 4.21207 3.32982 3.2583 3.24338 3.7554 7.50267 3.05976 2.68464 3.45755 4.61374 2.61761 2.46566 1.92908 3.14751 1.93379 1.92349 2.0055 2.79563 1.73475 1.71016 5.03912 1.44632 1.23511 1.0572 1.90091 0.726085 0.721543 0.637528 0.592917 0.0985017 5.68434e-14 5.68434e-14 1.42109e-14 7.10543e-15
threshold=4.5000000000000009 94402.000000000015 94406.000000000015 1.0000000180025095e-35 20.500000000000004 22.500000000000004 2.5000000000000004 22.500000000000004 18.500000000000004 47.633054733276374 20.500000000000004 143234.50000000003 4.5000000000000009 8.5000000000000018 13.500000000000002 174496.50000000003 20.500000000000004 84.635734558105483 8.5000000000000018 139540.50000000003 134121.50000000003 140210.50000000003 40.500000000000007 81.405803680419936 175954.50000000003 129101.50000000001 9.5000000000000018 25.500000000000004 10.500000000000002 15.500000000000002 10.500000000000002 5.5000000000000009 138395.50000000003 143237.50000000003 92.206478118896499 10.500000000000002 143608.50000000003 18.500000000000004 140681.50000000003 153804.00000000003 12.500000000000002 25.500000000000004 37.500000000000007 34.500000000000007 31.500000000000004 47.500000000000007 89757.500000000015 30.500000000000004 52.500000000000007
decision_type=2 2 2 2 2 2 2 2 2 2 2 2 2 2 2 2 2 2 2 2 2 2 2 2 2 2 2 2 2 2 2 2 2 2 2 2 2 2 2 2 2 2 2 2 2 2 2 2 2
left_child=1 46 3 16 -5 6 34 8 17 18 11 21 -13 -14 15 40 36 -8 38 20 -20 25 23 -12 26 -11 41 -21 37 43 31 -27 -33 -31 35 -6 -3 -29 42 -40 -15 -25 -9 -30 -37 -2 -1 -48 -47
right_child=45 2 -4 4 5 -7 7 9 -10 10 22 12 13 14 -16 -17 -18 -19 19 27 -22 -23 -24 24 -26 30 -28 28 29 33 -32 32 -34 -35 -36 44 -38 -39 39 -41 -42 -43 -44 -45 -46 48 47 -49 -50
leaf_value=-0.25578461613744918 -0.25578461613744918 0.095875149872490864 -0.25578461613744918 0.40077233560736442 0.08759539663825236 0.29818708571548458 -0.04323691692452776 0.13810775663468683 0.1893904734651651 0.26620980476044742 -0.01449081168533582 0.030915908990436461 0.27344209099786121 0.11929052849464401 0.22849032692170657 0.029705064350766749 0.028628460897795496 0.094421156227815883 0.21929432673896387 0.14822053558440854 0.030816461875653157 0.27383996245104786 0.16249538961054766 0.045998096401284466 0.19399554657460694 0.21238779997615609 -0.019292408911405531 0.21637314776737579 0.17743043092843347 0.32535509861639356 0.22246338537591331 0.068351450595743379 0.18045551951242697 0.24103632838571715 0.25893969176618237 0.22640234673422466 0.19077982571395258 0.13639582592685859 0.05263277541111288 0.16081629356341404 0.17805682293265801 0.10617736575283057 0.19989965637284995 0.23720968286835953 0.25145695890480435 -0.25578461613744913 -0.25578461613744918 -0.25578461613744918 -0.25578461613744918
leaf_weight=107.94422060251236 247.09506422281265 13.095730051398279 21.145471334457397 18.879701495170593 13.470470324158667 15.00761143863201 12.931683674454689 14.58015660941601 15.307454168796538 12.681453019380568 17.586464017629623 22.086488828063011 17.248889207839966 15.763091042637823 14.079449921846388 17.477228254079819 17.148076832294464 14.691500946879387 19.705524876713753 15.465253099799154 14.787700012326239 18.125556036829948 12.753031745553015 12.340104848146437 12.583569735288618 13.437207236886023 12.301307767629622 13.893492147326471 13.430287703871729 16.873772874474525 18.325947716832161 18.687316954135895 16.986189156770706 23.150457546114922 19.513285994529724 12.276249319314958 12.60628694295883 17.393130242824554 12.272633552551271 13.804621979594229 18.028358399868011 22.500914812088013 12.324094936251639 13.120180666446684 12.843166828155516 16.541215479373935 23.021279275417328 20.122303366661072 11.936959624290465
leaf_count=633 1449 54 124 76 55 61 53 59 63 51 74 90 70 64 57 72 71 60 79 63 60 73 52 51 51 54 52 56 54 68 74 76 69 93 79 50 52 70 50 56 73 94 50 53 52 97 135 118 70
internal_value=0 0.0773646 0.150028 0.162806 0.167299 0.160071 0.156586 0.150729 0.0868179 0.156286 0.13931 0.166753 0.135896 0.163967 0.135071 0.109416 0.0968843 0.0299771 0.181056 0.196273 0.138491 0.199634 0.0774772 0.063453 0.0864038 0.182845 0.0576846 0.21386 0.224233 0.248822 0.167169 0.146535 0.121731 0.276584 0.210687 0.186288 0.142424 0.171911 0.138599 0.109902 0.150643 0.0848629 0.166413 0.206971 0.239212 -0.255785 -0.255785 -0.255785 -0.255785
internal_weight=0 843.798 692.711 671.565 628.715 609.835 594.828 536.725 42.9306 493.794 292.993 202.927 104.684 82.597 65.3481 51.2687 42.8501 27.6232 200.801 147.82 34.4932 98.2437 90.0654 77.3124 59.7259 80.1181 47.1423 113.327 97.8613 66.5747 67.4367 49.1107 35.6735 40.0242 58.1032 38.5899 25.702 31.2866 52.9815 26.0773 33.7914 34.841 26.9043 26.5505 25.1194 275.573 151.088 43.1436 28.4782
internal_count=5360 3744 2858 2734 2557 2481 2420 2184 176 2008 1197 823 426 336 266 209 177 113 811 596 139 397 374 322 248 324 197 457 394 268 273 199 145 161 236 157 106 126 215 106 137 145 109 107 102 1616 886 253 167
is_linear=0
shrinkage=0.2


Tree=3
num_leaves=50
num_cat=0
split_feature=2 7 7 8 1 1 0 3 5 8 5 1 3 0 3 3 3 3 3 8 1 6 1 0 1 5 5 0 8 3 8 3 3 3 1 3 1 1 6 3 1 0 1 5 3 1 0 1 1
split_gain=429.007 359.42 61.3138 3.76412 3.87917 5.01611 3.16613 2.51445 2.48185 2.21743 2.28181 2.35407 2.28053 2.7869 2.22595 2.10473 2.00954 1.99416 1.90139 1.83555 3.15008 2.85157 1.71513 1.74918 1.69995 6.45577 4.46247 3.15192 3.67608 1.84106 2.19339 4.05431 2.12306 2.54781 2.08402 2.02724 1.62981 1.55284 2.28069 1.06609 1.02108 0.950367 1.26367 0.501415 0.197524 5.68434e-14 2.84217e-14 1.42109e-14 3.55271e-15
threshold=4.5000000000000009 94402.000000000015 94406.000000000015 50.108224868774421 1.0000000180025095e-35 21.500000000000004 10.500000000000002 129101.50000000001 20.500000000000004 25.19841289520264 8.5000000000000018 26.500000000000004 139777.00000000003 10.500000000000002 143234.50000000003 155456.50000000003 155304.50000000003 134897.50000000003 134121.50000000003 95.199695587158217 36.500000000000007 8.5000000000000018 29.500000000000004 10.500000000000002 26.500000000000004 10.500000000000002 14.500000000000002 10.500000000000002 94.28104400634767 143244.50000000003 90.041816711425795 160524.00000000003 140209.00000000003 139543.50000000003 39.500000000000007 180008.50000000003 30.500000000000004 20.500000000000004 5.5000000000000009 142832.50000000003 27.500000000000004 9.5000000000000018 34.500000000000007 14.500000000000002 140210.50000000003 40.500000000000007 7.5000000000000009 51.500000000000007 29.500000000000004
decision_type=2 2 2 2 2 2 2 2 2 2 2 2 2 2 2 2 2 2 2 2 2 2 2 2 2 2 2 2 2 2 2 2 2 2 2 2 2 2 2 2 2 2 2 2 2 2 2 2 2
left_child=1 46 3 9 43 6 -6 -7 24 10 22 37 18 15 -15 -14 -16 -10 -13 20 40 36 44 -24 25 27 -27 -9 -29 32 35 -32 33 41 -34 -31 -21 -12 -39 -25 -19 -26 -43 -5 -3 -2 -1 -47 -4
right_child=45 2 48 4 5 7 -8 8 17 -11 11 12 13 14 16 -17 -18 19 -20 21 -22 -23 23 39 29 26 -28 28 -30 30 31 -33 34 -35 -36 -37 -38 38 -40 -41 -42 42 -44 -45 -46 47 -48 -49 -50
leaf_value=-0.24319452197673053 -0.24319452197673053 0.16635116984531664 -0.24319452197673042 0.06879874399533803 0.1390227169487066 0.18347699983698196 0.28351778261521171 0.22301410780134956 0.01061243152287286 0.20767956314007507 0.16956999772853165 0.18156924030016011 0.18349881750749572 0.27519227900520205 0.14185977694943411 0.07444843367163588 0.22974368004322676 0.07131708534632808 0.089183960819388841 0.18851408159146943 0.15228584970431891 0.039514943112864104 0.028942539207052309 0.15730725663770051 0.19760912436528924 -0.060028110129050787 0.1001924898066088 0.029160526758788954 0.17967761845357866 0.10457321374720466 -0.016561014811494447 0.12754361196800632 0.22864382563332919 0.051473996036045327 0.12972125539303922 0.20261094636364657 0.10570905583748663 0.055384630056289345 0.15487184693235762 0.076040604274770565 -0.0018118101243594616 0.091523333461378156 0.17526248333198891 0.012094301759610057 0.13306048076070504 -0.24319452197673053 -0.24319452197673053 -0.24319452197673053 -0.24319452197673053
leaf_weight=47.909866333007812 178.78559875488281 13.658677354454996 9.0561332702636737 12.771367698907854 12.267348140478134 21.073303118348122 11.99852579832077 14.570397496223448 12.129086822271345 22.776449605822563 17.343841880559921 15.323620483279226 16.450916931033138 16.332316696643829 19.778932809829712 12.427564576268194 21.964629232883453 14.27575793862343 21.293574750423431 20.286115318536758 12.212463244795797 12.460000500082968 14.367515355348585 12.701549023389818 13.129934653639792 13.335136890411379 14.529788598418234 12.58182081580162 13.406059935688972 20.115762606263161 12.444439589977263 20.967645943164825 22.643921375274658 12.932431101799009 13.656125605106352 14.53148630261421 17.895067691802979 21.881605848670006 15.925107195973395 13.133466660976408 16.423794060945511 14.659701839089395 14.18169556558132 12.192789375782011 14.912787869572638 45.426733016967773 81.505199432373047 11.831399917602537 9.0561332702636701
leaf_count=328 1224 55 62 52 51 85 50 59 50 92 70 62 66 68 80 50 89 59 86 82 50 51 58 51 53 54 59 51 54 81 50 85 91 52 55 59 72 88 64 53 70 59 57 51 60 311 558 81 62
internal_value=0 0.0627291 0.119937 0.129696 0.117466 0.1225 0.21047 0.116477 0.112242 0.147963 0.142467 0.15438 0.169714 0.187346 0.212594 0.13657 0.188103 0.0869124 0.127845 0.0968046 0.0663715 0.122593 0.11151 0.0848841 0.123998 0.0976329 0.0235168 0.148553 0.106806 0.135326 0.110433 0.0738714 0.153901 0.12909 0.191429 0.145691 0.149704 0.120021 0.0972911 0.115995 0.0321942 0.153005 0.132699 0.0411036 0.148975 -0.243195 -0.243195 -0.243195 -0.243195
internal_weight=0 821.472 692.057 673.945 403.672 378.708 24.2659 354.442 333.369 270.273 247.496 178.722 123.572 86.9544 58.0759 28.8785 41.7436 105.682 36.6172 93.5532 42.912 50.6412 68.774 40.2025 227.686 68.4232 27.8649 40.5583 25.9879 159.263 68.0593 33.4121 91.2038 54.9038 36.3 34.6472 38.1812 55.1506 37.8067 25.835 30.6996 41.9713 28.8414 24.9642 28.5715 236.044 129.415 57.2581 18.1123
internal_count=5360 3744 2858 2734 1642 1539 101 1438 1353 1092 1000 723 501 353 237 116 169 434 148 384 179 205 277 162 919 277 113 164 105 642 275 135 367 221 146 140 154 222 152 104 129 169 116 103 115 1616 886 392 124
is_linear=0
shrinkage=0.2


Tree=4
num_leaves=47
num_cat=0
split_feature=2 7 7 6 5 3 5 3 3 1 5 8 5 3 5 8 0 3 3 3 0 8 6 6 1 1 3 0 8 8 3 3 5 8 3 8 8 3 1 3 1 0 3 0 1 3
split_gain=324.99 258.789 42.9848 3.3207 4.54634 3.23697 4.75221 8.47379 4.1421 5.36694 4.0345 4.12306 6.13621 3.74504 6.01619 6.29637 2.87439 2.69762 2.53235 2.49386 2.33315 5.33819 4.24408 2.23762 2.13594 1.83818 2.12723 1.7319 1.55784 1.54132 1.41265 2.47171 1.42987 1.2025 3.28001 1.00638 2.48031 1.97459 1.71122 0.938233 0.665238 0.370588 0.326454 5.68434e-14 2.84217e-14 1.42109e-14
threshold=4.5000000000000009 94402.000000000015 94406.000000000015 3.5000000000000004 22.500000000000004 143234.50000000003 4.5000000000000009 153804.00000000003 140009.00000000003 25.500000000000004 21.500000000000004 32.504329681396491 8.5000000000000018 134121.50000000003 10.500000000000002 76.043479919433608 10.500000000000002 182702.50000000003 143606.50000000003 182701.50000000003 9.5000000000000018 94.28104400634767 12.500000000000002 6.5000000000000009 45.500000000000007 24.500000000000004 145532.00000000003 10.500000000000002 81.62280654907228 92.64068984985353 138432.50000000003 139542.50000000003 18.500000000000004 84.635734558105483 145121.50000000003 79.86456680297853 20.02506256103516 129101.50000000001 34.500000000000007 175955.50000000003 28.500000000000004 10.500000000000002 140210.50000000003 7.5000000000000009 50.500000000000007 134896.50000000003
decision_type=2 2 2 2 2 2 2 2 2 2 2 2 2 2 2 2 2 2 2 2 2 2 2 2 2 2 2 2 2 2 2 2 2 2 2 2 2 2 2 2 2 2 2 2 2 2
left_child=1 44 3 18 5 8 7 -7 13 16 11 24 -13 35 15 -15 -10 -9 -3 20 21 -14 33 -21 25 -8 -27 -20 -29 40 32 -32 -16 -22 -35 36 38 -37 -5 -28 -11 -42 -43 45 -1 -2
right_child=43 2 -4 4 -6 6 10 17 9 29 -12 12 19 14 30 -17 -18 -19 27 23 22 -23 -24 -25 -26 26 39 28 -30 -31 31 -33 -34 34 -36 37 -38 -39 -40 -41 41 42 -44 -45 -46 -47
leaf_value=-0.23386964454555625 -0.23386964454555625 0.091188940725660972 -0.23386964454555625 0.15294422097717508 0.20292617454499459 -0.11714299276897699 0.089319899698108274 0.14129188070952187 0.15179520333466989 0.15168483740257316 0.0024963304616141191 0.18185852883752537 0.067799978952380699 0.028594652845911429 -0.036316117596626916 0.20410720355794187 0.035861964551784468 0.015980918663495415 0.12018455793997072 0.069048941073151474 0.050950774710757145 -0.10105965196071345 -0.017217671993836101 0.17179272226547376 0.062874240973430168 0.21737694179550462 0.10881194863456685 0.24408430849147669 0.15330011874856694 0.12126053309626852 0.12406688563961316 0.0092561161765744877 0.042191892090803235 0.063842964431728211 0.19511446320985354 0.15168404260924018 0.21416580640821656 0.058189677695086463 0.061516690770139271 0.17688180847562227 0.17675669189720078 0.19241099509689705 0.23615267079633498 -0.23386964454555625 -0.23386964454555625 -0.23386964454555625
leaf_weight=103.4140245243907 16.96733096987009 22.70526322722435 15.357292264699934 19.451549351215363 16.613398313522339 12.688346803188322 16.056784361600876 14.14830566942692 13.957111179828642 12.505474150180815 18.601496085524559 20.148664057254791 19.045200869441032 13.35264579951763 16.59979747235775 21.088293567299843 22.099005669355392 13.360925972461699 16.362894549965858 22.552183672785759 13.35769474506378 12.341235160827638 16.737381339073181 13.587021812796591 13.860483154654501 20.401147365570068 20.544711723923683 15.903300777077675 14.412890747189522 15.956602692604063 14.765005379915239 15.244794502854345 21.043023288249969 16.94889356195927 13.823278725147246 16.341400653123856 14.195731878280638 20.211527973413467 14.142214506864546 13.370900467038153 13.196058273315428 11.927996993064882 15.952099919319151 126.69766118377447 6.3163056895136824 56.475203812122345
leaf_count=835 137 92 124 79 68 51 65 57 57 52 76 82 78 54 67 86 90 54 66 92 55 50 68 55 57 83 84 65 59 65 60 62 86 69 56 67 58 83 58 55 54 51 68 1023 51 456
internal_value=0 0.0512803 0.0969612 0.104549 0.0997601 0.0968233 0.0819167 0.018066 0.111707 0.143356 0.0921271 0.0992896 0.0792453 0.0937807 0.0680165 0.136062 0.080739 0.0804297 0.145974 0.0631422 0.0456964 0.0014039 0.068536 0.107677 0.134637 0.148771 0.166345 0.172621 0.200924 0.175824 0.0333758 0.0657437 0.00757129 0.10106 0.122812 0.124967 0.144074 0.0999874 0.114455 0.135648 0.192073 0.204369 0.217439 -0.23387 -0.23387 -0.23387
internal_weight=0 794.69 684.96 669.603 600.218 583.605 291.575 40.1976 292.03 105.594 251.377 232.776 148.542 186.436 102.094 34.4409 36.0561 27.5092 69.3843 128.393 92.2537 31.3864 60.8672 36.1392 84.234 70.3735 54.3168 46.6791 30.3162 69.5382 67.6526 30.0098 37.6428 44.1299 30.7722 84.3424 47.7895 36.5529 33.5938 33.9156 53.5816 41.0762 27.8801 200.14 109.73 73.4425
internal_count=5360 3744 2858 2734 2452 2384 1187 162 1197 437 1025 949 605 760 415 140 147 111 282 523 376 128 248 147 344 287 222 190 124 290 275 122 153 180 125 345 195 150 137 139 225 173 119 1616 886 593
is_linear=0
shrinkage=0.2


Tree=5
num_leaves=48
num_cat=0
split_feature=2 7 4 6 3 1 5 3 1 1 3 5 6 8 8 1 5 5 3 3 5 5 3 3 3 5 1 8 8 1 1 8 8 8 1 1 3 1 8 8 8 5 3 3 0 1 1
split_gain=249.549 189.696 20.1411 2.49531 3.35095 2.99571 2.83092 5.60883 2.82968 3.28727 2.65568 2.43297 3.3153 3.10906 2.65464 2.36254 2.05393 4.09126 1.98948 1.92065 1.76972 3.21723 1.70087 3.9794 4.55467 2.31778 2.12341 1.41081 1.40783 1.37951 2.46539 2.21849 1.08768 0.979045 0.94707 1.49676 2.41242 0.803917 0.803473 0.766547 0.665835 0.543086 0.491381 0.46291 5.68434e-14 2.84217e-14 1.42109e-14
threshold=4.5000000000000009 94402.000000000015 2.5000000000000004 2.5000000000000004 143234.50000000003 20.500000000000004 4.5000000000000009 149721.50000000003 1.0000000180025095e-35 21.500000000000004 140213.50000000003 11.500000000000002 5.5000000000000009 93.288288116455092 41.602191925048835 24.500000000000004 5.5000000000000009 8.5000000000000018 139542.50000000003 143606.50000000003 18.500000000000004 9.5000000000000018 139777.00000000003 134121.50000000003 134507.00000000003 18.500000000000004 31.500000000000004 68.55041885375978 81.62280654907228 35.500000000000007 31.500000000000004 85.634922027587905 90.041816711425795 82.018520355224624 39.500000000000007 33.500000000000007 145532.00000000003 28.500000000000004 68.517951965332045 63.094099044799812 71.62280654907228 20.500000000000004 160892.50000000003 155456.50000000003 9.5000000000000018 27.500000000000004 47.500000000000007
decision_type=2 2 2 2 2 2 2 2 2 2 2 2 2 2 2 2 2 2 2 2 2 2 2 2 2 2 2 2 2 2 2 2 2 2 2 2 2 2 2 2 2 2 2 2 2 2 2
left_child=1 45 -3 19 5 39 7 -6 -8 -10 15 12 -11 40 34 20 18 -18 -17 -4 21 -7 23 25 -25 -19 -26 -12 -21 30 31 -16 -31 -9 35 36 -13 -24 -39 -5 43 -33 -43 -14 -2 -1 -46
right_child=44 2 3 4 6 10 8 33 9 11 27 14 13 -15 29 16 17 22 -20 28 -22 -23 37 24 26 -27 -28 -29 -30 32 -32 41 -34 -35 -36 -37 -38 38 -40 -41 -42 42 -44 -45 46 -47 -48
leaf_value=-0.22680663033822027 -0.22680663033822027 -0.1732774436366078 0.07337363924705971 0.12689465276389975 -0.09807935017254614 0.070868564418350072 -0.0087708813756436285 0.10092003632850717 0.17139133845680526 0.17341643184362385 0.19969514572234864 0.17672587048272334 0.094515581708340957 0.15689431326949232 -0.024299901006887222 0.17348711892706903 0.0053561046354895728 0.18399661795983349 0.072055539113250786 0.18063593648798351 0.090090463127515827 -0.066345781204165011 0.089277932157146453 -0.031340964510390139 0.035055429657285565 0.086491456196238742 0.12838153259814108 0.10752391896837776 0.10824259996509306 0.10998718977095222 -0.056474567225530625 0.034249453321101749 0.036474765895715716 0.026495722859255656 0.12989712926993596 0.021951188868472742 0.060657246066999543 0.17965421347235327 0.11067057091541269 0.19852989575366289 0.0085286808252165638 0.055854331942028504 0.11226904826118392 0.039683545424991418 -0.22680663033822027 -0.22680663033822027 -0.22680663033822027
leaf_weight=37.207378886640072 77.437205918133259 12.441345334053038 22.587319135665894 11.971572607755663 12.155265770852564 15.243476413190367 16.142096638679504 14.394276447594168 14.111595764756201 19.400210782885551 11.921035408973696 10.745791524648665 11.506378605961801 13.941435322165487 15.149386234581469 21.35675897449255 23.595772609114647 17.741177022457123 12.12691957503557 22.07492995262146 17.882118530571461 12.391204252839087 13.183058947324751 19.311700269579887 17.468672335147858 21.653869725763798 22.075440406799316 15.00199234485626 20.935885973274708 15.568800322711466 13.023439325392244 13.787595123052595 16.672256276011467 13.895400770008562 17.510773159563541 14.481988050043581 21.482033617794514 15.387212328612806 12.036758013069628 11.928898006677626 12.491239592432974 12.468971818685533 12.236425936222075 13.251326076686381 77.854095317423344 55.13362305611372 13.132016077637671
leaf_count=357 743 83 92 49 51 63 66 59 62 81 51 45 49 57 64 90 98 74 51 92 73 50 56 78 71 91 90 63 87 65 54 57 69 58 75 62 97 72 51 52 51 52 52 55 747 529 126
internal_value=0 0.042043 0.0788366 0.0835726 0.0795022 0.0947981 0.0648163 0.0155436 0.0723657 0.0776504 0.0887557 0.0719905 0.103011 0.076328 0.0585671 0.0821123 0.0916475 0.082351 0.136751 0.120598 0.0410659 0.00934258 0.0954346 0.0812043 0.048274 0.130402 0.0871546 0.148336 0.145398 0.0380085 0.0215825 0.0405334 0.071973 0.0643641 0.0902296 0.0753588 0.0993583 0.129865 0.149376 0.162648 0.0461738 0.0660493 0.0837962 0.0651673 -0.226807 -0.226807 -0.226807
internal_weight=0 767.075 674.734 662.292 596.694 292.278 304.417 40.4449 263.972 247.83 268.377 233.718 70.5906 51.1904 163.127 241.454 195.937 162.454 33.4837 65.5981 45.5168 27.6347 138.858 98.2509 58.8558 39.395 39.5441 26.923 43.0108 98.9069 66.6658 53.6424 32.2411 28.2897 64.2206 46.7098 32.2278 40.607 27.424 23.9005 37.2489 38.493 24.7054 24.7577 168.423 92.341 90.9861
internal_count=5360 3744 2858 2775 2504 1223 1281 168 1113 1047 1122 985 293 212 692 1008 822 681 141 271 186 113 583 404 239 165 161 114 179 413 279 225 134 117 279 204 142 179 123 101 155 161 104 104 1616 886 873
is_linear=0
shrinkage=0.2


Tree=6
num_leaves=49
num_cat=0
split_feature=2 7 4 5 5 8 1 1 1 8 0 6 5 1 3 3 5 3 3 8 5 5 1 3 8 8 0 1 5 8 8 8 1 8 0 6 1 5 5 1 3 1 3 1 3 3 1 7
split_gain=193.745 141.076 13.5082 2.08835 2.45071 3.94382 2.39637 16.6275 3.74598 2.78018 2.07997 1.58287 3.23513 3.00002 1.50244 3.67256 2.06283 1.73725 2.84323 3.7253 2.12786 3.4 2.51889 3.6958 2.06713 1.79748 2.40881 2.38293 3.13156 2.26934 2.86789 1.6028 2.1088 1.86722 4.76686 1.58084 1.57484 2.15613 1.44947 1.44507 1.82589 1.21717 1.01069 0.81249 0.757579 0.843927 1.42109e-14 3.55271e-15
threshold=4.5000000000000009 94402.000000000015 2.5000000000000004 22.500000000000004 21.500000000000004 85.634922027587905 20.500000000000004 1.0000000180025095e-35 22.500000000000004 92.880565643310561 10.500000000000002 2.5000000000000004 14.500000000000002 29.500000000000004 129101.50000000001 129847.00000000001 17.500000000000004 134121.50000000003 134507.00000000003 72.928920745849624 4.5000000000000009 6.5000000000000009 41.500000000000007 140681.50000000003 84.170478820800795 41.602191925048835 10.500000000000002 25.500000000000004 20.500000000000004 62.533422470092781 74.933155059814467 81.067951202392592 30.500000000000004 90.041816711425795 10.500000000000002 5.5000000000000009 31.500000000000004 12.500000000000002 14.500000000000002 25.500000000000004 143232.50000000003 35.500000000000007 143240.50000000003 36.500000000000007 140214.50000000003 155456.50000000003 38.500000000000007 87764.500000000015
decision_type=2 2 2 2 2 2 2 2 2 2 2 2 2 2 2 2 2 2 2 2 2 2 2 2 2 2 2 2 2 2 2 2 2 2 2 2 2 2 2 2 2 2 2 2 2 2 2 2
left_child=1 46 -3 4 6 -6 7 10 9 38 -4 12 13 -10 16 -16 -13 -17 19 -19 22 41 23 -20 -25 26 44 -28 36 -27 -31 -32 39 -34 -35 -30 -29 -38 -8 42 -41 -22 -33 -36 -23 -46 -1 -48
right_child=-2 2 3 -5 5 -7 8 -9 11 -11 -12 14 -14 -15 15 17 -18 18 20 -21 21 25 -24 24 -26 29 27 28 35 30 31 32 33 34 43 -37 37 -39 -40 40 -42 -43 -44 -45 45 -47 47 -49
leaf_value=-0.2213669087797645 -0.2213669087797645 -0.14950821486040819 -0.026055417047632885 0.13750231466630616 0.074561572054209935 -0.069086132050550766 -0.071796487938632358 0.28581404967155299 0.1401083757520438 0.071846582885766341 0.072761999720710138 0.15751614935533695 0.16695400494148382 0.013184759635666782 -0.041557933062527717 0.12166909652506097 0.050510240955036416 -0.074081943033134465 0.09678675046295715 0.070384522765306559 0.10457489937053757 0.0030936334987525312 0.11081115483071208 -0.080787368015389008 0.02489966538958989 -0.019118800733057342 0.021228671292730449 0.14719994246128459 0.13422559475320647 0.14582813841406536 0.00020945945416403413 0.020320493274022442 0.092930806612391351 -0.078077000883454095 0.099201111144990473 0.2409503072390507 0.11670637158480385 0.0045560286613021 0.021257622503534565 0.17274727060926473 0.078193625551231924 0.18736457947175919 0.096098844312489273 0.030196428073101939 0.1042230685046593 0.030427440074711456 -0.22136690877976442 -0.2213669087797645
leaf_weight=60.172108188271523 140.92482149600983 11.629124566912649 13.184573844075201 16.82577195763588 17.356308914721012 13.663472659885885 15.117857851088049 15.232495725154875 12.315163627266886 17.39327797293663 24.083668857812881 16.261072993278503 19.652734369039536 18.851935267448425 12.978113919496534 21.62921254336834 12.941221326589586 13.413576610386372 13.280175536870955 15.26524630188942 16.69337118417025 11.432701572775839 12.595716446638106 15.453373737633228 14.209244668483734 15.033705256879328 10.666433326900004 13.198258817195891 11.992572143673899 14.855551980435846 19.498141266405582 15.785395406186582 15.962394721806048 14.975669540464876 12.731607377529146 10.336571551859377 14.358104988932611 13.125174194574354 12.019019842147825 13.385020710527895 20.963914975523949 12.364658474922178 12.707931920886038 14.712513729929922 11.75092861056328 13.119340628385542 8.8950072973966616 8.1973596662282926
leaf_count=690 1616 83 54 73 75 56 62 74 52 71 98 71 82 79 54 92 55 55 57 63 71 48 52 66 59 63 46 59 60 62 81 65 67 62 52 48 61 57 51 56 89 53 53 62 52 57 102 94
internal_value=0 0.034432 0.0641524 0.0679553 0.066117 0.0112882 0.0689257 0.109761 0.0650491 0.00942584 0.0378029 0.0699202 0.103407 0.0633365 0.0662018 0.0632103 0.110096 0.0664828 0.0634522 0.00281508 0.0682141 0.0746797 0.0321661 0.00909846 -0.0301602 0.0679355 0.087873 0.10865 0.123449 0.0550833 0.0622536 0.0534309 0.0619912 0.0346235 0.0126827 0.18363 0.090416 0.0631468 -0.0305825 0.0874166 0.115039 0.139803 0.0541174 0.0622084 0.0457063 0.0652951 -0.221367 -0.221367
internal_weight=0 742.267 665.002 653.373 636.547 31.0198 605.528 52.5007 553.027 44.5302 37.2682 508.497 50.8198 31.1671 457.677 428.475 29.2023 415.497 393.867 28.6788 365.188 309.65 55.5385 42.9428 29.6626 280.592 109.98 73.6771 63.0107 170.612 155.578 140.723 121.224 58.3822 42.4198 22.3291 40.6815 27.4833 27.1369 62.8423 34.3489 29.058 28.4933 27.4441 36.303 24.8703 77.2645 17.0924
internal_count=5360 3744 2858 2775 2702 131 2571 226 2345 184 152 2161 213 131 1948 1822 126 1768 1676 118 1558 1324 234 182 125 1200 488 331 285 712 649 587 506 243 176 108 177 118 113 263 145 124 118 114 157 109 886 196
is_linear=0
shrinkage=0.2


Tree=7
num_leaves=52
num_cat=0
split_feature=2 7 3 1 1 6 3 3 1 6 5 8 5 8 8 8 8 3 1 8 0 8 8 8 3 6 5 1 8 8 1 3 6 1 1 3 3 1 8 0 1 5 6 3 3 1 0 0 3 3 7
split_gain=151.908 106.428 1.51345 2.58919 14.2895 5.13422 1.63701 1.79243 1.88061 1.55233 2.05671 1.81232 4.34857 2.89518 2.10615 2.25421 1.85439 1.85792 2.98972 3.27178 2.68559 5.22769 2.56133 2.55674 1.76268 1.99505 3.65074 2.07432 1.75598 3.09727 1.70373 1.45271 1.84812 1.69285 1.47386 1.10374 0.958419 1.27109 3.20367 2.35949 1.27009 0.790592 0.553242 0.388241 0.31504 0.267891 2.84217e-14 1.42109e-14 1.42109e-14 7.10543e-15 3.55271e-15
threshold=4.5000000000000009 94402.000000000015 133687.00000000003 1.0000000180025095e-35 20.500000000000004 5.5000000000000009 129847.00000000001 129101.50000000001 35.500000000000007 2.5000000000000004 22.500000000000004 8.3570075035095233 20.500000000000004 16.878787994384769 35.75188064575196 58.387445449829109 68.517951965332045 198364.50000000003 24.500000000000004 89.147258758544936 9.5000000000000018 92.880565643310561 92.880565643310561 85.337120056152358 134123.50000000003 12.500000000000002 14.500000000000002 25.500000000000004 92.206478118896499 68.55041885375978 33.500000000000007 175774.50000000003 5.5000000000000009 33.500000000000007 40.500000000000007 143619.50000000003 134896.50000000003 38.500000000000007 87.840488433837905 9.5000000000000018 31.500000000000004 17.500000000000004 8.5000000000000018 143619.50000000003 160524.00000000003 26.500000000000004 10.500000000000002 7.5000000000000009 198311.50000000003 160107.50000000003 95579.000000000015
decision_type=2 2 2 2 2 2 2 2 2 2 2 2 2 2 2 2 2 2 2 2 2 2 2 2 2 2 2 2 2 2 2 2 2 2 2 2 2 2 2 2 2 2 2 2 2 2 2 2 2 2 2
left_child=1 48 6 5 -5 35 7 8 45 28 11 24 13 -13 -15 -16 -17 18 19 -18 21 -20 23 42 -11 27 -27 -26 29 43 -24 32 34 -34 41 -4 -14 38 39 -38 44 -29 -22 -6 -40 -3 47 49 -1 -2 -49
right_child=46 2 3 4 9 -7 -8 -9 -10 10 -12 12 36 14 15 16 17 -19 20 -21 22 -23 30 -25 25 26 -28 31 -30 -31 -32 -33 33 -35 -36 -37 37 -39 40 -41 -42 -43 -44 -45 -46 -47 -48 50 -50 -51 -52
leaf_value=-0.21712391250638299 -0.21712391250638299 0.077499871065500867 0.013033597617166002 0.26561180482629787 0.12059944037078088 -0.09065823141457835 0.15036993770007348 0.01230334103469386 0.1490438725951328 0.1303682236178266 0.12672951136641425 -0.052101821190192604 -0.057152402587751887 0.14671566275085035 -0.02575567371504028 0.1393372346062644 -0.07851221125986195 -0.01922989843275524 0.1862134177506134 0.049766378603604 0.083141427642543814 0.044547092229591252 0.048257436710119367 -0.046740133145210118 -0.018281274323937686 0.046857846854440693 0.18447981845924039 0.035493470048609858 0.12985876759402676 -0.025065817567347871 0.12798282201836916 -0.013597127946257684 0.084946443907581298 -0.0085257180383739375 0.15730673146539365 0.096756214852151107 0.016337356977214487 0.055666586817651291 0.031634918549060559 -0.10147296944092708 -0.025875393062338832 0.10947619792441017 0.023979894593969091 0.070308487700388861 0.070426699335618653 0.034419382852341869 -0.21712391250638299 -0.21712391250638285 -0.21712391250638299 -0.21712391250638299 -0.21712391250638299
leaf_weight=55.720258794724941 33.780860938131809 11.66521540284157 12.272258177399637 12.338778257369993 12.618451803922655 15.367540195584295 11.347135215997694 16.673027366399765 14.014992907643316 13.243661336600779 11.795230209827421 10.608911514282225 10.466432124376295 9.5564952045679075 14.352866545319555 10.217710256576536 12.008097380399702 13.628320038318632 20.336227416992188 23.551548883318901 13.505844265222549 21.366209976375103 22.80595001578331 15.943367868661879 19.921840749680996 21.698411576449871 11.960015594959257 12.834528431296349 18.501084938645363 12.842116840183733 20.23481310904026 10.889685198664663 13.307060942053797 18.559507921338081 11.106366366147993 12.939641833305357 10.93556071072817 17.271066233515739 20.570386298000813 17.981410026550293 12.996665909886358 10.507996365427971 11.88769805431366 11.9599222689867 14.124260492622851 11.432088211178778 54.557906590402126 5.0126438811421421 8.6449945196509344 9.2988176345825178 14.747343592345713
leaf_count=767 465 50 50 68 53 64 50 70 63 56 54 49 43 41 61 45 50 62 88 98 57 92 96 69 87 91 55 58 79 55 87 52 59 79 55 53 50 75 84 84 55 53 50 53 64 51 751 69 119 128 203
internal_value=0 0.0282641 0.0524092 0.0492102 0.0528172 0.000462018 0.0813387 0.0667751 0.091247 0.0479195 0.0442468 0.0421696 0.0338793 0.0498278 0.054992 0.0506057 0.0565145 0.0516862 0.0576653 0.00644812 0.0721106 0.113631 0.0515898 0.0160333 0.060839 0.0537983 0.0957597 0.039257 0.0794558 0.054536 0.0857388 0.054104 0.0652213 0.030507 0.0973333 0.056003 0.00025343 0.0066535 -0.00439633 -0.0569205 0.027451 0.0687979 0.0554456 0.0961277 0.0474271 0.056177 -0.217124 -0.217124 -0.217124 -0.217124 -0.217124
internal_weight=0 718.512 654.146 589.014 548.435 40.5794 65.1325 53.7853 37.1123 536.096 480.174 468.379 324.35 220.004 209.395 199.839 185.486 175.268 161.64 35.5596 126.08 41.7024 84.3777 41.3369 144.029 130.785 33.6584 97.127 55.9216 37.4205 43.0408 77.2051 66.3155 31.8666 34.4489 25.2119 104.346 93.8793 76.6083 28.917 47.6913 23.3425 25.3935 24.5784 34.6946 23.0973 117.398 62.8397 64.3653 43.0797 19.76
internal_count=5360 3744 2858 2574 2407 167 284 234 164 2339 2099 2045 1400 945 896 855 794 749 687 148 539 180 359 176 645 589 146 443 240 161 183 356 304 138 166 103 455 412 337 134 203 111 107 106 148 101 1616 865 886 593 272
is_linear=0
shrinkage=0.2


Tree=8
num_leaves=49
num_cat=0
split_feature=2 7 7 3 3 3 1 3 1 1 1 5 5 5 3 0 8 6 3 0 1 5 5 5 1 8 3 3 5 1 6 6 3 1 8 3 1 1 1 1 6 3 8 0 0 0 3 5
split_gain=120.008 81.2068 23.372 1.74044 3.04463 2.74482 2.41232 2.06408 1.63595 2.6422 2.35148 2.4876 2.30427 1.67293 9.328 1.53653 1.32404 1.82717 2.28587 2.19319 2.8179 4.12004 3.24193 1.67919 3.21845 2.14702 1.99484 1.30206 1.26692 1.16208 4.0799 3.00929 1.6607 1.36485 2.56852 1.82138 1.06761 0.975875 0.951189 2.49793 0.87341 0.830818 0.815722 0.00140074 1.42109e-14 7.10543e-15 7.10543e-15 3.55271e-15
threshold=4.5000000000000009 94402.000000000015 94406.000000000015 182701.50000000003 198316.00000000003 198364.50000000003 36.500000000000007 185310.00000000003 48.500000000000007 44.500000000000007 51.500000000000007 12.500000000000002 11.500000000000002 21.500000000000004 143236.50000000003 10.500000000000002 66.452991485595717 12.500000000000002 138470.50000000003 9.5000000000000018 30.500000000000004 11.500000000000002 17.500000000000004 20.500000000000004 27.500000000000004 92.64068984985353 174252.50000000003 140448.00000000003 12.500000000000002 23.500000000000004 5.5000000000000009 12.500000000000002 145944.00000000003 36.500000000000007 83.178913116455092 143236.50000000003 28.500000000000004 29.500000000000004 28.500000000000004 34.500000000000007 5.5000000000000009 139645.50000000003 89.913791656494155 10.500000000000002 9.5000000000000018 7.5000000000000009 155456.50000000003 8.5000000000000018
decision_type=2 2 2 2 2 2 2 2 2 2 2 2 2 2 2 2 2 2 2 2 2 2 2 2 2 2 2 2 2 2 2 2 2 2 2 2 2 2 2 2 2 2 2 2 2 2 2 2
left_child=1 45 3 8 7 -6 15 -5 9 13 -10 -12 -11 16 -15 -7 17 18 38 36 21 -21 -22 26 27 -26 29 -25 37 30 -18 32 33 34 -31 40 -20 -19 -3 -40 -36 -32 -33 -4 46 47 -2 -1
right_child=44 2 43 4 5 6 -8 -9 10 12 11 -13 -14 14 -16 -17 23 28 19 20 22 -23 -24 24 25 -27 -28 -29 -30 31 41 42 -34 -35 35 -37 -38 -39 39 -41 -42 -43 -44 -45 -46 -47 -48 -49
leaf_value=-0.21378183907291959 -0.21378183907291981 -0.01844514455978678 -0.22556465390886915 0.085939454059446849 -0.038295217686721138 0.14675023943151311 -0.0062823889832190173 0.19187593917006507 -0.06628139794788708 0.049818014286333118 -0.022389707454433153 0.09508578998054365 0.17473949778942224 0.12288522134026501 -0.098338597027723129 0.059244520098597778 0.09433835142293899 0.10812086156654042 0.063129458155063031 0.12452290189379334 0.077073601139509576 -0.0050571493500200116 0.20748883699840343 0.088869608200167483 -0.089027738812115093 0.010956648131948321 -0.021747501066967989 0.014064494532072317 0.14294311641830815 -0.029969389268655739 0.0080444796031571373 0.16307026046543252 0.11327993818273983 -0.012138992245278771 0.063105784128148365 0.0089213945352314434 -0.0077830877852362009 0.029611796830413824 0.10711093889034705 -0.019019951080402598 0.12498417465786463 -0.066495008679586021 0.093551217928299971 -0.22979807820088199 -0.21378183907291981 -0.21378183907291981 -0.21378183907291981 -0.21378183907291981
leaf_weight=3.678964231163266 34.437517639249563 21.438424795866013 6.6051506176590902 20.99140914529562 12.1047345995903 14.260833963751791 12.35100746154785 11.326560378074644 12.620790854096411 11.800025939941408 14.208530828356745 14.638613834977148 11.825399681925772 13.599184393882753 17.35198101401329 18.360610529780388 19.288580179214478 12.986556380987169 15.418576449155806 17.149545811116695 18.70123302936554 22.948701083660126 12.872509688138964 19.205993548035622 15.002301588654516 20.101348847150803 15.142677046358584 18.058939188718796 15.147583141922949 12.763632491230963 11.944478049874308 11.297541469335558 13.008003070950506 18.082001447677612 18.30865652859211 13.923300519585608 18.904997766017914 12.361160412430761 11.599238991737367 13.696893349289892 18.189004600048065 11.980624318122862 16.777857601642609 5.9358304291963577 52.65140612795949 33.65347608178854 10.373472914099692 16.10300737246871
leaf_count=61 571 91 69 90 52 60 52 51 56 51 61 65 54 59 74 78 84 56 65 76 83 103 62 81 62 83 64 76 71 54 53 50 56 79 78 58 81 53 50 59 79 50 74 55 873 558 172 267
internal_value=0 0.0231424 0.0427925 0.0481596 0.0740161 0.0462426 0.0689967 0.123067 0.0438976 0.0470582 0.00572191 0.0372238 0.112346 0.0438262 -0.00113827 0.0974986 0.0469446 0.0594115 0.049397 0.0656438 0.0855527 0.0503627 0.130243 0.0374259 0.0116824 -0.0317738 0.0477356 0.0526183 0.0971816 0.0540906 0.0258966 0.0640486 0.0469317 0.0363116 0.0501771 0.0704654 0.0240717 0.0698348 0.0125487 0.0388159 0.0939436 -0.0292816 0.121526 -0.227568 -0.213782 -0.213782 -0.213782 -0.213782
internal_weight=0 697.716 644.281 631.74 89.3952 57.0772 44.9725 32.318 542.345 500.877 41.4679 28.8471 23.6254 477.252 30.9512 32.6214 446.3 193.225 152.73 105.996 71.672 40.0982 31.5737 253.075 72.3686 35.1037 180.706 37.2649 40.4953 165.564 43.2137 122.35 94.2746 81.2666 63.1846 50.421 34.3236 25.3477 46.7346 25.2961 36.4977 23.9251 28.0754 12.541 97.4624 53.4354 44.811 19.782
internal_count=5360 3744 2858 2734 383 242 190 141 2351 2169 182 126 105 2064 133 138 1931 850 670 470 324 179 145 1081 302 145 779 157 180 715 187 528 404 348 269 215 146 109 200 109 157 103 124 124 1616 886 743 328
is_linear=0
shrinkage=0.2


Tree=9
num_leaves=47
num_cat=0
split_feature=2 7 5 5 8 1 1 1 3 8 1 1 5 6 5 3 5 3 5 6 0 1 5 5 3 1 8 8 5 8 8 6 8 1 1 8 1 1 3 0 3 3 6 3 1 1
split_gain=95.3507 62.5799 1.34062 1.55043 1.92901 1.5641 11.7186 1.72489 1.49704 1.41251 0.899004 1.50898 1.5834 1.26915 1.80235 2.00409 1.49715 1.56842 1.41424 2.40615 2.36833 4.05681 4.6532 3.59917 2.0898 2.01101 3.67179 1.80517 2.54247 1.71517 1.22342 2.01769 2.46749 1.8857 2.24786 1.56478 2.48477 1.96365 0.994808 0.771149 0.750096 1.78679 0.66224 0.211214 2.84217e-14 7.10543e-15
threshold=4.5000000000000009 94402.000000000015 22.500000000000004 21.500000000000004 85.634922027587905 20.500000000000004 1.0000000180025095e-35 22.500000000000004 160524.00000000003 87.96551895141603 48.500000000000007 51.500000000000007 12.500000000000002 2.5000000000000004 17.500000000000004 129101.50000000001 18.500000000000004 143427.00000000003 3.5000000000000004 12.500000000000002 9.5000000000000018 36.500000000000007 10.500000000000002 14.500000000000002 153972.50000000003 32.500000000000007 56.538461685180671 92.880565643310561 10.500000000000002 84.170478820800795 55.956989288330085 11.500000000000002 11.776072502136232 37.500000000000007 29.500000000000004 85.634922027587905 31.500000000000004 25.500000000000004 159886.50000000003 9.5000000000000018 140009.00000000003 141718.50000000003 5.5000000000000009 143240.50000000003 35.500000000000007 38.500000000000007
decision_type=2 2 2 2 2 2 2 2 2 2 2 2 2 2 2 2 2 2 2 2 2 2 2 2 2 2 2 2 2 2 2 2 2 2 2 2 2 2 2 2 2 2 2 2 2 2
left_child=1 45 3 5 -5 6 8 9 42 -7 13 -12 -13 16 15 -15 17 -9 29 20 27 23 -23 24 40 38 -27 28 -20 -17 31 32 33 34 -16 39 37 -37 -21 -32 -22 -42 -3 -38 -2 -1
right_child=44 2 -4 4 -6 7 -8 10 -10 -11 11 12 -14 14 30 18 -18 -19 19 25 21 22 -24 -25 -26 26 -28 -29 -30 -31 35 -33 -34 -35 -36 36 43 -39 -40 -41 41 -43 -44 -45 -46 -47
leaf_value=-0.21112917777244108 -0.21112917777244108 0.019407335693224809 0.092846176515460441 0.033034625087242413 -0.066709514950163348 -0.040060135150151152 0.24914054707441188 -0.004113761131698858 0.073191307202022493 0.031650938449064643 -0.048606721340926348 -0.0091004632903552377 0.085511223300887618 0.12176972262586826 -0.019254450339503668 -0.037536665314496523 0.13454189037842387 0.084795292239086287 -0.04121081992326539 0.14610902808151846 -0.059367892697642616 0.18923318530033731 0.028512883494054387 0.11099673650615537 0.071402621367243513 0.12496412296987364 -0.021461415732611917 -0.069689872938661343 0.077824911773877126 0.049507897384206336 0.0021847240934626637 0.11292501940991549 0.10381934786948954 -0.068960176748747298 0.093626618429664923 0.001628493894632253 -0.010958260625118954 0.091450698024294896 0.078230264854804554 -0.064437427604327052 0.057615268846870821 -0.050413025674523992 -0.044463147172890682 -0.047475063786192116 -0.21112917777244108 -0.21112917777244108
leaf_weight=34.454477839171886 50.283564034849405 14.172350540757181 15.576262660324572 18.118698209524155 13.55996233224869 22.69634834676981 11.271136589348314 13.155049636960028 12.99619300290942 21.29634851962328 13.011278718709944 15.692667812108995 12.885327801108359 13.122849479317663 17.449129395186905 18.478053569793701 11.045285463333128 20.006725050508976 13.741669289767744 17.617568969726562 14.777732104063032 15.209563657641413 13.692502446472643 14.591878324747084 12.05828809738159 11.909798219799997 16.124792829155922 12.650969572365282 15.024720542132853 17.755917027592659 12.276399783790113 12.163154572248457 11.626041017472742 11.572360053658484 11.847657866775988 17.298094980418682 13.652978584170343 22.267938114702702 16.941162101924419 16.016479980200529 11.014863006770613 13.793690428137777 11.984416097402571 11.821611262857912 30.40982174500823 9.7870690673589689
leaf_count=690 1007 58 74 89 57 97 74 56 55 91 60 67 61 63 81 80 50 92 62 81 62 68 62 64 56 52 73 55 68 79 55 61 53 58 61 74 57 95 73 71 50 61 50 52 609 196
internal_value=0 0.0188477 0.0348967 0.033437 -0.00966058 0.035764 0.0694408 0.0325976 0.0177098 -0.00534565 0.0359883 0.00785284 0.0335583 0.0385845 0.0350846 0.0457032 0.0707673 0.0495257 0.0414625 0.0480751 0.0331914 0.0505697 0.113091 0.0232887 -0.00149264 0.0805459 0.0407438 -0.00672791 0.0209617 0.00511822 0.0183825 0.0395275 0.0225213 -0.000605573 0.0263948 0.00373396 0.0208138 0.0521808 0.112834 -0.0355298 -0.0236971 -0.00244905 -0.00985662 -0.0279041 -0.211129 -0.211129
internal_weight=0 678.207 633.966 618.39 31.6787 586.711 50.4241 536.287 39.153 43.9927 492.294 41.5893 28.578 450.705 406.498 248.506 44.2071 33.1618 235.383 199.149 136.556 95.1385 28.9021 66.2365 51.6446 62.5933 28.0346 41.4174 28.7664 36.234 157.992 64.6583 52.4952 40.8691 29.2968 93.3335 65.0406 39.566 34.5587 28.2929 39.5863 24.8086 26.1568 25.4746 80.6934 44.2415
internal_count=5360 3744 2858 2784 146 2638 237 2401 163 188 2213 188 128 2025 1827 1109 198 148 1046 887 608 423 130 293 229 279 125 185 130 159 718 314 253 200 142 404 278 169 154 126 173 111 108 109 1616 886
is_linear=0
shrinkage=0.2


Tree=10
num_leaves=48
num_cat=0
split_feature=2 7 3 1 1 3 1 1 3 5 3 1 8 6 1 1 1 6 1 5 8 8 3 8 1 3 3 0 1 8 5 5 3 8 1 8 0 5 6 5 3 3 3 1 5 3 7
split_gain=76.2417 48.6941 0.957302 1.57783 1.32694 2.42124 2.35674 9.06404 1.99142 1.17139 1.72165 0.966665 1.88256 5.0327 1.70202 4.69937 2.52816 1.84535 2.82973 3.08255 1.73087 1.56238 2.1362 2.05742 1.59696 1.44532 2.84764 2.0044 3.12727 2.25512 1.66228 1.52842 1.3654 2.02664 1.23911 1.1628 1.64296 1.06671 0.936954 1.08515 0.731292 0.536037 0.530978 0.315567 0.314757 1.42109e-14 1.42109e-14
threshold=4.5000000000000009 94402.000000000015 129101.50000000001 35.500000000000007 1.0000000180025095e-35 160892.50000000003 21.500000000000004 20.500000000000004 142832.50000000003 22.500000000000004 129847.00000000001 48.500000000000007 81.62280654907228 5.5000000000000009 40.500000000000007 42.500000000000007 44.500000000000007 2.5000000000000004 30.500000000000004 10.500000000000002 81.067951202392592 8.3570075035095233 139542.50000000003 59.472049713134773 36.500000000000007 143242.50000000003 153972.50000000003 9.5000000000000018 35.500000000000007 87.96551895141603 11.500000000000002 6.5000000000000009 139541.50000000003 91.042778015136733 29.500000000000004 87.840488433837905 10.500000000000002 20.500000000000004 12.500000000000002 18.500000000000004 140210.50000000003 143240.50000000003 145532.00000000003 29.500000000000004 18.500000000000004 182701.50000000003 78211.000000000015
decision_type=2 2 2 2 2 2 2 2 2 2 2 2 2 2 2 2 2 2 2 2 2 2 2 2 2 2 2 2 2 2 2 2 2 2 2 2 2 2 2 2 2 2 2 2 2 2 2
left_child=1 46 3 44 5 8 7 -6 -4 10 -8 14 13 -13 17 41 -17 18 19 -12 -18 22 -19 34 38 27 -27 32 29 -29 31 -28 -25 -34 -23 -32 -37 40 39 43 -31 -16 -41 -24 -3 -2 -1
right_child=45 2 4 -5 6 -7 9 -9 -10 -11 11 12 -14 -15 15 16 20 21 -20 -21 -22 23 24 25 -26 26 30 28 -30 37 35 -33 33 -35 -36 36 -38 -39 -40 42 -42 -43 -44 -45 -46 -47 -48
leaf_value=-0.20901094749191618 -0.20901094749191618 0.051699435730831349 0.0071376008420672328 0.11618162990239485 0.24018747260561224 0.06522030530835414 -0.046121874169982348 0.0037722511204963515 -0.09963602887052983 0.088946170852095871 0.09125400133732571 0.12403161988451046 -0.065922179132191824 -0.048435715620388953 0.16618589072241552 -0.037802278892467449 0.016366294624739968 0.096852316647083228 0.12317315927827013 -0.054342726644746736 0.12191335604494802 0.0041445742239035318 0.070009031920762244 0.12258718096101662 -0.043764212885378795 -0.084073909795439994 0.0061761226157954624 -0.057356636985781612 0.10409977929682201 0.018745463213350726 -0.056400238022491868 0.094556520150776716 0.1079703011088915 -0.00084990685206562042 -0.070089534096318643 -0.049225558498275507 0.0472642627181597 -0.017516333804414547 0.079653362699144262 0.019583750881086867 0.081403772727935378 0.10396797009456565 -0.042769550649293622 0.027709688151190921 0.0037102617389840847 -0.20901094749191618 -0.20901094749191618
leaf_weight=3.259041190147399 61.921782612800598 11.070728480815889 15.61638753116131 12.906177073717116 9.8738377988338488 12.451230160892008 13.386579617857931 18.910261001437902 12.644376158714293 11.593689978122709 11.543113447725775 11.970675259828569 12.955640062689779 15.571242615580557 10.662201687693598 17.571389138698578 14.764398634433748 21.306459218263626 18.196506723761559 11.724608927965162 10.73258291184902 17.883096478879452 14.763085409998896 12.872745506465433 11.405658096075056 13.887453734874724 15.863071367144586 20.823408737778664 13.152789443731306 18.789100252091888 14.690524268895386 15.44996517896652 11.645475529134275 16.609364151954651 18.094966735690832 11.106036484241487 19.369116932153702 18.050498597323895 15.859587028622625 11.724110595881941 12.346532747149466 11.52712571620941 10.229032181203364 13.511477269232271 10.800611808896063 4.7441738843917838 33.291724562644958
leaf_count=79 1501 53 64 63 75 53 56 85 53 57 54 58 58 67 50 82 70 93 83 52 49 81 67 58 54 62 70 90 59 82 71 68 52 71 85 54 84 74 75 58 53 52 52 63 48 115 807
internal_value=0 0.015375 0.0284784 0.0607256 0.0265812 -0.00826044 0.0291583 0.08487 -0.0406348 0.0260841 0.0246552 0.0265629 -0.00305021 0.0265246 0.0291919 0.0590919 0.0205683 0.0242003 0.0640921 0.0178878 0.0607948 0.0194667 0.0407669 0.0110702 0.0253464 0.0184887 -0.000757896 0.0324822 0.0146211 -0.00218934 0.0143711 0.0497833 0.0685983 0.0440013 -0.0331911 -0.0101799 0.0121006 0.0211663 0.0372739 0.0238924 0.043592 0.133864 -0.00946967 0.0497956 0.0280012 -0.209011 -0.209011
internal_weight=0 662.458 625.907 34.7775 591.129 40.712 550.417 28.7841 28.2608 521.633 510.04 496.653 40.4976 27.5419 456.155 65.2577 43.0684 390.898 41.4642 23.2677 25.497 349.434 98.7994 250.634 77.493 214.656 90.3662 124.29 83.1623 70.0095 76.4787 31.313 41.1276 28.2548 35.9781 45.1657 30.4752 49.1861 66.0873 50.2277 31.1356 22.1893 21.9531 28.2746 21.8713 66.666 36.5508
internal_count=5360 3744 2858 164 2694 170 2524 160 117 2364 2307 2251 183 125 2068 303 201 1765 189 106 119 1576 462 1114 369 948 409 539 358 299 347 138 181 123 166 209 138 209 315 240 135 102 110 130 101 1616 886
is_linear=0
shrinkage=0.2


end of trees

feature_importances:
Column_3=135
Column_1=127
Column_5=79
Column_8=78
Column_0=36
Column_6=34
Column_7=21
Column_2=11
Column_4=2

parameters:
[boosting: gbdt]
[objective: binary]
[metric: auc]
[tree_learner: serial]
[device_type: cpu]
[data_sample_strategy: bagging]
[data: ]
[valid: ]
[num_iterations: 10000]
[learning_rate: 0.2]
[num_leaves: 127]
[num_threads: 0]
[seed: 49]
[deterministic: 0]
[force_col_wise: 0]
[force_row_wise: 0]
[histogram_pool_size: -1]
[max_depth: -1]
[min_data_in_leaf: 50]
[min_sum_hessian_in_leaf: 0.001]
[bagging_fraction: 1]
[pos_bagging_fraction: 1]
[neg_bagging_fraction: 1]
[bagging_freq: 0]
[bagging_seed: 10103]
[feature_fraction: 1]
[feature_fraction_bynode: 1]
[feature_fraction_seed: 1891]
[extra_trees: 0]
[extra_seed: 7599]
[early_stopping_round: 0]
[early_stopping_min_delta: 0]
[first_metric_only: 0]
[max_delta_step: 0]
[lambda_l1: 0]
[lambda_l2: 0]
[linear_lambda: 0]
[min_gain_to_split: 0]
[drop_rate: 0.1]
[max_drop: 50]
[skip_drop: 0.5]
[xgboost_dart_mode: 0]
[uniform_drop: 0]
[drop_seed: 11846]
[top_rate: 0.2]
[other_rate: 0.1]
[min_data_per_group: 100]
[max_cat_threshold: 32]
[cat_l2: 10]
[cat_smooth: 10]
[max_cat_to_onehot: 4]
[top_k: 20]
[monotone_constraints: ]
[monotone_constraints_method: basic]
[monotone_penalty: 0]
[feature_contri: ]
[forcedsplits_filename: ]
[refit_decay_rate: 0.9]
[cegb_tradeoff: 1]
[cegb_penalty_split: 0]
[cegb_penalty_feature_lazy: ]
[cegb_penalty_feature_coupled: ]
[path_smooth: 0]
[interaction_constraints: ]
[verbosity: -1]
[saved_feature_importance_type: 0]
[use_quantized_grad: 0]
[num_grad_quant_bins: 4]
[quant_train_renew_leaf: 0]
[stochastic_rounding: 1]
[linear_tree: 0]
[max_bin: 255]
[max_bin_by_feature: ]
[min_data_in_bin: 3]
[bin_construct_sample_cnt: 200000]
[data_random_seed: 198]
[is_enable_sparse: 1]
[enable_bundle: 1]
[use_missing: 1]
[zero_as_missing: 0]
[feature_pre_filter: 1]
[pre_partition: 0]
[two_round: 0]
[header: 0]
[label_column: ]
[weight_column: ]
[group_column: ]
[ignore_column: ]
[categorical_feature: ]
[forcedbins_filename: ]
[precise_float_parser: 0]
[parser_config_file: ]
[objective_seed: 22749]
[num_class: 1]
[is_unbalance: 0]
[scale_pos_weight: 1]
[sigmoid: 1]
[boost_from_average: 1]
[reg_sqrt: 0]
[alpha: 0.9]
[fair_c: 1]
[poisson_max_delta_step: 0.7]
[tweedie_variance_power: 1.5]
[lambdarank_truncation_level: 30]
[lambdarank_norm: 1]
[label_gain: ]
[lambdarank_position_bias_regularization: 0]
[eval_at: ]
[multi_error_top_k: 1]
[auc_mu_weights: ]
[num_machines: 1]
[local_listen_port: 12400]
[time_out: 120]
[machine_list_filename: ]
[machines: ]
[gpu_platform_id: -1]
[gpu_device_id: -1]
[gpu_use_dp: 0]
[num_gpu: 1]

end of parameters

pandas_categorical:null
