tree
version=v4
num_class=1
num_tree_per_iteration=1
label_index=0
max_feature_idx=8
objective=binary sigmoid:1
feature_names=Column_0 Column_1 Column_2 Column_3 Column_4 Column_5 Column_6 Column_7 Column_8
feature_infos=[0:11] [0:69] [0:12] [124587:201897] [0:3] [0:23] [0:15] [51873:241116] [-1:100]
tree_sizes=9820 9826 9854 9849 9868 9831 9855 9859 9887 9874 9868 9883 9882 9893 9882 9901 9885 9898 9904 9904 9900 9893 9899 9906 9894 9928 9930 9909 9903 9915 9934 9923 9916

Tree=0
num_leaves=95
num_cat=0
split_feature=2 7 7 8 5 6 5 4 8 5 0 1 1 5 5 6 1 1 1 6 5 8 8 1 1 1 5 5 8 1 1 1 6 8 8 8 8 6 1 1 1 8 6 1 5 5 6 8 8 1 1 5 1 1 5 6 8 8 1 8 8 5 1 1 0 8 6 5 1 5 1 5 5 5 1 1 6 1 5 6 1 1 1 1 1 5 1 1 1 1 1 6 1 5
split_gain=1143.53 1175.82 225.355 15.1106 12.7421 9.2223 9.84499 6.83932 6.06736 7.73495 5.78552 5.31026 5.27504 10.1545 6.20865 6.04334 6.31374 5.85276 5.74746 6.02949 5.09056 4.58805 4.42539 4.333 15.0189 6.44109 8.52413 6.28063 5.12286 4.20748 19.4826 4.06084 5.95179 3.9998 3.96738 6.32307 4.30525 4.03556 4.80014 6.6612 3.66552 3.57467 3.42005 3.10841 4.85302 3.01774 3.23533 2.99235 6.50507 5.21621 6.21913 2.97851 3.60863 4.88416 2.96824 2.82338 2.76975 2.73782 2.72255 2.43014 2.42743 2.41334 2.64396 2.40928 2.60855 2.37658 2.33804 2.31711 2.27161 2.26299 2.24218 3.9728 3.39986 2.11102 2.06834 2.05201 2.03283 1.96986 1.94141 1.94059 2.1486 1.92626 1.88225 1.84461 1.98471 2.03861 2.05696 1.82215 2.26055 1.74398 2.27107 1.78629 1.74243 2.42363
threshold=4.5000000000000009 94402.000000000015 94406.000000000015 50.108224868774421 20.500000000000004 4.5000000000000009 22.500000000000004 2.5000000000000004 55.662393569946296 12.500000000000002 9.5000000000000018 35.500000000000007 26.500000000000004 19.500000000000004 20.500000000000004 5.5000000000000009 50.500000000000007 55.500000000000007 20.500000000000004 4.5000000000000009 11.500000000000002 15.878787994384767 7.0197043418884286 1.0000000180025095e-35 20.500000000000004 24.500000000000004 8.5000000000000018 4.5000000000000009 89.147258758544936 18.500000000000004 20.500000000000004 30.500000000000004 12.500000000000002 10.01253128051758 62.533422470092781 67.556819915771499 73.313842773437514 8.5000000000000018 39.500000000000007 33.500000000000007 23.500000000000004 88.380489349365249 5.5000000000000009 43.500000000000007 8.5000000000000018 14.500000000000002 6.5000000000000009 93.288288116455092 90.662551879882827 33.500000000000007 28.500000000000004 4.5000000000000009 29.500000000000004 36.500000000000007 3.5000000000000004 5.5000000000000009 27.837044715881351 56.538461685180671 31.500000000000004 91.747310638427749 76.220237731933608 10.500000000000002 21.500000000000004 29.500000000000004 10.500000000000002 15.362761974334719 2.5000000000000004 3.5000000000000004 36.500000000000007 3.5000000000000004 32.500000000000007 10.500000000000002 9.5000000000000018 6.5000000000000009 42.500000000000007 19.500000000000004 13.500000000000002 23.500000000000004 10.500000000000002 6.5000000000000009 27.500000000000004 23.500000000000004 33.500000000000007 33.500000000000007 50.500000000000007 21.500000000000004 45.500000000000007 33.500000000000007 38.500000000000007 51.500000000000007 38.500000000000007 5.5000000000000009 25.500000000000004 6.5000000000000009
decision_type=2 2 2 2 2 2 2 2 2 2 2 2 2 2 2 2 2 2 2 2 2 2 2 2 2 2 2 2 2 2 2 2 2 2 2 2 2 2 2 2 2 2 2 2 2 2 2 2 2 2 2 2 2 2 2 2 2 2 2 2 2 2 2 2 2 2 2 2 2 2 2 2 2 2 2 2 2 2 2 2 2 2 2 2 2 2 2 2 2 2 2 2 2 2
left_child=1 -1 3 10 7 11 29 -5 9 -9 20 41 14 15 18 56 51 -18 73 -20 22 40 43 42 -25 26 27 55 60 59 -31 32 -15 66 57 -36 -37 47 39 63 -21 -6 67 82 -45 68 75 48 49 50 -38 54 -53 -54 -17 -26 69 -32 -49 -7 -28 -30 -63 64 -39 -24 -16 -10 -22 -14 72 -72 -71 -12 -51 -47 -57 -77 -55 80 -8 -62 -3 -33 85 86 -85 -60 -89 90 -79 -92 93 -42
right_child=-2 2 -4 4 5 6 79 8 23 -11 12 -13 13 31 33 16 17 -19 19 21 45 -23 65 24 25 -27 28 -29 61 30 34 83 -34 -35 35 36 37 38 -40 -41 92 -43 -44 44 -46 46 -48 58 -50 74 -52 52 53 78 -56 76 -58 -59 87 -61 81 62 -64 -65 -66 -67 -68 -69 -70 70 71 -73 -74 -75 -76 77 -78 89 -80 -81 -82 -83 -84 84 -86 -87 -88 88 -90 -91 91 -93 -94 -95
leaf_value=-0.77935741405252135 -0.77935741405252135 -0.65889316557926247 -0.77935741405252135 -0.70406725875673448 -0.67510950671989345 -0.66642218110884111 -0.59113202581305424 -0.71061422878245506 -0.67510950671989345 -0.59866104134263298 -0.61371907240179036 -0.55348694816516086 -0.63818837287292107 -0.65169149855096975 -0.68900922769757722 -0.63137331571252653 -0.71159627428631322 -0.61508798431625922 -0.55348694816516109 -0.68379683233094579 -0.55348694816516086 -0.58575415757764093 -0.57402062688219357 -0.55348694816516086 -0.6212480879313691 -0.62662315883610076 -0.6438351345201051 -0.58915070593684937 -0.60561090183147492 -0.55348694816516086 -0.66642218110884111 -0.55348694816516097 -0.55348694816516086 -0.6961419792519149 -0.58823625060937013 -0.71159627428631322 -0.64948189616728913 -0.66047822148022639 -0.61508798431625911 -0.75112360581660131 -0.57607399475389687 -0.60482114495774275 -0.6961419792519149 -0.72621142207902478 -0.63562166303329193 -0.67510950671989345 -0.5972038125304564 -0.636171672284641 -0.72288979758068117 -0.57607399475389687 -0.72621142207902478 -0.58464149518410713 -0.65092126678323792 -0.58575415757764082 -0.69248415794199814 -0.71159627428631322 -0.65615534175032475 -0.74171233640462797 -0.69868939052132117 -0.72621142207902478 -0.71704832001462881 -0.61991943813203154 -0.66882505840551509 -0.64383513452010499 -0.71482299522756121 -0.63818837287292107 -0.63363453283486937 -0.618021366990121 -0.618021366990121 -0.61802136699012111 -0.57607399475389698 -0.6255732670653823 -0.55348694816516086 -0.56289821757713421 -0.64036020427568419 -0.59583766051904097 -0.6438351345201051 -0.62959547471416277 -0.624071468754961 -0.57086159938726555 -0.65615534175032475 -0.66642218110884111 -0.62124808793136899 -0.57563111148745116 -0.55348694816516086 -0.62877710346094773 -0.6229855530535795 -0.624071468754961 -0.67897054032480553 -0.5945543055992264 -0.64187104351238888 -0.68900922769757711 -0.66642218110884111 -0.64132546267691215
leaf_weight=196.13010716438293 357.72714805603027 13.281948566436776 27.449360370635986 3.320487141609191 2.8777555227279645 3.0991213321685782 2.6563897132873526 5.0914136171340934 2.8777555227279645 2.2136580944061279 3.3204871416091937 3.0991213321685791 3.5418529510498074 5.0914136171340934 2.2136580944061306 6.4196084737777692 4.427316188812255 2.4350239038467407 2.2136580944061306 5.7555110454559353 2.4350239038467398 3.0991213321685782 2.4350239038467398 6.4196084737777701 4.4273161888122576 170.23030745983124 2.2136580944061306 8.4119007587432844 2.877755522727969 4.2059503793716422 2.213658094406127 5.3127794265747097 2.2136580944061279 4.2059503793716422 2.8777555227279654 4.427316188812255 8.854632377624517 4.2059503793716484 2.4350239038467398 3.5418529510498038 2.2136580944061262 4.8700478076934814 4.2059503793716431 3.7632187604904166 2.4350239038467407 2.8777555227279654 6.8623400926589957 24.792970657348633 4.427316188812255 2.213658094406127 3.7632187604904166 6.4196084737777737 11.289656281471254 6.1982426643371564 2.8777555227279663 2.2136580944061279 2.4350239038467398 2.6563897132873535 3.0991213321685773 3.7632187604904175 6.4196084737777692 3.7632187604904166 10.404193043708799 4.427316188812255 4.6486819982528687 3.5418529510498047 13.724680185317991 4.6486819982528687 3.0991213321685791 3.0991213321685809 6.6409742832183865 10.404193043708799 5.9768768548965454 5.312779426574707 2.8777555227279663 3.5418529510498038 2.2136580944061279 20.365654468536384 7.0837059020996094 2.8777555227279663 2.4350239038467407 2.6563897132873535 4.427316188812255 11.289656281471258 3.7632187604904166 3.320487141609191 2.8777555227279654 3.5418529510498047 3.9845845699310303 2.4350239038467398 5.0914136171340925 3.3204871416091919 2.6563897132873535 3.9845845699310303
leaf_count=886 1616 60 124 15 13 14 12 23 13 10 15 14 16 23 10 29 20 11 10 26 11 14 11 29 20 769 10 38 13 19 10 24 10 19 13 20 40 19 11 16 10 22 19 17 11 13 31 112 20 10 17 29 51 28 13 10 11 12 14 17 29 17 47 20 21 16 62 21 14 14 30 47 27 24 13 16 10 92 32 13 11 12 20 51 17 15 13 16 18 11 23 15 12 18
internal_value=-0.704643 -0.672395 -0.639236 -0.63288 -0.639323 -0.652752 -0.657165 -0.632797 -0.631816 -0.676689 -0.623192 -0.608802 -0.617757 -0.611833 -0.631515 -0.621627 -0.633019 -0.677351 -0.616521 -0.631287 -0.6342 -0.641012 -0.650528 -0.630415 -0.628852 -0.631094 -0.647782 -0.62009 -0.664658 -0.661425 -0.658643 -0.588918 -0.621933 -0.652771 -0.663613 -0.661073 -0.663653 -0.660889 -0.680701 -0.690198 -0.652733 -0.630928 -0.66003 -0.660148 -0.690623 -0.624446 -0.628777 -0.65426 -0.668681 -0.655129 -0.672366 -0.625468 -0.618021 -0.626742 -0.650289 -0.649482 -0.604892 -0.70749 -0.645247 -0.69921 -0.690781 -0.647355 -0.655835 -0.673951 -0.689009 -0.612046 -0.641325 -0.639849 -0.589626 -0.600684 -0.595598 -0.606288 -0.575523 -0.582445 -0.61241 -0.634535 -0.677716 -0.631175 -0.60619 -0.60368 -0.62223 -0.702231 -0.649482 -0.579839 -0.586426 -0.593515 -0.58525 -0.666422 -0.653136 -0.635185 -0.638623 -0.660478 -0.632542 -0.618021
internal_weight=0 828.794 632.663 605.214 363.483 118.873 108.027 244.609 241.289 7.30507 241.731 10.8469 161.818 113.118 48.7005 79.249 47.1509 6.86234 28.5562 19.9229 79.9131 17.7093 29.8844 233.984 222.251 215.832 45.6014 17.2665 28.3348 100.057 93.195 33.869 7.30507 20.1443 88.9891 84.119 81.2413 76.8139 19.2588 16.8238 14.6101 7.7478 11.7324 23.9075 6.19824 50.0287 44.4945 57.5551 22.1366 17.7093 12.6179 40.2886 30.9912 24.5716 9.29736 8.85463 32.098 4.87005 35.4185 6.86234 11.2897 17.0452 14.1674 13.2819 8.85463 5.97688 15.9383 7.52644 5.53415 29.663 26.1212 17.0452 9.076 8.63327 5.09141 37.6322 4.42732 34.7544 13.2819 7.96917 5.09141 9.076 17.7093 26.5639 21.2511 17.4879 14.1674 10.6256 7.52644 31.2126 28.7776 8.4119 8.85463 6.19824
internal_count=5360 3744 2858 2734 1642 537 488 1105 1090 33 1092 49 731 511 220 358 213 31 129 90 361 80 135 1057 1004 975 206 78 128 452 421 153 33 91 402 380 367 347 87 76 66 35 53 108 28 226 201 260 100 80 57 182 140 111 42 40 145 22 160 31 51 77 64 60 40 27 72 34 25 134 118 77 41 39 23 170 20 157 60 36 23 41 80 120 96 79 64 48 34 141 130 38 40 28
is_linear=0
shrinkage=1


Tree=1
num_leaves=95
num_cat=0
split_feature=2 7 7 8 4 1 1 3 6 0 3 1 3 3 1 6 3 3 6 1 8 1 8 1 8 1 3 0 1 1 1 3 3 8 8 1 6 3 8 0 3 3 6 8 1 3 3 1 3 1 8 1 8 8 3 8 3 3 1 1 1 1 8 1 3 1 1 3 1 6 1 1 8 8 6 0 8 8 3 3 3 3 1 0 3 1 1 6 1 1 1 0 3 3
split_gain=1048.31 1054.69 199.513 12.7091 10.7601 9.60029 25.2684 6.59258 5.78701 4.83835 4.60949 4.39034 6.38003 8.05663 5.19074 7.06681 4.45465 4.40413 4.67117 4.3774 8.70458 5.30898 4.21791 4.0764 4.00041 9.12625 5.99123 5.73255 6.90908 6.14179 4.6295 4.85453 6.55595 4.82529 4.08435 3.88111 3.85442 3.84801 3.61913 4.44685 4.35792 6.81775 3.98166 3.54753 3.53741 3.53103 3.44199 3.41271 3.39775 3.25521 3.21803 3.2098 3.15666 2.86401 2.75434 2.6031 2.5974 6.45648 4.29583 2.58345 2.52436 2.92512 2.49951 2.36069 2.97696 2.79952 2.29962 6.21863 2.72552 2.28382 5.82811 4.95542 4.69361 2.27563 4.27715 3.73365 7.54518 3.03363 2.61785 4.95312 2.26107 6.22842 3.50419 2.20836 3.3315 5.08339 3.08703 2.31263 3.82704 2.29233 2.48766 2.19225 2.17458 2.15665
threshold=4.5000000000000009 94402.000000000015 94406.000000000015 50.108224868774421 2.5000000000000004 1.0000000180025095e-35 20.500000000000004 129101.50000000001 4.5000000000000009 9.5000000000000018 184240.50000000003 26.500000000000004 139743.50000000003 140681.50000000003 20.500000000000004 13.500000000000002 134121.50000000003 140009.00000000003 13.500000000000002 40.500000000000007 54.670330047607429 42.500000000000007 92.206478118896499 39.500000000000007 87.550323486328139 24.500000000000004 142832.50000000003 9.5000000000000018 27.500000000000004 37.500000000000007 38.500000000000007 143234.50000000003 160524.00000000003 89.339824676513686 74.933155059814467 23.500000000000004 2.5000000000000004 149668.50000000003 62.899168014526374 10.500000000000002 140210.50000000003 143608.50000000003 5.5000000000000009 80.45932769775392 39.500000000000007 140214.50000000003 154351.50000000003 1.0000000180025095e-35 134897.50000000003 26.500000000000004 91.56504058837892 24.500000000000004 20.02506256103516 67.396617889404311 181454.50000000003 85.634922027587905 160862.00000000003 175869.00000000003 34.500000000000007 36.500000000000007 25.500000000000004 22.500000000000004 92.64068984985353 30.500000000000004 194091.00000000003 26.500000000000004 31.500000000000004 143948.50000000003 34.500000000000007 9.5000000000000018 33.500000000000007 27.500000000000004 81.62280654907228 79.447261810302749 5.5000000000000009 10.500000000000002 88.380489349365249 93.288288116455092 140448.00000000003 160107.50000000003 185464.50000000003 151698.50000000003 23.500000000000004 10.500000000000002 138390.50000000003 33.500000000000007 21.500000000000004 5.5000000000000009 28.500000000000004 31.500000000000004 29.500000000000004 7.5000000000000009 143240.50000000003 154945.50000000003
decision_type=2 2 2 2 2 2 2 2 2 2 2 2 2 2 2 2 2 2 2 2 2 2 2 2 2 2 2 2 2 2 2 2 2 2 2 2 2 2 2 2 2 2 2 2 2 2 2 2 2 2 2 2 2 2 2 2 2 2 2 2 2 2 2 2 2 2 2 2 2 2 2 2 2 2 2 2 2 2 2 2 2 2 2 2 2 2 2 2 2 2 2 2 2 2
left_child=1 -1 3 9 49 38 -7 23 22 10 91 14 16 -14 15 47 52 60 51 20 -10 50 53 -8 25 26 43 28 -27 55 31 83 33 -33 -28 -34 -15 62 -6 42 -41 -42 -40 -22 -31 -32 -39 -11 -18 -5 -21 80 -13 -9 -43 69 -37 -58 63 -12 61 -16 -35 65 -65 -59 67 -30 -68 72 71 -71 -29 78 -75 77 -77 -76 -23 -80 81 82 -19 86 89 -86 -26 88 -88 90 -85 -3 -64 -38
right_child=-2 2 -4 4 5 6 7 8 19 11 59 12 13 36 17 -17 48 18 -20 21 24 73 -24 -25 30 27 34 29 66 44 45 32 35 37 -36 56 93 46 39 40 41 54 -44 -45 -46 -47 -48 -49 -50 -51 -52 -53 -54 -55 -56 -57 57 58 -60 -61 -62 -63 92 64 -66 -67 68 -69 -70 70 -72 -73 -74 74 75 76 -78 -79 79 -81 -82 -83 -84 84 85 -87 87 -89 -90 -91 -92 -93 -94 -95
leaf_value=-0.072935035982367266 -0.072935035982367266 0.012490589908745145 -0.072935035982367266 0.027711929865916741 -0.031131211625039693 0.13705753295574202 0.07728351157781374 0.096829969281046993 -0.016764650261351679 0.08752579035397122 0.11846176008451939 0.077727198764717106 0.12215739699135016 0.12384504853168476 0.057712680618285328 0.011126505536160659 0.021939821326549511 -0.020170975309211768 0.10639561894523693 0.12646678425756061 0.01668858841188875 0.12522125690119165 0.093989490942648884 0.13263544198121133 0.033358941311373312 0.12043922188031608 0.089177175510206957 0.020311546925300794 0.072140204316587436 0.1432080840773485 -0.03181292704379933 0.10399513489005713 0.098916188239450198 -0.008990104312733482 0.018732567688587838 0.096547025044269555 0.071598072580146568 -0.042079329437551521 0.043183631157965641 0.10284607814359686 -0.034679394969366333 0.03599487551361541 -0.032726457956426314 -0.060376300268766864 0.055002660333469726 0.046177822484892765 0.028188714525910652 0.14144784901424801 0.066754583809388993 -0.054049335485647713 0.071166061928334245 0.060706620404981065 0.14111488745057221 0.048740775950271292 0.10448123351472034 0.0018001517017560557 -0.013409272776600423 0.043720742121296202 0.11459625237561394 0.065832695551774595 0.035420779055472272 0.11650937069269551 0.034039960468569518 0.059538495216690017 -0.014944445388591982 0.087091440877678672 0.10516976423610779 -0.031550215275379358 0.0435303595447065 0.023865645018689471 0.0027002987092002058 0.10847707170252351 0.085168949426537952 0.025129314126599391 0.075951516819116605 0.019378327393807099 0.10256400213550874 0.0093705700012853207 0.016610367979532196 0.11039668755336991 -0.019923580835317877 0.092451726869000189 0.056145163355018748 0.0485926577836392 0.0660148832173372 0.12297390703273453 0.091531047755429876 0.10090884631469894 0.01245623610272322 0.018488353168299596 0.10400197978965031 0.062580614182114136 0.066421829453352496 0.090967430601074747
leaf_weight=190.99883797764778 348.36808371543884 2.2550258040428153 26.731214344501495 2.4381665140390387 2.2417873740196255 11.354385092854498 14.657847687602045 4.0491017103195217 4.2502388358116141 8.2000761926174146 5.8941614925861341 13.889913037419321 18.531625166535378 5.7142787277698508 3.3686466664075834 2.2725939601659766 6.584106087684634 4.490162551403051 2.7276436984539023 5.9036991298198682 2.6980147659778622 2.7235375046730024 19.586243689060211 4.3025865703821173 2.7244530320167568 6.3443215191364315 2.7156514525413504 15.547788277268415 4.0490424782037717 2.2723824828863135 2.2539860159158698 2.4917853921651831 7.6950147300958625 2.2442466318607392 8.4918732047080976 4.0544990003109005 30.274323388934135 2.9309527724981299 3.3635463416576394 3.3607562482357034 2.4556579589843732 3.5829529464244843 3.5513477027416229 3.3444200903177261 2.2742987126111984 4.0752837657928467 4.2988380789756775 4.5694342851638785 11.82687036693096 2.4313315004110336 4.745091900229454 8.3779998421668989 2.2875417768955222 13.155179500579832 2.4871738106012344 4.498055472970008 3.1695856451988247 7.909892484545713 3.3992525935173026 3.8580668866634369 2.2465353459119788 5.6855526864528656 13.574967965483667 2.9413166642189017 2.4664792865514755 7.0254999101161957 3.8515130430459976 2.249169796705246 3.3560735583305359 2.4903995692729932 3.1619569510221472 5.6709458529949188 3.399414896965026 8.3691445142030734 2.9486676454544076 3.6369678080081949 10.882024765014647 4.0752837657928467 2.6989508420228958 2.9427696615457535 2.6897299438714972 2.9530452638864517 2.2618688493967056 10.820758253335955 22.130445301532749 4.7595897912979117 4.7585851848125467 14.937779083848 2.2553279101848602 4.7443983107805243 2.4921904653310767 69.725038692355156 8.3881841301918012 27.357683971524239
leaf_count=886 1616 10 124 11 10 49 65 18 19 36 26 61 81 25 15 10 29 20 12 26 12 12 86 19 12 28 12 69 18 10 10 11 34 10 38 18 133 13 15 15 11 16 16 15 10 18 19 20 52 11 21 37 10 58 11 20 14 35 15 17 10 25 60 13 11 31 17 10 15 11 14 25 15 37 13 16 48 18 12 13 12 13 10 48 98 21 21 66 10 21 11 308 37 120
internal_value=0 0.0302851 0.0608071 0.0665808 0.0607249 0.0617065 0.0637049 0.0612104 0.0594865 0.0753434 0.065382 0.0802388 0.0855533 0.0931595 0.0678207 0.0923635 0.0675481 0.0572125 0.0448781 0.0570214 0.0541234 0.0705982 0.0781225 0.0898442 0.0554627 0.0461665 0.0141653 0.0554966 0.0773998 0.0444377 0.060245 0.0621071 0.05306 0.0370201 0.0358017 0.0671365 0.0846763 0.0317115 0.028919 0.0360791 0.0546257 0.0356179 0.00419777 -0.025966 0.0990868 0.0184037 -0.000297907 0.106821 0.050728 -0.0131113 0.101825 0.0368004 0.0866904 0.0600588 0.0640565 0.0372912 0.0592394 0.0536187 0.0625669 0.0976412 0.0828626 0.0946339 0.0412714 0.053873 0.0255671 0.064122 0.0571822 0.0351111 0.0764686 0.042565 0.0603305 0.0826583 0.0319479 0.0619109 0.0554638 0.0672483 0.0817262 0.0373214 0.0849642 0.0655301 0.0206415 0.0318839 0.00539423 0.0715398 0.0649418 0.0760967 0.083558 0.0897883 0.0661045 0.0483304 0.0589653 0.0610114 0.0464073 0.0807926
internal_weight=0 836.925 645.926 619.195 371.153 366.284 345.24 333.886 314.926 248.042 81.7323 166.31 116.466 81.8779 49.8433 15.0421 34.5884 34.8012 23.5005 278.135 229.209 48.9261 36.7905 18.9604 224.959 76.4153 17.25 59.1654 19.8501 39.3152 148.543 142.214 72.5905 33.929 11.2075 38.6615 63.3463 31.4372 21.0432 18.8014 11.8865 8.52578 6.91489 6.04243 4.54668 6.32927 7.22979 12.7695 18.411 4.8695 10.6488 20.7728 16.1775 17.2043 6.07013 34.7686 30.9665 26.912 23.7424 9.75223 11.3007 9.0542 24.2074 20.3432 5.4078 14.9354 13.5058 6.29821 7.20759 30.2705 11.3233 8.16135 18.9472 38.2773 29.9121 21.5429 14.519 7.02395 8.36526 5.64172 12.3948 9.70508 6.75203 69.6235 44.9474 26.89 24.6761 21.9517 7.01391 18.0573 13.3129 71.9801 21.9632 57.632
internal_count=5360 3744 2858 2734 1642 1620 1526 1477 1393 1092 361 731 511 359 220 66 152 154 104 1231 1015 216 162 84 996 339 77 262 88 174 657 629 321 150 50 171 278 139 94 84 53 38 31 27 20 28 32 56 81 22 47 92 71 76 27 154 137 119 105 43 50 40 107 90 24 66 60 28 32 134 50 36 84 169 132 95 64 31 37 25 55 43 30 308 199 119 109 97 31 80 59 318 97 253
is_linear=0
shrinkage=0.05


Tree=2
num_leaves=95
num_cat=0
split_feature=2 7 7 8 5 3 1 1 3 5 6 3 8 5 5 8 1 3 3 3 3 4 3 1 8 8 3 3 6 3 5 3 1 1 3 1 3 3 3 1 1 5 5 8 5 1 1 1 1 8 1 8 6 8 5 5 5 3 1 3 8 6 1 1 3 1 6 8 8 1 5 3 1 5 6 1 1 3 1 3 8 5 1 1 3 3 6 1 8 5 8 6 3 1
split_gain=963.484 949.914 177.549 10.8493 10.4259 10.2422 6.69504 8.99795 6.68346 6.58403 7.22079 5.42948 4.72316 5.53495 4.44216 6.74757 5.30056 5.40111 7.43091 6.43451 4.7698 4.27028 3.99223 3.8211 3.81996 4.2936 4.13892 3.99024 5.56839 4.40877 3.52607 6.3608 5.45398 5.28932 5.11834 4.9381 4.81507 4.80394 4.06797 3.38345 5.88414 5.70721 4.66594 4.21468 3.9436 3.65578 3.64749 3.36843 3.36812 4.26295 3.48535 3.46223 3.29131 4.4456 3.87686 4.71496 5.02559 4.44496 9.54265 4.3907 4.35969 3.49715 3.99146 3.849 3.80534 4.72036 4.66366 3.66129 3.22509 3.17609 2.93443 2.81253 3.91016 2.69078 2.66679 4.2154 6.5231 2.95688 2.708 2.66336 2.81143 2.7926 4.36866 3.30793 4.31311 6.39461 3.76535 4.68455 2.60288 3.07906 2.55107 3.19178 2.51136 3.36052
threshold=4.5000000000000009 94402.000000000015 94406.000000000015 50.108224868774421 20.500000000000004 185344.00000000003 18.500000000000004 20.500000000000004 200859.50000000003 22.500000000000004 4.5000000000000009 126875.50000000001 58.387445449829109 12.500000000000002 8.5000000000000018 20.02506256103516 26.500000000000004 139777.00000000003 134121.50000000003 134897.50000000003 143234.50000000003 2.5000000000000004 145532.00000000003 31.500000000000004 66.452991485595717 68.947822570800795 139743.50000000003 143234.50000000003 14.500000000000002 140682.50000000003 5.5000000000000009 140681.50000000003 26.500000000000004 43.500000000000007 145122.50000000003 31.500000000000004 134122.50000000003 140210.50000000003 142832.50000000003 24.500000000000004 20.500000000000004 8.5000000000000018 3.5000000000000004 89.147258758544936 4.5000000000000009 22.500000000000004 1.0000000180025095e-35 37.500000000000007 40.500000000000007 62.533422470092781 22.500000000000004 91.042778015136733 4.5000000000000009 81.83014297485353 4.5000000000000009 8.5000000000000018 9.5000000000000018 153804.00000000003 33.500000000000007 164523.00000000003 95.916667938232436 13.500000000000002 41.500000000000007 36.500000000000007 174496.50000000003 27.500000000000004 5.5000000000000009 86.356163024902358 95.916667938232436 43.500000000000007 15.500000000000002 139541.50000000003 32.500000000000007 15.500000000000002 12.500000000000002 20.500000000000004 1.0000000180025095e-35 168625.00000000003 18.500000000000004 134123.50000000003 88.380489349365249 21.500000000000004 30.500000000000004 31.500000000000004 160107.50000000003 143242.50000000003 13.500000000000002 34.500000000000007 95.916667938232436 5.5000000000000009 54.262557983398445 5.5000000000000009 139542.50000000003 23.500000000000004
decision_type=2 2 2 2 2 2 2 2 2 2 2 2 2 2 2 2 2 2 2 2 2 2 2 2 2 2 2 2 2 2 2 2 2 2 2 2 2 2 2 2 2 2 2 2 2 2 2 2 2 2 2 2 2 2 2 2 2 2 2 2 2 2 2 2 2 2 2 2 2 2 2 2 2 2 2 2 2 2 2 2 2 2 2 2 2 2 2 2 2 2 2 2 2 2
left_child=1 -1 3 14 8 6 22 -8 12 10 -9 -12 13 90 15 30 74 18 -18 -20 -19 -14 -6 -7 26 -26 -23 28 29 39 31 -3 -33 35 -35 36 -32 -37 -38 40 46 42 -42 -43 -41 -44 -27 -25 49 -13 -51 -50 53 -29 57 88 60 58 -54 -59 -57 62 63 64 65 66 -58 -64 -66 71 -45 -21 -73 -67 75 76 77 -16 -76 80 -52 83 -83 -81 85 86 87 -85 89 -56 -5 -92 -77 -94
right_child=-2 2 -4 4 5 23 7 9 -10 -11 11 48 21 -15 16 -17 17 20 19 69 -22 24 -24 47 25 27 -28 52 -30 -31 33 32 -34 34 -36 37 38 -39 -40 44 41 43 45 70 -46 -47 -48 -49 51 50 79 -53 54 -55 55 56 61 59 -60 -61 -62 -63 67 -65 68 73 -68 -69 -70 -71 -72 72 -74 -75 78 92 -78 -79 -80 81 -82 82 -84 84 -86 -87 -88 -89 -90 -91 91 -93 93 -95
leaf_value=-0.071321811453543035 -0.071321811453543035 0.084214077774245111 -0.071321811453543035 -0.026762026955637088 0.020471490421790493 0.097166436608574408 0.12582685018603165 0.084386294546175467 -0.018516209803453101 0.086234573499871403 0.089052845053461546 -0.037516443117520344 0.0062931294906813807 0.088280477023933865 0.039917921209222128 0.10364073299676475 0.089427752491528886 0.10625876182925563 0.010769866041385689 0.1061491281637937 0.079738820555711909 0.039063348500055793 -0.056192268590213014 0.021180094155812821 0.0087439640384942355 0.059995538712691587 0.11214224202551737 0.13917007580435437 0.0090865594560507901 0.12399304251473264 0.09392077459115826 0.088020689815592523 0.027915043790753866 -0.04529041318420407 0.047700193586427408 0.041927301082323246 -0.031588961295357404 0.12096638506127994 0.040300850732385464 0.098422828983999497 0.009532248489568523 -0.029663219391874097 0.061093653886116421 0.015425843582592691 0.070996949324932765 0.13591957302723179 0.12582685018603162 0.094179618982887334 0.079615612793854318 0.060675083799267504 -0.041814810587306538 0.020046262022528721 -0.060862098039388579 0.067868041049216746 0.10149203724188315 0.05063353156311047 0.095478619187305672 0.10708234978798188 0.066186225569486362 0.035193936160411748 -0.023480354445799528 0.081471295496132093 0.029253102307712022 -0.0023981218200167442 -0.0015244295194904846 0.071972282023335263 0.027243201684695458 0.10320795702597862 0.054960227383857398 0.021605690649597421 0.08207873033510775 0.006288943390492914 0.095735528623291627 0.13895738726137313 0.040588793235971893 0.069104720258714308 0.13091417211659045 0.10063127932848169 0.10071650131632402 0.043960532194660555 0.016716954462276199 -0.027265795083744271 0.051391115458674377 -0.003019685390046769 0.076470412433205168 -0.075044470786174169 -0.020696737306897653 0.087592245094469626 0.10461413250823733 0.031667458699805084 0.073368807410628109 -0.010258164886263438 0.010117344718612125 0.050763735535211144
leaf_weight=185.6876856982708 338.68092560768127 18.729526877403259 25.987892806529999 3.1079765260219556 4.6890422254800788 11.355153366923334 3.1130759716033927 7.0076284706592551 2.5245194286108008 6.9603329151868811 3.8951395750045767 2.6644595563411704 3.0911982655525199 2.9996925294399261 7.16908912360668 7.6630525290966025 16.295325413346291 22.776042625308037 8.4808751642704028 5.1227459609508497 66.338407173752785 2.5451941192150107 2.6623076200485229 4.0791305601596823 3.4534605592489234 4.3550941050052661 8.1149290204048139 2.5318311601877239 3.4433136582374564 4.1846961230039588 2.3155060559511247 5.0947646647691753 14.560690030455588 3.1756912022829047 2.770902007818222 3.7178762108087531 3.2188892066478711 3.9808780699968338 5.0629510283470154 16.924160286784172 2.2919775545597094 3.3189982473850232 3.9340756982564926 4.8237538784742355 58.117357969284058 2.7900159060955048 4.0709455013275146 2.579586461186409 6.0053337216377241 6.870411127805709 2.923241972923277 4.1076382696628571 3.1708668023347881 16.008181869983673 2.7758003175258619 4.3132431656122199 3.4542352557182356 2.7204664945602408 2.7683631479740143 9.6876584291458112 3.6747855097055435 13.14128242433071 2.3154309391975385 3.9350401759147635 5.2610529810190183 3.6725958138704291 9.1033488214015961 6.0370401442050934 4.8629571348428726 3.0003375560045233 2.5108234286308289 2.33171246945858 2.5668515264987946 2.5333591103553772 2.528481259942053 8.7963991016149503 4.2473893314599982 2.7842715233564377 7.2186957001686096 25.557357251644135 6.880006805062294 5.0108410120010367 2.7254361212253571 2.7158453762531263 2.2780765742063513 2.2214635014533988 3.6009355336427689 3.0042459666728973 7.8951819390058517 3.6614496856927872 2.3047588765621185 2.2596315145492554 7.4766738116741207 15.897605150938032
leaf_count=886 1616 81 124 14 21 49 13 30 11 30 17 12 14 13 31 33 70 97 37 22 285 11 12 18 15 19 35 11 15 18 10 22 63 14 12 16 14 17 22 73 10 15 17 21 251 12 17 11 26 30 13 18 14 69 12 19 15 12 12 42 16 57 10 17 23 16 40 26 21 13 11 10 11 11 11 38 18 12 31 112 30 22 12 12 10 10 16 13 34 16 10 10 33 69
internal_value=0 0.0285317 0.0567572 0.0620329 0.0566625 0.0447025 0.038721 0.0421888 0.0624341 0.0394315 0.0357071 0.0314675 0.0632445 0.0306929 0.0700379 0.0593537 0.0741411 0.0797992 0.0639612 0.0446617 0.0865168 0.064683 -0.00729246 0.0795321 0.0654401 0.0640708 0.094694 0.0649227 0.0716743 0.0736823 0.0539347 0.0633632 0.0434946 0.039006 -0.00196008 0.0523208 0.0301806 0.0827969 0.0123596 0.071641 0.0568406 0.0418643 0.071141 0.0170875 0.0771823 0.092141 0.0918012 0.0494601 0.0285379 0.0244469 0.0270351 0.05542 0.0583351 0.0776051 0.0545738 0.0595164 0.0535681 0.0339287 -0.00164299 0.0509554 0.0165384 0.0590139 0.0518464 0.0439934 0.0503128 0.0636428 0.0460128 0.0827066 0.0256074 0.0667352 0.0382429 0.0802468 0.053159 0.0993166 0.0613453 0.0563481 0.0790383 0.0569014 0.085119 0.0229745 -0.0007367 0.0279082 0.000444482 0.0333037 0.0135969 0.00118791 0.0193562 0.0445706 0.0853741 0.0617764 0.00817766 0.0319687 0.0463322 0.0377623
internal_weight=0 842.595 656.907 630.919 377.597 122.907 104.893 97.5415 254.691 94.4284 87.4681 80.4604 252.166 10.6721 253.322 70.2907 183.031 126.912 37.7978 21.5025 89.1144 241.494 7.35135 18.0139 238.403 227.743 10.6601 224.289 110.765 107.322 62.6277 38.385 19.6555 24.2427 5.94659 18.2961 10.5973 7.69875 8.28184 103.137 28.0957 19.6696 9.01607 10.6536 75.0415 6.72409 8.42604 6.65872 76.5653 66.4523 63.7879 10.113 113.524 18.54 94.9842 76.6368 62.3044 18.3474 5.93923 12.4081 7.98803 54.3163 41.1751 32.8226 28.8875 18.7635 12.5576 8.35247 10.124 13.0216 7.33458 10.0213 4.89856 6.20595 56.1186 46.3714 14.2007 9.95336 9.74718 56.9175 9.80325 47.1142 7.73628 39.3779 13.8206 11.5425 9.32103 5.72009 14.3324 6.43725 7.67237 4.56439 32.1707 23.3743
internal_count=5360 3744 2858 2734 1642 537 459 426 1105 413 383 353 1094 47 1092 304 788 545 163 93 382 1047 33 78 1033 987 46 972 479 464 271 166 85 105 26 79 46 33 36 446 122 86 39 47 324 29 36 29 336 292 280 44 493 80 413 333 271 80 26 54 35 236 179 143 126 82 55 36 44 56 32 43 21 27 243 201 61 43 42 250 43 207 34 173 61 51 41 25 62 28 34 20 140 102
is_linear=0
shrinkage=0.05


Tree=3
num_leaves=95
num_cat=0
split_feature=2 7 7 8 5 3 3 5 8 3 6 5 4 3 3 3 3 3 3 8 5 5 8 8 8 3 5 3 6 3 3 3 8 3 3 0 3 3 8 6 5 8 6 5 5 3 3 3 6 8 3 8 3 8 5 5 5 3 3 6 3 0 3 3 8 8 8 3 3 3 3 5 5 6 3 5 5 3 0 8 8 3 5 8 3 8 5 8 3 8 8 8 0 5
split_gain=887.559 858.625 158.713 9.40384 9.15523 8.84392 5.88643 4.63292 4.54393 4.42037 3.92748 5.73274 3.56698 3.38789 5.77816 3.3571 3.65203 3.57257 3.3191 3.99431 5.87771 5.81179 4.42015 4.63798 3.51798 3.16126 3.04567 5.46364 3.28788 3.82059 2.86626 2.82356 5.05794 2.76542 2.57919 2.55855 2.51157 4.15076 2.9734 2.51238 2.35532 5.56026 2.33066 8.1739 4.14762 3.29991 3.92796 4.04557 3.92895 3.69688 4.18587 3.24358 3.23042 3.05241 3.64349 3.47004 3.84255 8.40446 5.31426 3.32738 5.09085 3.29235 2.57061 3.55206 2.43066 3.20566 2.34872 2.2513 4.03526 2.8894 2.2441 2.24144 2.18092 4.21562 2.69918 2.47524 2.69668 2.10588 2.0893 2.08915 2.0251 2.02358 2.00779 3.62907 1.89426 1.81854 1.75362 4.65066 4.70136 2.90989 2.08261 1.69676 1.65675 1.58997
threshold=4.5000000000000009 94402.000000000015 94406.000000000015 47.633054733276374 20.500000000000004 185344.00000000003 200081.50000000003 8.5000000000000018 20.02506256103516 129101.50000000001 4.5000000000000009 22.500000000000004 2.5000000000000004 139743.50000000003 134121.50000000003 134897.50000000003 139542.50000000003 139540.50000000003 129101.50000000001 58.387445449829109 4.5000000000000009 6.5000000000000009 66.452991485595717 69.253246307373061 53.45238113403321 138390.50000000003 5.5000000000000009 140681.50000000003 4.5000000000000009 149721.50000000003 134123.50000000003 198316.00000000003 80.741760253906264 185293.50000000003 143623.50000000003 10.500000000000002 134123.50000000003 140448.00000000003 93.288288116455092 5.5000000000000009 8.5000000000000018 62.899168014526374 14.500000000000002 9.5000000000000018 8.5000000000000018 155456.50000000003 160524.00000000003 168625.00000000003 6.5000000000000009 84.635734558105483 175954.50000000003 98.913043975830092 145944.00000000003 96.720428466796889 3.5000000000000004 3.5000000000000004 4.5000000000000009 143236.50000000003 134507.00000000003 5.5000000000000009 153778.50000000003 10.500000000000002 134121.50000000003 134122.50000000003 83.178913116455092 98.913043975830092 91.56504058837892 139777.00000000003 139006.50000000003 140210.50000000003 145532.00000000003 14.500000000000002 15.500000000000002 5.5000000000000009 139543.50000000003 17.500000000000004 18.500000000000004 145532.00000000003 10.500000000000002 98.913043975830092 98.913043975830092 134121.50000000003 1.5000000000000002 85.811687469482436 182894.00000000003 86.356163024902358 5.5000000000000009 81.405803680419936 143606.50000000003 88.380489349365249 85.634922027587905 62.533422470092781 10.500000000000002 21.500000000000004
decision_type=2 2 2 2 2 2 2 2 2 2 2 2 2 2 2 2 2 2 2 2 2 2 2 2 2 2 2 2 2 2 2 2 2 2 2 2 2 2 2 2 2 2 2 2 2 2 2 2 2 2 2 2 2 2 2 2 2 2 2 2 2 2 2 2 2 2 2 2 2 2 2 2 2 2 2 2 2 2 2 2 2 2 2 2 2 2 2 2 2 2 2 2 2 2
left_child=1 -1 3 7 6 9 12 8 26 -6 79 36 -5 14 -9 30 17 25 92 20 -20 -22 40 -24 -23 -17 27 -3 -29 -30 -16 -7 -33 -31 -28 -36 38 67 81 -40 -21 -42 44 -44 53 52 51 -48 49 -49 -51 -47 62 54 82 -55 57 -57 -58 60 61 -60 -46 -64 -45 -66 -54 68 -38 -69 -10 -52 74 -74 -65 -75 -77 -13 -70 -11 -71 -12 -25 -84 -50 -86 90 -88 89 -89 -56 -39 -14 -15
right_child=-2 2 -4 4 5 31 -8 13 70 10 11 77 18 93 15 16 -18 -19 19 22 21 24 23 42 -26 -27 34 28 29 33 -32 32 -34 -35 35 -37 37 91 39 -41 41 -43 43 64 45 46 47 48 84 50 71 -53 66 55 86 56 58 -59 59 -61 -62 -63 63 72 65 -67 -68 69 78 80 -72 -73 73 75 -76 76 -78 -79 -80 -81 -82 -83 83 -85 85 -87 87 88 -90 -91 -92 -93 -94 -95
leaf_value=-0.069854062433002781 -0.069854062433002781 0.078273254991644878 -0.069854062433002781 0.0059653708026897873 0.073563577243338743 0.10724258188548358 -0.0063511625962964034 0.077260853226503237 0.067546305360011008 0.034542128248809818 0.0062805588162325107 0.10111975970556447 0.10763727239699708 0.07598779820099788 0.0388513303277205 0.072092945558973831 0.013445913286984065 0.097850970003106996 -0.037339654393291385 0.11773121348792744 0.11329929536340418 0.05715518820792153 -0.00090183839402722303 0.075637104918099732 -0.0092304065957957981 0.0095689265193506408 0.025153853500151303 0.081317346953133751 0.00032037032986322419 0.067785757885916828 -0.016820981086022518 -0.00098199969042156291 0.077108333104758869 0.0088091562639438913 0.018085838164665854 0.078325578724813591 0.074221035773872332 -0.010390849876403915 0.059389565277406568 -0.0055067913099883618 0.0155649808204485 0.11323910984869681 -0.018337314970604677 0.1117116780991543 0.083754782623628787 0.038127112322736939 0.1010527976662756 -0.019263662360998003 0.039018830662225112 0.096330693096150027 0.0069691266372189633 -0.038706599830800582 0.13150331420622252 0.097825278023887033 0.057810293965336393 0.095089653173390964 0.018708557343566152 0.0047867911684151901 0.080073917530613201 0.11141437564191276 0.11595712557512293 0.0083844560813292144 -0.0033191436172214485 0.06806098327005565 0.0075011315741515252 0.090480661667754314 0.066778071316931115 0.086502277602656302 -0.014106481214556252 0.016950673387906116 0.1279303466575267 0.057962273295862669 0.098562465953315859 0.09732438425616291 0.040623019786975773 0.020425283913898439 0.063977728211755111 0.046605288055713762 0.034087839250088674 0.087039677471395571 0.070827823577261195 -0.055088107148490932 0.068578600583343793 0.0044023207093406352 0.049414209556966279 0.10565255721401304 0.095140171081641786 0.027094233772650123 -0.020135799276235905 0.089225537806723446 0.10457765189739726 0.024444455336804345 0.071273820004306349 0.058347136716945837
leaf_weight=180.24773052334785 328.75884032249451 19.132436409592628 25.226544678211212 3.0978128015995017 7.4830435514450064 4.7509483695030239 3.4605506509542456 24.207390531897545 3.335509940981864 3.0480432063341123 2.9681632220745069 3.5567855238914481 4.7501178383827183 115.41658966243267 8.0899270027875918 5.2081031948328036 3.7408539205789557 6.1443543136119834 2.4936117678880683 4.7553166747093183 2.5776168555021277 4.3986479341983777 3.2292851954698554 2.5710678100585911 3.6530211567878723 3.3042905181646347 16.249576628208164 4.0061501711607006 6.2829978913068762 6.775309741497038 3.2370254695415488 2.5517609268426886 11.065206766128538 2.8128571361303329 2.561819911003111 5.6504321545362473 3.9264416545629528 3.80578789114952 3.2471942901611328 2.7581062465906143 2.5917050540447235 3.3281192183494568 4.1548910737037641 2.3444106131792068 8.2136886268854123 3.0006005913019171 3.2988198101520565 3.4302775710821178 3.7601983398199064 2.5590520501136771 6.3204738497734052 2.5332767963409424 2.5907838046550742 14.564901590347288 3.9832834303379077 4.5165391564369184 3.0419486165046719 5.9987937062978745 3.088864743709566 9.2909443527460081 3.7960139065980911 3.3260225355625153 2.5864620804786673 13.129883438348768 2.3114380687475204 2.3443990647792816 3.0535493940114975 6.035113722085951 3.8994953632354719 4.1596429049968719 2.8561739921569824 3.2698389440774918 7.7909096330404308 2.8123927265405664 28.245338886976242 6.0233381390571585 8.6704038977622986 3.5294685363769531 5.3123937994241714 5.0100569874048233 3.0034764260053635 2.4537633657455444 3.3221959620714188 6.5380692481994629 2.3269097357988358 3.7605987638235092 5.6696492880582801 3.7404081076383573 2.5504691302776337 3.798032134771347 5.9159214645624161 42.886468216776848 9.1969753205776215 14.362736508250235
leaf_count=886 1616 81 124 14 32 20 15 102 14 13 13 15 20 487 35 22 16 26 11 20 11 19 14 11 16 14 70 17 27 29 14 11 47 12 11 24 17 17 14 12 11 14 18 10 35 13 14 15 16 11 27 11 11 62 17 19 13 26 13 39 16 14 11 56 10 10 13 26 17 18 12 14 33 12 121 26 37 15 23 21 13 11 14 28 10 16 24 16 11 16 25 187 39 61
internal_value=0 0.0269544 0.0531616 0.0580059 0.0531055 0.0419997 0.0584277 0.065495 0.0545155 0.0365015 0.033717 0.0307712 0.0592955 0.0696584 0.0591255 0.0443563 0.057541 0.0687954 0.0599429 0.0585719 0.0317474 0.0479551 0.0601149 0.0585729 0.0270362 0.0478227 0.0505271 0.0592003 0.0408421 0.0306254 0.0229413 0.074054 0.0624745 0.0504839 0.0366958 0.0595337 0.0271468 0.0305576 0.00534948 0.0295841 0.0915269 0.0704773 0.0594694 0.0372178 0.0606916 0.0545856 0.0415275 0.0489583 0.0421998 0.0265738 0.0395157 0.00295448 0.059968 0.0690533 0.0585026 0.0774916 0.0685331 0.0435736 0.0801753 0.089763 0.0700623 0.042904 0.0573074 0.0541709 0.0701917 0.0492846 0.0964874 0.0464295 0.0317776 0.0610149 0.095401 0.0243554 0.0564011 0.0679663 0.0493301 0.0543498 0.0461245 0.0739676 0.0136866 0.067182 0.0395412 -0.0214926 0.0362859 0.0260251 0.0669209 0.0841558 0.0692667 0.0589064 0.0385442 0.0583974 0.0857592 0.0216051 0.0836585 0.0740355
internal_weight=0 846.078 665.83 640.604 387.229 125.451 261.778 253.375 69.6633 107.083 99.6004 91.5423 258.317 183.711 53.9319 29.7246 18.3976 14.6567 255.219 241.272 13.1229 10.6293 228.149 217.474 8.05167 8.51239 63.4716 39.0098 19.8773 15.8712 11.327 18.3679 13.617 9.58817 24.4618 8.21225 84.456 73.0288 11.4272 6.0053 10.6751 5.91982 214.245 11.1551 203.09 117.377 34.26 28.7262 25.4273 15.5796 12.1494 5.53388 83.1168 85.7131 38.0891 47.624 33.0591 10.5153 22.5438 19.5018 10.2109 6.41489 77.4724 69.2587 7.00025 4.65584 5.64433 26.3366 13.1383 13.1982 6.19168 9.59031 66.6723 25.297 41.3752 17.5061 14.6937 7.08625 9.21189 8.0581 7.16312 5.42193 12.4313 9.86027 9.84771 6.08751 25.6578 15.7586 10.0889 7.53844 9.8992 46.6923 13.9471 129.779
internal_count=5360 3744 2858 2734 1660 542 1118 1074 297 464 432 398 1103 777 229 127 78 62 1089 1030 57 46 973 928 35 36 271 166 85 68 49 78 58 41 105 35 368 318 50 26 45 25 914 48 866 502 147 123 109 67 52 24 355 364 162 202 140 45 95 82 43 27 331 296 30 20 24 114 57 57 26 41 285 108 177 75 63 30 40 34 31 24 53 42 42 26 109 67 43 32 42 204 59 548
is_linear=0
shrinkage=0.05


Tree=4
num_leaves=95
num_cat=0
split_feature=2 7 7 8 5 3 1 1 3 5 6 3 5 1 3 3 1 3 8 3 5 0 1 3 1 1 1 1 3 3 8 3 1 1 1 0 8 3 0 3 1 1 1 8 3 8 6 0 8 8 5 1 3 3 1 8 3 3 3 8 1 1 8 1 3 5 8 8 8 1 8 3 3 0 5 3 5 3 3 8 8 8 5 3 3 1 1 6 3 3 3 1 3 3
split_gain=819.256 778.409 142.392 8.20468 8.01108 7.74072 5.79421 7.84629 5.27376 5.05796 5.66465 4.84563 4.03322 5.05467 4.6102 5.4136 5.75999 4.04993 3.95582 3.59874 3.5605 3.47535 4.46773 3.69065 3.17784 3.03164 9.78975 4.04163 4.13697 3.76567 4.51671 3.15381 3.02582 3.01288 3.85514 3.64551 4.08076 3.89262 3.23809 4.39303 3.99466 3.00006 2.99775 2.97009 2.93123 3.97875 2.86798 2.79551 2.77697 2.77253 3.20432 3.98822 2.73935 4.37326 2.70592 2.59595 2.56982 2.56527 5.28171 2.55393 2.47603 2.47112 2.43932 2.39945 4.34643 2.29763 2.15696 2.87506 2.8232 2.85787 3.83332 2.19286 2.18646 2.58531 2.15038 2.94255 2.16375 2.02294 3.69853 3.07769 1.97814 1.95269 1.9186 1.91764 1.90394 1.89945 7.293 3.42598 2.45705 2.13868 2.07105 3.14416 3.23815 7.10958
threshold=4.5000000000000009 94402.000000000015 94406.000000000015 47.633054733276374 20.500000000000004 185344.00000000003 18.500000000000004 20.500000000000004 200859.50000000003 22.500000000000004 4.5000000000000009 126875.50000000001 8.5000000000000018 26.500000000000004 139777.00000000003 134121.50000000003 49.500000000000007 134897.50000000003 20.02506256103516 145532.00000000003 20.500000000000004 10.500000000000002 51.500000000000007 143234.50000000003 31.500000000000004 1.0000000180025095e-35 20.500000000000004 22.500000000000004 198345.00000000003 182894.00000000003 92.880565643310561 142832.50000000003 34.500000000000007 40.500000000000007 27.500000000000004 10.500000000000002 81.405803680419936 160524.00000000003 10.500000000000002 143623.50000000003 23.500000000000004 42.500000000000007 23.500000000000004 13.563218116760256 129101.50000000001 58.387445449829109 5.5000000000000009 10.500000000000002 91.042778015136733 13.563218116760256 6.5000000000000009 41.500000000000007 140681.50000000003 143606.50000000003 39.500000000000007 94.59064102172853 143608.50000000003 143232.50000000003 140009.00000000003 98.913043975830092 29.500000000000004 24.500000000000004 91.042778015136733 35.500000000000007 155456.50000000003 21.500000000000004 66.079193115234389 69.253246307373061 73.313842773437514 49.500000000000007 88.380489349365249 143240.50000000003 184240.50000000003 10.500000000000002 6.5000000000000009 126875.50000000001 17.500000000000004 142832.50000000003 134896.50000000003 98.913043975830092 85.634922027587905 54.262557983398445 17.500000000000004 145532.00000000003 140681.50000000003 20.500000000000004 1.0000000180025095e-35 12.500000000000002 140009.00000000003 134122.50000000003 139542.50000000003 23.500000000000004 175955.50000000003 145532.00000000003
decision_type=2 2 2 2 2 2 2 2 2 2 2 2 2 2 2 2 2 2 2 2 2 2 2 2 2 2 2 2 2 2 2 2 2 2 2 2 2 2 2 2 2 2 2 2 2 2 2 2 2 2 2 2 2 2 2 2 2 2 2 2 2 2 2 2 2 2 2 2 2 2 2 2 2 2 2 2 2 2 2 2 2 2 2 2 2 2 2 2 2 2 2 2 2 2
left_child=1 -1 3 12 8 6 19 -8 25 10 -9 -12 18 85 15 65 17 82 49 -6 -19 22 43 -23 -7 46 -27 29 44 30 31 80 -26 34 38 57 -37 77 39 42 59 -35 -13 63 74 47 55 -46 -43 50 52 -52 54 60 -3 56 -5 58 -36 -40 -54 -42 -48 -16 -65 -15 -47 -68 84 72 -71 -72 -70 -74 75 -29 -76 78 -38 -79 -28 -49 -17 -20 -69 86 88 90 89 -14 -87 -92 93 -93
right_child=-2 2 -4 4 5 24 7 9 -10 -11 11 33 13 14 21 16 -18 20 83 -21 -22 23 -24 -25 32 26 27 28 -30 -31 -32 -33 -34 41 35 36 37 -39 40 -41 61 48 -44 -45 45 66 62 81 -50 -51 51 -53 53 -55 -56 -57 -58 -59 -60 -61 -62 -63 -64 64 -66 -67 67 68 69 70 71 -73 73 -75 76 -77 -78 79 -80 -81 -82 -83 -84 -85 -86 87 -88 -89 -90 -91 91 92 -94 -95
leaf_value=-0.068514503241946481 -0.068514503241946481 0.05686806546881204 -0.068514503241946481 -0.0048410671198146835 0.017583182161238772 0.084960896189147206 0.11457724581805495 0.074159916861984157 -0.017402145273047658 0.075241688791261363 0.079723889287183991 0.040597098437918575 0.049466885035650193 0.06979842551141123 0.063868784045057955 -0.011753809429769451 -0.035177756706103812 0.040960710640519933 0.063290484414250545 -0.055246932074625776 0.095573067716084481 0.10306782768792709 0.11120589236074124 0.075858595882919044 0.0045442244669651197 0.11345856082351165 -0.05652195173173688 0.1008480562222025 0.027990959352787781 0.092306536004773093 0.0497883544515028 0.031510464094357316 0.071516586147596636 0.094132471199953785 -0.020689289121800014 -0.024886185389146179 -0.005533574362606427 0.083372067289919694 0.014868038655200956 0.0072448654699041153 -0.039359940864898357 0.06036897731512169 0.10062236062778765 0.097088752849214296 -0.019673266290597513 0.084330046540274484 -0.034592909781864641 0.069236613672074176 -0.0011441408174675935 0.00096607310352078354 0.047282397781797908 -0.019902474319077129 0.048082022010848102 0.054823144524450376 0.094614995572343971 0.092839924855180389 0.059113737566401307 -0.038433751800222779 0.069662604680500562 0.072127817944128605 -0.016756664996628128 0.01552758886444635 0.033077164760517391 0.05636796920716463 -0.0095702718839005274 0.12254317380707187 0.014292708906304859 0.12411614585244186 0.057580373411885245 -0.015183201745999388 0.023615233755944098 0.080969796771566571 0.047742222650794232 0.10139120458959645 0.12431656813002903 0.0274554558887623 0.066328067227083218 0.031966552077051902 0.059282580695782065 -0.040403093999985241 0.0077943518337377019 0.01454069203022218 0.04064396952780025 0.11858011037827923 0.067313067705240384 0.060526873454840528 0.11653082762882234 0.081185486396853246 0.063456131680771896 -0.016187114657094489 0.0060353825837030466 0.058771752293799641 0.093296949015877706 -0.020639367344284329
leaf_weight=174.72330620884895 318.68268942832947 17.895436227321628 24.453374683856964 2.6042623966932279 4.7638878971338263 11.803751438856127 3.1969183087348929 7.2410259246826163 2.506404995918273 7.2193940728902808 4.3010292798280707 3.7350503355264646 2.6365244835615176 14.248545333743097 11.531354129314431 3.0016751140356126 2.3068839162588111 6.4551320075988752 3.3805762678384772 2.633985161781311 5.5509115159511566 17.352630779147148 4.0967713445425025 44.224846586585045 3.0036643594503394 7.3903561830520621 2.4802611172199285 2.4211938232183439 11.499279737472532 2.5904653519392005 11.382850274443626 4.9096619188785553 3.8460164815187454 2.8420840799808484 5.2520242780446988 3.833731725811961 3.4476027637720126 3.0540733635425559 3.2214574068784732 3.4792237132787696 2.5412187725305548 4.2450243234634399 4.6941459625959396 3.6000150442123404 2.5295748561620695 7.9735918641090384 2.2934442907571784 3.3061636835336685 3.231386661529541 3.0565938204526892 6.1798419654369336 3.437637597322464 2.3416181057691601 20.857239231467247 6.4622990041971198 2.5910493582487106 3.957761824131012 5.2070319801568985 2.3373148888349533 4.9238625913858414 3.9665916264057159 10.622022688388823 3.1758355498313904 6.4606337249279004 4.0758590847253799 2.4146225750446311 3.7266945093870154 2.6448800563812247 146.91714790463448 3.0580197721719724 3.3173020333051682 3.349011018872261 3.5121659338474256 6.2268953770399094 4.0833180993795395 3.1328430622816086 2.6543650478124619 3.1881145238876334 6.0864005833864212 2.7246219515800476 2.307997927069664 3.2220708727836609 4.1796583384275436 2.9253576546907425 3.3357100933790207 9.0750941187143308 5.141556814312934 6.0354950577020636 7.8723513782024384 2.342463806271553 7.6449251174926784 9.2563359439373034 2.8524160236120215 4.0524875670671454
leaf_count=886 1616 75 124 11 21 49 13 30 11 30 18 16 11 59 48 13 10 27 14 12 23 71 17 183 13 30 11 10 49 11 48 21 16 12 23 17 15 13 14 15 11 18 20 15 11 33 10 14 14 13 26 15 10 88 27 11 17 23 10 21 17 46 14 27 17 10 16 11 618 13 14 14 15 26 17 13 11 14 26 12 10 14 18 12 14 38 21 25 33 10 33 39 12 17
internal_value=0 0.0255203 0.0499283 0.0543932 0.0498396 0.0394964 0.0343603 0.0375001 0.054782 0.034971 0.0317481 0.0280466 0.0613372 0.0651899 0.070648 0.0560518 0.0394696 0.0484444 0.0511505 -0.00834771 0.0662104 0.0767455 0.0627176 0.0835262 0.0692398 0.0554709 0.0567755 0.0550343 0.0571752 0.0354167 0.0284259 0.00335184 0.0421484 0.0252212 0.0214192 0.00987234 0.0220639 0.0317929 0.0336313 0.0545139 0.021961 0.0504049 0.0740246 0.0549785 0.058809 0.0573021 0.0333472 0.0249502 0.0337823 0.0474385 0.0497618 0.0232681 0.0547072 0.0437903 0.0668826 0.0504643 0.0337321 -0.0114066 0.00713669 0.0494817 0.00731157 0.00493132 0.00470093 0.0481089 0.0308609 0.0774415 0.0588941 0.0577424 0.0586818 0.0574686 0.0311669 0.0524289 0.0591012 0.0820439 0.0824839 0.0594498 0.101472 0.0215948 0.0358443 -0.00138178 -0.0255207 0.0422409 0.0187426 0.0889396 0.0924339 0.0527699 0.066204 0.0465587 0.0460693 0.0185787 0.0402028 0.0324551 0.0449527 0.0345914
internal_weight=0 847.866 673.142 648.689 391.777 126.676 108.023 100.625 265.101 97.4278 90.2084 82.9674 256.912 186.409 129.5 38.1574 21.4943 19.1874 70.5032 7.39787 12.006 91.3421 29.7646 61.5775 18.6534 262.594 247.972 240.581 216.91 23.6712 21.0808 9.69792 6.84968 78.6664 68.3479 35.1309 22.3345 18.5008 33.217 11.9084 21.3086 10.3185 8.4292 25.6679 205.411 193.119 14.6224 9.05781 7.47641 64.1973 61.1407 9.61748 51.5232 27.1654 24.3577 9.15307 6.56202 12.7964 7.58934 8.14532 6.30821 13.1632 5.46928 22.0678 10.5365 16.6632 184.061 176.088 172.361 166.381 9.72433 6.66631 156.656 9.73906 12.2917 5.55404 6.73768 15.4467 9.534 5.91274 4.78826 6.52823 7.18133 6.30593 5.98059 56.9097 17.9929 38.9168 12.8513 4.97899 32.8813 23.8062 16.1612 13.3088
internal_count=5360 3744 2858 2734 1660 542 464 431 1118 418 388 358 1074 777 538 160 91 81 297 33 50 378 124 254 78 1107 1044 1014 913 101 90 42 29 340 296 153 97 80 143 51 92 44 36 107 864 813 63 39 32 271 258 41 217 115 102 39 28 56 33 35 27 57 24 92 44 69 774 741 725 700 41 28 659 41 51 23 28 67 41 26 21 28 31 26 25 239 75 164 54 21 139 101 68 56
is_linear=0
shrinkage=0.05


Tree=5
num_leaves=95
num_cat=0
split_feature=2 7 7 4 8 5 6 5 1 0 8 5 1 1 8 0 6 1 1 8 5 8 1 5 5 1 6 1 6 8 1 6 8 5 1 5 1 1 1 5 5 0 0 5 1 8 8 8 5 1 1 1 8 8 6 1 5 5 1 6 8 6 5 8 1 1 5 1 1 1 1 8 8 6 1 1 5 5 6 6 1 1 5 6 5 8 5 1 1 8 1 5 8 1
split_gain=757.631 707.725 128.207 7.52464 6.2789 6.48305 5.44787 5.58305 3.37893 3.31331 3.13576 5.40284 3.00712 4.11683 5.26913 4.04219 3.80311 3.73435 8.2524 3.11281 2.99594 3.05498 2.99557 6.5174 4.34758 4.07357 3.81388 3.71209 5.18282 3.41888 3.20146 4.59171 3.03579 2.98228 3.6639 4.11023 2.93455 4.80151 4.44285 2.84575 2.80352 2.79593 2.77589 2.71424 2.63765 3.48251 3.15275 2.6193 2.53439 2.52119 8.09507 4.01457 3.38305 2.51745 2.34127 2.33935 2.24374 3.3149 2.20986 2.20189 2.10544 2.09958 5.24454 2.0426 2.036 3.32742 1.96194 1.88871 2.2253 3.35396 1.78109 1.77074 1.71317 1.67998 1.65277 1.59686 1.5331 1.53186 1.5304 1.51599 1.85385 1.47747 1.68321 1.42512 1.33886 1.29067 1.26644 1.27744 1.6971 1.23503 1.21014 1.78019 1.12312 1.12086
threshold=4.5000000000000009 94402.000000000015 94406.000000000015 2.5000000000000004 50.108224868774421 20.500000000000004 4.5000000000000009 22.500000000000004 35.500000000000007 9.5000000000000018 55.662393569946296 12.500000000000002 27.500000000000004 40.500000000000007 81.405803680419936 10.500000000000002 5.5000000000000009 18.500000000000004 20.500000000000004 91.042778015136733 11.500000000000002 7.0197043418884286 26.500000000000004 19.500000000000004 20.500000000000004 29.500000000000004 5.5000000000000009 20.500000000000004 4.5000000000000009 10.01253128051758 30.500000000000004 12.500000000000002 15.878787994384767 15.500000000000002 37.500000000000007 6.5000000000000009 50.500000000000007 36.500000000000007 55.500000000000007 21.500000000000004 4.5000000000000009 9.5000000000000018 10.500000000000002 14.500000000000002 24.500000000000004 87.96551895141603 90.824913024902358 98.913043975830092 14.500000000000002 1.0000000180025095e-35 20.500000000000004 22.500000000000004 92.880565643310561 79.622509002685561 6.5000000000000009 23.500000000000004 6.5000000000000009 10.500000000000002 37.500000000000007 5.5000000000000009 15.362761974334719 12.500000000000002 6.5000000000000009 71.065532684326186 29.500000000000004 31.500000000000004 3.5000000000000004 43.500000000000007 25.500000000000004 20.500000000000004 32.500000000000007 88.380489349365249 91.747310638427749 2.5000000000000004 23.500000000000004 33.500000000000007 17.500000000000004 6.5000000000000009 5.5000000000000009 6.5000000000000009 27.500000000000004 50.500000000000007 21.500000000000004 8.5000000000000018 6.5000000000000009 53.034187316894538 20.500000000000004 33.500000000000007 49.500000000000007 81.83014297485353 25.500000000000004 6.5000000000000009 88.819442749023452 42.500000000000007
decision_type=2 2 2 2 2 2 2 2 2 2 2 2 2 2 2 2 2 2 2 2 2 2 2 2 2 2 2 2 2 2 2 2 2 2 2 2 2 2 2 2 2 2 2 2 2 2 2 2 2 2 2 2 2 2 2 2 2 2 2 2 2 2 2 2 2 2 2 2 2 2 2 2 2 2 2 2 2 2 2 2 2 2 2 2 2 2 2 2 2 2 2 2 2 2
left_child=1 -1 3 43 9 10 8 12 71 20 11 85 17 14 41 16 -16 72 -19 93 21 61 24 25 27 40 33 77 -29 73 31 -25 55 34 35 -27 37 76 -38 64 -24 -14 44 -3 45 -20 -46 89 78 59 -51 52 53 -52 86 -30 -39 -58 -35 66 -23 67 -63 -43 -17 -66 -12 68 69 -5 -37 -7 -8 -26 -49 -32 -28 -11 -22 80 -9 82 83 -77 -36 -6 -50 -88 -89 -44 91 -57 -91 -15
right_child=-2 2 -4 4 5 6 7 79 -10 22 49 -13 13 19 15 39 -18 18 42 -21 48 60 23 30 29 26 36 28 32 -31 75 -33 -34 58 84 70 38 56 -40 -41 -42 63 47 -45 46 -47 -48 74 54 50 51 -53 -54 -55 -56 90 57 -59 -60 -61 -62 62 -64 -65 65 -67 -68 -69 -70 -71 -72 -73 -74 -75 -76 81 -78 -79 -80 -81 -82 -83 -84 -85 -86 -87 87 88 -90 92 -92 -93 -94 -95
leaf_value=-0.067288472863264795 -0.067288472863264795 0.03325649993472464 -0.067288472863264795 0.043610560942519291 -0.034736393403401837 0.0215847866917468 0.032224988952636119 0.08509411920928027 0.11219919461009281 0.064059209781298004 0.015125305663691239 0.082315810316038657 0.010603404920045115 0.096775298699929971 0.039477883876728431 0.014485229104623033 -0.023930624232911757 0.10812778075949998 -0.0085699419028219103 0.016924088350418 0.11782638672689361 0.10215161439006189 0.04520897037503558 0.03016826936795123 0.0051522065043293399 0.019105443913966194 0.018026189700614821 0.12098599183426369 0.0098207037153828988 -0.0043878861391190675 0.11409147518875982 0.11202294515148359 0.085966885847582941 0.066895686781682187 0.1092756198630587 0.1137911758096099 -0.015281193074514771 0.040464564744846512 0.065796858557009494 -0.0053342758837618366 0.091912183428736749 -0.0099424632849406946 0.02940145655338347 -0.033697312754819228 0.12483400062301382 0.06049736855552626 0.052508845333654186 0.062607044029973288 0.034936126848319211 0.10631148375416238 0.048407626710847418 0.054706945330046136 0.049652289841421331 -0.0060439028350637311 0.078437575187511932 0.094891257169739632 0.10869860612025005 0.056823897195284127 0.0066613640195631076 0.0024009751090746049 0.04436426307613698 0.090310806711674491 0.0058007049790164298 -0.075915830487511965 0.097850297815485113 0.040869951236046809 0.065762647213366152 -0.0089773763027460301 0.043845975552152999 -0.040317357536664634 0.058056051432613102 0.07022993111229732 -0.018344311207896088 0.050749641758479083 0.028527350634578508 0.077950428982865735 0.057673779741453116 0.10525484121415529 0.066599665116541237 0.10080771776554992 0.027387238035595441 0.11189051365714305 0.048697928165771676 0.11345221720360697 0.076483774080992453 0.015313444161409083 0.06237691139880467 0.026812889787592466 0.070694044384809349 -0.028693265774213741 0.022125082489592149 0.041644082884381081 0.016327690668294675 0.055503908812252284
leaf_weight=169.15275260806084 308.52240204811096 2.7220293283462516 23.673748672008514 2.3804382532835104 2.4509654343128195 2.8677422106266004 3.1868780106306067 2.9139384776353818 3.4578786939382544 3.6538819074630755 3.087854936718939 2.4031221717596054 4.5399096906185132 2.4434031397104246 3.739807114005087 4.2191331237554612 6.4314448982477188 4.7221669405698767 2.7994768321514112 4.6596687138080597 2.4408860653638831 2.6653508543968192 4.2958693504333523 5.5878333449363691 2.3376607447862687 4.8221475332975441 10.794888705015181 2.4229567348957088 6.0894528776407268 4.5018177181482306 5.9001126587390926 2.4708657264709473 3.4357894808053961 2.9202040731906882 6.3558315783739072 2.462942972779274 4.6490637660026541 6.0138157755136517 2.6543246805667877 3.2963873594999304 12.750935167074202 2.2458994686603546 3.6938322931528091 3.4098964035511017 2.397096410393714 5.2436942160129547 4.0568839460611343 5.4968897402286538 12.544974669814108 7.2212990820407859 3.0683941692113876 211.44590479135513 12.724221348762512 6.8869269341230392 7.5631122738122931 2.4559335708618146 5.1150499582290632 7.7391747385263443 3.1818611472845078 4.3486718684434882 3.857377752661705 4.0529971569776526 3.3558836579322815 2.4564896821975708 3.3258558064699164 11.157070279121397 5.0269392132759094 4.1941020190715781 9.0770984143018705 2.3810781091451645 3.4290850758552551 5.3809781521558762 3.5298993736505508 14.868258446455 10.08419632911682 12.014719963073736 3.1496529579162589 5.9010574221611023 3.6206315159797668 3.176004633307457 2.6642061471939087 4.2004380822181693 3.6709114015102378 3.6964581459760657 6.1003593057394028 2.7149133086204529 17.363719716668133 7.2166631966829282 3.1718032509088516 2.9965164065361023 2.8655387163162231 4.3498649001121521 2.5763030648231506 5.0352847427129745
leaf_count=886 1616 12 124 10 11 12 14 12 14 15 13 10 20 10 16 18 28 19 12 20 10 11 18 23 10 20 45 10 26 19 24 10 14 12 26 10 20 25 11 14 52 10 16 15 10 22 17 23 52 29 13 879 53 30 31 10 21 32 13 19 16 17 14 11 14 48 21 18 38 10 14 22 16 62 43 49 13 24 15 13 11 17 15 15 25 12 72 30 13 13 12 18 11 21
internal_value=0 0.0242161 0.047021 0.0511522 0.0516731 0.0476163 0.0382405 0.0348794 0.0707102 0.0576358 0.0520927 0.0203794 0.0316613 0.023395 0.0158893 0.025449 -0.000616327 0.040378 0.0456714 0.0490017 0.0495786 0.0374496 0.0615486 0.0657985 0.0515851 0.0582433 0.0528632 0.0635482 0.0520781 0.0344048 0.0831936 0.0552656 0.0433806 0.0665859 0.0747759 0.0533377 0.0428498 0.0492298 0.0141856 0.0375007 0.0801428 -0.017385 0.0381754 -0.00397578 0.0555626 0.0364581 0.0793714 0.0280311 0.0567685 0.0530384 0.0541709 0.0525627 0.032571 0.010739 0.0529108 0.034097 0.0656727 0.0774663 0.0354871 0.0311094 0.0679776 0.0296228 0.0520316 -0.0444064 0.0450507 0.0539549 0.046494 0.020416 0.0293243 0.00164096 0.081354 0.053318 0.00564907 0.0445546 0.0405504 0.0908274 0.0269814 0.0895013 0.0872279 0.0732327 0.0575324 0.085007 0.0791808 0.0863031 0.093216 -0.00843284 0.0481199 0.0540794 0.0402107 0.00698087 0.0493823 0.0608588 -0.00788017 0.0689879
internal_weight=0 847.877 678.725 655.051 648.919 386.174 124.795 113.088 11.7066 262.745 261.379 7.569 104.334 53.5504 41.412 32.1697 10.1713 50.7838 44.0671 12.1384 85.8861 31.9643 176.859 123.977 52.8822 86.4352 69.3884 31.1745 21.6195 21.7077 37.5413 8.0587 19.1966 29.2724 23.1704 10.7142 40.116 32.8126 7.30339 21.9984 17.0468 9.2423 39.3449 6.13193 14.4972 8.04317 6.45398 24.8477 53.9218 253.81 241.347 234.125 22.6795 9.95532 47.8603 15.7608 18.868 12.8542 6.10207 12.4635 6.52273 25.4416 7.40888 4.70239 18.7021 14.4829 8.11479 18.0327 13.8386 4.76152 5.89203 8.24872 6.71678 17.2059 15.5811 29.4826 13.9445 9.55494 6.06152 8.75415 5.57814 23.5825 19.3821 15.7112 12.4562 5.16588 40.2972 27.7522 10.3885 9.26665 9.67134 6.8058 5.57282 7.47869
internal_count=5360 3744 2858 2734 2707 1620 530 482 48 1087 1090 33 446 230 179 138 44 216 186 51 357 134 730 510 220 357 287 129 90 91 153 33 80 120 95 44 167 136 31 94 70 41 167 27 61 34 27 106 223 1057 1004 975 96 43 198 66 78 53 25 53 27 107 31 21 80 62 34 76 58 20 24 34 30 72 66 120 58 39 25 36 23 96 79 64 51 23 167 115 43 40 40 28 24 31
is_linear=0
shrinkage=0.05


Tree=6
num_leaves=95
num_cat=0
split_feature=2 7 7 4 8 1 1 3 6 0 3 3 3 1 8 3 8 8 0 3 3 1 3 3 1 6 3 6 6 8 3 8 8 1 8 8 8 1 8 1 1 0 3 3 3 3 1 6 6 1 3 3 8 8 0 3 1 1 3 0 8 3 3 6 6 1 1 8 8 1 3 1 1 8 3 1 1 1 3 3 1 6 6 3 3 3 8 1 1 1 1 3 1 6
split_gain=701.786 644.979 115.766 6.68579 5.61544 5.60212 15.3238 4.01177 3.04426 2.97471 4.15739 3.05153 3.58397 2.91518 2.90092 2.82313 2.73459 3.61882 4.51148 4.41459 4.57555 2.66759 4.0171 5.33632 3.56644 5.29394 3.27168 3.23584 2.95142 2.61685 2.60363 2.56755 2.3346 2.31549 2.26463 5.16055 3.52379 2.47252 4.31031 6.69403 5.75797 4.42279 4.21929 5.31577 3.95655 3.86629 3.09001 3.09812 2.78759 3.14684 2.72846 2.69646 2.49397 2.4663 2.2318 2.14201 2.08776 2.21348 2.07909 2.07056 5.31919 2.88471 2.29153 2.11112 3.48705 3.85948 3.41999 5.01378 3.41503 3.01378 2.13021 2.05666 2.03674 1.95194 4.08639 1.9444 1.83055 1.78152 1.77492 4.67893 2.59661 1.77188 1.76473 1.99678 3.12564 1.99833 2.08802 2.22837 2.10263 3.47128 1.75244 1.88016 2.13208 1.74288
threshold=4.5000000000000009 94402.000000000015 94406.000000000015 2.5000000000000004 50.108224868774421 1.0000000180025095e-35 20.500000000000004 129101.50000000001 4.5000000000000009 9.5000000000000018 175161.50000000003 159771.50000000003 143240.50000000003 39.500000000000007 92.206478118896499 200081.50000000003 62.899168014526374 71.62280654907228 10.500000000000002 140210.50000000003 143608.50000000003 26.500000000000004 139743.50000000003 140681.50000000003 20.500000000000004 13.500000000000002 140009.00000000003 13.500000000000002 2.5000000000000004 54.670330047607429 134121.50000000003 67.396617889404311 20.02506256103516 24.500000000000004 68.517951965332045 62.533422470092781 71.99234771728517 34.500000000000007 87.550323486328139 24.500000000000004 31.500000000000004 10.500000000000002 160214.50000000003 139542.50000000003 139743.50000000003 134897.50000000003 29.500000000000004 5.5000000000000009 6.5000000000000009 33.500000000000007 160214.50000000003 145121.50000000003 84.825515747070327 70.064933776855483 10.500000000000002 134897.50000000003 25.500000000000004 22.500000000000004 134119.50000000003 10.500000000000002 92.64068984985353 140210.50000000003 145532.00000000003 13.500000000000002 5.5000000000000009 37.500000000000007 37.500000000000007 85.952087402343764 89.48966217041017 55.500000000000007 174173.50000000003 1.0000000180025095e-35 32.500000000000007 56.538461685180671 160107.50000000003 39.500000000000007 38.500000000000007 1.0000000180025095e-35 185464.50000000003 151698.50000000003 23.500000000000004 13.500000000000002 14.500000000000002 154945.50000000003 160937.00000000003 145532.00000000003 10.01253128051758 45.500000000000007 39.500000000000007 33.500000000000007 42.500000000000007 133251.50000000003 37.500000000000007 10.500000000000002
decision_type=2 2 2 2 2 2 2 2 2 2 2 2 2 2 2 2 2 2 2 2 2 2 2 2 2 2 2 2 2 2 2 2 2 2 2 2 2 2 2 2 2 2 2 2 2 2 2 2 2 2 2 2 2 2 2 2 2 2 2 2 2 2 2 2 2 2 2 2 2 2 2 2 2 2 2 2 2 2 2 2 2 2 2 2 2 2 2 2 2 2 2 2 2 2
left_child=1 -1 3 -3 9 16 -7 13 14 10 11 12 58 -8 31 29 -6 -18 -19 -20 -21 24 30 -24 25 71 56 33 -25 75 32 -9 90 78 35 73 53 38 39 44 46 42 43 -41 -38 -42 -40 -48 49 51 -50 -47 93 -36 -49 -32 57 -26 -5 60 -39 -62 -63 64 65 -61 -65 -68 -67 -66 -70 -11 -12 -31 -75 -10 -74 -60 79 80 -28 -37 83 85 -85 86 87 88 89 -30 91 92 -23 -43
right_child=-2 2 -4 4 5 6 7 8 15 21 72 -13 -14 -15 -16 -17 17 18 19 20 -22 22 23 28 26 -27 27 -29 82 34 55 -33 -34 -35 36 81 37 59 40 41 45 52 -44 -45 -46 48 47 54 50 -51 -52 -53 -54 -55 -56 -57 -58 -59 77 63 61 62 -64 66 69 68 67 -69 70 -71 -72 -73 76 74 -76 -77 -78 -79 -80 -81 -82 -83 -84 84 -86 -87 -88 -89 -90 -91 -92 -93 -94 -95
leaf_value=-0.066163436236739689 -0.066163436236739689 -0.0037898850893861276 -0.066163436236739689 0.05783555126691553 -0.031919763643725368 0.10133630573391682 0.05562797700767913 0.075241645814672978 -0.012195965112496328 0.065638284032441485 0.088850660976099921 0.014445365661549326 0.06690291803676178 0.10048108763333199 0.068770991700943848 -0.0016234305498918336 0.083931788224692175 -0.015138899829228978 0.091065170106960747 -0.037266481937727802 0.044387251822753847 0.0093746356630686964 0.090425664505636771 0.094022679743075752 0.040555680366407665 -0.00033691301966603095 -0.025301675953366822 0.07882114526462225 0.07317691364194974 0.070986479501719935 0.013092472537394581 0.031263278203005833 0.10702953558959377 0.042667498442418982 0.027397446159146896 0.071218714587986703 -0.056702171551627323 0.063830274806478737 0.044917299626946426 0.031280825843039976 -0.041446045140167073 0.019788274901875375 0.00083188616677928927 0.1027381185867228 0.010570928389957898 -0.039686867945693427 0.043771170741192453 0.054314786135736384 0.088481448632014709 0.0491584918710316 0.022108161143592542 0.02594325944793744 -0.0074770767437698912 -0.036206113034308617 0.10889830441692341 0.0478120847744644 0.019679197428190569 0.089901951330374041 -0.0065430169408437254 0.08930774738502327 -0.013063868844466123 0.061895675534552309 0.01091980273943368 -0.011339253003103412 0.077686198283860725 0.067906480388684395 0.10215357677001809 0.023330716062347608 -0.008145148506953543 0.018899594400691066 0.043928983477962917 0.10585924747808773 0.016425547412099721 -0.020684394455348715 0.05520525056243606 0.045662837722194427 0.069619874966866377 0.036219018885410056 -0.025705486059778931 0.069755661967214888 0.038612818356303584 0.11833573989401246 0.016021744784394328 0.094737064154769443 0.058342404644445893 0.027331780670622113 0.089746432702538334 0.01682143967312727 0.095228587009387439 0.020485155434778666 0.081211562060924058 0.077441329736746986 0.063726988141411312 0.052164589213434545
leaf_weight=163.56912860274315 298.33827519416809 6.124485880136489 22.892293393611908 11.125173047184942 2.2511573582887676 12.242177486419676 15.808363750576975 4.3428741991519955 3.8334389030933371 8.7996938526630419 7.6064431369304639 8.972845792770384 15.038088977336882 4.6995276659727088 21.165387868881226 3.768226593732833 2.3890337198972729 6.3679069578647622 2.8695089519023895 2.5017337799072266 5.4602084308862686 4.6441266536712664 20.115533068776131 6.1892871260642996 3.6059080809354764 2.3976806551218024 4.634190917015081 2.9579082429409018 7.0965956449508756 2.6078264266252535 6.8558968901634243 14.074146479368208 2.4881586879491797 8.965990409255026 4.5243923217058173 6.307109668850897 2.6661966145038596 11.056140661239624 98.716527730226517 4.3047135323286039 2.3867201209068325 9.738803252577787 2.3673249930143347 6.5823028683662415 12.125493481755255 3.540674075484274 6.5562109947204581 2.8781625926494581 2.8888678699731818 3.36128169298172 3.3367810845375061 2.804839238524437 4.719984143972396 2.2983931005001068 5.3608077615499496 12.618835464119909 2.4094668626785269 6.1455775797367096 2.6239189356565467 3.404307395219802 4.9936414062976846 4.0940796285867673 4.7770390063524246 2.8182705193758002 23.121274754405025 3.8864677995443335 3.1721950173377973 5.5420659184455872 5.2786888629198057 2.4071698635816565 3.1274222135543823 4.9753292798995963 2.4295419752597809 3.272749125957489 3.873040035367012 2.3374886512756348 4.8376277983188629 33.945463716983795 2.7896359264850608 3.1691745221614838 2.4183512479066849 2.918733537197113 2.4276065379381171 8.3799461126327532 19.929160982370377 7.0416259616613379 4.1782638430595389 3.8704493641853324 3.2170668095350257 5.5860327631235123 4.4064725935459128 2.9647482186555862 2.9506440907716751 7.2520903944969168
leaf_count=886 1616 27 124 46 10 49 65 18 17 36 31 37 62 19 86 16 10 28 12 11 23 19 81 25 15 10 20 12 29 11 29 58 10 37 19 26 12 46 410 18 10 41 10 27 52 15 27 12 12 14 14 12 20 10 22 52 10 25 11 14 21 17 20 12 95 16 13 23 22 10 13 20 10 14 16 10 20 140 12 13 10 12 10 34 81 29 17 16 13 23 18 12 12 30
internal_value=0 0.0230174 0.0443748 0.0482082 0.0486952 0.0448734 0.0463361 0.0444399 0.0431242 0.0543119 0.0467085 0.0417184 0.0456194 0.0659064 0.0561445 0.0413772 0.0202706 0.0262685 0.0182589 0.0378938 0.0187307 0.0580055 0.0619993 0.0678057 0.0486366 0.0682306 0.0400942 0.0297245 0.061106 0.0419336 0.0481581 0.0416337 0.0621818 0.0231166 0.0426309 0.0593174 0.0414407 0.0423741 0.0391805 0.0266415 0.0439131 0.0385698 0.0613292 0.074484 -0.00155502 0.0179018 0.048111 0.0694201 0.0267922 0.0100429 0.0529071 -0.0106771 0.0246754 0.0059713 0.0898304 0.0355894 0.0613567 0.0716547 0.0389087 0.0498396 0.0379621 0.0173342 0.0344455 0.0554501 0.0607402 0.0421954 0.0365396 0.0520241 0.0291481 0.072143 0.0112286 0.0801655 0.0707655 0.0339605 0.020448 0.0097204 0.0518361 0.0331508 0.00964431 0.0192917 -0.00338508 0.0861249 0.0578055 0.0595161 0.0691158 0.0507468 0.0576316 0.0508444 0.0591266 0.049969 0.0547256 0.0436731 0.0304911 0.0336072
internal_weight=0 846.574 683.005 660.113 653.988 389.18 367.34 355.098 334.59 264.808 86.5791 71.7055 62.7326 20.5079 39.5824 295.008 21.8395 19.5884 17.1994 10.8315 7.96194 178.229 124.96 88.0316 53.2689 16.1727 37.0962 24.9353 67.916 291.24 36.9289 18.417 17.4542 21.9773 285.069 18.9795 266.089 259.267 181.588 49.7569 131.831 34.9652 13.2543 10.887 14.7917 18.3192 113.512 14.7952 15.9324 9.7068 6.22565 6.34551 21.7109 6.82279 8.23897 19.4747 12.161 9.75149 47.6946 77.6788 24.9209 13.8648 8.87112 52.7579 41.2253 15.6969 11.5325 8.71426 12.2926 25.5284 8.40611 13.775 14.8736 9.75362 7.14579 6.17093 7.26717 36.5694 13.0114 10.2217 7.05254 9.22584 61.7267 59.2991 28.3091 30.99 23.9484 19.7701 15.8997 12.6826 14.966 10.5595 7.59477 16.9909
internal_count=5360 3744 2858 2734 2707 1620 1526 1477 1393 1087 357 296 259 84 162 1231 94 84 74 46 34 730 510 358 220 66 154 104 277 1215 152 76 71 92 1188 79 1109 1080 758 210 548 146 55 45 64 77 471 61 67 41 26 27 91 29 34 81 50 40 197 322 104 58 37 218 170 65 48 36 51 105 35 56 61 41 30 27 30 151 55 43 30 38 252 242 115 127 98 81 65 52 61 43 31 71
is_linear=0
shrinkage=0.05


Tree=7
num_leaves=95
num_cat=0
split_feature=7 7 4 8 5 3 3 1 1 5 6 3 3 5 1 3 3 1 8 3 5 1 3 3 6 6 8 1 5 5 1 1 5 8 5 1 3 5 8 8 1 1 1 3 1 1 1 3 8 1 3 5 1 8 1 6 8 5 6 5 5 1 5 8 5 5 3 8 8 5 3 5 6 1 6 8 0 5 3 5 5 5 3 1 6 1 0 3 8 3 1 5 1 1
split_gain=497.126 847.747 5.96041 5.07016 5.65463 6.82404 3.98609 3.4811 6.06836 4.31579 4.6934 3.66934 3.45058 3.20649 3.445 3.82796 4.20028 4.85835 3.28338 3.21457 2.99643 2.95879 2.65557 2.61017 3.77259 4.51803 4.03427 7.05504 4.82191 3.6105 3.30334 4.0256 5.64714 2.49993 2.73853 3.29076 2.65138 2.45593 2.36782 4.77995 3.09977 2.41743 3.86617 3.94546 2.31159 2.23411 2.79415 2.48412 2.75637 2.37446 2.30042 3.36496 2.98622 4.09889 2.1552 2.15072 4.31709 2.77428 2.8221 3.61838 3.38942 4.68434 4.02671 5.0678 2.83892 6.12798 3.13836 3.11583 3.30022 4.57737 2.83632 3.97897 2.87793 2.37826 2.15985 2.1453 2.07817 1.99699 1.95787 1.92941 2.15505 2.82093 3.59102 5.79211 3.01638 2.71641 4.52512 3.26814 2.43032 2.42895 1.90041 1.8939 1.87858 3.29269
threshold=94406.000000000015 94402.000000000015 2.5000000000000004 47.633054733276374 20.500000000000004 185344.00000000003 126875.50000000001 18.500000000000004 20.500000000000004 22.500000000000004 4.5000000000000009 145532.00000000003 200081.50000000003 8.5000000000000018 26.500000000000004 139777.00000000003 134121.50000000003 49.500000000000007 20.02506256103516 134897.50000000003 20.500000000000004 31.500000000000004 143234.50000000003 143234.50000000003 14.500000000000002 10.500000000000002 83.178913116455092 30.500000000000004 8.5000000000000018 14.500000000000002 43.500000000000007 23.500000000000004 9.5000000000000018 13.563218116760256 6.5000000000000009 41.500000000000007 129101.50000000001 14.500000000000002 56.931371688842781 67.396617889404311 33.500000000000007 52.500000000000007 41.500000000000007 168625.00000000003 34.500000000000007 22.500000000000004 40.500000000000007 134123.50000000003 88.380489349365249 42.500000000000007 139006.50000000003 21.500000000000004 32.500000000000007 95.742755889892592 40.500000000000007 2.5000000000000004 83.902484893798842 1.5000000000000002 13.500000000000002 2.5000000000000004 4.5000000000000009 28.500000000000004 8.5000000000000018 86.040294647216811 14.500000000000002 11.500000000000002 175161.50000000003 79.86456680297853 95.916667938232436 9.5000000000000018 180295.00000000003 9.5000000000000018 14.500000000000002 29.500000000000004 6.5000000000000009 91.042778015136733 10.500000000000002 10.500000000000002 160107.50000000003 1.5000000000000002 15.500000000000002 10.500000000000002 134121.50000000003 26.500000000000004 5.5000000000000009 36.500000000000007 10.500000000000002 134121.50000000003 93.288288116455092 138469.50000000003 23.500000000000004 10.500000000000002 33.500000000000007 39.500000000000007
decision_type=2 2 2 2 2 2 2 2 2 2 2 2 2 2 2 2 2 2 2 2 2 2 2 2 2 2 2 2 2 2 2 2 2 2 2 2 2 2 2 2 2 2 2 2 2 2 2 2 2 2 2 2 2 2 2 2 2 2 2 2 2 2 2 2 2 2 2 2 2 2 2 2 2 2 2 2 2 2 2 2 2 2 2 2 2 2 2 2 2 2 2 2 2 2
left_child=1 -1 37 13 12 6 -6 11 -9 10 -10 -8 23 18 -15 16 -16 19 33 -18 -21 -7 76 24 25 26 27 28 -5 -30 31 32 -27 34 36 -36 -4 -3 91 40 -40 42 55 -44 -23 -12 47 48 -47 -48 -49 52 -52 -54 -29 56 -41 -57 59 -59 61 -61 63 -62 65 67 -67 -64 -69 -70 71 -60 -73 90 -66 -51 -17 -45 -65 -28 81 85 -83 -84 -85 86 -81 -88 -87 -82 -58 -25 -24 -94
right_child=-2 2 3 4 5 21 7 8 9 -11 45 -13 -14 14 15 22 17 -19 -20 20 -22 44 92 38 -26 30 79 54 29 -31 -32 -33 -34 -35 35 -37 -38 -39 39 41 -42 -43 43 77 -46 46 49 50 -50 75 51 -53 53 -55 -56 57 73 58 70 60 62 -63 64 78 74 66 -68 68 69 -71 -72 72 -74 -75 -76 -77 -78 -79 -80 80 89 82 83 84 -86 88 87 -89 -90 -91 -92 -93 93 -95
leaf_value=-0.065128620674816201 -0.065128620674816201 0.031502520434650468 0.086607472545338307 0.047457708082707495 0.076771111808178791 0.076754347737762144 0.020321040808502975 0.096709425882299166 0.062042838411869389 0.063795846850958349 0.046989205369919733 -0.054123139819906824 -0.0044232902675276405 0.044609309128549095 0.064829260540562858 0.053551132197251043 0.013555580456891862 -0.036690864310543359 0.076397256436544561 0.032443341587715273 0.081884593190934982 0.002834005233405957 0.070525296158238035 0.0375757997528939 0.0015355486485192948 0.080353150127179349 0.094171185218047765 0.040535805109126917 -0.053848494435365414 0.012493588794712927 0.015359722793788692 0.086509430463564019 -0.019853354342294016 -0.0046478252385506241 0.038400435293941687 -0.022130357373752043 0.042646102615447948 -0.03219244424257401 0.10915011184490531 0.11376659892444657 0.048322251685365081 0.0050727036098795787 0.086766008768122904 0.01625883667590838 0.060971985907707464 -0.045982097095625875 0.079651406772942787 0.056958420816120438 0.009102680335913868 0.049699861381438608 0.0296033254785458 -0.018051359003569512 -0.028997886185206254 0.028405669107209198 0.082641303802546806 -0.0055341750127473879 0.032176089141755411 0.084641711354643656 -0.014493148744341603 -0.060830226738943831 -0.0019043261509786896 0.038247693463557525 -0.019768493266955525 0.05880441233795191 0.04850771873772361 0.0080137676517915025 -0.055243347780839475 0.076758136234803223 -0.021982833938681515 0.051573481949608736 0.072173286240516971 0.024828229531667786 0.095114075162547745 0.011980195808957636 -0.0023540127716345422 -0.0037815645906806626 0.087763331758741459 0.068295590646716239 0.10899078044045873 0.09135401421076253 0.051571385475677169 0.074274135073220976 -0.023920440943947421 0.022007589978349451 0.082921236283274413 0.068741866666875026 0.019100835678943894 0.062858366483682412 0.0074616334729326762 0.095894042631961482 0.080206894680775326 -0.0078375814862576988 0.038868389716223528 0.066304687441960455
leaf_weight=234.14790205657482 234.14790205657482 2.7457217276096335 3.689669042825698 4.378437593579295 4.1862188428640357 11.844451501965525 4.5750543475151053 3.2455610185861579 7.4291060119867316 7.4105009585618964 7.224275290966033 2.5936434715986252 3.2824857980012885 57.959485501050949 16.844138652086258 5.9215794801712063 7.348584368824965 2.3255156725645056 6.4521888047456732 6.618452310562132 5.7071016281843185 3.0272152572870246 25.765426278114319 5.3583757579326612 3.5573995411396018 3.4434374868869844 2.9610547721385947 7.3550829589366895 3.7343918532133085 4.5490259081125259 2.438084974884986 20.69218347966671 2.3761801570653915 3.1223707199096671 6.340937986969946 3.4763305634260178 48.697502464056015 3.3718580454587936 4.4605530351400358 2.706750258803365 3.9483302980661392 4.3669127970933905 9.3530123233795184 4.373647838830947 3.9285675138235092 3.3350546658039075 2.947994261980055 3.5754138678312293 7.1178173422813416 4.3881053477525711 28.4812241345644 6.4999017864465705 6.1050626933574659 6.3384077548980713 5.1791699528694153 3.8290683180093756 3.6729191392660123 3.177263230085372 2.8791879713535327 2.3491539657115927 2.4116849601268751 2.4239522963762283 2.3776180595159575 4.4094454199075699 15.536429524421694 4.3279660046100608 3.5848549753427505 4.6016057580709449 3.3225738108158112 5.819535568356514 10.527861893177031 3.1536143571138382 2.7061907052993774 3.9379136413335809 2.4112290143966666 3.2741990983486176 17.725558534264565 3.1873567998409271 3.4747693091630936 9.6062096357345599 6.8128285408020002 3.9230700880289104 4.8415938019752494 5.5771926790475828 3.1975332945585251 2.479199841618537 6.1023959070444134 14.188363194465635 4.6573392748832703 5.6582869589328766 4.6880661696195602 4.016711637377739 20.476253524422646 23.469786688685417
leaf_count=1313 1313 12 15 18 17 48 20 13 30 30 30 12 14 238 68 24 31 10 26 27 23 13 104 23 15 14 12 30 16 19 10 84 10 13 26 15 200 15 18 11 16 18 38 18 16 15 12 15 30 18 120 28 27 27 21 16 15 13 12 10 10 10 10 18 64 18 15 19 14 24 43 13 11 16 10 14 71 13 14 39 28 16 20 23 13 10 25 58 19 23 19 17 83 95
internal_value=0 0.0166737 0.0455211 0.0459779 0.0424075 0.0337389 0.0289294 0.0270136 0.0294893 0.0271715 0.0240417 -0.00661295 0.0465265 0.0513744 0.0547732 0.0592292 0.046039 0.0316522 0.0423702 0.0397305 0.0553361 0.0615537 0.0647172 0.0471574 0.0523034 0.0537581 0.0484983 0.0313418 0.00501766 -0.0174152 0.071055 0.0761768 0.0394383 0.0390094 0.0412008 0.0169663 0.0457423 -0.00360456 0.0423742 0.0441504 0.0805888 0.0415887 0.0429724 0.0650535 0.0356698 0.020481 0.0178236 0.0137326 -0.00847246 0.041518 0.0182837 0.015368 0.0206758 0.000242119 0.0579339 0.0391742 0.0565994 0.0360361 0.0380385 0.0327101 0.029818 -0.010515 0.0335005 0.0615216 0.0266284 0.0153925 -0.0206445 0.0330806 0.0422233 0.0248405 0.0546948 0.0336385 0.0572878 0.044018 0.0416746 0.0268466 0.0791961 0.038195 0.0809228 0.0546732 0.0529288 0.0486434 0.032125 0.0199812 0.0442047 0.0564667 0.0630828 0.0496984 0.0287501 0.0716811 0.0591073 0.0181187 0.0598058 0.053521
internal_weight=0 898.12 663.972 657.854 395.913 127.528 108.728 104.541 97.3726 94.1271 86.7166 7.1687 268.386 261.941 190.162 132.202 38.8438 21.9997 71.779 19.6741 12.3256 18.8002 93.3586 265.103 127.708 124.151 95.2012 25.1961 12.6619 8.28342 28.9499 26.5118 5.81962 65.3268 62.2044 9.81727 52.3872 6.11758 137.395 128.019 8.40888 119.611 115.244 16.914 6.95578 79.2875 72.0632 61.4529 10.4529 10.6103 51 47.4246 40.9247 12.4435 12.5343 98.3297 15.0056 83.324 79.4949 60.2281 57.0508 4.77311 52.2777 10.2959 41.9818 24.0342 7.91282 16.1213 13.7437 9.14211 19.2669 8.73899 5.85981 12.2989 17.9477 7.6623 23.6471 7.561 7.88421 70.0051 67.044 54.5729 17.5394 13.6163 8.77473 37.0335 29.897 20.2908 7.13654 12.4711 8.36099 9.37509 69.7115 43.946
internal_count=5360 4047 2734 2707 1638 535 458 441 409 396 366 32 1103 1069 774 536 159 91 295 81 50 77 377 1089 523 508 390 104 53 35 118 108 24 269 256 41 215 27 566 526 34 492 474 69 29 336 306 262 45 44 217 202 174 54 51 405 61 344 328 249 236 20 216 42 174 100 33 67 57 38 79 36 24 50 74 32 95 31 32 286 274 223 72 56 36 151 122 83 29 51 34 40 282 178
is_linear=0
shrinkage=0.05


Tree=8
num_leaves=95
num_cat=0
split_feature=2 7 7 8 4 5 6 5 5 1 0 5 8 1 1 8 8 0 1 1 1 1 1 8 5 0 1 5 1 1 5 5 1 6 1 6 6 1 5 1 5 1 8 1 1 1 1 5 5 1 5 6 5 6 8 8 5 0 1 8 8 5 5 1 5 5 6 8 8 1 8 5 6 5 1 6 8 5 1 1 8 8 6 8 1 5 5 6 1 6 8 8 8 8
split_gain=604.742 539.054 95.1122 5.33868 5.89262 4.95246 4.21767 4.50906 3.68714 2.97948 2.78302 2.84135 2.78961 2.48635 3.06497 6.12165 4.69928 3.67271 3.5093 2.95991 2.67679 2.64266 6.32047 2.42537 4.23073 2.38228 2.27551 2.26028 2.25667 2.25604 5.17411 3.73232 3.57499 2.92441 2.90871 4.05412 2.82433 3.86384 2.69964 3.20528 3.56024 2.51266 2.40348 2.37853 4.14126 3.78613 2.06768 3.23471 2.00682 1.97582 7.86348 4.77982 3.71081 3.65126 3.89862 3.45544 2.79541 2.11476 2.67813 2.17015 3.96151 2.0008 3.11713 1.96956 1.96093 2.93317 1.94242 1.93887 1.84901 1.83927 1.81291 2.64414 1.78549 1.71256 3.18174 1.70711 1.66656 4.34761 4.49407 5.80246 3.48951 2.63596 4.1317 4.47327 2.96597 2.84388 5.01061 4.18359 2.38849 2.20263 3.34416 6.64768 3.12136 2.01355
threshold=4.5000000000000009 94402.000000000015 94406.000000000015 50.108224868774421 2.5000000000000004 20.500000000000004 4.5000000000000009 22.500000000000004 14.500000000000002 35.500000000000007 9.5000000000000018 11.500000000000002 7.0197043418884286 27.500000000000004 38.500000000000007 87.840488433837905 91.042778015136733 10.500000000000002 29.500000000000004 30.500000000000004 31.500000000000004 18.500000000000004 20.500000000000004 58.387445449829109 12.500000000000002 10.500000000000002 23.500000000000004 14.500000000000002 23.500000000000004 26.500000000000004 19.500000000000004 18.500000000000004 29.500000000000004 5.5000000000000009 30.500000000000004 12.500000000000002 4.5000000000000009 20.500000000000004 15.500000000000002 37.500000000000007 6.5000000000000009 21.500000000000004 7.582566738128663 50.500000000000007 36.500000000000007 55.500000000000007 43.500000000000007 8.5000000000000018 4.5000000000000009 26.500000000000004 10.500000000000002 14.500000000000002 14.500000000000002 8.5000000000000018 84.170478820800795 88.819442749023452 11.500000000000002 10.500000000000002 23.500000000000004 94.28104400634767 89.147258758544936 4.5000000000000009 1.5000000000000002 37.500000000000007 6.5000000000000009 10.500000000000002 6.5000000000000009 90.824913024902358 15.362761974334719 27.500000000000004 53.034187316894538 8.5000000000000018 5.5000000000000009 21.500000000000004 34.500000000000007 9.5000000000000018 79.391197204589858 10.500000000000002 33.500000000000007 36.500000000000007 72.928920745849624 86.040294647216811 14.500000000000002 87.456295013427749 47.500000000000007 4.5000000000000009 8.5000000000000018 12.500000000000002 30.500000000000004 5.5000000000000009 90.041816711425795 91.747310638427749 93.875000000000014 88.557312011718764
decision_type=2 2 2 2 2 2 2 2 2 2 2 2 2 2 2 2 2 2 2 2 2 2 2 2 2 2 2 2 2 2 2 2 2 2 2 2 2 2 2 2 2 2 2 2 2 2 2 2 2 2 2 2 2 2 2 2 2 2 2 2 2 2 2 2 2 2 2 2 2 2 2 2 2 2 2 2 2 2 2 2 2 2 2 2 2 2 2 2 2 2 2 2 2 2
left_child=1 -1 3 10 8 23 9 13 -5 -7 11 12 46 21 15 73 -16 19 -19 -17 -20 -8 -23 24 70 28 -27 -13 -24 31 32 36 48 38 35 -32 -12 -38 39 40 -34 -39 -33 44 -35 -45 -3 -48 -31 50 51 57 55 54 -54 56 -52 58 -25 60 -59 62 -61 -40 -46 -66 -29 -28 -14 -51 -6 -72 -44 74 -15 -63 77 78 -71 -80 -81 84 83 -83 85 -78 -87 -88 -79 90 -85 -92 -93 -91
right_child=-2 2 -4 4 5 6 7 -9 -10 -11 29 27 68 14 16 17 -18 18 20 -21 -22 22 25 49 -26 26 67 66 -30 30 34 42 33 43 -36 -37 37 41 63 -41 -42 -43 72 45 64 -47 47 -49 -50 69 52 -53 53 -55 -56 -57 -58 59 -60 61 -62 75 -64 -65 65 -67 -68 -69 -70 76 71 -73 -74 -75 -76 -77 81 88 79 80 -82 82 -84 89 -86 86 87 -89 -90 93 91 92 -94 -95
leaf_value=-0.064174716214736013 -0.064174716214736013 0.030463809870767706 -0.064174716214736013 0.031384993396615872 -0.034408456648558121 0.044115900590548596 0.0047447110728245272 0.063172251266154736 -0.055364557159660266 0.099044220575807168 0.094142659627779998 0.076635865333254366 0.090106109061789008 -0.010166053177924104 0.061364795834835166 0.036038177108330072 0.0061464612857975469 9.1428228560429907e-05 0.086231445261234427 -0.027895099471127477 0.036388833039037595 0.093082365377367748 0.02263111570172471 0.052707829993458348 0.069733889363356463 0.042130827996995773 -0.014044180138787658 0.040320925669855193 0.062963834175183669 0.041063790706330795 0.021416967793124866 0.03709625714727853 0.012256508724152211 0.020550820340517185 0.07836694150643847 0.09783013052356683 0.078281651726478621 -0.0087932678316417819 0.055987408772450675 0.080769230403304318 0.069696585667124847 0.044027987522686669 0.027782247259277495 -0.017494667031937552 0.032828448487225999 0.056750449620110645 -0.030457006268974962 0.040426041311520555 0.079357734951173861 0.067777822812970651 0.016294690684037345 -0.012118823388910696 0.0094397678121819276 -0.003927415236163005 0.063136655880689271 0.020689419211603693 -0.053486700731621456 0.044090597297992792 0.090080699965426489 0.091009984112348161 -0.02543519255145605 0.059129689730287788 0.025704730455990973 -0.00044451634282867978 0.096175984595353703 0.047846352159514965 0.067634387819493727 0.02320152506908546 0.036523969622644564 0.07166400837353791 0.050188241017774138 -0.019782160547659338 -0.030218939192692879 0.018904021788291685 -0.074385746802321337 0.10475048734182642 0.07918438830165625 0.043428461537466441 -0.048589952743438226 0.012422349279161228 0.088291011313013257 0.11058398895039506 -0.00098757538214844253 0.080299700215753889 -0.017938629895738297 -0.022028937278061898 0.018695752169980605 0.074995492153732884 0.092269237098626583 0.010273595034806958 -0.046633506872648917 0.093165190734984665 0.034132261081747266 0.056529905466874253
leaf_weight=152.47201189398766 278.09793591499329 19.526248231530193 21.339198052883148 2.2918313592672339 2.4447857141494733 8.3907350301742536 6.720888838171958 8.9011494815349561 2.6310825943946838 3.4980441629886618 3.9794002622365978 6.1816339194774619 2.7293899655342093 7.2986141890287382 8.8443266898393613 2.8846461623907116 6.8274474143981925 4.7870928198099163 3.6886765807867041 4.8611217886209488 9.9866060614585859 4.7219599634408942 5.5444674938917151 12.144344046711923 3.1726932674646378 9.3937743306159991 5.174841329455373 41.834272801876068 9.2608330696821195 4.649629861116412 5.6895520836114866 17.556082010269169 4.9131776094436699 14.192296266555784 29.887239292263985 2.4978684633970261 7.9538967162370708 2.609483107924464 2.9688172042369834 12.686387494206427 5.9824594408273697 16.407561451196671 2.646142750978469 4.6867268681526175 6.1366008073091534 2.7100026160478592 3.9759280681610099 2.7041823863983154 12.950428575277327 11.333311840891836 2.4176151305437097 2.8256154954433432 4.7433924227953002 4.3200652599334708 11.762773260474205 13.343588605523109 3.5317526757717133 13.125793442130087 7.9195255637168875 2.4689217954874056 2.4278060495853415 5.6439217329025251 7.0306717157363892 3.2266079783439636 5.2142202854156476 7.8897948116064072 7.7086732238531104 10.758006408810616 3.9259511381387711 6.4116041809320476 2.8859523832798004 2.5372327864170074 2.6613324284553528 2.5361562669277182 2.6214547902345657 3.2207503616809845 3.2144796699285569 3.4095872640609732 2.4582366794347745 3.9124875962734222 2.473900705575943 2.9669286161661139 4.1208848655223838 4.1459912955760947 2.9111370891332617 3.8881311714649227 7.8482319265604001 5.6934921890497208 9.4165711700916273 2.464662477374076 2.4443358778953579 2.4589265584945705 25.060062512755394 51.773558810353279
leaf_count=886 1616 80 124 10 11 34 30 36 12 14 16 25 11 32 36 12 29 20 15 21 42 19 23 50 13 39 22 170 38 19 23 72 20 58 120 10 32 11 12 51 24 67 11 20 25 11 17 11 52 46 10 12 20 18 48 55 15 54 32 10 10 23 29 13 21 32 31 45 16 26 12 11 11 11 12 13 13 14 10 16 10 12 17 17 12 16 32 23 38 10 10 10 102 210
internal_value=0 0.0208852 0.0397353 0.0430613 0.039385 0.0400659 0.0319282 0.0289927 -0.0149789 0.0602775 0.048507 0.0412513 0.0295905 0.0261201 0.0186564 0.011096 0.0373088 0.0248119 0.0369356 -0.00408534 0.049833 0.0339834 0.0383646 0.0439366 0.0209926 0.0319264 0.0226123 0.0481278 0.0478596 0.0520759 0.0557291 0.0435033 0.0490796 0.044054 0.0711337 0.0447296 0.0548208 0.0490191 0.0559694 0.063686 0.0437951 0.03678 0.0281828 0.035364 0.0410404 0.00970715 0.0222491 -0.00176277 0.0692411 0.0449287 0.0393058 0.0512741 0.0223593 0.0369953 0.0477057 0.00656009 -0.02513 0.0545923 0.0674595 0.0469808 0.0332381 0.0586202 0.0426774 0.0265974 0.0561539 0.0670772 0.0445708 0.0111045 0.0584983 0.0483692 0.00133804 0.0174526 -0.00130134 -0.0177625 -0.0271366 0.0757048 0.0468736 0.0578296 0.039791 0.0166858 0.0418117 0.0442879 0.0479851 0.0501952 0.0293086 0.0359711 0.0280016 0.0423665 0.0792859 0.0481672 0.0382118 0.0323881 0.0394071 0.054428
internal_weight=0 840.491 688.019 666.679 397.997 393.075 126.701 114.812 4.92291 11.8888 268.682 88.5863 32.8617 105.911 54.3361 38.6644 15.6718 26.2081 18.4624 7.74577 13.6753 51.5748 44.8539 266.374 11.0407 40.1319 25.3266 55.7246 14.8053 180.096 126.282 53.8139 88.2071 70.6071 38.0747 8.18742 30.9503 26.9709 29.7774 23.582 10.8956 19.017 22.8636 40.8296 33.4329 7.39673 26.2064 6.68011 17.6001 255.333 96.9265 56.8074 40.1192 20.8262 16.5062 19.293 5.94937 53.9817 20.0639 33.9179 15.5536 18.3643 9.49959 6.19543 19.2406 13.104 49.5429 15.9328 6.65534 158.407 7.86797 5.42319 5.30748 12.4562 9.92007 8.86467 147.073 28.0824 15.2562 8.84462 6.38639 118.991 95.4354 91.3145 23.5555 20.6443 17.4299 13.5417 12.8262 88.3475 34.1093 29.9633 27.519 54.2382
internal_count=5360 3744 2858 2734 1642 1620 530 482 22 48 1092 361 135 446 230 165 65 110 77 33 57 216 186 1090 47 167 106 226 61 731 511 220 358 287 153 33 126 110 120 95 44 78 94 167 136 31 108 28 71 1043 399 233 166 86 68 80 25 221 82 139 64 75 39 25 78 53 201 67 27 644 34 23 22 55 44 36 598 114 62 36 26 484 388 371 96 84 71 55 52 359 139 122 112 220
is_linear=0
shrinkage=0.05


Tree=9
num_leaves=95
num_cat=0
split_feature=2 7 7 8 4 5 3 5 3 3 3 3 5 3 8 8 8 3 3 8 0 3 3 0 3 5 5 8 3 3 8 5 8 8 3 8 3 6 3 5 8 6 3 8 3 3 3 3 3 6 5 8 5 3 3 5 5 6 3 3 5 5 8 3 8 3 8 5 3 5 0 5 3 0 3 8 6 6 8 5 3 3 5 5 8 3 6 0 8 3 0 3 8 5
split_gain=562.451 494.157 86.4971 4.83284 5.28239 4.4136 5.97173 3.37792 3.24927 3.91642 3.57779 3.36826 3.2841 3.06377 2.92029 3.67784 4.50107 3.50817 3.00475 2.8522 2.70179 2.60623 2.58012 2.54591 3.25731 2.489 3.35272 2.72577 2.63046 2.46061 2.28537 3.76993 2.23728 2.23048 3.00151 2.72419 2.57106 3.2428 3.40949 2.09328 3.47829 3.75859 1.86851 2.73461 1.84635 1.8195 5.16815 2.85225 2.19577 3.71924 3.0056 3.22933 2.41224 2.08434 2.03276 2.06132 1.88128 1.83981 2.02722 6.2109 2.16566 1.81993 1.77219 1.75116 1.73516 4.66089 2.82399 2.81134 2.61852 2.52845 2.52432 2.49189 2.38377 2.50555 1.90685 1.90613 2.42484 1.71799 3.41727 2.4771 3.83949 3.72177 3.71338 3.50565 3.39463 3.33063 2.17128 2.41611 3.10615 3.93552 2.07012 2.2876 2.04783 2.28002
threshold=4.5000000000000009 94402.000000000015 94406.000000000015 50.108224868774421 2.5000000000000004 20.500000000000004 185344.00000000003 14.500000000000002 143616.50000000003 143240.50000000003 140448.00000000003 163105.50000000003 21.500000000000004 200081.50000000003 67.556819915771499 95.199695587158217 88.819442749023452 140009.00000000003 134122.50000000003 92.64068984985353 10.500000000000002 133254.00000000003 139777.00000000003 9.5000000000000018 184240.50000000003 11.500000000000002 14.500000000000002 7.0197043418884286 168625.00000000003 139543.50000000003 58.387445449829109 12.500000000000002 78.297103881835952 66.452991485595717 139743.50000000003 68.947822570800795 143234.50000000003 14.500000000000002 140682.50000000003 5.5000000000000009 96.720428466796889 5.5000000000000009 198318.50000000003 80.741760253906264 149669.50000000003 138470.50000000003 134123.50000000003 134897.50000000003 198310.50000000003 3.5000000000000004 15.500000000000002 22.649572372436527 12.500000000000002 143240.50000000003 143243.50000000003 21.500000000000004 17.500000000000004 13.500000000000002 143240.50000000003 149721.50000000003 8.5000000000000018 10.500000000000002 74.637329101562514 129101.50000000001 88.380489349365249 140009.00000000003 91.042778015136733 15.500000000000002 139545.00000000003 10.500000000000002 10.500000000000002 17.500000000000004 139542.50000000003 10.500000000000002 134896.50000000003 84.825515747070327 5.5000000000000009 4.5000000000000009 81.83014297485353 4.5000000000000009 153804.00000000003 143240.50000000003 8.5000000000000018 9.5000000000000018 95.916667938232436 164523.00000000003 13.500000000000002 9.5000000000000018 90.824913024902358 198345.00000000003 10.500000000000002 182701.50000000003 95.916667938232436 5.5000000000000009
decision_type=2 2 2 2 2 2 2 2 2 2 2 2 2 2 2 2 2 2 2 2 2 2 2 2 2 2 2 2 2 2 2 2 2 2 2 2 2 2 2 2 2 2 2 2 2 2 2 2 2 2 2 2 2 2 2 2 2 2 2 2 2 2 2 2 2 2 2 2 2 2 2 2 2 2 2 2 2 2 2 2 2 2 2 2 2 2 2 2 2 2 2 2 2 2
left_child=1 -1 3 23 7 13 8 -5 9 10 14 12 20 30 -7 16 17 21 -18 -11 -10 -16 29 24 25 27 -27 28 -3 -17 31 -6 -23 34 -32 -35 37 38 39 40 41 -37 -8 -44 -22 46 -25 -48 49 -47 52 54 57 -54 -52 -56 -50 58 61 60 -60 -51 -41 -64 65 71 -66 68 72 -67 -70 75 73 -68 -69 76 -65 78 -38 80 81 -79 92 84 -84 -82 87 -85 -89 -90 -88 -92 93 -81
right_child=-2 2 -4 4 5 6 42 -9 11 19 -12 -13 -14 -15 15 22 18 -19 -20 -21 44 32 -24 45 -26 26 -28 -29 -30 -31 33 -33 -34 35 -36 36 77 -39 -40 62 -42 -43 43 -45 -46 48 47 -49 56 50 51 -53 53 -55 55 -57 -58 -59 59 -61 -62 -63 63 64 66 69 67 74 70 -71 -72 -73 -74 -75 -76 -77 -78 79 -80 82 85 -83 83 86 -86 -87 90 88 89 -91 91 -93 -94 -95
leaf_value=-0.06329362965969948 -0.06329362965969948 0.022595232380587794 -0.06329362965969948 0.029547765565259839 0.0012677071582699638 0.076289444881126364 0.082620416934359064 -0.053677063691081141 -0.021050837102395369 0.022221913622950226 0.0090990717114867795 0.031609119184487361 -0.050978772309367759 -0.0062311974752566127 0.057079828782936486 0.042069600349461916 0.020264272186472223 0.069213587660129333 -0.053350033116100308 0.089712243625273136 0.061421297686383575 -0.039021544476381176 0.070632898893321791 0.05063064225951678 0.064957568899970078 0.0784737952196327 0.037689797774182729 0.055234236292151163 -0.030089976230696126 -0.0063720069817057527 0.018617748488614843 0.065659376567835853 0.018284525732320714 -0.0010333736498489179 0.079018328852900874 0.0039518792518963425 0.10294118658732916 0.0010409567751876417 0.092235338253329219 0.074456893393767209 0.074359100034085787 0.062396538033836206 -0.0019753836417439998 0.056891995268096657 0.01097430014439099 0.081553192898450227 -0.031835877105339333 0.025992827655135206 0.051432492831374327 0.075611679389066141 0.072518730429341996 0.019608058080998272 -0.0044309758941714792 0.045472563838446903 0.06018665170092527 0.019213302292499516 0.01481636709799891 0.031976544862032205 -0.0055362447146559274 0.06783661784163067 0.048048192102553434 0.042613930169686211 0.065031941906872226 -0.0070286461512367162 0.073959955878693626 0.030335458885119633 0.061189606590386886 0.033102658080935397 -0.021422728515337143 0.093579146473232511 0.030948450776905223 -0.018146868089958201 0.086162591489009802 0.022436783687627151 0.080931179076906584 -0.011652802815309752 0.05038301431783785 0.016968940293458409 0.042753293702196812 0.074033747784461257 0.081128865696248442 -0.06256719738966765 0.032514767032207195 0.016863186512265666 -0.031189275237542786 0.020619069473408358 0.084654815274444267 0.016568665047564154 0.061931514155902583 -0.0010183584400240556 0.025333117226746145 0.076989697441581934 0.078041583694798577 0.015829831508090093
leaf_weight=147.00336784124374 268.12352418899536 21.390183493494995 20.573834776878357 2.3120752125978461 7.845302462577818 3.8845743387937537 4.9439072012901333 2.5794298052787781 5.4238042235374495 2.3622801005840293 18.816384792327881 13.138335257768629 2.8390088081359854 3.3081980645656577 2.6933601498603839 16.742696225643165 2.3846419602632514 4.0833348184823981 3.3107241690158844 4.6408411860466003 2.3574157655239105 2.4956624507904053 6.5702717900276175 32.35480061173439 10.670870527625082 5.7120883017778388 42.774244591593742 5.6929746121168128 2.6642514318227759 3.1081264913082114 2.6921759694814673 3.2003308534622192 5.3635251075029373 3.5996018052101126 8.7153623104095441 4.6723765879869479 2.7422324866056469 3.5608855336904517 4.4827414751052848 4.4427322447299948 16.392912104725838 6.6892732530832291 2.3789439946413031 11.555966868996618 7.8651977032423019 11.403713360428808 2.8605715483427039 8.3749183565378171 7.1555031985044462 13.07892093062401 28.982740566134453 4.4095328897237769 4.4276050031185132 3.9672505855560303 13.67261089384556 3.9582770466804496 6.8814991265535355 13.274281635880468 6.0721838325262087 10.667211294174193 2.7348841428756714 6.140297293663024 7.4545769691467276 2.4509575814008766 7.1648416668176642 2.9033129662275305 6.4416736662387928 3.2057879865169507 3.6783290803432447 3.4682876020669937 6.1445001363754272 4.3286897093057624 2.7331523895263663 11.832353591918945 5.9549204111099243 2.6614578962326041 7.3682320415973663 3.8494040220975902 16.844807758927345 2.9670985341072074 2.9407435655593863 2.380320131778717 4.6075057834386808 15.594025880098341 3.8291594386100769 10.032258212566374 4.2034502476453754 8.7084824591875094 16.555660322308544 2.9209106713533393 6.4116020649671555 3.2193817794322968 8.2169154882431013 3.8865553587675095
leaf_count=886 1616 88 124 10 34 16 20 12 23 10 80 55 12 14 11 69 10 17 14 19 10 11 27 131 43 23 173 23 11 13 11 13 23 15 35 19 11 15 18 18 66 27 10 47 33 46 12 34 29 53 117 18 18 16 55 16 28 54 25 43 11 25 30 10 29 12 26 13 15 14 25 18 11 48 24 11 30 16 68 12 12 10 19 64 16 41 17 36 67 12 26 13 33 16
internal_value=0 0.0199301 0.0376853 0.0407931 0.037301 0.0379416 0.0302655 -0.0143391 0.0257334 0.0313089 0.0277155 0.0122533 -0.00150358 0.0415875 0.0346333 0.0311721 0.0151855 0.0298611 -0.0225278 0.0669465 0.00747359 0.0146336 0.043474 0.0459687 0.0390435 0.0355089 0.0424945 0.024123 0.0167599 0.0344849 0.0421868 0.0199244 8.71476e-05 0.0431589 0.0647638 0.0421385 0.0427917 0.0480303 0.049492 0.0477499 0.0596231 0.0383617 0.0562117 0.0468423 0.0226078 0.0493813 0.0404852 0.0112696 0.0522154 0.054357 0.0515726 0.0605061 0.0440214 0.0191525 0.064375 0.0509878 0.0334818 0.0480387 0.053549 0.0421796 0.0111035 0.0650693 0.0437426 0.0419885 0.0395463 0.0283454 0.0450524 0.0398733 0.0326468 0.0647612 0.0113372 0.014542 0.0426111 0.0360973 0.0641936 0.0258795 0.0360526 0.0376351 0.0511797 0.0349906 0.0188424 -0.0134211 0.0388132 0.0337033 0.00360134 0.0343355 0.0381112 0.0326548 0.0413918 0.0524909 0.0553783 0.0426005 0.0612087 0.0410276
internal_weight=0 836.053 689.049 668.475 399.154 394.262 126.959 4.89151 108.08 76.4564 69.4533 31.6238 18.4854 267.303 50.6369 46.7523 20.3312 14.6359 5.69537 7.00312 15.6464 10.5525 26.4211 269.321 88.9046 78.2337 48.4863 29.7474 24.0544 19.8508 263.995 11.0456 7.85919 252.95 11.4075 241.542 237.943 118.032 114.471 109.988 27.7546 11.3616 18.8788 13.9349 10.2226 180.417 43.5903 11.2355 136.827 122.79 111.386 51.0232 60.3626 8.39486 46.6136 17.6309 14.037 51.9678 38.6935 19.4743 8.80707 19.2192 82.2338 77.7911 70.3365 23.1809 47.1556 39.9907 30.83 6.3716 9.82283 16.8093 21.0072 18.274 9.16071 12.4806 9.81919 119.911 19.587 100.323 19.2027 6.22972 81.1207 66.0502 8.43667 12.973 57.6135 43.7791 28.1851 19.4766 13.8344 9.63098 15.0706 6.85365
internal_count=5360 3744 2858 2734 1642 1620 530 22 453 320 291 133 78 1090 211 195 86 62 24 29 66 45 109 1092 361 318 196 122 99 82 1076 47 34 1029 46 983 968 479 464 446 112 46 77 57 43 731 177 46 554 497 451 206 245 34 188 71 57 211 157 79 36 78 334 316 286 95 191 162 125 26 40 69 85 74 37 51 40 489 79 410 79 26 331 270 35 53 235 179 115 79 56 39 61 28
is_linear=0
shrinkage=0.05


Tree=10
num_leaves=95
num_cat=0
split_feature=2 7 7 8 4 5 3 5 3 3 0 3 5 5 5 3 3 3 3 5 5 6 3 3 3 3 8 0 8 5 8 3 3 6 3 8 5 8 3 5 3 8 3 3 0 5 8 5 8 5 8 5 3 3 3 8 3 3 3 3 3 6 5 5 3 8 3 6 8 5 3 6 5 3 3 3 5 5 8 5 3 5 8 8 6 3 3 8 3 3 6 3 5 5
split_gain=523.662 453.609 78.7866 4.36875 4.74063 3.99377 5.39138 3.09751 2.96987 2.77719 2.32416 2.92758 2.23713 3.02928 2.5456 2.97273 2.04327 4.13333 3.0189 2.99025 2.98046 3.58336 3.38742 3.21169 3.08966 2.60494 2.55463 2.43478 2.04052 3.37454 2.0469 2.71689 2.45771 2.82903 3.57908 2.20735 2.92273 2.26924 2.51068 2.01469 2.65583 2.3799 1.84022 1.81728 2.24338 7.24686 2.16461 1.76423 1.73424 3.67887 2.08648 1.71785 2.02991 4.27699 1.70144 2.45353 1.66763 1.6519 4.63437 2.57731 2.0125 1.97822 3.00378 2.17851 4.02101 1.94323 1.83574 1.8929 1.64738 2.40291 1.64097 1.61328 2.37409 3.14671 3.40393 3.24191 2.94172 3.03683 3.06405 2.08028 3.69592 2.38777 2.94662 4.96191 2.70505 3.4206 2.00477 1.75672 1.73963 3.49848 1.71059 3.26607 1.60615 2.61553
