{"learner":{"attributes":{"best_iteration":"72","best_score":"0.8980587410757201"},"feature_names":[],"feature_types":[],"gradient_booster":{"model":{"gbtree_model_param":{"num_parallel_tree":"1","num_trees":"123"},"iteration_indptr":[0,1,2,3,4,5,6,7,8,9,10,11,12,13,14,15,16,17,18,19,20,21,22,23,24,25,26,27,28,29,30,31,32,33,34,35,36,37,38,39,40,41,42,43,44,45,46,47,48,49,50,51,52,53,54,55,56,57,58,59,60,61,62,63,64,65,66,67,68,69,70,71,72,73,74,75,76,77,78,79,80,81,82,83,84,85,86,87,88,89,90,91,92,93,94,95,96,97,98,99,100,101,102,103,104,105,106,107,108,109,110,111,112,113,114,115,116,117,118,119,120,121,122,123],"tree_info":[0,0,0,0,0,0,0,0,0,0,0,0,0,0,0,0,0,0,0,0,0,0,0,0,0,0,0,0,0,0,0,0,0,0,0,0,0,0,0,0,0,0,0,0,0,0,0,0,0,0,0,0,0,0,0,0,0,0,0,0,0,0,0,0,0,0,0,0,0,0,0,0,0,0,0,0,0,0,0,0,0,0,0,0,0,0,0,0,0,0,0,0,0,0,0,0,0,0,0,0,0,0,0,0,0,0,0,0,0,0,0,0,0,0,0,0,0,0,0,0,0,0,0],"trees":[{"base_weights":[-4.745406E-2,5.928668E-1,-1.12677E-1,-1.1232009E-1,1.2596481E0,1.3830526E0,-1.0745711E-1,5.685956E-2,1.0665115E-1],"categories":[],"categories_nodes":[],"categories_segments":[],"categories_sizes":[],"default_left":[0,0,0,0,0,0,0,0,0],"id":0,"left_children":[1,3,-1,-1,5,7,-1,-1,-1],"loss_changes":[7.8629443E2,8.1888794E2,0E0,0E0,1.498128E2,9.293091E0,0E0,0E0,0E0],"parents":[2147483647,0,0,1,1,4,4,5,5],"right_children":[2,4,-1,-1,6,8,-1,-1,-1],"split_conditions":[5E0,9.4404E4,-1.12677E-1,-1.1232009E-1,9.4537E4,1.8E1,-1.0745711E-1,5.685956E-2,1.0665115E-1],"split_indices":[2,7,0,0,7,1,0,0,0],"split_type":[0,0,0,0,0,0,0,0,0],"sum_hessian":[8.420638E2,5.851327E2,2.5693112E2,1.412004E2,4.4393228E2,4.249417E2,1.899056E1,2.6139948E1,3.9880176E2],"tree_param":{"num_deleted":"0","num_feature":"9","num_nodes":"9","size_leaf_vector":"1"}},{"base_weights":[-3.960497E-2,-1.0480881E-1,1.9106007E-1,1.0402729E-1,4.2228532E-1,-4.220053E-1,1.8799378E-1,7.705218E-1,2.6816463E-1,6.3520847E-3,-4.157669E-2,2.9578151E-2,-3.334635E-3,1.0252587E-1,4.8481483E-2,1.1553289E-2,5.6801487E-2],"categories":[],"categories_nodes":[],"categories_segments":[],"categories_sizes":[],"default_left":[0,0,0,0,0,0,0,0,0,0,0,0,0,0,0,0,0],"id":1,"left_children":[1,-1,3,5,7,9,11,13,15,-1,-1,-1,-1,-1,-1,-1,-1],"loss_changes":[2.6503754E2,0E0,1.4515497E1,2.3354652E1,1.0394371E1,4.932028E0,2.1851463E1,3.5626373E0,7.612849E0,0E0,0E0,0E0,0E0,0E0,0E0,0E0,0E0],"parents":[2147483647,0,0,2,2,3,3,4,4,5,5,6,6,7,7,8,8],"right_children":[2,-1,4,6,8,10,12,14,16,-1,-1,-1,-1,-1,-1,-1,-1],"split_conditions":[3E0,-1.0480881E-1,9.1935486E1,4E0,9E0,2E0,4.145299E1,5E0,1.75871E5,6.3520847E-3,-4.157669E-2,2.9578151E-2,-3.334635E-3,1.0252587E-1,4.8481483E-2,1.1553289E-2,5.6801487E-2],"split_indices":[4,0,8,5,5,5,8,6,3,0,0,0,0,0,0,0,0],"split_type":[0,0,0,0,0,0,0,0,0,0,0,0,0,0,0,0,0],"sum_hessian":[8.443518E2,1.2187242E2,7.224794E2,5.2595917E2,1.9652022E2,7.184421E1,4.5411493E2,5.9064404E1,1.3745581E2,1.4953871E1,5.689034E1,2.401794E2,2.1393555E2,8.44737E0,5.0617035E1,1.12521126E2,2.4934692E1],"tree_param":{"num_deleted":"0","num_feature":"9","num_nodes":"17","size_leaf_vector":"1"}},{"base_weights":[-2.069558E-2,-1.3556812E0,2.6081604E-1,-1.03431776E-1,-6.2092032E-2,-9.9137165E-2,4.4105217E-1,-1.026556E-1,5.261866E-1,-2.9881056E-2,2.3539796E-2,6.113575E-2,3.0695818E-2],"categories":[],"categories_nodes":[],"categories_segments":[],"categories_sizes":[],"default_left":[0,0,0,0,0,0,0,0,0,0,0,0,0],"id":2,"left_children":[1,3,5,-1,-1,-1,7,9,11,-1,-1,-1,-1],"loss_changes":[3.1495187E2,6.614075E-1,1.9802385E2,0E0,0E0,0E0,2.8852303E1,1.0604172E1,1.7843811E1,0E0,0E0,0E0,0E0],"parents":[2147483647,0,0,1,1,2,2,6,6,7,7,8,8],"right_children":[2,4,6,-1,-1,-1,8,10,12,-1,-1,-1,-1],"split_conditions":[8E0,2.2E1,3E0,-1.03431776E-1,-6.2092032E-2,-9.9137165E-2,4E0,7.848485E1,1E1,-2.9881056E-2,2.3539796E-2,6.113575E-2,3.0695818E-2],"split_indices":[0,5,4,0,0,0,5,8,0,0,0,0,0],"split_type":[0,0,0,0,0,0,0,0,0,0,0,0,0],"sum_hessian":[8.361118E2,1.4494365E2,6.911682E2,1.372435E2,7.700154E0,7.001715E1,6.2115106E2,8.40653E1,5.3708575E2,4.918437E1,3.4880928E1,1.5298642E2,3.8409933E2],"tree_param":{"num_deleted":"0","num_feature":"9","num_nodes":"13","size_leaf_vector":"1"}},{"base_weights":[-3.3402797E-2,5.3541565E-1,-1.0659155E-1,-1.066414E-1,1.0838455E0,1.1771476E0,-1.0076033E-1,8.906047E-2,2.3232566E-2],"categories":[],"categories_nodes":[],"categories_segments":[],"categories_sizes":[],"default_left":[0,0,0,0,0,0,0,0,0],"id":3,"left_children":[1,3,-1,-1,5,7,-1,-1,-1],"loss_changes":[6.596262E2,6.3778564E2,0E0,0E0,1.0656421E2,3.6348877E0,0E0,0E0,0E0],"parents":[2147483647,0,0,1,1,4,4,5,5],"right_children":[2,4,-1,-1,6,8,-1,-1,-1],"split_conditions":[5E0,9.4404E4,-1.0659155E-1,-1.066414E-1,9.4537E4,2.0001E5,-1.0076033E-1,8.906047E-2,2.3232566E-2],"split_indices":[2,7,0,0,7,3,0,0,0],"split_type":[0,0,0,0,0,0,0,0,0],"sum_hessian":[8.3362317E2,5.9171423E2,2.4190895E2,1.2916005E2,4.6255417E2,4.4592847E2,1.662571E1,4.4031787E2,5.610595E0],"tree_param":{"num_deleted":"0","num_feature":"9","num_nodes":"9","size_leaf_vector":"1"}},{"base_weights":[-2.9486684E-2,-1.03489436E-1,3.608842E-1,1.0650324E0,-1.03324555E-1,1.2579504E0,9.359219E-1,7.405059E-2,1.0333014E-1,9.455281E-2,6.0196042E-2],"categories":[],"categories_nodes":[],"categories_segments":[],"categories_sizes":[],"default_left":[0,0,0,0,0,0,0,0,0,0,0],"id":4,"left_children":[1,-1,3,5,-1,7,9,-1,-1,-1,-1],"loss_changes":[4.3875748E2,0E0,7.919686E2,1.0283997E1,0E0,4.5256653E0,1.1092453E1,0E0,0E0,0E0,0E0],"parents":[2147483647,0,0,2,2,3,3,5,5,6,6],"right_children":[2,-1,4,6,-1,8,10,-1,-1,-1,-1],"split_conditions":[9.4404E4,-1.03489436E-1,9.4537E4,4.8E1,-1.03324555E-1,1E1,9E0,7.405059E-2,1.0333014E-1,9.455281E-2,6.0196042E-2],"split_indices":[7,0,7,8,0,0,5,0,0,0,0],"split_type":[0,0,0,0,0,0,0,0,0,0,0],"sum_hessian":[8.303816E2,1.8564903E2,6.4473254E2,4.5915305E2,1.855795E2,1.805822E2,2.7857086E2,5.8244007E1,1.22338196E2,7.8605354E1,1.999655E2],"tree_param":{"num_deleted":"0","num_feature":"9","num_nodes":"11","size_leaf_vector":"1"}},{"base_weights":[-1.5564828E-2,3.5220683E-1,-1.0043006E-1,-1.0061773E-1,9.931425E-1,-2.4419228E-2,1.0095332E0,8.580869E-2,6.872879E-2],"categories":[],"categories_nodes":[],"categories_segments":[],"categories_sizes":[],"default_left":[0,0,0,0,0,0,0,0,0],"id":5,"left_children":[1,3,-1,-1,5,-1,7,-1,-1],"loss_changes":[3.8925952E2,6.807561E2,0E0,0E0,1.0155182E1,0E0,4.5838013E0,0E0,0E0],"parents":[2147483647,0,0,1,1,4,4,6,6],"right_children":[2,4,-1,-1,6,-1,8,-1,-1],"split_conditions":[9.4537E4,9.4404E4,-1.0043006E-1,-1.0061773E-1,3E0,-2.4419228E-2,4.9373432E1,8.580869E-2,6.872879E-2],"split_indices":[7,7,0,0,4,0,8,0,0],"split_type":[0,0,0,0,0,0,0,0,0],"sum_hessian":[7.9774786E2,6.248499E2,1.728979E2,1.7123651E2,4.5361343E2,5.3372293E0,4.4827618E2,1.7874384E2,2.6953238E2],"tree_param":{"num_deleted":"0","num_feature":"9","num_nodes":"9","size_leaf_vector":"1"}},{"base_weights":[-3.355948E-2,4.0425363E-1,-9.800496E-2,-9.806006E-2,8.197398E-1,8.868018E-1,-9.212091E-2,3.2597892E-2,6.881076E-2],"categories":[],"categories_nodes":[],"categories_segments":[],"categories_sizes":[],"default_left":[0,0,0,0,0,0,0,0,0],"id":6,"left_children":[1,3,-1,-1,5,7,-1,-1,-1],"loss_changes":[4.492844E2,4.276689E2,0E0,0E0,6.746585E1,6.099945E0,0E0,0E0,0E0],"parents":[2147483647,0,0,1,1,4,4,5,5],"right_children":[2,4,-1,-1,6,8,-1,-1,-1],"split_conditions":[5E0,9.4404E4,-9.800496E-2,-9.806006E-2,9.4537E4,1.8E1,-9.212091E-2,3.2597892E-2,6.881076E-2],"split_indices":[2,7,0,0,7,1,0,0,0],"split_type":[0,0,0,0,0,0,0,0,0],"sum_hessian":[8.040709E2,5.988303E2,2.052406E2,1.16544235E2,4.822861E2,4.6754346E2,1.4742629E1,3.0667004E1,4.3687646E2],"tree_param":{"num_deleted":"0","num_feature":"9","num_nodes":"9","size_leaf_vector":"1"}},{"base_weights":[-1.976718E-2,-9.5883645E-2,3.102106E-1,8.165361E-1,-9.5674135E-2,9.6398294E-1,6.880259E-1,7.0118226E-2,1.1330845E-1,3.407069E-2,5.9388664E-2],"categories":[],"categories_nodes":[],"categories_segments":[],"categories_sizes":[],"default_left":[0,0,0,0,0,0,0,0,0,0,0],"id":7,"left_children":[1,-1,3,5,-1,7,9,-1,-1,-1,-1],"loss_changes":[3.263983E2,0E0,5.0103268E2,8.291748E0,0E0,2.0466309E0,5.8532333E0,0E0,0E0,0E0,0E0],"parents":[2147483647,0,0,2,2,3,3,5,5,6,6],"right_children":[2,-1,4,6,-1,8,10,-1,-1,-1,-1],"split_conditions":[9.4404E4,-9.5883645E-2,9.4537E4,6.75E1,-9.5674135E-2,6.27451E1,8.784314E1,7.0118226E-2,1.1330845E-1,3.407069E-2,5.9388664E-2],"split_indices":[7,0,7,8,0,8,8,0,0,0,0],"split_type":[0,0,0,0,0,0,0,0,0,0,0],"sum_hessian":[7.839091E2,1.6222745E2,6.2168164E2,4.7159787E2,1.5008379E2,2.1659055E2,2.5500734E2,2.0822878E2,8.361763E0,8.0082596E1,1.7492474E2],"tree_param":{"num_deleted":"0","num_feature":"9","num_nodes":"11","size_leaf_vector":"1"}},{"base_weights":[-3.349484E-2,3.5419175E-1,-9.3918905E-2,-1.0029887E0,4.665564E-1,-8.435789E-2,-3.1335298E-2,-7.603613E-2,5.2292347E-1,6.411972E-2,3.620023E-2],"categories":[],"categories_nodes":[],"categories_segments":[],"categories_sizes":[],"default_left":[0,0,0,0,0,0,0,0,0,0,0],"id":8,"left_children":[1,3,-1,5,7,-1,-1,-1,9,-1,-1],"loss_changes":[3.6715387E2,9.038017E1,0E0,2.7654495E0,4.6023323E1,0E0,0E0,0E0,6.615143E0,0E0,0E0],"parents":[2147483647,0,0,1,1,3,3,4,4,8,8],"right_children":[2,4,-1,6,8,-1,-1,-1,10,-1,-1],"split_conditions":[5E0,8E0,-9.3918905E-2,6E0,3E0,-8.435789E-2,-3.1335298E-2,-7.603613E-2,4E0,6.411972E-2,3.620023E-2],"split_indices":[2,0,0,6,4,0,0,0,6,0,0],"split_type":[0,0,0,0,0,0,0,0,0,0,0],"sum_hessian":[7.7511346E2,5.885918E2,1.8652165E2,4.4398964E1,5.441928E2,3.5987503E1,8.411464E0,1.9337782E1,5.2485504E2,5.4565975E1,4.7028906E2],"tree_param":{"num_deleted":"0","num_feature":"9","num_nodes":"11","size_leaf_vector":"1"}},{"base_weights":[-7.966068E-3,3.545877E-1,-9.2153594E-2,-1.0197334E0,4.403855E-1,-4.767147E-2,-8.042338E-2,9.644008E-1,3.8647234E-1,3.8649894E-2,8.5985035E-2,6.280021E-2,2.6218742E-2],"categories":[],"categories_nodes":[],"categories_segments":[],"categories_sizes":[],"default_left":[0,0,0,0,0,0,0,0,0,0,0,0,0],"id":9,"left_children":[1,3,-1,5,7,-1,-1,9,11,-1,-1,-1,-1],"loss_changes":[3.3553745E2,6.9374825E1,0E0,1.8203735E-2,1.5190773E1,0E0,0E0,3.5562744E0,8.0427475E0,0E0,0E0,0E0,0E0],"parents":[2147483647,0,0,1,1,3,3,4,4,7,7,8,8],"right_children":[2,4,-1,6,8,-1,-1,10,12,-1,-1,-1,-1],"split_conditions":[5E0,3E0,-9.2153594E-2,2.3E1,1.3412E5,-4.767147E-2,-8.042338E-2,8E0,2.1E1,3.8649894E-2,8.5985035E-2,6.280021E-2,2.6218742E-2],"split_indices":[2,4,0,1,3,0,0,8,1,0,0,0,0],"split_type":[0,0,0,0,0,0,0,0,0,0,0,0,0],"sum_hessian":[7.561432E2,5.835442E2,1.7259901E2,3.3649902E1,5.498943E2,5.627425E0,2.8022478E1,4.9722496E1,5.0017178E2,1.5448653E1,3.4273846E1,3.618728E1,4.6398453E2],"tree_param":{"num_deleted":"0","num_feature":"9","num_nodes":"13","size_leaf_vector":"1"}},{"base_weights":[-1.9943304E-2,3.1007496E-1,-9.061525E-2,-9.853261E-1,3.8346875E-1,-4.5246787E-2,-7.974346E-2,1.7242119E-1,5.9902585E-1,7.431139E-2,6.7584063E-3,5.2857567E-2,2.7397467E-2],"categories":[],"categories_nodes":[],"categories_segments":[],"categories_sizes":[],"default_left":[0,0,0,0,0,0,0,0,0,0,0,0,0],"id":10,"left_children":[1,3,-1,5,7,-1,-1,9,11,-1,-1,-1,-1],"loss_changes":[3.040918E2,5.8082848E1,0E0,3.356743E-1,2.6060593E1,0E0,0E0,1.9580599E1,6.7643967E0,0E0,0E0,0E0,0E0],"parents":[2147483647,0,0,1,1,3,3,4,4,7,7,8,8],"right_children":[2,4,-1,6,8,-1,-1,10,12,-1,-1,-1,-1],"split_conditions":[5E0,3E0,-9.061525E-2,2.3E1,6E0,-4.5246787E-2,-7.974346E-2,2.1E1,1.43948E5,7.431139E-2,6.7584063E-3,5.2857567E-2,2.7397467E-2],"split_indices":[2,4,0,1,6,0,0,1,3,0,0,0,0],"split_type":[0,0,0,0,0,0,0,0,0,0,0,0,0],"sum_hessian":[7.734973E2,6.059456E2,1.6755165E2,3.1824148E1,5.7412146E2,6.8722935E0,2.4951855E1,2.9100464E2,2.8311685E2,2.5584164E1,2.6542047E2,1.9354054E2,8.95763E1],"tree_param":{"num_deleted":"0","num_feature":"9","num_nodes":"13","size_leaf_vector":"1"}},{"base_weights":[-2.4419598E-2,2.8266513E-1,-8.917583E-2,-9.383036E-2,5.9561074E-1,6.459147E-1,-8.735281E-2,6.620103E-2,4.6472274E-2],"categories":[],"categories_nodes":[],"categories_segments":[],"categories_sizes":[],"default_left":[0,0,0,0,0,0,0,0,0],"id":11,"left_children":[1,3,-1,-1,5,7,-1,-1,-1],"loss_changes":[2.6260928E2,2.7968283E2,0E0,0E0,4.355269E1,2.3814697E0,0E0,0E0,0E0],"parents":[2147483647,0,0,1,1,4,4,5,5],"right_children":[2,4,-1,-1,6,8,-1,-1,-1],"split_conditions":[5E0,9.4404E4,-8.917583E-2,-9.383036E-2,9.4537E4,1.3412E5,-8.735281E-2,6.620103E-2,4.6472274E-2],"split_indices":[2,7,0,0,7,3,0,0,0],"split_type":[0,0,0,0,0,0,0,0,0],"sum_hessian":[7.3236816E2,5.801491E2,1.5221906E2,9.7806206E1,4.823429E2,4.695576E2,1.2785333E1,4.36633E1,4.2589426E2],"tree_param":{"num_deleted":"0","num_feature":"9","num_nodes":"9","size_leaf_vector":"1"}},{"base_weights":[-1.9904722E-2,2.679012E-1,-8.789799E-2,-1.0044917E0,3.6409336E-1,-8.48506E-2,-3.3085383E-2,1.0334227E0,3.2918864E-1,6.387265E-2,9.5984675E-2,1.9196201E-2,4.3715667E-2],"categories":[],"categories_nodes":[],"categories_segments":[],"categories_sizes":[],"default_left":[0,0,0,0,0,0,0,0,0,0,0,0,0],"id":12,"left_children":[1,3,-1,5,7,-1,-1,9,11,-1,-1,-1,-1],"loss_changes":[2.4145326E2,7.168577E1,0E0,2.4467087E0,1.2333763E1,0E0,0E0,9.338379E-2,9.457802E0,0E0,0E0,0E0,0E0],"parents":[2147483647,0,0,1,1,3,3,4,4,7,7,8,8],"right_children":[2,4,-1,6,8,-1,-1,10,12,-1,-1,-1,-1],"split_conditions":[5E0,8E0,-8.789799E-2,1.75871E5,1.29102E5,-8.48506E-2,-3.3085383E-2,3.7E1,1.2E1,6.387265E-2,9.5984675E-2,1.9196201E-2,4.3715667E-2],"split_indices":[2,0,0,3,3,0,0,1,6,0,0,0,0],"split_type":[0,0,0,0,0,0,0,0,0,0,0,0,0],"sum_hessian":[7.262604E2,5.817076E2,1.445528E2,4.0222134E1,5.414854E2,3.200693E1,8.2152E0,2.5420357E1,5.1606506E2,1.7191914E1,8.228442E0,4.02013E2,1.1405206E2],"tree_param":{"num_deleted":"0","num_feature":"9","num_nodes":"13","size_leaf_vector":"1"}},{"base_weights":[-5.2309424E-2,2.0711182E-1,-8.6716786E-2,-8.920261E-1,2.9017007E-1,-1.0431333E0,-2.5198743E-2,-7.6097E-2,3.410184E-1,-4.2457946E-2,-8.334512E-2,4.9457442E-2,2.2991035E-2],"categories":[],"categories_nodes":[],"categories_segments":[],"categories_sizes":[],"default_left":[0,0,0,0,0,0,0,0,0,0,0,0,0],"id":13,"left_children":[1,3,-1,5,7,9,-1,-1,11,-1,-1,-1,-1],"loss_changes":[2.0513295E2,5.3223984E1,0E0,3.0949974E0,3.6184063E1,4.034729E-1,0E0,0E0,5.5125885E0,0E0,0E0,0E0,0E0],"parents":[2147483647,0,0,1,1,3,3,4,4,5,5,8,8],"right_children":[2,4,-1,6,8,10,-1,-1,12,-1,-1,-1,-1],"split_conditions":[5E0,8E0,-8.6716786E-2,1.67335E5,3E0,1.34123E5,-2.5198743E-2,-7.6097E-2,1.3412E5,-4.2457946E-2,-8.334512E-2,4.9457442E-2,2.2991035E-2],"split_indices":[2,0,0,3,4,3,0,0,3,0,0,0,0],"split_type":[0,0,0,0,0,0,0,0,0,0,0,0,0],"sum_hessian":[7.144631E2,5.791698E2,1.3529324E2,4.0006783E1,5.39163E2,3.0769138E1,9.237647E0,1.9512308E1,5.1965076E2,5.008955E0,2.5760181E1,4.899059E1,4.7066016E2],"tree_param":{"num_deleted":"0","num_feature":"9","num_nodes":"13","size_leaf_vector":"1"}},{"base_weights":[-2.5175227E-2,-1.0227398E0,1.0415404E-1,-8.1240326E-2,-5.689193E-2,7.1508706E-1,5.8428533E-2,1.9524497E-1,1.3170607E-1,2.33471E-1,-9.280064E-3,6.4811915E-2,-9.452259E-3,-1.8099995E-2,1.9238193E-2,-7.402317E-2,2.7813418E-3],"categories":[],"categories_nodes":[],"categories_segments":[],"categories_sizes":[],"default_left":[0,0,0,0,0,0,0,0,0,0,0,0,0,0,0,0,0],"id":14,"left_children":[1,3,5,-1,-1,7,9,11,-1,13,15,-1,-1,-1,-1,-1,-1],"loss_changes":[9.0142204E1,4.5915985E-1,1.7241432E1,0E0,0E0,2.2922668E1,6.8371034E0,6.512839E0,0E0,1.8218393E0,1.8930569E1,0E0,0E0,0E0,0E0,0E0,0E0],"parents":[2147483647,0,0,1,1,2,2,5,5,6,6,7,7,9,9,10,10],"right_children":[2,4,6,-1,-1,8,10,12,-1,14,16,-1,-1,-1,-1,-1,-1],"split_conditions":[8E0,7E0,2.1E1,-8.1240326E-2,-5.689193E-2,1.8E1,1E1,9E0,1.3170607E-1,2.2E1,1.1E1,6.4811915E-2,-9.452259E-3,-1.8099995E-2,1.9238193E-2,-7.402317E-2,2.7813418E-3],"split_indices":[0,6,1,0,0,1,0,5,0,1,0,0,0,0,0,0,0],"split_type":[0,0,0,0,0,0,0,0,0,0,0,0,0,0,0,0,0],"sum_hessian":[6.9687366E2,7.91847E1,6.1768896E2,6.191389E1,1.7270813E1,4.1992573E1,5.756964E2,2.879883E1,1.3193743E1,1.5989151E2,4.158049E2,8.795758E0,2.000307E1,6.9606752E0,1.5293083E2,1.7907177E1,3.978977E2],"tree_param":{"num_deleted":"0","num_feature":"9","num_nodes":"17","size_leaf_vector":"1"}},{"base_weights":[-2.8730242E-4,-9.013793E-2,2.4550866E-1,5.539499E-1,-8.595277E-2,6.6683704E-1,4.5660457E-1,2.8784553E-2,6.0026035E-2,4.3671437E-2,1.5060689E-2],"categories":[],"categories_nodes":[],"categories_segments":[],"categories_sizes":[],"default_left":[0,0,0,0,0,0,0,0,0,0,0],"id":15,"left_children":[1,-1,3,5,-1,7,9,-1,-1,-1,-1],"loss_changes":[2.0576523E2,0E0,2.4888812E2,4.905731E0,0E0,7.906906E0,8.169746E0,0E0,0E0,0E0,0E0],"parents":[2147483647,0,0,2,2,3,3,5,5,6,6],"right_children":[2,-1,4,6,-1,8,10,-1,-1,-1,-1],"split_conditions":[9.4404E4,-9.013793E-2,9.4537E4,6.75E1,-8.595277E-2,1E1,2E1,2.8784553E-2,6.0026035E-2,4.3671437E-2,1.5060689E-2],"split_indices":[7,0,7,8,0,0,5,0,0,0,0],"split_type":[0,0,0,0,0,0,0,0,0,0,0],"sum_hessian":[6.9471533E2,1.1731955E2,5.7739575E2,4.731273E2,1.04268486E2,2.1636633E2,2.5676096E2,7.0589745E1,1.4577658E2,1.7131267E2,8.5448296E1],"tree_param":{"num_deleted":"0","num_feature":"9","num_nodes":"11","size_leaf_vector":"1"}},{"base_weights":[-1.6736515E-2,2.1276732E-1,-8.446798E-2,-7.919603E-1,2.7633905E-1,-6.855397E-2,-5.697923E-1,-8.489024E-1,3.1435767E-1,-2.8151333E-2,-5.741634E-2,-3.698723E-2,-7.554826E-2,5.9963204E-2,2.0368906E-2],"categories":[],"categories_nodes":[],"categories_segments":[],"categories_sizes":[],"default_left":[0,0,0,0,0,0,0,0,0,0,0,0,0,0,0],"id":16,"left_children":[1,3,-1,5,7,-1,9,11,13,-1,-1,-1,-1,-1,-1],"loss_changes":[1.7490668E2,3.6576256E1,0E0,4.0499878E-1,2.3200798E1,0E0,2.744646E-1,5.057945E-1,1.055883E1,0E0,0E0,0E0,0E0,0E0,0E0],"parents":[2147483647,0,0,1,1,3,3,4,4,6,6,7,7,8,8],"right_children":[2,4,-1,6,8,-1,10,12,14,-1,-1,-1,-1,-1,-1],"split_conditions":[5E0,8E0,-8.446798E-2,3.2E1,3E0,-6.855397E-2,3.9E1,1.3E1,2.1E1,-2.8151333E-2,-5.741634E-2,-3.698723E-2,-7.554826E-2,5.9963204E-2,2.0368906E-2],"split_indices":[2,0,0,1,4,0,1,5,1,0,0,0,0,0,0],"split_type":[0,0,0,0,0,0,0,0,0,0,0,0,0,0,0],"sum_hessian":[6.849501E2,5.6822034E2,1.1672974E2,3.31315E1,5.350888E2,1.9371595E1,1.3759907E1,1.6791126E1,5.1829767E2,8.366821E0,5.3930855E0,6.4405994E0,1.0350528E1,4.0558933E1,4.7773877E2],"tree_param":{"num_deleted":"0","num_feature":"9","num_nodes":"15","size_leaf_vector":"1"}},{"base_weights":[-2.903179E-3,2.0567589E-1,-8.3574325E-2,-6.548515E-2,2.515723E-1,1.201592E-1,3.8292164E-1,3.9811365E-2,1.3851386E-3,2.7034888E-2,7.128858E-2],"categories":[],"categories_nodes":[],"categories_segments":[],"categories_sizes":[],"default_left":[0,0,0,0,0,0,0,0,0,0,0],"id":17,"left_children":[1,3,-1,-1,5,7,9,-1,-1,-1,-1],"loss_changes":[1.5832173E2,2.8692383E1,0E0,0E0,9.48827E0,1.1581561E1,3.1726189E0,0E0,0E0,0E0,0E0],"parents":[2147483647,0,0,1,1,4,4,5,5,6,6],"right_children":[2,4,-1,-1,6,8,10,-1,-1,-1,-1],"split_conditions":[5E0,3E0,-8.3574325E-2,-6.548515E-2,6E0,5E0,2.3E1,3.9811365E-2,1.3851386E-3,2.7034888E-2,7.128858E-2],"split_indices":[2,4,0,0,6,6,5,0,0,0,0],"split_type":[0,0,0,0,0,0,0,0,0,0,0],"sum_hessian":[6.809649E2,5.740488E2,1.0691611E2,2.2689943E1,5.513589E2,2.7656967E2,2.7478918E2,5.4055725E1,2.2251396E2,2.6590393E2,8.885254E0],"tree_param":{"num_deleted":"0","num_feature":"9","num_nodes":"11","size_leaf_vector":"1"}},{"base_weights":[-3.4697518E-2,-8.866506E-2,1.8745989E-1,4.3060535E-1,-8.3647855E-2,4.168906E-1,6.67517E-2,3.2633733E-2,5.3278194E-3],"categories":[],"categories_nodes":[],"categories_segments":[],"categories_sizes":[],"default_left":[0,0,0,0,0,0,0,0,0],"id":18,"left_children":[1,-1,3,5,-1,7,-1,-1,-1],"loss_changes":[1.6996255E2,0E0,1.7745708E2,2.6001205E0,0E0,2.8672104E0,0E0,0E0,0E0],"parents":[2147483647,0,0,2,2,3,3,5,5],"right_children":[2,-1,4,6,-1,8,-1,-1,-1],"split_conditions":[9.4404E4,-8.866506E-2,9.4537E4,2.3E1,-8.3647855E-2,2.2E1,6.67517E-2,3.2633733E-2,5.3278194E-3],"split_indices":[7,0,7,5,0,5,0,0,0],"split_type":[0,0,0,0,0,0,0,0,0],"sum_hessian":[6.64843E2,1.0713585E2,5.577072E2,4.7055347E2,8.715372E1,4.587656E2,1.1787875E1,4.3555453E2,2.3211063E1],"tree_param":{"num_deleted":"0","num_feature":"9","num_nodes":"9","size_leaf_vector":"1"}},{"base_weights":[-7.5258054E-3,1.7920457E-1,-8.211403E-2,-8.2156163E-1,2.3787345E-1,-7.7743426E-2,8.32166E-3,1.257728E-1,3.524985E-1,3.7988365E-2,1.590942E-3,2.434388E-2,8.544813E-2],"categories":[],"categories_nodes":[],"categories_segments":[],"categories_sizes":[],"default_left":[0,0,0,0,0,0,0,0,0,0,0,0,0],"id":19,"left_children":[1,3,-1,5,7,-1,-1,9,11,-1,-1,-1,-1],"loss_changes":[1.3389745E2,3.3242653E1,0E0,6.409725E0,6.7975216E0,0E0,0E0,1.0767783E1,5.3999977E0,0E0,0E0,0E0,0E0],"parents":[2147483647,0,0,1,1,3,3,4,4,7,7,8,8],"right_children":[2,4,-1,6,8,-1,-1,10,12,-1,-1,-1,-1],"split_conditions":[5E0,8E0,-8.211403E-2,6E0,6E0,-7.7743426E-2,8.32166E-3,5E0,2.3E1,3.7988365E-2,1.590942E-3,2.434388E-2,8.544813E-2],"split_indices":[2,0,0,6,6,0,0,6,5,0,0,0,0],"split_type":[0,0,0,0,0,0,0,0,0,0,0,0,0],"sum_hessian":[6.575062E2,5.618526E2,9.5653595E1,3.0393904E1,5.3145874E2,2.4608212E1,5.7856927E0,2.6974835E2,2.6171036E2,5.729046E1,2.1245789E2,2.5410797E2,7.6023965E0],"tree_param":{"num_deleted":"0","num_feature":"9","num_nodes":"13","size_leaf_vector":"1"}},{"base_weights":[1.1351703E-2,-8.742678E-2,2.1956338E-1,4.226203E-1,-8.227262E-2,6.842868E-2,4.471549E-1,-2.0378366E-2,2.1071587E-2,1.1651725E-1,3.066255E-2],"categories":[],"categories_nodes":[],"categories_segments":[],"categories_sizes":[],"default_left":[0,0,0,0,0,0,0,0,0,0,0],"id":20,"left_children":[1,-1,3,5,-1,7,9,-1,-1,-1,-1],"loss_changes":[1.6445232E2,0E0,1.5287576E2,4.2680054E0,0E0,2.4781942E0,1.8971565E1,0E0,0E0,0E0,0E0],"parents":[2147483647,0,0,2,2,3,3,5,5,6,6],"right_children":[2,-1,4,6,-1,8,10,-1,-1,-1,-1],"split_conditions":[9.4404E4,-8.742678E-2,9.4537E4,1.8E1,-8.227262E-2,1E1,2.1E1,-2.0378366E-2,2.1071587E-2,1.1651725E-1,3.066255E-2],"split_indices":[7,0,7,1,0,0,1,0,0,0,0],"split_type":[0,0,0,0,0,0,0,0,0,0,0],"sum_hessian":[6.689871E2,9.986144E1,5.691257E2,4.936638E2,7.5461876E1,3.2225945E1,4.6143784E2,1.2285283E1,1.994066E1,1.4123413E1,4.4731442E2],"tree_param":{"num_deleted":"0","num_feature":"9","num_nodes":"11","size_leaf_vector":"1"}},{"base_weights":[1.6693518E-3,1.698417E-1,-8.081229E-2,-7.2665787E-1,2.1968727E-1,-7.0667535E-2,-4.6066795E-3,6.131616E-1,1.9668621E-1,3.5063062E-2,6.6882126E-2,2.2547822E-2,9.347342E-3],"categories":[],"categories_nodes":[],"categories_segments":[],"categories_sizes":[],"default_left":[0,0,0,0,0,0,0,0,0,0,0,0,0],"id":21,"left_children":[1,3,-1,5,7,-1,-1,9,11,-1,-1,-1,-1],"loss_changes":[1.1567246E2,2.4800772E1,0E0,4.140627E0,4.6140366E0,0E0,0E0,7.363539E-1,3.6756268E0,0E0,0E0,0E0,0E0],"parents":[2147483647,0,0,1,1,3,3,4,4,7,7,8,8],"right_children":[2,4,-1,6,8,-1,-1,10,12,-1,-1,-1,-1],"split_conditions":[5E0,8E0,-8.081229E-2,1.67335E5,1.29102E5,-7.0667535E-2,-4.6066795E-3,3.9E1,4.991453E1,3.5063062E-2,6.6882126E-2,2.2547822E-2,9.347342E-3],"split_indices":[2,0,0,3,3,0,0,1,8,0,0,0,0],"split_type":[0,0,0,0,0,0,0,0,0,0,0,0,0],"sum_hessian":[6.3535474E2,5.5042206E2,8.493263E1,2.8276455E1,5.221456E2,2.1041395E1,7.2350593E0,2.7419962E1,4.9472568E2,1.9764824E1,7.655138E0,2.0123624E2,2.9348944E2],"tree_param":{"num_deleted":"0","num_feature":"9","num_nodes":"13","size_leaf_vector":"1"}},{"base_weights":[-5.9188828E-2,-8.634849E-2,1.288173E-1,3.064667E-1,-8.112366E-2,4.392588E-1,2.2214341E-1,2.9640025E-2,6.93673E-2,-1.7645761E-2,1.9534707E-2],"categories":[],"categories_nodes":[],"categories_segments":[],"categories_sizes":[],"default_left":[0,0,0,0,0,0,0,0,0,0,0],"id":22,"left_children":[1,-1,3,5,-1,7,9,-1,-1,-1,-1],"loss_changes":[1.2816533E2,0E0,1.1490692E2,5.113762E0,0E0,3.4800835E0,5.0861034E0,0E0,0E0,0E0,0E0],"parents":[2147483647,0,0,2,2,3,3,5,5,6,6],"right_children":[2,-1,4,6,-1,8,10,-1,-1,-1,-1],"split_conditions":[9.4404E4,-8.634849E-2,9.4537E4,4.8E1,-8.112366E-2,2.5E1,6.25E1,2.9640025E-2,6.93673E-2,-1.7645761E-2,1.9534707E-2],"split_indices":[7,0,7,8,0,8,8,0,0,0,0],"split_type":[0,0,0,0,0,0,0,0,0,0,0],"sum_hessian":[6.224815E2,9.066813E1,5.318134E2,4.6440378E2,6.7409615E1,1.7873036E2,2.856734E2,1.6552705E2,1.3203312E1,2.1684498E1,2.6398892E2],"tree_param":{"num_deleted":"0","num_feature":"9","num_nodes":"11","size_leaf_vector":"1"}},{"base_weights":[-1.4426816E-2,1.2817241E-1,-7.965528E-2,-7.145561E-1,1.6853712E-1,-6.505765E-2,-1.1061254E-2,-6.5594584E-2,1.9637908E-1,1.5392958E-2,-3.6908872E-2],"categories":[],"categories_nodes":[],"categories_segments":[],"categories_sizes":[],"default_left":[0,0,0,0,0,0,0,0,0,0,0],"id":23,"left_children":[1,3,-1,5,7,-1,-1,-1,9,-1,-1],"loss_changes":[9.266358E1,1.8694954E1,0E0,2.0523825E0,1.5329054E1,0E0,0E0,0E0,3.2069511E0,0E0,0E0],"parents":[2147483647,0,0,1,1,3,3,4,4,8,8],"right_children":[2,4,-1,6,8,-1,-1,-1,10,-1,-1],"split_conditions":[5E0,8E0,-7.965528E-2,1.67335E5,3E0,-6.505765E-2,-1.1061254E-2,-6.5594584E-2,2.00862E5,1.5392958E-2,-3.6908872E-2],"split_indices":[2,0,0,3,4,0,0,0,3,0,0],"split_type":[0,0,0,0,0,0,0,0,0,0,0],"sum_hessian":[6.183553E2,5.450446E2,7.3310684E1,2.4149637E1,5.2089496E2,1.8604351E1,5.545286E0,1.2750997E1,5.0814398E2,5.0238068E2,5.763296E0],"tree_param":{"num_deleted":"0","num_feature":"9","num_nodes":"11","size_leaf_vector":"1"}},{"base_weights":[-5.22134E-2,-8.561748E-2,1.2665397E-1,2.825768E-1,-8.022523E-2,4.1336834E-1,1.7666262E-1,1.9419719E-2,3.8859546E-2,2.1690428E-2,8.95385E-4],"categories":[],"categories_nodes":[],"categories_segments":[],"categories_sizes":[],"default_left":[0,0,0,0,0,0,0,0,0,0,0],"id":24,"left_children":[1,-1,3,5,-1,7,9,-1,-1,-1,-1],"loss_changes":[1.2005871E2,0E0,9.907606E1,6.42741E0,0E0,3.2508087E0,4.835721E0,0E0,0E0,0E0,0E0],"parents":[2147483647,0,0,2,2,3,3,5,5,6,6],"right_children":[2,-1,4,6,-1,8,10,-1,-1,-1,-1],"split_conditions":[9.4404E4,-8.561748E-2,9.4537E4,6E0,-8.022523E-2,2.7E1,1.7E1,1.9419719E-2,3.8859546E-2,2.1690428E-2,8.95385E-4],"split_indices":[7,0,7,6,0,1,5,0,0,0,0],"split_type":[0,0,0,0,0,0,0,0,0,0,0],"sum_hessian":[6.144185E2,8.5897316E1,5.285212E2,4.6825497E2,6.026621E1,2.0822218E2,2.600328E2,8.555947E1,1.2266271E2,1.5403624E2,1.0599657E2],"tree_param":{"num_deleted":"0","num_feature":"9","num_nodes":"11","size_leaf_vector":"1"}},{"base_weights":[-2.5187513E-2,-8.447306E-2,1.4591135E-1,2.8426382E-1,-7.952249E-2,5.7255065E-1,2.510265E-1,3.098481E-2,5.4506652E-2,1.4733163E-2,3.309907E-2],"categories":[],"categories_nodes":[],"categories_segments":[],"categories_sizes":[],"default_left":[0,0,0,0,0,0,0,0,0,0,0],"id":25,"left_children":[1,-1,3,5,-1,7,9,-1,-1,-1,-1],"loss_changes":[1.13969574E2,0E0,8.7698784E1,4.3655777E0,0E0,8.765068E-1,4.314722E0,0E0,0E0,0E0,0E0],"parents":[2147483647,0,0,2,2,3,3,5,5,6,6],"right_children":[2,-1,4,6,-1,8,10,-1,-1,-1,-1],"split_conditions":[9.4404E4,-8.447306E-2,9.4537E4,4E0,-7.952249E-2,3.1E1,4E1,3.098481E-2,5.4506652E-2,1.4733163E-2,3.309907E-2],"split_indices":[7,0,7,6,0,1,1,0,0,0,0],"split_type":[0,0,0,0,0,0,0,0,0,0,0],"sum_hessian":[6.030606E2,8.035394E1,5.2270667E2,4.696071E2,5.3099617E1,4.6867935E1,4.2273914E2,2.4853249E1,2.2014685E1,3.3008838E2,9.2650764E1],"tree_param":{"num_deleted":"0","num_feature":"9","num_nodes":"11","size_leaf_vector":"1"}},{"base_weights":[-4.5242816E-2,6.333443E-2,-7.819363E-2,-5.9894204E-1,9.360861E-2,-8.433599E-1,1.4725063E-2,4.860805E-1,5.8015164E-2,-7.516782E-2,-3.7346806E-2,-3.567798E-4,1.0717737E-1,2.0556849E-4,1.849644E-2],"categories":[],"categories_nodes":[],"categories_segments":[],"categories_sizes":[],"default_left":[0,0,0,0,0,0,0,0,0,0,0,0,0,0,0],"id":26,"left_children":[1,3,-1,5,7,9,-1,11,13,-1,-1,-1,-1,-1,-1],"loss_changes":[6.436521E1,1.0811306E1,0E0,4.749915E0,7.1498485E0,5.0127125E-1,0E0,1.9718985E1,4.9225025E0,0E0,0E0,0E0,0E0,0E0,0E0],"parents":[2147483647,0,0,1,1,3,3,4,4,5,5,7,7,8,8],"right_children":[2,4,-1,6,8,10,-1,12,14,-1,-1,-1,-1,-1,-1],"split_conditions":[5E0,8E0,-7.819363E-2,6E0,2.1E1,1.45122E5,1.4725063E-2,1.8E1,1E1,-7.516782E-2,-3.7346806E-2,-3.567798E-4,1.0717737E-1,2.0556849E-4,1.849644E-2],"split_indices":[2,0,0,6,1,3,0,1,6,0,0,0,0,0,0],"split_type":[0,0,0,0,0,0,0,0,0,0,0,0,0,0,0],"sum_hessian":[5.927778E2,5.3542426E2,5.7353516E1,2.2584433E1,5.1283984E2,1.7228893E1,5.35554E0,4.1590027E1,4.712498E2,1.0498269E1,6.7306237E0,2.8006607E1,1.3583421E1,3.6522708E2,1.06022705E2],"tree_param":{"num_deleted":"0","num_feature":"9","num_nodes":"15","size_leaf_vector":"1"}},{"base_weights":[4.6454642E-2,-8.367593E-2,2.1666141E-1,3.5309744E-1,-7.873882E-2,4.5906135E-1,2.63281E-1,3.198195E-2,9.3697175E-2,-6.0006594E-3,2.2384543E-2],"categories":[],"categories_nodes":[],"categories_segments":[],"categories_sizes":[],"default_left":[0,0,0,0,0,0,0,0,0,0,0],"id":27,"left_children":[1,-1,3,5,-1,7,9,-1,-1,-1,-1],"loss_changes":[1.1515361E2,0E0,8.807654E1,4.2471046E0,0E0,4.862568E0,3.0520992E0,0E0,0E0,0E0,0E0],"parents":[2147483647,0,0,2,2,3,3,5,5,6,6],"right_children":[2,-1,4,6,-1,8,10,-1,-1,-1,-1],"split_conditions":[9.4404E4,-8.367593E-2,9.4537E4,6.6666664E1,-7.873882E-2,6.27451E1,7.657895E1,3.198195E-2,9.3697175E-2,-6.0006594E-3,2.2384543E-2],"split_indices":[7,0,7,8,0,8,8,0,0,0,0],"split_type":[0,0,0,0,0,0,0,0,0,0,0],"sum_hessian":[5.79941E2,7.3377945E1,5.0656302E2,4.5795108E2,4.8611935E1,2.0820424E2,2.4974686E2,2.0142531E2,6.7789197E0,2.3096087E1,2.2665077E2],"tree_param":{"num_deleted":"0","num_feature":"9","num_nodes":"11","size_leaf_vector":"1"}},{"base_weights":[-4.1886516E-2,-8.277564E-2,1.0419945E-1,2.2314696E-1,-7.8209616E-2,-2.9298553E-1,2.5691998E-1,-9.59344E-3,-3.7071515E-2,1.0169521E-1,1.675682E-2],"categories":[],"categories_nodes":[],"categories_segments":[],"categories_sizes":[],"default_left":[0,0,0,0,0,0,0,0,0,0,0],"id":28,"left_children":[1,-1,3,5,-1,7,9,-1,-1,-1,-1],"loss_changes":[8.890781E1,0E0,6.901108E1,8.051483E0,0E0,8.8613415E-1,1.5526665E1,0E0,0E0,0E0,0E0],"parents":[2147483647,0,0,2,2,3,3,5,5,6,6],"right_children":[2,-1,4,6,-1,8,10,-1,-1,-1,-1],"split_conditions":[9.4404E4,-8.277564E-2,9.4537E4,1.8E1,-7.8209616E-2,8.1818184E1,2.1E1,-9.59344E-3,-3.7071515E-2,1.0169521E-1,1.675682E-2],"split_indices":[7,0,7,1,0,8,1,0,0,0,0],"split_type":[0,0,0,0,0,0,0,0,0,0,0],"sum_hessian":[5.7144165E2,6.8320015E1,5.031216E2,4.5657822E2,4.654339E1,2.7569857E1,4.2900836E2,1.6046602E1,1.1523254E1,1.1520858E1,4.1748752E2],"tree_param":{"num_deleted":"0","num_feature":"9","num_nodes":"11","size_leaf_vector":"1"}},{"base_weights":[-3.3788506E-2,6.3458495E-2,-7.710712E-2,-5.739486E-2,8.934859E-2,1.6382076E-1,-4.5844624E-3,3.1381276E-2,1.0468643E-2,-4.037265E-2,3.0139086E-3],"categories":[],"categories_nodes":[],"categories_segments":[],"categories_sizes":[],"default_left":[0,0,0,0,0,0,0,0,0,0,0],"id":29,"left_children":[1,3,-1,-1,5,7,9,-1,-1,-1,-1],"loss_changes":[5.396195E1,1.0982503E1,0E0,0E0,3.4576437E0,1.6427493E0,5.2665477E0,0E0,0E0,0E0,0E0],"parents":[2147483647,0,0,1,1,4,4,5,5,6,6],"right_children":[2,4,-1,-1,6,8,10,-1,-1,-1,-1],"split_conditions":[5E0,3E0,-7.710712E-2,-5.739486E-2,8.157895E1,2.1E1,8.461539E1,3.1381276E-2,1.0468643E-2,-4.037265E-2,3.0139086E-3],"split_indices":[2,4,0,0,8,1,8,0,0,0,0],"split_type":[0,0,0,0,0,0,0,0,0,0,0],"sum_hessian":[5.563985E2,5.0768146E2,4.8717033E1,1.4514804E1,4.9316666E2,2.7466345E2,2.1850319E2,2.2462557E1,2.5220091E2,1.605711E1,2.0244609E2],"tree_param":{"num_deleted":"0","num_feature":"9","num_nodes":"11","size_leaf_vector":"1"}},{"base_weights":[4.646015E-4,-7.778846E-1,4.8308354E-2,-8.6871636E-1,-1.798562E-2,-7.917331E-1,7.763046E-2,-3.5793107E-2,-9.3426067E-1,-3.5288963E-2,-7.3414475E-2,-2.7758917E-2,1.3312018E-1,-7.754094E-2,-4.655446E-2,1.263241E-2,-1.01675205E-2,2.7998848E-2,6.824672E-3],"categories":[],"categories_nodes":[],"categories_segments":[],"categories_sizes":[],"default_left":[0,0,0,0,0,0,0,0,0,0,0,0,0,0,0,0,0,0,0],"id":30,"left_children":[1,3,5,7,-1,9,11,-1,13,-1,-1,15,17,-1,-1,-1,-1,-1,-1],"loss_changes":[2.1397491E1,1.4179287E0,1.3394978E1,2.7481842E-1,0E0,6.422119E-1,3.0678668E0,0E0,7.708359E-2,0E0,0E0,3.862829E0,3.4407783E0,0E0,0E0,0E0,0E0,0E0,0E0],"parents":[2147483647,0,0,1,1,2,2,3,3,5,5,6,6,8,8,11,11,12,12],"right_children":[2,4,6,8,-1,10,12,-1,14,-1,-1,16,18,-1,-1,-1,-1,-1,-1],"split_conditions":[8E0,1.81455E5,3E0,1.34122E5,-1.798562E-2,2.8E1,2.7E1,-3.5793107E-2,1.45122E5,-3.5288963E-2,-7.3414475E-2,1.1E1,2.9E1,-7.754094E-2,-4.655446E-2,1.263241E-2,-1.01675205E-2,2.7998848E-2,6.824672E-3],"split_indices":[0,3,4,3,0,1,1,0,3,0,0,5,1,0,0,0,0,0,0],"split_type":[0,0,0,0,0,0,0,0,0,0,0,0,0,0,0,0,0,0,0],"sum_hessian":[5.725876E2,3.2274178E1,5.403134E2,2.7087156E1,5.187021E0,1.7346848E1,5.229666E2,5.0724225E0,2.2014734E1,7.679311E0,9.667537E0,1.8055176E2,3.4241483E2,1.4963064E1,7.0516696E0,6.3830135E1,1.1672162E2,4.99177E1,2.9249713E2],"tree_param":{"num_deleted":"0","num_feature":"9","num_nodes":"19","size_leaf_vector":"1"}},{"base_weights":[-2.1275494E-2,-8.30679E-1,2.8623417E-2,-9.0562624E-1,-2.7920844E-2,3.9445955E-2,-5.6179844E-2,-3.7504535E-2,-7.382815E-2,2.8898448E-1,1.0315028E-2,-5.958455E-3,3.580444E-2,9.513892E-3,-5.1426287E-3],"categories":[],"categories_nodes":[],"categories_segments":[],"categories_sizes":[],"default_left":[0,0,0,0,0,0,0,0,0,0,0,0,0,0,0],"id":31,"left_children":[1,3,5,7,-1,9,-1,-1,-1,11,13,-1,-1,-1,-1],"loss_changes":[2.217567E1,7.5821114E-1,4.3858714E0,3.6063766E-1,0E0,3.7147923E0,0E0,0E0,0E0,3.7465281E0,4.2282906E0,0E0,0E0,0E0,0E0],"parents":[2147483647,0,0,1,1,2,2,3,3,5,5,9,9,10,10],"right_children":[2,4,6,8,-1,10,-1,-1,-1,12,14,-1,-1,-1,-1],"split_conditions":[8E0,1.81455E5,2.00153E5,1.34123E5,-2.7920844E-2,4E0,-5.6179844E-2,-3.7504535E-2,-7.382815E-2,1.43607E5,4.861111E1,-5.958455E-3,3.580444E-2,9.513892E-3,-5.1426287E-3],"split_indices":[0,3,3,3,0,6,0,0,0,3,8,0,0,0,0],"split_type":[0,0,0,0,0,0,0,0,0,0,0,0,0,0,0],"sum_hessian":[5.4747235E2,3.08826E1,5.165897E2,2.5704388E1,5.1782117E0,5.1043567E2,6.154097E0,5.374617E0,2.0329771E1,5.2426304E1,4.5800934E2,1.7934278E1,3.4492023E1,1.8463474E2,2.7337463E2],"tree_param":{"num_deleted":"0","num_feature":"9","num_nodes":"15","size_leaf_vector":"1"}},{"base_weights":[-1.1260512E-2,-8.214635E-2,1.2836829E-1,2.3438495E-1,-7.7555224E-2,3.581978E-1,1.32596E-1,2.949835E-2,-9.408909E-3,-3.3721153E-2,1.2399258E-2],"categories":[],"categories_nodes":[],"categories_segments":[],"categories_sizes":[],"default_left":[0,0,0,0,0,0,0,0,0,0,0],"id":32,"left_children":[1,-1,3,5,-1,7,9,-1,-1,-1,-1],"loss_changes":[8.583215E1,0E0,6.216124E1,5.7656174E0,0E0,3.573677E0,4.928039E0,0E0,0E0,0E0,0E0],"parents":[2147483647,0,0,2,2,3,3,5,5,6,6],"right_children":[2,-1,4,6,-1,8,10,-1,-1,-1,-1],"split_conditions":[9.4404E4,-8.214635E-2,9.4537E4,6E0,-7.7555224E-2,2.2E1,1.8E1,2.949835E-2,-9.408909E-3,-3.3721153E-2,1.2399258E-2],"split_indices":[7,0,7,6,0,5,1,0,0,0,0],"split_type":[0,0,0,0,0,0,0,0,0,0,0],"sum_hessian":[5.651403E2,6.370615E1,5.0143417E2,4.6025626E2,4.1177917E1,2.0652579E2,2.5373045E2,1.9272084E2,1.38049555E1,1.2825766E1,2.409047E2],"tree_param":{"num_deleted":"0","num_feature":"9","num_nodes":"11","size_leaf_vector":"1"}},{"base_weights":[-3.4327902E-2,-8.136485E-2,9.0557426E-2,1.7796157E-1,-7.675615E-2,1.5782027E-1,8.282201E-1,1.6284553E-2,1.9686809E-3,7.6691285E-2,4.0821567E-2],"categories":[],"categories_nodes":[],"categories_segments":[],"categories_sizes":[],"default_left":[0,0,0,0,0,0,0,0,0,0,0],"id":33,"left_children":[1,-1,3,5,-1,7,9,-1,-1,-1,-1],"loss_changes":[7.26501E1,0E0,4.839468E1,5.89388E0,0E0,3.4854984E0,1.929903E-1,0E0,0E0,0E0,0E0],"parents":[2147483647,0,0,2,2,3,3,5,5,6,6],"right_children":[2,-1,4,6,-1,8,10,-1,-1,-1,-1],"split_conditions":[9.4404E4,-8.136485E-2,9.4537E4,2.3E1,-7.675615E-2,2.1E1,1.43245E5,1.6284553E-2,1.9686809E-3,7.6691285E-2,4.0821567E-2],"split_indices":[7,0,7,5,0,5,3,0,0,0,0],"split_type":[0,0,0,0,0,0,0,0,0,0,0],"sum_hessian":[5.520009E2,5.7831856E1,4.941691E2,4.5899576E2,3.517332E1,4.464112E2,1.2584572E1,3.0726016E2,1.3915103E2,5.926765E0,6.657807E0],"tree_param":{"num_deleted":"0","num_feature":"9","num_nodes":"11","size_leaf_vector":"1"}},{"base_weights":[-2.64872E-2,-6.8346226E-1,8.003014E-3,-6.28581E-2,-1.5071881E-2,4.111591E-1,-1.646174E-2,2.5960335E-1,5.5280197E-2,2.8050447E-1,-4.1673567E-2,-5.0651394E-3,2.9465413E-2,-7.1984963E-3,9.564922E-2,-2.9776854E-2,-7.657373E-4],"categories":[],"categories_nodes":[],"categories_segments":[],"categories_sizes":[],"default_left":[0,0,0,0,0,0,0,0,0,0,0,0,0,0,0,0,0],"id":34,"left_children":[1,3,5,-1,-1,7,9,11,-1,13,15,-1,-1,-1,-1,-1,-1],"loss_changes":[1.2340194E1,1.8584805E0,5.117774E0,0E0,0E0,1.2749047E0,3.676672E0,9.7722685E-1,0E0,1.4517809E1,5.0504313E0,0E0,0E0,0E0,0E0,0E0,0E0],"parents":[2147483647,0,0,1,1,2,2,5,5,6,6,7,7,9,9,10,10],"right_children":[2,4,6,-1,-1,8,10,12,-1,14,16,-1,-1,-1,-1,-1,-1],"split_conditions":[8E0,1.67335E5,1.29102E5,-6.28581E-2,-1.5071881E-2,3.9E1,2.1E1,6.8965516E0,5.5280197E-2,1.8E1,2.3E1,-5.0651394E-3,2.9465413E-2,-7.1984963E-3,9.564922E-2,-2.9776854E-2,-7.657373E-4],"split_indices":[0,3,3,0,0,1,1,8,0,1,1,0,0,0,0,0,0],"split_type":[0,0,0,0,0,0,0,0,0,0,0,0,0,0,0,0,0],"sum_hessian":[5.4335803E2,2.6164091E1,5.171939E2,1.9255564E1,6.9085283E0,2.8685057E1,4.8850888E2,2.0806229E1,7.8788276E0,3.7435543E1,4.5107333E2,6.1653113E0,1.4640917E1,2.7813263E1,9.622279E0,3.5745502E1,4.1532782E2],"tree_param":{"num_deleted":"0","num_feature":"9","num_nodes":"17","size_leaf_vector":"1"}},{"base_weights":[5.7240776E-3,-8.050859E-2,1.2232431E-1,2.0582066E-1,-7.637612E-2,2.8606722E-1,1.3846704E-1,5.0204005E-2,2.0383172E-2,1.1725058E-2,-1.5360298E-2],"categories":[],"categories_nodes":[],"categories_segments":[],"categories_sizes":[],"default_left":[0,0,0,0,0,0,0,0,0,0,0],"id":35,"left_children":[1,-1,3,5,-1,7,9,-1,-1,-1,-1],"loss_changes":[6.818008E1,0E0,4.677882E1,2.427391E0,0E0,9.5397186E-1,1.5658951E0,0E0,0E0,0E0,0E0],"parents":[2147483647,0,0,2,2,3,3,5,5,6,6],"right_children":[2,-1,4,6,-1,8,10,-1,-1,-1,-1],"split_conditions":[9.4404E4,-8.050859E-2,9.4537E4,6E0,-7.637612E-2,2E0,1.5E1,5.0204005E-2,2.0383172E-2,1.1725058E-2,-1.5360298E-2],"split_indices":[7,0,7,6,0,6,6,0,0,0,0],"split_type":[0,0,0,0,0,0,0,0,0,0,0],"sum_hessian":[5.39792E2,5.1835144E1,4.8795682E2,4.5543863E2,3.2518196E1,2.0634615E2,2.4909248E2,5.7692666E0,2.0057687E2,2.3728644E2,1.18060465E1],"tree_param":{"num_deleted":"0","num_feature":"9","num_nodes":"11","size_leaf_vector":"1"}},{"base_weights":[2.7002683E-2,-8.008577E-2,1.4391816E-1,2.2498146E-1,-7.597707E-2,-2.8034073E-1,2.6044026E-1,-3.4458596E-2,1.0807877E-2,9.4487414E-2,1.7137574E-2],"categories":[],"categories_nodes":[],"categories_segments":[],"categories_sizes":[],"default_left":[0,0,0,0,0,0,0,0,0,0,0],"id":36,"left_children":[1,-1,3,5,-1,7,9,-1,-1,-1,-1],"loss_changes":[6.758069E1,0E0,4.4947453E1,8.072065E0,0E0,2.3280969E0,1.3044065E1,0E0,0E0,0E0,0E0],"parents":[2147483647,0,0,2,2,3,3,5,5,6,6],"right_children":[2,-1,4,6,-1,8,10,-1,-1,-1,-1],"split_conditions":[9.4404E4,-8.008577E-2,9.4537E4,1.8E1,-7.597707E-2,1.60892E5,2.1E1,-3.4458596E-2,1.0807877E-2,9.4487414E-2,1.7137574E-2],"split_indices":[7,0,7,1,0,3,1,0,0,0,0],"split_type":[0,0,0,0,0,0,0,0,0,0,0],"sum_hessian":[5.257713E2,4.994511E1,4.7582617E2,4.4542245E2,3.0403719E1,2.8753353E1,4.166691E2,2.0162666E1,8.590687E0,1.171323E1,4.0495587E2],"tree_param":{"num_deleted":"0","num_feature":"9","num_nodes":"11","size_leaf_vector":"1"}},{"base_weights":[1.892893E-2,-7.949173E-2,1.2630904E-1,1.9959354E-1,-7.560863E-2,1.8780676E-1,4.84329E-2,1.5838481E-2,-1.8081255E-2],"categories":[],"categories_nodes":[],"categories_segments":[],"categories_sizes":[],"default_left":[0,0,0,0,0,0,0,0,0],"id":37,"left_children":[1,-1,3,5,-1,7,-1,-1,-1],"loss_changes":[6.0551563E1,0E0,3.9709457E1,2.2306747E0,0E0,4.432831E0,0E0,0E0,0E0],"parents":[2147483647,0,0,2,2,3,3,5,5],"right_children":[2,-1,4,6,-1,8,-1,-1,-1],"split_conditions":[9.4404E4,-7.949173E-2,9.4537E4,2.3E1,-7.560863E-2,2.2E1,4.84329E-2,1.5838481E-2,-1.8081255E-2],"split_indices":[7,0,7,5,0,5,0,0,0],"split_type":[0,0,0,0,0,0,0,0,0],"sum_hessian":[5.2054504E2,4.631912E1,4.7422595E2,4.4622366E2,2.800227E1,4.361234E2,1.0100246E1,4.1406592E2,2.2057497E1],"tree_param":{"num_deleted":"0","num_feature":"9","num_nodes":"9","size_leaf_vector":"1"}},{"base_weights":[1.2818097E-2,-7.887355E-2,1.0968327E-1,1.7906679E-1,-7.5250536E-2,2.9777974E-1,8.0360584E-2,3.023765E-2,1.6585203E-2,4.1342843E-3,5.8302745E-2],"categories":[],"categories_nodes":[],"categories_segments":[],"categories_sizes":[],"default_left":[0,0,0,0,0,0,0,0,0,0,0],"id":38,"left_children":[1,-1,3,5,-1,7,9,-1,-1,-1,-1],"loss_changes":[5.4190647E1,0E0,3.7372013E1,5.298192E0,0E0,1.5734196E0,4.3435383E0,0E0,0E0,0E0,0E0],"parents":[2147483647,0,0,2,2,3,3,5,5,6,6],"right_children":[2,-1,4,6,-1,8,10,-1,-1,-1,-1],"split_conditions":[9.4404E4,-7.887355E-2,9.4537E4,6E0,-7.5250536E-2,4.991453E1,2.3E1,3.023765E-2,1.6585203E-2,4.1342843E-3,5.8302745E-2],"split_indices":[7,0,7,6,0,8,5,0,0,0,0],"split_type":[0,0,0,0,0,0,0,0,0,0,0],"sum_hessian":[5.2344476E2,4.283775E1,4.8060703E2,4.5319492E2,2.7412088E1,2.0483054E2,2.483644E2,8.444887E1,1.2038167E2,2.407274E2,7.636992E0],"tree_param":{"num_deleted":"0","num_feature":"9","num_nodes":"11","size_leaf_vector":"1"}},{"base_weights":[-2.6478758E-3,-7.844162E-2,9.104991E-2,1.5431856E-1,-7.4831486E-2,-1.4372407E-1,1.7539607E-1,4.207828E-3,-3.0227525E-2,9.075097E-2,1.0928059E-2],"categories":[],"categories_nodes":[],"categories_segments":[],"categories_sizes":[],"default_left":[0,0,0,0,0,0,0,0,0,0,0],"id":39,"left_children":[1,-1,3,5,-1,7,9,-1,-1,-1,-1],"loss_changes":[5.0121685E1,0E0,3.2567135E1,2.8241644E0,0E0,1.5759852E0,1.2619332E1,0E0,0E0,0E0,0E0],"parents":[2147483647,0,0,2,2,3,3,5,5,6,6],"right_children":[2,-1,4,6,-1,8,10,-1,-1,-1,-1],"split_conditions":[9.4404E4,-7.844162E-2,9.4537E4,1.8E1,-7.4831486E-2,6E0,2.1E1,4.207828E-3,-3.0227525E-2,9.075097E-2,1.0928059E-2],"split_indices":[7,0,7,1,0,6,1,0,0,0,0],"split_type":[0,0,0,0,0,0,0,0,0,0,0],"sum_hessian":[5.107833E2,4.125737E1,4.6952594E2,4.4455197E2,2.4973955E1,2.8977818E1,4.1557416E2,1.6808521E1,1.2169297E1,1.0483366E1,4.050908E2],"tree_param":{"num_deleted":"0","num_feature":"9","num_nodes":"11","size_leaf_vector":"1"}},{"base_weights":[-2.927098E-2,-7.787426E-2,5.366123E-2,1.10103555E-1,-7.4451834E-2,-3.6291733E-1,1.4320175E-1,3.7609094E-3,-4.183063E-2,8.687548E-2,8.963702E-3],"categories":[],"categories_nodes":[],"categories_segments":[],"categories_sizes":[],"default_left":[0,0,0,0,0,0,0,0,0,0,0],"id":40,"left_children":[1,-1,3,5,-1,7,9,-1,-1,-1,-1],"loss_changes":[4.3093517E1,0E0,2.8232264E1,7.1397595E0,0E0,2.4332612E0,1.005219E1,0E0,0E0,0E0,0E0],"parents":[2147483647,0,0,2,2,3,3,5,5,6,6],"right_children":[2,-1,4,6,-1,8,10,-1,-1,-1,-1],"split_conditions":[9.4404E4,-7.787426E-2,9.4537E4,1.8E1,-7.4451834E-2,1.1E1,2.1E1,3.7609094E-3,-4.183063E-2,8.687548E-2,8.963702E-3],"split_indices":[7,0,7,1,0,5,1,0,0,0,0],"split_type":[0,0,0,0,0,0,0,0,0,0,0],"sum_hessian":[5.132959E2,3.8108017E1,4.7518787E2,4.5171616E2,2.3471697E1,2.8888803E1,4.2282736E2,9.4967E0,1.9392103E1,8.548442E0,4.1427893E2],"tree_param":{"num_deleted":"0","num_feature":"9","num_nodes":"11","size_leaf_vector":"1"}},{"base_weights":[-6.457664E-4,-7.736414E-2,7.7557564E-2,1.3062808E-1,-7.398775E-2,4.0604153E-1,1.0406693E-1,1.1415468E-2,8.581692E-2,-3.1037515E-2,1.1445039E-2],"categories":[],"categories_nodes":[],"categories_segments":[],"categories_sizes":[],"default_left":[0,0,0,0,0,0,0,0,0,0,0],"id":41,"left_children":[1,-1,3,5,-1,7,9,-1,-1,-1,-1],"loss_changes":[4.0826355E1,0E0,2.6710373E1,3.2440553E0,0E0,7.1653247E0,1.0395588E1,0E0,0E0,0E0,0E0],"parents":[2147483647,0,0,2,2,3,3,5,5,6,6],"right_children":[2,-1,4,6,-1,8,10,-1,-1,-1,-1],"split_conditions":[9.4404E4,-7.736414E-2,9.4537E4,2.1E1,-7.398775E-2,1.8E1,2.3E1,1.1415468E-2,8.581692E-2,-3.1037515E-2,1.1445039E-2],"split_indices":[7,0,7,1,0,1,1,0,0,0,0],"split_type":[0,0,0,0,0,0,0,0,0,0,0],"sum_hessian":[5.0442535E2,3.470845E1,4.6971692E2,4.4823807E2,2.1478838E1,3.8169563E1,4.100685E2,2.9300388E1,8.869175E0,3.449085E1,3.7557767E2],"tree_param":{"num_deleted":"0","num_feature":"9","num_nodes":"11","size_leaf_vector":"1"}},{"base_weights":[-4.292747E-3,4.781008E-2,-7.398782E-2,2.0449771E-1,-5.454886E-2,2.9428342E-2,2.9320514E-1,6.2133618E-2,-2.8090608E-1,9.200019E-3,-2.3701245E-2,1.8352155E-2,6.066442E-2,-4.177598E-2,7.50176E-3,-3.3263941E-3,-3.7013575E-2],"categories":[],"categories_nodes":[],"categories_segments":[],"categories_sizes":[],"default_left":[0,0,0,0,0,0,0,0,0,0,0,0,0,0,0,0,0],"id":42,"left_children":[1,3,-1,5,7,9,11,13,15,-1,-1,-1,-1,-1,-1,-1,-1],"loss_changes":[2.5464333E1,7.5908413E0,0E0,2.8947134E0,7.5883136E0,2.099571E0,2.9030514E0,4.512151E0,4.890846E0,0E0,0E0,0E0,0E0,0E0,0E0,0E0,0E0],"parents":[2147483647,0,0,1,1,3,3,4,4,5,5,6,6,7,7,8,8],"right_children":[2,4,-1,6,8,10,12,14,16,-1,-1,-1,-1,-1,-1,-1,-1],"split_conditions":[5E0,4.8E1,-7.398782E-2,1E1,2.1E1,4.4E1,2.6666666E1,5.844156E1,2.8E1,9.200019E-3,-2.3701245E-2,1.8352155E-2,6.066442E-2,-4.177598E-2,7.50176E-3,-3.3263941E-3,-3.7013575E-2],"split_indices":[2,8,0,0,5,1,8,8,1,0,0,0,0,0,0,0,0],"split_type":[0,0,0,0,0,0,0,0,0,0,0,0,0,0,0,0,0],"sum_hessian":[4.956619E2,4.715967E2,2.4065207E1,1.8595113E2,2.8564557E2,6.2982727E1,1.2296839E2,1.8896402E2,9.668156E1,5.01041E1,1.2878629E1,1.1374267E2,9.225725E0,1.0107042E1,1.7885698E2,4.6335705E1,5.0345848E1],"tree_param":{"num_deleted":"0","num_feature":"9","num_nodes":"17","size_leaf_vector":"1"}},{"base_weights":[3.1560427E-4,-7.6856725E-2,7.241339E-2,1.2241716E-1,-7.362585E-2,2.1400185E-1,5.2134067E-2,6.4439722E-3,2.4202872E-2,1.9640746E-3,6.0147922E-2],"categories":[],"categories_nodes":[],"categories_segments":[],"categories_sizes":[],"default_left":[0,0,0,0,0,0,0,0,0,0,0],"id":43,"left_children":[1,-1,3,5,-1,7,9,-1,-1,-1,-1],"loss_changes":[3.6767006E1,0E0,2.4618683E1,2.8508682E0,0E0,2.6557379E0,4.899206E0,0E0,0E0,0E0,0E0],"parents":[2147483647,0,0,2,2,3,3,5,5,6,6],"right_children":[2,-1,4,6,-1,8,10,-1,-1,-1,-1],"split_conditions":[9.4404E4,-7.6856725E-2,9.4537E4,6E0,-7.362585E-2,1.4E1,2.3E1,6.4439722E-3,2.4202872E-2,1.9640746E-3,6.0147922E-2],"split_indices":[7,0,7,6,0,5,5,0,0,0,0],"split_type":[0,0,0,0,0,0,0,0,0,0,0],"sum_hessian":[4.954832E2,3.169116E1,4.6379202E2,4.43631E2,2.0161016E1,1.91737E2,2.5189403E2,8.884431E1,1.02892685E2,2.4446965E2,7.42438E0],"tree_param":{"num_deleted":"0","num_feature":"9","num_nodes":"11","size_leaf_vector":"1"}},{"base_weights":[-2.5347173E-2,1.6356658E-2,-7.317618E-2,-9.2358716E-2,7.645436E-2,9.374133E-2,-2.5013623E-1,-2.033319E-1,1.0984832E-1,-1.3870966E-4,6.514397E-2,-3.9351013E-2,1.5476079E-2,3.2788068E-2,-3.5847254E-2,1.4703335E-2,-2.5276905E-3],"categories":[],"categories_nodes":[],"categories_segments":[],"categories_sizes":[],"default_left":[0,0,0,0,0,0,0,0,0,0,0,0,0,0,0,0,0],"id":44,"left_children":[1,3,-1,5,7,9,11,13,15,-1,-1,-1,-1,-1,-1,-1,-1],"loss_changes":[1.9769468E1,3.1330113E0,0E0,5.0379725E0,2.9062536E0,5.8592553E0,1.1725351E1,6.0600796E0,3.426681E0,0E0,0E0,0E0,0E0,0E0,0E0,0E0,0E0],"parents":[2147483647,0,0,1,1,3,3,4,4,5,5,6,6,7,7,8,8],"right_children":[2,4,-1,6,8,10,12,14,16,-1,-1,-1,-1,-1,-1,-1,-1],"split_conditions":[5E0,1.1E1,-7.317618E-2,1.43236E5,4E0,1.40214E5,1.75682E5,2E0,2.1E1,-1.3870966E-4,6.514397E-2,-3.9351013E-2,1.5476079E-2,3.2788068E-2,-3.5847254E-2,1.4703335E-2,-2.5276905E-3],"split_indices":[2,0,0,3,5,3,3,5,5,0,0,0,0,0,0,0,0],"split_type":[0,0,0,0,0,0,0,0,0,0,0,0,0,0,0,0,0],"sum_hessian":[4.974154E2,4.7744626E2,1.9969122E1,1.6978046E2,3.076658E2,7.8084694E1,9.169576E1,3.2263344E1,2.7540247E2,7.039753E1,7.6871634E0,5.716533E1,3.4530434E1,9.504567E0,2.2758778E1,1.7184889E2,1.0355357E2],"tree_param":{"num_deleted":"0","num_feature":"9","num_nodes":"17","size_leaf_vector":"1"}},{"base_weights":[-1.0763629E-2,2.3536056E-3,-7.745689E-2,1.0287255E-1,-6.299152E-2,-1.676325E-1,2.0807442E-1,5.173589E-2,-2.872665E-1,3.8981114E-3,-3.8090806E-2,1.0449508E-3,2.2084532E-2,7.1936604E-3,-3.1291563E-2,-3.0044548E-2,2.3584634E-2],"categories":[],"categories_nodes":[],"categories_segments":[],"categories_sizes":[],"default_left":[0,0,0,0,0,0,0,0,0,0,0,0,0,0,0,0,0],"id":45,"left_children":[1,3,-1,5,7,9,11,13,15,-1,-1,-1,-1,-1,-1,-1,-1],"loss_changes":[6.539617E0,3.1754737E0,0E0,5.454725E0,7.5540423E0,4.0525255E0,2.3031082E0,4.0737114E0,6.8983936E0,0E0,0E0,0E0,0E0,0E0,0E0,0E0,0E0],"parents":[2147483647,0,0,1,1,3,3,4,4,5,5,6,6,7,7,8,8],"right_children":[2,4,-1,6,8,10,12,14,16,-1,-1,-1,-1,-1,-1,-1,-1],"split_conditions":[2.00862E5,4.8E1,-7.745689E-2,9E0,2.1E1,6E0,1.3981E5,1.9385E5,1.84476E5,3.8981114E-3,-3.8090806E-2,1.0449508E-3,2.2084532E-2,7.1936604E-3,-3.1291563E-2,-3.0044548E-2,2.3584634E-2],"split_indices":[3,8,0,5,5,5,3,3,3,0,0,0,0,0,0,0,0],"split_type":[0,0,0,0,0,0,0,0,0,0,0,0,0,0,0,0,0],"sum_hessian":[4.8664062E2,4.814588E2,5.181794E0,1.8945308E2,2.9200574E2,5.288268E1,1.365704E2,1.936922E2,9.831353E1,3.265385E1,2.0228827E1,4.2413235E1,9.4157166E1,1.7774283E2,1.5949366E1,8.301334E1,1.5300192E1],"tree_param":{"num_deleted":"0","num_feature":"9","num_nodes":"17","size_leaf_vector":"1"}},{"base_weights":[-1.3494642E-2,-6.719361E-1,9.260416E-3,-6.427884E-2,-1.7810667E-2,4.5754258E-2,-8.063026E-4,2.7939242E-1,-1.8927064E-2,-5.4098703E-3,3.428737E-2,-1.6076064E-2,2.174969E-3],"categories":[],"categories_nodes":[],"categories_segments":[],"categories_sizes":[],"default_left":[0,0,0,0,0,0,0,0,0,0,0,0,0],"id":46,"left_children":[1,3,5,-1,-1,-1,7,9,11,-1,-1,-1,-1],"loss_changes":[7.2796497E0,1.1017566E0,2.8444023E0,0E0,0E0,0E0,2.3585134E0,1.7962222E0,4.0920987E0,0E0,0E0,0E0,0E0],"parents":[2147483647,0,0,1,1,2,2,6,6,7,7,8,8],"right_children":[2,4,6,-1,-1,-1,8,10,12,-1,-1,-1,-1],"split_conditions":[8E0,1.60214E5,2E0,-6.427884E-2,-1.7810667E-2,4.5754258E-2,1.29102E5,8E0,1.38396E5,-5.4098703E-3,3.428737E-2,-1.6076064E-2,2.174969E-3],"split_indices":[0,3,6,0,0,0,3,8,3,0,0,0,0],"split_type":[0,0,0,0,0,0,0,0,0,0,0,0,0],"sum_hessian":[4.8444937E2,1.5229809E1,4.6921957E2,9.997424E0,5.2323847E0,6.750304E0,4.6246927E2,2.7215868E1,4.3525342E2,9.340461E0,1.7875406E1,8.503828E1,3.5021512E2],"tree_param":{"num_deleted":"0","num_feature":"9","num_nodes":"13","size_leaf_vector":"1"}},{"base_weights":[-1.9172184E-2,-5.472962E-1,-4.099428E-3,-1.3758331E-2,-6.100278E-2,3.1013608E-1,-2.3513129E-2,1.771306E-1,4.3391705E-2,-6.426004E-2,1.7319693E-1,2.9891457E-2,-1.0128451E-2,-3.528984E-3,-4.0474262E-2,1.8227542E-2,-5.1339474E-2],"categories":[],"categories_nodes":[],"categories_segments":[],"categories_sizes":[],"default_left":[0,0,0,0,0,0,0,0,0,0,0,0,0,0,0,0,0],"id":47,"left_children":[1,3,5,-1,-1,7,9,11,-1,13,15,-1,-1,-1,-1,-1,-1],"loss_changes":[3.9437888E0,1.181725E0,2.9536216E0,0E0,0E0,9.0331197E-1,3.664475E0,1.4555788E0,0E0,3.0692377E0,4.867596E0,0E0,0E0,0E0,0E0,0E0,0E0],"parents":[2147483647,0,0,1,1,2,2,5,5,6,6,7,7,9,9,10,10],"right_children":[2,4,6,-1,-1,8,10,12,-1,14,16,-1,-1,-1,-1,-1,-1],"split_conditions":[3E0,2.8E1,1.29102E5,-1.3758331E-2,-6.100278E-2,3.9E1,1.81455E5,2.8E1,4.3391705E-2,1.75867E5,2.00862E5,2.9891457E-2,-1.0128451E-2,-3.528984E-3,-4.0474262E-2,1.8227542E-2,-5.1339474E-2],"split_indices":[4,1,3,0,0,1,3,1,0,3,3,0,0,0,0,0,0],"split_type":[0,0,0,0,0,0,0,0,0,0,0,0,0,0,0,0,0],"sum_hessian":[4.9471497E2,1.2747672E1,4.8196732E2,6.0980883E0,6.6495833E0,2.717239E1,4.5479492E2,1.9279203E1,7.8931866E0,3.7731125E2,7.748368E1,1.1117229E1,8.161974E0,3.6519214E2,1.2119105E1,7.2312546E1,5.1711307E0],"tree_param":{"num_deleted":"0","num_feature":"9","num_nodes":"17","size_leaf_vector":"1"}},{"base_weights":[6.0949903E-3,-7.63762E-2,7.3025435E-2,1.12911366E-1,-7.259195E-2,5.9088856E-2,2.1646264E-1,1.9272503E-2,2.1988705E-3,-2.050395E-3,2.5771275E-2],"categories":[],"categories_nodes":[],"categories_segments":[],"categories_sizes":[],"default_left":[0,0,0,0,0,0,0,0,0,0,0],"id":48,"left_children":[1,-1,3,5,-1,7,9,-1,-1,-1,-1],"loss_changes":[3.4324547E1,0E0,1.9615137E1,2.514041E0,0E0,1.7579435E0,4.804549E0,0E0,0E0,0E0,0E0],"parents":[2147483647,0,0,2,2,3,3,5,5,6,6],"right_children":[2,-1,4,6,-1,8,10,-1,-1,-1,-1],"split_conditions":[9.4404E4,-7.63762E-2,9.4537E4,3.5E1,-7.259195E-2,1.34122E5,1.1E1,1.9272503E-2,2.1988705E-3,-2.050395E-3,2.5771275E-2],"split_indices":[7,0,7,1,0,3,0,0,0,0,0],"split_type":[0,0,0,0,0,0,0,0,0,0,0],"sum_hessian":[4.9851755E2,2.970069E1,4.6881686E2,4.523743E2,1.6442564E1,2.986938E2,1.536805E2,3.8063484E1,2.606303E2,5.2946934E1,1.0073357E2],"tree_param":{"num_deleted":"0","num_feature":"9","num_nodes":"11","size_leaf_vector":"1"}},{"base_weights":[-3.7002433E-3,8.972444E-2,-1.24283135E-1,1.20746076E-1,-2.6602584E-1,6.2278602E-2,-2.4343733E-1,7.678622E-2,3.971862E-1,-4.5596507E-1,1.3479234E-2,1.6680644E-1,-1.8787965E-1,2.760965E-2,-2.947875E-1,1.2557601E-2,-1.1931593E-2,4.3427236E-2,3.3178672E-3,-1.3788142E-2,-5.208585E-2,1.2001556E-3,2.2785675E-2,-3.4812387E-2,4.703013E-3,-2.558461E-2,2.579136E-2],"categories":[],"categories_nodes":[],"categories_segments":[],"categories_sizes":[],"default_left":[0,0,0,0,0,0,0,0,0,0,0,0,0,0,0,0,0,0,0,0,0,0,0,0,0,0,0],"id":49,"left_children":[1,3,5,7,9,11,13,15,17,19,-1,21,23,-1,25,-1,-1,-1,-1,-1,-1,-1,-1,-1,-1,-1,-1],"loss_changes":[5.572779E0,3.1084082E0,4.815401E0,3.0936239E0,2.001296E0,2.2529035E0,4.253206E0,4.79578E0,2.2228298E0,9.22421E-1,0E0,1.2440957E0,1.7951331E0,0E0,3.7373E0,0E0,0E0,0E0,0E0,0E0,0E0,0E0,0E0,0E0,0E0,0E0,0E0],"parents":[2147483647,0,0,1,1,2,2,3,3,4,4,5,5,6,6,7,7,8,8,9,9,11,11,12,12,14,14],"right_children":[2,4,6,8,10,12,14,16,18,20,-1,22,24,-1,26,-1,-1,-1,-1,-1,-1,-1,-1,-1,-1,-1,-1],"split_conditions":[1.8E1,4.9E1,4.8E1,1.5E1,5.7E1,1.4967E5,5E0,1.1E1,3.4E1,1.43239E5,1.3479234E-2,3.2E1,2.8E1,2.760965E-2,2.3E1,1.2557601E-2,-1.1931593E-2,4.3427236E-2,3.3178672E-3,-1.3788142E-2,-5.208585E-2,1.2001556E-3,2.2785675E-2,-3.4812387E-2,4.703013E-3,-2.558461E-2,2.579136E-2],"split_indices":[5,1,8,5,1,3,6,5,1,3,0,1,1,0,5,0,0,0,0,0,0,0,0,0,0,0,0],"split_type":[0,0,0,0,0,0,0,0,0,0,0,0,0,0,0,0,0,0,0,0,0,0,0,0,0,0,0],"sum_hessian":[4.926903E2,2.7775128E2,2.1493901E2,2.5608142E2,2.1669863E1,8.395951E1,1.309795E2,2.2204874E2,3.40327E1,1.5178987E1,6.4908757E0,5.9451206E1,2.4508305E1,9.66795E0,1.21311554E2,1.6061368E2,6.143506E1,2.2037912E1,1.1994788E1,7.9170647E0,7.261922E0,2.8831726E1,3.0619478E1,1.1251066E1,1.3257238E1,1.13539276E2,7.7722754E0],"tree_param":{"num_deleted":"0","num_feature":"9","num_nodes":"27","size_leaf_vector":"1"}},{"base_weights":[-5.367752E-2,-1.8789543E-2,-7.241584E-2,-2.1657653E-1,1.6736085E-2,-3.7128294E-1,-7.13077E-2,5.702732E-2,-4.9055004E-3,-1.6730385E-2,-6.7820884E-2,3.8869143E-2,-1.859611E-2,-9.180216E-3,4.1863895E-3],"categories":[],"categories_nodes":[],"categories_segments":[],"categories_sizes":[],"default_left":[0,0,0,0,0,0,0,0,0,0,0,0,0,0,0],"id":50,"left_children":[1,3,-1,5,7,9,11,-1,13,-1,-1,-1,-1,-1,-1],"loss_changes":[1.5383428E1,3.287146E0,0E0,1.5742705E0,6.39403E0,2.5042925E0,4.0828657E0,0E0,2.7669225E0,0E0,0E0,0E0,0E0,0E0,0E0],"parents":[2147483647,0,0,1,1,3,3,4,4,5,5,6,6,8,8],"right_children":[2,4,-1,6,8,10,12,-1,14,-1,-1,-1,-1,-1,-1],"split_conditions":[5E0,5E0,-7.241584E-2,7.3947365E1,6E0,5.050505E1,8.590909E1,5.702732E-2,2.7E1,-1.6730385E-2,-6.7820884E-2,3.8869143E-2,-1.859611E-2,-9.180216E-3,4.1863895E-3],"split_indices":[2,5,0,8,5,8,8,0,1,0,0,0,0,0,0],"split_type":[0,0,0,0,0,0,0,0,0,0,0,0,0,0,0],"sum_hessian":[4.8312518E2,4.66305E2,1.6820194E1,7.0226494E1,3.960785E2,3.32551E1,3.6971394E1,1.0235663E1,3.8584283E2,2.7129633E1,6.1254663E0,8.077527E0,2.8893867E1,1.3111922E2,2.547236E2],"tree_param":{"num_deleted":"0","num_feature":"9","num_nodes":"15","size_leaf_vector":"1"}},{"base_weights":[-1.4391854E-2,-7.602778E-2,4.918271E-2,8.626703E-2,-7.219976E-2,1.6982694E-1,1.1206658E-2,9.910733E-3,3.892186E-2,-3.365609E-2,3.1520675E-3],"categories":[],"categories_nodes":[],"categories_segments":[],"categories_sizes":[],"default_left":[0,0,0,0,0,0,0,0,0,0,0],"id":51,"left_children":[1,-1,3,5,-1,7,9,-1,-1,-1,-1],"loss_changes":[3.070142E1,0E0,1.713992E1,2.7540953E0,0E0,2.6661782E0,3.3155184E0,0E0,0E0,0E0,0E0],"parents":[2147483647,0,0,2,2,3,3,5,5,6,6],"right_children":[2,-1,4,6,-1,8,10,-1,-1,-1,-1],"split_conditions":[9.4404E4,-7.602778E-2,9.4537E4,7.3333336E1,-7.219976E-2,6.25E1,1.8E1,9.910733E-3,3.892186E-2,-3.365609E-2,3.1520675E-3],"split_indices":[7,0,7,8,0,8,1,0,0,0,0],"split_type":[0,0,0,0,0,0,0,0,0,0,0],"sum_hessian":[4.8146762E2,2.7904171E1,4.5356348E2,4.384104E2,1.5153069E1,2.0686185E2,2.3154855E2,1.8795338E2,1.8908447E1,1.3689786E1,2.1785876E2],"tree_param":{"num_deleted":"0","num_feature":"9","num_nodes":"11","size_leaf_vector":"1"}},{"base_weights":[-1.1528835E-2,-7.562546E-2,4.776446E-2,8.203464E-2,-7.171096E-2,1.9789326E-1,2.5136953E-3,2.525636E-3,1.9859344E-2,-5.7321484E-3,6.176543E-3],"categories":[],"categories_nodes":[],"categories_segments":[],"categories_sizes":[],"default_left":[0,0,0,0,0,0,0,0,0,0,0],"id":52,"left_children":[1,-1,3,5,-1,7,9,-1,-1,-1,-1],"loss_changes":[2.8527641E1,0E0,1.5758291E1,4.0683293E0,0E0,1.9656177E0,1.6632715E0,0E0,0E0,0E0,0E0],"parents":[2147483647,0,0,2,2,3,3,5,5,6,6],"right_children":[2,-1,4,6,-1,8,10,-1,-1,-1,-1],"split_conditions":[9.4404E4,-7.562546E-2,9.4537E4,5.263158E1,-7.171096E-2,2.7E1,9.3333336E1,2.525636E-3,1.9859344E-2,-5.7321484E-3,6.176543E-3],"split_indices":[7,0,7,8,0,1,8,0,0,0,0],"split_type":[0,0,0,0,0,0,0,0,0,0,0],"sum_hessian":[4.8085217E2,2.6098063E1,4.5475412E2,4.4063074E2,1.4123389E1,1.7873415E2,2.6189658E2,5.2170868E1,1.2656328E2,1.3171025E2,1.3018633E2],"tree_param":{"num_deleted":"0","num_feature":"9","num_nodes":"11","size_leaf_vector":"1"}},{"base_weights":[2.3326438E-2,5.3211253E-2,-7.105467E-2,1.0129447E-3,2.3941836E-1,3.1183624E-1,-3.2149665E-2,-1.7023483E-1,4.0212047E-1,-7.599548E-3,3.309696E-2,-6.534332E-3,9.203935E-3,1.2983231E-2,-3.6844593E-2,2.0648587E-2,5.7696555E-2],"categories":[],"categories_nodes":[],"categories_segments":[],"categories_sizes":[],"default_left":[0,0,0,0,0,0,0,0,0,0,0,0,0,0,0,0,0],"id":53,"left_children":[1,3,-1,5,7,9,11,13,15,-1,-1,-1,-1,-1,-1,-1,-1],"loss_changes":[1.3692679E1,4.443262E0,0E0,3.7009494E0,6.7396603E0,1.8961191E0,2.7731013E0,3.2986054E0,3.1374588E0,0E0,0E0,0E0,0E0,0E0,0E0,0E0,0E0],"parents":[2147483647,0,0,1,1,3,3,4,4,5,5,6,6,7,7,8,8],"right_children":[2,4,-1,6,8,10,12,14,16,-1,-1,-1,-1,-1,-1,-1,-1],"split_conditions":[5E0,4E1,-7.105467E-2,3E0,9E0,2.4E1,1E1,1.43241E5,1E1,-7.599548E-3,3.309696E-2,-6.534332E-3,9.203935E-3,1.2983231E-2,-3.6844593E-2,2.0648587E-2,5.7696555E-2],"split_indices":[2,1,0,6,5,1,6,3,6,0,0,0,0,0,0,0,0],"split_type":[0,0,0,0,0,0,0,0,0,0,0,0,0,0,0,0,0],"sum_hessian":[4.6926337E2,4.5616498E2,1.309839E1,3.5707404E2,9.909096E1,3.361426E1,3.2345975E2,2.8155197E1,7.093576E1,8.071422E0,2.554284E1,2.390427E2,8.441706E1,1.38273325E1,1.4327865E1,5.402674E1,1.690902E1],"tree_param":{"num_deleted":"0","num_feature":"9","num_nodes":"17","size_leaf_vector":"1"}},{"base_weights":[1.083717E-3,-7.501632E-2,5.4247137E-2,8.299754E-2,-7.0629135E-2,4.6723202E-2,2.352812E-1,2.2370998E-2,1.3083311E-3,-1.5306489E-2,3.7945844E-2],"categories":[],"categories_nodes":[],"categories_segments":[],"categories_sizes":[],"default_left":[0,0,0,0,0,0,0,0,0,0,0],"id":54,"left_children":[1,-1,3,5,-1,7,9,-1,-1,-1,-1],"loss_changes":[2.5545788E1,0E0,1.3126209E1,2.4406078E0,0E0,2.6439292E0,1.0227133E1,0E0,0E0,0E0,0E0],"parents":[2147483647,0,0,2,2,3,3,5,5,6,6],"right_children":[2,-1,4,6,-1,8,10,-1,-1,-1,-1],"split_conditions":[9.4404E4,-7.501632E-2,9.4537E4,4.1E1,-7.0629135E-2,5E0,1.1E1,2.2370998E-2,1.3083311E-3,-1.5306489E-2,3.7945844E-2],"split_indices":[7,0,7,1,0,6,5,0,0,0,0],"split_type":[0,0,0,0,0,0,0,0,0,0,0],"sum_hessian":[4.778706E2,2.319488E1,4.5467572E2,4.428099E2,1.1865822E1,3.5867862E2,8.4131294E1,3.643653E1,3.222421E2,3.216456E1,5.1966736E1],"tree_param":{"num_deleted":"0","num_feature":"9","num_nodes":"11","size_leaf_vector":"1"}},{"base_weights":[-3.984665E-5,-7.4489854E-2,4.878728E-2,7.725127E-2,-7.060256E-2,1.562539E-1,3.000769E-2,-1.5445991E-3,1.747472E-2,-2.678043E-2,4.5822235E-3],"categories":[],"categories_nodes":[],"categories_segments":[],"categories_sizes":[],"default_left":[0,0,0,0,0,0,0,0,0,0,0],"id":55,"left_children":[1,-1,3,5,-1,7,9,-1,-1,-1,-1],"loss_changes":[2.3293098E1,0E0,1.297612E1,1.6598041E0,0E0,2.2665234E0,3.395037E0,0E0,0E0,0E0,0E0],"parents":[2147483647,0,0,2,2,3,3,5,5,6,6],"right_children":[2,-1,4,6,-1,8,10,-1,-1,-1,-1],"split_conditions":[9.4404E4,-7.4489854E-2,9.4537E4,4.7058823E1,-7.060256E-2,1.3981E5,6.27451E1,-1.5445991E-3,1.747472E-2,-2.678043E-2,4.5822235E-3],"split_indices":[7,0,7,8,0,3,8,0,0,0,0],"split_type":[0,0,0,0,0,0,0,0,0,0,0],"sum_hessian":[4.7833957E2,2.1508533E1,4.5683102E2,4.449617E2,1.186934E1,1.6564912E2,2.7931256E2,5.035059E1,1.1529853E2,1.9985853E1,2.5932672E2],"tree_param":{"num_deleted":"0","num_feature":"9","num_nodes":"11","size_leaf_vector":"1"}},{"base_weights":[-1.769454E-2,-7.410016E-2,2.7574694E-2,5.2913614E-2,-6.996028E-2,4.3802246E-2,5.0341982E-2,2.2241272E-2,1.5189297E-3],"categories":[],"categories_nodes":[],"categories_segments":[],"categories_sizes":[],"default_left":[0,0,0,0,0,0,0,0,0],"id":56,"left_children":[1,-1,3,5,-1,7,-1,-1,-1],"loss_changes":[2.089736E1,0E0,1.1119907E1,2.4729412E0,0E0,2.6057827E0,0E0,0E0,0E0],"parents":[2147483647,0,0,2,2,3,3,5,5],"right_children":[2,-1,4,6,-1,8,-1,-1,-1],"split_conditions":[9.4404E4,-7.410016E-2,9.4537E4,5.8E1,-6.996028E-2,2.1E1,5.0341982E-2,2.2241272E-2,1.5189297E-3],"split_indices":[7,0,7,1,0,1,0,0,0],"split_type":[0,0,0,0,0,0,0,0,0],"sum_hessian":[4.7412985E2,2.0206018E1,4.5392386E2,4.4317587E2,1.0747986E1,4.377954E2,5.380448E0,3.6326794E1,4.0146863E2],"tree_param":{"num_deleted":"0","num_feature":"9","num_nodes":"9","size_leaf_vector":"1"}},{"base_weights":[-3.9033096E-2,-7.367757E-2,3.251336E-3,2.7014447E-2,-6.944725E-2,3.105874E-1,-1.4157763E-2,2.7857922E-2,-3.4646254E-3,7.0605124E-3,-8.794051E-3],"categories":[],"categories_nodes":[],"categories_segments":[],"categories_sizes":[],"default_left":[0,0,0,0,0,0,0,0,0,0,0],"id":57,"left_children":[1,-1,3,5,-1,7,9,-1,-1,-1,-1],"loss_changes":[1.8439047E1,0E0,9.81474E0,5.062976E0,0E0,1.2107086E0,4.245918E0,0E0,0E0,0E0,0E0],"parents":[2147483647,0,0,2,2,3,3,5,5,6,6],"right_children":[2,-1,4,6,-1,8,10,-1,-1,-1,-1],"split_conditions":[9.4404E4,-7.367757E-2,9.4537E4,1.34122E5,-6.944725E-2,4.5E1,6E0,2.7857922E-2,-3.4646254E-3,7.0605124E-3,-8.794051E-3],"split_indices":[7,0,7,3,0,1,6,0,0,0,0],"split_type":[0,0,0,0,0,0,0,0,0,0,0],"sum_hessian":[4.6118628E2,1.8831738E1,4.4235455E2,4.3227087E2,1.0083677E1,5.3975033E1,3.7829584E2,4.607548E1,7.8995514E0,1.84536E2,1.9375984E2],"tree_param":{"num_deleted":"0","num_feature":"9","num_nodes":"11","size_leaf_vector":"1"}},{"base_weights":[-2.7964087E-2,-7.3335186E-2,1.2691691E-2,3.4931287E-2,-6.899718E-2,2.615814E-2,2.6321419E-2,7.575641E-3,-2.362801E-3],"categories":[],"categories_nodes":[],"categories_segments":[],"categories_sizes":[],"default_left":[0,0,0,0,0,0,0,0,0],"id":58,"left_children":[1,-1,3,5,-1,7,-1,-1,-1],"loss_changes":[1.800498E1,0E0,9.320194E0,1.2060817E0,0E0,1.8485816E0,0E0,0E0,0E0],"parents":[2147483647,0,0,2,2,3,3,5,5],"right_children":[2,-1,4,6,-1,8,-1,-1,-1],"split_conditions":[9.4404E4,-7.3335186E-2,9.4537E4,2.3E1,-6.899718E-2,6E0,2.6321419E-2,7.575641E-3,-2.362801E-3],"split_indices":[7,0,7,5,0,6,0,0,0],"split_type":[0,0,0,0,0,0,0,0,0],"sum_hessian":[4.6493057E2,1.813738E1,4.467932E2,4.3732745E2,9.465741E0,4.2656815E2,1.0759305E1,1.8529181E2,2.4127635E2],"tree_param":{"num_deleted":"0","num_feature":"9","num_nodes":"9","size_leaf_vector":"1"}},{"base_weights":[6.1928625E-3,2.7463192E-2,-6.893907E-2,-1.0652537E-1,1.0139177E-1,2.4146343E-2,-2.2480567E-1,4.921906E-3,2.8552365E-1,2.9804412E-2,-9.240754E-3,-2.224309E-2,1.9743515E-3,5.3094574E-3,-3.6756042E-2,2.3031535E-3,2.7615907E-2],"categories":[],"categories_nodes":[],"categories_segments":[],"categories_sizes":[],"default_left":[0,0,0,0,0,0,0,0,0,0,0,0,0,0,0,0,0],"id":59,"left_children":[1,3,-1,5,7,9,11,13,15,-1,-1,-1,-1,-1,-1,-1,-1],"loss_changes":[9.0354595E0,4.4529448E0,0E0,2.4774644E0,5.1411614E0,4.2781014E0,1.5226359E0,6.2622623E0,2.0854769E0,0E0,0E0,0E0,0E0,0E0,0E0,0E0,0E0],"parents":[2147483647,0,0,1,1,3,3,4,4,5,5,6,6,7,7,8,8],"right_children":[2,4,-1,6,8,10,12,14,16,-1,-1,-1,-1,-1,-1,-1,-1],"split_conditions":[5E0,1.1E1,-6.893907E-2,2.9E1,3.5E1,1E1,4.5E1,3.3E1,7E0,2.9804412E-2,-9.240754E-3,-2.224309E-2,1.9743515E-3,5.3094574E-3,-3.6756042E-2,2.3031535E-3,2.7615907E-2],"split_indices":[2,0,0,1,1,5,1,1,5,0,0,0,0,0,0,0,0],"split_type":[0,0,0,0,0,0,0,0,0,0,0,0,0,0,0,0,0],"sum_hessian":[4.56763E2,4.474485E2,9.314505E0,1.5894138E2,2.885071E2,7.589321E1,8.3048164E1,1.8999316E2,9.851396E1,2.1001282E1,5.489193E1,6.444881E1,1.8599356E1,1.6843607E2,2.1557102E1,2.4471937E1,7.404202E1],"tree_param":{"num_deleted":"0","num_feature":"9","num_nodes":"17","size_leaf_vector":"1"}},{"base_weights":[-2.380371E-2,-7.2922006E-2,1.4208987E-2,3.390682E-2,-6.795503E-2,-8.990931E-2,8.9785464E-2,2.0387873E-2,-1.2837959E-2,-5.5635935E-3,1.2248793E-2],"categories":[],"categories_nodes":[],"categories_segments":[],"categories_sizes":[],"default_left":[0,0,0,0,0,0,0,0,0,0,0],"id":60,"left_children":[1,-1,3,5,-1,7,9,-1,-1,-1,-1],"loss_changes":[1.6553415E1,0E0,8.043889E0,3.009026E0,0E0,4.02626E0,3.6215155E0,0E0,0E0,0E0,0E0],"parents":[2147483647,0,0,2,2,3,3,5,5,6,6],"right_children":[2,-1,4,6,-1,8,10,-1,-1,-1,-1],"split_conditions":[9.4404E4,-7.2922006E-2,9.4537E4,2.6E1,-6.795503E-2,1.3489E5,1.40208E5,2.0387873E-2,-1.2837959E-2,-5.5635935E-3,1.2248793E-2],"split_indices":[7,0,7,1,0,3,3,0,0,0,0],"split_type":[0,0,0,0,0,0,0,0,0,0,0],"sum_hessian":[4.5773697E2,1.6690823E1,4.4104614E2,4.3274667E2,8.29947E0,1.3437935E2,2.983673E2,2.4219614E1,1.1015974E2,9.2374596E1,2.0599272E2],"tree_param":{"num_deleted":"0","num_feature":"9","num_nodes":"11","size_leaf_vector":"1"}},{"base_weights":[1.8524915E-2,-7.246938E-2,5.6130506E-2,7.59259E-2,-6.7496404E-2,2.6987711E-2,1.5130475E-1,8.879238E-3,-1.6929528E-2,2.4062937E-2,6.680859E-3],"categories":[],"categories_nodes":[],"categories_segments":[],"categories_sizes":[],"default_left":[0,0,0,0,0,0,0,0,0,0,0],"id":61,"left_children":[1,-1,3,5,-1,7,9,-1,-1,-1,-1],"loss_changes":[1.6728024E1,0E0,8.293987E0,1.5700729E0,0E0,6.0314655E0,1.7412863E0,0E0,0E0,0E0,0E0],"parents":[2147483647,0,0,2,2,3,3,5,5,6,6],"right_children":[2,-1,4,6,-1,8,10,-1,-1,-1,-1],"split_conditions":[9.4404E4,-7.246938E-2,9.4537E4,8.784314E1,-6.7496404E-2,7.157895E1,1E2,8.879238E-3,-1.6929528E-2,2.4062937E-2,6.680859E-3],"split_indices":[7,0,7,8,0,8,8,0,0,0,0],"split_type":[0,0,0,0,0,0,0,0,0,0,0],"sum_hessian":[4.4923694E2,1.5615553E1,4.3362137E2,4.2572742E2,7.8939676E0,2.5896054E2,1.6676686E2,1.9056744E2,6.83931E1,4.3660175E1,1.2310668E2],"tree_param":{"num_deleted":"0","num_feature":"9","num_nodes":"11","size_leaf_vector":"1"}},{"base_weights":[3.3987533E-2,-7.214371E-2,7.020612E-2,8.784829E-2,-6.6470824E-2,3.5134494E-1,6.3728444E-2,1.1116018E-2,8.0355525E-2,3.7388697E-3,4.400938E-2],"categories":[],"categories_nodes":[],"categories_segments":[],"categories_sizes":[],"default_left":[0,0,0,0,0,0,0,0,0,0,0],"id":62,"left_children":[1,-1,3,5,-1,7,9,-1,-1,-1,-1],"loss_changes":[1.6393486E1,0E0,7.463213E0,2.7145941E0,0E0,5.0911837E0,2.843325E0,0E0,0E0,0E0,0E0],"parents":[2147483647,0,0,2,2,3,3,5,5,6,6],"right_children":[2,-1,4,6,-1,8,10,-1,-1,-1,-1],"split_conditions":[9.4404E4,-7.214371E-2,9.4537E4,2.1E1,-6.6470824E-2,1.8E1,2.3E1,1.1116018E-2,8.0355525E-2,3.7388697E-3,4.400938E-2],"split_indices":[7,0,7,1,0,1,5,0,0,0,0],"split_type":[0,0,0,0,0,0,0,0,0,0,0],"sum_hessian":[4.5161588E2,1.4950933E1,4.3666492E2,4.296483E2,7.0166306E0,3.4893085E1,3.9475522E2,2.815603E1,6.737055E0,3.8562003E2,9.135178E0],"tree_param":{"num_deleted":"0","num_feature":"9","num_nodes":"11","size_leaf_vector":"1"}},{"base_weights":[-1.7141022E-2,-8.522675E-4,-6.728133E-2,1.7924818E-1,-2.0665834E-2,3.1250718E-1,-2.5733273E-2,2.1486245E-1,-4.125086E-2,-1.6642146E-2,3.0416299E-2,-4.87763E-3,8.035539E-2,-1.9398334E-2,7.4652664E-4],"categories":[],"categories_nodes":[],"categories_segments":[],"categories_sizes":[],"default_left":[0,0,0,0,0,0,0,0,0,0,0,0,0,0,0],"id":63,"left_children":[1,3,-1,5,7,9,-1,11,13,-1,-1,-1,-1,-1,-1],"loss_changes":[6.5612645E0,1.6112869E0,0E0,3.222416E0,1.9809239E0,1.8889432E0,0E0,7.9460745E0,4.175733E0,0E0,0E0,0E0,0E0,0E0,0E0],"parents":[2147483647,0,0,1,1,3,3,4,4,5,5,7,7,8,8],"right_children":[2,4,-1,6,8,10,-1,12,14,-1,-1,-1,-1,-1,-1],"split_conditions":[5E0,5E0,-6.728133E-2,4.1E1,2.1E1,2E1,-2.5733273E-2,1.8E1,2.5E1,-1.6642146E-2,3.0416299E-2,-4.87763E-3,8.035539E-2,-1.9398334E-2,7.4652664E-4],"split_indices":[2,6,0,1,1,1,0,1,1,0,0,0,0,0,0],"split_type":[0,0,0,0,0,0,0,0,0,0,0,0,0,0,0],"sum_hessian":[4.568209E2,4.4950107E2,7.3198085E0,4.375273E1,4.0574832E2,3.5179756E1,8.572978E0,3.1853333E1,3.7389502E2,5.011419E0,3.0168337E1,2.4704552E1,7.14878E0,7.0505646E1,3.0338934E2],"tree_param":{"num_deleted":"0","num_feature":"9","num_nodes":"15","size_leaf_vector":"1"}},{"base_weights":[8.013987E-3,-7.151048E-2,3.9933346E-2,5.6171145E-2,-6.599621E-2,-7.773132E-2,1.1665344E-1,-1.976807E-4,-6.1869368E-2,3.8596176E-2,-7.695529E-4],"categories":[],"categories_nodes":[],"categories_segments":[],"categories_sizes":[],"default_left":[0,0,0,0,0,0,0,0,0,0,0],"id":64,"left_children":[1,-1,3,5,-1,7,9,-1,-1,-1,-1],"loss_changes":[1.3771432E1,0E0,6.5330343E0,3.4710953E0,0E0,7.4947357E0,1.4898251E1,0E0,0E0,0E0,0E0],"parents":[2147483647,0,0,2,2,3,3,5,5,6,6],"right_children":[2,-1,4,6,-1,8,10,-1,-1,-1,-1],"split_conditions":[9.4404E4,-7.151048E-2,9.4537E4,1.40208E5,-6.599621E-2,1.39544E5,1.43236E5,-1.976807E-4,-6.1869368E-2,3.8596176E-2,-7.695529E-4],"split_indices":[7,0,7,3,0,3,3,0,0,0,0],"split_type":[0,0,0,0,0,0,0,0,0,0,0],"sum_hessian":[4.464857E2,1.3418461E1,4.3306723E2,4.2647794E2,6.589266E0,1.3260873E2,2.9386923E2,1.2141012E2,1.1198616E1,7.031839E1,2.2355083E2],"tree_param":{"num_deleted":"0","num_feature":"9","num_nodes":"11","size_leaf_vector":"1"}},{"base_weights":[1.3003176E-2,-7.1017094E-2,4.2972397E-2,5.78967E-2,-6.502342E-2,1.2217006E-1,-6.685668E-2,-3.9622067E-3,1.2970138E-2,-5.85665E-2,-3.5736046E-4],"categories":[],"categories_nodes":[],"categories_segments":[],"categories_sizes":[],"default_left":[0,0,0,0,0,0,0,0,0,0,0],"id":65,"left_children":[1,-1,3,5,-1,7,9,-1,-1,-1,-1],"loss_changes":[1.2765092E1,0E0,5.8882065E0,3.4070206E0,0E0,2.4975863E0,6.415038E0,0E0,0E0,0E0,0E0],"parents":[2147483647,0,0,2,2,3,3,5,5,6,6],"right_children":[2,-1,4,6,-1,8,10,-1,-1,-1,-1],"split_conditions":[9.4404E4,-7.1017094E-2,9.4537E4,2.1E1,-6.502342E-2,5E0,1.8E1,-3.9622067E-3,1.2970138E-2,-5.85665E-2,-3.5736046E-4],"split_indices":[7,0,7,5,0,5,1,0,0,0,0],"split_type":[0,0,0,0,0,0,0,0,0,0,0],"sum_hessian":[4.4132047E2,1.2435111E1,4.2888535E2,4.228859E2,5.999468E0,2.791088E2,1.4377708E2,6.275087E1,2.1635793E2,1.0576425E1,1.3320065E2],"tree_param":{"num_deleted":"0","num_feature":"9","num_nodes":"11","size_leaf_vector":"1"}},{"base_weights":[-9.793214E-3,-7.065245E-2,1.6774306E-2,2.9433819E-2,-6.41786E-2,7.385847E-2,1.577054E-2,-7.737169E-3,5.527672E-3],"categories":[],"categories_nodes":[],"categories_segments":[],"categories_sizes":[],"default_left":[0,0,0,0,0,0,0,0,0],"id":66,"left_children":[1,-1,3,5,-1,-1,7,-1,-1],"loss_changes":[1.1555693E1,0E0,5.0397987E0,5.8385267E0,0E0,0E0,3.0610442E0,0E0,0E0],"parents":[2147483647,0,0,2,2,3,3,6,6],"right_children":[2,-1,4,6,-1,-1,8,-1,-1],"split_conditions":[9.4404E4,-7.065245E-2,9.4537E4,9E0,-6.41786E-2,7.385847E-2,1.1E1,-7.737169E-3,5.527672E-3],"split_indices":[7,0,7,0,0,0,0,0,0],"split_type":[0,0,0,0,0,0,0,0,0],"sum_hessian":[4.6493274E2,1.1927996E1,4.5300476E2,4.4747827E2,5.5264907E0,5.307386E0,4.4217087E2,1.4457677E2,2.9759412E2],"tree_param":{"num_deleted":"0","num_feature":"9","num_nodes":"9","size_leaf_vector":"1"}},{"base_weights":[2.4806578E-2,3.8384385E-2,-6.530541E-2,3.145736E-1,7.876281E-3,1.6431578E-1,7.211977E-2,-2.2003937E-1,7.402074E-2,3.2448754E-2,2.3864924E-3,2.169669E-3,-2.5629925E-2,-1.6944649E-2,9.616662E-3],"categories":[],"categories_nodes":[],"categories_segments":[],"categories_sizes":[],"default_left":[0,0,0,0,0,0,0,0,0,0,0,0,0,0,0],"id":67,"left_children":[1,3,-1,5,7,9,-1,11,13,-1,-1,-1,-1,-1,-1],"loss_changes":[5.547823E0,3.7697496E0,0E0,4.169003E0,6.109465E0,1.3132694E0,0E0,2.772015E0,5.1341248E0,0E0,0E0,0E0,0E0,0E0,0E0],"parents":[2147483647,0,0,1,1,3,3,4,4,5,5,7,7,8,8],"right_children":[2,4,-1,6,8,10,-1,12,14,-1,-1,-1,-1,-1,-1],"split_conditions":[5E0,1.34119E5,-6.530541E-2,1.29871E5,1.39744E5,5E0,7.211977E-2,1.1E1,5E0,3.2448754E-2,2.3864924E-3,2.169669E-3,-2.5629925E-2,-1.6944649E-2,9.616662E-3],"split_indices":[2,3,0,3,3,5,0,5,5,0,0,0,0,0,0],"split_type":[0,0,0,0,0,0,0,0,0,0,0,0,0,0,0],"sum_hessian":[4.525039E2,4.4668857E2,5.8153286E0,4.350725E1,4.0318134E2,3.6325386E1,7.1818633E0,9.016631E1,3.13015E2,1.1258659E1,2.5066729E1,2.9853054E1,6.031326E1,4.742084E1,2.6559418E2],"tree_param":{"num_deleted":"0","num_feature":"9","num_nodes":"15","size_leaf_vector":"1"}},{"base_weights":[-3.6756366E-5,-7.008983E-2,2.5136322E-2,4.9810935E-2,-3.6273372E-1,-6.804944E-2,1.2170135E-1,-6.5522677E-1,1.8295603E-2,-1.5367093E-2,1.459521E-2,2.2668436E-2,3.2317487E-3,-7.8713E-2,-1.9410152E-2],"categories":[],"categories_nodes":[],"categories_segments":[],"categories_sizes":[],"default_left":[0,0,0,0,0,0,0,0,0,0,0,0,0,0,0],"id":68,"left_children":[1,-1,3,5,7,9,11,13,-1,-1,-1,-1,-1,-1,-1],"loss_changes":[1.0723604E1,0E0,4.2664313E0,3.551951E0,4.8925114E0,5.7581673E0,3.679022E0,2.5834398E0,0E0,0E0,0E0,0E0,0E0,0E0,0E0],"parents":[2147483647,0,0,2,2,3,3,4,4,5,5,6,6,7,7],"right_children":[2,-1,4,6,8,10,12,14,-1,-1,-1,-1,-1,-1,-1],"split_conditions":[9.4404E4,-7.008983E-2,5E1,2.7E1,1.9E1,9.375E1,8E0,8.695652E0,1.8295603E-2,-1.5367093E-2,1.459521E-2,2.2668436E-2,3.2317487E-3,-7.8713E-2,-1.9410152E-2],"split_indices":[7,0,1,1,5,8,8,8,0,0,0,0,0,0,0],"split_type":[0,0,0,0,0,0,0,0,0,0,0,0,0,0,0],"sum_hessian":[4.538575E2,1.0957581E1,4.4289993E2,4.172292E2,2.5670734E1,1.5809485E2,2.5913434E2,1.726623E1,8.404505E0,1.040851E2,5.4009747E1,7.774193E1,1.8139241E2,7.830584E0,9.435646E0],"tree_param":{"num_deleted":"0","num_feature":"9","num_nodes":"15","size_leaf_vector":"1"}},{"base_weights":[1.6162751E-2,2.8307144E-2,-6.411441E-2,-8.91341E-2,9.519294E-2,1.23877406E-1,-1.4983739E-1,-4.3988742E-2,1.6244459E-1,-1.1390059E-2,7.9485856E-2,-9.481811E-5,-1.7678212E-2,9.013362E-3,-1.51344575E-2,-5.3472333E-3,1.786488E-2],"categories":[],"categories_nodes":[],"categories_segments":[],"categories_sizes":[],"default_left":[0,0,0,0,0,0,0,0,0,0,0,0,0,0,0,0,0],"id":69,"left_children":[1,3,-1,5,7,9,11,13,15,-1,-1,-1,-1,-1,-1,-1,-1],"loss_changes":[4.8358164E0,3.5400198E0,0E0,2.1346893E0,2.69285E0,9.669069E0,1.6303647E0,2.466223E0,3.4461818E0,0E0,0E0,0E0,0E0,0E0,0E0,0E0,0E0],"parents":[2147483647,0,0,1,1,3,3,4,4,5,5,6,6,7,7,8,8],"right_children":[2,4,-1,6,8,10,12,14,16,-1,-1,-1,-1,-1,-1,-1,-1],"split_conditions":[5E0,2.7E1,-6.411441E-2,2.1E1,1.1E1,1.8E1,1.1E1,3.6E1,1.3847E5,-1.1390059E-2,7.9485856E-2,-9.481811E-5,-1.7678212E-2,9.013362E-3,-1.51344575E-2,-5.3472333E-3,1.786488E-2],"split_indices":[2,1,0,1,0,1,0,1,3,0,0,0,0,0,0,0,0],"split_type":[0,0,0,0,0,0,0,0,0,0,0,0,0,0,0,0,0],"sum_hessian":[4.5386905E2,4.485821E2,5.2869453E0,1.6265396E2,2.8592816E2,3.5841896E1,1.2681206E2,9.3262085E1,1.9266606E2,2.8332355E1,7.509541E0,4.682011E1,7.999194E1,4.582637E1,4.743572E1,4.7172493E1,1.4549358E2],"tree_param":{"num_deleted":"0","num_feature":"9","num_nodes":"17","size_leaf_vector":"1"}},{"base_weights":[-8.410573E-3,-6.957486E-2,1.5361134E-2,-1.7086585E-1,9.190237E-2,3.3748886E-1,-2.601393E-1,3.1081626E-1,1.4459215E-2,-4.181355E-3,5.0952565E-2,-2.4221338E-2,3.5972532E-2,4.1106746E-2,1.3147739E-2,3.229412E-2,-3.371284E-3],"categories":[],"categories_nodes":[],"categories_segments":[],"categories_sizes":[],"default_left":[0,0,0,0,0,0,0,0,0,0,0,0,0,0,0,0,0],"id":70,"left_children":[1,-1,3,5,7,9,11,13,15,-1,-1,-1,-1,-1,-1,-1,-1],"loss_changes":[9.679836E0,0E0,6.1755795E0,5.8164215E0,5.1988325E0,2.631423E0,5.1704144E0,2.481183E0,5.650186E0,0E0,0E0,0E0,0E0,0E0,0E0,0E0,0E0],"parents":[2147483647,0,0,2,2,3,3,4,4,5,5,6,6,7,7,8,8],"right_children":[2,-1,4,6,8,10,12,14,16,-1,-1,-1,-1,-1,-1,-1,-1],"split_conditions":[9.4404E4,-6.957486E-2,1.39744E5,6E0,1.43236E5,1.29823E5,2.2E1,1.3333333E1,3E0,-4.181355E-3,5.0952565E-2,-2.4221338E-2,3.5972532E-2,4.1106746E-2,1.3147739E-2,3.229412E-2,-3.371284E-3],"split_indices":[7,0,3,5,3,3,5,8,6,0,0,0,0,0,0,0,0],"split_type":[0,0,0,0,0,0,0,0,0,0,0,0,0,0,0,0,0],"sum_hessian":[4.4131555E2,1.0166137E1,4.311494E2,1.2522969E2,3.059197E2,1.8291422E1,1.0693827E2,7.915457E1,2.2676515E2,8.895941E0,9.395481E0,9.908842E1,7.8498507E0,2.7667032E1,5.1487537E1,2.7549519E1,1.9921562E2],"tree_param":{"num_deleted":"0","num_feature":"9","num_nodes":"17","size_leaf_vector":"1"}},{"base_weights":[-7.570383E-2,-6.903506E-2,-5.5175245E-2,2.717848E-1,-7.669396E-2,3.805506E-2,1.18906714E-1,-4.967838E-2,-5.8707446E-2,-1.40160415E-2,2.2333503E-2,4.012685E-2,-5.568612E-3],"categories":[],"categories_nodes":[],"categories_segments":[],"categories_sizes":[],"default_left":[0,0,0,0,0,0,0,0,0,0,0,0,0],"id":71,"left_children":[1,-1,3,5,7,-1,9,-1,11,-1,-1,-1,-1],"loss_changes":[7.662615E0,0E0,3.0834982E0,9.158201E-1,4.2717805E0,0E0,1.0260749E0,0E0,3.7130322E0,0E0,0E0,0E0,0E0],"parents":[2147483647,0,0,2,2,3,3,4,4,6,6,8,8],"right_children":[2,-1,4,6,8,-1,10,-1,12,-1,-1,-1,-1],"split_conditions":[9.4404E4,-6.903506E-2,1.29102E5,1.1E1,1.29871E5,3.805506E-2,9.523809E0,-4.967838E-2,1.3412E5,-1.40160415E-2,2.2333503E-2,4.012685E-2,-5.568612E-3],"split_indices":[7,0,3,0,3,0,8,0,3,0,0,0,0],"split_type":[0,0,0,0,0,0,0,0,0,0,0,0,0],"sum_hessian":[4.437868E2,9.488557E0,4.3429825E2,2.6099936E1,4.081983E2,9.358152E0,1.6741783E1,1.1094908E1,3.971034E2,6.1623564E0,1.0579428E1,9.276279E0,3.8782712E2],"tree_param":{"num_deleted":"0","num_feature":"9","num_nodes":"13","size_leaf_vector":"1"}},{"base_weights":[4.583238E-3,-3.78849E-2,1.8176799E-1,3.709259E-2,-1.3019189E-1,3.6976674E-1,-1.3933535E-1,1.883775E-1,-4.6284087E-2,2.8253138E-1,-1.7278884E-1,3.4158856E-2,5.3337836E-1,-5.661011E-1,2.1079254E-1,-1.0177305E-2,1.9028235E-2,-8.260745E-3,1.4292896E-2,-1.8170284E-2,4.2582717E-2,-1.5695293E-2,-5.7180626E-3,3.956174E-2,-3.3842858E-2,2.5489291E-2,4.853036E-2,-1.0761302E-2,-6.576128E-2,3.4164336E-2,5.456928E-3],"categories":[],"categories_nodes":[],"categories_segments":[],"categories_sizes":[],"default_left":[0,0,0,0,0,0,0,0,0,0,0,0,0,0,0,0,0,0,0,0,0,0,0,0,0,0,0,0,0,0,0],"id":72,"left_children":[1,3,5,7,9,11,13,15,17,19,21,23,25,27,29,-1,-1,-1,-1,-1,-1,-1,-1,-1,-1,-1,-1,-1,-1,-1,-1],"loss_changes":[3.337358E0,2.481547E0,5.22779E0,2.5092866E0,2.8725517E0,2.966444E0,4.9591875E0,1.5299349E0,1.9662563E0,2.4436789E0,4.9902964E-1,4.7597346E0,5.8257484E-1,1.8266878E0,5.925342E-1,0E0,0E0,0E0,0E0,0E0,0E0,0E0,0E0,0E0,0E0,0E0,0E0,0E0,0E0,0E0,0E0],"parents":[2147483647,0,0,1,1,2,2,3,3,4,4,5,5,6,6,7,7,8,8,9,9,10,10,11,11,12,12,13,13,14,14],"right_children":[2,4,6,8,10,12,14,16,18,20,22,24,26,28,30,-1,-1,-1,-1,-1,-1,-1,-1,-1,-1,-1,-1,-1,-1,-1,-1],"split_conditions":[4.1E1,2.9E1,4.9E1,1.1E1,3E0,1.1E1,5.3E1,1.8E1,2.7E1,1.1E1,1.3E1,4.4E1,6E0,6E0,5.5E1,-1.0177305E-2,1.9028235E-2,-8.260745E-3,1.4292896E-2,-1.8170284E-2,4.2582717E-2,-1.5695293E-2,-5.7180626E-3,3.956174E-2,-3.3842858E-2,2.5489291E-2,4.853036E-2,-1.0761302E-2,-6.576128E-2,3.4164336E-2,5.456928E-3],"split_indices":[1,1,1,0,6,0,1,1,1,0,6,1,6,6,1,0,0,0,0,0,0,0,0,0,0,0,0,0,0,0,0],"split_type":[0,0,0,0,0,0,0,0,0,0,0,0,0,0,0,0,0,0,0,0,0,0,0,0,0,0,0,0,0,0,0],"sum_hessian":[4.416049E2,3.568583E2,8.4746605E1,1.9724323E2,1.5961507E2,5.3356205E1,3.1390402E1,6.963425E1,1.2760898E2,1.4405643E1,1.4520943E2,1.7882845E1,3.547336E1,1.3868929E1,1.7521473E1,1.1502099E1,5.8132153E1,1.009316E2,2.667737E1,5.1256814E0,9.279962E0,1.0454024E2,4.066919E1,8.825932E0,9.056914E0,1.4604226E1,2.0869133E1,6.4956813E0,7.373247E0,5.4891567E0,1.2032317E1],"tree_param":{"num_deleted":"0","num_feature":"9","num_nodes":"31","size_leaf_vector":"1"}},{"base_weights":[1.5272318E-2,-2.9597402E-2,1.2229352E-1,-1.108145E-2,-4.8803344E-1,5.100224E-1,7.281395E-2,-3.769157E-2,2.9490128E-1,-5.7956424E-2,-1.1405063E-2,5.6358222E-2,2.0789834E-2,1.3675907E-1,-1.764525E-1,-3.1871066E-5,-1.7762825E-2,5.307598E-2,6.5195556E-3,6.2276213E-3,3.4220718E-2,-4.437189E-2,2.6254145E-2],"categories":[],"categories_nodes":[],"categories_segments":[],"categories_sizes":[],"default_left":[0,0,0,0,0,0,0,0,0,0,0,0,0,0,0,0,0,0,0,0,0,0,0],"id":73,"left_children":[1,3,5,7,9,11,13,15,17,-1,-1,-1,-1,19,21,-1,-1,-1,-1,-1,-1,-1,-1],"loss_changes":[2.1368837E0,2.6583817E0,2.4842615E0,2.4754164E0,1.0456216E0,6.1838245E-1,1.9005226E0,2.0729342E0,2.0269978E0,0E0,0E0,0E0,0E0,1.5799896E0,5.556126E0,0E0,0E0,0E0,0E0,0E0,0E0,0E0,0E0],"parents":[2147483647,0,0,1,1,2,2,3,3,4,4,5,5,6,6,7,7,8,8,13,13,14,14],"right_children":[2,4,6,8,10,12,14,16,18,-1,-1,-1,-1,20,22,-1,-1,-1,-1,-1,-1,-1,-1],"split_conditions":[9.3333336E1,9.1666664E1,5E0,8.784314E1,3.3E1,2.8E1,3.8E1,7.948276E1,2.5E1,-5.7956424E-2,-1.1405063E-2,5.6358222E-2,2.0789834E-2,3.4E1,4.5E1,-3.1871066E-5,-1.7762825E-2,5.307598E-2,6.5195556E-3,6.2276213E-3,3.4220718E-2,-4.437189E-2,2.6254145E-2],"split_indices":[8,8,6,8,1,1,1,8,1,0,0,0,0,1,1,0,0,0,0,0,0,0,0],"split_type":[0,0,0,0,0,0,0,0,0,0,0,0,0,0,0,0,0,0,0,0,0,0,0],"sum_hessian":[4.4324393E2,3.1281607E2,1.3042786E2,3.0165652E2,1.115955E1,1.3707354E1,1.16720505E2,2.7832822E2,2.3328299E1,5.3367543E0,5.822795E0,5.6358857E0,8.071467E0,9.325011E1,2.3470398E1,2.3529846E2,4.302976E1,7.0108004E0,1.63175E1,8.090627E1,1.2343835E1,1.3053503E1,1.0416894E1],"tree_param":{"num_deleted":"0","num_feature":"9","num_nodes":"23","size_leaf_vector":"1"}},{"base_weights":[-1.3979157E-2,2.2970305E-1,-3.9553937E-2,1.5520509E-1,4.2416103E-2,-2.4828699E-1,-4.8659923E-3,3.0252874E-1,-1.3730928E-2,1.1304057E-1,-5.347399E-1,-5.8951315E-2,2.8475562E-1,2.8074551E-2,1.3516298E-2,1.7473886E-2,-1.456884E-2,2.3600195E-2,-5.396943E-2,4.2723227E-2,-5.6918096E-3,5.3995784E-2,1.0604993E-2],"categories":[],"categories_nodes":[],"categories_segments":[],"categories_sizes":[],"default_left":[0,0,0,0,0,0,0,0,0,0,0,0,0,0,0,0,0,0,0,0,0,0,0],"id":74,"left_children":[1,3,5,7,-1,9,11,13,-1,15,17,19,21,-1,-1,-1,-1,-1,-1,-1,-1,-1,-1],"loss_changes":[2.8355079E0,9.9367785E-1,2.9768257E0,1.8871486E0,0E0,6.1248302E0,5.557397E0,1.6070104E-1,0E0,1.0306524E0,5.385374E0,3.2257128E0,3.3813047E0,0E0,0E0,0E0,0E0,0E0,0E0,0E0,0E0,0E0,0E0],"parents":[2147483647,0,0,1,1,2,2,3,3,5,5,6,6,7,7,9,9,10,10,11,11,12,12],"right_children":[2,4,6,8,-1,10,12,14,-1,16,18,20,22,-1,-1,-1,-1,-1,-1,-1,-1,-1,-1],"split_conditions":[1.34119E5,1.29871E5,5E0,1.29102E5,4.2416103E-2,1.43239E5,1.82702E5,1.9E1,-1.3730928E-2,1.4E1,5E0,6E0,1.1E1,2.8074551E-2,1.3516298E-2,1.7473886E-2,-1.456884E-2,2.3600195E-2,-5.396943E-2,4.2723227E-2,-5.6918096E-3,5.3995784E-2,1.0604993E-2],"split_indices":[3,3,5,3,0,3,3,5,0,6,6,5,5,0,0,0,0,0,0,0,0,0,0],"split_type":[0,0,0,0,0,0,0,0,0,0,0,0,0,0,0,0,0,0,0,0,0,0,0],"sum_hessian":[4.5252505E2,4.2223972E1,4.1030106E2,3.575487E1,6.469103E0,5.759118E1,3.527099E2,2.498119E1,1.0773681E1,2.5734911E1,3.1856266E1,2.97879E2,5.483089E1,1.4442684E1,1.0538506E1,1.8683882E1,7.0510297E0,5.5681214E0,2.6288145E1,6.96046E0,2.9091855E2,1.2589769E1,4.2241123E1],"tree_param":{"num_deleted":"0","num_feature":"9","num_nodes":"23","size_leaf_vector":"1"}},{"base_weights":[5.923503E-3,-6.852504E-2,2.6841857E-2,1.18317544E-1,-2.7885055E-2,4.674524E-2,5.0798465E-2,-4.358225E-1,3.6496716E-3,-2.881975E-3,7.049209E-3,-2.0891115E-2,-4.7957737E-2,7.051651E-2,-1.5889313E-3],"categories":[],"categories_nodes":[],"categories_segments":[],"categories_sizes":[],"default_left":[0,0,0,0,0,0,0,0,0,0,0,0,0,0,0],"id":75,"left_children":[1,-1,3,5,7,9,-1,11,13,-1,-1,-1,-1,-1,-1],"loss_changes":[8.56362E0,0E0,2.181004E0,6.4906235E0,3.5132709E0,5.89456E-1,0E0,4.494238E-1,5.936938E0,0E0,0E0,0E0,0E0,0E0,0E0],"parents":[2147483647,0,0,2,2,3,3,4,4,5,5,7,7,8,8],"right_children":[2,-1,4,6,8,10,-1,12,14,-1,-1,-1,-1,-1,-1],"split_conditions":[9.4404E4,-6.852504E-2,4.861111E1,1.9047619E1,6.27451E1,1.1E1,5.0798465E-2,5.8333332E1,6.607143E1,-2.881975E-3,7.049209E-3,-2.0891115E-2,-4.7957737E-2,7.051651E-2,-1.5889313E-3],"split_indices":[7,0,8,8,8,0,0,8,8,0,0,0,0,0,0],"split_type":[0,0,0,0,0,0,0,0,0,0,0,0,0,0,0],"sum_hessian":[4.4290475E2,8.901659E0,4.340031E2,1.6202214E2,2.7198096E2,1.4459251E2,1.7429626E1,1.8596302E1,2.5338466E2,5.16553E1,9.293722E1,1.1828118E1,6.768184E0,5.5934024E0,2.4779126E2],"tree_param":{"num_deleted":"0","num_feature":"9","num_nodes":"15","size_leaf_vector":"1"}},{"base_weights":[2.4292769E-2,1.0408062E-1,-2.3414375E-2,5.4715615E-2,4.8043796E-1,-4.7106978E-2,8.321382E-3,2.7043074E-2,2.6622886E-2,4.9177326E-2,2.0582786E-2,-1.2377232E-1,7.260961E-2,4.890981E-3,-2.1749709E-2,1.2508223E-2,-2.0098178E-2,4.873142E-2,3.913664E-3],"categories":[],"categories_nodes":[],"categories_segments":[],"categories_sizes":[],"default_left":[0,0,0,0,0,0,0,0,0,0,0,0,0,0,0,0,0,0,0],"id":76,"left_children":[1,3,5,7,9,-1,11,-1,13,-1,-1,15,17,-1,-1,-1,-1,-1,-1],"loss_changes":[1.6816405E0,3.0439773E0,5.3187494E0,1.25539E0,5.0724363E-1,0E0,2.251492E0,0E0,1.6795967E0,0E0,0E0,3.682146E0,2.0676246E0,0E0,0E0,0E0,0E0,0E0,0E0],"parents":[2147483647,0,0,1,1,2,2,3,3,4,4,6,6,8,8,11,11,12,12],"right_children":[2,4,6,8,10,-1,12,-1,14,-1,-1,16,18,-1,-1,-1,-1,-1,-1],"split_conditions":[4.9373432E1,1.8181818E1,5.844156E1,3E0,2.8571428E1,-4.7106978E-2,8.608059E1,2.7043074E-2,8.695652E0,4.9177326E-2,2.0582786E-2,1E1,8.703704E1,4.890981E-3,-2.1749709E-2,1.2508223E-2,-2.0098178E-2,4.873142E-2,3.913664E-3],"split_indices":[8,8,8,6,8,0,8,0,8,0,0,0,8,0,0,0,0,0,0],"split_type":[0,0,0,0,0,0,0,0,0,0,0,0,0,0,0,0,0,0,0],"sum_hessian":[4.4014676E2,1.6425563E2,2.758911E2,1.462218E2,1.8033836E1,1.2820666E1,2.6307047E2,1.1304901E1,1.349169E2,8.564455E0,9.469382E0,8.58167E1,1.7725375E2,1.2096719E2,1.3949703E1,2.8412716E1,5.7403988E1,5.006131E0,1.7224762E2],"tree_param":{"num_deleted":"0","num_feature":"9","num_nodes":"19","size_leaf_vector":"1"}},{"base_weights":[-1.56317E-2,2.31839E-1,-3.785128E-2,1.3455354E-2,7.78452E-2,-4.949953E-2,3.368339E-2,2.412776E-1,-4.2348586E-2,-3.143524E-2,-3.6931643E-1,2.2793498E-2,2.3833837E-3,1.3642316E-2,-4.115038E-3,1.1842594E-2,-7.187514E-2],"categories":[],"categories_nodes":[],"categories_segments":[],"categories_sizes":[],"default_left":[0,0,0,0,0,0,0,0,0,0,0,0,0,0,0,0,0],"id":77,"left_children":[1,3,5,7,-1,9,-1,11,-1,13,15,-1,-1,-1,-1,-1,-1],"loss_changes":[2.4536994E0,6.459612E0,2.341413E0,4.080522E0,0E0,2.300524E0,0E0,2.814269E-1,0E0,1.9090679E0,6.7669964E0,0E0,0E0,0E0,0E0,0E0,0E0],"parents":[2147483647,0,0,1,1,2,2,3,3,5,5,7,7,9,9,10,10],"right_children":[2,4,6,8,-1,10,-1,12,-1,14,16,-1,-1,-1,-1,-1,-1],"split_conditions":[2.1E1,1.8E1,2.3E1,9.5E1,7.78452E-2,2.2E1,3.368339E-2,8.157895E1,-4.2348586E-2,3E0,8.571429E1,2.2793498E-2,2.3833837E-3,1.3642316E-2,-4.115038E-3,1.1842594E-2,-7.187514E-2],"split_indices":[1,1,5,8,0,5,0,8,0,6,8,0,0,0,0,0,0],"split_type":[0,0,0,0,0,0,0,0,0,0,0,0,0,0,0,0,0],"sum_hessian":[4.4363705E2,3.5773666E1,4.0786337E2,2.8947933E1,6.825733E0,3.992125E2,8.650885E0,2.118275E1,7.7651825E0,3.7890878E2,2.03037E1,1.5960302E1,5.2224483E0,3.6830235E1,3.4207855E2,1.1100137E1,9.203563E0],"tree_param":{"num_deleted":"0","num_feature":"9","num_nodes":"17","size_leaf_vector":"1"}},{"base_weights":[-2.8925115E-2,-5.6668863E-2,6.2244244E-2,-9.278132E-2,1.767304E-1,1.3145642E-1,-4.8047018E-1,-1.5818937E-1,3.74448E-2,-1.1118235E-2,2.2749396E-1,3.4068945E-1,-9.495935E-2,-6.8393864E-2,-9.01581E-4,-9.622093E-3,-8.025642E-2,6.0972446E-3,-3.795558E-2,3.594209E-2,1.1175635E-2,4.0618435E-2,1.7336424E-2,8.176554E-3,-1.9456781E-2],"categories":[],"categories_nodes":[],"categories_segments":[],"categories_sizes":[],"default_left":[0,0,0,0,0,0,0,0,0,0,0,0,0,0,0,0,0,0,0,0,0,0,0,0,0],"id":78,"left_children":[1,3,5,7,9,11,13,15,17,-1,19,21,23,-1,-1,-1,-1,-1,-1,-1,-1,-1,-1,-1,-1],"loss_changes":[1.1098051E0,2.847159E0,3.9140666E0,2.4889188E0,7.8178334E-1,4.376976E0,2.376053E0,5.157752E0,2.3833401E0,0E0,7.112591E-1,9.284382E-1,1.5321577E0,0E0,0E0,0E0,0E0,0E0,0E0,0E0,0E0,0E0,0E0,0E0,0E0],"parents":[2147483647,0,0,1,1,2,2,3,3,4,4,5,5,6,6,7,7,8,8,10,10,11,11,12,12],"right_children":[2,4,6,8,10,12,14,16,18,-1,20,22,24,-1,-1,-1,-1,-1,-1,-1,-1,-1,-1,-1,-1],"split_conditions":[1.2E1,4.5E1,4.4E1,9.230769E1,3E0,8.136364E1,6.8965516E0,9.1666664E1,4.1E1,-1.1118235E-2,4.7E1,1E1,1E1,-6.8393864E-2,-9.01581E-4,-9.622093E-3,-8.025642E-2,6.0972446E-3,-3.795558E-2,3.594209E-2,1.1175635E-2,4.0618435E-2,1.7336424E-2,8.176554E-3,-1.9456781E-2],"split_indices":[6,1,1,8,6,8,8,8,1,0,1,0,0,0,0,0,0,0,0,0,0,0,0,0,0],"split_type":[0,0,0,0,0,0,0,0,0,0,0,0,0,0,0,0,0,0,0,0,0,0,0,0,0],"sum_hessian":[4.363712E2,3.3485107E2,1.015201E2,2.905054E2,4.434567E1,9.070971E1,1.0810396E1,1.9323532E2,9.7270096E1,5.7318377E0,3.861383E1,4.688142E1,4.382829E1,5.134644E0,5.6757517E0,1.8820602E2,5.029289E0,9.079507E1,6.475032E0,7.9640484E0,3.0649782E1,1.5150799E1,3.1730621E1,1.9714334E1,2.4113956E1],"tree_param":{"num_deleted":"0","num_feature":"9","num_nodes":"25","size_leaf_vector":"1"}},{"base_weights":[-3.7887543E-2,-6.771623E-2,-1.980248E-2,6.6086315E-2,-8.426196E-2,-2.8521637E-2,3.0538327E-1,-3.18341E-1,-1.7943678E-2,1.3167926E-2,-9.9889375E-3,1.0225455E-2,2.8764654E-2,-2.968086E-2,-1.074299E-2,2.4082134E-2,-7.084195E-3],"categories":[],"categories_nodes":[],"categories_segments":[],"categories_sizes":[],"default_left":[0,0,0,0,0,0,0,0,0,0,0,0,0,0,0,0,0],"id":79,"left_children":[1,-1,3,5,7,9,11,13,15,-1,-1,-1,-1,-1,-1,-1,-1],"loss_changes":[6.903687E0,0E0,2.4106543E0,4.2379794E0,3.8535979E0,2.9027705E0,6.4804935E-1,6.863823E-1,5.0831046E0,0E0,0E0,0E0,0E0,0E0,0E0,0E0,0E0],"parents":[2147483647,0,0,2,2,3,3,4,4,5,5,6,6,7,7,8,8],"right_children":[2,-1,4,6,8,10,12,14,16,-1,-1,-1,-1,-1,-1,-1,-1],"split_conditions":[9.4404E4,-6.771623E-2,1.40681E5,1.40208E5,1.43241E5,1.3412E5,1.1E1,1.3E1,1.45941E5,1.3167926E-2,-9.9889375E-3,1.0225455E-2,2.8764654E-2,-2.968086E-2,-1.074299E-2,2.4082134E-2,-7.084195E-3],"split_indices":[7,0,3,3,3,3,0,6,3,0,0,0,0,0,0,0,0],"split_type":[0,0,0,0,0,0,0,0,0,0,0,0,0,0,0,0,0],"sum_hessian":[4.4145633E2,8.038869E0,4.3341748E2,1.8581018E2,2.476073E2,1.3379434E2,5.2015842E1,5.3824944E1,1.9378235E2,4.5124535E1,8.86698E1,1.7311775E1,3.4704067E1,3.645143E1,1.7373514E1,3.5091095E1,1.5869125E2],"tree_param":{"num_deleted":"0","num_feature":"9","num_nodes":"17","size_leaf_vector":"1"}},{"base_weights":[-1.5416415E-2,-2.5377396E-1,2.628061E-3,-8.577652E-2,-4.492643E-1,7.660214E-2,-1.698908E-2,-1.3153271E-2,5.573279E-3,-4.6669155E-2,-2.056559E-2,-3.1516534E-1,9.957386E-3,-5.0190914E-2,2.0549778E-2,7.146976E-3,-7.870355E-3],"categories":[],"categories_nodes":[],"categories_segments":[],"categories_sizes":[],"default_left":[0,0,0,0,0,0,0,0,0,0,0,0,0,0,0,0,0],"id":80,"left_children":[1,3,5,7,9,-1,11,-1,-1,-1,-1,13,15,-1,-1,-1,-1],"loss_changes":[1.865344E0,9.6383154E-1,8.091554E0,2.6621202E-1,2.494092E-1,0E0,3.1959326E0,0E0,0E0,0E0,0E0,7.059585E0,3.592685E0,0E0,0E0,0E0,0E0],"parents":[2147483647,0,0,1,1,2,2,3,3,4,4,6,6,11,11,12,12],"right_children":[2,4,6,8,10,-1,12,-1,-1,-1,-1,14,16,-1,-1,-1,-1],"split_conditions":[1.8E1,2E1,2.1E1,1.2E1,1E1,7.660214E-2,2.3E1,-1.3153271E-2,5.573279E-3,-4.6669155E-2,-2.056559E-2,1.9E1,1.8E1,-5.0190914E-2,2.0549778E-2,7.146976E-3,-7.870355E-3],"split_indices":[1,5,1,5,0,0,1,0,0,0,0,5,5,0,0,0,0],"split_type":[0,0,0,0,0,0,0,0,0,0,0,0,0,0,0,0,0],"sum_hessian":[4.325413E2,2.952103E1,4.0302026E2,1.6650747E1,1.2870283E1,6.649352E0,3.963709E2,1.0614382E1,6.036365E0,5.188449E0,7.6818347E0,3.1965086E1,3.6440582E2,1.9881672E1,1.2083414E1,2.0919916E2,1.5520667E2],"tree_param":{"num_deleted":"0","num_feature":"9","num_nodes":"17","size_leaf_vector":"1"}},{"base_weights":[-1.02310665E-2,-6.735789E-2,7.686071E-3,-6.8026725E-3,4.1435644E-2,7.937897E-2,-7.494984E-2,7.343109E-3,-2.1278124E-2,-1.9749291E-2,1.4935428E-3],"categories":[],"categories_nodes":[],"categories_segments":[],"categories_sizes":[],"default_left":[0,0,0,0,0,0,0,0,0,0,0],"id":81,"left_children":[1,-1,3,5,-1,7,9,-1,-1,-1,-1],"loss_changes":[7.025045E0,0E0,3.4249642E0,2.4913611E0,0E0,1.2882406E0,4.2374716E0,0E0,0E0,0E0,0E0],"parents":[2147483647,0,0,2,2,3,3,5,5,6,6],"right_children":[2,-1,4,6,-1,8,10,-1,-1,-1,-1],"split_conditions":[9.4404E4,-6.735789E-2,2.3E1,6E0,4.1435644E-2,2.2E1,1E1,7.343109E-3,-2.1278124E-2,-1.9749291E-2,1.4935428E-3],"split_indices":[7,0,5,6,0,5,0,0,0,0,0],"split_type":[0,0,0,0,0,0,0,0,0,0,0],"sum_hessian":[4.401661E2,7.735037E0,4.3243106E2,4.2219037E2,1.0240699E1,1.8635434E2,2.3583601E2,1.7800092E2,8.353434E0,7.839288E1,1.5744313E2],"tree_param":{"num_deleted":"0","num_feature":"9","num_nodes":"11","size_leaf_vector":"1"}},{"base_weights":[1.4006952E-2,-6.6573255E-2,3.0894898E-2,4.1336983E-1,1.885279E-2,8.847966E-3,4.8847225E-2,-1.7473899E-1,4.7910515E-2,1.0801381E-2,-3.8265027E-2,5.534807E-2,2.227991E-3],"categories":[],"categories_nodes":[],"categories_segments":[],"categories_sizes":[],"default_left":[0,0,0,0,0,0,0,0,0,0,0,0,0],"id":82,"left_children":[1,-1,3,5,7,-1,-1,9,11,-1,-1,-1,-1],"loss_changes":[6.682015E0,0E0,1.9725021E0,8.421862E-1,2.35909E0,0E0,0E0,5.9281807E0,4.552219E0,0E0,0E0,0E0,0E0],"parents":[2147483647,0,0,2,2,3,3,4,4,7,7,8,8],"right_children":[2,-1,4,6,8,-1,-1,10,12,-1,-1,-1,-1],"split_conditions":[9.4404E4,-6.6573255E-2,2E0,1.43609E5,5E0,8.847966E-3,4.8847225E-2,1.40682E5,6E0,1.0801381E-2,-3.8265027E-2,5.534807E-2,2.227991E-3],"split_indices":[7,0,5,3,5,0,0,3,5,0,0,0,0],"split_type":[0,0,0,0,0,0,0,0,0,0,0,0,0],"sum_hessian":[4.3602512E2,7.0686364E0,4.2895648E2,1.207606E1,4.1688043E2,6.0547004E0,6.02136E0,5.3752266E1,3.6312814E2,2.7854979E1,2.5897287E1,8.316918E0,3.5481125E2],"tree_param":{"num_deleted":"0","num_feature":"9","num_nodes":"13","size_leaf_vector":"1"}},{"base_weights":[9.699448E-3,-3.408824E-2,2.1875893E-1,3.1419498E-1,-6.019063E-2,4.763336E-1,7.707315E-2,4.1261083E-1,1.1614707E-2,9.960262E-2,-1.12073794E-1,4.6575833E-3,6.0608023E-1,3.2167512E-1,-1.9269186E-1,1.3709533E-2,4.7617577E-2,1.0321331E-3,3.2804355E-2,-2.6499901E-3,-2.4646323E-2,2.8603135E-2,5.3433463E-2,1.0035973E-2,7.1246386E-2,2.7892035E-3,-3.5442643E-2],"categories":[],"categories_nodes":[],"categories_segments":[],"categories_sizes":[],"default_left":[0,0,0,0,0,0,0,0,0,0,0,0,0,0,0,0,0,0,0,0,0,0,0,0,0,0,0],"id":83,"left_children":[1,3,5,7,9,11,13,15,-1,17,19,-1,21,23,25,-1,-1,-1,-1,-1,-1,-1,-1,-1,-1,-1,-1],"loss_changes":[4.0544405E0,3.3498063E0,2.7622492E0,3.391924E-1,2.843953E0,1.4147635E0,3.4055326E0,6.650417E-1,0E0,2.4377465E0,4.282546E0,0E0,2.174015E-1,3.0537415E0,1.608123E0,0E0,0E0,0E0,0E0,0E0,0E0,0E0,0E0,0E0,0E0,0E0,0E0],"parents":[2147483647,0,0,1,1,2,2,3,3,4,4,5,5,6,6,7,7,9,9,10,10,12,12,13,13,14,14],"right_children":[2,4,6,8,10,12,14,16,-1,18,20,-1,22,24,26,-1,-1,-1,-1,-1,-1,-1,-1,-1,-1,-1,-1],"split_conditions":[1.75956E5,1.29102E5,1E1,1.9E1,8E0,1E1,1.98318E5,9E0,1.1614707E-2,1.51699E5,1.43951E5,4.6575833E-3,1.98327E5,1.85361E5,1.7E1,1.3709533E-2,4.7617577E-2,1.0321331E-3,3.2804355E-2,-2.6499901E-3,-2.4646323E-2,2.8603135E-2,5.3433463E-2,1.0035973E-2,7.1246386E-2,2.7892035E-3,-3.5442643E-2],"split_indices":[3,3,0,5,5,5,3,5,0,3,3,0,3,3,5,0,0,0,0,0,0,0,0,0,0,0,0],"split_type":[0,0,0,0,0,0,0,0,0,0,0,0,0,0,0,0,0,0,0,0,0,0,0,0,0,0,0],"sum_hessian":[4.4108887E2,3.6539377E2,7.569509E1,2.4705967E1,3.406878E2,2.602379E1,4.9671303E1,1.4289836E1,1.0416131E1,8.3279205E1,2.574086E2,6.559713E0,1.9464077E1,2.5949701E1,2.3721603E1,7.9219565E0,6.3678794E0,6.723404E1,1.6045164E1,1.9091406E2,6.649454E1,7.7266064E0,1.1737472E1,2.0910269E1,5.0394335E0,1.35001545E1,1.0221448E1],"tree_param":{"num_deleted":"0","num_feature":"9","num_nodes":"27","size_leaf_vector":"1"}},{"base_weights":[4.3921933E-2,-6.641127E-2,6.103691E-2,6.961453E-2,-4.120863E-2,3.3673503E-2,2.7882752E-1,5.3309062E-3,-6.507845E-3,3.291151E-2,8.806104E-3],"categories":[],"categories_nodes":[],"categories_segments":[],"categories_sizes":[],"default_left":[0,0,0,0,0,0,0,0,0,0,0],"id":84,"left_children":[1,-1,3,5,-1,7,9,-1,-1,-1,-1],"loss_changes":[7.00758E0,0E0,2.290863E0,3.18709E0,0E0,1.6457086E0,1.5543957E0,0E0,0E0,0E0,0E0],"parents":[2147483647,0,0,2,2,3,3,5,5,6,6],"right_children":[2,-1,4,6,-1,8,10,-1,-1,-1,-1],"split_conditions":[9.4404E4,-6.641127E-2,2.00153E5,1.8058E5,-4.120863E-2,1.45941E5,1.98318E5,5.3309062E-3,-6.507845E-3,3.291151E-2,8.806104E-3],"split_indices":[7,0,3,3,0,3,3,0,0,0,0],"split_type":[0,0,0,0,0,0,0,0,0,0,0],"sum_hessian":[4.3614337E2,6.9689097E0,4.2917447E2,4.241016E2,5.0728693E0,3.6291653E2,6.118506E1,2.7723004E2,8.5686516E1,2.9864601E1,3.1320456E1],"tree_param":{"num_deleted":"0","num_feature":"9","num_nodes":"11","size_leaf_vector":"1"}},{"base_weights":[2.7316533E-2,-6.5533005E-2,4.253438E-2,-2.3349825E-2,7.773175E-2,2.7217248E-2,-4.472604E-2,4.3661688E-2,1.3427256E-1,-9.745219E-3,2.644269E-3,6.267619E-3,-4.5579873E-2,4.40373E-2,6.2392647E-3],"categories":[],"categories_nodes":[],"categories_segments":[],"categories_sizes":[],"default_left":[0,0,0,0,0,0,0,0,0,0,0,0,0,0,0],"id":85,"left_children":[1,-1,3,5,7,-1,9,11,13,-1,-1,-1,-1,-1,-1],"loss_changes":[6.0530305E0,0E0,1.0044756E0,1.265651E0,5.374657E-1,0E0,9.8790497E-1,4.664368E0,2.3935013E0,0E0,0E0,0E0,0E0,0E0,0E0],"parents":[2147483647,0,0,2,2,3,3,4,4,6,6,7,7,8,8],"right_children":[2,-1,4,6,8,-1,10,12,14,-1,-1,-1,-1,-1,-1],"split_conditions":[9.4404E4,-6.5533005E-2,1.1E1,8E0,8.784314E1,2.7217248E-2,7.6818184E1,8.571429E1,9.013378E1,-9.745219E-3,2.644269E-3,6.267619E-3,-4.5579873E-2,4.40373E-2,6.2392647E-3],"split_indices":[7,0,0,0,8,0,8,8,8,0,0,0,0,0,0],"split_type":[0,0,0,0,0,0,0,0,0,0,0,0,0,0,0],"sum_hessian":[4.377092E2,6.332409E0,4.3137677E2,1.5032587E2,2.810509E2,7.0454316E0,1.4328044E2,1.7648047E2,1.0457046E2,6.907089E1,7.420954E1,1.671142E2,9.366272E0,9.535463E0,9.503499E1],"tree_param":{"num_deleted":"0","num_feature":"9","num_nodes":"15","size_leaf_vector":"1"}},{"base_weights":[4.272202E-2,-6.505747E-2,5.709304E-2,6.9387056E-2,-6.328116E-2,1.8358009E-1,3.1148437E-2,2.6135126E-2,3.3557042E-3,-5.7178754E-3,6.813453E-3],"categories":[],"categories_nodes":[],"categories_segments":[],"categories_sizes":[],"default_left":[0,0,0,0,0,0,0,0,0,0,0],"id":86,"left_children":[1,-1,3,5,-1,7,9,-1,-1,-1,-1],"loss_changes":[5.924187E0,0E0,4.9658065E0,1.9070787E0,0E0,2.49538E0,2.118421E0,0E0,0E0,0E0,0E0],"parents":[2147483647,0,0,2,2,3,3,5,5,6,6],"right_children":[2,-1,4,6,-1,8,10,-1,-1,-1,-1],"split_conditions":[9.4404E4,-6.505747E-2,9.4537E4,8E0,-6.328116E-2,1.40682E5,2.7E1,2.6135126E-2,3.3557042E-3,-5.7178754E-3,6.813453E-3],"split_indices":[7,0,7,5,0,3,1,0,0,0,0],"split_type":[0,0,0,0,0,0,0,0,0,0,0],"sum_hessian":[4.4813828E2,6.043249E0,4.4209503E2,4.3705344E2,5.0416026E0,1.0868462E2,3.283688E2,4.8991116E1,5.969351E1,1.17223946E2,2.1114485E2],"tree_param":{"num_deleted":"0","num_feature":"9","num_nodes":"11","size_leaf_vector":"1"}},{"base_weights":[-1.3255636E-2,-6.390658E-2,-6.9416023E-4,5.92826E-2,-5.497313E-2,-2.8052658E-2,8.9919254E-2,1.7010744E-1,-8.443065E-2,4.5870617E-3,2.482746E-2,2.9486576E-2,-2.7483506E-3,-1.2426939E-2,-6.379542E-4],"categories":[],"categories_nodes":[],"categories_segments":[],"categories_sizes":[],"default_left":[0,0,0,0,0,0,0,0,0,0,0,0,0,0,0],"id":87,"left_children":[1,-1,3,5,7,-1,9,11,13,-1,-1,-1,-1,-1,-1],"loss_changes":[4.56533E0,0E0,1.3963802E0,2.738854E0,1.50721E0,0E0,1.3050362E0,1.2313337E0,1.2311026E0,0E0,0E0,0E0,0E0,0E0,0E0],"parents":[2147483647,0,0,2,2,3,3,4,4,6,6,7,7,8,8],"right_children":[2,-1,4,6,8,-1,10,12,14,-1,-1,-1,-1,-1,-1],"split_conditions":[9.4404E4,-6.390658E-2,1.43236E5,3E0,4E0,-2.8052658E-2,1.40214E5,1.49669E5,1.60832E5,4.5870617E-3,2.482746E-2,2.9486576E-2,-2.7483506E-3,-1.2426939E-2,-6.379542E-4],"split_indices":[7,0,3,6,6,0,3,3,3,0,0,0,0,0,0],"split_type":[0,0,0,0,0,0,0,0,0,0,0,0,0,0,0],"sum_hessian":[4.3232404E2,5.3924556E0,4.2693158E2,2.0277673E2,2.2415486E2,1.2649947E1,1.9012679E2,2.5388718E1,1.9876614E2,1.7098631E2,1.9140467E1,1.1779387E1,1.360933E1,9.543742E1,1.0332871E2],"tree_param":{"num_deleted":"0","num_feature":"9","num_nodes":"15",