{"learner":{"attributes":{"best_iteration":"55","best_score":"0.8998417096365865"},"feature_names":[],"feature_types":[],"gradient_booster":{"model":{"gbtree_model_param":{"num_parallel_tree":"1","num_trees":"106"},"iteration_indptr":[0,1,2,3,4,5,6,7,8,9,10,11,12,13,14,15,16,17,18,19,20,21,22,23,24,25,26,27,28,29,30,31,32,33,34,35,36,37,38,39,40,41,42,43,44,45,46,47,48,49,50,51,52,53,54,55,56,57,58,59,60,61,62,63,64,65,66,67,68,69,70,71,72,73,74,75,76,77,78,79,80,81,82,83,84,85,86,87,88,89,90,91,92,93,94,95,96,97,98,99,100,101,102,103,104,105,106],"tree_info":[0,0,0,0,0,0,0,0,0,0,0,0,0,0,0,0,0,0,0,0,0,0,0,0,0,0,0,0,0,0,0,0,0,0,0,0,0,0,0,0,0,0,0,0,0,0,0,0,0,0,0,0,0,0,0,0,0,0,0,0,0,0,0,0,0,0,0,0,0,0,0,0,0,0,0,0,0,0,0,0,0,0,0,0,0,0,0,0,0,0,0,0,0,0,0,0,0,0,0,0,0,0,0,0,0,0],"trees":[{"base_weights":[-2.7627423E-2,6.1066324E-1,-1.12803124E-1,-1.1254699E-1,1.2665008E0,1.3889676E0,-1.0908056E-1,-5.994088E-2,1.4040176E0,-4.4800082E-1,8.201796E-2,1.5790874E0,1.2853788E0,-1.1826753E-2,-5.870919E-2,1.3091992E0,1.6734693E0,1.4144773E0,1.0099307E0,3.1346783E-2,-3.2741815E-2,1.0136615E-1,-3.2741815E-2,1.0217608E-1,1.3488723E-1,1.0707102E-1,-1.8719137E-2,6.5815076E-2,1.2794714E-1],"categories":[],"categories_nodes":[],"categories_segments":[],"categories_sizes":[],"default_left":[0,0,0,0,0,0,0,0,0,0,0,0,0,0,0,0,0,0,0,0,0,0,0,0,0,0,0,0,0],"id":0,"left_children":[1,3,-1,-1,5,7,-1,9,11,13,-1,15,17,19,-1,21,23,25,27,-1,-1,-1,-1,-1,-1,-1,-1,-1,-1],"loss_changes":[1.1303837E3,1.1615259E3,0E0,0E0,2.1512488E2,1.3440308E1,0E0,3.737815E0,1.056189E1,8.8714063E-1,0E0,3.9353027E0,1.161261E1,8.5440457E-1,0E0,5.5366898E0,4.3413696E0,5.7601013E0,9.609932E0,0E0,0E0,0E0,0E0,0E0,0E0,0E0,0E0,0E0,0E0],"parents":[2147483647,0,0,1,1,4,4,5,5,7,7,8,8,9,9,11,11,12,12,13,13,15,15,16,16,17,17,18,18],"right_children":[2,4,-1,-1,6,8,-1,10,12,14,-1,16,18,20,-1,22,24,26,28,-1,-1,-1,-1,-1,-1,-1,-1,-1,-1],"split_conditions":[5E0,9.4404E4,-1.12803124E-1,-1.1254699E-1,9.4537E4,3E0,-1.0908056E-1,7E0,4.8E1,8.1818184E1,8.201796E-2,9E0,2.1E1,1E1,-5.870919E-2,1.5E1,2.7E1,2.00863E5,1.85361E5,3.1346783E-2,-3.2741815E-2,1.0136615E-1,-3.2741815E-2,1.0217608E-1,1.3488723E-1,1.0707102E-1,-1.8719137E-2,6.5815076E-2,1.2794714E-1],"split_indices":[2,7,0,0,7,4,0,6,8,8,0,5,5,0,0,6,1,3,3,0,0,0,0,0,0,0,0,0,0],"split_type":[0,0,0,0,0,0,0,0,0,0,0,0,0,0,0,0,0,0,0,0,0,0,0,0,0,0,0,0,0],"sum_hessian":[1.1975223E3,8.3647833E2,3.6104407E2,1.9794867E2,6.3852966E2,6.1149603E2,2.703362E1,6.255714E0,6.052403E2,5.1386223E0,1.1170918E0,2.3950447E2,3.6573584E2,2.6810203E0,2.457602E0,6.590842E1,1.7359607E2,2.4620703E2,1.1952882E2,1.3405101E0,1.3405101E0,6.45679E1,1.3405101E0,5.317357E1,1.2042249E2,2.4441968E2,1.7873468E0,1.0232561E2,1.7203213E1],"tree_param":{"num_deleted":"0","num_feature":"9","num_nodes":"29","size_leaf_vector":"1"}},{"base_weights":[-2.7357074E-2,5.5636615E-1,-1.087363E-1,-1.08488224E-1,1.1378814E0,1.244689E0,-1.0513613E-1,-5.2998338E-2,1.2577062E0,-4.27947E-1,7.76828E-2,1.4094946E0,1.1542351E0,-1.1444183E-2,-5.6400254E-2,1.2006813E0,1.5037917E0,4.5752388E-1,1.1952367E0,2.9821767E-2,-3.1539053E-2,6.666574E-2,1.0229669E-1,1.13683E-1,1.2846878E-2,5.618446E-2,-1.7827059E-3,1.9196862E-1,8.5665315E-2],"categories":[],"categories_nodes":[],"categories_segments":[],"categories_sizes":[],"default_left":[0,0,0,0,0,0,0,0,0,0,0,0,0,0,0,0,0,0,0,0,0,0,0,0,0,0,0,0,0],"id":1,"left_children":[1,3,-1,-1,5,7,-1,9,11,13,-1,15,17,19,-1,21,23,25,27,-1,-1,-1,-1,-1,-1,-1,-1,-1,-1],"loss_changes":[9.931933E2,9.894905E2,0E0,0E0,1.8019739E2,1.073999E1,0E0,3.3967078E0,8.19873E0,8.132421E-1,0E0,3.098816E0,1.0238037E1,7.8301036E-1,0E0,2.9850006E0,2.4165955E0,3.1901264E0,2.2829987E1,0E0,0E0,0E0,0E0,0E0,0E0,0E0,0E0,0E0,0E0],"parents":[2147483647,0,0,1,1,4,4,5,5,7,7,8,8,9,9,11,11,12,12,13,13,15,15,16,16,17,17,18,18],"right_children":[2,4,-1,-1,6,8,-1,10,12,14,-1,16,18,20,-1,22,24,26,28,-1,-1,-1,-1,-1,-1,-1,-1,-1,-1],"split_conditions":[5E0,9.4404E4,-1.087363E-1,-1.08488224E-1,9.4537E4,3E0,-1.0513613E-1,7E0,4.8E1,8.1818184E1,7.76828E-2,1E1,1.8E1,1E1,-5.6400254E-2,1.2E1,2.00857E5,6E0,2.1E1,2.9821767E-2,-3.1539053E-2,6.666574E-2,1.0229669E-1,1.13683E-1,1.2846878E-2,5.618446E-2,-1.7827059E-3,1.9196862E-1,8.5665315E-2],"split_indices":[2,7,0,0,7,4,0,6,8,8,0,0,1,0,0,5,3,6,1,0,0,0,0,0,0,0,0,0,0],"split_type":[0,0,0,0,0,0,0,0,0,0,0,0,0,0,0,0,0,0,0,0,0,0,0,0,0,0,0,0,0],"sum_hessian":[1.1941814E3,8.471516E2,3.4702972E2,1.9028334E2,6.568683E2,6.308477E2,2.6020548E1,6.234732E0,6.24613E2,5.0891E0,1.1456325E0,2.4807422E2,3.7653876E2,2.6799421E0,2.4091578E0,8.144771E1,1.6662651E2,2.1603539E1,3.549352E2,1.353984E0,1.325958E0,3.0206507E1,5.1241203E1,1.6500528E2,1.6212419E0,1.3106307E1,8.4972315E0,1.1511815E1,3.434234E2],"tree_param":{"num_deleted":"0","num_feature":"9","num_nodes":"29","size_leaf_vector":"1"}},{"base_weights":[-2.6940754E-2,5.101109E-1,-1.0522475E-1,-1.0498074E-1,1.0302352E0,1.1243957E0,-1.016915E-1,-4.6871845E-2,1.1358182E0,-4.0911984E-1,7.370097E-2,1.270277E0,1.0438625E0,-1.1170851E-2,-5.422046E-2,1.0509447E0,1.3467715E0,1.1534857E0,8.0891764E-1,2.8380094E-2,-3.038676E-2,8.1563905E-2,-3.487467E-2,8.144511E-2,1.08889E-1,8.965451E-2,4.9011026E-2,5.2070267E-2,1.05664E-1],"categories":[],"categories_nodes":[],"categories_segments":[],"categories_sizes":[],"default_left":[0,0,0,0,0,0,0,0,0,0,0,0,0,0,0,0,0,0,0,0,0,0,0,0,0,0,0,0,0],"id":2,"left_children":[1,3,-1,-1,5,7,-1,9,11,13,-1,15,17,19,-1,21,23,25,27,-1,-1,-1,-1,-1,-1,-1,-1,-1,-1],"loss_changes":[8.7747156E2,8.4984766E2,0E0,0E0,1.5247284E2,8.707642E0,0E0,3.090292E0,6.59552E0,7.4597836E-1,0E0,2.8728333E0,9.010651E0,7.1781284E-1,0E0,4.422455E0,3.5200806E0,4.6858215E0,7.7005463E0,0E0,0E0,0E0,0E0,0E0,0E0,0E0,0E0,0E0,0E0],"parents":[2147483647,0,0,1,1,4,4,5,5,7,7,8,8,9,9,11,11,12,12,13,13,15,15,16,16,17,17,18,18],"right_children":[2,4,-1,-1,6,8,-1,10,12,14,-1,16,18,20,-1,22,24,26,28,-1,-1,-1,-1,-1,-1,-1,-1,-1,-1],"split_conditions":[5E0,9.4404E4,-1.0522475E-1,-1.0498074E-1,9.4537E4,3E0,-1.016915E-1,7E0,4.8E1,8.1818184E1,7.370097E-2,9E0,2.1E1,1E1,-5.422046E-2,1.5E1,2.7E1,1.98318E5,1.85361E5,2.8380094E-2,-3.038676E-2,8.1563905E-2,-3.487467E-2,8.144511E-2,1.08889E-1,8.965451E-2,4.9011026E-2,5.2070267E-2,1.05664E-1],"split_indices":[2,7,0,0,7,4,0,6,8,8,0,5,5,0,0,6,1,3,3,0,0,0,0,0,0,0,0,0,0],"split_type":[0,0,0,0,0,0,0,0,0,0,0,0,0,0,0,0,0,0,0,0,0,0,0,0,0,0,0,0,0],"sum_hessian":[1.1853873E3,8.530755E2,3.3231183E2,1.8223442E2,6.7084106E2,6.458822E2,2.4958858E1,6.2080355E0,6.396742E2,5.0380273E0,1.1700083E0,2.5459253E2,3.8508167E2,2.677868E0,2.3601596E0,6.964339E1,1.8494914E2,2.5990344E2,1.251782E2,1.3663658E0,1.311502E0,6.827869E1,1.364701E0,5.6367176E1,1.2858197E2,2.385211E2,2.1382355E1,1.0690579E2,1.8272406E1],"tree_param":{"num_deleted":"0","num_feature":"9","num_nodes":"29","size_leaf_vector":"1"}},{"base_weights":[-2.6525375E-2,4.6992254E-1,-1.0216889E-1,-1.0192568E-1,9.383037E-1,1.0220163E0,-9.8657824E-2,-4.145718E-2,1.0321518E0,-3.9140627E-1,7.003256E-2,6.255792E-1,1.0575377E0,-1.0990476E-2,-5.2156467E-2,1.3449211E-1,5.063657E-1,1.7035626E-1,1.0159498E0,2.7016118E-2,-2.9282032E-2,6.0485084E-2,-2.2379297E-3,4.559317E-2,7.872942E-2],"categories":[],"categories_nodes":[],"categories_segments":[],"categories_sizes":[],"default_left":[0,0,0,0,0,0,0,0,0,0,0,0,0,0,0,0,0,0,0,0,0,0,0,0,0],"id":3,"left_children":[1,3,-1,-1,5,7,-1,9,11,13,-1,15,17,19,-1,-1,21,-1,23,-1,-1,-1,-1,-1,-1],"loss_changes":[7.7871747E2,7.347014E2,0E0,0E0,1.3005328E2,7.138855E0,0E0,2.8146527E0,6.069519E0,6.8464E-1,0E0,4.767831E0,2.8606995E1,6.5824693E-1,0E0,0E0,6.2018223E0,0E0,7.546936E0,0E0,0E0,0E0,0E0,0E0,0E0],"parents":[2147483647,0,0,1,1,4,4,5,5,7,7,8,8,9,9,11,11,12,12,13,13,16,16,18,18],"right_children":[2,4,-1,-1,6,8,-1,10,12,14,-1,16,18,20,-1,-1,22,-1,24,-1,-1,-1,-1,-1,-1],"split_conditions":[5E0,9.4404E4,-1.0216889E-1,-1.0192568E-1,9.4537E4,3E0,-9.8657824E-2,7E0,1.8E1,8.1818184E1,7.003256E-2,1.33252E5,2.1E1,1E1,-5.2156467E-2,1.3449211E-1,6E0,1.7035626E-1,2.3E1,2.7016118E-2,-2.9282032E-2,6.0485084E-2,-2.2379297E-3,4.559317E-2,7.872942E-2],"split_indices":[2,7,0,0,7,4,0,6,1,8,0,3,1,0,0,0,6,0,1,0,0,0,0,0,0],"split_type":[0,0,0,0,0,0,0,0,0,0,0,0,0,0,0,0,0,0,0,0,0,0,0,0,0],"sum_hessian":[1.1723607E3,8.551691E2,3.1719156E2,1.7396606E2,6.8120306E2,6.573337E2,2.3869373E1,6.176447E0,6.511572E2,4.9859433E0,1.1905034E0,3.977502E1,6.113822E2,2.6749253E0,2.3110182E0,2.3838623E0,3.7391155E1,1.8476198E1,5.92906E2,1.3777359E0,1.2971896E0,2.3650475E1,1.3740682E1,4.6778557E1,5.461275E2],"tree_param":{"num_deleted":"0","num_feature":"9","num_nodes":"25","size_leaf_vector":"1"}},{"base_weights":[-2.6106406E-2,4.3445808E-1,-9.949144E-2,-9.924633E-2,8.5841835E-1,9.3332154E-1,-9.59654E-2,1.06259E0,8.46133E-1,8.827158E-1,1.1455705E0,9.461078E-1,6.3257915E-1,6.1374986E-1,1.0257616E0,9.2093766E-1,1.2328867E0,9.8744726E-1,4.6787184E-1,1.3246615E0,5.5323356E-1,3.372443E-2,8.831486E-2,5.8764867E-2,9.6246675E-2,8.612499E-2,4.2447463E-2,6.4733416E-2,1.03322454E-1,8.43968E-2,6.5620795E-2,-2.6631074E-3,5.0309535E-2,5.04639E-2,1.2237424E-1,3.5610948E-2,1.0490263E-1],"categories":[],"categories_nodes":[],"categories_segments":[],"categories_sizes":[],"default_left":[0,0,0,0,0,0,0,0,0,0,0,0,0,0,0,0,0,0,0,0,0,0,0,0,0,0,0,0,0,0,0,0,0,0,0,0,0],"id":4,"left_children":[1,3,-1,-1,5,7,-1,9,11,13,15,17,19,21,23,25,27,29,31,33,35,-1,-1,-1,-1,-1,-1,-1,-1,-1,-1,-1,-1,-1,-1,-1,-1],"loss_changes":[6.9370605E2,6.3855505E2,0E0,0E0,1.1164935E2,6.618225E0,0E0,2.9404297E0,8.0104065E0,2.7537231E0,2.3521729E0,4.9279327E0,6.493477E0,2.525239E0,2.4825935E0,3.686489E0,5.5060883E0,2.8930054E0,2.4336815E0,1.4670525E0,7.2773247E0,0E0,0E0,0E0,0E0,0E0,0E0,0E0,0E0,0E0,0E0,0E0,0E0,0E0,0E0,0E0,0E0],"parents":[2147483647,0,0,1,1,4,4,5,5,7,7,8,8,9,9,10,10,11,11,12,12,13,13,14,14,15,15,16,16,17,17,18,18,19,19,20,20],"right_children":[2,4,-1,-1,6,8,-1,10,12,14,16,18,20,22,24,26,28,30,32,34,36,-1,-1,-1,-1,-1,-1,-1,-1,-1,-1,-1,-1,-1,-1,-1,-1],"split_conditions":[5E0,9.4404E4,-9.949144E-2,-9.924633E-2,9.4537E4,4.8E1,-9.59654E-2,1E1,2.1E1,1.2E1,2.7E1,1.98318E5,5E0,6.8965516E0,1.43241E5,2E1,1.39743E5,9E0,5E0,8.8902435E1,2.3E1,3.372443E-2,8.831486E-2,5.8764867E-2,9.6246675E-2,8.612499E-2,4.2447463E-2,6.4733416E-2,1.03322454E-1,8.43968E-2,6.5620795E-2,-2.6631074E-3,5.0309535E-2,5.04639E-2,1.2237424E-1,3.5610948E-2,1.0490263E-1],"split_indices":[2,7,0,0,7,8,0,0,5,5,1,3,6,8,3,5,3,5,5,8,5,0,0,0,0,0,0,0,0,0,0,0,0,0,0,0,0],"split_type":[0,0,0,0,0,0,0,0,0,0,0,0,0,0,0,0,0,0,0,0,0,0,0,0,0,0,0,0,0,0,0,0,0,0,0,0,0],"sum_hessian":[1.156262E3,8.5435175E2,3.019103E2,1.6561003E2,6.887417E2,6.6597284E2,2.276888E1,2.637467E2,4.022261E2,8.693602E1,1.768107E2,2.7163187E2,1.3059422E2,3.202002E1,5.4916E1,5.2722374E1,1.24088326E2,2.4903972E2,2.2592148E1,1.1818035E1,1.1877619E2,2.6193794E1,5.8262258E0,3.03816E1,2.4534399E1,3.0773693E1,2.1948683E1,3.6867603E1,8.722072E1,1.0787047E2,1.4116927E2,6.727798E0,1.586435E1,4.8059053E0,7.0121303E0,1.1012336E2,8.652835E0],"tree_param":{"num_deleted":"0","num_feature":"9","num_nodes":"37","size_leaf_vector":"1"}},{"base_weights":[-2.5132634E-2,4.036266E-1,-9.713154E-2,-9.6882164E-2,7.892355E-1,8.5665625E-1,-9.355879E-2,-8.550774E-2,8.656172E-1,-4.1386598E-1,6.332232E-2,1.2462809E0,8.3961165E-1,-5.4794032E-2,-5.365819E-2,8.7912804E-1,1.0523746E-1,4.3619072E-1,8.65478E-1,3.792458E-2,-5.7565596E-2,3.245569E-2,8.307811E-2,5.025037E-2,2.3734977E-3,1.4969383E-1,6.18672E-2],"categories":[],"categories_nodes":[],"categories_segments":[],"categories_sizes":[],"default_left":[0,0,0,0,0,0,0,0,0,0,0,0,0,0,0,0,0,0,0,0,0,0,0,0,0,0,0],"id":5,"left_children":[1,3,-1,-1,5,7,-1,9,11,13,-1,15,17,19,-1,21,-1,23,25,-1,-1,-1,-1,-1,-1,-1,-1],"loss_changes":[6.2057684E2,5.5807825E2,0E0,0E0,9.647742E1,5.757141E0,0E0,2.563556E0,5.555481E0,6.138247E-1,0E0,1.1039772E0,6.1684875E0,1.9203616E0,0E0,1.0335035E0,0E0,3.7447515E0,2.5351257E1,0E0,0E0,0E0,0E0,0E0,0E0,0E0,0E0],"parents":[2147483647,0,0,1,1,4,4,5,5,7,7,8,8,9,9,11,11,12,12,13,13,15,15,17,17,18,18],"right_children":[2,4,-1,-1,6,8,-1,10,12,14,-1,16,18,20,-1,22,-1,24,26,-1,-1,-1,-1,-1,-1,-1,-1],"split_conditions":[5E0,9.4404E4,-9.713154E-2,-9.6882164E-2,9.4537E4,3E0,-9.355879E-2,7E0,1.29102E5,6E0,6.332232E-2,8E0,1.8E1,1.6098E5,-5.365819E-2,2.9E1,1.0523746E-1,6E0,2.1E1,3.792458E-2,-5.7565596E-2,3.245569E-2,8.307811E-2,5.025037E-2,2.3734977E-3,1.4969383E-1,6.18672E-2],"split_indices":[2,7,0,0,7,4,0,6,3,6,0,8,1,3,0,1,0,6,1,0,0,0,0,0,0,0,0],"split_type":[0,0,0,0,0,0,0,0,0,0,0,0,0,0,0,0,0,0,0,0,0,0,0,0,0,0,0],"sum_hessian":[1.1377489E3,8.5108844E2,2.866604E2,1.5727127E2,6.938172E2,6.7214636E2,2.1670795E1,6.2520895E0,6.658943E2,5.030479E0,1.2216105E0,3.9581726E1,6.2631256E2,2.8357668E0,2.1947122E0,1.3826858E1,2.5754868E1,3.881424E1,5.8749835E2,1.7501311E0,1.0856357E0,5.6623144E0,8.164543E0,2.4181736E1,1.4632504E1,1.8690119E1,5.688082E2],"tree_param":{"num_deleted":"0","num_feature":"9","num_nodes":"27","size_leaf_vector":"1"}},{"base_weights":[-2.4689654E-2,3.751725E-1,-9.5040515E-2,-9.4784774E-2,7.2688687E-1,7.87799E-1,-9.139325E-2,9.0871364E-1,7.0668226E-1,7.1689373E-1,9.773495E-1,7.97071E-1,5.141845E-1,7.492746E-1,-4.1518837E-2,7.5898737E-1,1.0668097E0,8.0960745E-1,-3.7512413E-1,4.200114E-1,1.0136565E0,6.76624E-2,3.6678847E-2,7.638666E-2,4.6429917E-2,5.6412973E-2,8.9215405E-2,2.5455944E-2,6.260268E-2,-6.846924E-2,2.0277442E-2,-2.5025282E-2,3.5902556E-2,1.44819645E-2,8.958339E-2],"categories":[],"categories_nodes":[],"categories_segments":[],"categories_sizes":[],"default_left":[0,0,0,0,0,0,0,0,0,0,0,0,0,0,0,0,0,0,0,0,0,0,0,0,0,0,0,0,0,0,0,0,0,0,0],"id":6,"left_children":[1,3,-1,-1,5,7,-1,9,11,13,15,17,19,21,-1,23,25,27,29,31,33,-1,-1,-1,-1,-1,-1,-1,-1,-1,-1,-1,-1,-1,-1],"loss_changes":[5.5628687E2,4.89234E2,0E0,0E0,8.3683685E1,6.0028076E0,0E0,2.8345642E0,6.723526E0,3.4802017E0,2.9996643E0,4.3766327E0,5.8684006E0,2.4665756E0,0E0,1.5531158E0,4.351776E0,2.9561462E0,1.5021604E0,5.215269E0,2.8134727E0,0E0,0E0,0E0,0E0,0E0,0E0,0E0,0E0,0E0,0E0,0E0,0E0,0E0,0E0],"parents":[2147483647,0,0,1,1,4,4,5,5,7,7,8,8,9,9,10,10,11,11,12,12,13,13,15,15,16,16,17,17,18,18,19,19,20,20],"right_children":[2,4,-1,-1,6,8,-1,10,12,14,16,18,20,22,-1,24,26,28,30,32,34,-1,-1,-1,-1,-1,-1,-1,-1,-1,-1,-1,-1,-1,-1],"split_conditions":[5E0,9.4404E4,-9.5040515E-2,-9.4784774E-2,9.4537E4,4.8E1,-9.139325E-2,9E0,2.1E1,1.5E1,2.7E1,2.00862E5,1.85361E5,6E0,-4.1518837E-2,2.1E1,1.3981E5,5.844156E1,5E0,1.8E1,7.878788E1,6.76624E-2,3.6678847E-2,7.638666E-2,4.6429917E-2,5.6412973E-2,8.9215405E-2,2.5455944E-2,6.260268E-2,-6.846924E-2,2.0277442E-2,-2.5025282E-2,3.5902556E-2,1.44819645E-2,8.958339E-2],"split_indices":[2,7,0,0,7,8,0,5,5,6,1,3,3,5,0,1,3,8,5,1,8,0,0,0,0,0,0,0,0,0,0,0,0,0,0],"split_type":[0,0,0,0,0,0,0,0,0,0,0,0,0,0,0,0,0,0,0,0,0,0,0,0,0,0,0,0,0,0,0,0,0,0,0],"sum_hessian":[1.1177029E3,8.461093E2,2.7159363E2,1.4903256E2,6.970767E2,6.7649097E2,2.0585752E1,2.6751846E2,4.089725E2,7.351304E1,1.9400543E2,2.761593E2,1.328132E2,7.208601E1,1.4270271E0,5.9138657E1,1.3486678E2,2.735431E2,2.616186E0,1.1329321E2,1.9519993E1,4.3853558E1,2.8232454E1,1.851726E1,4.06214E1,3.984529E1,9.5021484E1,1.4595553E1,2.5894754E2,1.2011341E0,1.4150519E0,7.8463154E0,1.054469E2,3.8976052E0,1.5622388E1],"tree_param":{"num_deleted":"0","num_feature":"9","num_nodes":"35","size_leaf_vector":"1"}},{"base_weights":[-2.42074E-2,3.494356E-1,-9.317896E-2,-9.2914924E-2,6.7117983E-1,7.264214E-1,-8.9432225E-2,8.3779204E-1,6.498868E-1,6.703051E-1,9.1628456E-1,7.317338E-1,4.7610632E-1,5.7712626E-1,1.0581623E0,9.2637783E-1,-6.642141E-3,7.4541855E-1,-2.3689896E-1,1.11794E0,4.028392E-1,4.9077846E-2,1.4401112E-3,1.05149336E-1,4.443783E-2,5.555446E-2,7.4997194E-2,1.1929043E-2,5.7787042E-2,3.1190233E-2,-4.4532098E-2,3.5231482E-2,1.02526695E-1,2.4775326E-2,8.887416E-2],"categories":[],"categories_nodes":[],"categories_segments":[],"categories_sizes":[],"default_left":[0,0,0,0,0,0,0,0,0,0,0,0,0,0,0,0,0,0,0,0,0,0,0,0,0,0,0,0,0,0,0,0,0,0,0],"id":7,"left_children":[1,3,-1,-1,5,7,-1,9,11,13,15,17,19,21,23,25,-1,27,29,31,33,-1,-1,-1,-1,-1,-1,-1,-1,-1,-1,-1,-1,-1,-1],"loss_changes":[4.99969E2,4.3042886E2,0E0,0E0,7.289908E1,5.2531433E0,0E0,2.9824219E0,5.4490356E0,2.6789474E0,1.9436798E0,3.8248749E0,5.821253E0,3.2452412E0,1.800209E0,1.7431183E0,0E0,3.8713684E0,1.3168793E0,1.4730225E0,6.4851704E0,0E0,0E0,0E0,0E0,0E0,0E0,0E0,0E0,0E0,0E0,0E0,0E0,0E0,0E0],"parents":[2147483647,0,0,1,1,4,4,5,5,7,7,8,8,9,9,10,10,11,11,12,12,13,13,14,14,15,15,17,17,18,18,19,19,20,20],"right_children":[2,4,-1,-1,6,8,-1,10,12,14,16,18,20,22,24,26,-1,28,30,32,34,-1,-1,-1,-1,-1,-1,-1,-1,-1,-1,-1,-1,-1,-1],"split_conditions":[5E0,9.4404E4,-9.317896E-2,-9.2914924E-2,9.4537E4,5.050505E1,-8.9432225E-2,1E1,2.1E1,1.74343E5,2.00857E5,2.00153E5,5E0,1.59772E5,3.3E1,2.7E1,-6.642141E-3,5.844156E1,2.5E1,3E1,2.3E1,4.9077846E-2,1.4401112E-3,1.05149336E-1,4.443783E-2,5.555446E-2,7.4997194E-2,1.1929043E-2,5.7787042E-2,3.1190233E-2,-4.4532098E-2,3.5231482E-2,1.02526695E-1,2.4775326E-2,8.887416E-2],"split_indices":[2,7,0,0,7,8,0,0,5,3,3,3,6,3,1,1,0,8,1,1,5,0,0,0,0,0,0,0,0,0,0,0,0,0,0],"split_type":[0,0,0,0,0,0,0,0,0,0,0,0,0,0,0,0,0,0,0,0,0,0,0,0,0,0,0,0,0,0,0,0,0,0,0],"sum_hessian":[1.0964834E3,8.396553E2,2.5682816E2,1.409585E2,6.986968E2,6.7917474E2,1.9522057E1,2.7257944E2,4.065953E2,9.002476E1,1.8255467E2,2.7422864E2,1.3236665E2,7.459261E1,1.5432141E1,1.8081653E2,1.7381382E0,2.7063556E2,3.5930824E0,1.2101021E1,1.2026564E2,6.536932E1,9.223287E0,7.7206526E0,7.711489E0,5.4466267E1,1.26350266E2,1.1399955E1,2.5923563E2,1.2115598E0,2.3815227E0,4.1603875E0,7.9406333E0,1.1136498E2,8.900657E0],"tree_param":{"num_deleted":"0","num_feature":"9","num_nodes":"35","size_leaf_vector":"1"}},{"base_weights":[-2.3563128E-2,3.2610074E-1,-9.151467E-2,-9.124052E-2,6.2110364E-1,6.71355E-1,-8.764556E-2,1.0167753E0,6.477493E-1,8.531696E-1,1.3532647E0,7.6216704E-1,5.7226604E-1,5.9734786E-1,9.467779E-1,7.9143894E-1,1.1515371E-1,4.924197E-1,8.272851E-1,1.05161466E-1,6.0267854E-1,2.287706E-2,6.4378805E-2,7.507105E-2,1.6650379E-2,7.5046256E-2,2.3888038E-2,6.494189E-2,1.5519665E-2,4.4519987E-2,6.790356E-2,2.7737703E-2,-2.4335736E-2,1.272807E-1,4.2027753E-2],"categories":[],"categories_nodes":[],"categories_segments":[],"categories_sizes":[],"default_left":[0,0,0,0,0,0,0,0,0,0,0,0,0,0,0,0,0,0,0,0,0,0,0,0,0,0,0,0,0,0,0,0,0,0,0],"id":8,"left_children":[1,3,-1,-1,5,7,-1,9,11,13,15,17,19,21,23,25,-1,27,29,31,33,-1,-1,-1,-1,-1,-1,-1,-1,-1,-1,-1,-1,-1,-1],"loss_changes":[4.5048312E2,3.7994308E2,0E0,0E0,6.3750732E1,4.899414E0,0E0,1.1492081E0,5.098114E0,1.7352676E-1,1.1064529E-2,4.013748E0,5.4783173E0,5.758121E-1,5.977726E-1,1.7569566E-1,0E0,5.302842E0,3.1358795E0,2.969411E0,1.5997604E1,0E0,0E0,0E0,0E0,0E0,0E0,0E0,0E0,0E0,0E0,0E0,0E0,0E0,0E0],"parents":[2147483647,0,0,1,1,4,4,5,5,7,7,8,8,9,9,10,10,11,11,12,12,13,13,14,14,15,15,17,17,18,18,19,19,20,20],"right_children":[2,4,-1,-1,6,8,-1,10,12,14,16,18,20,22,24,26,-1,28,30,32,34,-1,-1,-1,-1,-1,-1,-1,-1,-1,-1,-1,-1,-1,-1],"split_conditions":[5E0,9.4404E4,-9.151467E-2,-9.124052E-2,9.4537E4,1.29102E5,-8.764556E-2,4E1,4.8E1,8E0,6.8965516E0,1.39541E5,1.8E1,2.9E1,3.8E1,1.7E1,1.1515371E-1,1.34122E5,9E0,6E0,2.1E1,2.287706E-2,6.4378805E-2,7.507105E-2,1.6650379E-2,7.5046256E-2,2.3888038E-2,6.494189E-2,1.5519665E-2,4.4519987E-2,6.790356E-2,2.7737703E-2,-2.4335736E-2,1.272807E-1,4.2027753E-2],"split_indices":[2,7,0,0,7,3,0,1,8,8,8,3,1,1,1,5,0,3,5,6,1,0,0,0,0,0,0,0,0,0,0,0,0,0,0],"split_type":[0,0,0,0,0,0,0,0,0,0,0,0,0,0,0,0,0,0,0,0,0,0,0,0,0,0,0,0,0,0,0,0,0,0,0],"sum_hessian":[1.0746804E3,8.3222595E2,2.4245444E2,1.3309846E2,6.991275E2,6.806414E2,1.8486097E1,4.08476E1,6.397938E2,2.986321E1,1.09843855E1,2.5069412E2,3.890997E2,9.977387E0,1.9885824E1,3.9976285E0,6.9867573E0,5.041505E1,2.0027907E2,2.4057621E1,3.6504208E2,5.7296195E0,4.2477674E0,1.8148367E1,1.7374576E0,1.9980968E0,1.9995316E0,2.0961168E1,2.9453882E1,5.2320763E1,1.479583E2,1.4972896E1,9.084725E0,1.2131216E1,3.5291086E2],"tree_param":{"num_deleted":"0","num_feature":"9","num_nodes":"35","size_leaf_vector":"1"}},{"base_weights":[-2.2772262E-2,3.0487818E-1,-9.002097E-2,-8.973497E-2,5.7592803E-1,6.2176883E-1,-8.600811E-2,-1.9040224E-1,6.297898E-1,-4.9114725E-1,5.4248054E-2,9.6908027E-1,6.0681564E-1,-3.870875E-3,-6.9200146E-1,6.6190445E-1,1.1025599E0,2.7536005E-1,6.2828165E-1,-7.169708E-2,-1.1811879E-2,2.1397887E-2,6.4862445E-2,6.872988E-2,1.0770726E-1,3.5772465E-2,-5.1125493E-3,1.2578683E-1,4.439971E-2],"categories":[],"categories_nodes":[],"categories_segments":[],"categories_sizes":[],"default_left":[0,0,0,0,0,0,0,0,0,0,0,0,0,0,0,0,0,0,0,0,0,0,0,0,0,0,0,0,0],"id":9,"left_children":[1,3,-1,-1,5,7,-1,9,11,13,-1,15,17,-1,19,21,23,25,27,-1,-1,-1,-1,-1,-1,-1,-1,-1,-1],"loss_changes":[4.0682895E2,3.3640952E2,0E0,0E0,5.595259E1,4.5628357E0,0E0,2.399046E0,4.6780396E0,5.108707E-1,0E0,9.582138E-1,4.3479767E0,0E0,4.3762434E-1,8.9751005E-1,3.726349E-1,2.8324623E0,2.1689636E1,0E0,0E0,0E0,0E0,0E0,0E0,0E0,0E0,0E0,0E0],"parents":[2147483647,0,0,1,1,4,4,5,5,7,7,8,8,9,9,11,11,12,12,14,14,15,15,16,16,17,17,18,18],"right_children":[2,4,-1,-1,6,8,-1,10,12,14,-1,16,18,-1,20,22,24,26,28,-1,-1,-1,-1,-1,-1,-1,-1,-1,-1],"split_conditions":[5E0,9.4404E4,-9.002097E-2,-8.973497E-2,9.4537E4,3E0,-8.600811E-2,7E0,1.29102E5,2E0,5.4248054E-2,8E0,1.8E1,-3.870875E-3,1.9E1,2.9E1,4E1,6E0,2.1E1,-7.169708E-2,-1.1811879E-2,2.1397887E-2,6.4862445E-2,6.872988E-2,1.0770726E-1,3.5772465E-2,-5.1125493E-3,1.2578683E-1,4.439971E-2],"split_indices":[2,7,0,0,7,4,0,6,3,4,0,8,1,0,5,1,1,6,1,0,0,0,0,0,0,0,0,0,0],"split_type":[0,0,0,0,0,0,0,0,0,0,0,0,0,0,0,0,0,0,0,0,0,0,0,0,0,0,0,0,0],"sum_hessian":[1.0525294E3,8.2398914E2,2.2854022E2,1.25489426E2,6.9849976E2,6.810171E2,1.7482668E1,6.4375663E0,6.745795E2,5.191325E0,1.2462413E0,4.016905E1,6.3441046E2,2.0224643E0,3.168861E0,1.3972677E1,2.619637E1,3.9428253E1,5.949822E2,1.5934684E0,1.5753925E0,5.73516E0,8.237517E0,1.9217659E1,6.978709E0,2.460176E1,1.4826492E1,1.8382885E1,5.765993E2],"tree_param":{"num_deleted":"0","num_feature":"9","num_nodes":"29","size_leaf_vector":"1"}},{"base_weights":[-2.2285013E-2,2.849135E-1,-8.867565E-2,-8.8376075E-2,5.342716E-1,5.761704E-1,-8.449867E-2,6.7560494E-1,5.0841147E-1,5.2071255E-1,7.4908245E-1,6.850913E-1,4.3477944E-1,4.482406E-1,9.7475994E-1,5.752115E-1,8.189456E-1,7.415678E-1,-6.7837906E-1,3.6417034E-1,7.055039E-1,1.6245546E-2,4.3990005E-2,9.3724966E-2,2.9729944E-2,6.0282696E-2,1.7352942E-2,4.9843807E-2,8.645475E-2,-7.880117E-2,5.7792008E-2,2.334526E-2,-1.0382786E-1,9.959701E-3,3.7437107E-2,6.5700926E-2,2.8008992E-2],"categories":[],"categories_nodes":[],"categories_segments":[],"categories_sizes":[],"default_left":[0,0,0,0,0,0,0,0,0,0,0,0,0,0,0,0,0,0,0,0,0,0,0,0,0,0,0,0,0,0,0,0,0,0,0,0,0],"id":10,"left_children":[1,3,-1,-1,5,7,-1,9,11,13,15,17,19,21,23,25,27,29,31,33,35,-1,-1,-1,-1,-1,-1,-1,-1,-1,-1,-1,-1,-1,-1,-1,-1],"loss_changes":[3.678887E2,2.9845926E2,0E0,0E0,4.922966E1,4.248703E0,0E0,2.7190704E0,5.028038E0,2.5632915E0,1.7519379E0,9.642689E0,5.3191414E0,2.4509125E0,1.3646345E0,4.2004814E0,5.838722E0,6.7564735E0,4.094117E0,7.2244396E0,3.0288658E0,0E0,0E0,0E0,0E0,0E0,0E0,0E0,0E0,0E0,0E0,0E0,0E0,0E0,0E0,0E0,0E0],"parents":[2147483647,0,0,1,1,4,4,5,5,7,7,8,8,9,9,10,10,11,11,12,12,13,13,14,14,15,15,16,16,17,17,18,18,19,19,20,20],"right_children":[2,4,-1,-1,6,8,-1,10,12,14,16,18,20,22,24,26,28,30,32,34,36,-1,-1,-1,-1,-1,-1,-1,-1,-1,-1,-1,-1,-1,-1,-1,-1],"split_conditions":[5E0,9.4404E4,-8.867565E-2,-8.8376075E-2,9.4537E4,5.050505E1,-8.449867E-2,1E1,9E0,1.83086E5,2.7E1,1.5E1,3.9E1,1.2E1,3.7E1,2E1,2E1,5.3333332E1,9.117647E1,8.784314E1,9.4117645E1,1.6245546E-2,4.3990005E-2,9.3724966E-2,2.9729944E-2,6.0282696E-2,1.7352942E-2,4.9843807E-2,8.645475E-2,-7.880117E-2,5.7792008E-2,2.334526E-2,-1.0382786E-1,9.959701E-3,3.7437107E-2,6.5700926E-2,2.8008992E-2],"split_indices":[2,7,0,0,7,8,0,0,5,3,1,6,1,5,1,5,5,8,8,8,8,0,0,0,0,0,0,0,0,0,0,0,0,0,0,0,0],"split_type":[0,0,0,0,0,0,0,0,0,0,0,0,0,0,0,0,0,0,0,0,0,0,0,0,0,0,0,0,0,0,0,0,0,0,0,0,0],"sum_hessian":[1.0303835E3,8.152491E2,2.1513441E2,1.1815819E2,6.9709094E2,6.805757E2,1.651526E1,2.72183E2,4.0839264E2,9.017619E1,1.8200682E2,1.1769042E2,2.9070224E2,7.9477715E1,1.06984825E1,5.4816467E1,1.2719035E2,1.13447426E2,4.2429996E0,2.324269E2,5.8275326E1,3.0671238E1,4.8806473E1,6.464889E0,4.2335935E0,3.212476E1,2.2691706E1,8.9015434E1,3.8174923E1,1.2449808E0,1.1220244E2,1.9993892E0,2.2436104E0,8.637098E1,1.4605592E2,3.7421272E1,2.0854055E1],"tree_param":{"num_deleted":"0","num_feature":"9","num_nodes":"37","size_leaf_vector":"1"}},{"base_weights":[-2.1771505E-2,2.6641002E-1,-8.7459974E-2,-8.714514E-2,4.9608386E-1,5.344493E-1,-8.309929E-2,8.445361E-1,5.134243E-1,7.001896E-1,1.1484816E0,6.158721E-1,4.465085E-1,8.962638E-1,5.753323E-1,6.656198E-1,9.8021574E-2,3.6846623E-1,6.762942E-1,5.2610624E-1,2.784416E-1,8.5935265E-2,4.1503407E-2,8.9707464E-2,3.4555323E-2,2.1098092E-2,7.564507E-2,5.3900097E-2,7.823881E-3,3.4802165E-2,5.6126803E-2,4.2023323E-2,1.2437607E-2,6.9746524E-2,1.5136015E-2],"categories":[],"categories_nodes":[],"categories_segments":[],"categories_sizes":[],"default_left":[0,0,0,0,0,0,0,0,0,0,0,0,0,0,0,0,0,0,0,0,0,0,0,0,0,0,0,0,0,0,0,0,0,0,0],"id":11,"left_children":[1,3,-1,-1,5,7,-1,9,11,13,15,17,19,21,23,25,-1,27,29,31,33,-1,-1,-1,-1,-1,-1,-1,-1,-1,-1,-1,-1,-1,-1],"loss_changes":[3.3323703E2,2.6540036E2,0E0,0E0,4.3433E1,4.0032806E0,0E0,1.0237484E0,4.111664E0,2.3861313E-1,3.7080765E-2,3.490738E0,5.0802307E0,2.3814869E-1,9.866028E-1,3.7095356E-1,0E0,4.6709356E0,2.710205E0,3.1604538E0,6.1873055E0,0E0,0E0,0E0,0E0,0E0,0E0,0E0,0E0,0E0,0E0,0E0,0E0,0E0,0E0],"parents":[2147483647,0,0,1,1,4,4,5,5,7,7,8,8,9,9,10,10,11,11,12,12,13,13,14,14,15,15,17,17,18,18,19,19,20,20],"right_children":[2,4,-1,-1,6,8,-1,10,12,14,16,18,20,22,24,26,-1,28,30,32,34,-1,-1,-1,-1,-1,-1,-1,-1,-1,-1,-1,-1,-1,-1],"split_conditions":[5E0,9.4404E4,-8.7459974E-2,-8.714514E-2,9.4537E4,1.29102E5,-8.309929E-2,4E1,4.8E1,1E1,6.8965516E0,1.39541E5,2.1E1,9E0,2.1E1,5.2E1,9.8021574E-2,1.34122E5,9E0,1.98318E5,5E0,8.5935265E-2,4.1503407E-2,8.9707464E-2,3.4555323E-2,2.1098092E-2,7.564507E-2,5.3900097E-2,7.823881E-3,3.4802165E-2,5.6126803E-2,4.2023323E-2,1.2437607E-2,6.9746524E-2,1.5136015E-2],"split_indices":[2,7,0,0,7,3,0,1,8,0,8,3,5,5,1,1,0,3,5,3,6,0,0,0,0,0,0,0,0,0,0,0,0,0,0],"split_type":[0,0,0,0,0,0,0,0,0,0,0,0,0,0,0,0,0,0,0,0,0,0,0,0,0,0,0,0,0,0,0,0,0,0,0],"sum_hessian":[1.00852905E3,8.062583E2,2.022707E2,1.1112308E2,6.9513525E2,6.7954895E2,1.5586285E1,4.0663036E1,6.388859E2,2.9809769E1,1.0853267E1,2.4918333E2,3.897026E2,9.19374E0,2.0616028E1,3.9667902E0,6.886477E0,5.0304306E1,1.9887904E2,2.6300916E2,1.2669344E2,3.965866E0,5.2278733E0,1.7419742E0,1.8874054E1,2.7290554E0,1.2377349E0,2.0889172E1,2.9415133E1,5.2291428E1,1.465876E2,2.3969675E2,2.3312405E1,1.2161053E1,1.14532394E2],"tree_param":{"num_deleted":"0","num_feature":"9","num_nodes":"35","size_leaf_vector":"1"}},{"base_weights":[-2.0931376E-2,2.4960542E-1,-8.635812E-2,-8.6026296E-2,4.6143773E-1,4.9663815E-1,-8.179458E-2,-2.4023834E-1,5.0411224E-1,-5.228805E-1,4.8867162E-2,8.142033E-1,4.833388E-1,-1.7005827E-1,-5.9237204E-2,5.366629E-1,9.375864E-1,7.086258E-1,4.5415106E-1,4.1940775E-2,-4.9680967E-2,1.4168806E-2,5.5060446E-2,5.810812E-2,9.278444E-2,5.622056E-2,-4.341203E-2,3.2862276E-2,7.153095E-2],"categories":[],"categories_nodes":[],"categories_segments":[],"categories_sizes":[],"default_left":[0,0,0,0,0,0,0,0,0,0,0,0,0,0,0,0,0,0,0,0,0,0,0,0,0,0,0,0,0],"id":12,"left_children":[1,3,-1,-1,5,7,-1,9,11,13,-1,15,17,19,-1,21,23,25,27,-1,-1,-1,-1,-1,-1,-1,-1,-1,-1],"loss_changes":[3.0248245E2,2.3664613E2,0E0,0E0,3.844005E1,3.8607178E0,0E0,2.2299287E0,3.9385376E0,4.53982E-1,0E0,8.92704E-1,3.8388824E0,1.7940067E0,0E0,8.8336134E-1,3.5238457E-1,4.1689186E0,4.07856E0,0E0,0E0,0E0,0E0,0E0,0E0,0E0,0E0,0E0,0E0],"parents":[2147483647,0,0,1,1,4,4,5,5,7,7,8,8,9,9,11,11,12,12,13,13,15,15,16,16,17,17,18,18],"right_children":[2,4,-1,-1,6,8,-1,10,12,14,-1,16,18,20,-1,22,24,26,28,-1,-1,-1,-1,-1,-1,-1,-1,-1,-1],"split_conditions":[5E0,9.4404E4,-8.635812E-2,-8.6026296E-2,9.4537E4,3E0,-8.179458E-2,7E0,1.29102E5,6E0,4.8867162E-2,8E0,4E0,2.7E1,-5.9237204E-2,2.9E1,4E1,1.98318E5,2.3E1,4.1940775E-2,-4.9680967E-2,1.4168806E-2,5.5060446E-2,5.810812E-2,9.278444E-2,5.622056E-2,-4.341203E-2,3.2862276E-2,7.153095E-2],"split_indices":[2,7,0,0,7,4,0,6,3,6,0,8,6,1,0,1,1,3,5,0,0,0,0,0,0,0,0,0,0],"split_type":[0,0,0,0,0,0,0,0,0,0,0,0,0,0,0,0,0,0,0,0,0,0,0,0,0,0,0,0,0],"sum_hessian":[9.8706726E2,7.970971E2,1.8997015E2,1.04395676E2,6.927015E2,6.780042E2,1.469727E1,6.495186E0,6.71509E2,5.246174E0,1.2490125E0,3.9762844E1,6.3174615E2,2.9647512E0,2.2814224E0,1.388322E1,2.5879625E1,6.9790016E1,5.619561E2,1.140166E0,1.8245852E0,5.7371173E0,8.146103E0,1.9090006E1,6.7896185E0,6.804189E1,1.7481213E0,5.4634955E2,1.5606572E1],"tree_param":{"num_deleted":"0","num_feature":"9","num_nodes":"29","size_leaf_vector":"1"}},{"base_weights":[-2.0523464E-2,2.3334101E-1,-8.535651E-2,-8.500595E-2,4.2873624E-1,4.6105438E-1,-8.0571316E-2,5.512065E-1,4.0025625E-1,4.047654E-1,6.215319E-1,5.5834746E-1,3.349336E-1,3.3617142E-1,8.4486526E-1,4.5700222E-1,6.8891937E-1,6.1161965E-1,-7.045555E-1,2.7805245E-1,6.2554526E-1,9.360022E-3,3.487711E-2,8.325197E-2,2.3032468E-2,6.451132E-2,2.0168923E-2,4.0840708E-2,7.546153E-2,-7.820729E-2,4.7940407E-2,1.8491836E-2,-1.02344856E-1,-2.4071677E-2,2.3804875E-2,8.2759015E-2,3.1562526E-2],"categories":[],"categories_nodes":[],"categories_segments":[],"categories_sizes":[],"default_left":[0,0,0,0,0,0,0,0,0,0,0,0,0,0,0,0,0,0,0,0,0,0,0,0,0,0,0,0,0,0,0,0,0,0,0,0,0],"id":13,"left_children":[1,3,-1,-1,5,7,-1,9,11,13,15,17,19,21,23,25,27,29,31,33,35,-1,-1,-1,-1,-1,-1,-1,-1,-1,-1,-1,-1,-1,-1,-1,-1],"loss_changes":[2.7472412E2,2.112337E2,0E0,0E0,3.406862E1,3.491806E0,0E0,2.5305862E0,4.028099E0,2.4483814E0,1.6879501E0,8.359066E0,4.6417503E0,2.1200228E0,1.3052387E0,3.9738426E0,5.2313385E0,5.851303E0,3.622454E0,5.8864613E0,4.122719E0,0E0,0E0,0E0,0E0,0E0,0E0,0E0,0E0,0E0,0E0,0E0,0E0,0E0,0E0,0E0,0E0],"parents":[2147483647,0,0,1,1,4,4,5,5,7,7,8,8,9,9,10,10,11,11,12,12,13,13,14,14,15,15,16,16,17,17,18,18,19,19,20,20],"right_children":[2,4,-1,-1,6,8,-1,10,12,14,16,18,20,22,24,26,28,30,32,34,36,-1,-1,-1,-1,-1,-1,-1,-1,-1,-1,-1,-1,-1,-1,-1,-1],"split_conditions":[5E0,9.4404E4,-8.535651E-2,-8.500595E-2,9.4537E4,5.050505E1,-8.0571316E-2,1E1,9E0,1.83086E5,2.7E1,1.5E1,4.1E1,1.2E1,3.7E1,2.1E1,2E1,5.3333332E1,9.117647E1,6.25E1,7.9411766E1,9.360022E-3,3.487711E-2,8.325197E-2,2.3032468E-2,6.451132E-2,2.0168923E-2,4.0840708E-2,7.546153E-2,-7.820729E-2,4.7940407E-2,1.8491836E-2,-1.02344856E-1,-2.4071677E-2,2.3804875E-2,8.2759015E-2,3.1562526E-2],"split_indices":[2,7,0,0,7,8,0,0,5,3,1,6,1,5,1,1,5,8,8,8,8,0,0,0,0,0,0,0,0,0,0,0,0,0,0,0,0],"split_type":[0,0,0,0,0,0,0,0,0,0,0,0,0,0,0,0,0,0,0,0,0,0,0,0,0,0,0,0,0,0,0,0,0,0,0,0,0],"sum_hessian":[9.663924E2,7.881486E2,1.7824377E2,9.7981995E1,6.901666E2,6.763176E2,1.38490305E1,2.6915118E2,4.0716644E2,8.95122E1,1.7963898E2,1.16842186E2,2.9032425E2,7.896809E1,1.0544115E1,5.4458286E1,1.2518068E2,1.1260783E2,4.2343597E0,2.444375E2,4.5886753E1,3.0653646E1,4.8314438E1,6.3492756E0,4.19484E0,1.61876E1,3.8270687E1,8.789519E1,3.7285492E1,1.2432979E0,1.11364525E2,1.9913294E0,2.2430303E0,1.4625103E1,2.298124E2,1.2444421E1,3.3442333E1],"tree_param":{"num_deleted":"0","num_feature":"9","num_nodes":"37","size_leaf_vector":"1"}},{"base_weights":[-2.0042613E-2,2.183218E-1,-8.4443524E-2,-8.40724E-2,3.987996E-1,4.2853218E-1,-7.941801E-2,7.163868E-1,4.0927786E-1,5.8530694E-1,1.0011744E0,1.1320404E-1,4.298757E-1,7.850732E-1,4.6350092E-1,5.6791186E-1,8.61529E-2,-7.452383E-2,5.109682E-1,1.1212641E-1,3.9518544E-1,7.719708E-2,3.4912262E-2,8.232744E-2,2.6442124E-2,1.5098555E-2,6.932469E-2,1.3782322E-2,-2.8422074E-2,5.417322E-2,-7.2403685E-3,2.8540472E-2,6.954965E-2],"categories":[],"categories_nodes":[],"categories_segments":[],"categories_sizes":[],"default_left":[0,0,0,0,0,0,0,0,0,0,0,0,0,0,0,0,0,0,0,0,0,0,0,0,0,0,0,0,0,0,0,0,0],"id":14,"left_children":[1,3,-1,-1,5,7,-1,9,11,13,15,17,19,21,23,25,-1,27,29,-1,31,-1,-1,-1,-1,-1,-1,-1,-1,-1,-1,-1,-1],"loss_changes":[2.4988524E2,1.8896841E2,0E0,0E0,3.0275215E1,3.4480515E0,0E0,9.4407845E-1,3.824051E0,3.7768364E-1,8.346462E-2,3.2237754E0,2.133416E1,3.0933666E-1,1.1167884E0,4.544233E-1,0E0,2.4173281E0,1.8423495E0,0E0,4.136368E0,0E0,0E0,0E0,0E0,0E0,0E0,0E0,0E0,0E0,0E0,0E0,0E0],"parents":[2147483647,0,0,1,1,4,4,5,5,7,7,8,8,9,9,10,10,11,11,12,12,13,13,14,14,15,15,17,17,18,18,20,20],"right_children":[2,4,-1,-1,6,8,-1,10,12,14,16,18,20,22,24,26,-1,28,30,-1,32,-1,-1,-1,-1,-1,-1,-1,-1,-1,-1,-1,-1],"split_conditions":[5E0,9.4404E4,-8.4443524E-2,-8.40724E-2,9.4537E4,1.29102E5,-7.941801E-2,4E1,1.8E1,1E1,6.8965516E0,1.60892E5,2.1E1,9E0,2.1E1,5.2E1,8.61529E-2,1.40683E5,1.4E1,1.1212641E-1,2.3E1,7.719708E-2,3.4912262E-2,8.232744E-2,2.6442124E-2,1.5098555E-2,6.932469E-2,1.3782322E-2,-2.8422074E-2,5.417322E-2,-7.2403685E-3,2.8540472E-2,6.954965E-2],"split_indices":[2,7,0,0,7,3,0,1,1,0,8,3,1,5,1,1,0,3,6,0,5,0,0,0,0,0,0,0,0,0,0,0,0],"split_type":[0,0,0,0,0,0,0,0,0,0,0,0,0,0,0,0,0,0,0,0,0,0,0,0,0,0,0,0,0,0,0,0,0],"sum_hessian":[9.460377E2,7.7894336E2,1.6709436E2,9.188361E1,6.870597E2,6.7401794E2,1.3041803E1,3.9987846E1,6.340301E2,2.9476068E1,1.0511779E1,4.1662853E1,5.9236725E2,9.102449E0,2.037362E1,3.9019973E0,6.6097813E0,2.8856466E1,1.2806388E1,1.735631E1,5.750109E2,3.900709E0,5.2017403E0,1.7090473E0,1.8664572E1,2.6949239E0,1.2070733E0,1.5825933E1,1.3030532E1,9.360909E0,3.4454784E0,5.612783E2,1.3732594E1],"tree_param":{"num_deleted":"0","num_feature":"9","num_nodes":"33","size_leaf_vector":"1"}},{"base_weights":[-1.9226525E-2,2.0463748E-1,-8.360909E-2,-8.321555E-2,3.7147182E-1,3.9886427E-1,-7.832465E-2,-2.717361E-1,4.0582162E-1,-5.3803253E-1,4.4467874E-2,6.9429034E-1,3.867838E-1,9.726439E-4,-6.6849524E-1,4.3753365E-1,8.115685E-1,6.0025305E-1,3.5932392E-1,-7.965987E-3,-7.634482E-2,8.533661E-3,4.7278948E-2,4.977687E-2,8.213256E-2,4.7948718E-2,-4.4135857E-2,3.335866E-2,2.1346986E-2],"categories":[],"categories_nodes":[],"categories_segments":[],"categories_sizes":[],"default_left":[0,0,0,0,0,0,0,0,0,0,0,0,0,0,0,0,0,0,0,0,0,0,0,0,0,0,0,0,0],"id":15,"left_children":[1,3,-1,-1,5,7,-1,9,11,13,-1,15,17,-1,19,21,23,25,27,-1,-1,-1,-1,-1,-1,-1,-1,-1,-1],"loss_changes":[2.2769841E2,1.6944513E2,0E0,0E0,2.6977013E1,3.2483063E0,0E0,2.047093E0,3.3894424E0,4.588344E-1,0E0,8.4877014E-1,3.4602737E0,0E0,8.90486E-1,8.4641457E-1,3.7481117E-1,3.6258965E0,3.4361649E0,0E0,0E0,0E0,0E0,0E0,0E0,0E0,0E0,0E0,0E0],"parents":[2147483647,0,0,1,1,4,4,5,5,7,7,8,8,9,9,11,11,12,12,14,14,15,15,16,16,17,17,18,18],"right_children":[2,4,-1,-1,6,8,-1,10,12,14,-1,16,18,-1,20,22,24,26,28,-1,-1,-1,-1,-1,-1,-1,-1,-1,-1],"split_conditions":[5E0,9.4404E4,-8.360909E-2,-8.321555E-2,9.4537E4,3E0,-7.832465E-2,7E0,1.29102E5,5.7142857E1,4.4467874E-2,8E0,4E0,9.726439E-4,2.7E1,2.9E1,4E1,1.98318E5,1.43236E5,-7.965987E-3,-7.634482E-2,8.533661E-3,4.7278948E-2,4.977687E-2,8.213256E-2,4.7948718E-2,-4.4135857E-2,3.335866E-2,2.1346986E-2],"split_indices":[2,7,0,0,7,4,0,6,3,8,0,8,6,0,1,1,1,3,3,0,0,0,0,0,0,0,0,0,0],"split_type":[0,0,0,0,0,0,0,0,0,0,0,0,0,0,0,0,0,0,0,0,0,0,0,0,0,0,0,0,0],"sum_hessian":[9.264782E2,7.699599E2,1.5651831E2,8.6098564E1,6.838613E2,6.71586E2,1.2275357E1,6.5052524E0,6.6508075E2,5.262286E0,1.2429663E0,3.8979416E1,6.261013E2,1.1798515E0,4.0824347E0,1.3705265E1,2.5274149E1,6.898245E1,5.571189E2,2.0644512E0,2.0179834E0,5.709842E0,7.995423E0,1.8806414E1,6.4677353E0,6.723521E1,1.7472421E0,2.5753244E2,2.9958643E2],"tree_param":{"num_deleted":"0","num_feature":"9","num_nodes":"29","size_leaf_vector":"1"}},{"base_weights":[-1.8893622E-2,1.911922E-1,-8.284443E-2,-8.242651E-2,3.4537795E-1,3.7062326E-1,-7.728249E-2,4.581636E-1,3.1216452E-1,3.1949604E-1,5.255067E-1,3.8049704E-1,1.7163E-1,2.3916632E-1,6.748595E-1,3.3966088E-1,5.823566E-1,3.9302933E-1,-4.1788378E-1,8.591939E-2,6.5047747E-1,2.3436233E-2,-1.9534618E-2,7.46616E-2,2.1144297E-2,4.892552E-2,-5.99651E-3,2.4885194E-2,5.1448572E-2,1.585856E-2,3.450215E-2,1.9167192E-2,-5.520265E-2,1.5356153E-3,3.8749076E-2,7.025463E-2,8.208767E-3],"categories":[],"categories_nodes":[],"categories_segments":[],"categories_sizes":[],"default_left":[0,0,0,0,0,0,0,0,0,0,0,0,0,0,0,0,0,0,0,0,0,0,0,0,0,0,0,0,0,0,0,0,0,0,0,0,0],"id":16,"left_children":[1,3,-1,-1,5,7,-1,9,11,13,15,17,19,21,23,25,27,29,31,33,35,-1,-1,-1,-1,-1,-1,-1,-1,-1,-1,-1,-1,-1,-1,-1,-1],"loss_changes":[2.0752083E2,1.5204317E2,0E0,0E0,2.4061516E1,3.2868118E0,0E0,2.318142E0,3.8239098E0,2.3956509E0,1.6790657E0,2.882515E0,5.4569006E0,2.8144178E0,1.7308908E0,5.8266735E0,3.2679138E0,3.1630974E0,1.1915405E0,3.233427E0,3.0320454E0,0E0,0E0,0E0,0E0,0E0,0E0,0E0,0E0,0E0,0E0,0E0,0E0,0E0,0E0,0E0,0E0],"parents":[2147483647,0,0,1,1,4,4,5,5,7,7,8,8,9,9,10,10,11,11,12,12,13,13,14,14,15,15,16,16,17,17,18,18,19,19,20,20],"right_children":[2,4,-1,-1,6,8,-1,10,12,14,16,18,20,22,24,26,28,30,32,34,36,-1,-1,-1,-1,-1,-1,-1,-1,-1,-1,-1,-1,-1,-1,-1,-1],"split_conditions":[5E0,9.4404E4,-8.284443E-2,-8.242651E-2,9.4537E4,5.050505E1,-7.728249E-2,1E1,2.1E1,1.74343E5,1.38471E5,2.00153E5,1.85361E5,1.59772E5,3.3E1,1.34122E5,2.7E1,2.5E1,2.5E1,4.1E1,3.2E1,2.3436233E-2,-1.9534618E-2,7.46616E-2,2.1144297E-2,4.892552E-2,-5.99651E-3,2.4885194E-2,5.1448572E-2,1.585856E-2,3.450215E-2,1.9167192E-2,-5.520265E-2,1.5356153E-3,3.8749076E-2,7.025463E-2,8.208767E-3],"split_indices":[2,7,0,0,7,8,0,0,5,3,3,3,3,3,1,3,1,1,1,1,1,0,0,0,0,0,0,0,0,0,0,0,0,0,0,0,0],"split_type":[0,0,0,0,0,0,0,0,0,0,0,0,0,0,0,0,0,0,0,0,0,0,0,0,0,0,0,0,0,0,0,0,0,0,0,0,0],"sum_hessian":[9.078945E2,7.613877E2,1.465068E2,8.062203E1,6.807657E2,6.6921655E2,1.1549103E1,2.6521988E2,4.0399667E2,8.857584E1,1.7664404E2,2.7067703E2,1.3331964E2,7.360948E1,1.4966361E1,4.3011497E1,1.3363254E2,2.669937E2,3.683314E0,1.1407957E2,1.9240076E1,6.451669E1,9.092791E0,7.3970437E0,7.5693173E0,2.4328375E1,1.8683123E1,4.032717E1,9.3305374E1,7.308212E1,1.9391159E2,1.2449008E0,2.4384131E0,9.994219E1,1.413737E1,1.2104399E1,7.1356783E0],"tree_param":{"num_deleted":"0","num_feature":"9","num_nodes":"37","size_leaf_vector":"1"}},{"base_weights":[-1.8358076E-2,1.7889266E-1,-8.214188E-2,-8.169757E-2,3.2155982E-1,3.4486997E-1,-7.628381E-2,3.329802E-1,7.535606E-1,3.5024008E-1,-5.332455E-3,-1.2986135E-2,8.9481086E-1,3.576418E-1,-3.8964194E-1,-2.8147292E-1,6.064416E-1,9.300085E-2,4.8471582E-1,-2.271356E-2,2.7437238E-2,-7.37082E-2,-5.348431E-3,2.632854E-2,-4.3759715E-2,7.174745E-2,-1.6770573E-2,-1.4179471E-2,7.3422E-2],"categories":[],"categories_nodes":[],"categories_segments":[],"categories_sizes":[],"default_left":[0,0,0,0,0,0,0,0,0,0,0,0,0,0,0,0,0,0,0,0,0,0,0,0,0,0,0,0,0],"id":17,"left_children":[1,3,-1,-1,5,7,-1,9,11,13,15,-1,17,19,21,23,25,-1,27,-1,-1,-1,-1,-1,-1,-1,-1,-1,-1],"loss_changes":[1.8941153E2,1.3672498E2,0E0,0E0,2.1516922E1,2.9923172E0,0E0,3.7994614E0,2.5211306E0,3.52816E0,5.6702533E0,0E0,1.6424589E0,3.4270248E0,1.1775322E0,4.6197166E0,3.2489474E0,0E0,3.1438382E0,0E0,0E0,0E0,0E0,0E0,0E0,0E0,0E0,0E0,0E0],"parents":[2147483647,0,0,1,1,4,4,5,5,7,7,8,8,9,9,10,10,12,12,13,13,14,14,15,15,16,16,18,18],"right_children":[2,4,-1,-1,6,8,-1,10,12,14,16,-1,18,20,22,24,26,-1,28,-1,-1,-1,-1,-1,-1,-1,-1,-1,-1],"split_conditions":[5E0,9.4404E4,-8.214188E-2,-8.169757E-2,9.4537E4,2.3E1,-7.628381E-2,2.2E1,1.8E1,2.00862E5,3.7E1,-1.2986135E-2,1.43608E5,8E0,5E0,1E1,4.8E1,9.300085E-2,1.75683E5,-2.271356E-2,2.7437238E-2,-7.37082E-2,-5.348431E-3,2.632854E-2,-4.3759715E-2,7.174745E-2,-1.6770573E-2,-1.4179471E-2,7.3422E-2],"split_indices":[2,7,0,0,7,5,0,5,1,3,1,0,3,0,5,0,1,0,3,0,0,0,0,0,0,0,0,0,0],"split_type":[0,0,0,0,0,0,0,0,0,0,0,0,0,0,0,0,0,0,0,0,0,0,0,0,0,0,0,0,0],"sum_hessian":[8.897918E2,7.5274475E2,1.3704707E2,7.5447075E1,6.7729767E2,6.664355E2,1.0862155E1,6.493588E2,1.7076656E1,6.178047E2,3.1554163E1,2.2287214E0,1.4847935E1,6.1219696E2,5.6077156E0,2.211285E1,9.441314E0,6.963034E0,7.8849006E0,7.0557704E0,6.051412E2,1.2295119E0,4.378204E0,7.093343E0,1.5019506E1,6.532714E0,2.9085999E0,3.5977569E0,4.2871437E0],"tree_param":{"num_deleted":"0","num_feature":"9","num_nodes":"29","size_leaf_vector":"1"}},{"base_weights":[-1.8102555E-2,1.6693129E-1,-8.149473E-2,-8.102186E-2,2.9888487E-1,3.2041144E-1,-7.532182E-2,3.949455E-1,2.585947E-1,3.6230135E-1,1.148786E0,-1.0076908E0,2.734077E-1,4.036851E-1,-6.5734304E-2,8.926919E-3,1.2539244E0,-1.1179315E-1,1.0679951E-2,3.443461E-1,1.276961E-1,2.0472191E-2,3.5076685E-2,-6.1156888E-2,2.7992427E-3,3.275679E-2,1.0354841E-1,3.4092832E-2,1.7806828E-2,3.4739687E-3,4.327533E-2],"categories":[],"categories_nodes":[],"categories_segments":[],"categories_sizes":[],"default_left":[0,0,0,0,0,0,0,0,0,0,0,0,0,0,0,0,0,0,0,0,0,0,0,0,0,0,0,0,0,0,0],"id":18,"left_children":[1,3,-1,-1,5,7,-1,9,11,13,15,17,19,21,23,-1,25,-1,-1,27,29,-1,-1,-1,-1,-1,-1,-1,-1,-1,-1],"loss_changes":[1.7294907E2,1.2305203E2,0E0,0E0,1.9262177E1,2.961609E0,0E0,6.955757E0,7.147938E0,5.1386566E0,1.1470814E0,2.683504E0,3.7075024E0,2.075264E0,2.0625992E0,0E0,5.1114655E-1,0E0,0E0,2.761917E0,4.3764157E0,0E0,0E0,0E0,0E0,0E0,0E0,0E0,0E0,0E0,0E0],"parents":[2147483647,0,0,1,1,4,4,5,5,7,7,8,8,9,9,10,10,11,11,12,12,13,13,14,14,16,16,19,19,20,20],"right_children":[2,4,-1,-1,6,8,-1,10,12,14,16,18,20,22,24,-1,26,-1,-1,28,30,-1,-1,-1,-1,-1,-1,-1,-1,-1,-1],"split_conditions":[5E0,9.4404E4,-8.149473E-2,-8.102186E-2,9.4537E4,6.75E1,-7.532182E-2,6.27451E1,6.8809525E1,5.050505E1,4E0,1E1,2.1E1,1E1,5E0,8.926919E-3,1.39544E5,-1.1179315E-1,1.0679951E-2,1.43236E5,1.85361E5,2.0472191E-2,3.5076685E-2,-6.1156888E-2,2.7992427E-3,3.275679E-2,1.0354841E-1,3.4092832E-2,1.7806828E-2,3.4739687E-3,4.327533E-2],"split_indices":[2,7,0,0,7,8,0,8,8,8,5,6,5,0,5,0,3,0,0,3,3,0,0,0,0,0,0,0,0,0,0],"split_type":[0,0,0,0,0,0,0,0,0,0,0,0,0,0,0,0,0,0,0,0,0,0,0,0,0,0,0,0,0,0,0],"sum_hessian":[8.728549E2,7.4473157E2,1.2812332E2,7.056507E1,6.741665E2,6.6395306E2,1.0213412E1,2.985703E2,3.6538278E2,2.875969E2,1.0973423E1,3.449806E0,3.6193298E2,2.622944E2,2.5302494E1,1.2141097E0,9.759314E0,2.2211628E0,1.2286432E0,2.4250726E2,1.1942572E2,8.794313E1,1.7435126E2,2.222514E0,2.3079979E1,1.9072056E0,7.852108E0,1.1780813E2,1.2469913E2,1.0204663E2,1.7379093E1],"tree_param":{"num_deleted":"0","num_feature":"9","num_nodes":"31","size_leaf_vector":"1"}},{"base_weights":[-1.7772468E-2,1.5583496E-1,-8.089698E-2,-8.0393314E-2,2.7798703E-1,2.978974E-1,-7.4390486E-2,5.669318E-1,2.8031933E-1,4.4698012E-1,8.426957E-1,4.8495498E-1,2.5442597E-1,6.6021204E-1,3.2438317E-1,4.5103696E-1,7.572879E-2,5.28835E-1,-5.0065182E-2,2.403727E-1,7.142265E-1,6.8256475E-2,2.6911033E-2,7.486986E-2,1.6110754E-2,5.2431885E-2,4.2381287E-3,1.4594759E-2,5.1871482E-2,1.937066E-2,-7.834132E-3,-1.9878016E-3,6.1553266E-2],"categories":[],"categories_nodes":[],"categories_segments":[],"categories_sizes":[],"default_left":[0,0,0,0,0,0,0,0,0,0,0,0,0,0,0,0,0,0,0,0,0,0,0,0,0,0,0,0,0,0,0,0,0],"id":19,"left_children":[1,3,-1,-1,5,7,-1,9,11,13,15,17,19,21,23,25,-1,27,-1,29,31,-1,-1,-1,-1,-1,-1,-1,-1,-1,-1,-1,-1],"loss_changes":[1.5809239E2,1.10941795E2,0E0,0E0,1.7280811E1,2.9726791E0,0E0,9.3438625E-1,3.1806831E0,5.6355E-1,2.5661278E-1,3.8391857E0,3.4186096E0,4.186244E-1,1.325515E0,4.558289E-1,0E0,3.5089188E0,0E0,3.3646355E0,1.2814903E0,0E0,0E0,0E0,0E0,0E0,0E0,0E0,0E0,0E0,0E0,0E0,0E0],"parents":[2147483647,0,0,1,1,4,4,5,5,7,7,8,8,9,9,10,10,11,11,12,12,13,13,14,14,15,15,17,17,19,19,20,20],"right_children":[2,4,-1,-1,6,8,-1,10,12,14,16,18,20,22,24,26,-1,28,-1,30,32,-1,-1,-1,-1,-1,-1,-1,-1,-1,-1,-1,-1],"split_conditions":[5E0,9.4404E4,-8.089698E-2,-8.0393314E-2,9.4537E4,1.29102E5,-7.4390486E-2,4E1,4E0,1E1,1E1,1.98318E5,2.3E1,9E0,2.1E1,1.4E1,7.572879E-2,1.43607E5,-5.0065182E-2,2.2E1,1.8E1,6.8256475E-2,2.6911033E-2,7.486986E-2,1.6110754E-2,5.2431885E-2,4.2381287E-3,1.4594759E-2,5.1871482E-2,1.937066E-2,-7.834132E-3,-1.9878016E-3,6.1553266E-2],"split_indices":[2,7,0,0,7,3,0,1,6,0,0,3,5,5,1,5,0,3,0,5,1,0,0,0,0,0,0,0,0,0,0,0,0],"split_type":[0,0,0,0,0,0,0,0,0,0,0,0,0,0,0,0,0,0,0,0,0,0,0,0,0,0,0,0,0,0,0,0,0],"sum_hessian":[8.564821E2,7.367646E2,1.197175E2,6.5966156E1,6.7079846E2,6.6119684E2,9.601614E0,3.8634804E1,6.22562E2,2.8750011E1,9.884791E0,6.79357E1,5.5462634E2,8.894556E0,1.9855457E1,4.061411E0,5.823381E0,6.596527E1,1.9704301E0,5.3965515E2,1.4971167E1,3.7587862E0,5.1357694E0,1.6426386E0,1.8212818E1,2.0196283E0,2.0417826E0,2.2323961E1,4.364131E1,5.1325885E2,2.6396317E1,1.976082E0,1.2995084E1],"tree_param":{"num_deleted":"0","num_feature":"9","num_nodes":"33","size_leaf_vector":"1"}},{"base_weights":[-1.7103724E-2,1.4573355E-1,-8.034337E-2,-7.980654E-2,2.588355E-1,2.7726573E-1,-7.3484465E-2,5.372961E-1,2.6037666E-1,2.9279363E-1,6.510982E-1,-4.27425E-3,2.7926815E-1,3.048058E-4,4.8269698E-1,8.8905476E-2,5.266721E-1,-1.739869E-1,3.6610705E-1,1.0305589E-1,2.4566269E-1,1.8682167E-2,-2.5713224E-2,4.8650417E-2,7.124672E-3,5.225645E-4,4.488057E-2,4.6652597E-3,-3.326079E-2,4.2294018E-2,-1.2635357E-2,-1.4007916E-3,2.012549E-2],"categories":[],"categories_nodes":[],"categories_segments":[],"categories_sizes":[],"default_left":[0,0,0,0,0,0,0,0,0,0,0,0,0,0,0,0,0,0,0,0,0,0,0,0,0,0,0,0,0,0,0,0,0],"id":20,"left_children":[1,3,-1,-1,5,7,-1,9,11,13,15,17,19,21,23,-1,25,27,29,-1,31,-1,-1,-1,-1,-1,-1,-1,-1,-1,-1,-1,-1],"loss_changes":[1.4472263E2,1.0021691E2,0E0,0E0,1.5538025E1,2.7574005E0,0E0,9.0276337E-1,3.10812E0,7.940296E-1,1.1040592E0,2.728184E0,2.1003063E1,6.513593E-1,4.9619794E-1,0E0,8.4907436E-1,1.9210029E0,1.5375857E0,0E0,3.3857994E0,0E0,0E0,0E0,0E0,0E0,0E0,0E0,0E0,0E0,0E0,0E0,0E0],"parents":[2147483647,0,0,1,1,4,4,5,5,7,7,8,8,9,9,10,10,11,11,12,12,13,13,14,14,16,16,17,17,18,18,20,20],"right_children":[2,4,-1,-1,6,8,-1,10,12,14,16,18,20,22,24,-1,26,28,30,-1,32,-1,-1,-1,-1,-1,-1,-1,-1,-1,-1,-1,-1],"split_conditions":[5E0,9.4404E4,-8.034337E-2,-7.980654E-2,9.4537E4,1.29102E5,-7.3484465E-2,8E0,1.8E1,2.9E1,2.6900585E1,1.60892E5,2.1E1,2.6E1,1.9E1,8.8905476E-2,6.787331E1,1.40683E5,1.4E1,1.0305589E-1,2.3E1,1.8682167E-2,-2.5713224E-2,4.8650417E-2,7.124672E-3,5.225645E-4,4.488057E-2,4.6652597E-3,-3.326079E-2,4.2294018E-2,-1.2635357E-2,-1.4007916E-3,2.012549E-2],"split_indices":[2,7,0,0,7,3,0,8,1,1,8,3,1,1,5,0,8,3,6,0,1,0,0,0,0,0,0,0,0,0,0,0,0],"split_type":[0,0,0,0,0,0,0,0,0,0,0,0,0,0,0,0,0,0,0,0,0,0,0,0,0,0,0,0,0,0,0,0,0],"sum_hessian":[8.411997E2,7.293898E2,1.1180991E2,6.16396E1,6.677502E2,6.5872485E2,9.025377E0,3.8295776E1,6.20429E2,1.3297998E1,2.499778E1,4.138871E1,5.7904034E2,5.629326E0,7.6686726E0,3.1111095E0,2.188667E1,2.874685E1,1.2641863E1,1.6056538E1,5.629838E2,3.4222183E0,2.2071075E0,4.8984985E0,2.7701743E0,2.787693E0,1.9098976E1,1.5729855E1,1.30169935E1,9.187333E0,3.4545302E0,4.4495174E1,5.1848865E2],"tree_param":{"num_deleted":"0","num_feature":"9","num_nodes":"33","size_leaf_vector":"1"}},{"base_weights":[-1.652983E-2,1.3622299E-1,-7.982917E-2,-7.925667E-2,2.4103071E-1,2.5811657E-1,-7.259903E-2,3.2911175E-1,1.9964476E-1,2.9798698E-1,1.0540669E0,-9.831224E-1,2.1374509E-1,3.3720836E-1,-1.01628095E-1,6.959985E-3,1.1553428E0,-1.07887134E-1,9.081099E-3,6.220465E-2,2.8052703E-1,1.4670272E-2,2.9409286E-2,-5.9411213E-2,2.8088802E-4,2.916126E-2,9.568546E-2,-7.506033E-3,4.4926543E-2,3.059663E-2,1.5634088E-2],"categories":[],"categories_nodes":[],"categories_segments":[],"categories_sizes":[],"default_left":[0,0,0,0,0,0,0,0,0,0,0,0,0,0,0,0,0,0,0,0,0,0,0,0,0,0,0,0,0,0,0],"id":21,"left_children":[1,3,-1,-1,5,7,-1,9,11,13,15,17,19,21,23,-1,25,-1,-1,27,29,-1,-1,-1,-1,-1,-1,-1,-1,-1,-1],"loss_changes":[1.3257767E2,9.065338E1,0E0,0E0,1.3995556E1,2.6613884E0,0E0,6.345793E0,6.2604427E0,4.4917755E0,1.0372887E0,2.4130297E0,3.6190472E0,1.939003E0,1.9083812E0,0E0,4.7795868E-1,0E0,0E0,9.747369E0,2.2030048E0,0E0,0E0,0E0,0E0,0E0,0E0,0E0,0E0,0E0,0E0],"parents":[2147483647,0,0,1,1,4,4,5,5,7,7,8,8,9,9,10,10,11,11,12,12,13,13,14,14,16,16,19,19,20,20],"right_children":[2,4,-1,-1,6,8,-1,10,12,14,16,18,20,22,24,-1,26,-1,-1,28,30,-1,-1,-1,-1,-1,-1,-1,-1,-1,-1],"split_conditions":[5E0,9.4404E4,-7.982917E-2,-7.925667E-2,9.4537E4,6.75E1,-7.259903E-2,6.27451E1,6.8809525E1,5.050505E1,4E0,1E1,8.784314E1,9E0,1.8E1,6.959985E-3,1.39544E5,-1.07887134E-1,9.081099E-3,3.8E1,1.1E1,1.4670272E-2,2.9409286E-2,-5.9411213E-2,2.8088802E-4,2.916126E-2,9.568546E-2,-7.506033E-3,4.4926543E-2,3.059663E-2,1.5634088E-2],"split_indices":[2,7,0,0,7,8,0,8,8,8,5,6,8,5,1,0,3,0,0,1,5,0,0,0,0,0,0,0,0,0,0],"split_type":[0,0,0,0,0,0,0,0,0,0,0,0,0,0,0,0,0,0,0,0,0,0,0,0,0,0,0,0,0,0,0],"sum_hessian":[8.263762E2,7.219964E2,1.0437984E2,5.7574078E1,6.644223E2,6.559391E2,8.483237E0,2.9415457E2,3.6178452E2,2.8339835E2,1.0756209E1,3.4525614E0,3.5833194E2,2.5821158E2,2.518677E1,1.2078772E0,9.548332E0,2.2301185E0,1.222443E0,1.1019982E2,2.4813213E2,7.342919E1,1.847824E2,2.471729E0,2.271504E1,1.8709394E0,7.677393E0,8.524341E1,2.4956413E1,8.795778E1,1.6017435E2],"tree_param":{"num_deleted":"0","num_feature":"9","num_nodes":"31","size_leaf_vector":"1"}},{"base_weights":[-1.6215496E-2,1.2697853E-1,-7.935013E-2,-7.873933E-2,2.240869E-1,2.3993427E-1,-7.172998E-2,2.289632E-1,6.2755525E-1,4.3525612E-1,2.0433605E-1,1.4662588E-1,8.818781E-1,4.7847435E-1,-4.9515646E-2,2.9077646E-1,1.1718069E-1,-2.4460906E-1,7.098526E-2,1.1712884E-3,1.0118203E0,2.843235E-2,7.5377375E-2,1.3331091E-2,3.6272973E-2,-1.9667292E-2,1.3359867E-2,3.181101E-2,-5.2045193E-2,3.544009E-2,8.892977E-2],"categories":[],"categories_nodes":[],"categories_segments":[],"categories_sizes":[],"default_left":[0,0,0,0,0,0,0,0,0,0,0,0,0,0,0,0,0,0,0,0,0,0,0,0,0,0,0,0,0,0,0],"id":22,"left_children":[1,3,-1,-1,5,7,-1,9,11,13,15,17,19,21,-1,23,25,27,-1,-1,29,-1,-1,-1,-1,-1,-1,-1,-1,-1,-1],"loss_changes":[1.2148374E2,8.206593E1,0E0,0E0,1.2619377E1,2.6388779E0,0E0,3.1517677E0,2.0032382E0,3.4947653E0,4.273262E0,2.4940712E0,1.2454863E0,3.0294523E0,0E0,6.1566696E0,6.669081E0,1.9920956E0,0E0,0E0,3.5204887E-1,0E0,0E0,0E0,0E0,0E0,0E0,0E0,0E0,0E0,0E0],"parents":[2147483647,0,0,1,1,4,4,5,5,7,7,8,8,9,9,10,10,11,11,12,12,13,13,15,15,16,16,17,17,20,20],"right_children":[2,4,-1,-1,6,8,-1,10,12,14,16,18,20,22,-1,24,26,28,-1,-1,30,-1,-1,-1,-1,-1,-1,-1,-1,-1,-1],"split_conditions":[5E0,9.4404E4,-7.935013E-2,-7.873933E-2,9.4537E4,2.3E1,-7.172998E-2,4E0,6E0,1.98318E5,1.43236E5,4.3E1,1.8E1,1.73049E5,-4.9515646E-2,1.40208E5,5E0,2.5E1,7.098526E-2,1.1712884E-3,1E1,2.843235E-2,7.5377375E-2,1.3331091E-2,3.6272973E-2,-1.9667292E-2,1.3359867E-2,3.181101E-2,-5.2045193E-2,3.544009E-2,8.892977E-2],"split_indices":[2,7,0,0,7,5,0,6,6,3,3,1,1,3,0,3,5,1,0,0,0,0,0,0,0,0,0,0,0,0,0],"split_type":[0,0,0,0,0,0,0,0,0,0,0,0,0,0,0,0,0,0,0,0,0,0,0,0,0,0,0,0,0,0,0],"sum_hessian":[8.124561E2,7.1505023E2,9.740591E1,5.375791E1,6.612923E2,6.533186E2,7.9736843E0,6.3688324E2,1.6435383E1,6.614408E1,5.7073914E2,6.2303E0,1.0205084E1,6.417545E1,1.9686241E0,2.853719E2,2.8536728E2,4.6499887E0,1.5803115E0,1.47724E0,8.727843E0,5.5433525E1,8.741929E0,1.8113705E2,1.04234825E2,3.9040833E1,2.4632645E2,1.8912239E0,2.7587647E0,3.034655E0,5.6931887E0],"tree_param":{"num_deleted":"0","num_feature":"9","num_nodes":"31","size_leaf_vector":"1"}},{"base_weights":[-1.5660742E-2,1.1851576E-1,-7.890244E-2,-7.8250565E-2,2.0849863E-1,2.2320771E-1,-7.0873596E-2,4.7816792E-1,2.0684019E-1,3.655429E-1,7.4803585E-1,2.800836E-1,1.4759372E-1,5.794834E-1,2.462879E-1,3.4211066E-1,9.1445404E-1,2.4894628E-1,9.789891E-1,-9.1994166E-1,1.6275585E-1,6.287225E-2,2.1489315E-2,7.0065126E-2,1.0450525E-2,-7.964728E-4,5.7985205E-2,7.520133E-2,1.54175E-2,2.1616733E-2,-6.5528867E-3,7.2114286E-3,8.061409E-2,-9.637497E-2,7.985548E-3,1.8711E-2,3.1801504E-3],"categories":[],"categories_nodes":[],"categories_segments":[],"categories_sizes":[],"default_left":[0,0,0,0,0,0,0,0,0,0,0,0,0,0,0,0,0,0,0,0,0,0,0,0,0,0,0,0,0,0,0,0,0,0,0,0,0],"id":23,"left_children":[1,3,-1,-1,5,7,-1,9,11,13,15,17,19,21,23,25,27,29,31,33,35,-1,-1,-1,-1,-1,-1,-1,-1,-1,-1,-1,-1,-1,-1,-1,-1],"loss_changes":[1.1144709E2,7.441336E1,0E0,0E0,1.1400566E1,2.6219902E0,0E0,8.988409E-1,2.6249847E0,6.014695E-1,3.897872E-1,5.7114964E0,5.682013E0,4.9532485E-1,1.3756635E0,7.1092534E-1,2.1788216E-1,3.5035172E0,8.5559654E-1,1.9866409E0,3.5158176E0,0E0,0E0,0E0,0E0,0E0,0E0,0E0,0E0,0E0,0E0,0E0,0E0,0E0,0E0,0E0,0E0],"parents":[2147483647,0,0,1,1,4,4,5,5,7,7,8,8,9,9,10,10,11,11,12,12,13,13,14,14,15,15,16,16,17,17,18,18,19,19,20,20],"right_children":[2,4,-1,-1,6,8,-1,10,12,14,16,18,20,22,24,26,28,30,32,34,36,-1,-1,-1,-1,-1,-1,-1,-1,-1,-1,-1,-1,-1,-1,-1,-1],"split_conditions":[5E0,9.4404E4,-7.890244E-2,-7.8250565E-2,9.4537E4,1.29102E5,-7.0873596E-2,4E1,6.75E1,1E1,6.8965516E0,6.27451E1,6.926407E1,9E0,2.1E1,5.2E1,5.1E1,4.8E1,4E0,1E1,1.8E1,6.287225E-2,2.1489315E-2,7.0065126E-2,1.0450525E-2,-7.964728E-4,5.7985205E-2,7.520133E-2,1.54175E-2,2.1616733E-2,-6.5528867E-3,7.2114286E-3,8.061409E-2,-9.637497E-2,7.985548E-3,1.8711E-2,3.1801504E-3],"split_indices":[2,7,0,0,7,3,0,1,8,0,8,8,8,5,1,1,1,8,5,6,5,0,0,0,0,0,0,0,0,0,0,0,0,0,0,0,0],"split_type":[0,0,0,0,0,0,0,0,0,0,0,0,0,0,0,0,0,0,0,0,0,0,0,0,0,0,0,0,0,0,0,0,0,0,0,0,0],"sum_hessian":[7.995539E2,7.086875E2,9.0866394E1,5.0179256E1,6.5850824E2,6.5101306E2,7.4951797E0,3.756961E1,6.134435E2,2.8168476E1,9.401136E0,2.7265112E2,3.4079236E2,8.700607E0,1.9467869E1,3.622038E0,5.779098E0,2.6232053E2,1.0330593E1,3.9367933E0,3.3685556E2,3.6311803E0,5.069427E0,1.578624E0,1.7889244E1,2.528334E0,1.0937042E0,4.770855E0,1.0082432E0,2.350171E2,2.730341E1,1.2080934E0,9.122499E0,2.7181273E0,1.218666E0,1.9515709E2,1.4169847E2],"tree_param":{"num_deleted":"0","num_feature":"9","num_nodes":"37","size_leaf_vector":"1"}},{"base_weights":[-1.5011221E-2,1.1072709E-1,-7.848266E-2,-7.778677E-2,1.9416817E-1,2.0784006E-1,-7.0026614E-2,1.9720612E-1,5.8764327E-1,2.037632E-1,-4.5980713E-1,-1.4808226E-2,7.169812E-1,4.026839E-1,1.8002456E-1,-7.388517E-2,-1.541132E-1,8.007607E-2,3.233443E-1,8.803506E-3,3.979829E-2,1.9032747E-2,7.83804E-3,5.194206E-2,-4.9357157E-2,-9.977452E-3,7.8477845E-2],"categories":[],"categories_nodes":[],"categories_segments":[],"categories_sizes":[],"default_left":[0,0,0,0,0,0,0,0,0,0,0,0,0,0,0,0,0,0,0,0,0,0,0,0,0,0,0],"id":24,"left_children":[1,3,-1,-1,5,7,-1,9,11,13,15,-1,17,19,21,-1,23,-1,25,-1,-1,-1,-1,-1,-1,-1,-1],"loss_changes":[1.0233407E2,6.757702E1,0E0,0E0,1.0318943E1,2.5075722E0,0E0,2.8223438E0,1.8866949E0,2.8921032E0,9.025792E-1,0E0,1.7215562E0,2.3517733E0,3.1071148E0,0E0,2.7326918E0,0E0,2.9401164E0,0E0,0E0,0E0,0E0,0E0,0E0,0E0,0E0],"parents":[2147483647,0,0,1,1,4,4,5,5,7,7,8,8,9,9,10,10,12,12,13,13,14,14,16,16,18,18],"right_children":[2,4,-1,-1,6,8,-1,10,12,14,16,-1,18,20,22,-1,24,-1,26,-1,-1,-1,-1,-1,-1,-1,-1],"split_conditions":[5E0,9.4404E4,-7.848266E-2,-7.778677E-2,9.4537E4,2.3E1,-7.0026614E-2,2.00862E5,1.8E1,4E0,5E0,-1.4808226E-2,1.43608E5,1.43232E5,1.43236E5,-7.388517E-2,1.1E1,8.007607E-2,7E0,8.803506E-3,3.979829E-2,1.9032747E-2,7.83804E-3,5.194206E-2,-4.9357157E-2,-9.977452E-3,7.8477845E-2],"split_indices":[2,7,0,0,7,5,0,3,1,6,5,0,3,3,3,0,5,0,6,0,0,0,0,0,0,0,0],"split_type":[0,0,0,0,0,0,0,0,0,0,0,0,0,0,0,0,0,0,0,0,0,0,0,0,0,0,0],"sum_hessian":[7.871762E2,7.024366E2,8.4739624E1,4.682626E1,6.5561035E2,6.4856415E2,7.046182E0,6.3237775E2,1.6186415E1,6.2681195E2,5.5658107E0,2.214959E0,1.3971457E1,6.512513E1,5.616868E2,1.229802E0,4.3360085E0,6.4831376E0,7.488319E0,2.0758524E1,4.4366604E1,2.8298328E2,2.7870352E2,1.478313E0,2.8576958E0,5.0909195E0,2.3973994E0],"tree_param":{"num_deleted":"0","num_feature":"9","num_nodes":"27","size_leaf_vector":"1"}},{"base_weights":[-1.4636519E-2,1.0309741E-1,-7.808763E-2,-7.7344656E-2,1.804495E-1,1.9316176E-1,-6.9186136E-2,4.369702E-1,1.7765927E-1,2.020842E-1,5.503647E-1,-6.429969E-2,1.9520994E-1,6.463862E-1,4.2605598E-2,8.254504E-2,4.2836148E-1,-2.2289483E-1,2.8958264E-1,9.7604394E-2,1.6301951E-1,1.5801521E-2,6.330585E-2,-5.1534764E-2,1.945572E-2,-3.3122448E-3,3.729046E-2,8.725366E-3,-2.9228168E-2,3.59706E-2,-1.5160693E-2,-1.911327E-2,1.3133229E-2],"categories":[],"categories_nodes":[],"categories_segments":[],"categories_sizes":[],"default_left":[0,0,0,0,0,0,0,0,0,0,0,0,0,0,0,0,0,0,0,0,0,0,0,0,0,0,0,0,0,0,0,0,0],"id":25,"left_children":[1,3,-1,-1,5,7,-1,9,11,13,15,17,19,21,23,-1,25,27,29,-1,31,-1,-1,-1,-1,-1,-1,-1,-1,-1,-1,-1,-1],"loss_changes":[9.397635E1,6.140467E1,0E0,0E0,9.347742E0,2.3692074E0,0E0,9.013562E-1,2.6044598E0,9.614764E-1,1.2107768E0,2.4234807E0,2.0060694E1,1.3364244E-1,1.9726263E0,0E0,7.424631E-1,1.7197258E0,1.3529814E0,0E0,2.8453312E0,0E0,0E0,0E0,0E0,0E0,0E0,0E0,0E0,0E0,0E0,0E0,0E0],"parents":[2147483647,0,0,1,1,4,4,5,5,7,7,8,8,9,9,10,10,11,11,12,12,13,13,14,14,16,16,17,17,18,18,20,20],"right_children":[2,4,-1,-1,6,8,-1,10,12,14,16,18,20,22,24,-1,26,28,30,-1,32,-1,-1,-1,-1,-1,-1,-1,-1,-1,-1,-1,-1],"split_conditions":[5E0,9.4404E4,-7.808763E-2,-7.7344656E-2,9.4537E4,1.29102E5,-6.9186136E-2,8E0,1.8E1,7E0,2.6900585E1,1.60892E5,2.1E1,2.9E1,1E1,8.254504E-2,6.787331E1,7E0,1.4E1,9.7604394E-2,1.29871E5,1.5801521E-2,6.330585E-2,-5.1534764E-2,1.945572E-2,-3.3122448E-3,3.729046E-2,8.725366E-3,-2.9228168E-2,3.59706E-2,-1.5160693E-2,-1.911327E-2,1.3133229E-2],"split_indices":[2,7,0,0,7,3,0,8,1,5,8,3,1,1,5,0,8,5,6,0,3,0,0,0,0,0,0,0,0,0,0,0,0],"split_type":[0,0,0,0,0,0,0,0,0,0,0,0,0,0,0,0,0,0,0,0,0,0,0,0,0,0,0,0,0,0,0,0,0],"sum_hessian":[7.756908E2,6.966867E2,7.9004105E1,4.3687183E1,6.529995E2,6.463743E2,6.6251636E0,3.7017086E1,6.0935724E2,1.2957982E1,2.4059105E1,4.1030746E1,5.683265E2,2.6162043E0,1.0341778E1,2.9107075E0,2.1148397E1,2.8588657E1,1.2442088E1,1.4955979E1,5.5337054E2,1.4613099E0,1.1548944E0,1.8718839E0,8.469893E0,2.734983E0,1.8413416E1,9.523748E0,1.9064909E1,8.991859E0,3.450228E0,1.4996065E1,5.3837445E2],"tree_param":{"num_deleted":"0","num_feature":"9","num_nodes":"33","size_leaf_vector":"1"}},{"base_weights":[-1.4071111E-2,9.620401E-2,-7.7714495E-2,-7.692118E-2,1.6798064E-1,1.7982027E-1,-6.834967E-2,1.695248E-1,5.5243385E-1,1.8447095E-1,-1.157668E-1,1.0831922E-1,7.951211E-1,1.9116558E-1,-4.4891465E-1,-3.668773E-1,4.5996654E-1,-2.516887E-1,6.589798E-2,2.006557E-3,9.140694E-1,2.0007687E-2,9.760485E-3,-7.170723E-2,-1.1530685E-2,1.676175E-2,-4.7828518E-2,5.9884463E-2,-2.2534652E-2,2.9214842E-2,-5.0273307E-2,2.9996188E-2,8.165778E-2],"categories":[],"categories_nodes":[],"categories_segments":[],"categories_sizes":[],"default_left":[0,0,0,0,0,0,0,0,0,0,0,0,0,0,0,0,0,0,0,0,0,0,0,0,0,0,0,0,0,0,0,0,0],"id":26,"left_children":[1,3,-1,-1,5,7,-1,9,11,13,15,17,19,21,23,25,27,29,-1,-1,31,-1,-1,-1,-1,-1,-1,-1,-1,-1,-1,-1,-1],"loss_changes":[8.639184E1,5.588774E1,0E0,0E0,8.485205E0,2.3805676E0,0E0,2.7036858E0,1.7352262E0,2.6220665E0,4.7849298E0,2.1981683E0,9.598489E-1,2.699295E0,8.3426297E-1,3.7863371E0,2.8501236E0,1.7739056E0,0E0,0E0,3.9946985E-1,0E0,0E0,0E0,0E0,0E0,0E0,0E0,0E0,0E0,0E0,0E0,0E0],"parents":[2147483647,0,0,1,1,4,4,5,5,7,7,8,8,9,9,10,10,11,11,12,12,13,13,14,14,15,15,16,16,17,17,20,20],"right_children":[2,4,-1,-1,6,8,-1,10,12,14,16,18,20,22,24,26,28,30,-1,-1,32,-1,-1,-1,-1,-1,-1,-1,-1,-1,-1,-1,-1],"split_conditions":[5E0,9.4404E4,-7.7714495E-2,-7.692118E-2,9.4537E4,2.3E1,-6.834967E-2,2.2E1,6E0,2.00862E5,3.7E1,4.3E1,1.8E1,6E0,5E0,1E1,4.8E1,2.5E1,6.589798E-2,2.006557E-3,1E1,2.0007687E-2,9.760485E-3,-7.170723E-2,-1.1530685E-2,1.676175E-2,-4.7828518E-2,5.9884463E-2,-2.2534652E-2,2.9214842E-2,-5.0273307E-2,2.9996188E-2,8.165778E-2],"split_indices":[2,7,0,0,7,5,0,5,6,3,1,1,1,6,5,0,1,1,0,0,0,0,0,0,0,0,0,0,0,0,0,0,0],"split_type":[0,0,0,0,0,0,0,0,0,0,0,0,0,0,0,0,0,0,0,0,0,0,0,0,0,0,0,0,0,0,0,0,0],"sum_hessian":[7.645806E2,6.909419E2,7.363874E1,4.0750492E1,6.501914E2,6.439608E2,6.2306213E0,6.2806213E2,1.5898657E1,5.971323E2,3.0929811E1,6.1289988E0,9.769658E0,5.9157776E2,5.5545535E0,2.1789097E1,9.140715E0,4.6357546E0,1.4932443E0,1.4738693E0,8.295789E0,2.6272366E2,3.2885413E2,1.2196932E0,4.3348603E0,6.907338E0,1.4881759E1,6.2905583E0,2.8501565E0,1.8585032E0,2.7772512E0,2.9382563E0,5.3575325E0],"tree_param":{"num_deleted":"0","num_feature":"9","num_nodes":"33","size_leaf_vector":"1"}},{"base_weights":[-1.3722062E-2,8.947554E-2,-7.7360645E-2,-7.651354E-2,1.5605251E-1,1.670822E-1,-6.7515045E-2,-3.8406357E-1,1.7338993E-1,-6.267204E-1,3.664444E-2,4.2026773E-1,1.5796335E-1,-6.7982194E-3,-7.328454E-1,1.8206276E-1,5.4066277E-1,1.3155985E-1,3.0785346E-1,-1.3445536E-2,-7.92682E-2,4.636185E-2,2.0504196E-3,6.467646E-2,2.8961072E-2,1.0529983E-2,-7.9990625E-2,4.3160666E-2,1.1008637E-2],"categories":[],"categories_nodes":[],"categories_segments":[],"categories_sizes":[],"default_left":[0,0,0,0,0,0,0,0,0,0,0,0,0,0,0,0,0,0,0,0,0,0,0,0,0,0,0,0,0],"id":27,"left_children":[1,3,-1,-1,5,7,-1,9,11,13,-1,15,17,-1,19,21,23,25,27,-1,-1,-1,-1,-1,-1,-1,-1,-1,-1],"loss_changes":[7.943062E1,5.089583E1,0E0,0E0,7.7085752E0,2.3016186E0,0E0,1.91251E0,2.357006E0,2.9615784E-1,0E0,9.57531E-1,2.336028E0,0E0,7.3959064E-1,9.189491E-1,8.5750484E-1,5.5756273E0,3.7601757E0,0E0,0E0,0E0,0E0,0E0,0E0,0E0,0E0,0E0,0E0],"parents":[2147483647,0,0,1,1,4,4,5,5,7,7,8,8,9,9,11,11,12,12,14,14,15,15,16,16,17,17,18,18],"right_children":[2,4,-1,-1,6,8,-1,10,12,14,-1,16,18,-1,20,22,24,26,28,-1,-1,-1,-1,-1,-1,-1,-1,-1,-1],"split_conditions":[5E0,9.4404E4,-7.7360645E-2,-7.651354E-2,9.4537E4,3E0,-6.7515045E-2,7E0,1.29102E5,5.7142857E1,3.664444E-2,8E0,1.82702E5,-6.7982194E-3,2.7E1,7E0,7.157895E1,1.82264E5,1.98318E5,-1.3445536E-2,-7.92682E-2,4.636185E-2,2.0504196E-3,6.467646E-2,2.8961072E-2,1.0529983E-2,-7.9990625E-2,4.3160666E-2,1.1008637E-2],"split_indices":[2,7,0,0,7,4,0,6,3,8,0,8,3,0,1,5,8,3,3,0,0,0,0,0,0,0,0,0,0],"split_type":[0,0,0,0,0,0,0,0,0,0,0,0,0,0,0,0,0,0,0,0,0,0,0,0,0,0,0,0,0],"sum_hessian":[7.543895E2,6.857666E2,6.862292E1,3.8004932E1,6.4776166E2,6.419006E2,5.861088E0,6.5856147E0,6.3531494E2,5.3733015E0,1.2123133E0,3.582056E1,5.994944E2,1.1943425E0,4.178959E0,1.2869703E1,2.295086E1,5.1130457E2,8.8189835E1,2.116582E0,2.0623772E0,2.5859282E0,1.0283775E1,5.9604926E0,1.6990366E1,5.08436E2,2.8685684E0,3.2168606E1,5.602123E1],"tree_param":{"num_deleted":"0","num_feature":"9","num_nodes":"29","size_leaf_vector":"1"}},{"base_weights":[-1.343259E-2,8.3107196E-2,-7.7023625E-2,-7.611916E-2,1.4487273E-1,1.5515672E-1,-6.6680424E-2,1.4536041E-1,5.145469E-1,1.5930913E-1,-1.1987757E-1,6.943683E-2,2.5135842E-1,-3.8907948E-1,1.6649766E-1,-3.5344824E-1,4.2242208E-1,-7.908274E-2,6.764149E-2,-9.8684974E-2,3.5886936E-2,2.988982E-2,1.0779608E-2,1.4889992E-2,-4.5299176E-2,2.1876362E-3,8.546257E-2,-2.5657678E-2,6.036532E-2],"categories":[],"categories_nodes":[],"categories_segments":[],"categories_sizes":[],"default_left":[0,0,0,0,0,0,0,0,0,0,0,0,0,0,0,0,0,0,0,0,0,0,0,0,0,0,0,0,0],"id":28,"left_children":[1,3,-1,-1,5,7,-1,9,11,13,15,-1,17,19,21,23,25,27,-1,-1,-1,-1,-1,-1,-1,-1,-1,-1,-1],"loss_changes":[7.306331E1,4.6393375E1,0E0,0E0,7.011753E0,2.1817598E0,0E0,2.332634E0,1.5655904E0,2.4084177E0,4.178925E0,0E0,2.5440874E0,7.055145E0,3.0467663E0,3.2703083E0,2.795918E0,2.2626822E0,0E0,0E0,0E0,0E0,0E0,0E0,0E0,0E0,0E0,0E0,0E0],"parents":[2147483647,0,0,1,1,4,4,5,5,7,7,8,8,9,9,10,10,12,12,13,13,14,14,15,15,16,16,17,17],"right_children":[2,4,-1,-1,6,8,-1,10,12,14,16,-1,18,20,22,24,26,28,-1,-1,-1,-1,-1,-1,-1,-1,-1,-1,-1],"split_conditions":[5E0,9.4404E4,-7.7023625E-2,-7.611916E-2,9.4537E4,2.3E1,-6.6680424E-2,2.2E1,1.43237E5,8E0,3.7E1,6.943683E-2,7E0,1.43608E5,2.1E1,1E1,1.60214E5,4.3E1,6.764149E-2,-9.8684974E-2,3.5886936E-2,2.988982E-2,1.0779608E-2,1.4889992E-2,-4.5299176E-2,2.1876362E-3,8.546257E-2,-2.5657678E-2,6.036532E-2],"split_indices":[2,7,0,0,7,5,0,5,3,0,1,0,6,3,1,0,3,1,0,0,0,0,0,0,0,0,0,0,0],"split_type":[0,0,0,0,0,0,0,0,0,0,0,0,0,0,0,0,0,0,0,0,0,0,0,0,0,0,0,0,0],"sum_hessian":[7.448313E2,6.808946E2,6.39367E1,3.5439594E1,6.45455E2,6.399399E2,5.5151353E0,6.2432635E2,1.5613502E1,5.9351324E2,3.081314E1,5.110201E0,1.05033E1,6.992007E0,5.8652124E2,2.1780453E1,9.032688E0,7.5477767E0,2.9555233E0,3.1309512E0,3.8610556E0,5.093767E1,5.3558356E2,6.864481E0,1.4915972E1,6.5056157E0,2.527072E0,6.289367E0,1.2584095E0],"tree_param":{"num_deleted":"0","num_feature":"9","num_nodes":"29","size_leaf_vector":"1"}},{"base_weights":[-1.2933493E-2,7.737283E-2,-7.670121E-2,-7.57356E-2,1.3470213E-1,1.4430192E-1,-6.584427E-2,2.092792E-1,9.158759E-2,1.8106171E-1,8.9021987E-1,-9.471142E-1,1.04440525E-1,2.1659155E-1,-1.6948476E-1,5.5581313E-3,9.805186E-1,-1.01020545E-1,4.988035E-3,-3.767061E-2,1.6771038E-1,6.68266E-3,2.1074804E-2,-6.374529E-2,-5.2595907E-3,2.0152356E-2,8.265568E-2,-1.40624875E-2,3.5344977E-2,2.1726277E-2,7.5034346E-3],"categories":[],"categories_nodes":[],"categories_segments":[],"categories_sizes":[],"default_left":[0,0,0,0,0,0,0,0,0,0,0,0,0,0,0,0,0,0,0,0,0,0,0,0,0,0,0,0,0,0,0],"id":29,"left_children":[1,3,-1,-1,5,7,-1,9,11,13,15,17,19,21,23,-1,25,-1,-1,27,29,-1,-1,-1,-1,-1,-1,-1,-1,-1,-1],"loss_changes":[6.727076E1,4.2350113E1,0E0,0E0,6.3894653E0,2.1697664E0,0E0,5.323742E0,4.8329945E0,3.4662247E0,7.4556637E-1,1.8863785E0,3.1638007E0,2.0314598E0,1.691531E0,0E0,5.6180954E-1,0E0,0E0,8.399855E0,1.9779744E0,0E0,0E0,0E0,0E0,0E0,0E0,0E0,0E0,0E0,0E0],"parents":[2147483647,0,0,1,1,4,4,5,5,7,7,8,8,9,9,10,10,11,11,12,12,13,13,14,14,16,16,19,19,20,20],"right_children":[2,4,-1,-1,6,8,-1,10,12,14,16,18,20,22,24,-1,26,-1,-1,28,30,-1,-1,-1,-1,-1,-1,-1,-1,-1,-1],"split_conditions":[5E0,9.4404E4,-7.670121E-2,-7.57356E-2,9.4537E4,6.75E1,-6.584427E-2,6.27451E1,6.8809525E1,5.050505E1,4E0,1E1,8.784314E1,1E1,5E0,5.5581313E-3,1.39544E5,-1.01020545E-1,4.988035E-3,3.8E1,1.1E1,6.68266E-3,2.1074804E-2,-6.374529E-2,-5.2595907E-3,2.0152356E-2,8.265568E-2,-1.40624875E-2,3.5344977E-2,2.1726277E-2,7.5034346E-3],"split_indices":[2,7,0,0,7,8,0,8,8,8,5,6,8,0,5,0,3,0,0,1,5,0,0,0,0,0,0,0,0,0,0],"split_type":[0,0,0,0,0,0,0,0,0,0,0,0,0,0,0,0,0,0,0,0,0,0,0,0,0,0,0,0,0,0,0],"sum_hessian":[7.3585754E2,6.762967E2,5.9560814E1,3.304396E1,6.4325275E2,6.3806134E2,5.1913886E0,2.8445886E2,3.536025E2,2.7435574E2,1.0103117E1,3.4335556E0,3.5016895E2,2.494543E2,2.4901443E1,1.187879E0,8.915238E0,2.2264755E0,1.2070802E0,1.0799799E2,2.4217094E2,8.4524345E1,1.6492995E2,2.2102196E0,2.2691223E1,1.7686656E0,7.1465726E0,8.3922966E1,2.4075033E1,8.523812E1,1.5693283E2],"tree_param":{"num_deleted":"0","num_feature":"9","num_nodes":"31","size_leaf_vector":"1"}},{"base_weights":[-1.2684184E-2,7.178328E-2,-7.639131E-2,-7.536059E-2,1.2502065E-1,1.3399237E-1,-6.50053E-2,3.034157E-1,1.1388901E-1,7.782368E-2,2.4110089E-1,-1.5381448E-1,1.3431014E-1,1.353174E-1,5.9605026E-1,4.830573E-2,-4.5878035E-1,9.260197E-2,1.0525077E-1,2.4190892E-2,-2.1389153E-2,6.981412E-2,8.397572E-3,-4.1185465E-2,1.540084E-2,4.481373E-2,-4.378109E-2,-1.1137278E-2,9.575452E-3],"categories":[],"categories_nodes":[],"categories_segments":[],"categories_sizes":[],"default_left":[0,0,0,0,0,0,0,0,0,0,0,0,0,0,0,0,0,0,0,0,0,0,0,0,0,0,0,0,0],"id":30,"left_children":[1,3,-1,-1,5,7,-1,9,11,-1,13,15,17,19,21,23,25,-1,27,-1,-1,-1,-1,-1,-1,-1,-1,-1,-1],"loss_changes":[6.1940697E1,3.8681E1,0E0,0E0,5.8274994E0,2.135046E0,0E0,2.8137755E0,3.1423788E0,0E0,2.2859879E0,2.545608E0,1.6852503E1,4.016877E0,2.1936355E0,2.5076249E0,2.5153663E0,0E0,2.9690938E0,0E0,0E0,0E0,0E0,0E0,0E0,0E0,0E0,0E0,0E0],"parents":[2147483647,0,0,1,1,4,4,5,5,7,7,8,8,10,10,11,11,12,12,13,13,14,14,15,15,16,16,18,18],"right_children":[2,4,-1,-1,6,8,-1,10,12,-1,14,16,18,20,22,24,26,-1,28,-1,-1,-1,-1,-1,-1,-1,-1,-1,-1],"split_conditions":[5E0,9.4404E4,-7.639131E-2,-7.536059E-2,9.4537E4,1.3412E5,-6.50053E-2,2.1E1,1.8E1,7.782368E-2,1.29871E5,6E0,2.1E1,1.29102E5,7.857143E1,1.38471E5,3E0,9.260197E-2,2.3E1,2.4190892E-2,-2.1389153E-2,6.981412E-2,8.397572E-3,-4.1185465E-2,1.540084E-2,4.481373E-2,-4.378109E-2,-1.1137278E-2,9.575452E-3],"split_indices":[2,7,0,0,7,3,0,1,1,0,3,6,1,3,8,3,5,0,1,0,0,0,0,0,0,0,0,0,0],"split_type":[0,0,0,0,0,0,0,0,0,0,0,0,0,0,0,0,0,0,0,0,0,0,0,0,0,0,0,0,0],"sum_hessian":[7.271709E2,6.716941E2,5.547676E1,3.080791E1,6.408862E2,6.359977E2,4.888523E0,6.596636E1,5.700313E2,3.9361675E0,6.203019E1,3.993861E1,5.300927E2,4.8852264E1,1.3177926E1,2.4525568E1,1.5413044E1,1.257128E1,5.175214E2,3.396328E1,1.4888987E1,7.244504E0,5.9334216E0,4.5850735E0,1.9940493E1,1.2305299E0,1.4182513E1,4.15605E1,4.7596094E2],"tree_param":{"num_deleted":"0","num_feature":"9","num_nodes":"29","size_leaf_vector":"1"}},{"base_weights":[-1.2118713E-2,6.6900305E-2,-7.609197E-2,-7.499201E-2,1.1637144E-1,1.24767594E-1,-6.4162545E-2,1.1519711E-1,4.8079872E-1,2.9554257E-1,9.4123006E-2,-1.5035295E-2,6.015813E-1,3.368337E-1,-5.0684616E-2,1.682331E-1,2.039164E-2,7.0562646E-2,2.3994216E-1,1.8518217E-2,6.3216195E-2,4.522796E-3,2.6556961E-2,-2.5800686E-2,5.974242E-3,-2.5692584E-2,5.4992914E-2],"categories":[],"categories_nodes":[],"categories_segments":[],"categories_sizes":[],"default_left":[0,0,0,0,0,0,0,0,0,0,0,0,0,0,0,0,0,0,0,0,0,0,0,0,0,0,0],"id":31,"left_children":[1,3,-1,-1,5,7,-1,9,11,13,15,-1,17,19,-1,21,23,-1,25,-1,-1,-1,-1,-1,-1,-1,-1],"loss_changes":[5.7096874E1,3.5385612E1,0E0,0E0,5.325595E0,2.1081753E0,0E0,2.3272543E0,1.4623897E0,2.8091922E0,3.0362644E0,0E0,1.504251E0,2.6318517E0,0E0,5.541076E0,6.074224E0,0E0,2.5981405E0,0E0,0E0,0E0,0E0,0E0,0E0,0E0,0E0],"parents":[2147483647,0,0,1,1,4,4,5,5,7,7,8,8,9,9,10,10,12,12,13,13,15,15,16,16,18,18],"right_children":[2,4,-1,-1,6,8,-1,10,12,14,16,-1,18,20,-1,22,24,-1,26,-1,-1,-1,-1,-1,-1,-1,-1],"split_conditions":[5E0,9.4404E4,-7.609197E-2,-7.499201E-2,9.4537E4,2.3E1,-6.4162545E-2,4E0,1.8E1,1.98318E5,1.43236E5,-1.5035295E-2,1.43608E5,1.73049E5,-5.0684616E-2,1.40208E5,5E0,7.0562646E-2,1.75683E5,1.8518217E-2,6.3216195E-2,4.522796E-3,2.6556961E-2,-2.5800686E-2,5.974242E-3,-2.5692584E-2,5.4992914E-2],"split_indices":[2,7,0,0,7,5,0,6,1,3,3,0,3,3,0,3,5,0,3,0,0,0,0,0,0,0,0],"split_type":[0,0,0,0,0,0,0,0,0,0,0,0,0,0,0,0,0,0,0,0,0,0,0,0,0,0,0],"sum_hessian":[7.1895514E2,6.672883E2,5.166682E1,2.8721758E1,6.385666E2,6.339613E2,4.605271E0,6.186548E2,1.5306528E1,6.3365864E1,5.552889E2,2.2056851E0,1.3100843E1,6.1408638E1,1.9572278E0,2.76294E2,2.789949E2,5.933261E0,7.1675825E0,5.340633E1,8.00231E0,1.7562982E2,1.00664185E2,3.8355396E1,2.406395E2,3.4267063E0,3.740876E0],"tree_param":{"num_deleted":"0","num_feature":"9","num_nodes":"27","size_leaf_vector":"1"}},{"base_weights":[-1.1716138E-2,6.214797E-2,-7.580135E-2,-7.462784E-2,1.0810396E-1,1.15964E-1,-6.331526E-2,2.796172E-1,9.662506E-2,7.465517E-2,2.1995948E-1,-1.5111294E-1,1.1560354E-1,1.1952862E-1,5.5919725E-1,-3.8967532E-1,9.350557E-2,9.001397E-2,8.82433E-2,2.21969E-2,-2.0358888E-2,6.4196765E-2,4.4901995E-3,-1.0114402E-2,-7.3823705E-2,4.2151548E-2,-1.3405078E-2,-1.1048157E-2,8.188476E-3],"categories":[],"categories_nodes":[],"categories_segments":[],"categories_sizes":[],"default_left":[0,0,0,0,0,0,0,0,0,0,0,0,0,0,0,0,0,0,0,0,0,0,0,0,0,0,0,0,0],"id":32,"left_children":[1,3,-1,-1,5,7,-1,9,11,-1,13,15,17,19,21,23,25,-1,27,-1,-1,-1,-1,-1,-1,-1,-1,-1,-1],"loss_changes":[5.2637566E1,3.2386673E1,0E0,0E0,4.870607E0,1.9772406E0,0E0,2.6163979E0,2.6874776E0,0E0,2.065041E0,2.4198265E0,1.5563412E1,3.4984832E0,2.0264597E0,3.0296183E0,2.77532E0,0E0,2.561421E0,0E0,0E0,0E0,0E0,0E0,0E0,0E0,0E0,0E0,0E0],"parents":[2147483647,0,0,1,1,4,4,5,5,7,7,8,8,10,10,11,11,12,12,13,13,14,14,15,15,16,16,18,18],"right_children":[2,4,-1,-1,6,8,-1,10,12,-1,14,16,18,20,22,24,26,-1,28,-1,-1,-1,-1,-1,-1,-1,-1,-1,-1],"split_conditions":[5E0,9.4404E4,-7.580135E-2,-7.462784E-2,9.4537E4,1.3412E5,-6.331526E-2,2.1E1,1.8E1,7.465517E-2,1.29871E5,1.43608E5,2.1E1,1.29102E5,3.3E1,1.40683E5,2E1,9.001397E-2,2.3E1,2.21969E-2,-2.0358888E-2,6.4196765E-2,4.4901995E-3,-1.0114402E-2,-7.3823705E-2,4.2151548E-2,-1.3405078E-2,-1.1048157E-2,8.188476E-3],"split_indices":[2,7,0,0,7,3,0,1,1,0,3,3,1,3,1,3,8,0,1,0,0,0,0,0,0,0,0,0,0],"split_type":[0,0,0,0,0,0,0,0,0,0,0,0,0,0,0,0,0,0,0,0,0,0,0,0,0,0,0,0,0],"sum_hessian":[7.115117E2,6.6339764E2,4.8114086E1,2.6776262E1,6.366214E2,6.3228094E2,4.3404193E0,6.539826E1,5.668827E2,3.824612E0,6.1573654E1,3.9841698E1,5.27041E2,4.855219E1,1.30214615E1,1.9870321E1,1.9971375E1,1.1913509E1,5.151275E2,3.3622887E1,1.4929304E1,7.7194414E0,5.30202E0,1.4768489E1,5.1018324E0,6.9486203E0,1.3022755E1,4.15556E1,4.735719E2],"tree_param":{"num_deleted":"0","num_feature":"9","num_nodes":"29","size_leaf_vector":"1"}},{"base_weights":[-1.1229386E-2,5.784132E-2,-7.5517714E-2,-7.426618E-2,1.0057045E-1,1.079404E-1,-6.246293E-2,9.878155E-2,4.5330447E-1,1.0467494E-1,-4.687882E-1,5.951473E-2,6.805629E-1,2.7960235E-1,8.423806E-2,-7.033729E-2,-1.8484174E-1,-2.5534248E-1,5.895827E-2,1.1285852E-3,7.9213357E-1,1.4495983E-3,3.0075958E-2,1.1006392E-2,1.5793588E-3,4.6905775E-2,-4.9045864E-2,1.0441172E-2,-7.074032E-2,2.2756588E-2,7.3002234E-2],"categories":[],"categories_nodes":[],"categories_segments":[],"categories_sizes":[],"default_left":[0,0,0,0,0,0,0,0,0,0,0,0,0,0,0,0,0,0,0,0,0,0,0,0,0,0,0,0,0,0,0],"id":33,"left_children":[1,3,-1,-1,5,7,-1,9,11,13,15,17,19,21,23,-1,25,27,-1,-1,29,-1,-1,-1,-1,-1,-1,-1,-1,-1,-1],"loss_changes":[4.855757E1,2.96748E1,0E0,0E0,4.4613104E0,1.9523091E0,0E0,2.1106405E0,1.3942485E0,2.160089E0,6.945312E-1,1.7935513E0,7.357788E-1,1.9977612E0,2.1626778E0,0E0,2.42523E0,1.654506E0,0E0,0E0,4.6676302E-1,0E0,0E0,0E0,0E0,0E0,0E0,0E0,0E0,0E0,0E0],"parents":[2147483647,0,0,1,1,4,4,5,5,7,7,8,8,9,9,10,10,11,11,12,12,13,13,14,14,16,16,17,17,20,20],"right_children":[2,4,-1,-1,6,8,-1,10,12,14,16,18,20,22,24,-1,26,28,-1,-1,30,-1,-1,-1,-1,-1,-1,-1,-1,-1,-1],"split_conditions":[5E0,9.4404E4,-7.5517714E-2,-7.426618E-2,9.4537E4,2.3E1,-6.246293E-2,2.00862E5,6E0,4E0,5E0,4.3E1,1.8E1,1.43232E5,1.43236E5,-7.033729E-2,1.1E1,3.2E1,5.895827E-2,1.1285852E-3,1E1,1.4495983E-3,3.0075958E-2,1.1006392E-2,1.5793588E-3,4.6905775E-2,-4.9045864E-2,1.0441172E-2,-7.074032E-2,2.2756588E-2,7.3002234E-2],"split_indices":[2,7,0,0,7,5,0,3,6,6,5,1,1,3,3,0,5,1,0,0,0,0,0,0,0,0,0,0,0,0,0],"split_type":[0,0,0,0,0,0,0,0,0,0,0,0,0,0,0,0,0,0,0,0,0,0,0,0,0,0,0,0,0,0,0],"sum_hessian":[7.042205E2,6.59418E2,4.480248E1,2.4962614E1,6.3445544E2,6.303626E2,4.092815E0,6.1533044E2,1.5032177E1,6.0981396E2,5.5164633E0,5.962439E0,9.069738E0,6.2465527E1,5.4734845E2,1.2118326E0,4.3046308E0,4.6123405E0,1.3500986E0,1.4651347E0,7.6046033E0,2.0238436E1,4.222709E1,2.744597E2,2.7288876E2,1.456209E0,2.8484218E0,3.437944E0,1.1743966E0,2.780583E0,4.8240204E0],"tree_param":{"num_deleted":"0","num_feature":"9","num_nodes":"31","size_leaf_vector":"1"}},{"base_weights":[-1.0935316E-2,5.3594306E-2,-7.523945E-2,-7.39052E-2,9.330357E-2,1.0021506E-1,-6.1605264E-2,1.6008502E-1,5.199672E-2,1.329103E-1,8.2980245E-1,-9.2943656E-1,6.4356536E-2,1.6642593E-1,-1.92704E-1,7.243448E-2,2.4330056E-1,-9.835085E-2,4.0345006E-3,1.2989353E-1,-6.6238925E-2,2.2684091E-3,1.6960222E-2,1.783494E-2,-2.5305087E-2,-3.2835364E-2,5.9803262E-2,-2.9152648E-3,1.4657514E-2,1.082173E-2,-1.9244887E-2],"categories":[],"categories_nodes":[],"categories_segments":[],"categories_sizes":[],"default_left":[0,0,0,0,0,0,0,0,0,0,0,0,0,0,0,0,0,0,0,0,0,0,0,0,0,0,0,0,0,0,0],"id":34,"left_children":[1,3,-1,-1,5,7,-1,9,11,13,15,17,19,21,23,-1,25,-1,-1,27,29,-1,-1,-1,-1,-1,-1,-1,-1,-1,-1],"loss_changes":[4.4793518E1,2.719892E1,0E0,0E0,4.0888295E0,1.8100348E0,0E0,4.994813E0,4.309932E0,2.9869437E0,6.222305E-1,1.7311399E0,2.9780807E0,1.9937253E0,1.6831565E0,0E0,1.6169915E0,0E0,0E0,2.566558E0,4.7096624E0,0E0,0E0,0E0,0E0,0E0,0E0,0E0,0E0,0E0,0E0],"parents":[2147483647,0,0,1,1,4,4,5,5,7,7,8,8,9,9,10,10,11,11,12,12,13,13,14,14,16,16,19,19,20,20],"right_children":[2,4,-1,-1,6,8,-1,10,12,14,16,18,20,22,24,-1,26,-1,-1,28,30,-1,-1,-1,-1,-1,-1,-1,-1,-1,-1],"split_conditions":[5E0,9.4404E4,-7.523945E-2,-7.39052E-2,9.4537E4,6.75E1,-6.1605264E-2,6.27451E1,6.8809525E1,5.050505E1,6.607143E1,1E1,2.1E1,1.39743E5,9E0,7.243448E-2,7E0,-9.835085E-2,4.0345006E-3,2.5E1,2.8E1,2.2684091E-3,1.6960222E-2,1.783494E-2,-2.5305087E-2,-3.2835364E-2,5.9803262E-2,-2.9152648E-3,1.4657514E-2,1.082173E-2,-1.9244887E-2],"split_indices":[2,7,0,0,7,8,0,8,8,8,8,6,5,3,5,0,6,0,0,1,1,0,0,0,0,0,0,0,0,0,0],"split_type":[0,0,0,0,0,0,0,0,0,0,0,0,0,0,0,0,0,0,0,0,0,0,0,0,0,0,0,0,0,0,0],"sum_hessian":[6.977312E2,6.560145E2,4.1716705E1,2.3272472E1,6.32742E2,6.288807E2,3.8613605E0,2.795096E2,3.4937106E2,2.6976212E2,9.747518E0,3.4223256E0,3.4594873E2,2.4502994E2,2.473216E1,7.3878226E0,2.3596947E0,2.2245505E0,1.1977751E0,2.303547E2,1.1559402E2,7.514789E1,1.6988205E2,6.0597506E0,1.867241E1,1.152642E0,1.2070526E0,6.454919E1,1.6580553E2,5.5004097E1,6.058992E1],"tree_param":{"num_deleted":"0","num_feature":"9","num_nodes":"31","size_leaf_vector":"1"}},{"base_weights":[-1.070277E-2,4.958878E-2,-7.496497E-2,-7.35432E-2,8.651244E-2,9.300209E-2,-6.0742196E-2,8.4215835E-2,4.2838183E-1,9.6962065E-2,-1.5484853E-1,6.1828397E-2,1.8679714E-1,1.029712E-1,-4.5242548E-1,-3.7339878E-1,3.6397538E-1,-1.1857442E-1,6.17104E-2,1.2822445E-2,3.6474015E-3,-6.802495E-2,-1.3394269E-2,1.0642134E-2,-4.5110945E-2,-8.2330086E-4,8.039583E-2,-2.6766306E-2,5.5117164E-2],"categories":[],"categories_nodes":[],"categories_segments":[],"categories_sizes":[],"default_left":[0,0,0,0,0,0,0,0,0,0,0,0,0,0,0,0,0,0,0,0,0,0,0,0,0,0,0,0,0],"id":35,"left_children":[1,3,-1,-1,5,7,-1,9,11,13,15,-1,17,19,21,23,25,27,-1,-1,-1,-1,-1,-1,-1,-1,-1,-1,-1],"loss_changes":[4.1333057E1,2.4946999E1,0E0,0E0,3.751472E0,1.8152976E0,0E0,1.8844104E0,1.3570414E0,1.971426E0,3.7007127E0,0E0,2.2539697E0,2.125617E0,6.463436E-1,2.7431574E0,2.6197286E0,1.9657362E0,0E0,0E0,0E0,0E0,0E0,0E0,0E0,0E0,0E0,0E0,0E0],"parents":[2147483647,0,0,1,1,4,4,5,5,7,7,8,8,9,9,10,10,12,12,13,13,14,14,15,15,16,16,17,17],"right_children":[2,4,-1,-1,6,8,-1,10,12,14,16,-1,18,20,22,24,26,28,-1,-1,-1,-1,-1,-1,-1,-1,-1,-1,-1],"split_conditions":[5E0,9.4404E4,-7.496497E-2,-7.35432E-2,9.4537E4,2.3E1,-6.0742196E-2,2.2E1,1.43237E5,2.00862E5,3.7E1,6.1828397E-2,7E0,6E0,5E0,1E1,1.60214E5,4.3E1,6.17104E-2,1.2822445E-2,3.6474015E-3,-6.802495E-2,-1.3394269E-2,1.0642134E-2,-4.5110945E-2,-8.2330086E-4,8.039583E-2,-2.6766306E-2,5.5117164E-2],"split_indices":[2,7,0,0,7,5,0,5,3,3,1,0,6,6,5,0,3,1,0,0,0,0,0,0,0,0,0,0,0],"split_type":[0,0,0,0,0,0,0,0,0,0,0,0,0,0,0,0,0,0,0,0,0,0,0,0,0,0,0,0,0],"sum_hessian":[6.914657E2,6.526234E2,3.88423E1,2.169791E1,6.309255E2,6.2728046E2,3.6450195E0,6.124857E2,1.4794754E1,5.8204706E2,3.0438686E1,4.69178E0,1.0102974E1,5.7655334E2,5.4937015E0,2.1614187E1,8.824499E0,7.3753524E0,2.727621E0,2.5514441E2,3.2140894E2,1.1960382E0,4.297663E0,6.747554E0,1.4866633E1,6.41271E0,2.4117887E0,6.2203283E0,1.155024E0],"tree_param":{"num_deleted":"0","num_feature":"9","num_nodes":"29","size_leaf_vector":"1"}},{"base_weights":[-1.0307648E-2,4.6012495E-2,-7.469279E-2,-7.3178515E-2,8.035354E-2,8.645244E-2,-5.987382E-2,2.4855712E-1,6.807624E-2,7.1689874E-2,1.8886453E-1,-4.8685886E-2,1.0505346E-1,9.2438124E-2,5.757067E-1,-1.7171368E-1,2.3057501E-1,2.9139838E-1,4.8093185E-2,1.9511655E-2,-2.046554E-2,6.565365E-2,1.10907E-2,4.8750605E-2,-1.5266643E-2,2.724165E-2,-3.2114156E-2,-1.01051135E-2,3.8357597E-2,-1.5971145E-2,7.5436607E-3],"categories":[],"categories_nodes":[],"categories_segments":[],"categories_sizes":[],"default_left":[0,0,0,0,0,0,0,0,0,0,0,0,0,0,0,0,0,0,0,0,0,0,0,0,0,0,0,0,0,0,0],"id":36,"left_children":[1,3,-1,-1,5,7,-1,9,11,-1,13,15,17,19,21,23,25,27,29,-1,-1,-1,-1,-1,-1,-1,-1,-1,-1,-1,-1],"loss_changes":[3.8166134E1,2.2905272E1,0E0,0E0,3.4469895E0,1.8505383E0,0E0,2.4985113E0,2.4421475E0,0E0,2.1759644E0,4.7273827E0,4.5395594E0,3.0748892E0,1.3748116E0,2.6255648E0,3.8390822E0,9.467599E0,4.5398426E0,0E0,0E0,0E0,0E0,0E0,0E0,0E0,0E0,0E0,0E0,0E0,0E0],"parents":[2147483647,0,0,1,1,4,4,5,5,7,7,8,8,10,10,11,11,12,12,13,13,14,14,15,15,16,16,17,17,18,18],"right_children":[2,4,-1,-1,6,8,-1,10,12,-1,14,16,18,20,22,24,26,28,30,-1,-1,-1,-1,-1,-1,-1,-1,-1,-1,-1,-1],"split_conditions":[5E0,9.4404E4,-7.469279E-2,-7.3178515E-2,9.4537E4,1.34119E5,-5.987382E-2,2.1E1,1.40208E5,7.1689874E-2,1.29871E5,9.5E1,1.43236E5,1.29102E5,3.3E1,2E0,3.8E1,2.6E1,1.43241E5,1.9511655E-2,-2.046554E-2,6.565365E-2,1.10907E-2,4.8750605E-2,-1.5266643E-2,2.724165E-2,-3.2114156E-2,-1.01051135E-2,3.8357597E-2,-1.5971145E-2,7.5436607E-3],"split_indices":[2,7,0,0,7,3,0,1,3,0,3,8,3,3,1,5,1,1,3,0,0,0,0,0,0,0,0,0,0,0,0],"split_type":[0,0,0,0,0,0,0,0,0,0,0,0,0,0,0,0,0,0,0,0,0,0,0,0,0,0,0,0,0,0,0],"sum_hessian":[6.8574207E2,6.495765E2,3.6165577E1,2.0231447E1,6.2934503E2,6.259022E2,3.442808E0,6.245274E1,5.6344946E2,3.6920362E0,5.87607E1,1.354441E2,4.2800537E2,4.8027946E1,1.0732754E1,9.428998E1,4.115413E1,9.923695E1,3.287684E2,3.311327E1,1.4914677E1,5.696517E0,5.036237E0,2.7932005E0,9.149677E1,3.4629795E1,6.524335E0,3.3924576E1,6.531238E1,5.4528145E1,2.7424026E2],"tree_param":{"num_deleted":"0","num_feature":"9","num_nodes":"31","size_leaf_vector":"1"}},{"base_weights":[-9.794963E-3,4.2810462E-2,-7.442148E-2,-7.280958E-2,7.476035E-2,8.049773E-2,-5.9000406E-2,7.2018854E-2,4.0775934E-1,2.3642164E-1,5.3830057E-2,5.9321795E-2,1.7752251E-1,3.2002556E-1,-1.7780602E-1,2.2814143E-2,1.8162069E-1,-1.1030105E-1,5.9147194E-2,1.180145E-2,4.30769E-2,-5.2447673E-2,3.595967E-2,5.705745E-3,-5.689557E-3,4.7258046E-2,3.8517707E-3,-2.5244858E-2,5.356627E-2],"categories":[],"categories_nodes":[],"categories_segments":[],"categories_sizes":[],"default_left":[0,0,0,0,0,0,0,0,0,0,0,0,0,0,0,0,0,0,0,0,0,0,0,0,0,0,0,0,0],"id":37,"left_children":[1,3,-1,-1,5,7,-1,9,11,13,15,-1,17,19,21,23,25,27,-1,-1,-1,-1,-1,-1,-1,-1,-1,-1,-1],"loss_changes":[3.5262573E1,2.1050392E1,0E0,0E0,3.1716056E0,1.7066989E0,0E0,1.8145385E0,1.2346694E0,2.154726E0,2.1817112E0,0E0,2.026272E0,2.0097451E0,4.042544E0,2.3441453E0,6.2517996E0,1.8026147E0,0E0,0E0,0E0,0E0,0E0,0E0,0E0,0E0,0E0,0E0,0E0],"parents":[2147483647,0,0,1,1,4,4,5,5,7,7,8,8,9,9,10,10,12,12,13,13,14,14,15,15,16,16,17,17],"right_children":[2,4,-1,-1,6,8,-1,10,12,14,16,-1,18,20,22,24,26,28,-1,-1,-1,-1,-1,-1,-1,-1,-1,-1,-1],"split_conditions":[5E0,9.4404E4,-7.442148E-2,-7.280958E-2,9.4537E4,2.3E1,-5.9000406E-2,3E0,1.43237E5,4.1E1,4.1E1,5.9321795E-2,7E0,3.1E1,1E1,2.1E1,4.3E1,4.3E1,5.9147194E-2,1.180145E-2,4.30769E-2,-5.2447673E-2,3.595967E-2,5.705745E-3,-5.689557E-3,4.7258046E-2,3.8517707E-3,-2.5244858E-2,5.356627E-2],"split_indices":[2,7,0,0,7,5,0,6,3,1,1,0,6,1,5,5,1,1,0,0,0,0,0,0,0,0,0,0,0],"split_type":[0,0,0,0,0,0,0,0,0,0,0,0,0,0,0,0,0,0,0,0,0,0,0,0,0,0,0,0,0],"sum_hessian":[6.8044574E2,6.467721E2,3.367362E1,1.8866016E1,6.2790607E2,6.246523E2,3.2538002E0,6.100664E2,1.4585859E1,5.957636E1,5.5049005E2,4.5603576E0,1.0025501E1,4.976056E1,9.8158E0,4.4392426E2,1.065658E2,7.3726044E0,2.6528974E0,3.1336342E1,1.8424217E1,5.4375405E0,4.3782597E0,2.8845297E2,1.5547128E2,2.3121922E1,8.3443886E1,6.2492104E0,1.1233937E0],"tree_param":{"num_deleted":"0","num_feature":"9","num_nodes":"29","size_leaf_vector":"1"}},{"base_weights":[-9.251044E-3,3.988352E-2,-7.4149646E-2,-7.243489E-2,6.962087E-2,7.5023875E-2,-5.81224E-2,-3.9375117E-1,8.0606714E-2,-6.225729E-1,3.3437997E-2,2.3708811E-1,6.2979184E-2,-2.688029E-1,-6.2461976E-2,8.0130264E-2,1.7181209E-1,-1.7640384E-1,8.058351E-2,2.683576E-3,-3.8496062E-2,5.9378706E-3,4.070276E-2,2.1871379E-4,-3.387592E-2,8.731469E-2,4.089597E-3],"categories":[],"categories_nodes":[],"categories_segments":[],"categories_sizes":[],"default_left":[0,0,0,0,0,0,0,0,0,0,0,0,0,0,0,0,0,0,0,0,0,0,0,0,0,0,0],"id":38,"left_children":[1,3,-1,-1,5,7,-1,9,11,13,-1,15,17,19,-1,-1,21,23,25,-1,-1,-1,-1,-1,-1,-1,-1],"loss_changes":[3.2593014E1,1.936019E1,0E0,0E0,2.921698E0,1.6659603E0,0E0,1.7221179E0,1.6895318E0,2.4667454E-1,0E0,3.1916795E0,2.3603427E0,3.0391824E-1,0E0,0E0,1.9795239E0,1.8993269E0,1.4597702E1,0E0,0E0,0E0,0E0,0E0,0E0,0E0,0E0],"parents":[2147483647,0,0,1,1,4,4,5,5,7,7,8,8,9,9,11,11,12,12,13,13,16,16,17,17,18,18],"right_children":[2,4,-1,-1,6,8,-1,10,12,14,-1,16,18,20,-1,-1,22,24,26,-1,-1,-1,-1,-1,-1,-1,-1],"split_conditions":[5E0,9.4404E4,-7.4149646E-2,-7.243489E-2,9.4537E4,3E0,-5.81224E-2,7E0,1.34119E5,8.1818184E1,3.3437997E-2,2.1E1,1.8E1,6E0,-6.2461976E-2,8.0130264E-2,1.29871E5,6E0,2.1E1,2.683576E-3,-3.8496062E-2,5.9378706E-3,4.070276E-2,2.1871379E-4,-3.387592E-2,8.731469E-2,4.089597E-3],"split_indices":[2,7,0,0,7,4,0,6,3,8,0,1,1,6,0,0,3,6,1,0,0,0,0,0,0,0,0],"split_type":[0,0,0,0,0,0,0,0,0,0,0,0,0,0,0,0,0,0,0,0,0,0,0,0,0,0,0],"sum_hessian":[6.754672E2,6.44113E2,3.1354242E1,1.759495E1,6.2651807E2,6.234409E2,3.0771215E0,6.5191307E0,6.169218E2,5.326052E0,1.1930783E0,6.1199314E1,5.557225E2,2.8347707E0,2.4912813E0,3.3367715E0,5.7862545E1,3.7450573E1,5.182719E2,1.642321E0,1.1924498E0,4.7269203E1,1.0593341E1,2.3276907E1,1.4173665E1,1.1143625E1,5.0712827E2],"tree_param":{"num_deleted":"0","num_feature":"9","num_nodes":"27","size_leaf_vector":"1"}},{"base_weights":[-8.892089E-3,3.701383E-2,-7.387596E-2,-7.2053E-2,6.471241E-2,6.9807686E-2,-5.7240363E-2,6.157401E-2,3.9118728E-1,6.689568E-2,-4.4376093E-1,-1.5350244E-2,5.058018E-1,1.2645651E-1,1.9647012E-2,-6.634347E-2,-1.7796187E-1,6.2251147E-2,1.805646E-1,7.3972857E-3,6.610746E-2,-9.455025E-3,6.6628065E-3,4.412716E-2,-4.6263825E-2,-2.5174355E-2,4.868606E-2],"categories":[],"categories_nodes":[],"categories_segments":[],"categories_sizes":[],"default_left":[0,0,0,0,0,0,0,0,0,0,0,0,0,0,0,0,0,0,0,0,0,0,0,0,0,0,0],"id":39,"left_children":[1,3,-1,-1,5,7,-1,9,11,13,15,-1,17,19,21,-1,23,-1,25,-1,-1,-1,-1,-1,-1,-1,-1],"loss_changes":[3.0124487E1,1.7811481E1,0E0,0E0,2.69342E0,1.6243036E0,0E0,1.6662621E0,1.1534839E0,1.6947279E0,6.010176E-1,0E0,1.240128E0,5.513872E0,3.413793E0,0E0,2.1421247E0,0E0,2.1188493E0,0E0,0E0,0E0,0E0,0E0,0E0,0E0,0E0],"parents":[2147483647,0,0,1,1,4,4,5,5,7,7,8,8,9,9,10,10,12,12,13,13,14,14,16,16,18,18],"right_children":[2,4,-1,-1,6,8,-1,10,12,14,16,-1,18,20,22,-1,24,-1,26,-1,-1,-1,-1,-1,-1,-1,-1],"split_conditions":[5E0,9.4404E4,-7.387596E-2,-7.2053E-2,9.4537E4,2.3E1,-5.7240363E-2,2.00862E5,1.8E1,6.6666664E1,5E0,-1.5350244E-2,1.43608E5,6.27451E1,8.784314E1,-6.634347E-2,1.1E1,6.2251147E-2,1.75683E5,7.3972857E-3,6.610746E-2,-9.455025E-3,6.6628065E-3,4.412716E-2,-4.6263825E-2,-2.5174355E-2,4.868606E-2],"split_indices":[2,7,0,0,7,5,0,3,1,8,5,0,3,8,8,0,5,0,3,0,0,0,0,0,0,0,0],"split_type":[0,0,0,0,0,0,0,0,0,0,0,0,0,0,0,0,0,0,0,0,0,0,0,0,0,0,0],"sum_hessian":[6.7046216E2,6.412662E2,2.9195984E1,1.6411982E1,6.248542E2,6.2194226E2,2.9119513E0,6.0756805E2,1.4374173E1,6.0209503E2,5.473025E0,2.1921115E0,1.2182062E1,2.656035E2,3.3649155E2,1.1830224E0,4.290003E0,5.3233933E0,6.8586683E0,2.572526E2,8.350882E0,1.08071815E2,2.2841974E2,1.4382206E0,2.8517818E0,3.3984165E0,3.4602518E0],"tree_param":{"num_deleted":"0","num_feature":"9","num_nodes":"27","size_leaf_vector":"1"}},{"base_weights":[-8.627592E-3,3.4236595E-2,-7.359912E-2,-7.166254E-2,6.0030613E-2,6.48376E-2,-5.635499E-2,2.0768301E-1,4.821459E-2,6.660662E-2,1.5476644E-1,-1.60263E-1,6.787581E-2,6.8837024E-2,4.5188642E-1,6.568424E-1,-2.9612428E-1,-1.3320535E-1,1.01549305E-1,1.7125422E-2,-2.04788E-2,5.9798155E-2,-1.4087185E-3,4.191638E-3,8.561595E-2,-5.6064863E-2,-6.884207E-3,-5.52315E-3,-7.575195E-2,6.263829E-2,6.091321E-3],"categories":[],"categories_nodes":[],"categories_segments":[],"categories_sizes":[],"default_left":[0,0,0,0,0,0,0,0,0,0,0,0,0,0,0,0,0,0,0,0,0,0,0,0,0,0,0,0,0,0,0],"id":40,"left_children":[1,3,-1,-1,5,7,-1,9,11,-1,13,15,17,19,21,23,25,27,29,-1,-1,-1,-1,-1,-1,-1,-1,-1,-1,-1,-1],"loss_changes":[2.7845245E1,1.6392488E1,0E0,0E0,2.4847853E0,1.4664383E0,0E0,2.1853278E0,2.2992105E0,0E0,1.5280632E0,5.568681E0,3.4726546E0,2.7098088E0,2.2130303E0,2.0370717E0,3.8236427E0,3.7753208E0,6.467632E0,0E0,0E0,0E0,0E0,0E0,0E0,0E0,0E0,0E0,0E0,0E0,0E0],"parents":[2147483647,0,0,1,1,4,4,5,5,7,7,8,8,10,10,11,11,12,12,13,13,14,14,15,15,16,16,17,17,18,18],"right_children":[2,4,-1,-1,6,8,-1,10,12,-1,14,16,18,20,22,24,26,28,30,-1,-1,-1,-1,-1,-1,-1,-1,-1,-1,-1,-1],"split_conditions":[5E0,9.4404E4,-7.359912E-2,-7.166254E-2,9.4537E4,1.3412E5,-5.635499E-2,2.1E1,1.3489E5,6.660662E-2,1.29871E5,6E0,5E0,1.29102E5,7.857143E1,7.3947365E1,1.3E1,1.5E1,6E0,1.7125422E-2,-2.04788E-2,5.9798155E-2,-1.4087185E-3,4.191638E-3,8.561595E-2,-5.6064863E-2,-6.884207E-3,-5.52315E-3,-7.575195E-2,6.263829E-2,6.091321E-3],"split_indices":[2,7,0,0,7,3,0,1,3,0,3,5,5,3,8,8,5,6,5,0,0,0,0,0,0,0,0,0,0,0,0],"split_type":[0,0,0,0,0,0,0,0,0,0,0,0,0,0,0,0,0,0,0,0,0,0,0,0,0,0,0,0,0,0,0],"sum_hessian":[6.6604626E2,6.3885815E2,2.7188076E1,1.53112135E1,6.2354694E2,6.207894E2,2.7575166E0,6.351307E1,5.5727637E2,3.4442198E0,6.0068848E1,4.741032E1,5.0986606E2,4.754899E1,1.251986E1,6.2124367E0,4.1197884E1,7.2711815E1,4.3715424E2,3.2649185E1,1.4899803E1,6.8204045E0,5.6994557E0,3.2715492E0,2.9408872E0,1.2009244E1,2.9188639E1,6.9101654E1,3.6101618E0,1.0707791E1,4.2644644E2],"tree_param":{"num_deleted":"0","num_feature":"9","num_nodes":"31","size_leaf_vector":"1"}},{"base_weights":[-8.252563E-3,3.1767126E-2,-7.331787E-2,-7.1262196E-2,5.5794172E-2,-4.696706E-1,6.308506E-2,-6.647468E-1,2.7875792E-2,4.286503E-2,1.8669318E-1,4.640586E-3,-7.9435414E-1,5.0846633E-2,-1.0580852E0,4.2825678E-1,4.8816685E-2,-2.3480234E-1,-8.032434E-2,1.0359045E-1,-1.4554125E-2,-1.0787321E-1,-2.7046427E-2,2.4943647E-1,7.099117E-1,-5.536156E-1,1.7404658E-1,3.450841E-3,-2.987808E-2,2.122784E-3,1.89804E-2,-1.3357677E-2,5.4231035E-3,5.9979152E-2,1.0371141E-2,7.858929E-2,1.7512226E-2,-6.080274E-2,3.2845203E-2,5.9884835E-2,-7.865801E-4],"categories":[],"categories_nodes":[],"categories_segments":[],"categories_sizes":[],"default_left":[0,0,0,0,0,0,0,0,0,0,0,0,0,0,0,0,0,0,0,0,0,0,0,0,0,0,0,0,0,0,0,0,0,0,0,0,0,0,0,0,0],"id":41,"left_children":[1,3,-1,-1,5,7,9,11,-1,13,15,-1,17,19,21,23,25,27,-1,29,31,-1,-1,33,35,37,39,-1,-1,-1,-1,-1,-1,-1,-1,-1,-1,-1,-1,-1,-1],"loss_changes":[2.5751366E1,1.5098505E1,0E0,0E0,2.4180412E0,1.6667944E0,1.5310445E0,7.44225E-1,0E0,4.7155375E0,2.8524196E0,0E0,7.2924757E-1,1.8215995E0,5.0607824E-1,1.3953052E0,4.325007E0,1.7343898E-1,0E0,3.2813284E0,3.3716981E0,0E0,0E0,1.1517346E0,1.6200566E0,2.8750186E0,5.443119E0,0E0,0E0,0E0,0E0,0E0,0E0,0E0,0E0,0E0,0E0,0E0,0E0,0E0,0E0],"parents":[2147483647,0,0,1,1,4,4,5,5,6,6,7,7,9,9,10,10,12,12,13,13,14,14,15,15,16,16,17,17,19,19,20,20,23,23,24,24,25,25,26,26],"right_children":[2,4,-1,-1,6,8,10,12,-1,14,16,-1,18,20,22,24,26,28,-1,30,32,-1,-1,34,36,38,40,-1,-1,-1,-1,-1,-1,-1,-1,-1,-1,-1,-1,-1,-1],"split_conditions":[5E0,9.4404E4,-7.331787E-2,-7.1262196E-2,3E0,7E0,1.82702E5,1.6666666E1,2.7875792E-2,1.82264E5,1.98318E5,4.640586E-3,2.7E1,1.43236E5,1.1E1,1.85326E5,5E0,8.784314E1,-8.032434E-2,1.40208E5,1E1,-1.0787321E-1,-2.7046427E-2,3E0,3.2E1,1E1,1.2E1,3.450841E-3,-2.987808E-2,2.122784E-3,1.89804E-2,-1.3357677E-2,5.4231035E-3,5.9979152E-2,1.0371141E-2,7.858929E-2,1.7512226E-2,-6.080274E-2,3.2845203E-2,5.9884835E-2,-7.865801E-4],"split_indices":[2,7,0,0,4,6,3,8,0,3,3,0,1,3,5,3,5,8,0,3,0,0,0,5,1,6,5,0,0,0,0,0,0,0,0,0,0,0,0,0,0],"split_type":[0,0,0,0,0,0,0,0,0,0,0,0,0,0,0,0,0,0,0,0,0,0,0,0,0,0,0,0,0,0,0,0,0,0,0,0,0,0,0,0,0],"sum_hessian":[6.62034E2,6.367136E2,2.5320383E1,1.4287107E1,6.224265E2,7.6501527E0,6.1477637E2,6.380632E0,1.2695208E0,5.295057E2,8.527067E1,1.0449423E0,5.3356895E0,5.266415E2,2.8641973E0,3.021937E1,5.50513E1,2.3768415E0,2.958848E0,2.912073E2,2.3543419E2,1.1662326E0,1.6979647E0,1.9637377E1,1.0581992E1,8.885555E0,4.6165745E1,1.1394286E0,1.237413E0,1.9445766E2,9.674963E1,8.130287E1,1.5413132E2,2.2590363E0,1.7378342E1,5.488946E0,5.0930467E0,7.200907E0,1.6846478E0,9.772189E0,3.6393555E1],"tree_param":{"num_deleted":"0","num_feature":"9","num_nodes":"41","size_leaf_vector":"1"}},{"base_weights":[-8.015562E-3,2.9347153E-2,-7.3030986E-2,-7.085072E-2,5.1736318E-2,5.6212515E-2,-5.5273596E-2,4.8462633E-2,3.6355808E-1,2.0291843E-1,3.149032E-2,6.897129E-2,2.1057403E-1,2.8190637E-1,-1.8186435E-1,2.3833513E-3,1.5199956E-1,-8.700636E-2,7.226033E-1,2.1830563E-4,3.2105245E-2,-4.2183794E-2,4.5450956E-2,1.5424399E-2,-1.5595582E-3,4.3544836E-2,2.1923175E-3,-2.3025842E-2,5.4800533E-2,1.9018829E-2,6.6133395E-2],"categories":[],"categories_nodes":[],"categories_segments":[],"categories_sizes":[],"default_left":[0,0,0,0,0,0,0,0,0,0,0,0,0,0,0,0,0,0,0,0,0,0,0,0,0,0,0,0,0,0,0],"id":42,"left_children":[1,3,-1,-1,5,7,-1,9,11,13,15,-1,17,19,21,23,25,27,29,-1,-1,-1,-1,-1,-1,-1,-1,-1,-1,-1,-1],"loss_changes":[2.3814653E1,1.3910494E1,0E0,0E0,2.2384267E0,1.4584783E0,0E0,1.5812467E0,1.0898896E0,1.8680756E0,1.917805E0,0E0,2.0634632E0,2.0372105E0,3.5759423E0,2.0842693E0,5.5800934E0,1.8786919E0,1.4470887E-1,0E0,0E0,0E0,0E0,0E0,0E0,0E0,0E0,0E0,0E0,0E0,0E0],"parents":[2147483647,0,0,1,1,4,4,5,5,7,7,8,8,9,9,10,10,12,12,13,13,14,14,15,15,16,16,17,17,18,18],"right_children":[2,4,-1,-1,6,8,-1,10,12,14,16,-1,18,20,22,24,26,28,30,-1,-1,-1,-1,-1,-1,-1,-1,-1,-1,-1,-1],"split_conditions":[5E0,9.4404E4,-7.3030986E-2,-7.085072E-2,9.4537E4,2.3E1,-5.5273596E-2,3E0,1.34124E5,4.1E1,4.1E1,6.897129E-2,7E0,1.43232E5,1.3E1,2.1E1,4.3E1,4.3E1,2.4E1,2.1830563E-4,3.2105245E-2,-4.2183794E-2,4.5450956E-2,1.5424399E-2,-1.5595582E-3,4.3544836E-2,2.1923175E-3,-2.3025842E-2,5.4800533E-2,1.9018829E-2,6.6133395E-2],"split_indices":[2,7,0,0,7,5,0,6,3,1,1,0,6,3,5,1,1,1,1,0,0,0,0,0,0,0,0,0,0,0,0],"split_type":[0,0,0,0,0,0,0,0,0,0,0,0,0,0,0,0,0,0,0,0,0,0,0,0,0,0,0,0,0,0,0],"sum_hessian":[6.582168E2,6.3463336E2,2.3583427E1,1.333446E1,6.2129895E2,6.1871625E2,2.582662E0,6.046279E2,1.4088334E1,5.877676E1,5.458512E2,1.958495E0,1.212984E1,4.898792E1,9.788843E0,4.4048038E2,1.053708E2,8.196364E0,3.933475E0,1.7191965E1,3.1795952E1,6.7933936E0,2.9954493E0,4.427738E1,3.96203E2,2.2631758E1,8.273904E1,6.950735E0,1.2456295E0,1.6537426E0,2.2797325E0],"tree_param":{"num_deleted":"0","num_feature":"9","num_nodes":"31","size_leaf_vector":"1"}},{"base_weights":[-7.4384264E-3,2.7451796E-2,-7.273726E-2,-7.042695E-2,4.8327286E-2,-4.509733E-1,5.5147033E-2,-6.4109784E-1,2.6768787E-2,2.0136526E-1,3.887985E-2,4.9842456E-3,-7.6962715E-1,7.540774E-2,1.4162977E-1,-1.8897395E-1,5.5682443E-2,-2.2925209E-1,-7.812969E-2,5.7556648E-2,4.842916E-1,-3.191234E-1,1.5987416E-1,8.477679E-2,3.1439584E-2,3.271027E-3,-2.9092282E-2,1.5656153E-2,-1.935111E-2,7.839877E-2,1.6216261E-2,-1.6912457E-3,-3.4722615E-2,5.6572657E-2,-2.9483482E-3,-1.3403355E-2,3.7897723E-3],"categories":[],"categories_nodes":[],"categories_segments":[],"categories_sizes":[],"default_left":[0,0,0,0,0,0,0,0,0,0,0,0,0,0,0,0,0,0,0,0,0,0,0,0,0,0,0,0,0,0,0,0,0,0,0,0,0],"id":43,"left_children":[1,3,-1,-1,5,7,9,11,-1,13,15,-1,17,-1,19,21,23,25,-1,27,29,31,33,-1,35,-1,-1,-1,-1,-1,-1,-1,-1,-1,-1,-1,-1],"loss_changes":[2.2044634E1,1.2831883E1,0E0,0E0,2.1404936E0,1.531473E0,1.4521984E0,7.080028E-1,0E0,2.7978055E0,2.1300545E0,0E0,6.7163086E-1,0E0,1.6471987E0,1.7876116E0,1.341743E1,1.6218969E-1,0E0,2.335647E0,1.4765527E0,1.1921606E0,1.3390449E0,0E0,2.0390792E0,0E0,0E0,0E0,0E0,0E0,0E0,0E0,0E0,0E0,0E0,0E0,0E0],"parents":[2147483647,0,0,1,1,4,4,5,5,6,6,7,7,9,9,10,10,12,12,14,14,15,15,16,16,17,17,19,19,20,20,21,21,22,22,24,24],"right_children":[2,4,-1,-1,6,8,10,12,-1,14,16,-1,18,-1,20,22,24,26,-1,28,30,32,34,-1,36,-1,-1,-1,-1,-1,-1,-1,-1,-1,-1,-1,-1],"split_conditions":[5E0,9.4404E4,-7.273726E-2,-7.042695E-2,3E0,7E0,1.34119E5,1.6666666E1,2.6768787E-2,2.1E1,1.8E1,4.9842456E-3,2.7E1,7.540774E-2,1.29871E5,1.73782E5,2.1E1,8.784314E1,-7.812969E-2,1.29102E5,9E0,7E0,1.80006E5,8.477679E-2,2.3E1,3.271027E-3,-2.9092282E-2,1.5656153E-2,-1.935111E-2,7.839877E-2,1.6216261E-2,-1.6912457E-3,-3.4722615E-2,5.6572657E-2,-2.9483482E-3,-1.3403355E-2,3.7897723E-3],"split_indices":[2,7,0,0,4,6,3,8,0,1,1,0,1,0,3,3,1,8,0,3,5,5,3,0,1,0,0,0,0,0,0,0,0,0,0,0,0],"split_type":[0,0,0,0,0,0,0,0,0,0,0,0,0,0,0,0,0,0,0,0,0,0,0,0,0,0,0,0,0,0,0,0,0,0,0,0,0],"sum_hessian":[6.547261E2,6.3275775E2,2.196831E1,1.2448407E1,6.203093E2,7.4808326E0,6.128285E2,6.2228384E0,1.2579943E0,6.0214E1,5.526145E2,1.0308656E0,5.1919727E0,3.0692189E0,5.7144783E1,3.7248917E1,5.153656E2,2.3558817E0,2.836091E0,4.6824276E1,1.0320508E1,2.718999E1,1.0058925E1,1.03627615E1,5.0500284E2,1.1327183E0,1.2231635E0,3.1886013E1,1.4938261E1,2.3995001E0,7.921008E0,9.258323E0,1.7931667E1,1.8251646E0,8.233761E0,4.1359154E1,4.6364368E2],"tree_param":{"num_deleted":"0","num_feature":"9","num_nodes":"37","size_leaf_vector":"1"}},{"base_weights":[-6.9353543E-3,2.5667654E-2,-7.2435535E-2,-6.998976E-2,4.5152616E-2,4.9333178E-2,-5.4191697E-2,4.1724198E-2,3.5414153E-1,4.6783514E-2,-4.3842712E-1,6.729648E-2,2.0617975E-1,5.85562E-2,-1.6993605E-1,-6.28402E-2,-1.9084358E-1,-7.737497E-2,7.021144E-1,-3.1011304E-2,4.8772055E-3,-2.7713863E-2,2.3744782E-2,3.8693655E-2,-4.3635596E-2,-2.1441292E-2,5.330862E-2,1.8640807E-2,6.437209E-2],"categories":[],"categories_nodes":[],"categories_segments":[],"categories_sizes":[],"default_left":[0,0,0,0,0,0,0,0,0,0,0,0,0,0,0,0,0,0,0,0,0,0,0,0,0,0,0,0,0],"id":44,"left_children":[1,3,-1,-1,5,7,-1,9,11,13,15,-1,17,19,21,-1,23,25,27,-1,-1,-1,-1,-1,-1,-1,-1,-1,-1],"loss_changes":[2.0408499E1,1.1841838E1,0E0,0E0,2.0252986E0,1.4174109E0,0E0,1.4868166E0,1.0129218E0,1.5362248E0,4.720652E-1,0E0,1.8842921E0,1.762902E0,3.1348054E0,0E0,1.7480656E0,1.7118337E0,1.2904239E-1,0E0,0E0,0E0,0E0,0E0,0E0,0E0,0E0,0E0,0E0],"parents":[2147483647,0,0,1,1,4,4,5,5,7,7,8,8,9,9,10,10,12,12,13,13,14,14,16,16,17,17,18,18],"right_children":[2,4,-1,-1,6,8,-1,10,12,14,16,-1,18,20,22,-1,24,26,28,-1,-1,-1,-1,-1,-1,-1,-1,-1,-1],"split_conditions":[5E0,9.4404E4,-7.2435535E-2,-6.998976E-2,9.4537E4,2.3E1,-5.4191697E-2,2.00862E5,1.34124E5,2.2E1,5E0,6.729648E-2,7E0,8E0,3.7E1,-6.28402E-2,1.1E1,4.3E1,2.4E1,-3.1011304E-2,4.8772055E-3,-2.7713863E-2,2.3744782E-2,3.8693655E-2,-4.3635596E-2,-2.1441292E-2,5.330862E-2,1.8640807E-2,6.437209E-2],"split_indices":[2,7,0,0,7,5,0,3,3,5,5,0,6,0,1,0,5,1,1,0,0,0,0,0,0,0,0,0,0],"split_type":[0,0,0,0,0,0,0,0,0,0,0,0,0,0,0,0,0,0,0,0,0,0,0,0,0,0,0,0,0],"sum_hessian":[6.510261E2,6.3055945E2,2.046669E1,1.1624389E1,6.1893506E2,6.1651355E2,2.4214892E0,6.026075E2,1.39061E1,5.972172E2,5.390264E0,1.8929734E0,1.2013127E1,5.671388E2,3.0078423E1,1.1502709E0,4.239993E0,8.18008E0,3.833047E0,6.821538E0,5.6031726E2,2.1499544E1,8.578879E0,1.3962853E0,2.843708E0,6.9727073E0,1.207373E0,1.645542E0,2.187505E0],"tree_param":{"num_deleted":"0","num_feature":"9","num_nodes":"29","size_leaf_vector":"1"}},{"base_weights":[-6.7311767E-3,2.3713449E-2,-7.2124675E-2,-6.953814E-2,4.1893985E-2,4.5852177E-2,-5.3301122E-2,1.05238624E-1,9.002723E-3,-4.374343E-2,1.650194E-1,1.4612563E-1,-4.4945076E-2,-1.2562223E-1,7.316138E-1,-1.9429956E-2,2.497967E-1,1.9749035E-1,-9.2687154E-1,-6.29868E-2,4.2569253E-1,2.8904877E-3,-2.7750066E-2,-1.1003688E-2,7.82121E-2,-4.4432515E-3,6.675176E-2,-4.545199E-3,2.8700747E-2,1.5348276E-3,2.8683484E-2,1.8432048E-3,-1.1186755E-1,2.48721E-2,-6.6711833E-3,-1.6475817E-2,5.015616E-2],"categories":[],"categories_nodes":[],"categories_segments":[],"categories_sizes":[],"default_left":[0,0,0,0,0,0,0,0,0,0,0,0,0,0,0,0,0,0,0,0,0,0,0,0,0,0,0,0,0,0,0,0,0,0,0,0,0],"id":45,"left_children":[1,3,-1,-1,5,7,-1,9,11,13,15,17,19,21,23,25,27,29,31,33,35,-1,-1,-1,-1,-1,-1,-1,-1,-1,-1,-1,-1,-1,-1,-1,-1],"loss_changes":[1.8886076E1,1.0926E1,0E0,0E0,1.8762072E0,1.3484106E0,0E0,2.1091866E0,2.8294263E0,4.432633E0,2.6418414E0,6.1341248E0,2.358643E0,2.5294971E0,1.9782162E0,2.0090725E0,4.7914705E0,3.3930492E0,2.7812982E0,2.7480636E0,1.7575115E0,0E0,0E0,0E0,0E0,0E0,0E0,0E0,0E0,0E0,0E0,0E0,0E0,0E0,0E0,0E0,0E0],"parents":[2147483647,0,0,1,1,4,4,5,5,7,7,8,8,9,9,10,10,11,11,12,12,13,13,14,14,15,15,16,16,17,17,18,18,19,19,20,20],"right_children":[2,4,-1,-1,6,8,-1,10,12,14,16,18,20,22,24,26,28,30,32,34,36,-1,-1,-1,-1,-1,-1,-1,-1,-1,-1,-1,-1,-1,-1,-1,-1],"split_conditions":[5E0,9.4404E4,-7.2124675E-2,-6.953814E-2,9.4537E4,4.8E1,-5.3301122E-2,9E0,9E0,2.1052631E1,2.7E1,1.5E1,1.5E1,6E0,1.39542E5,1.5E1,1.3981E5,5E0,9.117647E1,1.33251E5,1.43248E5,2.8904877E-3,-2.7750066E-2,-1.1003688E-2,7.82121E-2,-4.4432515E-3,6.675176E-2,-4.545199E-3,2.8700747E-2,1.5348276E-3,2.8683484E-2,1.8432048E-3,-1.1186755E-1,2.48721E-2,-6.6711833E-3,-1.6475817E-2,5.015616E-2],"split_indices":[2,7,0,0,7,8,0,5,5,8,1,6,6,5,3,6,3,5,8,3,3,0,0,0,0,0,0,0,0,0,0,0,0,0,0,0,0],"split_type":[0,0,0,0,0,0,0,0,0,0,0,0,0,0,0,0,0,0,0,0,0,0,0,0,0,0,0,0,0,0,0,0,0,0,0,0,0],"sum_hessian":[6.478351E2,6.2876434E2,1.9070776E1,1.08581295E1,6.179062E2,6.156075E2,2.2987301E0,2.3501012E2,3.8059735E2,6.7373695E1,1.6763641E2,1.0697721E2,2.7362012E2,6.169645E1,5.677249E0,5.3030087E1,1.1460633E2,1.028688E2,4.108416E0,2.6435245E2,9.267687E0,3.7409084E1,2.4287367E1,1.6235961E0,4.053653E0,5.170159E1,1.3284967E0,3.4518093E1,8.008824E1,5.3128685E1,4.974011E1,1.8864473E0,2.221969E0,1.5591754E1,2.487607E2,2.561775E0,6.7059116E0],"tree_param":{"num_deleted":"0","num_feature":"9","num_nodes":"37","size_leaf_vector":"1"}},{"base_weights":[-6.470496E-3,2.1972612E-2,-7.180356E-2,-6.907112E-2,3.8950615E-2,-4.1997045E-1,4.5084335E-2,-6.0858536E-1,2.6568716E-2,2.5825016E-2,1.6370158E-1,5.4797E-3,-7.347192E-1,3.3571333E-2,-1.0251713E0,3.885254E-1,3.7070245E-2,-2.1200839E-1,-7.545237E-2,8.455725E-2,-2.9487561E-2,-1.0338795E-1,-2.6854033E-2,8.8686323E-1,2.7956018E-1,-5.20071E-1,1.5414883E-1,4.2906725E-3,-2.806509E-2,